tree
version=v4
num_class=1
num_tree_per_iteration=1
label_index=0
max_feature_idx=17
objective=binary sigmoid:1
feature_names=Column_0 Column_1 Column_2 Column_3 Column_4 Column_5 Column_6 Column_7 Column_8 Column_9 Column_10 Column_11 Column_12 Column_13 Column_14 Column_15 Column_16 Column_17
feature_infos=[38:87] [0:1] [0:1] [2.2276284387346923:6.1780659036068206] [0.83527052667534596:6.91465210067798] [0.64477049306171985:7.1618768678790046] [1.8843850137714033:7.14762987747394] [1.2368330863076002:6.5839225884378081] [1.9928918197834813:6.2966076679794574] [1.5497261250489436:6.8311392216690905] [1.1935586366494937:7.3050032719409908] [0.032074191111900602:7.6608650334716577] [0.591822798809026:7.0809415078672684] [1.7967485948137092:6.207175599709049] [1.3216662507849068:6.6494551902487249] [1.548528129160325:6.27664661323006] [2.5087394355379646:6.3944576187982332] [2.0267600654670952:6.7951709399588038]
tree_sizes=1343 2186 2283 3290 3314 3317 3338 3320 3324 3339 3335 3349 3351 3364 3343 3335 3348 3360 3353 3365 3364 3349 3370

Tree=0
num_leaves=13
num_cat=0
split_feature=4 10 3 17 7 10 7 6 6 17 7 5
split_gain=199.972 56.0454 17.6355 13.6672 6.71475 18.963 5.97692 9.52381 4.15584 3.42857 3.08489 0.47619
threshold=4.4314831441834075 2.5840887326396684 4.8987409237177406 3.306860842606433 2.6136695907792631 5.5815922395812914 4.8208368123050134 5.6552532517609118 5.94145434139865 4.949041317709912 6.0345231431036046 6.1703657070910696
decision_type=2 2 2 2 2 2 2 2 2 2 2 2
left_child=2 11 -1 -3 5 -5 7 -4 -6 -10 -8 -2
right_child=1 3 6 4 8 -7 10 -9 9 -11 -12 -13
leaf_value=0.20000000000000001 -0.20000000000000001 -0.13333333333333333 0.1333333333333333 -0.15555555555555556 0.20000000000000001 0.19999999999999996 -0.20000000000000001 -0.19999999999999993 0.19999999999999996 0 -0.040000000000000008 -0.13333333333333328
leaf_weight=1.2499999999999989 3.7499999999999991 1.4999999999999989 1.4999999999999993 2.2499999999999991 35 4.5 33.5 1.9999999999999998 1.4999999999999993 1.9999999999999998 1.2499999999999989 1.4999999999999998
leaf_count=5 15 6 6 9 140 18 134 8 6 8 5 6
internal_value=0 0.128846 -0.16962 0.163636 0.173481 0.0814815 -0.181699 -0.0571429 0.18961 0.0857143 -0.194245 -0.180952
internal_weight=91.5 52 39.5 46.75 45.25 6.75 38.25 3.5 38.5 3.5 34.75 5.25
internal_count=366 208 158 187 181 27 153 14 154 14 139 21
is_linear=0
shrinkage=0.1


Tree=1
num_leaves=20
num_cat=0
split_feature=4 11 8 8 8 7 3 9 9 8 6 17 6 11 8 1 3 4 4
split_gain=163.617 30.2676 21.9437 18.509 16.5657 10.0137 8.13612 4.46816 2.76631 2.28237 0.557119 0.392369 0.0143121 0.00418716 0.00227023 1.42109e-14 1.42109e-14 1.42109e-14 1.77636e-15
threshold=4.4314831441834075 5.1098806585726555 5.0262460147884811 4.2578882842912149 6.1276517335202145 4.6340389000750699 4.3480475817070348 6.2029790769381021 2.972222234250065 5.4043564869637679 4.5154815347490116 3.990694318298726 6.0084794178786263 5.8008031112306435 5.1863557433194254 1.0000000180025095e-35 5.253108448216957 2.7984433491532879 5.1982357093282703
decision_type=2 2 2 2 2 2 2 2 2 2 2 2 2 2 2 2 2 2 2
left_child=3 2 -2 -1 8 -5 -6 10 -3 13 14 -10 16 15 18 -7 -13 -17 -4
right_child=1 4 7 5 6 9 -8 -9 11 -11 -12 12 -14 -15 -16 17 -18 -19 -20
leaf_value=0.1911917302662367 0.18187308119005774 0.028207969913450804 -0.18187308119005752 0.1115504266651257 -0.1855939494842089 -0.18187308119005771 0.12357410596737955 0.040281889805828565 0.13353935231978989 -0.044387935523738681 -0.10868764698193097 0.18187308119005771 0.19279262109354617 -0.18729639085809788 -0.18626845212096294 -0.18187308119005768 0.18187308119005771 -0.18187308119005771 -0.18187308119005757
leaf_weight=1.4926175475120533 3.2177154421806318 1.2425497174262989 1.237582862377167 1.2403340637683857 1.9879498481750482 10.395696043968199 1.4885600209236143 1.2417096644639967 1.7353672087192524 1.2461088299751271 1.2425497174262998 30.692054986953735 1.2450331449508656 1.486475035548209 2.2372783571481705 20.296358942985538 2.722682297229766 2.9701988697051993 1.2375828623771665
leaf_count=6 13 5 5 5 8 42 6 5 7 5 5 124 5 6 9 82 11 12 5
internal_value=1.08744e-06 0.117068 -0.0352123 -0.154168 0.155641 -0.167865 -0.0532154 -0.132273 0.174933 -0.177387 -0.168254 0.179942 0.182265 -0.182102 -0.18396 -0.181873 0.181873 -0.181873 -0.181873
internal_weight=90.6564 51.5286 10.4144 39.1278 41.1142 37.6352 3.47651 7.1967 37.6377 36.3948 5.95499 36.3951 34.6598 35.1487 4.71244 33.6623 33.4147 23.2666 2.47517
internal_count=366 208 42 158 166 152 14 29 152 147 24 147 140 142 19 136 135 94 10
is_linear=0
shrinkage=0.1


Tree=2
num_leaves=21
num_cat=0
split_feature=4 10 8 8 17 7 9 9 8 7 13 7 4 6 7 9 17 10 0 4
split_gain=136.075 38.7937 15.3882 12.8205 10.8806 8.3614 6.73553 1.98879 1.98648 0.381271 0.204641 0.453174 0.012034 0.00936021 0.00226719 0.00198188 0.000858376 2.08979e-06 1.42109e-14 1.42109e-14
threshold=4.4314831441834075 2.5840887326396684 4.2578882842912149 6.1276517335202145 3.306860842606433 4.6340389000750699 5.2649492840782841 2.972222234250065 5.4043564869637679 5.1132184412459205 3.2725842339671702 4.3080461080038317 5.3663234958577624 6.1247886645703939 4.7122348544968373 6.6093377245031961 3.8476980180717706 5.9934630459159832 66.500000000000014 4.7114516436938683
decision_type=2 2 2 2 2 2 2 2 2 2 2 2 2 2 2 2 2 2 2 2
left_child=2 9 -1 4 -3 -4 -5 -6 14 -2 11 -9 -11 15 -7 16 -12 18 -16 -18
right_child=1 3 5 6 7 8 -8 10 -10 12 13 -13 -14 -15 17 -17 19 -19 -20 -21
leaf_value=0.17539686314575409 -0.1147500684999751 -0.11412319907567657 0.10126703598367948 -0.17109525882472401 0.048683189289306483 -0.17200328658734043 0.11242830393395098 0.094563392191523862 -0.03992996509466476 -0.16822492968042413 0.1709669497862476 0.17461118839291803 -0.18060212984250656 0.17738771826676072 -0.16825816740612268 0.17246567968565935 0.16825816740612271 -0.16813519218660569 -0.16825816740612271 0.16825816740612271
leaf_weight=1.4655652344226826 1.7037363052368153 1.4748921990394581 1.230150595307349 1.9429188966751092 1.4813227057456959 1.6956903040409077 1.4732590913772581 1.2131713926792138 1.2466651499271382 2.1697245091199879 1.2137983590364445 1.6958801150321958 1.2313327193260191 1.2268474251031865 26.039105594158176 1.2161604613065709 2.1699254661798468 1.4461204707622517 5.0631594210863105 30.137853696942329
leaf_count=6 7 6 5 8 6 7 6 5 5 9 5 7 5 5 108 5 9 6 21 125
internal_value=-2.99598e-06 0.107961 -0.142359 0.137444 0.152656 -0.15504 -0.048823 0.162406 -0.163924 -0.153363 0.16674 0.141229 -0.172706 0.168803 -0.168438 0.1685 0.168356 -0.168253 -0.168258 0.168258
internal_weight=88.5373 50.3508 38.1865 45.246 41.8299 36.7209 3.41618 40.355 35.4907 5.10479 38.8736 2.90905 3.40106 35.9646 34.2441 34.7377 33.5216 32.5484 31.1023 32.3078
internal_count=366 208 158 187 173 152 14 167 147 21 161 12 14 149 142 144 139 135 129 134
is_linear=0
shrinkage=0.1


Tree=3
num_leaves=31
num_cat=0
split_feature=11 8 3 6 8 7 3 8 10 0 11 14 8 6 14 13 15 11 5 17 3 5 15 0 17 13 5 5 6 0
split_gain=95.9596 26.2343 23.8123 14.8378 10.0568 7.11107 3.53901 1.6135 2.83894 1.57236 0.988729 1.73829 2.86042 0.580939 0.4415 0.34613 0.32206 0.0937646 0.0204106 0.0253092 0.00316448 0.00170888 0.00154529 0.000525658 0.000283098 1.44397e-05 1.17405e-06 2.56745e-07 6.31715e-10 1.42109e-14
threshold=5.1098806585726555 4.6162704979575349 5.2766734605898913 5.6512079367284809 6.1276517335202145 4.8208368123050134 4.2105118099646557 5.1530690075492034 4.850501003731801 57.500000000000007 5.5235924540262404 4.996860231341878 4.4316580092850906 6.0416782355147554 4.9682812706754396 4.779762445209661 5.8434175007286511 5.8008031112306435 4.8986423119206224 4.9809204468225614 5.1804496119265249 4.58899006120149 4.8880927159112355 55.500000000000007 4.2696304077567344 3.2725842339671702 4.8140902141546595 6.7640598033826596 4.2933063000896823 58.500000000000007
decision_type=2 2 2 2 2 2 2 2 2 2 2 2 2 2 2 2 2 2 2 2 2 2 2 2 2 2 2 2 2 2
left_child=1 15 4 23 10 -3 -6 14 16 -5 11 12 -2 18 28 -1 -9 26 19 -12 24 -13 -17 -4 -20 -26 -11 29 -7 -27
right_child=2 5 3 9 6 7 -8 8 -10 17 13 21 -14 -15 -16 22 -18 -19 20 -21 -22 -23 -24 -25 25 27 -28 -29 -30 -31
leaf_value=0.094368375652655087 0.15768741416156912 0.09941557789743774 0.16069054579438075 -0.046551664844808556 -0.15991490965526856 -0.15768932056295126 0.063380542798289807 -0.10114358494158651 0.039906990852179802 -0.15768918605109342 0.17789345942216686 0.16252193226293535 -0.061836237069113842 0.087936585293868552 -0.094771862984726396 0.16239260913047818 -0.16229273294885982 -0.18842747665399828 0.15926307448423591 0.15933489546151783 0.16305001324159474 0.15765716707317778 0.15746851827316918 0.15768741416156906 0.15732208027289157 0.15768741416156895 -0.15756091775037814 0.15763901470866581 -0.15768741416156917 0.15768741416156917
leaf_weight=1.1589606106281274 1.1599973589181893 1.2135649472475041 1.1714483648538574 1.406055614352226 1.4057504832744592 1.8560123443603576 1.4336356818675993 1.4470057189464562 1.2056641429662702 1.8560110926628115 1.2113719582557743 1.1820164322853091 1.2155541181564329 1.2016291916370381 1.1596000343561161 1.4162284582853319 2.1278931945562363 1.4721645414829252 1.1679663211107314 1.867974057793617 1.1813149601221073 1.8557330369949339 1.1587916463613508 1.1599973589181898 1.1580107361078287 5.5679873228073182 1.1593113243579862 1.159734621644019 27.375937670469284 14.383967250585554
leaf_count=5 5 5 5 6 6 8 6 6 5 8 5 5 5 5 5 6 9 6 5 8 5 8 5 5 5 24 5 5 118 62
internal_value=-5.41423e-06 -0.112676 0.0996098 -0.05435 0.133694 -0.138581 -0.0471707 -0.146792 -0.0927888 -0.138827 0.14866 0.109439 0.0453586 0.156007 -0.155287 0.139751 -0.137541 -0.16774 0.15896 0.166636 0.158 0.15955 0.160177 0.159196 0.157745 0.157666 -0.15764 0.157685 -0.157688 0.157687
internal_weight=85.4973 40.1197 45.3776 8.22499 37.1526 36.3857 2.83939 35.1721 4.78056 5.89354 34.3133 5.4133 2.37555 28.9 30.3916 3.73398 3.5749 4.48749 27.6983 3.07935 24.619 3.03775 2.57502 2.33145 23.4377 22.2697 3.01532 21.1117 29.232 19.952
internal_count=366 172 194 35 159 156 12 151 20 25 147 23 10 124 131 16 15 19 119 13 106 13 11 10 101 96 13 91 126 86
is_linear=0
shrinkage=0.1


Tree=4
num_leaves=31
num_cat=0
split_feature=4 10 8 8 17 7 3 8 6 10 7 4 14 17 13 5 3 15 4 3 10 7 3 3 5 0 13 7 3 0
split_gain=98.0393 27.5609 11.162 9.19081 8.59602 5.93104 5.33717 1.75527 1.53128 3.08822 0.369336 0.00658297 0.00436415 0.00352385 0.00535752 0.00251896 0.00097222 0.000766696 0.000163392 5.92362e-05 5.71428e-05 0.000351869 4.96108e-05 1.26506e-05 3.34504e-06 3.04558e-06 1.21076e-06 9.40265e-07 6.32472e-07 7.59272e-07
threshold=4.4314831441834075 2.5840887326396684 4.2578882842912149 6.1276517335202145 3.306860842606433 4.6340389000750699 4.3480475817070348 5.4043564869637679 5.94145434139865 6.1482617676713103 5.1132184412459205 5.3663234958577624 4.9682812706754396 4.4215947216950742 5.3739505029837487 4.5502124336648437 5.7588197232795695 1.5551798284460054 4.5300728621845971 4.538250573947697 5.2004537038838796 4.3080461080038317 4.3198880451341948 5.6482977810323733 4.87404658774018 53.500000000000007 3.8280020599334099 4.6923613681894141 4.9174014738612195 55.500000000000007
decision_type=2 2 2 2 2 2 2 2 2 2 2 2 2 2 2 2 2 2 2 2 2 2 2 2 2 2 2 2 2 2
left_child=2 10 -1 4 -3 -4 -5 12 13 -10 -2 -12 16 14 19 -15 23 -14 -17 -6 21 -20 -23 -7 -22 -24 -26 -27 -28 -30
right_child=1 3 5 6 8 7 -8 -9 9 -11 11 -13 17 15 -16 18 -18 -19 20 -21 24 22 25 -25 26 27 28 -29 29 -31
leaf_value=0.15446843703428625 -0.094124126878945627 -0.10496391442647977 0.083154826035243865 -0.15440232669965082 0.15012756625564541 -0.14927208058952676 0.10309304847196543 -0.027922834309599548 -0.030846555828725638 0.16347505171628524 -0.14957089712979071 -0.1590490242649846 -0.15187325785389322 0.15379497005102785 0.15674109450572979 0.15057634424721777 -0.15226113733270757 -0.15523194455912151 0.15120693634594559 0.14913777922370416 0.14911799110516505 0.14992876042440548 0.14905486310210952 -0.14892643279611603 0.14915426903115844 0.14915426903115878 0.14927202188726268 0.14925740730767692 0.14916477716018398 0.14927178044610032
leaf_weight=1.3647661805152882 1.6049764454364766 1.4448053538799275 1.1787964403629292 1.8181993961334222 1.111808538436889 26.535359680652629 1.4444428384304044 1.229076713323592 1.4482098668813699 1.8788855671882627 1.993986710906029 1.1585508137941358 1.3477438241243356 1.3604033142328287 1.8368154764175413 1.1148563623428369 1.1219642460346211 1.3710485249757765 1.1193633973598496 1.3255310803651807 1.9879975914955164 1.1102623492479322 1.1039759069681165 1.1028833985328663 1.1047351956367517 1.104735195636749 12.60429075360298 4.4221105873584747 1.3257808238267892 1.3267652392387388
leaf_count=6 7 6 5 8 5 120 6 5 6 8 9 5 6 6 8 5 5 6 5 6 9 5 5 5 5 5 57 20 6 6
internal_value=-5.67989e-06 0.0949404 -0.125925 0.120783 0.134362 -0.137218 -0.0404035 -0.14516 0.143635 0.0788912 -0.133174 -0.153054 -0.149737 0.149978 0.152663 0.149592 -0.149375 -0.153567 0.14939 0.149589 0.149341 0.14955 0.14931 -0.149258 0.14924 0.149207 0.149255 0.149237 0.149263 0.149218
internal_weight=82.0031 46.7515 35.2516 41.994 38.7313 33.8869 3.26264 32.7081 37.2865 3.3271 4.75751 3.15254 31.479 33.9594 4.27416 29.6853 28.7602 2.71879 28.3249 2.43734 27.21 8.86045 7.74108 27.6382 18.3496 6.63082 16.3616 5.52685 15.2568 2.65255
internal_count=366 208 158 187 173 152 14 147 167 14 21 14 142 153 19 134 130 12 128 11 123 40 35 125 83 30 74 25 69 12
is_linear=0
shrinkage=0.1


Tree=5
num_leaves=31
num_cat=0
split_feature=4 11 8 8 8 7 3 9 9 8 8 17 3 6 11 7 0 3 17 14 13 5 3 17 3 6 0 9 11 9
split_gain=84.0372 16.0491 11.7835 9.57561 8.67654 5.13186 4.53452 3.21837 1.97138 1.63061 0.358781 0.204947 0.0333916 0.0112994 0.00319111 0.00124499 0.00118218 0.00059153 0.000423596 0.00024588 0.000190546 3.49826e-06 5.20732e-06 2.2609e-06 2.02088e-06 1.25463e-06 1.1648e-06 3.10143e-07 4.23286e-08 7.45046e-08
threshold=4.4314831441834075 5.1098806585726555 5.0262460147884811 4.2578882842912149 6.1276517335202145 4.6340389000750699 4.3480475817070348 6.2029790769381021 2.972222234250065 5.4043564869637679 5.0626793710824805 3.990694318298726 5.2945081986453246 6.0084794178786263 5.8008031112306435 5.6503980146368642 60.500000000000007 5.7588197232795695 4.2836154916766302 4.9682812706754396 2.5697933336735015 4.8986423119206224 4.7130169934145369 4.4215947216950742 5.1804496119265249 5.8072289646676474 55.500000000000007 6.3913480338473105 5.5845229826672389 5.3217722201704287
decision_type=2 2 2 2 2 2 2 2 2 2 2 2 2 2 2 2 2 2 2 2 2 2 2 2 2 2 2 2 2 2
left_child=3 2 15 -1 8 -5 -6 10 -3 14 -4 -10 -12 18 17 -2 -14 19 -13 -7 -20 22 -22 -23 25 27 -26 28 29 -25
right_child=1 4 7 5 6 9 -8 -9 11 -11 12 13 16 -15 -16 -17 -18 -19 20 -21 21 23 -24 24 26 -27 -28 -29 -30 -31
leaf_value=0.1467005725273752 0.14736757676678111 0.010952219197434426 -0.097615365236175269 0.076317441191222149 -0.14665190942514139 -0.14244021923175448 0.094739859562614631 0.048569001417361028 0.10594202473490535 -0.025181158740320016 -0.16720841477764722 0.14449779174567362 -0.14410654218246233 0.15275896024738078 -0.14765653480511984 0.14302645110397791 -0.14858886083291187 -0.14491503026453073 0.14356558139133627 -0.14376476373062402 0.1421151964626417 0.14226654037383427 0.14240763445750951 0.1424402027778677 0.14227493260070831 0.14232126154636945 0.14241316258842737 0.14238586461293745 0.14243957722265632 0.14240796857190927
leaf_weight=1.2968127280473698 1.0879478156566604 1.2103930711746205 1.707427844405174 1.1571172028779972 1.7275114655494683 25.937853485345855 1.4161014109849928 1.1624255329370496 1.5785628110170389 1.2267324775457371 1.1720884889364245 1.0616563111543715 1.0617644488811495 1.1247022747993458 1.3060926645994175 1.6819751262664793 1.3198217600584028 1.0639342963695515 1.478667795658114 1.481538951396941 1.0426000356674223 1.0441394597291971 1.4637786149978635 1.6734096109867231 1.4619209766387933 1.0446772277355183 1.0456112772226331 1.2544049620628346 14.433072462677954 1.2546714991331098
leaf_count=6 5 5 8 5 8 124 6 5 7 5 5 5 5 5 6 8 6 5 7 7 5 5 7 8 7 5 5 6 69 6
internal_value=-4.20358e-06 0.0900178 -0.027674 -0.119718 0.120655 -0.130456 -0.0379123 -0.102018 0.136149 -0.13817 -0.13529 0.141044 -0.153391 0.142929 -0.142823 0.144732 -0.146591 -0.142602 0.142538 -0.142512 0.142462 0.142398 0.142286 0.14241 0.142417 0.142428 0.142333 0.142434 0.142437 0.142426
internal_weight=77.9794 44.5093 9.19345 33.4701 35.3159 32.1733 3.14361 6.42353 32.1723 31.0162 5.2611 30.9619 3.55367 29.3833 29.7894 2.76992 2.38159 28.4833 28.2586 27.4194 27.197 25.7183 2.50638 23.2119 22.1678 19.6602 2.50753 18.6156 17.3612 2.92808
internal_count=366 208 42 158 166 152 14 29 152 147 24 147 16 140 142 13 11 136 135 131 130 123 12 111 106 94 12 89 83 14
is_linear=0
shrinkage=0.1


Tree=6
num_leaves=31
num_cat=0
split_feature=11 12 8 8 3 7 9 9 3 3 9 0 17 12 10 9 13 8 15 15 14 12 17 15 12 11 15 17 14 10
split_gain=59.7005 25.5305 16.3834 5.45615 5.86483 5.03564 3.47631 2.87026 1.21887 0.485624 0.785885 0.25691 0.226931 0.158183 0.00375326 0.0028051 0.00223783 0.00303616 0.000533827 0.000493714 0.000451966 0.000852451 0.000310791 0.00022988 3.98062e-06 2.53574e-06 3.86502e-06 2.36898e-06 1.0325e-06 7.27361e-07
threshold=5.1098806585726555 3.4939108243488417 4.6162704979575349 6.1276517335202145 4.3480475817070348 4.8208368123050134 6.2029790769381021 3.9635465056430861 5.3371788629852022 4.9343744099133593 4.9298436920469557 57.500000000000007 3.990694318298726 3.0292661863433046 6.6576499105602478 6.1480436045084508 3.4817465268279544 5.2138678105041718 5.675142588884472 3.1402109209167786 4.4038888544173131 5.9037972521839324 4.9809204468225614 2.9278151739173475 4.627607358226725 5.7656836287917352 4.7144832422952447 5.2600974015490527 5.6797787009850245 6.4008937394176177
decision_type=2 2 2 2 2 2 2 2 2 2 2 2 2 2 2 2 2 2 2 2 2 2 2 2 2 2 2 2 2 2
left_child=2 8 11 7 -5 -4 9 -3 -2 10 -7 -1 -9 19 16 18 17 -14 23 -10 21 -18 -13 -11 -22 26 -26 -25 -28 -27
right_child=1 3 5 4 -6 6 -8 12 13 15 -12 22 14 -15 -16 -17 20 -19 -20 -21 24 -23 -24 27 25 29 28 -29 -30 -31
leaf_value=0.077521138794042113 -0.036061927972699991 0.007000503047282728 0.087581488622254872 -0.14031428429025034 0.15550063892544941 -0.13680519968420674 0.043667066826505209 0.097991511680340149 -0.13926596201749303 -0.1382205835764983 -0.037531123773093471 0.13715882699946871 0.13701683607074847 -0.18417512892976062 0.14332801793292144 -0.14188258050713115 0.14043119247401806 0.14413740690476928 -0.13850460218588942 -0.13664606810499599 0.13697161156467841 0.13680097217928985 0.13954503937746943 -0.13680570369024925 0.13657644011655276 0.13679455966343848 0.13678699187615301 -0.13665973463610587 0.1366781170938893 0.13670543682426381
leaf_weight=1.0196687132120126 1.2563430368900288 1.8508879542350793 1.1478787660598779 1.6299982666969293 1.1382293850183485 1.9665454328060215 1.1635516732931126 1.5381077677011514 1.2135076671838767 1.1999084055423832 1.3413129746913908 1.1845963001251223 1.379706665873534 0.97172671556472767 1.0445632636547078 1.2476909607648838 1.0194541960954695 1.0580186396837232 2.2078843861818305 1.7661906182765958 0.98526249825954693 1.7697965949773786 1.0122163891792295 19.862234458327297 1.5686734914779688 13.567340627312657 3.3423600345849991 1.1777640730142582 1.1780370771884916 0.98202237486839372
leaf_count=5 6 8 5 8 5 10 5 7 6 6 6 6 7 4 5 6 5 5 11 9 5 9 5 101 8 69 17 6 6 5
internal_value=-9.44172e-06 0.0843465 -0.0959177 0.115882 -0.0186822 -0.117993 -0.125816 0.12779 -0.12186 -0.132615 -0.0965503 0.119004 0.135385 -0.149139 0.137447 -0.137258 0.137218 0.140107 -0.137022 -0.137713 0.13693 0.138128 0.138258 -0.136874 0.136775 0.136766 0.136712 -0.136798 0.136759 0.136789
internal_weight=73.7915 39.2602 34.5313 34.0525 2.76823 31.3148 30.1669 31.2842 5.20777 29.0033 3.30786 3.21648 29.4333 3.95143 27.8952 25.6955 26.8507 2.43773 24.4478 2.9797 24.4129 2.78925 2.19681 22.2399 21.6237 20.6384 6.08907 21.04 4.5204 14.5494
internal_count=366 194 172 169 13 156 151 156 25 146 16 16 148 19 141 130 136 12 124 15 124 14 11 113 110 105 31 107 23 74
is_linear=0
shrinkage=0.1


Tree=7
num_leaves=31
num_cat=0
split_feature=4 10 8 8 8 3 12 5 16 7 10 11 7 14 4 13 11 3 5 9 11 13 16 14 10 5 8 14 3 12
split_gain=62.608 18.1166 7.28699 6.02871 3.642 3.33014 2.02371 6.95829 1.43875 2.11454 1.1201 0.414662 0.0567549 0.0244579 0.0130586 0.00803705 0.00177087 0.00162407 0.00157831 0.000252497 0.000177379 0.000268214 0.00013014 0.000112107 4.12511e-05 1.11356e-05 8.3518e-06 2.54614e-06 8.96528e-07 6.29298e-07
threshold=4.4314831441834075 2.5840887326396684 4.2578882842912149 6.1276517335202145 5.3723067161925773 4.3480475817070348 5.2429495448596493 6.0877957784800634 4.9390794437356282 4.5075048603092691 6.134785584519423 5.0382970037331596 4.8208368123050134 5.5895167245985578 5.3663234958577624 5.8491174429296136 4.9042948613334856 5.7588197232795695 3.6306055223801805 4.2539945453114552 5.5235924540262404 4.9321682969236207 4.5075665962907197 4.9460176526119914 6.4621369628508161 4.8986423119206224 4.1038889291073257 6.1410334346433872 5.1804496119265249 5.6290572623521378
decision_type=2 2 2 2 2 2 2 2 2 2 2 2 2 2 2 2 2 2 2 2 2 2 2 2 2 2 2 2 2 2
left_child=2 11 -1 6 10 -5 7 8 13 -10 12 14 -4 -3 -2 16 -8 23 -15 -18 21 26 -20 -14 25 -22 -21 28 29 -27
right_child=1 3 4 5 -6 -7 15 -9 9 -11 -12 -13 17 18 -16 -17 19 -19 22 20 24 -23 -24 -25 -26 27 -28 -29 -30 -31
leaf_value=0.13581562477894857 -0.13336687608658404 0.1480499891316642 -0.15611837025643124 -0.13505702624907565 0.026434311167987584 0.081221694888906237 0.13633505185911138 -0.1566972183206887 -0.035989510871220938 0.13841637204706733 -0.041533133423336865 -0.072110787229978879 -0.13209891750142677 0.13707525962163766 -0.14761007287198605 0.14090147754166668 0.13391721370687512 -0.13635731509811932 0.13206629224105479 0.13249149312214892 0.13242226771677112 0.13434918035655488 0.13347300769413417 -0.13299464409329773 0.13277062956689195 0.13201547964143187 0.13206590409628566 0.13195427273547811 0.13199343115827963 0.13209466532580216
leaf_weight=1.160513892769816 1.6881561726331704 1.6291642934083919 1.0447573363781071 1.529284238815307 1.6072548031806935 1.3320213109254835 1.1588307917118132 1.1129890084266651 1.4086389541625979 1.3725251555442808 1.4033473730087269 1.4164621382951734 22.073593392968185 0.98378352820873249 1.0404027402400968 1.2099280655384053 0.94344611465931194 0.95730222761630912 2.206200018525124 0.92519199848175337 0.92396083474159851 0.94779251515865315 0.93695758283138264 1.491694539785384 0.92829790711402793 1.1021955013275135 0.91924546658992767 1.835172951221465 1.10180965065956 11.219978377223013
leaf_count=6 9 8 5 8 7 6 6 5 6 7 7 7 120 5 5 6 5 5 12 5 5 5 5 8 5 6 5 10 6 61
internal_value=-1.48799e-05 0.081888 -0.109828 0.104848 -0.119803 -0.034373 0.116968 0.0784803 0.10914 0.0500811 -0.128518 -0.116009 -0.133292 0.137675 -0.138798 0.132966 0.13253 -0.13232 0.13358 0.132319 0.132243 0.132982 0.132486 -0.132156 0.132122 0.132085 0.132279 0.132065 0.13208 0.132088
internal_weight=69.6109 39.8724 29.7385 35.7274 28.5779 2.86131 32.8661 9.65026 8.53727 2.78116 26.9707 4.14502 25.5673 5.75611 2.72856 23.2159 22.0059 24.5226 4.12694 20.8471 19.9036 2.79223 3.14316 23.5653 17.1114 16.1831 1.84444 15.2592 13.424 12.3222
internal_count=366 208 158 187 152 14 173 48 43 13 145 21 138 30 14 125 119 133 22 113 108 15 17 128 93 88 10 83 73 67
is_linear=0
shrinkage=0.1


Tree=8
num_leaves=31
num_cat=0
split_feature=11 3 8 6 16 8 3 16 3 8 0 11 5 6 0 9 17 3 6 6 5 6 0 9 8 11 5 7 15 5
split_gain=44.8211 13.2238 12.0566 7.62803 7.20006 4.69733 1.9037 1.57042 1.36113 1.37262 0.979754 0.302152 0.31666 0.253124 0.137214 0.0175134 0.0174219 0.017597 0.00401387 0.00334585 0.00104129 0.00030155 0.00023403 0.000169062 0.000159937 0.000159604 0.000151789 5.75769e-06 1.30645e-05 3.68241e-06
threshold=5.1224546125008157 5.2766734605898913 4.6162704979575349 5.6512079367284809 3.9990120939570697 6.1276517335202145 4.2105118099646557 5.7236290001313277 4.8987409237177406 5.1926925592168152 57.500000000000007 5.270284757545161 5.4008565732455294 4.8434565607379012 83.500000000000014 3.924309328897877 3.990694318298726 5.2158247475862956 5.94145434139865 4.052663396894558 5.0098835657201075 4.5253938954681567 62.500000000000007 4.2375147820707584 5.0262460147884811 5.4644497488334229 5.5408012635459949 4.2796599035210248 5.0765274805604559 5.4887776170606442
decision_type=2 2 2 2 2 2 2 2 2 2 2 2 2 2 2 2 2 2 2 2 2 2 2 2 2 2 2 2 2 2
left_child=2 5 13 21 -4 7 -7 11 -6 15 -5 12 -2 -1 20 -10 -13 18 23 -17 -12 -3 -15 -18 -21 -25 29 28 -27 -26
right_child=1 3 4 10 8 6 -8 -9 9 -11 14 16 -14 22 -16 19 17 -19 -20 24 -22 -23 -24 25 26 27 -28 -29 -30 -31
leaf_value=0.065714140976180974 0.13017335655047943 0.12787697899674924 0.13695924258361825 -0.035931232998872707 -0.031113192139063314 -0.12869104367975856 0.055258072777928761 0.0095276676786243669 -0.13986684511325242 -0.034755608663183647 -0.12811896699821776 0.14162974477379975 0.046676781985494499 0.13056417475772028 -0.17392620618054633 -0.1338169823315257 0.12959032775187318 0.14368505661124456 0.13436917418314462 -0.12811544834433108 -0.13229780646525097 0.13050800677531674 0.12835077342546364 0.12948847612623957 -0.12959874633820009 0.12812419068131567 -0.12811761353601425 0.12805682719623795 0.12853820724632356 -0.12932162243960529
leaf_weight=0.91363060474396052 0.88686279952527047 0.8523549735546101 1.1620655506849313 1.17004157602787 1.7182608544826532 1.0394436120986932 1.2264045625925062 1.2018956393003453 1.4492439329624236 1.6451462060213078 1.713058769702912 1.1785217374563242 0.93104647099971771 1.074748247861862 0.94959403574466694 1.1324443817138696 0.87864063680172932 0.80052563548087974 1.1288045197725285 17.643236652016643 0.91468787193298329 0.89098398387432098 0.85989527404308308 0.87558341026306408 0.88112203776836318 6.5103042870759991 1.5417110770940781 10.26548559963703 0.86323839426040638 1.0519544184207914
leaf_count=5 5 5 6 6 8 6 6 5 8 8 10 6 5 6 4 6 5 4 6 103 5 5 5 5 5 38 9 60 5 6
internal_value=-1.01587e-05 0.0788405 -0.0869912 -0.0496724 -0.106779 0.10886 -0.0291274 0.121111 -0.117245 -0.123084 -0.115366 0.126626 0.0874104 0.109094 -0.141347 -0.129215 0.129794 0.12914 0.128572 -0.128522 -0.129574 0.129222 0.12958 0.128235 -0.128238 0.128171 -0.128858 0.128105 0.128173 -0.129448
internal_weight=65.3509 34.2775 31.0735 6.49072 28.2252 27.7868 2.26585 25.5209 27.0631 25.3449 4.74738 24.319 1.81791 2.84827 3.57734 23.6997 22.5011 21.3226 20.5221 22.2505 2.62775 1.74334 1.93464 19.3933 21.118 18.5146 3.47479 17.639 7.37354 1.93308
internal_count=366 191 175 35 159 156 12 144 153 145 25 139 10 16 19 137 129 123 119 129 15 10 11 113 123 108 20 103 43 11
is_linear=0
shrinkage=0.1


Tree=9
num_leaves=31
num_cat=0
split_feature=4 10 8 8 8 5 10 11 8 6 6 11 16 7 4 10 13 15 10 11 9 5 15 14 9 6 9 7 5 13
split_gain=47.3571 13.8275 4.62771 3.68219 3.29121 2.78702 1.72753 1.52346 4.0444 1.7466 0.448904 0.443616 0.0447402 0.0304699 0.0114721 0.00883625 0.00287622 0.00247666 0.000781579 0.000143105 0.000131022 7.91102e-05 4.18248e-05 1.82908e-05 1.2841e-05 3.27894e-05 8.21484e-06 6.04014e-06 1.57805e-06 1.56446e-06
threshold=4.4314831441834075 2.5840887326396684 6.1276517335202145 4.6409554173751681 5.3723067161925773 5.2925930554330556 6.1388398703953477 5.5235924540262404 5.61493255138911 5.94145434139865 6.0416782355147554 5.0382970037331596 5.4373234229654939 4.6677583264876814 5.3663234958577624 6.5098256551561287 5.3739505029837487 2.9132941979233427 4.4578241701644332 4.7733581452301204 4.2539945453114552 4.9288191218114097 3.9705309543597651 4.9460176526119914 4.7270619553379882 5.3458306721107158 3.924309328897877 6.0291507682884378 5.1725542039374393 5.5780267665914236
decision_type=2 2 2 2 2 2 2 2 2 2 2 2 2 2 2 2 2 2 2 2 2 2 2 2 2 2 2 2 2 2
left_child=3 11 7 -1 6 -4 13 8 9 16 12 14 15 -5 -2 20 18 -15 -3 -20 -9 -21 -22 26 25 -24 -19 28 -26 -30
right_child=1 2 5 4 -6 -7 -8 10 -10 -11 -12 -13 -14 17 -16 -17 -18 23 19 21 22 -23 24 -25 27 -27 -28 -29 29 -31
leaf_value=0.055929654158488343 -0.12596418368379736 0.12909463231064325 -0.12893291034774634 -0.14339233120807476 0.029990203424381329 0.076346200328981345 0.025018221869022739 0.1260769130105853 -0.08533020900233379 -0.011319169240486225 0.063129182919961072 -0.059113014298294131 0.14954281764258179 -0.13014791887313593 -0.13998876295140161 0.13428003932715046 0.13215912424527676 -0.12445581815801957 0.12686340889530071 0.12486161734247017 0.12532985353719936 0.12597627792189078 0.12530348283845608 -0.12516695441795619 0.12460905918642939 0.12472289813678279 -0.12473649923095814 0.12440772627978672 0.12472995357911112 0.12459340447967515
leaf_weight=1.3935127258300806 1.4714933186769483 0.86188995838165894 1.3638326823711389 0.93659360706807149 1.5483915656805027 1.2840816825628278 0.78689196705818076 0.81814847886563669 1.3649874478578565 1.0892196297645567 1.1912362426519383 1.2958167940378187 0.79707992076873679 0.88386459648609417 0.96625728905200947 1.0494845360517491 1.089706555008888 1.105222761631018 0.83370575308799777 1.4346237927675249 1.2874729484319711 1.1448114514350889 1.2881198823451985 0.96344012022018333 1.7433348447084398 3.9732205718755722 18.442012056708336 0.78848704695701677 7.1530880928039533 0.95054678618907917
leaf_count=8 9 5 8 5 7 6 4 5 7 5 6 7 4 5 5 6 6 7 5 9 8 7 8 6 11 25 116 5 45 6
internal_value=-7.94762e-06 0.0755752 0.0971381 -0.102218 -0.111153 -0.0293847 -0.120606 0.108747 0.0710571 0.104132 0.122753 -0.106392 0.126332 -0.125738 -0.131523 0.125361 0.127573 -0.124965 0.126404 0.125724 0.124841 0.125356 0.124782 -0.124742 0.124737 0.124865 -0.124721 0.124674 0.124695 0.124714
internal_weight=61.3006 35.2406 31.5071 26.0599 24.6664 2.64791 23.118 28.8592 7.81894 6.45396 21.0402 3.73357 19.849 22.3311 2.43775 19.0519 5.36474 21.3945 4.27503 3.41314 18.0024 2.57944 17.1843 20.5107 15.8968 5.26134 19.5472 10.6355 9.84697 8.10363
internal_count=366 208 187 158 150 14 143 173 44 37 129 21 123 139 14 119 32 134 26 21 113 16 108 129 100 33 123 67 62 51
is_linear=0
shrinkage=0.1


Tree=10
num_leaves=31
num_cat=0
split_feature=4 10 0 3 15 12 15 3 2 6 5 0 11 1 10 0 6 1 3 9 4 4 11 2 11 6 15 3 15 5
split_gain=41.3265 12.0418 1.99901 4.4421 1.9466 6.32249 2.83459 3.2284 1.53886 2.36609 0.874245 1.72775 0.429624 0.418514 0.138903 0.0455738 0.0379711 0.0167689 0.014338 0.010581 0.0079237 0.00138607 0.000905842 0.000594374 0.000523505 0.000201295 4.77765e-05 4.12192e-05 4.50116e-05 7.65572e-06
threshold=4.4314831441834075 2.5840887326396684 55.500000000000007 4.9117389553381932 5.1150574566554221 5.2019477702614187 5.2776981230885402 4.2499992682284358 1.0000000180025095e-35 5.6552532517609118 4.1077266025776629 66.500000000000014 5.0382970037331596 1.0000000180025095e-35 4.2217501705964686 75.500000000000014 6.0084794178786263 1.0000000180025095e-35 5.0156469423147234 3.924309328897877 5.3663234958577624 5.3293428796282836 5.5235924540262404 1.0000000180025095e-35 5.4644497488334229 5.6019605772280707 4.865113427545003 5.0528600420769125 2.9278151739173475 4.9144902209675321
decision_type=2 2 2 2 2 2 2 2 2 2 2 2 2 2 2 2 2 2 2 2 2 2 2 2 2 2 2 2 2 2
left_child=2 12 -1 -4 10 13 7 -7 14 -10 11 -3 20 -6 -5 19 17 18 -12 -16 -2 -20 23 -8 -19 29 -26 -21 -29 -24
right_child=1 4 3 8 5 6 22 -9 9 -11 16 -13 -14 -15 15 -17 -18 24 21 27 -22 -23 25 -25 26 -27 -28 28 -30 -31
leaf_value=0.086737918471585157 -0.12289250694694427 -0.043664640614080728 0.081852193101319637 -0.087633321779552742 -0.14516298712267584 -0.098204039804746082 0.12654219918058535 0.12778039527984555 0.086426411288080512 -0.12712978083616799 0.13923396099855917 0.13939244346010479 -0.05485745128110453 -0.052811964744183038 -0.1313857250257647 -0.14640285001115419 0.14608317224568887 0.12416833992379786 0.12780130542327195 -0.12252203421492634 -0.13496198219011335 0.12212897387382798 0.12212649111987064 0.12265156760228837 0.12177412033738158 0.12354554098466447 0.12244916729799438 -0.12256162047112834 -0.1218342329815217 0.12178335214444645
leaf_weight=0.56753198802471416 1.3630156517028806 0.94892044365406691 1.2306506335735345 1.137233629822737 1.0142833292484272 1.4217980951070779 0.82135665416717329 1.13826248049736 0.93798285722732488 1.160927429795265 1.1655433326959568 1.1290767043828962 1.2587010562419889 0.95062598586082447 1.265998050570494 0.83809240162372489 0.81776124238967973 1.0901348888874061 0.83540214598178841 1.0471913069486642 0.90516638755798329 0.88943707942962646 0.74136561155319203 0.75232170522212982 8.5162251740694028 0.76698960363864888 1.1956439614295948 0.90082779526710766 15.297891005873678 5.287381187081337
leaf_count=3 9 5 7 7 5 9 5 7 5 7 6 6 7 5 8 4 4 7 5 7 5 6 5 5 58 5 8 6 104 36
internal_value=-1.35772e-05 0.0729184 -0.0987427 -0.103163 0.0938085 0.0646641 0.0943544 0.0022739 -0.113243 -0.0316936 0.116463 0.0557992 -0.101709 -0.100483 -0.121598 -0.123594 0.125151 0.123901 0.130666 -0.122562 -0.127709 0.124876 0.12252 0.124682 0.12209 0.12202 0.121857 -0.121914 -0.121875 0.121826
internal_weight=57.3937 33.0094 24.3843 23.8168 29.4825 12.8944 10.9295 2.56006 22.5861 2.09891 16.5881 2.078 3.52688 1.96491 20.4872 19.35 14.5101 13.6924 2.89038 18.5119 2.26818 1.72484 8.36941 1.57368 10.802 6.79574 9.71187 17.2459 16.1987 6.02875
internal_count=366 208 158 155 187 82 72 16 148 12 105 11 21 10 136 129 94 90 17 125 14 11 56 10 73 46 66 117 110 41
is_linear=0
shrinkage=0.1


Tree=11
num_leaves=31
num_cat=0
split_feature=4 10 16 3 17 17 16 9 6 6 16 5 3 16 0 6 4 1 10 11 6 17 11 13 9 9 16 4 10 14
split_gain=36.1844 10.5207 3.76066 3.72415 2.68102 1.49416 1.29356 5.33428 0.606261 3.04032 0.418983 0.310041 0.272864 0.0432739 0.0345409 0.0162235 0.00552678 0.00214713 0.00457977 0.0017147 0.00127703 0.000585751 0.000239979 0.00017091 0.000138373 8.94673e-05 5.4459e-05 4.97706e-05 2.61963e-05 2.11765e-05
threshold=4.4314831441834075 2.5840887326396684 5.7339360784478339 4.9117389553381932 3.6631547458328932 5.4594293167700352 4.0005313730324721 5.2981933898518898 5.6552532517609118 5.6297837292305681 4.0949830000658221 3.6306055223801805 5.7588197232795695 5.7236290001313277 83.500000000000014 5.8699824187027794 5.3663234958577624 1.0000000180025095e-35 5.2004537038838796 5.1098806585726555 4.5972623720247192 4.3518665590559493 5.18553740660077 5.5780267665914236 4.2812815901983443 4.4652643749154954 4.2750450175063728 5.1186699243146583 4.2217501705964686 4.8372572097510682
decision_type=2 2 2 2 2 2 2 2 2 2 2 2 2 2 2 2 2 2 2 2 2 2 2 2 2 2 2 2 2 2
left_child=3 10 4 -1 -3 8 7 -6 9 12 -2 -8 23 17 15 -10 -12 18 26 -9 -21 -19 -23 28 27 -17 -13 -24 -5 -26
right_child=1 2 -4 5 6 -7 11 19 14 -11 16 13 -14 -15 -16 25 -18 21 -20 20 -22 22 24 -25 29 -27 -28 -29 -30 -31
leaf_value=0.074736805021805422 -0.050854646903021675 -0.024895907199848702 -0.087471214539082964 -0.1200103411784491 -0.12312005127436737 0.039688841552518436 0.070160320906297147 0.12604653814055952 -0.13107827789357709 0.091286067962128931 -0.12024620076269668 0.11925811993419742 -0.054075437175598921 0.14646792507154743 -0.14431136126779714 -0.11930098546834277 -0.13070348393930323 0.12244402713675467 0.12819911094720055 0.11940455588520911 0.12425085775841536 0.12094922840181931 0.11977442048949401 -0.12112053990517396 0.1197237584456617 -0.12019152744558548 0.1203889908746275 0.12096609472220606 -0.11933855438692596 0.11928684535615852
leaf_weight=1.2139426916837717 1.2238724678754835 1.6491293758153975 1.1333902627229679 0.69468386471272126 1.1924563348293329 0.68820759654045005 1.2777989506721521 0.8080299794673923 1.3139128834009142 0.85244250297546376 1.2590449601411822 1.0831782221794175 0.72703796625137318 0.6475522518157949 0.63831536471843797 11.119750350713728 0.84432245790958393 0.73916840553283769 0.98425626754760731 1.9048324227333071 0.76093329489231099 1.1440685093402851 0.68857544660568126 0.71524888277053822 1.2357709854841221 1.2554922848939885 0.70170256495475758 0.71378108859062195 3.5304972231388092 10.842596828937529
leaf_count=7 7 9 5 5 8 4 7 5 8 4 9 8 5 3 3 82 5 5 6 14 5 8 5 5 9 9 5 5 26 80
internal_value=-7.86121e-06 0.0705769 0.0908922 -0.0956777 0.0985572 -0.105284 0.106791 0.0593681 -0.11007 -0.0847901 -0.0973753 0.117824 -0.111274 0.121067 -0.121573 -0.120513 -0.124444 0.12016 0.122723 0.122011 0.120788 0.119698 0.119559 -0.119691 0.119441 -0.119391 0.119703 0.120381 -0.119449 0.119332
internal_weight=53.584 30.8345 27.5072 22.7495 26.3738 21.5356 24.7247 4.66625 20.8474 6.51991 3.32724 20.0584 5.66747 18.7807 14.3275 13.6892 2.10337 18.1331 2.76914 3.4738 2.66577 15.364 14.6248 4.94043 13.4807 12.3752 1.78488 1.40236 4.22518 12.0784
internal_count=366 208 187 158 182 151 173 32 147 45 21 141 41 134 102 99 14 131 19 24 19 112 107 36 99 91 13 10 31 89
is_linear=0
shrinkage=0.1


Tree=12
num_leaves=31
num_cat=0
split_feature=4 10 3 16 8 17 8 3 7 3 8 5 16 0 4 13 11 17 11 8 3 4 14 3 7 5 5 14 5 16
split_gain=31.7134 9.19554 4.94421 3.30134 2.76744 2.89755 2.35866 1.19114 1.08439 1.88173 0.422765 0.331317 0.0297929 0.0253178 0.00269125 0.00140857 0.00104182 0.000664758 0.000412131 0.00042515 9.39961e-05 7.39375e-05 3.81797e-05 3.00936e-05 2.79801e-05 2.33844e-05 2.08891e-05 1.72816e-05 8.85304e-06 5.30778e-06
threshold=4.4314831441834075 2.5840887326396684 4.8987409237177406 5.7339360784478339 6.1276517335202145 3.6631547458328932 4.6162704979575349 4.2105118099646557 4.8208368123050134 5.2766734605898913 5.1926925592168152 3.6306055223801805 5.7236290001313277 83.500000000000014 5.3597085371531508 5.5160026056132629 4.738567699181405 4.1757118204390027 5.5235924540262404 5.3723067161925773 5.4869324139874065 5.2502208536134995 4.1292011379917151 3.2010288255883759 4.600466366181533 3.7297403484870526 4.9917426331699426 4.9460176526119914 0.70356277185759819 5.2416654142524433
decision_type=2 2 2 2 2 2 2 2 2 2 2 2 2 2 2 2 2 2 2 2 2 2 2 2 2 2 2 2 2 2
left_child=2 10 -1 4 5 -3 -4 -6 9 -8 14 -7 16 15 -2 22 -13 -18 19 21 23 26 25 24 -20 -10 -19 28 -24 -25
right_child=1 3 6 -5 7 11 8 -9 13 -11 -12 12 -14 -15 -16 -17 17 18 20 -21 -22 -23 27 29 -26 -27 -28 -29 -30 -31
leaf_value=0.14006016647270217 -0.11771972117062741 -0.0224307878250498 0.058011037616389774 -0.077638968926056984 -0.11777223279351144 0.065143612924220093 0.069733479004087426 0.046770020295781541 -0.11716696119495336 -0.12355313849401613 -0.045131502712013986 0.12114483349689704 0.14015436658644689 -0.13835671215114251 -0.12508893970633794 -0.1208891173289542 0.12058279515160011 0.11692495714137403 0.11809585958198957 0.12066924870624879 0.11839850400096408 0.11847545659648132 -0.11684953246463947 0.11714087595828374 0.11715773103522634 -0.11792563698168668 0.11773995835082041 -0.11756562924007652 -0.11716119155592603 0.11686507158733717
leaf_weight=0.87396706640720623 1.0227874815464049 1.6474238187074757 0.87240569293499248 1.1483563482761372 0.76878923177719016 1.2405791580677057 0.87531806528568568 1.0285847187042234 0.6252489984035553 1.1863167732954023 1.1520977616310117 0.85041177272797241 0.61093312501907249 0.6011214405298223 0.9614204317331313 1.1242184937000264 0.70186126977205532 0.61896041035652494 0.64707230031490037 0.7001553177833556 0.65309361368417818 1.0505309849977491 0.98720933496951957 11.990884274244305 0.6250109001994133 1.1600127220153806 0.63931713253259659 1.0162434875965107 11.876908116042612 0.740880027413369
leaf_count=5 8 9 5 5 6 7 4 6 5 8 7 6 3 3 6 8 5 5 5 5 5 8 8 96 5 9 5 8 95 6
internal_value=-6.64599e-06 0.0683234 -0.0928342 0.0880774 0.0958403 0.105291 -0.102849 -0.0236095 -0.110063 -0.0414885 -0.093314 0.115278 0.118414 -0.118192 -0.12129 -0.11747 0.117723 0.117565 0.117445 0.118511 0.117226 0.117856 -0.117225 0.117171 0.117635 -0.11766 0.117339 -0.117169 -0.117137 0.117125
internal_weight=49.9981 28.7992 21.199 25.6628 24.5145 22.7171 20.325 1.79737 19.4526 2.06163 3.13631 21.0697 19.8291 17.391 1.98421 16.7898 19.2182 18.3678 17.6659 3.00896 14.6569 2.30881 15.6656 14.0038 1.27208 1.78526 1.25828 13.8804 12.8641 12.7318
internal_count=366 208 158 187 182 170 153 12 148 12 21 161 154 136 14 133 151 145 140 23 117 18 125 112 10 14 10 111 103 102
is_linear=0
shrinkage=0.1


Tree=13
num_leaves=31
num_cat=0
split_feature=11 12 8 0 16 14 8 3 16 17 8 8 17 11 0 16 5 5 11 10 14 11 0 0 3 10 5 3 0 15
split_gain=23.5423 11.3655 6.80998 4.22217 2.24955 2.7594 2.13582 3.0516 2.87205 0.911734 0.816192 0.354352 0.232772 0.15279 0.0508922 0.0198357 0.00778616 0.00454988 0.00274536 0.00177112 0.000648144 0.00044937 0.000273967 0.000141235 6.63414e-05 3.31993e-05 2.82577e-05 2.11864e-05 1.97367e-05 1.06939e-05
threshold=5.1224546125008157 3.4939108243488417 4.2578882842912149 68.500000000000014 4.0949830000658221 4.3643259484872914 6.1276517335202145 4.3480475817070348 5.7339360784478339 4.8597925348187507 4.7193765191293631 5.5476889299591159 3.990694318298726 5.0706437556792903 83.500000000000014 5.7236290001313277 6.0458309046269347 4.5502124336648437 5.8008031112306435 4.9205944739365615 2.4761039851030544 5.4644497488334229 59.500000000000007 56.500000000000007 5.4869324139874065 4.2217501705964686 4.4519375680344213 3.2010288255883759 62.500000000000007 2.9278151739173475
decision_type=2 2 2 2 2 2 2 2 2 2 2 2 2 2 2 2 2 2 2 2 2 2 2 2 2 2 2 2 2 2
left_child=2 9 19 4 5 -4 8 -8 12 -2 -6 13 -3 16 18 17 20 -14 -11 -1 -12 22 -19 26 27 -25 -22 28 -23 -27
right_child=1 6 3 -5 10 -7 7 -9 -10 14 11 -13 15 -15 -16 -17 -18 21 -20 -21 23 24 -24 25 -26 29 -28 -29 -30 -31
leaf_value=0.12275290471652962 -0.014952285415784278 0.070904179550739202 -0.086750511774343897 0.14463288436567831 -0.01545678171330332 0.18115210622903244 -0.11976894893028525 0.13201746585131394 -0.092914751917989313 -0.11538598396219502 -0.11866132246802706 -0.054619874912202764 0.12167748859315625 -0.1675266438579022 -0.14891190600650425 0.13491678520113665 -0.12590912977631516 0.11867141948155238 -0.12333729264578452 0.11618419369375504 -0.11596022979905672 0.11526049321392978 0.11600777161375891 -0.11576013944970548 0.11634749604525912 -0.11568038777738687 -0.11692761552225131 0.11523247266947785 0.11608224014108258 -0.1152417339021149
leaf_weight=0.71925831586122757 0.98027010262012781 1.1911232918500996 1.0402583032846511 0.73487156629562278 0.87409101426601665 0.60987053811550129 1.0485699623823155 0.88983537256717671 0.69892895221710105 1.0399776846170428 0.64419846236706035 0.93394008278846641 1.2969998493790686 0.59903823584318239 0.81120432913303364 0.57312978804111381 0.76415859162807542 0.65126431733369716 0.74551361799240101 0.95613702386617661 0.59325280785560497 0.57435133308171937 0.94853327423334122 1.5287800878286351 0.600823715329171 0.58561673760414024 0.6149446964263916 11.814579486846922 0.59513910859823227 10.902575165033339
leaf_count=5 7 7 7 4 6 4 8 5 3 9 5 5 9 3 4 3 5 5 5 8 5 5 8 13 5 5 5 103 5 95
internal_value=-8.61467e-06 0.0675821 -0.0748146 -0.0907124 -0.0994957 0.0122635 0.0957934 -0.00418504 0.106023 -0.0971225 -0.109718 -0.114518 0.113643 -0.117964 -0.128142 0.116628 -0.116065 0.115992 -0.118706 0.119004 -0.115559 0.115507 0.117092 -0.115418 0.11532 -0.115322 -0.116453 0.115273 0.115679 -0.115264
internal_weight=46.5612 24.4602 22.101 20.4256 19.6907 1.65013 20.8833 1.93841 18.9449 3.57697 18.0406 17.1665 18.2459 16.2326 2.5967 17.0548 15.6335 16.4817 1.78549 1.6754 14.8694 15.1847 1.5998 14.2252 13.5849 13.017 1.2082 12.9841 1.16949 11.4882
internal_count=366 191 175 162 158 11 166 13 153 25 147 141 150 136 18 143 133 140 14 13 128 131 13 123 118 113 10 113 10 100
is_linear=0
shrinkage=0.1


Tree=14
num_leaves=31
num_cat=0
split_feature=4 10 3 7 6 12 5 17 17 7 17 6 7 17 12 3 7 6 9 13 12 7 17 0 13 0 0 3 11 5
split_gain=24.5124 7.07989 3.85555 1.76714 2.58829 1.54485 3.48831 2.14142 2.39764 1.45575 2.94599 0.936035 0.539557 0.021425 0.0110331 0.00938583 0.0119231 0.00161091 0.00150456 0.00148312 0.00102022 0.00127996 0.00125425 0.000597318 0.000182423 0.000163274 6.56319e-05 5.93575e-05 4.42105e-05 5.40869e-05
threshold=4.4314831441834075 2.5840887326396684 4.8987409237177406 4.8208368123050134 5.6552532517609118 5.2429495448596493 6.0877957784800634 4.949041317709912 5.1697937369405 2.6136695907792631 5.4413246803472184 3.0291964734315528 6.0345231431036046 5.785827826622417 5.3655402808587276 4.3747340675410733 4.0035507280843134 4.052663396894558 4.5277027229865396 5.5160026056132629 5.3943283247421263 3.2375946341987221 5.2011903061445528 69.500000000000014 4.1145397982810037 68.500000000000014 58.500000000000007 5.5236421324369713 5.5235924540262404 5.4008565732455294
decision_type=2 2 2 2 2 2 2 2 2 2 2 2 2 2 2 2 2 2 2 2 2 2 2 2 2 2 2 2 2 2
left_child=2 11 -1 4 -4 6 7 15 -9 10 -7 -2 14 20 19 16 -3 -13 -12 27 -11 22 -22 -17 25 -23 -19 -5 29 -26
right_child=1 5 3 12 -6 9 -8 8 -10 13 18 17 -14 -15 -16 23 -18 26 -20 -21 21 24 -24 -25 28 -27 -28 -29 -30 -31
leaf_value=0.13140980093771198 0.024780174466713042 0.11642106450262507 0.096586878064625736 -0.11363583618553447 -0.12362300799841852 -0.094915689204539855 -0.13803402526745576 -0.085130193584879651 0.11549969777348934 0.11777021755392761 0.11359978168597276 -0.12030063935413914 -0.032036528653290999 0.13526647392931521 -0.12855733543265963 0.11374620003305547 0.13238134736469462 -0.11551658666908643 0.12009517490397591 -0.1185707653721982 0.12009127790677727 0.11616457051720441 0.11360349112639741 0.11765486772887897 0.11369053248626443 0.11386103254669747 -0.11410290870544032 -0.11434377911368543 0.11355065361605975 0.11481658597877387
leaf_weight=0.7645017802715327 0.59360300004482569 0.82820239663124384 1.0742999762296706 11.930001989006987 1.0607886612415312 1.0705082491040223 0.91592217981815327 1.4163112789392474 1.0279888585209844 0.86524696648120603 1.2646129876375196 0.84104606509208713 0.84002733230590898 0.51637812703847963 0.53600814938545305 1.0607121139764784 1.0764129310846327 0.57931879162788369 0.49667299538850773 0.65784864127636034 0.68564870953559764 0.59231209754943737 0.52703212946653366 0.61921393126249302 1.163787342607973 0.64035367220640182 0.75825159996747971 1.3148827552795417 6.8309265002608299 0.67335222661495198
leaf_count=5 3 7 6 113 8 9 5 7 9 7 12 6 5 3 4 10 6 5 4 5 5 5 5 5 11 6 7 12 65 6
internal_value=3.44921e-06 0.0641638 -0.0883884 -0.098038 -0.0128213 0.0829224 0.0437964 0.0714207 -0.000752138 0.100651 0.0359135 -0.0865402 -0.109946 0.115322 -0.114479 0.120635 0.125441 -0.116871 0.115431 -0.113936 0.114463 0.114205 0.117272 0.115187 0.11383 0.114968 -0.114715 -0.113706 0.113668 0.114103
internal_weight=43.2222 25.0438 18.1784 17.4139 2.13509 22.2716 6.94476 6.02884 2.4443 15.3268 2.83179 2.77222 15.2788 12.495 14.4387 3.58454 1.90462 2.17862 1.76129 13.9027 11.9787 11.1134 1.21268 1.67993 9.90073 1.23267 1.33757 13.2449 8.66807 1.83714
internal_count=366 208 158 153 14 187 49 44 16 138 25 21 139 113 134 28 13 18 16 130 110 103 10 15 93 11 12 125 82 17
is_linear=0
shrinkage=0.1


Tree=15
num_leaves=31
num_cat=0
split_feature=4 3 15 3 7 6 17 5 6 6 7 14 5 7 3 3 6 12 4 13 4 1 15 5 5 4 3 13 14 14
split_gain=21.6628 3.8723 3.44076 3.40578 1.61477 2.24329 1.19881 3.05167 1.22239 1.35814 1.26405 3.18875 0.828568 0.555099 0.0530058 0.094854 0.0102065 0.00818303 0.00139603 0.00104824 0.000888301 0.000623211 0.00142168 0.00109149 0.00051043 0.000101365 4.21669e-05 3.6387e-05 6.57778e-05 1.47077e-05
threshold=4.4314831441834075 5.2945081986453246 5.148980097587935 4.8987409237177406 4.8208368123050134 5.6552532517609118 3.8476980180717706 6.0877957784800634 5.94145434139865 6.0748419755338876 2.6136695907792631 5.3466802952994135 6.18185765977677 6.0345231431036046 5.8183665689283917 5.3820700845448943 5.0447352290354139 5.3655402808587276 5.5305980278947944 5.5160026056132629 5.3597085371531508 1.0000000180025095e-35 5.3372959385630265 5.2925930554330556 4.5502124336648437 6.1265647995391008 5.5236421324369713 4.0067180883738525 6.1410334346433872 4.4791394955659021
decision_type=2 2 2 2 2 2 2 2 2 2 2 2 2 2 2 2 2 2 2 2 2 2 2 2 2 2 2 2 2 2
left_child=3 6 16 -1 5 -5 7 -2 10 -10 11 -8 14 17 15 20 -3 19 -13 26 -4 22 23 -12 -23 -24 -6 28 -26 -29
right_child=1 2 12 4 13 -7 8 -9 9 -11 21 18 -14 -15 -16 -17 -18 -19 -20 -21 -22 24 25 -25 27 -27 -28 29 -30 -31
leaf_value=0.12794672033663507 0.12376899380594285 0.11201945587964959 -0.11258194380270244 0.089648075070005759 -0.11217118752826744 -0.12111825398567913 -0.11602097006642687 -0.13347609738171462 -0.044246600213406012 0.12681605073708632 0.113049091223482 0.11212902214019763 0.022066912665923092 -0.028947618123668657 -0.13639667962418262 -0.065066056115262186 0.13094833848369489 -0.12552649025260854 0.11842684954824118 -0.11649709290875312 -0.11800022551310706 0.11537515642554304 0.11374660983069569 0.11898765743064062 0.11363380307586078 0.1121610045509943 -0.11279443906084119 0.11262836713252181 0.11218254849387298 0.11214427394395661
leaf_weight=0.70950336009264248 1.0003077387809813 0.67044611275195964 0.49634098261594839 1.0433630645275145 10.928419940173617 0.9786674678325652 0.90213347971439661 0.85558518767356861 1.3020202815532678 0.72121297568082798 0.50680260360240692 1.3505658581852911 0.5995938479900359 0.83687220513820726 0.56268224865198124 0.51648779213428486 0.49529619514942169 0.4961060583591469 0.47603889554738987 0.60529518127441484 0.77507965266704559 0.5695977061986931 0.52481114864349399 0.79498289525508881 0.52355588227510252 1.7396267801523206 1.2052574753761298 0.6962032988667487 0.77406371384859085 6.3694090843200684
leaf_count=5 7 7 5 6 113 8 8 5 7 5 5 14 3 5 4 5 3 4 4 5 6 5 5 6 5 18 12 7 8 66
internal_value=1.30598e-05 0.0625917 -0.0253892 -0.0864723 -0.0959249 -0.0123633 0.0815442 0.00517644 0.08976 0.0167313 0.0994629 0.0378003 -0.082863 -0.107932 -0.109629 -0.101205 0.120062 -0.112926 0.11377 -0.112436 -0.115885 0.112925 0.114042 0.116676 0.112479 0.112528 -0.112233 0.112281 0.112768 0.112192
internal_weight=40.0263 23.2228 4.11593 16.8035 16.094 2.02203 19.1069 1.85589 17.251 2.02323 15.2278 2.72874 2.95018 14.072 2.35059 1.78791 1.16574 13.2351 1.8266 12.739 1.27142 12.4991 3.56622 1.30179 8.93283 2.26444 12.1337 8.36323 1.29762 7.06561
internal_count=366 208 33 158 153 14 175 12 163 12 151 26 23 139 20 16 10 134 18 130 11 125 34 11 91 23 125 86 13 73
is_linear=0
shrinkage=0.1


Tree=16
num_leaves=31
num_cat=0
split_feature=4 10 16 7 9 1 4 15 5 7 5 5 5 13 9 16 17 4 17 10 5 11 4 9 9 5 10 9 4 10
split_gain=19.1609 5.55026 2.42209 1.93907 2.1892 1.31352 2.10343 2.99701 0.807277 0.645559 0.331993 0.286877 0.444603 0.273181 0.0667417 0.0114279 0.00473568 0.00364766 0.00173938 0.000835 0.00075584 0.000117281 6.64616e-05 3.63484e-05 6.12301e-05 2.84527e-05 2.56777e-05 1.92289e-05 1.04099e-05 7.07771e-06
threshold=4.4314831441834075 2.5840887326396684 5.7339360784478339 4.8208368123050134 5.2146658210534174 1.0000000180025095e-35 5.6654036336057283 5.1292685168820746 6.18185765977677 5.9516245581878424 3.6306055223801805 6.0877957784800634 5.2735698933747548 5.4669700924700271 3.924309328897877 5.7236290001313277 5.2600974015490527 5.284495157990543 4.2836154916766302 5.6754424705757485 6.1582810632582001 5.1446650043326505 5.905437214064742 5.623627156691601 5.7294621598932602 5.5408012635459949 5.7438171155933206 4.2812815901983443 5.1186699243146583 4.6885176455935413
decision_type=2 2 2 2 2 2 2 2 2 2 2 2 2 2 2 2 2 2 2 2 2 2 2 2 2 2 2 2 2 2
left_child=3 8 5 4 -1 6 7 17 20 13 -7 12 -9 14 -5 18 26 -3 -12 22 25 -20 -8 27 -25 -2 -16 28 -23 -29
right_child=1 2 -4 9 -6 10 19 11 -10 -11 15 -13 -14 -15 16 -17 -18 -19 21 -21 -22 23 -24 24 -26 -27 -28 29 -30 -31
leaf_value=0.086882570813258522 -0.11140301588089362 0.1136260885380926 -0.06630011623846005 -0.079726036017635407 -0.11749581281923323 0.052935248879774348 0.11218981735329225 -0.1157596413847669 0.019677688400751212 -0.023060136096950741 0.1166349683435548 -0.12957483019072066 0.0090556078879854632 -0.052831593998135751 -0.11089960728082152 0.12695799128449842 -0.11969232555208034 0.12478591076983714 0.1123483152558019 0.11520723856037432 -0.1159972071053663 0.11100100061737116 0.11085274115433574 0.11236426796629749 0.11080525285293669 -0.11241498874820993 -0.11165951162861064 0.1112068816045553 0.11167681408998807 0.11083173512090386
leaf_weight=1.2782431617379182 0.64292403310537627 0.61036497354507913 1.0776820480823506 0.70588357001542767 0.88833261281251896 1.0382039323449141 0.47763998061418611 0.55335392802953698 0.60485996305942524 1.0352082848548878 0.59660291671752652 0.79626251757144917 0.58933369815349579 0.91900485754013139 9.5697132945060677 0.49368478357791978 0.65797504782676774 0.56308568269014359 0.67481198906898399 0.66308039426803578 0.71280710399150837 0.44596974551677515 1.6769904941320417 0.48176986724138149 0.52803273499011993 0.48926635831594467 0.46633999794721681 0.54315060377120961 0.46617724001407623 6.7882293686270714
leaf_count=8 7 6 5 8 8 7 5 5 3 7 5 5 6 8 108 3 6 4 7 6 6 5 19 5 6 5 5 6 5 77
internal_value=1.65934e-05 0.06111 0.0793176 -0.0846691 0.00308399 0.0880423 0.0495101 -0.00715728 -0.0805785 -0.0989062 0.106995 -0.0834961 -0.051387 -0.10528 -0.109508 0.112088 -0.111474 0.118981 0.111391 0.112104 -0.113446 0.111076 0.111149 0.110983 0.111549 -0.11184 -0.110935 0.110913 0.111346 0.11086
internal_weight=37.035 21.5143 19.0644 15.5207 2.16658 17.9867 5.93011 3.1124 2.44986 13.3541 12.0566 1.93895 1.14269 12.3189 11.3999 11.0184 10.694 1.17345 10.5247 2.81771 1.845 9.92814 2.15463 9.25333 1.0098 1.13219 10.0361 8.24353 0.912147 7.33138
internal_count=366 208 187 158 16 182 56 26 21 142 126 16 11 135 127 119 119 10 116 30 18 111 24 104 11 12 113 93 10 83
is_linear=0
shrinkage=0.1


Tree=17
num_leaves=31
num_cat=0
split_feature=4 10 8 16 8 8 14 10 6 15 13 17 16 15 4 17 11 1 6 11 3 6 13 11 8 3 3 3 10 6
split_gain=16.8696 4.89275 3.25022 2.15754 1.84303 1.75695 4.01184 1.14989 0.75203 0.378306 0.267078 0.741515 0.0073188 0.00624015 0.0197872 0.00553035 0.00382343 0.00178889 0.000536386 0.00044944 0.000206807 0.000162933 9.53245e-05 5.15113e-05 6.85059e-05 2.94024e-05 2.03644e-05 1.83971e-05 1.40407e-05 6.97105e-06
threshold=4.4314831441834075 2.5840887326396684 4.2578882842912149 5.7339360784478339 5.3723067161925773 5.61493255138911 5.3466802952994135 6.1388398703953477 3.0291964734315528 5.2352872832786401 3.2725842339671702 5.1256500189094174 5.7236290001313277 4.8347787702351761 4.3413980910566847 3.8476980180717706 5.8008031112306435 1.0000000180025095e-35 4.052663396894558 4.738567699181405 5.3028015849892274 5.9052669386184133 5.5780267665914236 5.5235924540262404 4.5748660178934717 5.4116021701799228 5.4116021701799228 5.5236421324369713 6.3006883374864318 5.0865296211479532
decision_type=2 2 2 2 2 2 2 2 2 2 2 2 2 2 2 2 2 2 2 2 2 2 2 2 2 2 2 2 2 2
left_child=2 8 -1 5 7 10 9 13 -2 -7 11 -3 15 16 -15 -12 22 -8 -10 -17 -16 23 27 24 29 28 -20 -4 -25 -21
right_child=1 3 4 -5 -6 6 17 -9 18 -11 12 -13 -14 14 20 19 -18 -19 26 21 -22 -23 -24 25 -26 -27 -28 -29 -30 -31
leaf_value=0.11990765087483082 0.01756764821371504 0.11905866280304485 -0.10974445743634945 -0.059546624255073677 0.026205726301260026 -0.030351279457172642 0.11544509416162868 0.035962739582344729 -0.11424553515982067 -0.12218966643245627 0.11921578113811862 -0.033942044698590017 0.12376583851748707 -0.13406864170963029 -0.1123938248815233 0.11313400382167001 -0.11913734337831738 0.10973780364545967 -0.11020098217421813 0.11014458192959076 -0.10984901184762086 0.11187339417217231 -0.1112905934565426 0.10971917614265486 0.11117910259971316 0.11062024645830558 -0.11109616272060477 -0.110197823820121 0.11026909840972232 0.1096305517218287
leaf_weight=0.75292158126830955 0.60949836671352686 0.89163248986006383 8.0893183574080378 1.0797859132289875 1.1755127757787693 0.80349995195865531 0.77955019474029552 0.55485687404871065 0.65435460209846485 1.0152957737445829 0.73242329061031064 0.49130278080701828 0.45762795209884721 0.48154777288436967 0.47387534379959084 0.49484939128160377 0.46641027927398759 1.8585115075111389 0.5877617076039312 0.58481484651565174 0.97924249619245529 0.45968248695135194 0.4468758627772339 5.8917948007583618 0.7129673659801482 0.42628279328346241 0.4476921483874321 1.0064108073711384 0.50400333106517781 0.4806751012802124
leaf_count=6 3 8 100 5 7 8 7 4 6 8 6 4 3 3 5 5 4 23 7 7 12 5 5 73 8 5 5 12 6 6
internal_value=2.12075e-05 0.0595592 -0.0823674 0.0774199 -0.093505 0.0863373 0.0326459 -0.104764 -0.0776575 -0.0816177 0.106068 0.0647035 0.111392 -0.111302 -0.116501 0.110841 -0.110297 0.111424 -0.112004 0.110199 -0.110679 0.110039 -0.109865 0.109941 0.11042 0.109816 -0.110588 -0.109795 0.109763 0.109913
internal_weight=34.391 19.964 14.427 17.6647 13.6741 16.5849 4.45686 12.4985 2.29931 1.8188 12.1281 1.38294 10.7451 11.9437 1.93467 10.2875 10.009 2.63806 1.68981 9.55507 1.45312 9.06022 9.54261 8.60054 1.77846 6.82208 1.03545 9.09573 6.3958 1.06549
internal_count=366 208 158 187 152 182 46 145 21 16 136 12 124 141 20 121 121 30 18 115 17 110 117 105 21 84 12 112 79 13
is_linear=0
shrinkage=0.1


Tree=18
num_leaves=31
num_cat=0
split_feature=4 3 2 9 16 14 0 9 7 14 2 9 7 6 6 17 3 6 13 9 17 4 5 7 1 5 13 12 13 17
split_gain=14.9085 2.79006 2.77512 2.95031 2.8167 1.78905 1.51144 1.19495 1.0389 2.41347 0.946135 1.75271 0.522775 0.298087 0.0321355 0.0236516 0.0216698 0.0122975 0.00703277 0.00418933 0.00316791 0.000613257 0.000577413 0.000298411 0.000748374 0.000171082 0.000158875 0.000151817 6.46924e-05 2.86605e-05
threshold=4.4314831441834075 4.8987409237177406 1.0000000180025095e-35 5.4976291549736862 5.7339360784478339 4.3351448473631455 55.500000000000007 6.2029790769381021 2.6136695907792631 5.3466802952994135 1.0000000180025095e-35 5.2146658210534174 4.0035507280843134 4.3237470500432762 4.5154815347490116 6.1723406209182166 5.9956897637494171 6.0084794178786263 5.287858469459592 3.924309328897877 4.2836154916766302 5.3199057680207664 5.2366056454953114 3.2375946341987221 1.0000000180025095e-35 4.6405699452268827 5.4645546844254502 5.3505973121458839 4.1145397982810037 4.479161706100661
decision_type=2 2 2 2 2 2 2 2 2 2 2 2 2 2 2 2 2 2 2 2 2 2 2 2 2 2 2 2 2 2
left_child=1 -1 3 4 12 -5 -3 14 9 -4 13 -12 -2 -8 18 20 19 27 21 -15 -10 -7 -11 24 -22 -25 -21 -14 -29 -27
right_child=2 6 8 5 -6 7 10 -9 15 22 11 -13 17 16 -16 -17 -18 -19 -20 26 23 -23 -24 25 -26 29 -28 28 -30 -31
leaf_value=0.12495477640503344 0.021863272479083214 0.088626374253612861 -0.11247141557466318 0.10925761847835934 -0.16209578980873698 -0.10938612799900034 -0.033839140803126527 0.03361114595375362 0.11589788126625666 0.10869235040068755 0.12180422600599504 -0.11428501211221956 0.11088896007151389 -0.11680713306124764 -0.088156336874716759 0.13548369644194172 -0.12790629200781159 0.12528947311899261 -0.12472275128098574 -0.108766215221319 0.11367633318537054 -0.11352960263503989 0.11326282678461824 0.11074761026814733 0.10869312351159842 0.10964428124084771 -0.11047040108738373 0.11006438677433275 0.10886412683578253 0.10875257440239244
leaf_weight=0.62926618009805935 0.78068754822015751 0.45294450223445792 0.74686501920223269 0.61512035131454501 0.47058206796646107 0.70304064452648229 0.53071566671132764 0.76006504893302906 0.83122602850198735 1.0300610736012457 0.53636981546878881 0.76003216952085495 0.76852285116911012 0.7191627621650668 0.56351229548454274 0.38586635887622822 0.68150158226490098 0.61434068530797947 0.55877059698104847 8.4435848966240847 0.5104265362024305 0.72613866627216339 0.37779846787452687 0.51344937086105336 0.73581858724355698 0.39289990067481984 0.58493875712156373 0.65682605654001269 1.4196264594793317 4.363638699054718
leaf_count=5 7 3 8 8 2 9 5 5 8 14 4 8 9 8 5 2 4 4 4 114 5 7 4 6 10 5 7 8 19 59
internal_value=2.66257e-05 -0.0805848 0.0580682 0.0166562 0.0700167 -0.0473576 -0.0907615 -0.076449 0.0942417 0.0328345 -0.097391 -0.0166061 0.095778 -0.106947 -0.109235 0.111351 -0.110667 0.112459 -0.11521 -0.109462 0.110084 -0.111491 0.109919 0.109343 0.110734 0.109013 -0.108877 0.109688 0.109244 0.108826
internal_weight=31.8638 13.3385 18.5253 8.63723 4.71059 3.92665 12.7093 3.31153 9.88805 2.15472 12.2563 1.2964 4.24 10.9599 2.55146 7.73333 10.4292 3.45932 1.98795 9.74769 7.34746 1.42918 1.40786 6.51623 1.24625 5.26999 9.02852 2.84498 2.07645 4.75654
internal_count=366 158 208 87 49 38 153 30 121 26 150 12 47 138 25 95 133 40 20 129 93 16 18 85 15 70 121 36 27 64
is_linear=0
shrinkage=0.1


Tree=19
num_leaves=31
num_cat=0
split_feature=4 10 3 17 6 0 7 15 4 17 2 9 6 6 3 13 9 17 9 6 5 7 1 3 13 13 17 0 10 10
split_gain=13.2347 3.86708 2.47819 1.76188 1.56006 1.34538 0.96579 2.15848 0.933676 1.9479 0.845122 1.55913 0.640561 0.30803 0.0152299 0.00403881 0.00318191 0.000462155 0.000374778 0.0002627 0.000253426 0.00022365 0.000552415 0.000117087 0.000115207 3.84446e-05 2.65172e-05 1.44308e-05 9.9344e-06 3.37948e-06
threshold=4.4314831441834075 2.5840887326396684 4.8987409237177406 3.306860842606433 5.94145434139865 55.500000000000007 2.6136695907792631 5.1292685168820746 5.0613582059825104 4.949041317709912 1.0000000180025095e-35 5.2146658210534174 3.0291964734315528 4.3237470500432762 5.9956897637494171 5.8702890289571918 3.924309328897877 4.1412130194343719 4.5277027229865396 4.052663396894558 4.5502124336648437 3.2375946341987221 1.0000000180025095e-35 5.4869324139874065 5.4645546844254502 4.1145397982810037 5.1697937369405 58.500000000000007 5.7438171155933206 6.2362612013861893
decision_type=2 2 2 2 2 2 2 2 2 2 2 2 2 2 2 2 2 2 2 2 2 2 2 2 2 2 2 2 2 2
left_child=2 12 -1 -3 6 -4 7 18 9 -6 13 -12 -2 -7 16 17 -15 -8 -5 -14 -19 22 -22 25 28 26 -23 -21 -18 -27
right_child=1 3 5 4 8 10 15 -9 -10 -11 11 -13 19 14 -16 -17 24 20 -20 27 21 23 -24 -25 -26 29 -28 -29 -30 -31
leaf_value=0.12234495790036881 0.012164615097911835 -0.07061297348036899 0.081365641684764525 0.10785135216464424 0.11676784605550222 -0.030841286339772091 0.11121564817751509 -0.11116306947036886 0.11864051622933772 -0.11038989695155046 0.11937461937215199 -0.11281321197186289 -0.11134428974967531 -0.11518045065244334 -0.12455781534184274 0.11840543363464939 -0.10783784646099373 0.11056261605433487 0.11173139424637564 -0.10901268336695397 0.11221965282105228 0.10792678251359245 0.10790693226644253 0.10958870373030574 -0.10938137262678466 0.10782910177947191 0.10909425856045761 -0.1081899950646571 -0.10837898777024693 0.10806468836524941
leaf_weight=0.58090350776911037 0.6212906539440185 0.79477505385875602 0.44448743760585685 0.94457395374774822 0.57677056640386526 0.52441939711570462 0.61893282085656842 0.68333719670772541 0.54692178219556797 1.092603415250778 0.49469527602195806 0.69621729850769043 0.54857563972473122 0.65944480895995816 0.63236427307128984 0.43653520196676332 7.345105513930319 0.50734119117259879 0.33803242444992065 0.37770818918943405 0.46754026412963667 0.3394060507416724 0.8142668604850769 0.46144691854715336 0.53427404165267933 5.3165123127400875 0.45584148168563843 0.48959068208932877 0.35567829012870777 0.68766139447689045
leaf_count=5 3 6 3 14 5 5 7 8 5 5 4 8 6 8 4 4 109 6 4 5 5 5 12 6 7 79 6 7 5 10
internal_value=2.60546e-05 0.0568341 -0.0792507 0.0743012 0.0823622 -0.0892713 0.0965209 0.0323919 0.00524432 -0.0319066 -0.0960178 -0.0163643 -0.0724864 -0.105455 -0.109563 0.108997 -0.108497 0.108572 0.108874 -0.109632 0.108391 0.108262 0.10948 0.108047 -0.107961 0.107943 0.108596 -0.108548 -0.107863 0.107856
internal_weight=29.3873 17.1197 12.2676 15.0825 14.2877 11.6867 12.0714 1.96594 2.2163 1.66937 11.2422 1.19091 2.03717 10.0513 9.52687 10.1055 8.8945 9.66895 1.28261 1.41587 9.05002 8.54268 1.28181 7.26087 8.23506 6.79942 0.795248 0.867299 7.70078 6.00417
internal_count=366 208 158 187 181 153 166 26 15 10 150 12 21 138 133 140 129 136 18 18 129 123 17 106 121 100 11 12 114 89
is_linear=0
shrinkage=0.1


Tree=20
num_leaves=31
num_cat=0
split_feature=4 11 8 8 3 8 9 3 7 6 9 14 8 11 4 6 3 13 17 13 3 12 7 2 11 13 3 4 1 17
split_gain=11.7628 2.95882 2.47639 1.94056 1.83576 1.68144 0.954791 0.858047 0.847375 1.14932 0.744663 0.528062 0.321029 0.209048 0.322606 0.0272217 0.0112137 0.0047331 0.00345515 0.000860937 0.000264598 0.000118372 9.95053e-05 8.89586e-05 1.25333e-05 1.35722e-05 6.8405e-06 3.29679e-06 9.39438e-06 2.76029e-06
threshold=4.4314831441834075 5.1098806585726555 4.2578882842912149 5.0262460147884811 4.8987409237177406 6.1276517335202145 6.2029790769381021 4.3480475817070348 4.8208368123050134 5.6552532517609118 4.0686736559845569 5.5269179101203063 5.0626793710824805 5.270284757545161 5.3999378759164811 4.5154815347490116 5.9956897637494171 5.8702890289571918 3.990694318298726 5.5160026056132629 5.3068129274546578 4.826683873493649 4.7601591389726456 1.0000000180025095e-35 5.5235924540262404 2.5697933336735015 5.5236421324369713 5.8125326291351849 1.0000000180025095e-35 5.0184482169651536
decision_type=2 2 2 2 2 2 2 2 2 2 2 2 2 2 2 2 2 2 2 2 2 2 2 2 2 2 2 2 2 2
left_child=2 3 -1 23 -4 10 12 -7 9 -6 11 -3 -5 14 -12 20 19 18 -15 26 -14 22 -20 -2 -23 -26 -10 28 -27 -30
right_child=1 5 4 6 8 7 -8 -9 16 -11 13 -13 15 17 -16 -17 -18 -19 21 -21 -22 24 -24 -25 25 27 -28 -29 29 -31
leaf_value=0.1170022261174512 0.10917373225660323 -0.028007908328732303 0.12432356900003168 -0.035226419198441043 0.072972529909321626 -0.11000354351225095 0.033145845214881807 0.047439535232167138 -0.10703086249756968 -0.11418473637666003 0.1090583359534818 0.10888717668673289 -0.11288584337855055 0.11594284098354157 -0.014247329119770672 -0.14064221240053917 -0.12168342415613416 0.12005838797129285 0.10744369727356394 -0.1107796357262838 -0.10971673538671922 0.10773303065117745 0.10957449630831551 0.10715107610406434 0.10772639798103745 0.10764026685018374 -0.10734614801563486 0.10698214904822478 0.10727917536412826 0.1070359298685592
leaf_weight=0.61580184102058666 0.52033408358693067 0.79210662096738704 0.38784503191709419 0.63624586910009462 0.64473645389079937 0.62449253350496181 0.80210284888744343 0.77662481367588043 6.9338783994317019 0.66815023124217987 0.50029093399643798 0.4373653270304203 0.49838138371705987 0.48944587260484329 0.36844298988580704 0.44716727733612049 0.58500266075134355 0.327500060200692 0.51120533421635617 0.67783515527844418 0.55891779810190201 0.33135335892438877 0.38362470269203186 0.37354090064764023 0.33059202134609211 0.3287036977708343 0.76396304368972767 2.56210782751441 0.56668063998222384 2.6392648182809353
leaf_count=6 7 5 3 8 4 8 5 6 113 8 7 6 5 5 4 4 4 3 8 8 7 5 5 6 5 5 12 42 9 43
internal_value=4.20783e-05 0.0557074 -0.0779802 -0.0207125 -0.0892423 0.0802023 -0.0599085 -0.0227345 -0.0973048 -0.022275 0.0938489 0.0206904 -0.094775 0.10348 0.0567626 -0.119958 -0.108298 0.108271 0.107797 -0.107363 -0.111211 0.107276 0.108357 0.108328 0.107133 0.107102 -0.107062 0.107069 0.107131 0.107079
internal_weight=27.0837 15.8065 11.2772 3.83669 10.6614 11.9698 2.94282 1.40112 10.2736 1.31289 10.5687 1.22947 2.14071 9.33921 0.868734 1.50447 8.96068 8.47048 8.14298 8.37568 1.0573 7.65353 0.89483 0.893875 6.7587 6.42735 7.69784 6.09676 3.53465 3.20595
internal_count=366 208 158 42 152 166 29 14 149 12 152 11 24 141 11 16 137 130 127 133 12 122 13 13 109 104 125 99 57 52
is_linear=0
shrinkage=0.1


Tree=21
num_leaves=31
num_cat=0
split_feature=4 10 8 3 8 12 12 4 7 3 3 11 4 5 3 3 12 13 13 0 11 8 7 12 13 9 10 8 0 5
split_gain=10.4391 3.12616 2.20934 1.63612 1.29293 1.22187 2.14187 1.17537 0.799143 0.938531 0.758874 0.697234 0.46115 0.020378 0.00798628 0.00730326 0.00467663 0.00360447 0.000623848 0.000193576 3.11084e-05 2.70358e-05 1.78002e-05 1.36738e-05 1.3361e-05 8.39302e-06 5.15536e-06 4.24486e-06 2.09809e-06 1.87169e-06
threshold=4.4314831441834075 2.5840887326396684 4.2578882842912149 4.8987409237177406 6.1276517335202145 5.2429495448596493 5.0975837472291081 5.4418848145483691 4.8208368123050134 5.2766734605898913 4.3480475817070348 5.0382970037331596 4.5872507583636528 6.18185765977677 5.9956897637494171 4.3747340675410733 5.0130276256679798 5.8702890289571918 5.5160026056132629 71.500000000000014 5.5235924540262404 4.5748660178934717 4.8797736539872085 5.3943283247421263 4.0067180883738525 4.7740584747661972 5.7438171155933206 5.7374725374322875 61.500000000000007 5.1124232431136285
decision_type=2 2 2 2 2 2 2 2 2 2 2 2 2 2 2 2 2 2 2 2 2 2 2 2 2 2 2 2 2 2
left_child=2 11 -1 -4 5 6 12 -8 9 -5 -6 13 -3 -2 18 16 -14 20 26 28 21 29 -23 -22 25 -25 -10 -26 -17 -7
right_child=1 4 3 8 10 17 7 -9 14 -11 -12 -13 15 -15 -16 19 -18 -19 -20 -21 23 22 -24 24 27 -27 -28 -29 -30 -31
leaf_value=0.11523777906836413 -0.10710382223764724 0.0076922107641249921 0.12168361445282368 0.062291638303304434 -0.1089736094218214 0.10629173814964739 -0.10260967546898439 0.10848814550600745 -0.10632717123555034 -0.1115898433103342 0.043592099235738167 0.010082200974413549 0.12654679280142936 -0.13542839378270283 -0.11920044855723107 0.10656879142917178 0.11324774339959459 0.11640070097326177 -0.10965628442559516 0.10933444944273239 0.10707400657491012 0.10680185834745298 0.10782238813877212 0.10718905301355985 0.10629961245038066 0.10643738705894255 -0.10675396883102856 0.10663764270493861 0.10624002466537784 0.10663913708479432
leaf_weight=0.56529378890991466 0.74153218790888675 0.51382646709680413 0.35815743356943031 0.64499686658382305 0.57013126090168842 0.27833197638392426 1.180665038526058 0.3396322913467883 6.7143821977078897 0.59840619564056396 0.76147903501987457 0.70294760167598713 0.452492415904999 0.386333167552948 0.53978839516639698 0.34604281932115533 0.63617335259914398 0.39050396904349316 0.61929174885153759 0.30987638980150223 0.30501562729477871 0.29708226025104523 0.4024319238960743 0.31239362806081761 4.2916414923965931 0.28322859108448029 0.29547319933772076 0.40669945254921902 0.44210430234670639 0.35024485364556313
leaf_count=6 12 6 3 4 8 5 9 5 120 8 6 7 3 2 4 6 7 4 8 4 5 5 6 5 77 5 5 7 8 6
internal_value=3.49437e-05 0.0541783 -0.0769742 -0.0880951 0.071571 0.0823385 0.039491 -0.0554507 -0.0960776 -0.0213914 -0.0217292 -0.0680868 0.09294 -0.116806 -0.107446 0.112971 0.118775 0.107053 -0.106614 0.107217 0.106526 0.106961 0.107389 0.106423 0.106385 0.106832 -0.106345 0.106329 0.106384 0.106485
internal_weight=25.0366 14.7008 10.3358 9.7705 12.87 11.5384 4.22081 1.5203 9.41234 1.2434 1.33161 1.83081 2.70052 1.12787 8.16894 2.18669 1.08867 7.31757 7.62915 1.09802 6.92707 1.32809 0.699514 5.59898 5.29396 0.595622 7.00986 4.69834 0.788147 0.628577
internal_count=366 208 158 152 187 173 48 14 149 12 14 21 34 14 137 28 10 125 133 18 121 22 11 99 94 10 125 84 14 11
is_linear=0
shrinkage=0.1


Tree=22
num_leaves=31
num_cat=0
split_feature=4 10 8 16 3 8 10 12 5 16 3 3 5 6 3 10 10 13 15 12 12 12 8 1 15 13 10 3 16 0
split_gain=9.27817 2.75944 1.97218 1.67049 1.45911 1.14545 2.07687 0.819933 1.22325 0.645788 0.326823 1.82565 0.014186 0.00735068 0.00528055 0.00442896 0.00192036 0.00129585 0.00101615 0.000593626 0.000387601 0.000256794 0.000253866 0.000191056 9.55745e-05 2.94843e-05 1.67438e-05 3.18627e-06 1.95457e-06 1.55715e-06
threshold=4.4314831441834075 2.5840887326396684 4.2578882842912149 5.7339360784478339 4.8987409237177406 5.3142659052168506 5.5815922395812914 5.3655402808587276 5.333255725442144 4.0949830000658221 5.2311452445742166 5.1804496119265249 6.18185765977677 6.0084794178786263 5.9956897637494171 5.5128084374747521 6.6576499105602478 5.5160026056132629 1.5551798284460054 6.0570429756203046 5.3505973121458839 5.1330774100109933 4.7791930420974573 1.0000000180025095e-35 4.5367933897608674 4.1145397982810037 5.2004537038838796 5.5236421324369713 4.9034040714687102 61.500000000000007
decision_type=2 2 2 2 2 2 2 2 2 2 2 2 2 2 2 2 2 2 2 2 2 2 2 2 2 2 2 2 2 2
left_child=2 9 -1 5 -4 13 7 -7 -9 -2 11 15 -11 20 17 22 23 27 -19 -10 21 24 -6 -8 29 26 -22 -12 -25 -3
right_child=1 3 4 -5 10 6 16 8 19 12 14 -13 -14 -15 -16 -17 -18 18 -20 -21 25 -23 -24 28 -26 -27 -28 -29 -30 -31
leaf_value=0.11367111309453111 0.0090170656701000964 0.10602651926213996 0.1193618351550339 -0.057549460104032363 -0.10893538251082686 -0.10806694420437918 0.1083124556031218 -0.088561757377700903 0.10617436112293228 -0.10638251388222926 -0.10569198780374034 0.10438911242216929 -0.13094108992470407 0.11653840362865575 -0.11704394824689179 -0.11999086411918497 0.11509878350068539 -0.10620170524616157 -0.11379864868713402 0.1121502007273531 0.10698807906462765 0.10963777923015879 -0.10569765061243125 0.10567153146503133 0.10777648282436379 0.10571229338994066 0.10594941909693474 -0.1059321063877262 0.10596734288369575 0.10568078421942083
leaf_weight=0.51818694546818989 0.70714955776929755 0.26739450544118504 0.33005321770906348 0.9444216191768654 0.29391382262110566 0.82447972893714938 0.3412782102823263 0.57217776402831055 0.43013545125722885 0.67528291046619393 4.3300354667007923 0.50996288284659375 0.36092230677604675 0.80037870630621899 0.49695540964603413 0.2737324871122836 0.27228840440511692 0.32682704553008068 0.38169347494840622 0.27094128355383873 0.30410046130418766 0.46653654426336277 1.3756236024200914 1.4214461706578729 0.51737529411911964 3.6257649473845959 0.31698885187506676 0.63347437977790821 0.26501267403364193 0.25402677431702614
leaf_count=6 7 5 3 5 4 7 5 9 8 12 85 4 2 8 4 3 3 6 4 3 5 6 27 28 8 71 6 12 5 5
internal_value=3.45493e-05 0.0528369 -0.0760044 0.0700575 -0.0869835 0.0810631 0.0415842 -0.030374 0.0199351 -0.0646578 -0.0948822 -0.0640089 -0.114937 0.107559 -0.10716 -0.108201 0.107214 -0.106294 -0.110294 0.108484 0.10631 0.107689 -0.106268 0.106155 0.106814 0.105821 0.106458 -0.105723 0.105718 0.105858
internal_weight=23.1086 13.6381 9.47046 11.8947 8.95227 10.9503 4.39776 2.09773 1.27325 1.74335 8.62222 2.45323 1.03621 6.55257 6.16899 1.94327 2.30003 5.67203 0.708521 0.701077 5.75219 1.50533 1.66954 2.02774 1.0388 4.24685 0.621089 4.96351 1.68646 0.521421
internal_count=366 208 158 187 152 182 68 27 20 21 149 38 14 114 111 34 41 107 10 11 106 24 31 38 18 82 11 97 33 10
is_linear=0
shrinkage=0.1


end of trees

feature_importances:
Column_3=73
Column_8=58
Column_4=47
Column_5=47
Column_6=47
Column_10=43
Column_7=42
Column_17=42
Column_11=40
Column_9=39
Column_13=34
Column_0=31
Column_16=24
Column_15=23
Column_12=22
Column_14=22
Column_1=11
Column_2=6

parameters:
[boosting: gbdt]
[objective: binary]
[metric: custom]
[tree_learner: serial]
[device_type: cpu]
[data_sample_strategy: bagging]
[data: ]
[valid: ]
[num_iterations: 10000]
[learning_rate: 0.1]
[num_leaves: 31]
[num_threads: 0]
[seed: 1242]
[deterministic: 0]
[force_col_wise: 0]
[force_row_wise: 0]
[histogram_pool_size: -1]
[max_depth: -1]
[min_data_in_leaf: 5]
[min_sum_hessian_in_leaf: 0.001]
[bagging_fraction: 0.8]
[pos_bagging_fraction: 1]
[neg_bagging_fraction: 1]
[bagging_freq: 0]
[bagging_seed: 20664]
[bagging_by_query: 0]
[feature_fraction: 0.8]
[feature_fraction_bynode: 1]
[feature_fraction_seed: 4656]
[extra_trees: 0]
[extra_seed: 6363]
[early_stopping_round: 0]
[early_stopping_min_delta: 0]
[first_metric_only: 0]
[max_delta_step: 0]
[lambda_l1: 0]
[lambda_l2: 0]
[linear_lambda: 0]
[min_gain_to_split: 0]
[drop_rate: 0.1]
[max_drop: 50]
[skip_drop: 0.5]
[xgboost_dart_mode: 0]
[uniform_drop: 0]
[drop_seed: 24603]
[top_rate: 0.2]
[other_rate: 0.1]
[min_data_per_group: 100]
[max_cat_threshold: 32]
[cat_l2: 10]
[cat_smooth: 10]
[max_cat_to_onehot: 4]
[top_k: 20]
[monotone_constraints: ]
[monotone_constraints_method: basic]
[monotone_penalty: 0]
[feature_contri: ]
[forcedsplits_filename: ]
[refit_decay_rate: 0.9]
[cegb_tradeoff: 1]
[cegb_penalty_split: 0]
[cegb_penalty_feature_lazy: ]
[cegb_penalty_feature_coupled: ]
[path_smooth: 0]
[interaction_constraints: ]
[verbosity: -1]
[saved_feature_importance_type: 0]
[use_quantized_grad: 0]
[num_grad_quant_bins: 4]
[quant_train_renew_leaf: 0]
[stochastic_rounding: 1]
[linear_tree: 0]
[max_bin: 255]
[max_bin_by_feature: ]
[min_data_in_bin: 3]
[bin_construct_sample_cnt: 200000]
[data_random_seed: 4094]
[is_enable_sparse: 1]
[enable_bundle: 1]
[use_missing: 1]
[zero_as_missing: 0]
[feature_pre_filter: 1]
[pre_partition: 0]
[two_round: 0]
[header: 0]
[label_column: ]
[weight_column: ]
[group_column: ]
[ignore_column: ]
[categorical_feature: ]
[forcedbins_filename: ]
[precise_float_parser: 0]
[parser_config_file: ]
[objective_seed: 7268]
[num_class: 1]
[is_unbalance: 0]
[scale_pos_weight: 1]
[sigmoid: 1]
[boost_from_average: 1]
[reg_sqrt: 0]
[alpha: 0.9]
[fair_c: 1]
[poisson_max_delta_step: 0.7]
[tweedie_variance_power: 1.5]
[lambdarank_truncation_level: 30]
[lambdarank_norm: 1]
[label_gain: ]
[lambdarank_position_bias_regularization: 0]
[eval_at: ]
[multi_error_top_k: 1]
[auc_mu_weights: ]
[num_machines: 1]
[local_listen_port: 12400]
[time_out: 120]
[machine_list_filename: ]
[machines: ]
[gpu_platform_id: -1]
[gpu_device_id: -1]
[gpu_use_dp: 0]
[num_gpu: 1]

end of parameters

pandas_categorical:null
