tree
version=v4
num_class=1
num_tree_per_iteration=1
label_index=0
max_feature_idx=30
objective=binary sigmoid:1
feature_names=Column_0 Column_1 Column_2 Column_3 Column_4 Column_5 Column_6 Column_7 Column_8 Column_9 Column_10 Column_11 Column_12 Column_13 Column_14 Column_15 Column_16 Column_17 Column_18 Column_19 Column_20 Column_21 Column_22 Column_23 Column_24 Column_25 Column_26 Column_27 Column_28 Column_29 Column_30
feature_infos=[0:1] [39:87] [0:1] [0:1] [0:1] [0:1] [0:1] [0:1] [0:1] [0:1] [0:1] [0:1] [0:1] [0:1] [0:1] [1.8586632430022048:6.4608166863538541] [0.90899177946984622:7.087401958582543] [1.375720536406531:6.5568694143676201] [0.57747367870966682:7.5506571270209255] [2.0297812057899538:6.3991156793137938] [2.343434173214952:6.7698528118757455] [1.9251026199620362:6.2595595782155469] [1.0988076617078857:6.890558792634053] [1.9573958769736488:6.1214246623732427] [1.8433026585986703:7.3576138071371826] [1.7999603784532137:6.667261172131024] [0.46745664828767397:7.3641791247748998] [2.3039708915871437:6.5270317498460173] [0.85638050805683352:7.2070016784634419] [0.01717133052863196:7.9860415044616788] [0:14]
tree_sizes=1072 1590 1899 2208 2307 2312 2217 2315 2113 2307 2313 2227 2322 2234 2328 2441 2458 2655 2772 2859 2680 2772

Tree=0
num_leaves=10
num_cat=0
split_feature=29 15 23 23 29 29 18 22 15
split_gain=161.739 49.5338 22.6154 19.8564 8.05594 7.22436 6.79658 2.3751 0.917134
threshold=4.5959439236099433 5.3056729476486817 5.2623056951796405 4.5034036921512488 5.1625808603462113 5.9022548094959069 5.863198332003571 4.6151381622882601 4.7172631584530089
decision_type=2 2 2 2 2 2 2 2 2
left_child=6 4 3 -3 -2 -4 7 8 -1
right_child=1 2 5 -5 -6 -7 -8 -9 -10
leaf_value=-0.29333333333333278 0.15384615384615385 -0.18666666666666654 -0.40000000000000013 0.39999999999999997 0.40000000000000002 -0.049999999999999989 -0.10526315789473684 -0.23157894736842108 -0.40000000000000002
leaf_weight=3.7500000000000062 6.4999999999999991 3.7500000000000018 5.7499999999999982 6 29.25 4 4.7499999999999991 4.7499999999999991 23
leaf_count=15 26 15 23 24 117 16 19 19 92
internal_value=0 0.215385 -0.0410256 0.174359 0.355245 -0.25641 -0.328276 -0.361905 -0.385047
internal_weight=91.5 55.25 19.5 9.75 35.75 9.75 36.25 31.5 26.75
internal_count=366 221 78 39 143 39 145 126 107
is_linear=0
shrinkage=0.2


Tree=1
num_leaves=14
num_cat=0
split_feature=16 15 8 25 25 27 16 22 16 22 2 29 15
split_gain=112.029 38.0721 26.7487 18.2766 16.0236 6.04279 0.687194 0.481589 0.160024 0.117235 0.0716378 0.0304645 0.0118184
threshold=4.4811823219836038 5.3056729476486817 1.0000000180025095e-35 6.2111078584724044 3.880936817975901 5.2958613150045055 5.2585464519646337 4.6601014826064189 2.2534093476351211 4.3070349623900555 1.0000000180025095e-35 5.4045135746388189 4.9827428916685843
decision_type=2 2 2 2 2 2 2 2 2 2 2 2 2
left_child=4 7 6 -4 -1 -6 -3 -2 9 -7 12 -9 -10
right_child=1 2 3 -5 5 8 -8 11 10 -11 -12 -13 -14
leaf_value=0.13614208007514542 0.27441595074765918 -0.36270420990514513 0.36912853961406927 -0.18349311745110647 -0.085784766762403208 -0.3340640126482714 -0.24498027594206576 0.35376443870465402 -0.34717430354843221 -0.28800458527649214 -0.36301738404051709 0.33406401264827157 -0.33406401264827157
leaf_weight=3.6847204416990271 6.1003985404968253 4.4109411388635635 6.8246787041425705 3.6872258186340332 4.4632929116487494 4.805215001106264 3.6039112508296967 3.6468045860528973 3.6616009622812298 4.0934807509183884 6.1589131206274024 22.584510505199432 11.051994502544401
leaf_count=15 25 18 28 15 18 20 15 15 15 17 25 94 46
internal_value=4.69722e-05 0.194042 -0.0345528 0.175287 -0.260145 -0.302798 -0.309769 0.325032 -0.335333 -0.312876 -0.344907 0.336803 -0.337327
internal_weight=88.7777 50.8585 18.5268 10.5119 37.9192 34.2345 8.01485 32.3317 29.7712 8.8987 20.8725 26.2313 14.7136
internal_count=366 210 76 43 156 141 33 134 123 37 86 109 61
is_linear=0
shrinkage=0.2


Tree=2
num_leaves=17
num_cat=0
split_feature=16 15 16 15 21 27 23 23 28 23 28 16 27 20 21 15
split_gain=78.1878 27.1788 19.1088 12.4789 6.05721 5.00065 0.491443 0.192669 0.188969 0.0699303 0.0375701 0.0071842 0.00125589 0.00040082 0.000116825 0.000289337
threshold=4.4811823219836038 5.3056729476486817 5.5369955877217656 4.5100202746294782 5.0173132592120648 5.2958613150045055 3.4393612939096858 5.369544254822622 1.6983786840887012 5.2229487862676933 5.058361410191349 2.8624279941859014 5.4330380840720656 3.8044145641884159 4.1855182774659374 4.622268130567404
decision_type=2 2 2 2 2 2 2 2 2 2 2 2 2 2 2 2
left_child=3 6 4 -1 -3 -5 -2 10 -7 11 -8 12 -10 -12 -15 -16
right_child=1 2 -4 5 -6 8 7 -9 9 -11 13 -13 -14 14 15 -17
leaf_value=0.11831629809014613 0.21367877565843482 -0.019085917963258345 0.25911696728987549 -0.068826199198152277 -0.31065692857119098 -0.26526818449891731 0.31778441976321692 0.25045588907227567 -0.29599089218703906 -0.32850636451565568 0.29837946993850056 -0.30612267506555063 -0.30051557112627642 0.29542375636525658 0.29578412220157285 0.29812024779968699
leaf_weight=3.7969237864017478 3.4660771787166622 5.1601682901382464 6.0367572158575049 4.4515585303306606 6.3659458309412003 5.7541456669569042 4.1353617310524049 3.5514103323221198 7.8887071609497124 4.4170836061239234 4.4183417558670071 5.6326871812343589 3.5616347789764404 5.0292961597442618 5.911939859390257 3.3068592846393585
leaf_count=16 15 22 26 18 28 26 18 16 36 19 20 25 16 23 27 15
internal_value=8.20328e-05 0.168228 -0.0291459 -0.224326 -0.180122 -0.265359 0.284476 0.293787 -0.297459 -0.306075 0.300536 -0.300275 -0.297398 0.296715 0.296199 0.296622
internal_weight=82.8849 47.3822 17.5629 35.5027 11.5261 31.7058 29.8193 26.3532 27.2543 21.5001 22.8018 17.083 11.4503 18.6664 14.2481 9.2188
internal_count=366 210 76 156 50 140 134 119 122 96 103 77 52 85 65 42
is_linear=0
shrinkage=0.2


Tree=3
num_leaves=20
num_cat=0
split_feature=16 18 26 25 19 25 18 24 16 16 20 19 1 1 13 18 16 20 19
split_gain=55.9969 18.8846 12.496 10.0444 8.20975 2.49304 1.27384 1.01705 0.22176 0.168606 0.0649039 0.0107732 0.0038671 0.0037631 0.00112556 0.000380948 0.000370585 0.000156485 2.07791e-05
threshold=4.4811823219836038 3.0588386477583289 2.0749965253142366 3.880936817975901 3.4541531465354351 4.9292224061395871 5.8184953935035706 6.1838905914020339 3.3289010444670608 4.7757248438036877 5.0355432967736293 4.4436803932563231 67.500000000000014 56.500000000000007 1.0000000180025095e-35 5.4807194309685725 1.0015264526321479 3.8044145641884159 4.5750505468537455
decision_type=2 2 2 2 2 2 2 2 2 2 2 2 2 2 2 2 2 2 2
left_child=3 -2 -3 -1 -4 6 8 9 12 -6 11 -11 15 -13 -15 -5 -17 -16 -18
right_child=1 2 4 5 7 -7 -8 -9 -10 10 -12 13 -14 14 17 16 18 -19 -20
leaf_value=0.11884800731610759 -0.22501175700248638 -0.15189553438879333 -0.073062607595490922 -0.2708047916156277 0.23298188044629789 -0.10566949197684689 -0.15380824662819892 0.16525082740418678 -0.332000900149654 0.28786354839183481 0.30196514899662652 0.28047920586941733 -0.2804888600304839 0.27631012486462309 0.27315256277561106 -0.27139747803920267 -0.27362503622577605 0.27144169589369149 -0.27431913608153075
leaf_weight=3.5609748363494864 4.8026355057954779 3.7378686219453803 3.185672163963317 4.0540766268968715 3.1099818348884645 4.8168398290872565 3.6193341463804236 3.697919473052024 3.0755518525838843 3.0908031612634721 5.3186848759651175 3.8262951970100429 2.8644123077392569 3.5821812301874134 3.5279683768749237 3.4895847737789136 4.1301246732473373 5.4295313209295273 2.9628291130065918
leaf_count=15 23 16 16 21 15 22 16 17 14 15 25 19 14 18 18 18 21 28 15
internal_value=-5.32578e-05 0.148945 0.195585 -0.198159 0.232941 -0.237068 -0.263226 0.263807 -0.282472 0.276876 0.282386 0.277034 -0.273768 0.274989 0.273314 -0.272453 -0.273085 0.272116 -0.273915
internal_weight=75.8833 43.3095 38.5069 32.5737 34.769 29.0128 24.1959 31.5834 20.5766 27.8854 24.7755 19.4568 17.501 16.366 12.5397 14.6366 10.5825 8.9575 7.09295
internal_count=366 210 187 156 171 141 119 155 103 138 123 98 89 83 64 75 54 46 36
is_linear=0
shrinkage=0.2


Tree=4
num_leaves=21
num_cat=0
split_feature=29 7 16 27 29 29 24 27 28 28 29 7 20 1 24 28 1 20 20 16
split_gain=43.303 21.3401 15.7394 6.70412 2.03119 6.69615 1.59696 0.84885 0.495134 0.227788 0.208763 0.0844983 0.0132005 0.00509396 0.0042077 0.00294619 0.000166418 0.000137282 3.8801e-05 3.58276e-08
threshold=4.3459062623707405 1.0000000180025095e-35 5.5369955877217656 5.2958613150045055 5.553740961690754 6.1840160940830353 6.1838905914020339 4.7485729046248668 5.1114337434678285 1.6983786840887012 5.1625808603462113 1.0000000180025095e-35 5.207671292735542 67.500000000000014 4.701774378781594 5.3210437158183748 61.500000000000007 5.5925990092302973 4.1895935175524439 1.9062475630453311
decision_type=2 2 2 2 2 2 2 2 2 2 2 2 2 2 2 2 2 2 2 2
left_child=3 2 4 -1 8 -6 10 -4 -2 -5 -3 -11 14 17 -12 -16 -17 19 -18 -13
right_child=1 6 7 9 5 -7 -8 -9 -10 11 12 13 -14 -15 15 16 18 -19 -20 -21
leaf_value=0.033883232938781004 -0.18398584879841429 0.31435963913578213 0.26679418281557232 -0.21602551408066623 0.14196675268301864 -0.24766565713226335 0.11839872616844281 0.12457263319195533 -0.29551255443027002 -0.28991474988543414 0.2651103558263101 -0.25442725673007932 0.27341891242584454 -0.2639783297689467 0.26236805362128418 0.25361552410972743 0.2548782404575537 -0.25617528393701466 0.25598217557683106 -0.25445952837516883
leaf_weight=3.7753907889127758 3.3267266154289263 3.5271197110414567 4.375322774052619 4.5566361695528057 3.0622936636209488 4.162485346198082 3.2143598347902289 2.723592221736908 3.0541206002235413 4.5005606412887582 2.8907961994409588 2.5223793089389783 2.7749443948268881 3.6561159789562234 2.6426034569740287 3.3328597694635373 2.5333127826452255 2.738807275891304 2.5610394924879074 3.0278816521167755
leaf_count=16 17 16 24 26 15 19 16 14 16 22 16 15 15 20 15 20 15 16 15 18
internal_value=0.000144587 0.118831 -0.0291804 -0.211488 -0.155139 -0.0825161 0.249364 0.212229 -0.237367 -0.255596 0.27014 -0.266559 0.26082 -0.25776 0.258316 0.256541 0.254714 -0.255017 0.255433 -0.254445
internal_weight=68.9593 44.1816 20.7045 24.7778 13.6056 7.22478 23.477 7.09891 6.38085 21.0024 20.2627 16.4457 16.7356 11.9452 13.9606 11.0698 8.42721 8.28907 5.09435 5.55026
internal_count=366 233 105 133 67 34 128 38 33 117 112 91 96 69 81 65 50 49 30 33
is_linear=0
shrinkage=0.2


Tree=5
num_leaves=21
num_cat=0
split_feature=16 15 25 24 27 27 16 19 16 19 25 25 16 24 24 1 19 14 30 1
split_gain=29.9352 14.2627 9.93103 8.41181 4.85867 3.92397 0.928796 2.192 0.41075 1.00205 0.0648138 0.0249252 0.0162194 0.0161714 0.00127898 0.000272775 0.000264855 0.000155366 3.61469e-05 1.55734e-08
threshold=4.4811823219836038 5.3877715630934704 3.5885283579500835 5.1061956553499392 5.1897887537807046 4.9295601784983161 5.180696739165044 5.2703853054568865 2.6288427667725158 4.8066036879126637 4.6146793291696246 4.8231434674948845 5.5720523986763917 5.5867338103882975 4.5262914657931592 60.500000000000007 4.8405635250918042 1.0000000180025095e-35 7.5000000000000009 58.500000000000007
decision_type=2 2 2 2 2 2 2 2 2 2 2 2 2 2 2 2 2 2 2 2
left_child=2 6 -1 5 -4 -3 7 -2 9 -6 -10 15 -8 -9 -14 -12 19 -16 -19 -11
right_child=1 3 4 -5 8 -7 12 13 10 16 11 -13 14 -15 17 -17 -18 18 -20 -21
leaf_value=0.22781452478856737 0.056648896111863502 -0.013658881892844624 0.025787910415475915 0.23305361415262268 -0.093817303214573766 -0.2718816071888705 0.25953306988344244 0.24340884364687143 -0.2902064781482051 -0.24222438483008799 -0.24298266946612329 -0.26629043153921694 0.24784431504198057 0.26638686695081643 0.24403911533396283 -0.24583562643502074 -0.24482215108345087 0.2415494790498873 0.24267327446385739 -0.2422007387634566
leaf_weight=2.3940916210413006 4.0464403778314608 4.6424122005701047 3.3081894665956524 3.147898167371749 2.4378314316272753 4.7752562910318375 3.8271838873624793 2.3388832062482834 2.3416250348091117 2.3029136657714844 2.1774113178253156 3.4561868607997894 2.7622664719820005 2.5727624744176865 2.5046278089284897 3.4877492338418961 2.3897661864757538 2.4207652658224106 2.1721785068511963 2.158193439245224
leaf_count=11 23 23 14 17 15 26 23 16 12 16 15 19 18 15 17 23 16 17 15 15
internal_value=0.000110168 0.120895 -0.160656 -0.0499847 -0.199311 -0.144591 0.215714 0.165647 -0.235196 -0.203938 -0.260525 -0.252905 0.248482 0.255445 0.244193 -0.244739 -0.243123 0.242772 0.242081 -0.242213
internal_weight=61.6646 35.2107 26.454 12.5656 24.0599 9.41767 22.6451 8.95809 20.7517 9.2887 11.463 9.12135 13.687 4.91165 9.85984 5.66516 6.85087 7.09757 4.59294 4.46111
internal_count=366 210 156 66 145 49 144 54 131 62 69 57 90 31 67 38 47 49 32 31
is_linear=0
shrinkage=0.2


Tree=6
num_leaves=20
num_cat=0
split_feature=29 15 16 24 18 12 15 29 24 19 17 15 19 19 16 25 16 24 1
split_gain=24.0211 10.4782 9.45391 9.09781 2.05426 1.59685 2.21752 0.606957 0.187582 0.365121 0.0347457 0.0124691 0.00844218 0.00610244 0.00115602 0.000805917 0.000200921 0.000162039 3.14455e-05
threshold=4.3459062623707405 5.0314264115355938 5.6496337695700314 5.1061956553499392 4.9750412664422461 1.0000000180025095e-35 4.8671345354830367 5.1625808603462113 6.2070706726062079 4.9150666162331573 5.687467610640824 5.392199329271917 4.5130939934046523 4.7943187633592101 5.6901166047033156 4.2235372084087404 2.2534093476351211 5.9345062811452136 66.500000000000014
decision_type=2 2 2 2 2 2 2 2 2 2 2 2 2 2 2 2 2 2 2
left_child=5 7 3 4 10 -1 -7 -2 9 12 -3 -4 -8 -9 15 -15 17 -14 -16
right_child=1 2 11 -5 -6 6 8 13 -10 -11 -12 -13 16 14 18 -17 -18 -19 -20
leaf_value=-0.033461434814062406 0.15370239732387225 -0.24694547818066315 0.23591577505781533 0.17844669240834407 -0.081423102078465287 -0.07787473465885679 -0.24910509565387673 0.24763642842198133 -0.18996978917982049 -0.33469197023137409 -0.27835289085863041 0.25679749074432967 -0.2334830259049781 0.23502817804185858 0.2332802182139406 0.24019392389420455 -0.2324960476055481 -0.23595189869297384 0.23434787080174213
leaf_weight=2.6207749247550991 4.7716364711523083 3.4318134039640444 2.2859201952815047 3.8623793721199027 4.6374058946967125 4.3254682421684292 1.9151079505681972 2.231404796242713 2.1302902996540061 1.8872098028659809 2.3903084993362427 2.2894165366888046 1.9634722396731374 2.0208579152822477 2.6896420940756798 3.0035195350646973 2.2800752148032188 2.3195942267775536 1.8711211383342741
leaf_count=17 25 23 18 25 24 25 13 15 16 9 14 14 16 16 22 22 19 18 15
internal_value=9.83252e-06 0.0979085 -0.00391497 -0.0838703 -0.180736 -0.178674 -0.201299 0.213906 -0.244023 -0.255132 -0.25984 0.246365 -0.237422 0.238217 0.236024 0.238116 -0.234013 -0.23482 0.233718
internal_weight=54.9274 35.4854 18.8972 14.3219 10.4595 19.442 16.8212 16.5882 12.4957 10.3655 5.82212 4.57534 8.47825 11.8165 9.58514 5.02438 6.56314 4.28307 4.56076
internal_count=366 233 118 86 61 133 116 115 91 75 37 32 66 90 75 38 53 34 37
is_linear=0
shrinkage=0.2


Tree=7
num_leaves=21
num_cat=0
split_feature=29 27 12 16 27 20 23 27 20 16 27 23 29 19 20 18 9 29 18 27
split_gain=17.7173 7.79017 7.71074 10.0316 3.11575 1.78968 2.8424 0.810443 0.66065 1.21122 0.506612 0.351458 0.0855774 0.0427313 0.0116978 0.00672977 0.00380985 0.00156692 0.000154498 7.26668e-05
threshold=4.3459062623707405 5.1563082016556381 1.0000000180025095e-35 5.5369955877217656 5.5465452995154996 5.1195076821132206 5.2623056951796405 4.6588339746720591 5.5158599557169259 1.1180717495073489 5.0495180598123266 3.6097278155831689 5.0894700193738931 4.9254266557627977 4.6107313257668281 5.1857690921588908 1.0000000180025095e-35 5.5401240892996002 5.2106200858108389 4.8699989971034912
decision_type=2 2 2 2 2 2 2 2 2 2 2 2 2 2 2 2 2 2 2 2
left_child=1 -1 3 5 11 6 -2 14 13 -10 -8 -4 -13 15 -5 -3 -14 -18 -17 -19
right_child=2 8 4 7 -6 -7 10 -9 9 -11 -12 12 16 -15 -16 18 17 19 -20 -21
leaf_value=0.18052911806387614 0.1153313903205945 -0.24033054390736838 0.15879515081560697 0.22748049957882399 -0.033964829391858714 -0.2467499711698484 -0.23888975646330982 0.078852080483288498 -0.22701057760876223 -0.016251136083124767 -0.097906895291873131 0.27393327760929687 0.23830406868701148 -0.26030138355009957 0.24820506138923903 -0.226266064515979 0.23390193555152861 0.22591611847393014 -0.22871910150938765 0.22774065329535068
leaf_weight=2.3159691840410259 2.179476737976076 2.8156703710556013 2.4735773652792004 2.5265930071473113 2.1259492337703696 3.555223673582077 2.0158496797084808 1.8494577407836912 3.0353758260607711 1.7024495080113409 2.0628354847431183 2.6064535900950423 2.8128889128565771 3.2593060731887817 1.915211923420429 1.6417465209960935 1.8719259575009344 1.9292948767542841 2.7427975833415985 1.5950318276882169
leaf_count=10 16 21 20 24 12 17 15 13 29 12 15 15 22 20 14 16 16 19 25 15
internal_value=0.000119623 -0.161164 0.0897338 -0.00704588 0.190843 -0.133432 -0.069057 0.190097 -0.213236 -0.151278 -0.167586 0.226806 0.242361 -0.241301 0.236416 -0.2327 0.232336 0.229226 -0.227801 0.226742
internal_weight=49.0331 17.5133 31.5198 16.1046 15.4151 9.81339 6.25816 6.29126 15.1973 4.73783 4.07869 13.2892 10.8156 10.4595 4.4418 7.20021 8.20914 5.39625 4.38454 3.52433
internal_count=366 133 233 114 119 63 46 51 123 41 30 107 87 82 38 62 72 50 41 34
is_linear=0
shrinkage=0.2


Tree=8
num_leaves=19
num_cat=0
split_feature=29 7 18 23 29 22 20 23 29 22 23 29 29 15 29 19 0 19
split_gain=13.5103 7.43278 4.37832 5.75544 6.07471 3.58707 2.29619 1.15945 1.13444 0.147336 0.0670308 0.00560524 0.00201939 0.00108972 0.00101655 0.000105563 5.66486e-05 6.17193e-06
threshold=4.5959439236099433 1.0000000180025095e-35 3.9202616559707235 4.4918708870045334 5.553740961690754 4.6151381622882601 5.3916049664446186 4.3297197371310103 5.0545504215020154 5.5377534806164261 5.1933635188014149 5.3907377835644334 2.1575147400833221 5.2799986481522341 5.5652105991940415 4.8066036879126637 1.0000000180025095e-35 4.8147489457208232
decision_type=2 2 2 2 2 2 2 2 2 2 2 2 2 2 2 2 2 2
left_child=5 2 -2 -4 -5 7 -7 -1 -3 -6 12 -10 15 14 -13 -9 -16 -17
right_child=1 8 3 4 9 6 -8 10 11 -11 -12 13 -14 -15 16 17 -18 -19
leaf_value=-0.053329512238734805 -0.22731196768483489 0.075608775475882628 -0.22636353389502994 -0.1407139004449813 0.25831766627855951 0.1366432865247332 -0.12141764471318701 -0.22296417082116624 0.23649873964069076 0.18956567410512126 -0.26926983928879017 0.22693998112103167 -0.22924662408793589 0.2291586918733024 0.22243907499821472 -0.22094206588431314 0.22104470002337223 -0.22146022340517019
leaf_weight=1.734591051936152 2.9982265159487733 2.4539640322327623 2.3958889693021765 2.4137649387121183 3.9894651472568512 2.4549333453178397 3.1473968178033829 2.3071456402540189 1.9160326868295658 1.8136023283004759 1.535172902047633 2.2264719456434232 1.9778667315840719 1.6414474770426748 2.3421860933303833 1.5444191694259646 2.3196835517883301 2.2725205644965172
leaf_count=10 23 16 14 16 28 12 23 25 16 17 13 22 18 16 26 18 27 26
internal_value=-5.3715e-06 0.0891969 -0.013899 0.0463928 0.125924 -0.139325 -0.0083357 -0.203858 0.197977 0.236831 -0.230951 0.226724 -0.223691 0.224528 0.223424 -0.221896 0.221745 -0.221251
internal_weight=43.4848 26.5107 13.6109 10.6127 8.21683 16.974 5.60233 11.3717 12.8998 5.80307 9.63713 10.4458 8.10195 8.52979 6.88834 6.12409 4.66187 3.81694
internal_count=366 221 98 75 61 145 35 110 123 45 100 107 87 91 75 69 53 44
is_linear=0
shrinkage=0.2


Tree=9
num_leaves=21
num_cat=0
split_feature=29 18 25 19 24 24 30 20 19 28 1 28 30 29 25 18 17 20 24 1
split_gain=10.3237 5.24023 5.31371 5.49888 1.96862 1.5271 4.53382 0.702469 0.47012 0.373443 0.141114 0.182308 0.102641 0.0647356 0.0243532 0.00274288 0.00267633 0.00113612 0.000132555 1.52717e-05
threshold=4.3459062623707405 4.0660781050505337 6.2111078584724044 3.8118830592110355 6.2387794504968843 6.017352765991073 3.5000000000000004 4.9580024712504214 4.4714246616671227 3.8839156472570742 63.500000000000007 2.3115856045685899 1.5000000000000002 5.0630202320856137 6.0229332862645668 5.2555518179319707 4.578855467452132 5.1812958615933615 4.8414211246035377 61.500000000000007
decision_type=2 2 2 2 2 2 2 2 2 2 2 2 2 2 2 2 2 2 2 2
left_child=5 7 3 -3 12 6 9 -2 -7 16 11 -10 -5 -14 15 -15 -1 18 -17 -20
right_child=1 2 -4 4 -6 8 -8 -9 10 -11 -12 -13 13 14 -16 17 -18 -19 19 -21
leaf_value=-0.21724890112420148 -0.067376064936234936 -0.10706485399801552 -0.14568925691104351 0.18592863679147661 -0.0071938134382660349 -0.10822236588488739 0.15311191085259779 -0.2409076966168997 -0.25862341768929381 -0.098575097325679956 -0.27738770058994072 -0.16171669382823206 0.26394299530999282 0.2276068109301658 0.24998486150087973 0.21974397053381645 -0.22879405116973725 0.22516674916737661 0.21675768660547778 0.21773745788086163
leaf_weight=2.116253204643725 2.4663379415869744 2.6872376129031244 2.6653567329049102 2.0272260308265677 1.5958084762096394 1.4701275080442426 2.3482153043150902 1.500976890325546 1.5364888012409212 1.3878872506320474 2.0364844277501106 1.5699950084090231 2.4021874219179145 2.7633673995733243 1.5529897883534429 1.2723184227943423 1.2944105565547941 1.1846772730350492 1.282288730144501 1.2632724940776823
leaf_count=29 25 20 18 24 12 17 15 12 12 13 15 20 16 29 13 16 12 13 18 17
internal_value=9.82248e-05 0.0775305 0.117892 0.156854 0.203075 -0.138696 -0.0746042 -0.133029 -0.207961 -0.186039 -0.236471 -0.209647 0.227481 0.234668 0.227122 0.22255 -0.221631 0.219756 0.218077 0.217244
internal_weight=38.4239 24.664 20.6967 18.0314 15.3441 13.7599 7.14677 3.96731 6.6131 4.79855 5.14297 3.10648 13.7483 11.7211 9.31891 7.76592 3.41066 5.00256 3.81788 2.54556
internal_count=366 233 196 178 158 133 69 37 64 54 47 32 146 122 106 93 41 64 51 35
is_linear=0
shrinkage=0.2


Tree=10
num_leaves=21
num_cat=0
split_feature=27 15 7 16 29 24 18 23 17 15 20 23 24 15 20 29 26 23 1 1
split_gain=8.74723 6.24063 4.01488 5.30618 3.66455 2.92003 1.79791 0.653154 0.371708 1.16054 0.20311 0.0805271 0.029123 0.00340489 0.00269024 0.00107246 0.000808845 0.000340252 9.48626e-06 1.46991e-06
threshold=5.2958613150045055 4.4927084814303226 1.0000000180025095e-35 5.5369955877217656 5.553740961690754 6.017352765991073 5.298309093936628 5.062317649755923 4.8876248567751022 4.9504505096758296 5.2338953225678759 5.3922777115420386 5.7353853180401178 4.7731243303266515 4.5948950581909944 5.5401240892996002 5.669841416885169 4.9192592643040376 62.500000000000007 58.500000000000007
decision_type=2 2 2 2 2 2 2 2 2 2 2 2 2 2 2 2 2 2 2 2
left_child=2 -2 3 6 8 7 -1 10 9 -3 12 13 15 -10 -5 -4 -15 19 -17 -11
right_child=1 4 5 14 -6 -7 -8 -9 11 17 -12 -13 -14 16 -16 18 -18 -19 -20 -21
leaf_value=-0.23691392196219835 0.23433639464884948 0.024402803522593556 0.22043836411098505 0.21888845073017868 0.11112838141471082 0.012282210797171643 -0.016605150537657709 0.37242579809912679 -0.22922871891246241 -0.21428703732250853 0.12932540265929779 -0.27602944379715549 0.25038101439916399 -0.22215473795967561 0.23186110053248501 0.21350185585210837 -0.21603622362482322 -0.21812507318805163 0.21434193422995682 -0.21393530627165602
leaf_weight=2.7693077847361565 1.7929090149700631 1.0496179610490779 1.9370931871235368 1.2794599458575251 1.690724305808543 3.3978337422013283 3.1868315264582634 1.1690232567489145 1.9790701419115064 0.99563568830490135 1.045108303427696 1.422556512057781 1.4011216163635252 1.5949359163641932 1.2782649137079714 0.94706493243575129 1.8864224627614019 1.5287254527211187 1.2438036650419233 0.90931105241179466
leaf_count=25 18 11 26 18 13 25 20 9 18 16 12 11 14 18 12 16 28 21 20 15
internal_value=0.000302679 -0.115548 0.0878316 -0.0155707 -0.163592 0.166851 -0.119038 0.234677 -0.204457 -0.159643 0.210183 -0.233646 0.225467 -0.222605 0.225372 0.21701 -0.218839 -0.215903 0.213979 -0.214119
internal_weight=34.5048 14.8499 19.6549 8.51386 13.057 11.141 5.95614 7.74321 11.3663 4.48329 6.57419 6.88299 5.52908 5.46043 2.55772 4.12796 3.48136 3.43367 2.19087 1.90495
internal_count=366 169 197 75 151 122 45 97 138 63 88 75 76 64 30 62 46 52 36 31
is_linear=0
shrinkage=0.2


Tree=11
num_leaves=20
num_cat=0
split_feature=27 8 16 18 18 18 19 22 6 18 18 11 20 19 28 1 20 27 22
split_gain=6.63789 3.82817 3.17006 3.27401 3.64827 3.98062 3.03859 1.78101 1.56889 0.541411 0.0149051 0.00559443 0.00132297 0.00153301 0.000482173 0.000233384 1.83672e-05 6.11207e-06 3.66893e-06
threshold=5.2958613150045055 1.0000000180025095e-35 5.5369955877217656 6.2521744922418234 5.8319368923504848 5.3804386741884933 4.2630058653022003 4.5593236850416661 1.0000000180025095e-35 4.5253987829955697 4.8207714843925329 1.0000000180025095e-35 4.6545619317844835 5.378546193293805 6.483535873351868 59.500000000000007 4.0426655202382085 5.3751891595891719 4.3070349623900555
decision_type=2 2 2 2 2 2 2 2 2 2 2 2 2 2 2 2 2 2 2
left_child=2 7 3 4 5 6 -1 10 9 -9 -2 15 14 -14 16 17 -4 -12 -19
right_child=1 -3 12 -5 -6 -7 -8 8 -10 -11 11 -13 13 -15 -16 -17 -18 18 -20
leaf_value=-0.20856578321688823 -0.18808810576606025 0.23935226418963312 0.21082654806563328 0.25118574085452944 -0.17238170150044974 0.27108711254551232 0.1299948694384111 -0.25220574829403103 0.068619136339576878 -0.076152554993490398 -0.21163192674956119 -0.22661866178108969 0.22406495024867265 0.21334062894703898 0.21730515682747403 -0.21441015731365939 0.21206645123720272 -0.21072090613967456 -0.21133981184998674
leaf_weight=2.2242229878902489 0.8744161464273893 1.1463224999606616 1.0206394009292119 2.1667478121817103 3.9041842967271805 2.4947856143116951 2.026474054902792 1.2580815404653551 2.2760581746697426 1.5714875347912309 1.192268028855324 1.4994278103113172 1.3128856979310515 0.89774582162499417 0.77964244037866581 1.4829919412732122 0.89866590872406948 0.77184076234698273 0.7607760988175869
leaf_count=24 12 12 21 22 27 27 15 12 18 21 23 16 16 16 12 24 17 16 15
internal_value=0.000116616 -0.10943 0.079429 0.0270813 -0.0185143 0.0705418 -0.0471606 -0.14364 -0.0549956 -0.154429 -0.212404 -0.216129 0.216082 0.21971 0.213111 -0.212391 0.211407 -0.211292 -0.211028
internal_weight=30.5597 12.8337 17.726 12.8164 10.6497 6.74548 4.2507 11.6873 5.10563 2.82957 6.58172 5.7073 4.90958 2.21063 2.69895 4.20788 1.91931 2.72488 1.53262
internal_count=366 169 197 115 93 66 39 157 51 33 106 94 82 32 50 78 38 54 31
is_linear=0
shrinkage=0.2


Tree=12
num_leaves=21
num_cat=0
split_feature=27 15 26 23 27 22 24 23 15 1 7 17 22 15 1 10 17 1 1 15
split_gain=5.03254 4.45045 2.57014 3.5764 2.82045 1.87611 1.38848 0.362916 0.347021 0.329355 0.0485915 0.0333785 0.00831988 0.00579706 0.000932882 0.000831635 0.000280436 5.7259e-05 3.80105e-05 5.0295e-06
threshold=5.2958613150045055 4.4927084814303226 1.5661392321290097 5.2382305760598085 4.9424765911082789 4.7157507107410011 5.042191541582663 5.149521531672252 4.8671345354830367 55.500000000000007 1.0000000180025095e-35 5.1707931609957543 4.946130824644821 5.4854072320166356 67.500000000000014 1.0000000180025095e-35 4.9153403278885115 59.500000000000007 66.500000000000014 5.0955250384262678
decision_type=2 2 2 2 2 2 2 2 2 2 2 2 2 2 2 2 2 2 2 2
left_child=2 -2 -1 5 -5 -4 -3 9 -8 -7 -10 14 -11 15 17 -14 18 19 -17 -12
right_child=1 6 3 4 -6 7 8 -9 10 12 11 -13 13 -15 -16 16 -18 -19 -20 -21
leaf_value=-0.15563265133017704 0.22667077637346469 -0.0050839950421007994 0.028960455528827086 0.18137131431551026 -0.17715141757713757 0.087050985510833373 -0.10826310040668104 0.32757704602059823 -0.17179721434448511 0.23791900645757771 -0.20891670983596011 -0.25696905847188983 0.21774597768183857 0.23153504491508042 -0.21642673812735835 0.20878400943502129 0.21455269687673165 -0.2110340094240733 0.21072177041300436 -0.2095515535138418
leaf_weight=1.7388518601655985 1.4452619478106488 2.1092574670910818 2.8552350960671884 1.3117335811257356 2.652550645172596 0.85948136448860157 1.7052482478320596 1.0801986344158647 1.0766302347183225 0.92311204224824894 1.1030215322971351 0.7689111866056918 1.1114170923829081 0.87171387672424305 1.1904020532965658 0.88448415696620963 0.66166307032108296 1.035353038460016 0.74679452180862427 0.91181740537285794
leaf_count=13 18 22 29 19 26 13 20 8 16 12 27 7 18 9 17 22 12 21 16 21
internal_value=0.000305781 -0.101176 0.0736563 0.10222 -0.0585206 0.165979 -0.149034 0.220781 -0.188003 0.20174 -0.210345 -0.21863 0.2207 0.216982 -0.211678 0.213256 0.21108 -0.209825 0.209671 -0.209204
internal_weight=27.0431 11.3459 15.6972 13.9584 3.96428 9.9941 9.90064 7.13886 7.79138 6.05867 6.08614 5.00951 5.19918 4.27607 4.24059 3.40436 2.29294 3.05019 1.63128 2.01484
internal_count=366 169 197 184 45 139 151 110 129 102 109 93 89 77 86 68 50 69 38 48
is_linear=0
shrinkage=0.2


Tree=13
num_leaves=20
num_cat=0
split_feature=29 15 27 24 27 19 15 29 24 25 27 27 27 29 22 19 23 22 15
split_gain=3.94654 3.45021 3.30574 2.34722 1.15875 1.06829 0.97487 0.611426 0.0631806 0.0224178 0.018034 0.000558522 0.000222393 0.000116586 3.08352e-05 2.09319e-05 1.06479e-05 7.63511e-06 1.35046e-06
threshold=5.0545504215020154 5.3490829241327313 5.2958613150045055 5.1061956553499392 4.9295601784983161 4.9794059043635022 4.8671345354830367 5.1625808603462113 3.933309245672111 4.6884125139030273 5.5465452995154996 5.4967619909391008 5.1756199093367901 5.553740961690754 4.7832098037566135 4.8123601529882825 3.9238993722322539 5.2853467580288136 5.0955250384262678
decision_type=2 2 2 2 2 2 2 2 2 2 2 2 2 2 2 2 2 2 2
left_child=2 7 5 4 -3 -1 -4 -2 -9 11 12 15 13 -10 -13 -8 -15 -18 -17
right_child=1 3 6 -5 -6 -7 9 8 10 -11 -12 14 -14 16 -16 18 17 -19 -20
leaf_value=0.14574784500346036 0.028335432987960041 -0.011871893285592943 -0.055519161387871198 0.22189874136439702 -0.22061137692831068 -0.039437865903379644 -0.20856380956734163 0.15864203121144432 0.21050681433480942 -0.24751880603985543 0.24284171885554329 -0.21176132378444362 0.21235866337409665 0.20853595572002626 -0.21347500948123166 -0.20724331660927994 0.20803335744236701 0.20710166019090531 -0.20763259309173276
leaf_weight=2.2888397537171858 0.90596516057848742 2.4688574858009815 2.1983269564807415 1.1292250193655489 1.8690834045410154 2.7349572144448757 1.1292667388916018 0.95507248491048802 0.96667339839041311 0.7384323477745055 0.78144207969307888 0.85241069272160508 0.85458365082740773 0.60883159376680884 0.82792463153600693 0.80936522781848885 0.65849063172936417 0.75545473024249077 0.63705459982156754
leaf_count=13 9 25 25 16 28 20 29 18 23 6 7 17 17 16 14 24 18 23 18
internal_value=0.000387965 0.0820878 -0.0795537 -0.03495 -0.101811 0.0449327 -0.166501 0.180733 0.205474 -0.21535 0.215144 -0.209769 0.209513 0.2087 -0.212606 -0.207919 0.207837 0.207536 -0.207415
internal_weight=24.1703 11.9537 12.2166 5.46717 4.33794 5.0238 7.19278 6.48651 5.58055 4.99445 4.62548 4.25602 3.84403 2.98945 1.68034 2.57569 2.02278 1.41395 1.44642
internal_count=366 200 166 69 53 33 133 131 122 108 104 102 97 80 31 71 57 41 42
is_linear=0
shrinkage=0.2


Tree=14
num_leaves=21
num_cat=0
split_feature=21 16 25 24 21 25 27 25 21 14 16 21 23 1 1 25 1 24 1 16
split_gain=4.36442 3.34159 2.73735 1.56832 2.17453 4.29486 2.66563 1.10113 0.431218 1.10611 0.116444 0.0828417 0.0547067 0.0207809 0.0139674 0.00466456 0.000601912 0.000224445 3.18786e-05 7.51505e-06
threshold=4.1195239079455375 5.6496337695700314 3.2477319269325187 5.9781759013627287 4.8809750600675139 6.2111078584724044 4.909777568071453 5.2518020065670372 5.4255725561204322 1.0000000180025095e-35 4.7407778712823623 4.3992801072052226 5.2382305760598085 58.500000000000007 61.500000000000007 5.434718239441275 61.500000000000007 4.701774378781594 63.500000000000007 1.0015264526321479
decision_type=2 2 2 2 2 2 2 2 2 2 2 2 2 2 2 2 2 2 2 2
left_child=14 2 -2 4 5 -4 -6 11 10 -10 12 -5 16 -13 -1 -16 19 -3 -19 -8
right_child=1 17 3 7 6 -7 8 -9 9 -11 -12 13 -14 -15 15 -17 -18 18 -20 -21
leaf_value=0.24031290853761722 0.22333129718491165 0.21133429303619181 0.23817368511791598 -0.2638383435517796 0.24526491510533918 -0.20625300222506043 -0.20625971974944798 -0.010075917582981438 0.049654838319194233 -0.20078624890541596 -0.13409556206164561 -0.17706838095807423 -0.27654627909392226 -0.21801429108042264 0.19954481988062014 0.21939638438756043 -0.21477585184474327 0.20603822019584142 0.20832487276400574 -0.20731130834121692
leaf_weight=1.0516051612794428 1.2236576825380385 1.0089281667023886 2.418540662154554 1.6388993784785264 0.74629432335495938 1.3582423850893972 0.46403001993894644 1.1931696645915506 1.1735532786697149 1.7683860398828983 0.66467077657580365 0.73081740736961398 0.68347819708287705 1.5417182631790636 0.76264573447406325 1.2486008908599613 0.58836487680673588 0.53167973272502411 0.45051073841750622 0.65629163198173046
leaf_count=16 19 23 27 26 10 12 16 8 15 25 13 22 9 23 13 26 11 19 13 20
internal_value=0.00021216 -0.0357826 -0.0647359 -0.0872935 -0.0431617 0.0783448 -0.111197 -0.17826 -0.155544 -0.100884 -0.208149 -0.229564 -0.228725 -0.204847 0.221635 0.211869 -0.209596 0.209239 0.207087 -0.206876
internal_weight=21.9041 18.8412 16.8501 15.6265 10.5219 3.77678 6.74507 5.1046 5.99877 2.94194 3.05684 3.91144 2.39216 2.27254 3.06285 2.01125 1.70869 1.99112 0.98219 1.12032
internal_count=366 311 256 237 158 39 119 79 109 40 69 71 56 45 55 39 47 55 32 36
is_linear=0
shrinkage=0.2


Tree=15
num_leaves=22
num_cat=0
split_feature=29 27 12 24 20 22 18 20 27 17 8 24 4 29 27 24 28 18 29 18 28
split_gain=2.38237 2.24708 2.1959 1.78232 1.50828 1.31015 0.981348 0.954065 2.12616 0.567598 0.277955 0.238194 0.0541556 0.00723872 0.00220911 0.000757942 0.000182554 9.07892e-05 8.63963e-06 5.99711e-06 2.25225e-06
threshold=5.0545504215020154 5.414045056255091 1.0000000180025095e-35 6.017352765991073 5.0451426333805154 5.6619085827422024 5.5956637011897072 5.1195076821132206 4.9295601784983161 5.7063795016109156 1.0000000180025095e-35 5.086893410180525 1.0000000180025095e-35 4.2329903011390826 5.499233870465793 5.9781759013627287 5.1803768392423759 5.3804386741884933 6.0031817304242914 5.5061440858257384 5.5131227544542476
decision_type=2 2 2 2 2 2 2 2 2 2 2 2 2 2 2 2 2 2 2 2 2
left_child=1 3 5 -1 -5 7 -6 8 -2 -10 -8 -3 13 15 16 19 -4 -18 20 -13 -19
right_child=2 11 14 4 6 -7 10 -9 9 -11 -12 12 -14 -15 -16 -17 17 18 -20 -21 -22
leaf_value=0.13650543127221523 0.21856362648880939 -0.07616102641707001 0.21017000280488288 0.10210604418074209 0.013424844725374807 0.21032078663778347 -0.35993780184942981 -0.16320722686631806 -0.20965243684173696 0.012336235916880595 -0.18651564842632912 -0.20615339672754246 -0.15394942786778595 -0.23472585702500198 0.22137934641437257 -0.21339447494662159 0.20858711490431331 0.20559063861061549 0.20482743682692628 -0.20512556517098757 0.20622943233207686
leaf_weight=2.5897625237703341 1.3147890008985981 0.72414490208029736 0.69070815481245595 1.1325515210628512 0.69539539888501201 1.0057277865707872 0.75169729255139806 1.6648733913898466 1.0599936079233883 0.81492844969034184 0.72741905599832535 0.47780290991068008 0.72280431538820256 0.61352904513478268 0.5461771860718726 1.1463005989789961 0.53369667939841736 0.4864362198859451 0.47925493307411671 0.4327065721154213 0.40425827912986279
leaf_count=20 26 11 17 8 19 29 24 16 26 8 6 18 15 6 8 21 15 19 21 18 15
internal_value=0.0002039 -0.0669114 0.0748748 0.0122529 -0.0850493 0.00255858 -0.182525 -0.0404837 0.023572 -0.113166 -0.27465 -0.180292 -0.202514 -0.21566 0.209819 -0.209973 0.207385 0.206374 0.205512 -0.205665 0.205881
internal_weight=19.015 10.0141 9.00084 5.89683 3.30706 5.86031 2.17451 4.85458 3.18971 1.87492 1.47912 4.11729 3.39314 2.67034 3.14053 2.05681 2.59435 1.90365 1.36995 0.910509 0.890694
internal_count=366 166 200 77 57 105 49 76 60 34 30 89 78 63 95 57 87 70 55 36 34
is_linear=0
shrinkage=0.2


Tree=16
num_leaves=22
num_cat=0
split_feature=21 16 22 20 21 21 14 20 1 19 30 22 22 20 20 16 9 0 22 19 16
split_gain=3.05061 2.1423 1.51787 1.73946 1.13683 4.05085 0.83381 0.782393 0.760681 0.436271 0.260387 0.0613613 0.0234454 0.00791861 0.00720689 0.000779564 0.000256508 5.65337e-05 4.67567e-05 1.14779e-05 2.80309e-07
threshold=4.1195239079455375 5.6496337695700314 4.3790896432481743 4.570970489606351 4.5006068039616265 4.8047350807545515 1.0000000180025095e-35 5.1716970921994179 55.500000000000007 3.4541531465354351 8.5000000000000018 4.3221148320804463 4.7636968833588362 5.3266630187300583 5.0355432967736293 4.8074422999688888 1.0000000180025095e-35 1.0000000180025095e-35 4.2885054996984504 4.7843510833130418 2.9786078769530349
decision_type=2 2 2 2 2 2 2 2 2 2 2 2 2 2 2 2 2 2 2 2 2
left_child=13 2 6 15 7 -6 11 -5 -7 -10 12 16 -11 14 -1 -4 18 -3 19 -2 -20
right_child=1 17 3 4 5 8 -8 -9 9 10 -12 -13 -14 -15 -16 -17 -18 -19 20 -21 -22
leaf_value=0.21695778409738439 -0.20669225670247757 0.20727578065857918 0.21722855296301624 -0.022097570847471153 0.3282682220842178 0.085656238603232043 0.021469964874651793 -0.22769986727075922 -0.010169658928708178 -0.24548061349999531 -0.085400169387992525 -0.28712126077544892 -0.19678527609345534 0.23366126628407283 0.18814626719136382 0.20688701228489048 -0.20971671669957057 0.20467431756415394 -0.20398752933585934 -0.20530431158066112 -0.20373421287414956
leaf_weight=1.0939482357353001 0.4756481070071461 0.75463559478521236 0.5629427284002293 1.2341660819947704 1.2161681372672317 0.8326362557709216 0.72394956648349751 1.8502306155860422 0.92366648651659522 0.75394229032099269 0.90317202731966961 0.44703012611716975 0.83187302760779858 0.6730874329805373 0.50879508070647705 0.60483574494719505 0.65355082973837841 0.5996681097894907 0.49628022313117981 0.47767489030957222 0.26968127675354481
leaf_count=29 16 26 12 17 12 7 4 21 14 8 16 9 23 10 16 22 15 29 26 19 15
internal_value=6.90269e-05 -0.0334783 -0.0579547 -0.0170794 -0.0483653 0.00645374 -0.169994 -0.145432 -0.085738 -0.127556 -0.171118 -0.21915 -0.219936 0.215457 0.207811 0.211872 -0.206344 0.206124 -0.205062 -0.205997 -0.203898
internal_weight=16.8876 14.6118 13.2574 9.71363 8.54585 5.46146 3.54382 3.0844 4.24529 3.41265 2.48899 2.81987 1.58582 2.27583 1.60274 1.16778 2.37284 1.3543 1.71928 0.953323 0.765961
internal_count=366 311 256 152 118 80 104 38 68 61 47 100 31 55 45 34 91 55 76 35 41
is_linear=0
shrinkage=0.2


Tree=17
num_leaves=24
num_cat=0
split_feature=22 1 26 23 22 17 22 3 22 22 29 28 9 28 26 29 28 17 1 26 17 22 1
split_gain=1.53537 1.75303 1.32926 1.49276 1.26345 0.94557 1.37982 0.616711 0.809098 0.593906 1.36067 0.251773 0.236028 0.0561206 0.00477657 0.00227393 0.000460716 6.69627e-05 6.16463e-05 2.37373e-05 4.241e-05 9.0566e-06 7.03283e-08
threshold=4.3790896432481743 67.500000000000014 0.69243308907141665 5.2623056951796405 4.7157507107410011 5.6013633366639368 5.3084968732707578 1.0000000180025095e-35 2.9182479118322466 4.8429410424778263 4.3459062623707405 5.4912445230007352 1.0000000180025095e-35 6.1613953000864976 2.0749965253142366 5.0545504215020154 5.8263608776272946 5.3138056558628826 61.500000000000007 4.9343837380901787 3.0427309036339847 4.3014721507937645 58.500000000000007
decision_type=2 2 2 2 2 2 2 2 2 2 2 2 2 2 2 2 2 2 2 2 2 2 2
left_child=1 7 -2 4 -4 11 -7 12 -9 -6 -11 -5 18 14 -12 -16 17 19 21 20 -17 -1 -23
right_child=2 -3 3 5 9 6 -8 8 -10 10 13 -13 -14 -15 15 16 -18 -19 -20 -21 -22 22 -24
leaf_value=-0.20428817727869655 -0.21846817081564282 0.23348885003052033 -0.052524136821724424 -0.22931631644911601 0.34428705673838267 0.2082268157408278 -0.094043299795449661 -0.20727527720071431 0.11307941460672349 -0.040478734056593309 0.23487756384664216 -0.069123869172957403 -0.36900925711530091 0.13927734087730126 0.22287023582308541 0.20405462174063982 0.21254297926110433 0.20801395874900211 -0.20690697523119375 0.20350173895232399 0.20727173317824993 -0.20314614771054315 -0.20300039648063015
leaf_weight=0.43086526542902104 0.76778983324766059 0.49536490067839611 1.441850945353506 0.91742926836013772 0.61186110973358143 1.0637931264936926 1.3978374311700461 0.71965078637003899 0.56133355852216482 1.2778017967939375 0.37842945754528123 0.68582900427281857 0.4799572527408601 0.47021980490535487 0.48878085240721736 0.35891632642596938 0.53757446072995652 0.35164020769298066 0.29393247235566378 0.35812128894031048 0.30167077947407961 0.22699220385402441 0.31785607431083918
leaf_count=21 10 7 27 13 10 10 26 22 14 17 3 25 2 22 7 20 15 13 13 22 10 15 22
internal_value=3.17083e-05 -0.11532 0.0356794 0.0540158 0.112905 -0.0412645 0.0365827 -0.172334 -0.0668943 0.159355 0.134339 -0.16079 -0.249533 0.20317 0.213996 0.210699 0.207581 0.205634 -0.204368 0.204813 0.205524 -0.203603 -0.203061
internal_weight=14.9355 3.52595 11.4095 10.6418 6.57687 4.06489 2.46163 3.03059 1.28098 5.13502 4.52315 1.60326 1.7496 3.24535 2.77513 2.3967 1.90792 1.37035 1.26965 1.01871 0.660587 0.975714 0.544848
internal_count=366 116 250 240 166 74 36 109 36 139 129 38 73 112 90 87 80 65 71 52 30 58 37
is_linear=0
shrinkage=0.2


Tree=18
num_leaves=25
num_cat=0
split_feature=21 24 21 21 5 13 17 19 22 28 22 21 17 19 13 22 29 23 21 11 19 19 29 17
split_gain=2.01242 1.44104 0.985362 2.23755 1.33255 1.17351 0.644541 0.539136 0.444449 1.44302 0.384047 0.990929 0.0800129 0.0726227 0.0259258 0.0100732 0.00431681 0.000582736 0.000152764 7.39163e-05 7.35141e-05 2.67299e-05 9.73559e-06 4.42076e-06
threshold=4.1195239079455375 5.9781759013627287 4.8809750600675139 4.1527497152250854 1.0000000180025095e-35 1.0000000180025095e-35 5.3138056558628826 5.3301783367105662 4.6472179778728515 4.6739411577588665 4.6772764531520226 5.4375230711341063 4.7979285402072085 4.8607568286944334 1.0000000180025095e-35 4.6453242127687675 4.3459062623707405 4.142978936432625 5.5823986978826916 1.0000000180025095e-35 4.8066036879126637 4.7843510833130418 5.5652105991940415 5.1100036806790667
decision_type=2 2 2 2 2 2 2 2 2 2 2 2 2 2 2 2 2 2 2 2 2 2 2 2
left_child=15 2 3 -2 10 -6 8 13 9 12 14 -12 -3 -5 21 -1 -17 22 20 23 -7 -4 -18 -14
right_child=1 6 4 7 5 18 -8 -9 -10 -11 11 -13 19 -15 -16 16 17 -19 -20 -21 -22 -23 -24 -25
leaf_value=0.17616371198083447 -0.20283056216701936 -0.32108056809234903 -0.20510339403903896 0.3036011810138573 -0.061359474167042918 0.20768656949553704 0.041608091558041002 0.047152846853964377 -0.29892067707385417 0.1901230576033574 0.11579791183420418 -0.20124430958194575 -0.20350964255888343 0.22025424778362532 -0.26838578352062664 0.23409077720821259 0.20466945219967358 0.21387509032333119 0.21057653639483612 -0.20656548832888003 0.20393206947255857 -0.20270621599449706 0.20287522991066864 -0.20237877350409203
leaf_weight=0.31893924437463361 0.74196782335638856 0.31238484755158402 0.36581018939614318 0.68733196798712048 1.3922749105840921 0.40740625746548176 0.61472820304334153 0.71783486939966668 0.90901391115039576 0.43176973611116398 0.66044759377837159 0.9786920603364706 0.30475914478302002 1.0678415382280944 0.37472096085548401 0.37016407400369622 0.29676479287445545 0.44640767853707075 0.38576013501733541 0.39754203520715237 0.42750091571360826 0.37865881901234388 0.20420699939131737 0.25310816895216703
leaf_count=8 12 4 16 10 22 14 7 24 13 5 13 27 18 25 2 3 16 13 10 13 25 29 15 22
internal_value=0.000204472 -0.0285981 0.0142075 0.101782 -0.03821 0.064141 -0.142624 0.193173 -0.186039 -0.125665 -0.135166 -0.0735006 -0.233212 0.252893 -0.22548 0.208056 0.215776 0.20862 0.207285 -0.204482 0.205764 -0.203884 0.203938 -0.202997
internal_weight=13.446 11.8096 8.58625 3.21498 5.37127 2.61294 3.22331 2.47301 2.60858 1.69956 2.75833 1.63914 1.26779 1.75517 1.11919 1.63648 1.31754 0.947379 1.22067 0.955409 0.834907 0.744469 0.500972 0.557867
internal_count=366 311 229 71 158 71 82 59 75 62 87 40 57 35 47 55 47 44 49 53 39 45 31 40
is_linear=0
shrinkage=0.2


Tree=19
num_leaves=26
num_cat=0
split_feature=15 22 15 22 18 22 10 26 19 24 29 15 28 29 19 22 29 26 18 29 15 22 28 28 24
split_gain=1.43025 1.5393 1.00668 0.696881 0.959069 0.683087 1.28842 0.935739 0.700156 0.594262 0.575081 0.381605 0.896278 0.044501 0.0313476 0.00753001 0.00341875 0.0014041 0.000587353 0.0004224 5.67514e-05 2.81314e-05 1.70951e-05 2.75612e-06 9.53271e-07
threshold=4.4432774841428859 4.6673181658474538 4.8971070313805525 4.6472179778728515 5.5561916954750652 5.1095395964338213 1.0000000180025095e-35 0.69243308907141665 4.3515288573123216 6.0708856070173924 4.3459062623707405 4.7980864078525771 4.3376899641178142 6.2347013268861362 5.0621114571973109 4.332314150387095 4.9124197822149842 2.7132176556293426 5.2555518179319707 5.1625808603462113 5.4854072320166356 3.40722854700658 5.4762884864406969 2.4941717642814756 5.1316550981199542
decision_type=2 2 2 2 2 2 2 2 2 2 2 2 2 2 2 2 2 2 2 2 2 2 2 2 2
left_child=10 3 11 4 14 -4 -7 -8 -9 -6 -1 12 -3 17 15 21 -12 -10 -14 -18 -19 -2 -21 -23 -24
right_child=1 2 5 -5 9 6 7 8 13 -11 16 -13 18 -15 -16 -17 19 20 -20 22 -22 23 24 -25 -26
leaf_value=-0.04338357088838922 -0.20490304441770435 -0.21890155700852057 0.104994237937253 -0.3722687474762697 0.21882451542056025 -0.20933061059575084 -0.21212536189432851 -0.050035781425752546 0.22218985114699277 -0.12685098974983819 0.22765894841342296 0.28853754301531587 0.21529844249506352 0.12634251777255756 -0.1427798481175088 -0.23810057306173527 0.21190214849703182 0.2027305598162252 0.20326184507084016 0.20508032762128889 0.20676904177362221 -0.20301785393723631 0.20275519710617168 -0.20216998998270067 0.20334447759855678
leaf_weight=0.45397758483886796 0.3344316966831673 0.27617768198251702 1.3144443789497016 0.4844946116209029 0.4565073400735854 1.4866640679538248 0.53442000225186381 0.88598355464637313 0.26889020204544045 0.35256705014035106 0.43725483492016781 0.59445694368332624 0.37577428296208382 0.36309422645717859 0.32168291136622418 0.34008138813078403 0.40606578625738599 0.29989928659051657 0.28526868857443333 0.26002576295286417 0.25973321497440338 0.3310463298112154 0.23113110102713108 0.28571700770407915 0.20919229602441192
leaf_count=3 15 5 28 3 5 22 10 29 3 27 5 9 9 14 13 5 9 25 21 14 10 23 18 27 14
internal_value=0.000187276 -0.0311028 0.020042 -0.153307 -0.109507 -0.0204628 -0.0606967 0.0239001 0.0846128 0.0681909 0.154493 0.163191 0.0836859 0.184726 -0.198642 -0.212558 0.212687 0.210312 0.210104 0.20677 0.204605 -0.203426 0.203794 -0.202625 0.203035
internal_weight=11.849 9.85133 6.94481 2.90653 2.42203 5.41313 4.09868 2.61202 2.0776 0.809074 1.99765 1.53168 0.937221 1.19162 1.61296 1.29128 1.54367 0.828523 0.661043 1.10641 0.559633 0.951195 0.700349 0.616763 0.440323
internal_count=366 303 185 118 115 141 113 91 81 32 63 44 35 52 83 70 60 38 30 55 35 65 46 50 32
is_linear=0
shrinkage=0.2


Tree=20
num_leaves=24
num_cat=0
split_feature=15 10 6 26 15 27 15 29 26 22 26 18 23 28 28 29 26 7 28 26 29 15 8
split_gain=1.09923 1.17454 1.51002 1.24429 1.24317 0.655686 0.641082 0.407765 0.278696 0.234206 0.046164 0.0053713 0.00253511 0.00187156 0.00121184 0.000291229 4.26257e-05 2.11665e-05 2.02796e-05 7.40181e-06 3.30011e-06 9.30508e-07 6.57181e-07
threshold=4.4432774841428859 1.0000000180025095e-35 1.0000000180025095e-35 5.9522445978871241 5.456062603218844 4.4297709167630739 5.7263149353514109 6.1580849185295081 5.1961942214815071 4.946130824644821 6.2658540251514463 4.7201044122158482 3.8484961150278787 5.1803768392423759 5.2363316753459594 5.0630202320856137 5.5871420037438142 1.0000000180025095e-35 5.2596870035456913 5.6406074815495506 6.1459500565339509 5.1223288791539909 1.0000000180025095e-35
decision_type=2 2 2 2 2 2 2 2 2 2 2 2 2 2 2 2 2 2 2 2 2 2 2
left_child=5 2 6 -4 11 -1 8 -6 -2 13 -5 -3 -7 16 -13 -14 -10 -16 -17 -18 -19 -21 -20
right_child=1 4 3 10 7 12 -8 -9 9 -11 -12 14 15 -15 17 18 19 20 22 21 -22 -23 -24
leaf_value=-0.082224630432399054 -0.34118225498478993 0.17728193499383327 0.1337465509176422 -0.22099061469821435 0.046514791347550419 0.22503820361849491 0.045236164021704231 -0.15160706475607749 -0.20486524614426296 -0.030399625473875175 -0.12426964558358358 0.21613018896226169 0.21082094214844671 -0.21710939306214044 0.20476029741321247 0.20491770610617374 -0.20338202857870927 0.20203095866138573 0.20280016780942711 -0.2017299970010567 0.2031298674913701 -0.20230132258902178 0.20224958946812041
leaf_weight=0.39113767165690738 0.52797846496105094 0.26664476934820447 1.6527327224612238 0.38494616094976652 0.86088150506839134 0.41332666575908639 0.45710549503564823 0.80324624758213758 0.53911373484879754 0.35415739379823197 0.40512438444420695 0.50406664144247748 0.34533167816698551 0.60228604264557351 0.25250646937638521 0.23827155027538538 0.24801731202751398 0.27006258489564061 0.17122496850788593 0.22102799359709024 0.18364295456558466 0.23554706666618586 0.17570259282365441
leaf_count=7 3 11 19 19 27 6 4 23 24 12 12 16 8 13 13 12 16 29 13 26 15 21 17
internal_value=0.0002199 -0.0285586 -0.0832407 0.0350553 0.0694191 0.145673 -0.173964 -0.0491153 -0.210691 -0.179377 -0.171395 0.202978 0.212004 -0.207958 0.208639 0.206215 -0.203527 0.203293 0.203497 -0.202503 0.202476 -0.202025 0.202521
internal_weight=10.5041 8.76909 5.62804 2.4428 3.14105 1.735 3.18523 1.66413 2.72813 2.20015 0.790071 1.47692 1.34386 1.84599 1.21028 0.930531 1.24371 0.706212 0.585199 0.704592 0.453706 0.456575 0.346928
internal_count=366 303 169 50 134 63 119 50 115 112 31 84 56 100 73 50 87 57 42 63 44 47 30
is_linear=0
shrinkage=0.2


Tree=21
num_leaves=25
num_cat=0
split_feature=21 16 26 25 26 22 27 17 18 20 20 16 17 18 17 29 17 1 27 0 17 1 21 18
split_gain=1.13032 0.983887 1.00899 1.32494 1.15665 1.10684 1.02999 0.201212 0.318979 0.192405 0.114923 0.0906798 0.0139448 0.00681564 0.00231589 0.000751463 0.000639218 0.000137839 4.45707e-05 2.40827e-05 1.5789e-05 1.35755e-05 2.06739e-06 9.62146e-07
threshold=4.1195239079455375 5.6496337695700314 5.7653567182680119 4.4607354179920735 5.0786391052444317 5.1095395964338213 5.2093883780342578 4.2706899448586251 5.5779677824603633 5.1716970921994179 4.8155530659246502 5.5369955877217656 4.578855467452132 5.9317639222679235 6.0167742058060627 4.9124197822149842 5.7063795016109156 69.500000000000014 5.3624386027029187 1.0000000180025095e-35 4.5325055154562106 67.500000000000014 5.1402841115909643 5.5956637011897072
decision_type=2 2 2 2 2 2 2 2 2 2 2 2 2 2 2 2 2 2 2 2 2 2 2 2
left_child=13 2 4 10 5 -2 -5 -6 12 -7 -4 14 -9 -1 17 -15 18 23 -14 -3 -17 22 -20 -8
right_child=1 19 3 6 7 9 11 8 -10 -11 -12 -13 16 15 -16 20 -18 -19 21 -21 -22 -23 -24 -25
leaf_value=0.17181003649530724 0.21380727302091118 0.2044076692901157 0.13214843113577601 0.14496375760793831 -0.29856583886988203 -0.019908719682179755 -0.20209013807815612 -0.15609563349999211 -0.028817365287823568 -0.18651648398543966 0.25291968063412645 -0.089101771445304359 -0.20676174806893483 0.21646157837246416 -0.22637428193574519 0.20277507671342343 -0.21458652658230828 -0.20839554525242077 -0.20377957878621036 0.20197532884453159 0.20529677250991818 -0.20504223003370881 -0.20297059752770552 -0.20141269983184307
leaf_weight=0.26086751418188281 0.72320932708680441 0.43982749804854382 0.56024847831577085 0.60508484765887249 0.49283566512167487 0.54797878582030513 0.18657659180462338 0.24988079955801401 0.57703831046819676 0.56121545657515526 0.72045446466654539 0.33771840203553438 0.3417680114507673 0.33071119338274002 0.29124831408262253 0.26229913113638759 0.34788381215184916 0.20106351189315319 0.27061375789344311 0.25853138091042638 0.15984114119783044 0.33494417369365692 0.23704151250422001 0.1523294379003346
leaf_count=14 14 26 25 8 6 21 19 31 12 10 8 5 11 5 3 27 8 6 15 29 9 14 18 22
internal_value=0.000127079 -0.0238468 -0.0443627 0.0450643 -0.102678 0.0213064 -0.0668505 -0.182338 -0.158058 -0.104207 0.200088 -0.176493 -0.199905 0.199669 -0.212 0.209323 -0.207049 -0.204247 -0.204835 0.203507 0.20373 -0.204054 -0.203402 -0.201786
internal_weight=9.45121 8.43749 7.73913 3.05472 4.68441 1.8324 1.77402 2.85201 2.35917 1.10919 1.2807 1.16894 1.78213 1.01372 0.831218 0.752851 1.53225 0.53997 1.18437 0.698359 0.42214 0.842599 0.507655 0.338906
internal_count=366 311 256 96 160 45 63 115 109 31 33 55 97 55 50 41 66 47 58 55 36 47 33 41
is_linear=0
shrinkage=0.2


end of trees

feature_importances:
Column_29=41
Column_22=32
Column_16=31
Column_15=30
Column_27=29
Column_1=26
Column_19=26
Column_18=25
Column_24=25
Column_20=24
Column_23=20
Column_28=20
Column_17=17
Column_21=16
Column_25=16
Column_26=15
Column_7=6
Column_8=4
Column_30=4
Column_0=3
Column_9=3
Column_10=3
Column_12=3
Column_13=3
Column_14=3
Column_6=2
Column_11=2
Column_2=1
Column_3=1
Column_4=1
Column_5=1

parameters:
[boosting: gbdt]
[objective: binary]
[metric: custom]
[tree_learner: serial]
[device_type: cpu]
[data_sample_strategy: bagging]
[data: ]
[valid: ]
[num_iterations: 10000]
[learning_rate: 0.2]
[num_leaves: 63]
[num_threads: 0]
[seed: 1239]
[deterministic: 0]
[force_col_wise: 0]
[force_row_wise: 0]
[histogram_pool_size: -1]
[max_depth: -1]
[min_data_in_leaf: 15]
[min_sum_hessian_in_leaf: 0.001]
[bagging_fraction: 1]
[pos_bagging_fraction: 1]
[neg_bagging_fraction: 1]
[bagging_freq: 0]
[bagging_seed: 21187]
[bagging_by_query: 0]
[feature_fraction: 0.5]
[feature_fraction_bynode: 1]
[feature_fraction_seed: 30770]
[extra_trees: 0]
[extra_seed: 27351]
[early_stopping_round: 0]
[early_stopping_min_delta: 0]
[first_metric_only: 0]
[max_delta_step: 0]
[lambda_l1: 0]
[lambda_l2: 0]
[linear_lambda: 0]
[min_gain_to_split: 0]
[drop_rate: 0.1]
[max_drop: 50]
[skip_drop: 0.5]
[xgboost_dart_mode: 0]
[uniform_drop: 0]
[drop_seed: 3778]
[top_rate: 0.2]
[other_rate: 0.1]
[min_data_per_group: 100]
[max_cat_threshold: 32]
[cat_l2: 10]
[cat_smooth: 10]
[max_cat_to_onehot: 4]
[top_k: 20]
[monotone_constraints: ]
[monotone_constraints_method: basic]
[monotone_penalty: 0]
[feature_contri: ]
[forcedsplits_filename: ]
[refit_decay_rate: 0.9]
[cegb_tradeoff: 1]
[cegb_penalty_split: 0]
[cegb_penalty_feature_lazy: ]
[cegb_penalty_feature_coupled: ]
[path_smooth: 0]
[interaction_constraints: ]
[verbosity: -1]
[saved_feature_importance_type: 0]
[use_quantized_grad: 0]
[num_grad_quant_bins: 4]
[quant_train_renew_leaf: 0]
[stochastic_rounding: 1]
[linear_tree: 0]
[max_bin: 255]
[max_bin_by_feature: ]
[min_data_in_bin: 3]
[bin_construct_sample_cnt: 200000]
[data_random_seed: 4084]
[is_enable_sparse: 1]
[enable_bundle: 1]
[use_missing: 1]
[zero_as_missing: 0]
[feature_pre_filter: 1]
[pre_partition: 0]
[two_round: 0]
[header: 0]
[label_column: ]
[weight_column: ]
[group_column: ]
[ignore_column: ]
[categorical_feature: ]
[forcedbins_filename: ]
[precise_float_parser: 0]
[parser_config_file: ]
[objective_seed: 9093]
[num_class: 1]
[is_unbalance: 0]
[scale_pos_weight: 1]
[sigmoid: 1]
[boost_from_average: 1]
[reg_sqrt: 0]
[alpha: 0.9]
[fair_c: 1]
[poisson_max_delta_step: 0.7]
[tweedie_variance_power: 1.5]
[lambdarank_truncation_level: 30]
[lambdarank_norm: 1]
[label_gain: ]
[lambdarank_position_bias_regularization: 0]
[eval_at: ]
[multi_error_top_k: 1]
[auc_mu_weights: ]
[num_machines: 1]
[local_listen_port: 12400]
[time_out: 120]
[machine_list_filename: ]
[machines: ]
[gpu_platform_id: -1]
[gpu_device_id: -1]
[gpu_use_dp: 0]
[num_gpu: 1]

end of parameters

pandas_categorical:null
