tree
version=v4
num_class=1
num_tree_per_iteration=1
label_index=0
max_feature_idx=14
objective=binary sigmoid:1
feature_names=Column_0 Column_1 Column_2 Column_3 Column_4 Column_5 Column_6 Column_7 Column_8 Column_9 Column_10 Column_11 Column_12 Column_13 Column_14
feature_infos=[0:1] [38:87] [0:1] [0:1] [0:1] [0:1] [0:1] [0:1] [0:1] [0:1] [0:1] [0:1] [0:1] [0:1] [0:1]
tree_sizes=1644 2546 3175 3197 2476 3293 3009 3392 2599 3411 2821 3402 3426 3427 3437 3407 2609 3412 3430 3446

Tree=0
num_leaves=16
num_cat=0
split_feature=8 5 10 9 13 7 3 10 7 13 6 2 12 2 0
split_gain=135.485 67.8205 33.9091 21.9632 19.3343 10.6671 7.69048 15.3651 11.8357 1.24323 0.477788 0.70983 0.121905 0.147692 7.10543e-15
threshold=1.0000000180025095e-35 1.0000000180025095e-35 1.0000000180025095e-35 1.0000000180025095e-35 1.0000000180025095e-35 1.0000000180025095e-35 1.0000000180025095e-35 1.0000000180025095e-35 1.0000000180025095e-35 1.0000000180025095e-35 1.0000000180025095e-35 1.0000000180025095e-35 1.0000000180025095e-35 1.0000000180025095e-35 1.0000000180025095e-35
decision_type=2 2 2 2 2 2 2 2 2 2 2 2 2 2 2
left_child=1 2 9 -4 5 -3 7 -2 -9 10 12 -12 13 -1 -10
right_child=6 4 3 -5 -6 -7 -8 8 14 -11 11 -13 -14 -15 -16
leaf_value=-0.39999999999999952 -0.19999999999999976 -0.23157894736842102 -0.33333333333333337 0.35789473684210521 0.39999999999999991 0.22857142857142854 0.40000000000000002 0.052173913043478251 0.40000000000000002 -0.26666666666666666 -0.37333333333333341 -0.25454545454545446 -0.40000000000000002 -0.33846153846153837 0.39999999999999974
leaf_weight=3.0000000000000027 3.0000000000000027 4.75 2.9999999999999991 4.75 8 3.5 17 5.7500000000000009 9.7499999999999982 4.4999999999999991 7.4999999999999982 2.75 20 3.25 2.5000000000000009
leaf_count=12 12 19 12 19 32 14 68 23 39 18 30 11 80 13 10
internal_value=0 -0.175385 -0.293333 0.0903226 0.178462 -0.0363636 0.3 0.219048 0.288889 -0.365854 -0.378082 -0.341463 -0.392381 -0.368 0.4
internal_weight=103 65 48.75 7.75 16.25 8.25 38 21 18 41 36.5 10.25 26.25 6.25 12.25
internal_count=412 260 195 31 65 33 152 84 72 164 146 41 105 25 49
is_linear=0
shrinkage=0.2


Tree=1
num_leaves=23
num_cat=0
split_feature=8 5 10 9 13 7 5 1 1 11 1 13 1 1 2 1 1 1 7 1 1 1
split_gain=90.0346 45.1533 22.6189 14.5616 13.0676 6.93309 5.05284 5.27525 6.33889 5.73671 1.26318 0.923901 1.15526 0.107111 0.0384313 0.112895 0.00491634 0.000883888 0.000494876 0.000468518 8.85996e-06 3.55271e-15
threshold=1.0000000180025095e-35 1.0000000180025095e-35 1.0000000180025095e-35 1.0000000180025095e-35 1.0000000180025095e-35 1.0000000180025095e-35 1.0000000180025095e-35 69.500000000000014 65.500000000000014 1.0000000180025095e-35 60.500000000000007 1.0000000180025095e-35 56.500000000000007 68.500000000000014 1.0000000180025095e-35 59.500000000000007 69.500000000000014 72.500000000000014 1.0000000180025095e-35 58.500000000000007 61.500000000000007 65.500000000000014
decision_type=2 2 2 2 2 2 2 2 2 2 2 2 2 2 2 2 2 2 2 2 2 2
left_child=1 2 11 -4 5 -3 7 8 9 -2 -11 12 -1 14 18 -16 -8 -9 -14 -20 -21 -6
right_child=6 4 3 -5 21 -7 16 17 -10 10 -12 -13 13 -15 15 -17 -18 -19 19 20 -22 -23
leaf_value=-0.18764794310585059 0.020971182967089254 -0.18796678399300776 -0.27477053521293732 0.29636130522875592 0.33406401264827157 0.18545648086700037 0.33406401264827157 0.34625552993347369 -0.12538448931443041 0.35576136180034723 0.18040024165303428 -0.21746787624383279 -0.33406401264827157 -0.29257095417806678 -0.33406401264827157 -0.29459548932720669 0.34293120613010597 0.35125557607207919 -0.33454923282103388 -0.33720618810277786 -0.33768714434337027 0.33406401264827146
leaf_weight=2.6564823836088172 4.8777732253074664 4.6868807673454267 2.9181860089302054 4.6010840237140656 4.8052150011062613 3.4546808302402496 12.253298252820967 3.3804755210876456 3.2095125317573538 5.1101467609405518 2.4217458963394165 4.4209386706352225 6.0065187513828269 3.6579613834619513 8.6493870019912702 4.3602804243564615 3.1425281465053549 2.4313150942325592 3.6063643991947174 3.6198567152023315 2.6563605666160583 2.8831290006637573
leaf_count=11 20 19 12 19 20 14 51 14 13 21 10 18 25 15 36 18 13 10 15 15 11 12
internal_value=5.39843e-05 -0.145196 -0.243313 0.0747083 0.147071 -0.0295134 0.248469 0.185678 0.12515 0.189946 0.299377 -0.303647 -0.314467 -0.324815 -0.328896 -0.320836 0.335874 0.348347 -0.335496 -0.336366 -0.33741 0.334064
internal_weight=99.8101 62.9833 47.1534 7.51927 15.8299 8.14156 36.8268 21.431 15.6192 12.4097 7.53189 39.6342 35.2132 32.5567 28.8988 13.0097 15.3958 5.81179 15.8891 9.88258 6.27622 7.68834
internal_count=412 260 195 31 65 33 152 88 64 51 31 164 146 135 120 54 64 24 66 41 26 32
is_linear=0
shrinkage=0.2


Tree=2
num_leaves=29
num_cat=0
split_feature=10 5 7 4 14 12 0 1 13 0 2 1 1 1 2 1 1 12 2 4 1 1 1 1 1 7 1 1
split_gain=46.7782 47.1264 13.3982 8.62338 8.18832 11.9654 7.93807 6.62511 5.40354 3.23582 2.24797 1.29538 0.658624 0.355784 0.587348 0.261386 0.210499 0.169895 0.0219845 0.0169474 0.00605909 0.00245902 0.0062748 0.00226665 0.000977801 0.000241443 8.21621e-05 3.04441e-06
threshold=1.0000000180025095e-35 1.0000000180025095e-35 1.0000000180025095e-35 1.0000000180025095e-35 1.0000000180025095e-35 1.0000000180025095e-35 1.0000000180025095e-35 60.500000000000007 1.0000000180025095e-35 1.0000000180025095e-35 1.0000000180025095e-35 68.500000000000014 66.500000000000014 58.500000000000007 1.0000000180025095e-35 55.500000000000007 59.500000000000007 1.0000000180025095e-35 1.0000000180025095e-35 1.0000000180025095e-35 57.500000000000007 69.500000000000014 62.500000000000007 57.500000000000007 61.500000000000007 1.0000000180025095e-35 72.500000000000014 61.500000000000007
decision_type=2 2 2 2 2 2 2 2 2 2 2 2 2 2 2 2 2 2 2 2 2 2 2 2 2 2 2 2
left_child=1 4 6 10 9 -6 7 -2 12 -1 -3 13 -9 18 25 -4 -16 -5 23 21 -20 22 -17 -11 -19 -15 -23 -27
right_child=2 3 15 17 5 -7 -8 8 -10 11 -12 -13 -14 14 16 19 -18 24 20 -21 -22 26 -24 -25 -26 27 -28 -29
leaf_value=-0.025686628607432635 0.19021343824038628 0.11543903863544924 0.24157859988318445 0.35948626839071629 -0.26268890646207854 0.29823246746904708 0.3125637184390504 -0.31034299885849465 0.060516412388405105 -0.30386691859630899 -0.15463231729144244 -0.16404701949561887 -0.1695956815413967 -0.29599089218703906 -0.25190423998053607 0.29658008914018313 -0.18287703786129625 0.29599089218703922 -0.32126386325723688 0.31386003449878142 -0.30989314462199891 0.29649459505441295 0.30905884636331449 -0.29595307013107502 0.30077944235344578 -0.29793374147270518 0.29483494325990472 -0.2982285495558859
leaf_weight=2.3197782337665549 4.118636995553973 2.6147105097770664 3.3322691619396236 2.4914415180683136 3.3026655018329611 2.8201144635677338 3.6090130805969229 2.8978997170925123 4.0443233996629715 2.4660422652959841 2.3325882107019424 4.0813355594873419 2.4578356146812439 3.7252228260040301 3.9900041967630377 3.9494047462940198 3.1719688028097153 3.2869613170623779 3.6882873922586441 4.3376955091953269 3.811852902173996 2.632994145154953 2.7232168614864349 3.5056062340736389 3.5456298291683197 3.3097734898328781 2.18189637362957 2.4297521412372589
leaf_count=10 18 11 15 11 14 12 16 12 18 11 10 18 10 17 18 18 14 15 16 19 17 12 12 16 16 15 10 11
internal_value=0.00013244 -0.113036 0.177576 0.201533 -0.218364 -0.004332 0.0490453 -0.0213048 -0.113982 -0.254268 -0.0118962 -0.269781 -0.245752 -0.284119 -0.264546 0.292489 -0.221333 0.314778 -0.308276 0.303209 -0.315485 0.299187 0.301673 -0.299221 0.298476 -0.297245 0.295743 -0.298059
internal_weight=93.1789 56.8937 36.2852 14.2713 42.6224 6.12278 17.1277 13.5187 9.40006 36.4996 4.9473 34.1798 5.35574 30.0985 16.6267 19.1575 7.16197 9.32403 13.4718 15.8252 7.50014 11.4875 6.67262 5.97165 6.83259 9.46475 4.81489 5.73953
internal_count=412 252 160 63 189 26 74 58 40 163 21 153 22 135 75 86 32 42 60 71 33 52 30 27 31 43 22 26
is_linear=0
shrinkage=0.2


Tree=3
num_leaves=29
num_cat=0
split_feature=10 3 7 7 0 1 3 14 2 1 1 12 0 4 1 1 1 0 6 13 2 4 1 1 1 6 14 2
split_gain=33.2958 22.1344 34.877 10.5115 5.86321 4.3765 3.71641 3.26668 2.08342 2.29151 1.66076 1.53458 0.280513 0.394339 0.241998 0.213725 0.84284 0.0895076 0.0558611 0.0498448 0.0140477 0.00701192 0.00101036 0.00255326 0.000381088 3.89044e-05 1.45864e-05 5.24829e-06
threshold=1.0000000180025095e-35 1.0000000180025095e-35 1.0000000180025095e-35 1.0000000180025095e-35 1.0000000180025095e-35 60.500000000000007 1.0000000180025095e-35 1.0000000180025095e-35 1.0000000180025095e-35 58.500000000000007 66.500000000000014 1.0000000180025095e-35 1.0000000180025095e-35 1.0000000180025095e-35 55.500000000000007 59.500000000000007 61.500000000000007 1.0000000180025095e-35 1.0000000180025095e-35 1.0000000180025095e-35 1.0000000180025095e-35 1.0000000180025095e-35 69.500000000000014 62.500000000000007 58.500000000000007 1.0000000180025095e-35 1.0000000180025095e-35 1.0000000180025095e-35
decision_type=2 2 2 2 2 2 2 2 2 2 2 2 2 2 2 2 2 2 2 2 2 2 2 2 2 2 2 2
left_child=1 7 8 4 5 -2 10 11 12 -10 -7 -1 -3 -14 -5 18 -17 -4 24 -19 -18 22 23 -16 27 -24 -21 -13
right_child=3 2 17 14 -6 6 -8 -9 9 -11 -12 15 13 -15 21 16 20 19 -20 26 -22 -23 25 -25 -26 -27 -28 -29
leaf_value=-0.11759559681575807 0.15724904404857787 -0.29477390597970898 0.32973390392016233 0.21411737221752231 0.28311817238703635 -0.32161077753897593 0.050939020957157723 0.00076641798142861007 -0.21237396253831264 0.064020038049555181 -0.095484937082196963 -0.27136552578402529 -0.27216069462748943 -0.16609622268503629 0.27181157391152716 -0.15897119499592841 -0.27417846060018725 0.30037158130631392 -0.30231224990524491 0.27129731794563877 -0.29416671596361649 0.28356956482077766 0.27183855657842626 0.28024909876392812 -0.27422577992817315 0.27062958093316863 0.27060466605709005 -0.27175399993332583
leaf_weight=3.2969180792570176 3.9990334659814861 2.8358549475669843 2.1001807749271384 3.0397423803806332 3.2277858257293692 2.5174588114023191 4.0302726626396179 2.3730164617300025 2.4780684411525735 2.3261043280363083 2.6846082657575607 2.5197212100029009 2.7257688790559769 2.8874215930700302 3.4954979568719846 3.2494500577449781 2.3649198859930038 4.1675142645835876 3.4961189925670615 3.293517678976059 3.4700996875762939 3.8882694095373145 2.137271523475647 2.4331760853528976 3.5529292523860931 2.1215496212244034 1.9280506223440168 3.1056511998176575
leaf_count=15 18 13 10 15 16 11 18 10 12 10 11 13 14 15 18 16 12 19 16 17 16 19 11 12 18 11 10 16
internal_value=0.000196391 -0.0997825 0.0373783 0.155552 0.0414362 -0.0175219 -0.0932248 -0.22351 -0.183709 -0.0785484 -0.204915 -0.244751 -0.243504 -0.217601 0.265292 -0.264018 -0.240605 0.292409 -0.280799 0.28406 -0.286066 0.276344 0.273586 0.275274 -0.272604 0.271236 0.271042 -0.27158
internal_weight=85.746 52.1713 24.7425 33.5747 16.4592 13.2314 9.23234 27.4288 13.2532 4.80417 5.20207 25.0558 8.44905 5.61319 17.1155 21.7589 9.08447 11.4893 12.6744 9.38908 5.83502 14.0758 10.1875 5.92867 9.1783 4.25882 5.22157 5.62537
internal_count=412 252 120 160 74 58 40 132 64 22 22 122 42 29 86 107 44 56 63 46 28 71 52 30 47 22 27 29
is_linear=0
shrinkage=0.2


Tree=4
num_leaves=22
num_cat=0
split_feature=8 5 13 10 12 3 10 7 3 14 12 3 2 3 5 0 7 0 4 5 3
split_gain=39.7651 18.2801 6.38864 5.52157 8.5502 3.76537 4.7583 4.48585 2.55577 1.15527 0.214763 0.387958 0.114486 0.207276 0.0192491 0.0129191 0.0087132 0.00537811 0.00248293 0.000996354 0.000257025
threshold=1.0000000180025095e-35 1.0000000180025095e-35 1.0000000180025095e-35 1.0000000180025095e-35 1.0000000180025095e-35 1.0000000180025095e-35 1.0000000180025095e-35 1.0000000180025095e-35 1.0000000180025095e-35 1.0000000180025095e-35 1.0000000180025095e-35 1.0000000180025095e-35 1.0000000180025095e-35 1.0000000180025095e-35 1.0000000180025095e-35 1.0000000180025095e-35 1.0000000180025095e-35 1.0000000180025095e-35 1.0000000180025095e-35 1.0000000180025095e-35 1.0000000180025095e-35
decision_type=2 2 2 2 2 2 2 2 2 2 2 2 2 2 2 2 2 2 2 2 2
left_child=1 3 8 9 -5 6 -2 -8 -3 10 11 -1 20 -14 15 -7 -16 -4 -18 -9 -12
right_child=5 2 17 4 -6 14 7 19 -10 -11 12 -13 13 -15 16 -17 18 -19 -20 -21 -22
leaf_value=-0.14815336218466144 -0.12121118404339644 -0.15334677480904635 0.26722143884709765 -0.26600512002351201 0.20279432030634381 0.29039122859365551 0.025519565386497123 0.26122585290731987 0.086031650313025274 -0.10617508744913591 -0.25735612435493338 -0.26031383049935258 -0.24018759159926614 -0.16961424254127158 0.27117536993107122 0.26924484076469901 0.26244586542462345 0.2539517643100716 0.25340045408231571 0.25673409820072984 -0.25497522979078657
leaf_weight=2.919539347290999 2.6762429624795923 3.412819027900694 1.828782185912132 2.8753812164068213 3.3919506222009659 2.0668990015983599 5.3027504980564109 5.4698790460824966 3.7382637113332748 3.2436757534742346 7.7721138447523117 2.1361421346664429 9.2845572382211667 2.028342381119729 2.8436340540647507 2.6211568862199783 2.1278535127639771 3.6803892850875854 2.8259556293487549 3.0919276028871536 2.3657093048095703
leaf_count=14 12 16 10 12 19 10 23 31 17 16 45 12 52 11 15 14 12 22 17 18 14
internal_value=0.000248951 -0.110233 0.0964906 -0.182897 -0.0122856 0.185529 0.122945 0.170074 -0.0282105 -0.218839 -0.232626 -0.195544 -0.241366 -0.227534 0.26844 0.278568 0.262351 0.258357 0.257286 0.259604 -0.256801
internal_weight=77.704 48.6777 12.6603 36.0174 6.26733 29.0263 16.5408 13.8646 7.15108 29.7501 26.5064 5.05568 21.4507 11.3129 12.4855 4.68806 7.79744 5.50917 4.95381 8.56181 10.1378
internal_count=412 260 65 195 31 152 84 72 33 164 148 26 122 63 68 24 44 32 29 49 59
is_linear=0
shrinkage=0.2


Tree=5
num_leaves=30
num_cat=0
split_feature=8 5 13 10 1 3 2 10 7 1 6 2 3 0 1 5 1 5 0 7 0 1 4 1 2 1 1 2 1
split_gain=29.2568 13.6245 5.0854 4.26416 3.40195 3.26785 3.56157 4.17133 4.46417 3.00054 1.67966 2.51027 1.12918 0.42833 0.305246 0.029888 0.00986571 0.00873482 0.00578217 0.00396892 0.00255001 0.00158507 0.00119201 0.000627671 0.000514787 0.000207041 3.91879e-05 5.89765e-06 9.9559e-07
threshold=1.0000000180025095e-35 1.0000000180025095e-35 1.0000000180025095e-35 1.0000000180025095e-35 64.500000000000014 1.0000000180025095e-35 1.0000000180025095e-35 1.0000000180025095e-35 1.0000000180025095e-35 62.500000000000007 1.0000000180025095e-35 1.0000000180025095e-35 1.0000000180025095e-35 1.0000000180025095e-35 61.500000000000007 1.0000000180025095e-35 67.500000000000014 1.0000000180025095e-35 1.0000000180025095e-35 1.0000000180025095e-35 1.0000000180025095e-35 57.500000000000007 1.0000000180025095e-35 58.500000000000007 1.0000000180025095e-35 67.500000000000014 57.500000000000007 1.0000000180025095e-35 61.500000000000007
decision_type=2 2 2 2 2 2 2 2 2 2 2 2 2 2 2 2 2 2 2 2 2 2 2 2 2 2 2 2 2
left_child=1 3 4 10 12 6 15 -8 -9 -5 13 14 -3 -1 -12 -2 21 18 -7 -19 -4 -15 -21 27 -25 26 -10 -23 -22
right_child=5 2 20 9 -6 17 7 8 25 -11 11 -13 -14 16 -16 -17 -18 19 -20 22 28 23 -24 24 -26 -27 -28 -29 -30
leaf_value=-0.17403086103937104 0.28412290205745777 -0.22563904788237107 0.2517003845882379 -0.11510425250264592 0.18094087885728488 0.26820910721306207 -0.20255108074710204 -0.034266396265044949 0.2476899851926426 0.19025355893141005 -0.24666379840989264 0.045913524969404068 -0.030598103899012952 -0.24961575666699215 -0.14321133434796313 0.24924778815527637 -0.26131081829568248 0.25445642195787194 0.25306750094263858 0.24821548114568934 0.24197570848922983 -0.24266785318694836 0.24144988716124752 -0.24357844829648073 -0.24724937329962288 0.24415605858332812 0.24628772444780173 -0.24219993756909283 0.24174985158737994
leaf_weight=4.0463836491107985 2.3588960468769065 2.1497290134429914 1.5796101391315458 3.7506730258464804 2.2316578030586243 1.81680092215538 2.1122437119483939 4.431048259139061 1.6949397772550585 1.9597519040107725 2.7525196820497504 2.4496562927961349 2.6521616876125336 2.8477572947740546 1.9484220147132871 1.6851081848144529 1.7727059721946723 2.4645198434591293 2.2683186680078506 1.8312331587076185 1.4334504008293154 2.3166964054107648 2.415912464261055 2.7867581993341446 3.3830513656139374 1.4595288038253782 1.5050378292798994 2.0142888426780701 1.7143412530422208
leaf_count=21 13 11 10 19 10 10 10 19 11 12 18 13 12 18 13 11 10 15 14 12 10 16 17 19 22 10 10 14 12
internal_value=0.000461386 -0.0993723 0.0847274 -0.166974 -0.0230916 0.168321 0.108705 0.0506277 0.109455 -0.010309 -0.200966 -0.118243 -0.117915 -0.231827 -0.203785 0.269591 -0.247292 0.25251 0.259802 0.248072 0.245143 -0.245431 0.244367 -0.244296 -0.245591 0.24613 0.24703 -0.24245 0.241853
internal_weight=69.8332 43.7896 11.761 32.0287 7.03355 26.0436 15.2468 11.2028 9.09055 5.71042 26.3182 7.1506 4.80189 19.1676 4.70094 4.044 15.1213 10.7968 4.08512 6.71167 4.7274 13.3486 4.24715 10.5008 6.16981 4.65951 3.19998 4.33099 3.14779
internal_count=412 260 65 195 33 152 84 60 50 31 164 44 23 120 31 24 99 68 24 44 32 89 29 71 41 31 21 30 22
is_linear=0
shrinkage=0.2


Tree=6
num_leaves=27
num_cat=0
split_feature=8 9 4 6 3 3 2 10 7 0 11 12 7 0 4 2 10 2 9 2 7 0 14 2 2 2
split_gain=21.7915 7.72295 4.76741 4.63161 10.1347 2.82495 2.84779 2.9755 3.63077 2.25569 1.81246 0.883239 0.359394 0.901686 0.404666 0.108799 0.0985068 0.0674921 0.0216865 0.0184903 0.00227232 0.00368663 0.00235691 0.00142875 0.000409349 0.000293034
threshold=1.0000000180025095e-35 1.0000000180025095e-35 1.0000000180025095e-35 1.0000000180025095e-35 1.0000000180025095e-35 1.0000000180025095e-35 1.0000000180025095e-35 1.0000000180025095e-35 1.0000000180025095e-35 1.0000000180025095e-35 1.0000000180025095e-35 1.0000000180025095e-35 1.0000000180025095e-35 1.0000000180025095e-35 1.0000000180025095e-35 1.0000000180025095e-35 1.0000000180025095e-35 1.0000000180025095e-35 1.0000000180025095e-35 1.0000000180025095e-35 1.0000000180025095e-35 1.0000000180025095e-35 1.0000000180025095e-35 1.0000000180025095e-35 1.0000000180025095e-35 1.0000000180025095e-35
decision_type=2 2 2 2 2 2 2 2 2 2 2 2 2 2 2 2 2 2 2 2 2 2 2 2 2 2
left_child=1 3 9 10 11 6 18 -8 -9 -3 12 -5 16 -14 25 -13 19 -4 -2 -1 21 -7 23 -22 -24 -15
right_child=5 2 17 4 -6 20 7 8 -10 -11 -12 15 13 14 -16 -17 -18 -19 -20 -21 22 -23 24 -25 -26 -27
leaf_value=-0.25333080020201632 0.27194427012375127 0.11326323273166757 0.29537326701613337 -0.0266637281257152 0.27876687094764024 0.25091656359303843 -0.17753402233414686 -0.027401483951596969 0.23612178588106725 -0.14915307488933666 -0.044002280336569055 -0.20852819074769366 -0.039854923069503639 -0.23296065742679556 -0.12268083440046865 -0.14930924143828339 -0.21858608871451812 0.23708951036339024 0.24019228325905995 -0.2783957857727245 0.23780390484428687 0.23742765351831507 0.23203262774117031 0.2464652742192629 0.23682374960689678 -0.23589454018077124
leaf_weight=2.1606053858995482 1.5406225249171248 2.2801401019096357 1.8244956433773041 1.7032269090414063 3.0486156046390533 1.8828070759773254 1.9464642256498326 4.4326837509870529 3.9593079537153244 3.0803555697202682 2.8433100357651702 4.0453160032629967 1.3542759269475926 1.8220036402344701 1.5555332005023954 1.7901395708322523 2.6047344356775284 1.4080577939748764 1.9487766027450562 2.5866454988718033 1.4299110099673271 1.4230168163776398 1.4268034398555756 1.6304365992546082 1.4264453276991844 5.3905089646577835
leaf_count=13 9 13 11 10 17 12 10 19 31 22 20 31 8 15 10 10 12 11 15 15 11 11 12 11 11 42
internal_value=0.000612599 -0.0895651 0.0781509 -0.136198 -0.0289411 0.155157 0.0979832 0.0452537 0.0969277 -0.0375317 -0.192089 -0.153377 -0.216184 -0.19174 -0.2152 -0.190362 -0.24984 0.269986 0.254211 -0.266988 0.240911 0.24511 0.238563 0.242418 0.234428 -0.235153
internal_weight=62.5452 39.498 8.59305 30.9049 10.5873 23.0473 13.8279 10.3385 8.39199 5.3605 20.3176 7.53868 17.4743 10.1223 8.76805 5.83546 7.35199 3.23255 3.4894 4.74725 9.21942 3.30582 5.9136 3.06035 2.85325 7.21251
internal_count=412 260 57 203 68 152 84 60 50 35 135 51 115 75 67 41 40 22 24 28 68 23 45 22 23 57
is_linear=0
shrinkage=0.2


Tree=7
num_leaves=31
num_cat=0
split_feature=8 5 9 13 14 2 4 1 1 9 1 0 6 1 6 1 1 1 1 7 0 4 5 0 7 5 1 9 2 1
split_gain=16.2556 8.25683 5.6667 3.80349 3.77208 2.25397 2.38639 3.04292 6.96972 4.31171 1.81117 1.51305 1.22571 1.17095 0.550177 0.461842 0.427243 0.1146 0.390253 0.0949707 0.0172092 0.0137845 0.0106855 0.00419628 0.00214619 0.00137809 0.000500972 0.000421794 2.61274e-05 1.40752e-05
threshold=1.0000000180025095e-35 1.0000000180025095e-35 1.0000000180025095e-35 1.0000000180025095e-35 1.0000000180025095e-35 1.0000000180025095e-35 1.0000000180025095e-35 69.500000000000014 63.500000000000007 1.0000000180025095e-35 64.500000000000014 1.0000000180025095e-35 1.0000000180025095e-35 69.500000000000014 1.0000000180025095e-35 56.500000000000007 60.500000000000007 60.500000000000007 59.500000000000007 1.0000000180025095e-35 1.0000000180025095e-35 1.0000000180025095e-35 1.0000000180025095e-35 1.0000000180025095e-35 1.0000000180025095e-35 1.0000000180025095e-35 55.500000000000007 1.0000000180025095e-35 1.0000000180025095e-35 58.500000000000007
decision_type=2 2 2 2 2 2 2 2 2 2 2 2 2 2 2 2 2 2 2 2 2 2 2 2 2 2 2 2 2 2
left_child=1 2 12 10 11 22 7 8 9 -7 14 -4 15 16 -3 -1 -14 18 21 -11 -19 28 23 -2 -24 -8 -21 -5 -17 -30
right_child=5 3 4 27 -6 6 25 -9 -10 19 -12 -13 13 -15 -16 17 -18 20 -20 26 -22 -23 24 -25 -26 -27 -28 -29 29 -31
leaf_value=-0.11132969627058265 0.23888498649124307 -0.15826589262992588 0.090726756608008038 0.2338821903421866 0.30804570055637148 -0.11114339981444442 0.23608292031659511 0.30041132889977917 -0.27453751738232124 0.29742354324687653 0.13434966069003998 -0.18934229175486322 0.041673636049513213 -0.25062398455718471 -0.017861249523056868 -0.22611094161858999 -0.095979184524866645 -0.26374977036663166 -0.11868950386802844 0.23245475047430331 -0.23867773216081725 -0.24513786474774657 0.23560795622472674 0.25376304961007395 0.2257036460702469 0.2283712484617324 0.22641725953682693 0.22950381549787907 -0.22674091784502234 -0.22751667260473291
leaf_weight=1.5201011672616065 1.8179490417242059 2.3732072263956052 1.3417184948921195 2.3070043250918388 1.5818345397710798 2.0234929174184781 1.8956569582223901 1.552555315196513 2.6112072691321373 1.3215831220149996 2.0600964277982712 1.8157957643270493 1.3832723498344415 1.6017449200153349 2.1078909337520599 1.5321374982595424 2.5918079391121864 2.6859236210584632 1.4301195442676542 1.1829258501529696 1.8488608747720716 2.3745856881141663 1.3709935918450358 1.3009038195014 2.4197170212864876 1.8138016611337662 1.0270470157265661 1.4229484274983408 2.0789074450731277 1.7010588645935061
leaf_count=11 15 11 10 19 10 12 15 11 12 6 10 16 11 10 12 15 21 15 9 10 14 17 11 9 24 17 10 13 20 16
internal_value=0.000842373 -0.0803511 -0.141359 0.0710403 0.0559571 0.143601 0.0958406 0.0437523 -0.00504324 0.121635 -0.0208638 -0.0703329 -0.18643 -0.106252 -0.0922201 -0.215902 -0.0480779 -0.227546 -0.214622 0.255012 -0.253528 -0.23247 0.23642 0.245091 0.229286 0.232312 0.229649 0.232212 -0.226808 -0.22709
internal_weight=56.0968 35.759 25.4879 10.2711 4.73935 20.3378 13.4283 9.71881 8.16626 5.55505 6.54119 3.15751 20.7485 5.57683 4.4811 15.1717 3.97508 13.6516 9.11681 3.53156 4.53478 7.68669 6.90956 3.11885 3.79071 3.70946 2.20997 3.72995 5.3121 3.77997
internal_count=412 260 195 65 36 152 93 61 50 38 33 26 159 42 23 117 32 106 77 26 29 68 59 24 35 32 20 32 51 36
is_linear=0
shrinkage=0.2


Tree=8
num_leaves=23
num_cat=0
split_feature=8 5 13 10 12 3 2 10 12 6 2 3 0 5 4 5 0 10 4 12 3 2
split_gain=12.3107 6.23434 3.09463 2.21858 2.79644 2.21458 1.93453 1.65469 2.67109 1.50261 2.00416 1.46872 0.630589 0.00421683 0.0031155 0.000973314 0.00106868 0.000414279 0.000240306 0.000719315 0.000128312 0.000105073
threshold=1.0000000180025095e-35 1.0000000180025095e-35 1.0000000180025095e-35 1.0000000180025095e-35 1.0000000180025095e-35 1.0000000180025095e-35 1.0000000180025095e-35 1.0000000180025095e-35 1.0000000180025095e-35 1.0000000180025095e-35 1.0000000180025095e-35 1.0000000180025095e-35 1.0000000180025095e-35 1.0000000180025095e-35 1.0000000180025095e-35 1.0000000180025095e-35 1.0000000180025095e-35 1.0000000180025095e-35 1.0000000180025095e-35 1.0000000180025095e-35 1.0000000180025095e-35 1.0000000180025095e-35
decision_type=2 2 2 2 2 2 2 2 2 2 2 2 2 2 2 2 2 2 2 2 2 2
left_child=1 3 11 9 -5 6 13 -8 -9 12 -11 -3 -1 -2 20 16 -7 -4 -17 -20 21 -14
right_child=5 2 17 4 -6 15 7 8 -10 10 -12 -13 14 -15 -16 18 -18 -19 19 -21 -22 -23
leaf_value=-0.11980648110948906 0.24060914907035441 -0.11813887160676938 0.22366411256590701 -0.16857766584690514 0.14886145933439732 0.23384464420256054 -0.14256229948313925 -0.019018832368540014 0.23735959865742415 -0.17061087892755705 0.075295592057124439 0.073786717540428509 -0.2208268523159824 0.22394103016430736 -0.23153024837996919 0.22687193532897793 0.22561913547749848 0.22834326153112627 0.22670122259137646 0.22042898610072417 -0.22422057519879726 -0.22291854380379739
leaf_weight=3.0025118738412901 1.5185352191329011 3.0265948027372342 1.8563076704740524 2.1359333097934714 2.3111866936087608 1.1715396717190734 1.6875400096178053 4.2789253070950508 2.6212731972336769 3.4067213907837859 2.1702869236469269 3.3716292828321457 1.2812632545828817 1.011535182595253 2.1978324577212334 1.1509450152516363 1.3713710010051727 1.2779027074575424 1.4157830104231834 1.5128961801528931 2.2028705701231956 3.8386837989091873
leaf_count=21 13 16 20 12 19 10 10 24 26 31 13 17 15 11 19 12 14 12 14 18 23 42
internal_value=0.0010892 -0.0728431 0.0627555 -0.130171 -0.00360324 0.13478 0.0802426 0.0349597 0.0783752 -0.161268 -0.0749166 -0.0170011 -0.199723 0.233945 -0.224926 0.226338 0.229409 0.225572 0.224423 0.223461 -0.222944 -0.222395
internal_weight=49.8201 32.0797 9.53243 22.5473 4.44712 17.7403 11.1178 8.58774 6.9002 18.1002 5.57701 6.39822 12.5232 2.53007 9.52065 6.62253 2.54291 3.13421 4.07962 2.92868 7.32282 5.11995
internal_count=412 260 65 195 31 152 84 60 50 164 44 33 120 24 99 68 24 32 44 32 80 57
is_linear=0
shrinkage=0.2


Tree=9
num_leaves=31
num_cat=0
split_feature=8 5 9 14 7 3 1 1 10 3 10 6 1 1 4 1 10 7 7 2 4 11 5 1 1 4 7 1 14 2
split_gain=9.22285 4.70273 3.58063 2.70563 2.14911 1.99331 2.34028 4.33885 3.07186 1.9215 1.38265 1.05494 1.26453 0.512863 0.411209 0.278916 0.211614 0.0733372 0.0530768 0.0309269 0.00761483 0.00257513 0.000492272 0.000422875 0.00023927 0.000133648 0.00033078 7.67937e-05 2.53506e-05 6.16311e-06
threshold=1.0000000180025095e-35 1.0000000180025095e-35 1.0000000180025095e-35 1.0000000180025095e-35 1.0000000180025095e-35 1.0000000180025095e-35 69.500000000000014 63.500000000000007 1.0000000180025095e-35 1.0000000180025095e-35 1.0000000180025095e-35 1.0000000180025095e-35 69.500000000000014 56.500000000000007 1.0000000180025095e-35 60.500000000000007 1.0000000180025095e-35 1.0000000180025095e-35 1.0000000180025095e-35 1.0000000180025095e-35 1.0000000180025095e-35 1.0000000180025095e-35 1.0000000180025095e-35 55.500000000000007 59.500000000000007 1.0000000180025095e-35 1.0000000180025095e-35 66.500000000000014 1.0000000180025095e-35 1.0000000180025095e-35
decision_type=2 2 2 2 2 2 2 2 2 2 2 2 2 2 2 2 2 2 2 2 2 2 2 2 2 2 2 2 2 2
left_child=1 2 11 10 14 6 7 8 -2 -6 -4 13 15 -1 -3 -13 20 -8 -10 -11 24 -22 28 -20 29 -24 -27 -21 -7 -15
right_child=5 4 3 -5 9 22 17 -9 18 19 -12 12 -14 16 -16 -17 -18 -19 23 27 21 -23 25 -25 -26 26 -28 -29 -30 -31
leaf_value=-0.073244831059148904 -0.089856282028785317 -0.11795302021712173 -0.2194458594068058 0.29241612312227883 -0.029560717845427898 0.22414594950283689 0.29575859805295357 -0.17868239766277277 0.27125860641562888 0.26610326702950826 0.078435259956042891 0.054865296530548495 -0.24222830499415063 -0.21670014557287051 0.0075522359800192064 -0.062069745879270999 -0.14979468355654338 0.22128336547041161 0.22208303114584724 0.22377990380490376 -0.23360638505996137 -0.22187951625497893 0.22155728400737132 0.21671600398328286 -0.22083243541123992 0.22103955240908874 0.21638411776177616 0.22635131777105075 0.22276600102830471 -0.21726998585066851
leaf_weight=1.2499609068036139 1.7167226076126079 1.8850909247994438 1.2055371776223174 1.2777581810951235 1.5997312664985655 1.0356708839535704 1.0746443122625342 2.793589673936367 1.156842425465584 1.1752599775791168 1.2904915288090706 1.309055142104625 1.4162935167551038 1.0668906420469251 2.3410423249006271 2.1658554598689079 1.9445183724164969 1.0414141416549683 1.0426806807518008 1.1071863844990728 2.5225961059331894 1.0653514266014101 0.96254136413335833 1.3443386554718015 0.84683720767498005 1.2549922242760658 1.1887626945972443 0.80039385706186306 1.0960553660988808 2.6324066072702408
leaf_count=11 11 11 15 10 8 11 6 16 6 8 11 11 10 15 16 21 12 14 12 13 21 12 12 19 10 15 17 9 13 36
internal_value=0.00115332 -0.0658879 -0.11974 0.0557284 0.0549705 0.124505 0.0719319 0.0227561 0.129728 0.148292 -0.065436 -0.160565 -0.0829405 -0.194081 -0.0484301 -0.0180184 -0.209067 0.259106 0.2361 0.240582 -0.223236 -0.230124 0.221053 0.21906 -0.2178 0.219561 0.218775 0.224859 0.223436 -0.217106
internal_weight=44.6105 28.9023 19.9936 3.77379 8.9087 15.7083 10.1702 8.05417 5.26058 4.68257 2.49603 16.2198 4.8912 11.3286 4.22613 3.47491 10.0786 2.11606 3.54386 3.08284 8.13408 3.58795 5.53802 2.38702 4.54613 3.4063 2.44375 1.90758 2.13173 3.6993
internal_count=412 260 195 36 65 152 84 64 48 38 26 159 42 117 27 32 106 20 37 30 94 33 68 31 61 44 32 22 24 51
is_linear=0
shrinkage=0.2


Tree=10
num_leaves=25
num_cat=0
split_feature=8 13 12 3 5 0 2 7 7 11 6 6 2 11 12 2 0 4 5 0 3 2 7 2
split_gain=6.97336 3.70677 3.25163 1.75035 1.72838 1.77622 1.51904 1.17812 0.606271 1.44407 0.352501 0.150993 0.0987295 0.0423918 0.053081 0.0189228 0.00223913 0.00117766 0.000255262 0.000296752 0.000103751 7.50544e-05 0.00014348 3.67155e-05
threshold=1.0000000180025095e-35 1.0000000180025095e-35 1.0000000180025095e-35 1.0000000180025095e-35 1.0000000180025095e-35 1.0000000180025095e-35 1.0000000180025095e-35 1.0000000180025095e-35 1.0000000180025095e-35 1.0000000180025095e-35 1.0000000180025095e-35 1.0000000180025095e-35 1.0000000180025095e-35 1.0000000180025095e-35 1.0000000180025095e-35 1.0000000180025095e-35 1.0000000180025095e-35 1.0000000180025095e-35 1.0000000180025095e-35 1.0000000180025095e-35 1.0000000180025095e-35 1.0000000180025095e-35 1.0000000180025095e-35 1.0000000180025095e-35
decision_type=2 2 2 2 2 2 2 2 2 2 2 2 2 2 2 2 2 2 2 2 2 2 2 2
left_child=1 4 15 6 5 -1 16 -6 -8 -10 13 -4 -12 17 -15 -3 -2 20 19 -5 23 22 -20 -7
right_child=3 2 11 18 7 10 8 -9 9 -11 12 -13 -14 14 -16 -17 -18 -19 21 -21 -22 -23 -24 -25
leaf_value=0.034945587021288388 0.21876649626691155 -0.064185294181139191 0.1787527183893976 0.2215666953838038 -0.094766195053702956 -0.21344646376779394 -0.032770327935896154 0.083577000411501623 -0.035683444800030405 0.2179564919061881 -0.15330756720982619 0.26912922023364433 -0.086926442294901776 -0.21752678860205996 -0.15137926018316247 -0.037421019365798364 0.23252802011226739 -0.22404056661656715 0.21705382472797466 0.21638690256828053 -0.21733122188857368 0.21682714760502497 0.21308972988001026 -0.21493198759670526
leaf_weight=1.8219054415822071 0.9634990394115428 1.8692613244056691 1.4978715628385544 0.82669821009039768 3.4485729485750189 0.88541860133409533 3.6755677610635757 2.597644105553627 1.924655556678772 1.6829990968108177 2.8239799365401268 1.4603826813399792 1.3128875494003294 0.88785712420940366 1.0701428800821304 2.4306781589984894 0.92889781296253204 0.66512988507747639 0.63255472108721733 0.95174983516335487 0.6385895088315009 1.3363213054835796 0.86420697718858719 2.6794445663690567
leaf_count=15 14 18 19 10 19 15 19 14 16 25 30 15 10 12 15 20 10 7 9 14 9 20 15 42
internal_value=0.0013469 -0.0594515 0.0619772 0.116397 -0.106253 -0.14792 0.0658777 -0.0181444 0.0243975 0.0826416 -0.178309 0.223368 -0.132241 -0.206226 -0.181374 -0.0490559 0.225521 -0.216221 0.216917 0.218795 -0.214984 0.215738 0.214765 -0.214563
internal_weight=39.8769 26.0898 7.25819 13.7872 18.8316 12.7854 9.17562 6.04622 7.28322 3.60765 10.9635 2.95825 4.13687 6.82658 1.958 4.29994 1.8924 4.86858 4.61153 1.77845 4.20345 2.83308 1.49676 3.56486
internal_count=412 260 72 152 188 155 84 33 60 41 140 34 40 100 27 38 24 73 68 24 66 44 24 57
is_linear=0
shrinkage=0.2


Tree=11
num_leaves=31
num_cat=0
split_feature=8 5 9 13 14 1 2 1 1 1 10 1 6 1 6 1 4 10 1 1 4 1 5 1 10 9 13 7 1 1
split_gain=5.14883 3.0025 2.25684 2.12806 2.04318 1.46956 1.46852 1.41234 3.04557 1.63857 3.13895 1.15959 0.988747 1.10957 0.561619 0.522427 0.336488 0.260991 0.193514 0.172502 0.00440255 0.00308902 0.00194783 0.00163649 0.00127253 0.000890503 0.000655164 0.000137545 6.72857e-05 7.15865e-06
threshold=1.0000000180025095e-35 1.0000000180025095e-35 1.0000000180025095e-35 1.0000000180025095e-35 1.0000000180025095e-35 62.500000000000007 1.0000000180025095e-35 69.500000000000014 63.500000000000007 59.500000000000007 1.0000000180025095e-35 64.500000000000014 1.0000000180025095e-35 69.500000000000014 1.0000000180025095e-35 56.500000000000007 1.0000000180025095e-35 1.0000000180025095e-35 66.500000000000014 60.500000000000007 1.0000000180025095e-35 55.500000000000007 1.0000000180025095e-35 67.500000000000014 1.0000000180025095e-35 1.0000000180025095e-35 1.0000000180025095e-35 1.0000000180025095e-35 59.500000000000007 61.500000000000007
decision_type=2 2 2 2 2 2 2 2 2 2 2 2 2 2 2 2 2 2 2 2 2 2 2 2 2 2 2 2 2 2
left_child=1 2 12 11 5 -4 22 8 9 10 -8 14 15 19 -3 -1 -11 20 -10 -14 28 -12 25 26 29 -2 -22 -24 -17 -5
right_child=6 3 4 24 -6 -7 7 -9 18 16 21 -13 13 -15 -16 17 -18 -19 -20 -21 23 -23 27 -25 -26 -27 -28 -29 -30 -31
leaf_value=-0.049121286486166454 0.22699256434418891 -0.14656109673537707 -0.2787500853903358 0.21336469470740882 0.28081370543966055 0.069205516443230627 -0.1477087804323538 0.25470165595329552 -0.077305492261832601 0.41259119902247066 0.22546015900031258 0.11443047142144486 0.059060283146949881 -0.23040264050632078 0.0041363917203833213 -0.21110612535718123 0.21349100090022152 -0.12833847806523285 -0.18341989255841251 -0.037045819498079731 -0.2141010854310896 0.24197121120472512 0.2142081610047617 -0.2284859267390619 0.22260514864072795 0.21757667871769831 -0.2221527264191579 0.21058696156505452 -0.21348343210470402 0.21234507461395499
leaf_weight=1.1012758761644379 0.67566296830773087 2.1207286566495913 0.78751472011208479 0.56723137199878693 1.031151629984379 1.2660344839096067 1.6365462765097618 1.3129481077194212 1.2348858490586283 0.67546987161040284 0.86306746676564217 1.8781449198722837 1.2494949027895921 1.1224291846156118 1.8540217205882075 2.5403111167252068 0.68271469697356224 1.7332252115011213 1.5505813285708425 1.8578248992562292 0.7373296320438385 0.95450201630592346 0.66230574250221241 1.1037677228450775 1.0469629727303982 0.99109585583209991 0.89483839273452759 1.1447768919169903 0.58609993010759343 0.53541431576013565
leaf_count=11 8 11 10 10 10 16 15 16 11 8 11 10 11 10 12 51 12 12 10 21 12 10 11 11 12 16 10 24 10 10
internal_value=0.00141609 -0.0526037 -0.1026 0.0474287 0.0511097 -0.0642318 0.106161 0.0631602 0.0300605 0.126398 0.0532168 -0.0150747 -0.13928 -0.0599657 -0.0762683 -0.177856 0.31251 -0.196521 -0.136376 0.00159973 -0.216679 0.234131 0.216462 -0.222538 0.217611 0.221394 -0.218515 0.211914 -0.211552 0.21287
internal_weight=36.3984 24.0138 16.0113 8.0025 3.0847 2.05355 12.3846 8.91072 7.59777 4.8123 3.45412 5.8529 12.9266 4.22975 3.97475 8.69685 1.35818 7.59557 2.78547 3.10732 5.86235 1.81757 3.47384 2.73594 2.14961 1.66676 1.63217 1.80708 3.12641 1.10265
internal_count=412 260 195 65 36 26 152 93 77 56 36 33 159 42 23 117 20 106 21 32 94 21 59 33 32 24 22 35 61 20
is_linear=0
shrinkage=0.2


Tree=12
num_leaves=31
num_cat=0
split_feature=8 5 9 4 3 1 1 9 3 4 1 6 2 1 1 1 14 1 7 7 6 0 6 2 1 12 14 7 1 14
split_gain=3.86959 2.22329 1.70911 1.59809 1.57944 1.56325 2.38486 1.61276 1.53089 2.49797 0.938939 0.89262 1.25491 0.59841 0.497295 0.447137 0.163992 0.344945 0.0777546 0.0132586 0.00595889 0.00393426 0.000459387 0.00023332 0.000203332 0.00018769 0.000158919 0.000112356 3.56269e-05 1.2937e-05
threshold=1.0000000180025095e-35 1.0000000180025095e-35 1.0000000180025095e-35 1.0000000180025095e-35 1.0000000180025095e-35 69.500000000000014 63.500000000000007 1.0000000180025095e-35 1.0000000180025095e-35 1.0000000180025095e-35 63.500000000000007 1.0000000180025095e-35 1.0000000180025095e-35 61.500000000000007 56.500000000000007 62.500000000000007 1.0000000180025095e-35 60.500000000000007 1.0000000180025095e-35 1.0000000180025095e-35 1.0000000180025095e-35 1.0000000180025095e-35 1.0000000180025095e-35 1.0000000180025095e-35 55.500000000000007 1.0000000180025095e-35 1.0000000180025095e-35 1.0000000180025095e-35 59.500000000000007 1.0000000180025095e-35
decision_type=2 2 2 2 2 2 2 2 2 2 2 2 2 2 2 2 2 2 2 2 2 2 2 2 2 2 2 2 2 2
left_child=1 2 11 15 5 6 7 -2 10 -10 -3 14 13 -13 -1 -4 21 -18 -11 -9 -7 -16 -20 27 -21 -23 -25 -6 -27 -29
right_child=4 8 3 -5 23 20 -8 19 9 18 -12 12 -14 -15 16 -17 17 -19 22 24 -22 25 -24 26 -26 28 -28 29 -30 -31
leaf_value=-0.040944796199376479 -0.040058298279528115 -0.17732521234691745 -0.16700554476433799 0.25431622713148277 0.2125880021584588 0.25338270401911672 -0.14794100763740109 0.24312037628729277 -0.056269214902292308 0.28889515672681371 0.042497188684008896 -0.22154691212901995 0.088567000156387465 -0.021491020374785064 -0.22848097263986036 0.026407808775198743 -0.075963371035225741 -0.23018760072576822 0.21430856951496749 0.21344318217094496 0.22716140679372809 -0.21258894572940565 0.22143251624452015 0.2159423440239171 0.20819411541950028 -0.20899261587019785 0.21217865487238396 0.20985654842413434 -0.2108943311481688 0.20837238898968283
leaf_weight=1.0617202073335663 1.6733168736100181 1.5345585569739335 0.86771711707115118 0.96866618469357479 0.62461796775460243 0.66461414843797662 2.4594789780676365 0.86924342811107647 1.8931741900742052 1.0651810988783836 1.5749143958091734 1.4668310061097147 1.5703686624765394 1.0098067633807657 0.54557524621486653 1.0648272931575773 1.2711607068777087 1.0670623853802679 0.75333306565880775 0.54793580621480942 0.72466307505965233 0.98950576037168536 0.69714003428816795 0.80314904078841198 0.63995503261685371 2.0986727997660641 1.0169843137264252 0.4781290702521801 0.48513445258140553 0.46186194196343422
leaf_count=11 15 12 11 11 12 9 16 6 12 8 8 17 12 13 5 14 12 10 14 10 11 18 11 13 17 51 20 11 10 12
internal_value=0.00165191 -0.0467493 -0.0925984 0.0446551 0.0987079 0.0479797 0.00494849 0.105748 0.0414757 0.117268 -0.0659875 -0.127028 -0.0512949 -0.139978 -0.167791 -0.0604353 -0.188647 -0.146345 0.247864 0.22435 0.239705 -0.212662 0.217733 0.2123 0.210615 -0.210247 0.213839 0.210509 -0.20935 0.209127
internal_weight=32.9493 21.9853 14.467 2.90121 10.9639 7.57921 6.18993 3.73045 7.5183 4.40883 3.10947 11.5658 4.04701 2.47664 7.51883 1.93254 6.45711 2.33822 2.51565 2.05713 1.38928 4.11889 1.45047 3.38474 1.18789 3.57331 1.82013 1.56461 2.58381 0.939991
internal_count=412 260 195 36 152 84 64 48 65 45 20 159 42 30 117 25 106 22 33 33 20 84 25 68 27 79 33 35 61 23
is_linear=0
shrinkage=0.2


Tree=13
num_leaves=31
num_cat=0
split_feature=8 5 3 9 14 1 1 10 3 7 10 6 1 1 1 10 1 2 7 0 6 1 1 2 12 14 7 1 1 14
split_gain=2.90459 1.64523 1.37712 1.30335 1.5547 1.2509 1.66472 1.65485 1.10752 1.58668 0.790127 0.771276 1.23671 1.11932 0.653015 0.385374 0.145664 0.0256417 0.00697417 0.00344434 0.00315256 0.000145442 0.000139264 0.000124913 0.000102218 8.506e-05 6.0273e-05 1.95258e-05 7.32659e-06 6.949e-06
threshold=1.0000000180025095e-35 1.0000000180025095e-35 1.0000000180025095e-35 1.0000000180025095e-35 1.0000000180025095e-35 69.500000000000014 63.500000000000007 1.0000000180025095e-35 1.0000000180025095e-35 1.0000000180025095e-35 1.0000000180025095e-35 1.0000000180025095e-35 55.500000000000007 69.500000000000014 63.500000000000007 1.0000000180025095e-35 60.500000000000007 1.0000000180025095e-35 1.0000000180025095e-35 1.0000000180025095e-35 1.0000000180025095e-35 57.500000000000007 55.500000000000007 1.0000000180025095e-35 1.0000000180025095e-35 1.0000000180025095e-35 1.0000000180025095e-35 59.500000000000007 64.500000000000014 1.0000000180025095e-35
decision_type=2 2 2 2 2 2 2 2 2 2 2 2 2 2 2 2 2 2 2 2 2 2 2 2 2 2 2 2 2 2
left_child=1 3 5 11 10 6 7 -2 14 -10 -5 12 -1 16 -3 19 -13 -11 -9 -14 -7 -21 -20 26 -23 -25 -4 -26 -19 -28
right_child=2 8 23 4 -6 20 -8 18 9 17 -12 13 15 -15 -16 -17 -18 28 22 21 -22 24 -24 25 27 -27 29 -29 -30 -31
leaf_value=0.12798510603371499 -0.064379869707090184 -0.15238652380902329 0.21019598671220191 -0.212790456098123 0.26228596663455062 0.24298387353879783 -0.12228981842696951 0.23383507317843999 -0.01603819848314535 0.25945458601617238 0.048542900508164864 0.073737366861266904 -0.22126515261986648 -0.22638574301642722 0.034182152350183764 -0.093218677771351302 -0.01828651221145278 0.21393017315179719 0.21125630856347621 -0.21155675913921251 0.22220921598379109 -0.21047866295219753 0.2068923231276123 0.21289105097458205 -0.2072553605611237 0.20986532406459926 0.2079954992196984 -0.20882479034133797 0.21285034093906396 0.20679779107157437
leaf_weight=0.55518406629562544 1.4585187956690806 1.4397579655051225 0.51660705916583538 0.80252508819103163 0.85875354707241047 0.56496733799576737 2.3888693675398827 0.73692373931407917 2.0780221372842789 0.93140210583806005 1.0931073203682899 1.1623497605323798 1.2751922458410261 1.0032879672944544 1.5673442035913465 1.4231753274798391 1.6861061900854108 0.52110579609870911 0.56605935469269753 0.70710081607103381 0.60514569282531738 0.65356385335326206 0.60527275688946247 0.66600335575640202 1.5193918906152246 0.84085808321833611 0.39459710940718651 0.40072090923786174 0.4854863453656435 0.38072047755122185
leaf_count=5 11 12 12 15 10 9 16 6 15 8 11 11 16 10 8 12 21 11 12 15 11 14 19 13 45 20 11 10 11 12
internal_value=0.00179287 -0.0415058 0.0915714 -0.0832715 0.0390403 0.0437269 0.0054025 0.0960056 0.0366391 0.105364 -0.0620938 -0.115709 -0.157553 -0.0447212 -0.0551443 -0.184066 0.019265 0.235539 0.218592 -0.212445 0.23224 -0.209016 0.209001 0.209965 -0.208318 0.211203 0.208522 -0.207583 0.213409 0.207407
internal_weight=29.8881 20.1636 9.72454 13.1405 2.75439 6.92576 5.75564 3.36677 7.02312 4.01602 1.89563 10.3861 6.53433 3.85174 3.0071 5.97915 2.84846 1.93799 1.90826 4.55597 1.17011 3.28078 1.17133 2.79879 2.57368 1.50686 1.29192 1.92011 1.00659 0.775318
internal_count=412 260 152 195 36 84 64 48 65 45 26 159 117 42 20 112 32 30 37 100 20 84 31 68 69 33 35 55 22 23
is_linear=0
shrinkage=0.2


Tree=14
num_leaves=31
num_cat=0
split_feature=8 5 3 2 3 4 1 2 0 4 10 11 14 12 1 7 1 14 1 1 7 11 0 1 1 1 2 1 14 7
split_gain=2.19419 1.23143 1.19305 1.06291 0.789786 2.16706 0.595112 1.87597 1.14119 1.31727 1.05761 0.919139 0.790137 0.603393 0.57688 0.474346 2.80062 0.882545 0.447767 0.384287 0.0433759 0.00921476 0.00109295 0.000454563 0.000164531 0.00012038 6.72091e-05 4.59536e-05 4.57664e-05 3.24792e-05
threshold=1.0000000180025095e-35 1.0000000180025095e-35 1.0000000180025095e-35 1.0000000180025095e-35 1.0000000180025095e-35 1.0000000180025095e-35 59.500000000000007 1.0000000180025095e-35 1.0000000180025095e-35 1.0000000180025095e-35 1.0000000180025095e-35 1.0000000180025095e-35 1.0000000180025095e-35 1.0000000180025095e-35 61.500000000000007 1.0000000180025095e-35 59.500000000000007 1.0000000180025095e-35 63.500000000000007 56.500000000000007 1.0000000180025095e-35 1.0000000180025095e-35 1.0000000180025095e-35 70.500000000000014 58.500000000000007 57.500000000000007 1.0000000180025095e-35 62.500000000000007 1.0000000180025095e-35 1.0000000180025095e-35
decision_type=2 2 2 2 2 2 2 2 2 2 2 2 2 2 2 2 2 2 2 2 2 2 2 2 2 2 2 2 2 2
left_child=1 6 3 22 18 -6 7 19 -9 25 12 -12 13 -8 -15 -5 17 -17 -3 -1 -7 24 -2 27 -21 -10 29 -16 -28 -4
right_child=2 4 26 15 5 20 10 8 9 -11 11 -13 -14 14 23 16 -18 -19 -20 21 -22 -23 -24 -25 -26 -27 28 -29 -30 -31
leaf_value=-0.37460251081504103 0.21196677175341408 -0.12932831211663265 0.20827558202224439 -0.056150111708776179 -0.065278949412569606 0.27166356746580833 0.032975016212558626 0.17255241729714754 -0.21000191432301826 0.20425515555091045 -0.044672641905103477 0.22331711587898653 0.095156790912538827 -0.038113942336550341 -0.21569540404978937 -0.22927030600545667 0.33871883456822005 0.072103859195608716 0.027475997131543941 -0.21022685749258843 0.21153602664484109 -0.17876501630495986 0.22455118082212128 -0.22088743661059618 -0.21529650233215816 -0.20594466809984296 0.21044919736070955 -0.21357602310901713 0.20800772366701781 0.20602151528200766
leaf_weight=0.78376148641109677 0.54765127971768535 1.3660064563155168 0.42645622976124287 2.6877441927790642 1.7868410907685757 0.93212366104125977 0.80011593177914608 0.87993840128183376 0.44867189228534676 0.40987796336412441 1.079580754041672 0.97358355671167363 0.7891426421701907 1.0590968839824202 0.85442525520920776 0.89060850441455863 0.93657113052904595 0.68964201398193836 1.5607263967394827 0.57248554378747918 0.9892192967236042 0.47145371697843064 0.55663921311497688 0.66263144835829724 0.4632926806807518 0.84047930687665939 0.55094501934945583 0.7853781059384346 0.69394481368362904 0.63860265724360943
leaf_count=8 14 12 12 19 12 8 13 7 11 4 10 13 8 16 14 8 18 15 8 16 25 14 10 8 8 30 13 15 20 23
internal_value=0.00176312 -0.0370515 0.0851172 0.0400914 0.0319606 0.093263 -0.0756141 -0.12931 -0.0123146 -0.108058 -0.0382785 0.0824046 -0.0883275 -0.12312 -0.160274 0.00227741 0.0646729 -0.0977467 -0.0457099 -0.261011 0.240706 -0.201944 0.21831 -0.216467 -0.212494 -0.207357 0.20809 -0.21468 0.209088 0.206924
internal_weight=27.1276 18.5088 8.61881 6.30886 6.63492 3.70818 11.8739 4.86996 2.57897 1.69903 7.00395 2.05316 4.95079 4.16165 3.36153 5.20457 2.51682 1.58025 2.92673 2.29099 1.92134 1.50723 1.10429 2.30243 1.03578 1.28915 2.30995 1.6398 1.24489 1.06506
internal_count=412 260 152 84 65 45 195 98 52 45 97 23 74 66 53 60 41 23 20 46 33 38 24 37 24 41 68 29 33 35
is_linear=0
shrinkage=0.2


Tree=15
num_leaves=31
num_cat=0
split_feature=13 0 7 8 12 1 10 1 2 1 2 14 0 12 1 1 5 1 1 1 1 1 1 5 1 4 1 10 4 2
split_gain=1.92491 1.70024 1.33298 1.31408 1.06649 2.20939 0.882698 0.739982 1.42895 2.37633 1.19744 1.12885 1.12377 0.737462 1.2683 0.597679 0.546333 0.342467 0.250528 0.249395 0.245995 0.152094 0.0521253 0.0949992 0.0304185 0.0250751 0.0193004 0.00862499 0.00275288 0.00124661
threshold=1.0000000180025095e-35 1.0000000180025095e-35 1.0000000180025095e-35 1.0000000180025095e-35 1.0000000180025095e-35 59.500000000000007 1.0000000180025095e-35 62.500000000000007 1.0000000180025095e-35 55.500000000000007 1.0000000180025095e-35 1.0000000180025095e-35 1.0000000180025095e-35 1.0000000180025095e-35 59.500000000000007 56.500000000000007 1.0000000180025095e-35 57.500000000000007 60.500000000000007 57.500000000000007 63.500000000000007 66.500000000000014 58.500000000000007 1.0000000180025095e-35 59.500000000000007 1.0000000180025095e-35 58.500000000000007 1.0000000180025095e-35 1.0000000180025095e-35 1.0000000180025095e-35
decision_type=2 2 2 2 2 2 2 2 2 2 2 2 2 2 2 2 2 2 2 2 2 2 2 2 2 2 2 2 2 2
left_child=3 2 6 7 21 15 -2 8 11 -10 12 17 -9 -11 19 -6 25 -1 -8 -15 -7 -5 -3 -24 26 -12 -19 -4 -25 -22
right_child=1 22 27 4 5 20 18 10 9 13 16 -13 -14 14 -16 -17 -18 24 -20 -21 29 -23 23 28 -26 -27 -28 -29 -30 -31
leaf_value=-0.36560930322970159 -0.20466275780757931 0.1804894138445578 0.24734899266368668 -0.00063949092771580407 0.052796424031543165 0.37586709529125045 0.10121911423563042 -0.071733033994983014 0.35025733146894078 -0.25146647346111006 -0.16345212379422674 0.066714389566212867 0.1884637567134001 -0.029186518404587965 0.26084762151559038 -0.19444669765253272 0.020979969223665643 -0.20500060135164444 -0.037726335015283462 -0.20483827796614837 0.20985480176602989 -0.096800399186835029 0.31100033929007453 0.22514084455519431 -0.21691927458791144 -0.2151457143979609 -0.14403603856838715 0.20837133228348695 0.20516703110769013 0.22230117915211267
leaf_weight=0.63830638490617841 0.97047263011336271 0.59404056333005462 0.37128633260726918 1.2469769176095717 0.8836724888533356 0.55346445739269245 0.96083025448024306 1.1437395364046097 0.59496743232011828 0.80823877453804027 0.86965522915124915 0.58693435788154591 1.5827391967177391 0.60730442777276017 0.46952646598219883 0.70160778239369392 0.76787159964442242 0.3768489267677072 1.1289854124188421 0.69145731255412102 0.54719740897417046 1.392774451524019 0.63248891197144952 0.49568807892501354 1.9524856768548486 0.66035328805446625 0.46282017044723034 0.58468902856111526 0.62279658392071724 0.78174846991896629
leaf_count=11 15 18 7 13 20 11 12 8 4 5 15 3 17 13 8 9 6 16 18 30 16 13 4 7 30 11 11 19 26 16
internal_value=0.00158009 0.0963661 0.0173574 -0.0313313 0.0444139 0.117333 -0.0470406 -0.069209 -0.110365 -0.010008 -0.0103225 -0.189591 0.0793129 -0.0931999 -0.0208604 -0.0566276 -0.116677 -0.233444 0.0261563 -0.122703 0.263834 -0.0513755 0.231683 0.249051 -0.20323 -0.185763 -0.171397 0.22351 0.214019 0.217176
internal_weight=24.682 6.36128 4.01626 18.3207 6.10744 3.46769 3.06029 12.2132 7.18889 3.17149 5.02436 4.0174 2.72648 2.57653 1.76829 1.58528 2.29788 3.43046 2.08982 1.29876 1.88241 2.63975 2.34501 1.75097 2.79215 1.53001 0.839669 0.955975 1.11848 1.32895
internal_count=412 126 71 286 98 72 45 188 131 60 57 71 25 56 51 29 32 68 30 43 43 26 55 37 57 26 27 26 33 32
is_linear=0
shrinkage=0.2


Tree=16
num_leaves=23
num_cat=0
split_feature=13 0 9 8 12 11 12 14 4 3 2 7 2 3 9 5 12 2 11 3 2 14
split_gain=1.41827 1.37806 1.3138 0.96449 0.791934 1.02052 0.467791 1.34893 1.17052 1.87043 0.262565 0.135329 0.112642 0.0728435 0.0432279 0.0453308 0.0247818 0.0284293 0.00351473 0.000767574 0.000292092 3.56614e-05
threshold=1.0000000180025095e-35 1.0000000180025095e-35 1.0000000180025095e-35 1.0000000180025095e-35 1.0000000180025095e-35 1.0000000180025095e-35 1.0000000180025095e-35 1.0000000180025095e-35 1.0000000180025095e-35 1.0000000180025095e-35 1.0000000180025095e-35 1.0000000180025095e-35 1.0000000180025095e-35 1.0000000180025095e-35 1.0000000180025095e-35 1.0000000180025095e-35 1.0000000180025095e-35 1.0000000180025095e-35 1.0000000180025095e-35 1.0000000180025095e-35 1.0000000180025095e-35 1.0000000180025095e-35
decision_type=2 2 2 2 2 2 2 2 2 2 2 2 2 2 2 2 2 2 2 2 2 2
left_child=3 2 12 6 -5 -6 8 10 -1 -10 13 -12 -2 -8 15 -3 -16 -18 -4 20 -7 -21
right_child=1 14 18 4 5 19 7 -9 9 -11 11 -13 -14 -15 16 -17 17 -19 -20 21 -22 -23
leaf_value=0.13362258420836612 -0.11316077652908643 0.2959688653600594 0.23544408428241448 -0.041618144220420386 -0.019326262218370346 0.21133758713022688 -0.21087579146493141 0.041931249956552334 -0.2328780156578914 0.11985089259466992 -0.20996974067926369 -0.075722694394413148 -0.026595976074296142 -0.14567197353670203 0.21696761051136418 0.2093239735506853 0.098010117359514759 0.2040752986498991 0.2102002792795839 0.20804407887536722 0.21797568031561398 0.2047847290210949
leaf_weight=1.4932678490877207 0.87546857260167565 0.46535426378250133 0.35430190712213505 2.6131702084094277 1.3793819919228554 0.41551770735532023 1.8090045191347599 2.1515892259776592 1.4869050309062004 1.0096709243953228 0.35415182262659084 1.9774371348321438 1.9198592659085989 1.103332893922925 0.63281829096376896 0.50215877033770084 0.19277885556221008 0.212515939027071 0.58470657840371132 0.26841773279011261 0.73270364850759506 0.26868428103625774
leaf_count=9 20 3 8 26 19 12 44 13 20 18 10 55 25 19 15 17 9 11 18 8 20 13
internal_value=0.000867364 0.0868653 0.0150481 -0.0280618 0.0392713 0.108243 -0.0616408 -0.0914174 -0.00644718 -0.0902266 -0.146131 -0.0961139 -0.0537072 -0.186173 0.220584 0.250998 0.192238 0.153625 0.219725 0.212654 0.215573 0.206414
internal_weight=22.8032 5.73996 3.73434 17.0632 5.67788 3.06471 11.3854 7.39552 3.98984 2.49658 5.24393 2.33159 2.79533 2.91234 2.00563 0.967513 1.03811 0.405295 0.939008 1.68532 1.14822 0.537102
internal_count=412 126 71 286 98 72 188 141 47 38 128 65 45 63 55 20 35 20 26 53 32 21
is_linear=0
shrinkage=0.2


Tree=17
num_leaves=31
num_cat=0
split_feature=6 1 7 3 10 11 13 1 10 1 1 1 10 7 1 1 5 1 7 1 9 1 5 4 1 3 1 9 9 1
split_gain=2.13646 1.26659 1.27667 1.19644 1.73502 1.01697 0.980079 0.804095 0.766762 1.76323 0.654718 0.662252 0.394465 1.06278 1.20949 1.39719 0.16829 0.073399 0.071856 0.0442077 0.0415708 0.0134296 0.0131724 0.00312197 0.000785753 0.000731747 0.000565365 0.00022658 0.000149378 8.91865e-05
threshold=1.0000000180025095e-35 69.500000000000014 1.0000000180025095e-35 1.0000000180025095e-35 1.0000000180025095e-35 1.0000000180025095e-35 1.0000000180025095e-35 57.500000000000007 1.0000000180025095e-35 60.500000000000007 55.500000000000007 66.500000000000014 1.0000000180025095e-35 1.0000000180025095e-35 59.500000000000007 69.500000000000014 1.0000000180025095e-35 65.500000000000014 1.0000000180025095e-35 61.500000000000007 1.0000000180025095e-35 63.500000000000007 1.0000000180025095e-35 1.0000000180025095e-35 56.500000000000007 1.0000000180025095e-35 63.500000000000007 1.0000000180025095e-35 1.0000000180025095e-35 59.500000000000007
decision_type=2 2 2 2 2 2 2 2 2 2 2 2 2 2 2 2 2 2 2 2 2 2 2 2 2 2 2 2 2 2
left_child=1 2 8 4 10 6 12 -5 20 -10 -4 16 13 -2 -15 19 29 -11 -3 -16 22 -8 24 -9 -1 27 -6 -7 -27 -12
right_child=5 18 3 7 26 25 21 23 9 17 11 -13 -14 14 15 -17 -18 -19 -20 -21 -22 -23 -24 -25 -26 28 -28 -29 -30 -31
leaf_value=-0.21779538791537667 0.19744561826532109 0.25817205971487989 0.076539379166433691 -0.050575353371796139 0.20606162722393853 0.21112275454251167 0.1943342554648505 0.2384818542928791 0.12151765213148454 -0.13343504953916405 -0.20398055691493969 -0.053135298830210669 -0.11108603148474723 -0.21639352549832225 0.17882519315480452 -0.21334036391911343 -0.34864365341479842 -0.2027864293481185 0.13848475261485241 0.11191037935007575 -0.16046975220772378 0.23907986028584116 -0.24330672881076587 0.21821885353704418 -0.20725809045391516 0.2101578495365819 0.21688838970823437 0.21735740927751498 0.20477878209266806 -0.2084510825560662
leaf_weight=0.42498110607266315 1.1378912329673765 0.36870203819125968 0.55793958902359042 0.61960810236632813 0.39985771663486946 0.42967834603041388 0.68216819688677766 0.65576044935733058 1.2713859751820566 1.1936169862747195 0.83473900426179193 1.2558005452156065 0.94207248277962197 0.95147704333066974 0.90632525086402915 0.57627858966588963 0.47035042941570271 1.2493987232446668 0.44019330479204655 0.69989907369017601 0.52324186358600844 0.44223380461335182 0.81793841719627369 0.56723112612962723 0.84767154417932034 0.31080706231296062 0.37279554456472397 0.50979819521307945 0.61536607705056667 0.22705543786287308
leaf_count=7 6 3 3 10 19 12 19 7 11 13 47 15 16 15 12 10 2 10 20 15 17 7 6 20 28 8 6 11 31 6
internal_value=0.000751217 -0.0493756 -0.0653315 0.00108583 -0.0588456 0.0807822 0.0425791 0.135043 -0.127896 -0.0694959 -0.121226 -0.160804 0.00605748 0.031891 -0.0282188 0.0538172 -0.249053 -0.168902 0.193039 0.149668 -0.210886 0.211933 -0.223504 0.229084 -0.210777 0.210573 0.211285 0.214506 0.206584 -0.204937
internal_weight=21.3023 13.0983 12.2894 5.96114 4.11854 8.204 6.33835 1.8426 6.32823 3.7144 3.34589 2.78795 5.21394 4.27187 3.13398 2.1825 1.53214 2.44302 0.808895 1.60622 2.61383 1.1244 2.09059 1.22299 1.27265 1.86565 0.772653 0.939477 0.926173 1.06179
internal_count=412 250 227 135 98 162 100 37 92 34 73 70 74 58 52 37 55 23 23 27 58 26 41 27 35 62 25 23 39 53
is_linear=0
shrinkage=0.2


Tree=18
num_leaves=31
num_cat=0
split_feature=6 14 1 7 3 10 10 10 1 3 1 4 0 1 1 1 12 5 1 9 4 7 8 5 1 1 7 1 1 1
split_gain=1.5225 1.41111 0.923778 0.941216 0.880972 1.31063 0.808578 0.703858 1.21794 0.563418 0.951251 0.886289 0.52572 0.679998 0.452828 0.920462 0.0734436 0.0730849 0.0688697 0.050412 0.00885364 0.0076118 0.00716965 0.00668285 0.0021316 0.000424758 0.000366275 0.000300257 5.78817e-05 4.83805e-05
threshold=1.0000000180025095e-35 1.0000000180025095e-35 69.500000000000014 1.0000000180025095e-35 1.0000000180025095e-35 1.0000000180025095e-35 1.0000000180025095e-35 1.0000000180025095e-35 60.500000000000007 1.0000000180025095e-35 63.500000000000007 1.0000000180025095e-35 1.0000000180025095e-35 67.500000000000014 61.500000000000007 59.500000000000007 1.0000000180025095e-35 1.0000000180025095e-35 65.500000000000014 1.0000000180025095e-35 1.0000000180025095e-35 1.0000000180025095e-35 1.0000000180025095e-35 1.0000000180025095e-35 57.500000000000007 56.500000000000007 1.0000000180025095e-35 63.500000000000007 59.500000000000007 59.500000000000007
decision_type=2 2 2 2 2 2 2 2 2 2 2 2 2 2 2 2 2 2 2 2 2 2 2 2 2 2 2 2 2 2
left_child=2 9 3 7 5 12 20 19 -9 10 14 -11 -5 17 15 -2 -4 24 -10 23 -6 -13 -3 25 -14 -1 -24 -7 -26 -27
right_child=1 22 16 4 6 27 -8 8 18 11 -12 21 13 -15 -16 -17 -18 -19 -20 -21 -22 -23 26 -25 28 29 -28 -29 -30 -31
leaf_value=-0.21442228599661567 -0.18468145139432501 0.23366007074021289 0.24231188076044569 -0.0093311277371539072 0.25154452855461312 0.20494940152485311 -0.05623562231962087 0.096521562870909156 -0.11297061186081084 -0.10038311128385363 0.13087474805588512 0.24443717011963489 -0.22698083901402744 0.064126377800853049 -0.21181874309516469 0.080611455525922526 0.11485543986090037 -0.30673362780882446 -0.18283174109403189 -0.14498670019329263 0.2144036944510338 0.20917169184920525 0.21290327406439116 -0.23406346492490193 -0.20285067233186962 -0.20464263320769877 0.20573443483028819 0.21362858721676781 -0.20686355615052868 -0.208098669040821
leaf_weight=0.35284719429910205 0.91422164067625988 0.74204410053789582 0.33946650754660446 1.3216493502259259 0.47934639453887917 0.32896823156625021 0.62748670391738404 1.2795651908963921 1.1349585428833964 0.47537183947861161 1.2088023219257591 0.61082792095839977 0.19709271192550637 0.37627254053950321 0.76929014548659314 1.2229077145457266 0.38699604757130146 0.43169903755187977 1.1228611618280409 0.46943751536309708 0.55280592199414968 0.40857953857630491 0.47512514889240265 0.69330056011676777 0.6200953358784318 0.44246472790837288 0.71272908709943295 0.30938979610800743 0.18717559427022934 0.25562754832208157
leaf_count=7 17 13 4 10 3 19 14 11 13 10 17 9 3 7 15 16 19 2 10 17 20 16 13 6 45 21 36 6 6 7
internal_value=0.000393148 0.0707198 -0.0441306 -0.0583275 0.00137462 -0.052049 0.122806 -0.114717 -0.0593676 0.0199724 -0.0182269 0.125138 -0.105254 -0.175205 -0.0802394 -0.0328756 0.174414 -0.237914 -0.147714 -0.203164 0.231652 0.230303 0.218237 -0.218822 -0.208334 -0.208767 0.208602 0.209156 -0.203781 -0.205908
internal_weight=19.4494 7.5399 11.9095 11.183 5.43198 3.77234 1.65964 5.75106 3.53738 5.61 4.11522 1.49478 3.13398 1.81234 2.90642 2.13713 0.726463 1.43606 2.25782 2.21368 1.03215 1.01941 1.9299 1.74424 1.00436 1.05094 1.18785 0.638358 0.807271 0.698092
internal_count=412 162 250 227 135 98 37 92 34 100 65 35 73 63 48 33 23 56 23 58 23 25 62 41 54 35 49 25 51 28
is_linear=0
shrinkage=0.2


Tree=19
num_leaves=31
num_cat=0
split_feature=6 14 1 1 7 14 1 3 11 10 1 13 0 3 1 1 2 8 13 4 14 8 1 7 8 1 1 1 13 1
split_gain=1.08917 1.21504 0.670502 0.681605 1.07311 0.853855 0.665232 1.27696 0.647214 0.619831 0.871924 0.504366 0.475597 0.613267 0.440792 0.705319 2.53275 0.101788 0.0405693 0.031121 0.00424268 0.00388339 0.00111458 0.000199246 0.000122127 6.78061e-05 6.59745e-05 5.70585e-05 1.80238e-05 2.84738e-07
threshold=1.0000000180025095e-35 1.0000000180025095e-35 69.500000000000014 68.500000000000014 1.0000000180025095e-35 1.0000000180025095e-35 64.500000000000014 1.0000000180025095e-35 1.0000000180025095e-35 1.0000000180025095e-35 60.500000000000007 1.0000000180025095e-35 1.0000000180025095e-35 1.0000000180025095e-35 69.500000000000014 63.500000000000007 1.0000000180025095e-35 1.0000000180025095e-35 1.0000000180025095e-35 1.0000000180025095e-35 1.0000000180025095e-35 1.0000000180025095e-35 57.500000000000007 1.0000000180025095e-35 1.0000000180025095e-35 59.500000000000007 62.500000000000007 61.500000000000007 1.0000000180025095e-35 58.500000000000007
decision_type=2 2 2 2 2 2 2 2 2 2 2 2 2 2 2 2 2 2 2 2 2 2 2 2 2 2 2 2 2 2
left_child=2 8 3 4 9 12 7 -7 14 18 -11 -12 -6 22 15 16 19 -4 20 27 26 -3 -14 -23 -10 -24 29 -2 -25 -1
right_child=1 21 17 -5 5 6 -8 -9 24 10 11 -13 13 -15 -16 -17 -18 -19 -20 -21 -22 23 25 28 -26 -27 -28 -29 -30 -31
leaf_value=-0.20358112091770703 -0.21154698955733164 0.2272195973623955 0.067872914172938323 -0.28713747776336668 0.03530608360784742 -0.12302155170739998 0.27113208336717909 0.22741217230039446 0.21034046739485049 0.076595885959409402 -0.23119260200152514 -0.02556138337172589 -0.22176677605378595 0.20471286104531644 -0.16969929325367539 0.15609346589132023 0.17144155632945773 0.22654300480971182 -0.15118842933484061 -0.14990766648584877 -0.22842317377031904 0.21050525004698156 -0.20232736112582336 0.20558749780224672 0.20473678903388934 -0.20599757277498854 -0.20749035573297145 -0.20871629167734135 0.20332234166395213 -0.20391164533653458
leaf_weight=0.28659102227538624 0.83311451971530803 0.62294674292206742 0.28881603572517711 0.46973157674074251 1.1032158257439733 0.8818761417642238 0.73021690361201752 0.78723300714045763 0.28772214800119389 1.2888259412720802 1.0315738841891287 0.88769283145666111 0.16476190462708451 0.16927655413746845 0.59680778719484795 1.0457800328731535 1.3477604389190674 0.36749881785362959 0.57785093970596779 0.46144757792353641 0.54029121249914169 0.39296990633010864 0.50886828452348709 0.35262768436223269 0.33870436996221542 0.33317921310663223 0.31053977459669113 0.43280860036611557 0.23358750622719526 0.16386592201888561
leaf_count=18 18 13 10 7 18 19 6 17 8 11 9 12 3 10 13 6 18 13 17 8 5 13 45 19 18 12 9 11 17 9
internal_value=0.000220422 0.0621044 -0.0392459 -0.0518113 -0.0404923 0.0286397 0.111916 0.04226 0.0163051 -0.104072 -0.050642 -0.136085 -0.0590214 -0.147504 -0.0090569 0.014208 -0.0340439 0.156719 -0.195287 -0.194371 -0.21487 0.214875 -0.206723 0.207021 0.207311 -0.20378 -0.205248 -0.210579 0.204685 -0.203701
internal_weight=17.8382 6.94628 10.8919 10.2356 9.76586 4.67863 2.39933 1.66911 5.34415 5.08723 3.20809 1.91927 2.2793 1.17609 4.71772 4.12091 3.07513 0.656315 1.87914 1.72737 1.30129 1.60213 1.00681 0.979185 0.626427 0.842047 0.760997 1.26592 0.586215 0.450457
internal_count=412 162 250 227 220 130 42 36 100 90 32 21 88 70 74 61 55 23 58 37 41 62 60 49 26 57 36 29 36 27
is_linear=0
shrinkage=0.2


end of trees

feature_importances:
Column_1=150
Column_2=49
Column_7=44
Column_3=34
Column_10=33
Column_5=32
Column_0=31
Column_4=29
Column_14=25
Column_6=21
Column_12=21
Column_8=19
Column_9=19
Column_13=19
Column_11=11

parameters:
[boosting: gbdt]
[objective: binary]
[metric: custom]
[tree_learner: serial]
[device_type: cpu]
[data_sample_strategy: bagging]
[data: ]
[valid: ]
[num_iterations: 10000]
[learning_rate: 0.2]
[num_leaves: 31]
[num_threads: 0]
[seed: 1242]
[deterministic: 0]
[force_col_wise: 0]
[force_row_wise: 0]
[histogram_pool_size: -1]
[max_depth: -1]
[min_data_in_leaf: 10]
[min_sum_hessian_in_leaf: 0.001]
[bagging_fraction: 0.8]
[pos_bagging_fraction: 1]
[neg_bagging_fraction: 1]
[bagging_freq: 0]
[bagging_seed: 20664]
[bagging_by_query: 0]
[feature_fraction: 0.8]
[feature_fraction_bynode: 1]
[feature_fraction_seed: 4656]
[extra_trees: 0]
[extra_seed: 6363]
[early_stopping_round: 0]
[early_stopping_min_delta: 0]
[first_metric_only: 0]
[max_delta_step: 0]
[lambda_l1: 0]
[lambda_l2: 0]
[linear_lambda: 0]
[min_gain_to_split: 0]
[drop_rate: 0.1]
[max_drop: 50]
[skip_drop: 0.5]
[xgboost_dart_mode: 0]
[uniform_drop: 0]
[drop_seed: 24603]
[top_rate: 0.2]
[other_rate: 0.1]
[min_data_per_group: 100]
[max_cat_threshold: 32]
[cat_l2: 10]
[cat_smooth: 10]
[max_cat_to_onehot: 4]
[top_k: 20]
[monotone_constraints: ]
[monotone_constraints_method: basic]
[monotone_penalty: 0]
[feature_contri: ]
[forcedsplits_filename: ]
[refit_decay_rate: 0.9]
[cegb_tradeoff: 1]
[cegb_penalty_split: 0]
[cegb_penalty_feature_lazy: ]
[cegb_penalty_feature_coupled: ]
[path_smooth: 0]
[interaction_constraints: ]
[verbosity: -1]
[saved_feature_importance_type: 0]
[use_quantized_grad: 0]
[num_grad_quant_bins: 4]
[quant_train_renew_leaf: 0]
[stochastic_rounding: 1]
[linear_tree: 0]
[max_bin: 255]
[max_bin_by_feature: ]
[min_data_in_bin: 3]
[bin_construct_sample_cnt: 200000]
[data_random_seed: 4094]
[is_enable_sparse: 1]
[enable_bundle: 1]
[use_missing: 1]
[zero_as_missing: 0]
[feature_pre_filter: 1]
[pre_partition: 0]
[two_round: 0]
[header: 0]
[label_column: ]
[weight_column: ]
[group_column: ]
[ignore_column: ]
[categorical_feature: ]
[forcedbins_filename: ]
[precise_float_parser: 0]
[parser_config_file: ]
[objective_seed: 7268]
[num_class: 1]
[is_unbalance: 0]
[scale_pos_weight: 1]
[sigmoid: 1]
[boost_from_average: 1]
[reg_sqrt: 0]
[alpha: 0.9]
[fair_c: 1]
[poisson_max_delta_step: 0.7]
[tweedie_variance_power: 1.5]
[lambdarank_truncation_level: 30]
[lambdarank_norm: 1]
[label_gain: ]
[lambdarank_position_bias_regularization: 0]
[eval_at: ]
[multi_error_top_k: 1]
[auc_mu_weights: ]
[num_machines: 1]
[local_listen_port: 12400]
[time_out: 120]
[machine_list_filename: ]
[machines: ]
[gpu_platform_id: -1]
[gpu_device_id: -1]
[gpu_use_dp: 0]
[num_gpu: 1]

end of parameters

pandas_categorical:null
