tree
version=v4
num_class=1
num_tree_per_iteration=1
label_index=0
max_feature_idx=14
objective=binary sigmoid:1
feature_names=Column_0 Column_1 Column_2 Column_3 Column_4 Column_5 Column_6 Column_7 Column_8 Column_9 Column_10 Column_11 Column_12 Column_13 Column_14
feature_infos=[0:1] [38:87] [0:1] [0:1] [0:1] [0:1] [0:1] [0:1] [0:1] [0:1] [0:1] [0:1] [0:1] [0:1] [0:1]
tree_sizes=1766 2248 3250 3286 3058 2695 3469 2690 2482 2363 3607 2709 2613 3070 2610 3190 2405 2403 3303 3115 2297 3434 2418 2735 2407 3034 2307 3755

Tree=0
num_leaves=18
num_cat=0
split_feature=8 5 7 11 7 3 7 11 5 3 1 3 2 1 1 1 1
split_gain=140.28 64.9928 17.4527 15.36 35.8422 7.27856 7.43946 6.04328 9.45231 2.58997 2.15313 1.5666 0.710425 0.5 0.44329 0.297619 0.211538
threshold=1.0000000180025095e-35 1.0000000180025095e-35 1.0000000180025095e-35 1.0000000180025095e-35 1.0000000180025095e-35 1.0000000180025095e-35 1.0000000180025095e-35 1.0000000180025095e-35 1.0000000180025095e-35 1.0000000180025095e-35 56.500000000000007 1.0000000180025095e-35 1.0000000180025095e-35 59.500000000000007 66.500000000000014 59.500000000000007 68.500000000000014
decision_type=2 2 2 2 2 2 2 2 2 2 2 2 2 2 2 2 2
left_child=1 3 9 10 13 6 14 8 -8 -3 -1 16 -4 -5 -2 -13 -12
right_child=5 2 12 4 -6 -7 7 -9 -10 -11 11 15 -14 -15 -16 -17 -18
leaf_value=-0.22222222222222224 0.079999999999999946 -0.24000000000000019 0.28571428571428564 -0.40000000000000013 0.35555555555555551 0.40000000000000002 -0.092307692307692313 0.39999999999999991 0.39999999999999991 0.030769230769230761 -0.39999999999999997 -0.33333333333333337 0.39999999999999997 -0.29999999999999999 -0.036363636363636355 -0.24999999999999997 -0.35000000000000003
leaf_weight=4.4999999999999991 2.5000000000000009 2.4999999999999973 3.5 3.9999999999999982 4.5 17.5 3.2499999999999991 9 3 3.25 22.000000000000004 2.9999999999999991 5.75 4 2.75 4 3.9999999999999991
leaf_count=18 10 10 14 16 18 70 13 36 12 13 88 12 23 16 11 16 16
internal_value=0 -0.178462 0.186667 -0.288 -0.096 0.305263 0.22439 0.295082 0.144 -0.0869565 -0.352 -0.369697 0.356757 -0.35 0.0190476 -0.285714 -0.392308
internal_weight=103 65 15 50 12.5 38 20.5 15.25 6.25 5.75 37.5 33 9.25 8 5.25 7 26
internal_count=412 260 60 200 50 152 82 61 25 23 150 132 37 32 21 28 104
is_linear=0
shrinkage=0.2


Tree=1
num_leaves=20
num_cat=0
split_feature=8 9 4 10 11 7 4 6 4 7 10 11 7 10 6 7 10 11 12
split_gain=93.135 38.125 14.3026 11.0504 6.31214 14.7701 6.2705 10.5013 3.33571 6.54332 7.50989 9.4617 0.969681 0.245911 0.165821 0.165813 0.0297819 0.0227339 0.00127874
threshold=1.0000000180025095e-35 1.0000000180025095e-35 1.0000000180025095e-35 1.0000000180025095e-35 1.0000000180025095e-35 1.0000000180025095e-35 1.0000000180025095e-35 1.0000000180025095e-35 1.0000000180025095e-35 1.0000000180025095e-35 1.0000000180025095e-35 1.0000000180025095e-35 1.0000000180025095e-35 1.0000000180025095e-35 1.0000000180025095e-35 1.0000000180025095e-35 1.0000000180025095e-35 1.0000000180025095e-35 1.0000000180025095e-35
decision_type=2 2 2 2 2 2 2 2 2 2 2 2 2 2 2 2 2 2 2
left_child=1 4 3 -3 6 -6 14 12 9 -2 11 -11 13 -8 15 -1 -4 -12 -10
right_child=8 2 16 -5 5 -7 7 -9 18 10 17 -13 -14 -15 -16 -17 -18 -19 -20
leaf_value=-0.36908579833431515 0.011166900064474064 -0.19968149791376985 0.345469717287268 0.28057327970164214 -0.28935161477321453 0.34063229448523979 -0.35469400132318513 0.10014148864260891 0.33829292273368528 -0.22202383438357584 0.35288328417136727 0.33406401264827146 -0.1992666304258468 -0.27184143325719812 -0.29905433854759228 -0.3211806635167343 0.37332705945794503 0.33406401264827151 0.33406401264827146
leaf_weight=3.6965524554252633 5.2354387342929867 5.6154786795377714 2.648741587996482 2.9093180745840073 3.8642231971025458 2.4214308261871338 3.4410450756549817 4.4347835630178443 4.3343501240015003 2.4946820735931405 3.3912728726863852 2.4026075005531311 4.8213047236204147 2.455437034368515 9.9022669941186923 13.247795328497887 3.6510865986347198 10.571473002433777 8.4091262519359589
leaf_count=15 21 23 11 12 16 10 14 18 18 10 14 10 20 10 41 55 15 44 35
internal_value=5.50488e-05 -0.147449 0.133095 -0.0357815 -0.233583 -0.0466621 -0.261558 -0.158694 0.252747 0.20898 0.263892 0.0507925 -0.265795 -0.320192 -0.319616 -0.331632 0.361615 0.338635 0.335502
internal_weight=99.9484 63.1095 14.8246 8.5248 48.2848 6.28565 41.9992 15.1526 36.839 24.0955 18.86 4.89729 10.7178 5.89648 26.8466 16.9443 6.29983 13.9627 12.7435
internal_count=412 260 61 35 199 26 173 62 152 99 78 20 44 24 111 70 26 58 53
is_linear=0
shrinkage=0.2


Tree=2
num_leaves=30
num_cat=0
split_feature=5 14 12 0 13 1 1 1 1 1 2 1 2 1 1 1 1 12 1 1 2 2 1 1 2 1 1 1 1
split_gain=46.7508 34.8028 34.425 18.1683 8.69632 5.86819 5.81226 10.29 3.55349 0.660649 0.628514 1.60887 0.55479 2.00599 0.235732 0.225716 0.0375617 0.0363655 0.0197662 0.00969438 0.00996735 0.00758905 0.010729 0.00345164 0.00141059 0.00210656 0.0013357 0.000774106 0.000139291
threshold=1.0000000180025095e-35 1.0000000180025095e-35 1.0000000180025095e-35 1.0000000180025095e-35 1.0000000180025095e-35 67.500000000000014 63.500000000000007 56.500000000000007 68.500000000000014 69.500000000000014 1.0000000180025095e-35 61.500000000000007 1.0000000180025095e-35 60.500000000000007 70.500000000000014 58.500000000000007 56.500000000000007 1.0000000180025095e-35 62.500000000000007 59.500000000000007 1.0000000180025095e-35 1.0000000180025095e-35 66.500000000000014 57.500000000000007 1.0000000180025095e-35 62.500000000000007 57.500000000000007 61.500000000000007 58.500000000000007
decision_type=2 2 2 2 2 2 2 2 2 2 2 2 2 2 2 2 2 2 2 2 2 2 2 2 2 2 2 2 2
left_child=1 3 10 5 6 -1 7 -2 12 -8 -3 -12 18 15 -10 23 -4 19 26 -6 -21 -18 -23 -14 -19 -26 -5 28 -28
right_child=4 2 16 8 17 -7 9 -9 14 -11 11 -13 13 -15 -16 -17 21 24 -20 20 -22 22 -24 -25 25 -27 27 -29 -30
leaf_value=0.25201019914991701 0.29641038344478571 -0.25460483446060173 0.3267861911455005 -0.30540550508230435 0.31131354691662771 -0.13523415293823193 0.17620149868928203 -0.24604602114572682 -0.14436324396344719 0.32073016474360633 -0.015083545545606808 -0.22178330719964406 -0.31745132556789929 -0.11657850329834091 -0.056708148881180101 -0.25411795607782139 0.29609077271267392 0.3068989323664334 -0.31961178006287755 0.31849536191692873 0.33562739366626954 0.29961586675835111 0.31621343817579001 -0.308565875627071 0.30479584844009433 0.2972806769205667 -0.29853466309543303 -0.30324669377648211 -0.30014091645673524
leaf_weight=4.1332837939262381 2.1933311372995394 3.2092545181512833 4.0875292420387277 2.4812068194150951 2.4632392525672921 2.5193865895271301 2.8784870505332947 3.8612376898527145 2.2636193782091132 2.2570794224739075 2.3702617287635803 4.1322314888238907 3.9263846874237078 3.4080850332975379 2.6804206073284149 4.0124292224645615 3.2881554365158063 2.4565821290016174 2.8070257902145377 2.9342569261789322 2.529290184378624 3.0964113473892212 3.1353218704462051 3.1530622541904449 3.1237580478191376 2.8560614287853241 4.199735611677168 2.6878777742385855 4.4453041106462479
leaf_count=18 10 14 18 11 11 11 12 16 10 10 10 17 17 15 12 18 15 11 12 13 11 14 14 14 14 13 19 12 20
internal_value=0.000252045 -0.0910546 0.105458 -0.198329 0.219086 0.10536 0.0832154 -0.0495355 -0.254348 0.239722 -0.182182 -0.146438 -0.27937 -0.25078 -0.0968409 -0.292015 0.31075 0.312003 -0.304311 0.32173 0.326426 0.303865 0.307966 -0.313494 0.302864 0.301206 -0.301202 -0.300282 -0.299361
internal_weight=93.5903 66.037 23.3192 42.7178 27.5533 6.65267 11.1901 6.05457 36.0652 5.13557 9.71175 6.50249 31.1211 14.5 4.94404 11.0919 13.6074 16.3632 16.6212 7.92679 5.46355 9.51989 6.23173 7.07945 8.4364 5.97982 13.8141 11.3329 8.64504
internal_count=412 291 102 189 121 29 48 26 160 22 41 27 138 64 22 49 61 73 74 35 24 43 28 31 38 27 62 51 39
is_linear=0
shrinkage=0.2


Tree=3
num_leaves=30
num_cat=0
split_feature=9 5 14 12 3 5 1 1 0 12 0 12 12 11 12 3 3 11 1 1 1 1 1 3 1 0 1 12 3
split_gain=39.3219 23.8205 11.2797 14.9242 4.69673 3.59429 5.82017 10.0035 7.34455 4.78436 1.46976 4.42118 0.492502 0.688097 0.404665 0.326047 0.276236 0.514435 0.268619 0.601691 0.518803 0.0118737 0.00925633 0.00355954 0.00307478 0.00241335 0.00175427 0.00161782 0.00123615
threshold=1.0000000180025095e-35 1.0000000180025095e-35 1.0000000180025095e-35 1.0000000180025095e-35 1.0000000180025095e-35 1.0000000180025095e-35 68.500000000000014 63.500000000000007 1.0000000180025095e-35 1.0000000180025095e-35 1.0000000180025095e-35 1.0000000180025095e-35 1.0000000180025095e-35 1.0000000180025095e-35 1.0000000180025095e-35 1.0000000180025095e-35 1.0000000180025095e-35 1.0000000180025095e-35 58.500000000000007 61.500000000000007 60.500000000000007 69.500000000000014 56.500000000000007 1.0000000180025095e-35 60.500000000000007 1.0000000180025095e-35 57.500000000000007 1.0000000180025095e-35 1.0000000180025095e-35
decision_type=2 2 2 2 2 2 2 2 2 2 2 2 2 2 2 2 2 2 2 2 2 2 2 2 2 2 2 2 2
left_child=1 2 12 24 -3 6 7 8 14 -9 -6 -12 13 -1 -2 -16 17 -7 22 20 -20 -21 -14 -5 -4 -18 -24 -27 -8
right_child=5 4 3 23 10 16 28 9 -10 -11 11 -13 18 -15 15 -17 25 -19 19 21 -22 -23 26 -25 -26 27 -28 -29 -30
leaf_value=-0.14775208277647028 0.3520927951356182 -0.081704788110714466 -0.2257590002719998 0.2743479040689793 0.30295554044298351 0.27602665156510536 0.30476065618850412 -0.36399381757061278 -0.1039749315603829 0.0087472402288850636 -0.075894444605301287 0.28328789152732098 -0.29279378049777588 -0.27482199664755108 0.28688759145639092 0.18565741530596366 0.28066503755041927 0.14371128167671149 -0.23760386187476665 -0.27546174159544529 -0.12494134345405912 -0.29362828077789832 -0.28269971655914355 0.28581286241584952 -0.21594794696971059 0.27782065725782351 -0.27610133209546511 0.27064573017577842 0.3111209153065766
leaf_weight=4.4247873276472118 2.1172987967729586 3.0476919114589665 2.9979849457740766 2.3471000641584396 3.6640604436397552 2.5354483425617191 2.7501748800277701 2.4731028079986563 2.7469869554042816 3.1090733259916306 2.2726736068725586 3.4542277753353119 2.1302488297224063 2.7728006392717361 3.4027996063232422 2.0330736488103867 2.5850983858108521 2.1910697221755981 4.82618500292301 2.5805351883172989 2.4725672900676727 3.2536947578191757 2.2410818189382553 2.0115405172109604 2.2268052399158478 1.9704893231391905 5.7387698143720627 3.4719793051481247 2.2001724690198898
leaf_count=20 9 13 14 12 17 13 13 10 13 15 10 17 10 14 17 10 13 10 24 13 12 15 11 10 10 10 29 18 10
internal_value=0.000458277 -0.107718 -0.182847 0.00638081 0.134025 0.16943 0.118238 0.0592196 0.17607 -0.15639 0.204037 0.140749 -0.24242 -0.196705 0.277918 0.249026 0.253048 0.214689 -0.256576 -0.237712 -0.199438 -0.285593 -0.281081 0.279639 -0.221578 0.275633 -0.277954 0.273243 0.307587
internal_weight=86.0495 52.4628 40.0241 9.58343 12.4387 33.5868 20.8327 15.8823 10.3002 5.58218 9.39096 5.7269 30.4407 7.19759 7.55317 5.43587 12.7541 4.72652 23.2431 13.133 7.29875 5.83423 10.1101 4.35864 5.22479 8.02757 7.97985 5.44247 4.95035
internal_count=412 251 194 46 57 161 97 74 49 25 44 27 148 34 36 27 64 23 114 64 36 28 50 22 24 41 40 28 23
is_linear=0
shrinkage=0.2


Tree=4
num_leaves=28
num_cat=0
split_feature=10 5 12 1 1 4 14 12 5 14 1 4 1 4 1 1 1 1 1 14 12 9 9 1 1 1 1
split_gain=32.9892 26.0591 6.53865 5.5214 7.87049 5.17785 5.07125 7.04935 3.75292 5.874 0.822964 0.628975 0.443939 0.802847 1.65251 0.30717 0.216776 0.885941 0.308205 0.0913639 0.0226104 0.00230114 0.00106948 0.000964802 0.000826937 0.000736517 0.000266297
threshold=1.0000000180025095e-35 1.0000000180025095e-35 1.0000000180025095e-35 68.500000000000014 60.500000000000007 1.0000000180025095e-35 1.0000000180025095e-35 1.0000000180025095e-35 1.0000000180025095e-35 1.0000000180025095e-35 68.500000000000014 1.0000000180025095e-35 64.500000000000014 1.0000000180025095e-35 58.500000000000007 55.500000000000007 60.500000000000007 61.500000000000007 56.500000000000007 1.0000000180025095e-35 1.0000000180025095e-35 1.0000000180025095e-35 1.0000000180025095e-35 68.500000000000014 60.500000000000007 57.500000000000007 58.500000000000007
decision_type=2 2 2 2 2 2 2 2 2 2 2 2 2 2 2 2 2 2 2 2 2 2 2 2 2 2 2
left_child=1 6 3 4 11 -3 10 -8 -6 -10 12 -2 13 16 -15 -4 18 -18 -1 -17 -7 -21 -22 24 -23 -20 -27
right_child=2 5 15 -5 8 20 7 -9 9 -11 -12 -13 -14 14 -16 19 17 -19 25 21 22 23 -24 -25 -26 26 -28
leaf_value=-0.17655146938912286 0.28344011861767276 -0.020576495196502002 0.19220890229229348 0.30874870415690836 -0.24353869659634278 0.28220041007045776 -0.20895774984195789 0.28146374418339504 -0.20174705568163001 0.27166131981881175 -0.12775978517887676 0.13565548375345807 -0.28525530351791389 -0.26580842790080828 0.0049146574129415267 0.2964262919287653 -0.1061119914300694 -0.26527623974833081 -0.26350988948943205 0.25413320783802801 0.25947584754882608 0.26013797364684033 0.25378023753383327 0.25806435195593758 0.26622944475629268 -0.2584554695398173 -0.26061420944137292
leaf_weight=2.0841452330351009 2.709868639707568 3.9901749491691572 2.4051331579685238 3.1906978935003272 3.9640007168054563 1.902856573462486 2.6911816149950019 2.077369898557663 2.1619846671819687 2.0353887677192688 3.6677502244710913 2.0037302672863007 4.6079609692096701 1.8060137033462518 1.8015471100807188 3.7414464205503437 2.3440324962139121 3.4691740870475769 2.1558799147605887 2.6798237562179565 2.7845808863639832 1.7333101332187655 2.5050622671842575 2.3686721622943878 1.8353320807218549 5.1909072399139387 4.0840946435928345
leaf_count=11 14 18 13 16 18 10 14 11 10 11 19 10 22 10 10 18 12 19 12 16 16 10 15 14 10 30 23
internal_value=0.000638308 -0.104527 0.16152 0.0732245 0.0148565 0.162139 -0.187408 0.00468928 -0.103981 0.027818 -0.216757 0.220618 -0.228608 -0.217227 -0.130614 0.257603 -0.233393 -0.201097 -0.247284 0.270329 0.263504 0.258998 0.256779 0.261194 0.263271 -0.26018 -0.259406
internal_weight=77.9921 47.1627 30.8294 16.0657 12.875 11.1827 35.9801 4.76855 8.16137 4.19737 31.2115 4.7136 27.5438 22.9358 3.60756 14.7637 19.3282 5.81321 13.515 12.3586 7.1925 8.61714 5.28964 5.93731 3.56864 11.4309 9.275
internal_count=412 252 160 79 63 59 193 25 39 21 168 24 149 127 20 81 107 31 76 68 41 50 31 34 20 65 53
is_linear=0
shrinkage=0.2


Tree=5
num_leaves=24
num_cat=0
split_feature=9 7 13 14 13 7 6 3 6 7 6 2 13 2 2 7 2 2 14 13 4 13 2
split_gain=22.7308 8.38938 8.75593 7.70105 11.4153 6.66592 6.40752 2.16973 2.00614 0.86921 0.30172 0.434943 0.970238 0.173494 0.064978 0.0496514 0.0223563 0.0111155 0.00667263 0.0018441 9.72042e-05 6.45493e-05 2.29525e-08
threshold=1.0000000180025095e-35 1.0000000180025095e-35 1.0000000180025095e-35 1.0000000180025095e-35 1.0000000180025095e-35 1.0000000180025095e-35 1.0000000180025095e-35 1.0000000180025095e-35 1.0000000180025095e-35 1.0000000180025095e-35 1.0000000180025095e-35 1.0000000180025095e-35 1.0000000180025095e-35 1.0000000180025095e-35 1.0000000180025095e-35 1.0000000180025095e-35 1.0000000180025095e-35 1.0000000180025095e-35 1.0000000180025095e-35 1.0000000180025095e-35 1.0000000180025095e-35 1.0000000180025095e-35 1.0000000180025095e-35
decision_type=2 2 2 2 2 2 2 2 2 2 2 2 2 2 2 2 2 2 2 2 2 2 2
left_child=3 2 7 4 8 6 13 -2 15 -10 11 12 -3 -5 -11 22 -17 -7 -12 -20 -18 -13 -1
right_child=1 10 -4 5 -6 17 -8 -9 9 14 18 21 -14 -15 -16 16 20 -19 19 -21 -22 -23 -24
leaf_value=-0.25008056423938918 -0.033988506445097481 0.088933212882815249 0.27076008696340653 -0.19952092837867028 0.24758901654232243 0.26275440176117904 0.26842350721798536 -0.26320116252569226 -0.032717714341963085 -0.16801869693443705 0.26320025665199925 0.24424878540136064 0.27674500022576071 -0.13134385228403761 -0.13307794331715248 -0.24237032144438261 -0.2193798368553857 0.24166425977447564 0.24648588714008693 0.25423696780558636 -0.22074178076939066 0.24266224695496313 -0.25004969829196244
leaf_weight=2.2111504822969463 3.8146453350782412 2.9517986774444598 3.1505057215690613 2.458554193377493 2.7033262103795996 1.7019406855106343 1.8177719116210935 2.9136772602796555 3.206836223602294 5.3698754608631134 2.7787880003452292 3.5200198888778687 1.7540613561868665 3.8017230182886124 3.5273956060409546 2.1637225747108451 6.3072929680347443 2.422346830368042 2.1099939048290253 2.9364783018827438 3.1395796835422516 1.4476242363452909 1.7081155478954317
leaf_count=14 18 16 18 15 16 10 10 16 14 34 16 24 10 19 19 15 40 17 14 19 17 10 11
internal_value=0.000796083 0.142945 -0.00440398 -0.0906882 -0.144657 0.0434879 -0.0621355 -0.133248 -0.183029 -0.12199 0.226131 0.20251 0.158938 -0.158119 -0.154166 -0.230603 -0.224033 0.250367 0.25533 0.250996 -0.219832 0.243786 -0.250067
internal_weight=69.9172 27.3776 9.87883 42.5396 30.3373 12.2023 8.07805 6.72832 27.634 12.1041 17.4988 9.6735 4.70586 6.26028 8.89727 15.5299 11.6106 4.12429 7.82526 5.04647 9.44687 4.96764 3.91927
internal_count=412 161 52 251 180 71 44 34 164 67 109 60 26 34 53 97 72 27 49 33 57 34 25
is_linear=0
shrinkage=0.2


Tree=6
num_leaves=32
num_cat=0
split_feature=8 10 12 14 7 2 1 1 1 10 6 2 2 1 1 1 1 1 2 1 1 1 1 14 1 1 12 1 1 1 7
split_gain=27.14 5.86341 3.9261 2.4297 4.81775 1.57106 1.39404 4.50288 1.83458 3.40133 0.975268 0.956426 0.88054 1.07329 0.743251 0.319451 0.30817 0.219232 0.171911 0.247999 0.637273 0.153664 0.072313 0.0185691 0.0304829 0.0162854 0.0115747 0.00665133 0.00142178 0.000277837 0.000131016
threshold=1.0000000180025095e-35 1.0000000180025095e-35 1.0000000180025095e-35 1.0000000180025095e-35 1.0000000180025095e-35 1.0000000180025095e-35 68.500000000000014 63.500000000000007 59.500000000000007 1.0000000180025095e-35 1.0000000180025095e-35 1.0000000180025095e-35 1.0000000180025095e-35 61.500000000000007 56.500000000000007 69.500000000000014 62.500000000000007 66.500000000000014 1.0000000180025095e-35 67.500000000000014 60.500000000000007 61.500000000000007 58.500000000000007 1.0000000180025095e-35 68.500000000000014 59.500000000000007 1.0000000180025095e-35 58.500000000000007 69.500000000000014 59.500000000000007 1.0000000180025095e-35
decision_type=2 2 2 2 2 2 2 2 2 2 2 2 2 2 2 2 2 2 2 2 2 2 2 2 2 2 2 2 2 2 2
left_child=1 3 11 10 25 23 7 8 9 -7 14 -3 13 -12 -1 18 -4 -9 27 20 22 -10 -20 24 -2 -5 -11 30 29 -25 -16
right_child=5 2 16 4 -6 6 -8 17 21 26 12 -13 -14 -15 15 -17 -18 -19 19 -21 -22 -23 -24 28 -26 -27 -28 -29 -30 -31 -32
leaf_value=-0.073762052709643075 0.23873702534244656 -0.17391713189033511 0.1350947215919665 -0.17499355859100879 0.15981570289314873 -0.079688900683257985 0.27112128679027281 -0.034372104771869326 0.34992368905250437 0.26516881765800066 -0.24413384126224535 0.001570717014233947 -0.019345628583438235 -0.049855673698257878 -0.23584806102816788 -0.11133854007197251 0.24968015420390188 -0.1358870463690883 -0.1855384947753452 -0.25034345047217021 -0.049995368495830257 0.26125446721427553 -0.23679717598236205 0.23809724937394497 0.27394917460204082 -0.20253307982163693 0.24001015761111272 -0.24755449590702111 0.23250902230992684 0.24207090354575334 -0.23317096069413035
leaf_weight=1.8791232034564114 1.9724195674061777 2.0620618835091573 1.6779763475060465 1.6994943320751184 2.9409936740994453 2.1217480003833753 2.5331373438239106 1.6748492568731301 1.6495005711913111 1.497000053524971 2.6330829411745063 3.1247606202960014 2.876551166176796 2.0024832487106323 1.2784686535596821 1.281544156372546 2.1313378140330315 1.7298411056399343 2.3139453232288361 2.4097263962030411 1.287260979413986 1.4861460775136945 2.099961519241333 1.4410821124911311 1.9612208008766172 1.7365194261074064 1.4303784668445587 3.087982177734375 1.5582941994071005 1.3757640272378919 1.7083120048046112
leaf_count=12 15 10 11 10 16 14 17 10 11 9 18 17 17 14 10 9 14 10 19 15 8 10 16 11 11 10 11 20 13 10 14
internal_value=0.00104304 -0.0972389 0.0450325 -0.138215 -0.0280831 0.177316 0.136717 0.10734 0.187744 0.113125 -0.166467 -0.0681959 -0.106269 -0.160209 -0.192536 -0.206966 0.199206 -0.0859494 -0.215605 -0.196551 -0.173815 0.307899 -0.209925 0.246322 0.256293 -0.188912 0.252876 -0.241046 0.237356 0.240038 -0.234317
internal_weight=62.663 40.2316 8.99614 31.2354 6.37701 22.4314 14.1226 11.5895 8.18477 5.04913 24.8584 5.18682 7.51212 4.63557 17.3463 15.4672 3.80931 3.40469 14.1857 8.11089 5.70117 3.13565 4.41391 8.30878 3.93364 3.43601 2.92738 6.07476 4.37514 2.81685 2.98678
internal_count=412 260 52 208 36 152 92 75 55 34 172 27 49 32 123 111 25 20 102 58 43 21 35 60 26 20 20 44 34 21 24
is_linear=0
shrinkage=0.2


Tree=7
num_leaves=24
num_cat=0
split_feature=8 13 5 12 9 0 5 4 12 9 5 12 0 12 13 0 0 4 6 6 0 12 9
split_gain=20.0751 12.2591 4.95551 5.39837 2.49393 1.80014 1.40748 1.50345 2.06593 1.31742 0.91045 0.665834 0.127555 0.0117244 0.0109128 0.0108112 0.0100875 0.00824199 0.00537222 0.00449513 0.00090585 9.38475e-05 1.26418e-05
threshold=1.0000000180025095e-35 1.0000000180025095e-35 1.0000000180025095e-35 1.0000000180025095e-35 1.0000000180025095e-35 1.0000000180025095e-35 1.0000000180025095e-35 1.0000000180025095e-35 1.0000000180025095e-35 1.0000000180025095e-35 1.0000000180025095e-35 1.0000000180025095e-35 1.0000000180025095e-35 1.0000000180025095e-35 1.0000000180025095e-35 1.0000000180025095e-35 1.0000000180025095e-35 1.0000000180025095e-35 1.0000000180025095e-35 1.0000000180025095e-35 1.0000000180025095e-35 1.0000000180025095e-35 1.0000000180025095e-35
decision_type=2 2 2 2 2 2 2 2 2 2 2 2 2 2 2 2 2 2 2 2 2 2 2
left_child=1 4 3 -3 10 -6 7 8 -2 -10 11 12 -1 -4 16 -9 -8 -12 -13 -11 -16 -22 -15
right_child=6 2 13 -5 5 -7 14 15 9 19 17 18 -14 22 20 -17 -18 -19 -20 -21 21 -23 -24
leaf_value=-0.09093371880815275 -0.036756426251285633 -0.16768128681671612 0.25976765021342696 0.22897443214124219 0.095017717188390416 -0.13820488813998549 0.23174773445772767 0.23434041121618879 0.049996100432712819 0.22613357283009058 -0.097484784263887569 -0.23189301537516405 -0.16652491175874265 0.239878119475082 0.23211981597456466 0.2580635983912371 0.25610626590398744 -0.11548460009133515 -0.24032577052911988 0.24053452628399527 0.2247224283263709 0.22725872668100902 0.23902161861421384
leaf_weight=1.294327378273018 3.5351790636777896 3.8556348681449872 1.9354493767023084 2.1309876814484596 2.3012406527996054 3.1167364493012428 1.2547466084361067 1.592856563627719 2.7389653846621513 1.4932472258806231 1.9695512652397145 7.3772913888096809 2.8792339041829109 1.4732646644115448 1.8435775861144064 1.4845708906650543 1.484773762524128 2.1051648408174515 5.1184804067015648 2.0673091411590576 0.97569753229618084 1.4519551917910576 1.2954040318727493
leaf_count=9 18 24 12 13 15 21 11 13 19 15 10 64 23 11 16 10 10 10 38 16 10 14 10
internal_value=0.00120707 -0.0862347 0.0942147 -0.0264884 -0.159973 -0.0391455 0.162954 0.123784 0.0856081 0.154277 -0.191531 -0.212246 -0.143082 0.247826 0.235097 0.245785 0.24495 -0.106784 -0.235347 0.234495 0.228778 0.226239 0.239477
internal_weight=56.7756 36.8528 10.6907 5.98662 26.162 5.41798 19.9229 12.9121 9.8347 6.29952 20.744 16.6693 4.17356 4.70412 7.01075 3.07743 2.73952 4.07472 12.4958 3.56056 4.27123 2.42765 2.76867
internal_count=412 260 70 37 190 36 152 91 68 50 154 134 32 33 61 23 21 20 102 31 40 24 21
is_linear=0
shrinkage=0.2


Tree=8
num_leaves=22
num_cat=0
split_feature=8 13 0 9 9 10 2 13 10 10 0 2 9 10 6 6 9 6 0 14 0
split_gain=14.9254 9.07695 3.85464 3.52356 2.07546 1.88264 1.46873 1.25917 0.622188 0.412897 0.669453 0.430914 0.156207 1.8097 0.0909209 0.036213 0.00516544 0.00388121 0.00258073 0.00059379 6.37068e-05
threshold=1.0000000180025095e-35 1.0000000180025095e-35 1.0000000180025095e-35 1.0000000180025095e-35 1.0000000180025095e-35 1.0000000180025095e-35 1.0000000180025095e-35 1.0000000180025095e-35 1.0000000180025095e-35 1.0000000180025095e-35 1.0000000180025095e-35 1.0000000180025095e-35 1.0000000180025095e-35 1.0000000180025095e-35 1.0000000180025095e-35 1.0000000180025095e-35 1.0000000180025095e-35 1.0000000180025095e-35 1.0000000180025095e-35 1.0000000180025095e-35 1.0000000180025095e-35
decision_type=2 2 2 2 2 2 2 2 2 2 2 2 2 2 2 2 2 2 2 2 2
left_child=1 4 3 8 9 -6 16 12 -3 10 -1 14 13 -8 -12 -4 -2 -13 -9 -18 -21
right_child=6 2 15 -5 5 -7 7 18 -10 -11 11 17 -14 -15 -16 -17 19 -19 -20 20 -22
leaf_value=-0.045466347687529912 0.23807631372404378 -0.18031419660542908 0.23226281649760369 0.25502976430176671 -0.12199619825146152 0.13125174347542884 -0.015565166033263224 0.2341304722531585 -0.031018375793703437 -0.28056421534337089 -0.16785073035546125 -0.21229455080328552 0.050793144616800817 0.26913432652015612 -0.12068454164146868 0.27385622745099653 0.22787091829834499 -0.20134353633543134 0.22164352928673653 0.22398204711573017 0.22176449037168577
leaf_weight=1.6107885241508562 1.8586978316307075 2.0208787098526937 1.4529477804899216 1.5106647461652754 3.3452928662300101 1.8092003911733625 2.1221668496727926 1.4666053876280793 2.4952272921800613 1.4151048809289921 3.0334000810980788 7.0965280681848526 5.4233930036425591 1.5420310869812968 3.5456432849168777 1.975998654961586 2.006159782409668 1.5833910554647443 1.2068291157484055 1.2873929291963579 0.8673034906387328
leaf_count=11 16 16 13 12 22 14 13 13 15 7 31 63 40 12 32 14 20 10 14 14 10
internal_value=0.00133008 -0.0784695 0.0869399 -0.00937924 -0.145198 -0.0331075 0.148964 0.107841 -0.0978257 -0.176796 -0.168091 -0.181036 0.0723462 0.104247 -0.142431 0.256232 0.229311 -0.210297 0.228494 0.225395 0.223089
internal_weight=50.6756 32.8951 9.45572 6.02677 23.4393 5.15449 17.7806 11.761 4.51611 18.2849 16.8698 15.259 9.08759 3.6642 6.57904 3.42895 6.01955 8.67992 2.67343 4.16086 2.1547
internal_count=412 260 70 43 190 36 152 92 31 154 147 136 65 25 63 27 60 73 27 44 24
is_linear=0
shrinkage=0.2


Tree=9
num_leaves=21
num_cat=0
split_feature=8 9 4 2 4 11 7 0 7 9 4 0 2 2 7 2 9 0 4 0
split_gain=10.9117 4.42019 3.29073 1.45902 1.82556 1.21954 2.90036 1.2142 1.0964 1.77213 1.08316 1.49901 0.563168 0.287837 0.136857 0.0121511 0.00275668 0.00161197 8.81929e-05 0.000228468
threshold=1.0000000180025095e-35 1.0000000180025095e-35 1.0000000180025095e-35 1.0000000180025095e-35 1.0000000180025095e-35 1.0000000180025095e-35 1.0000000180025095e-35 1.0000000180025095e-35 1.0000000180025095e-35 1.0000000180025095e-35 1.0000000180025095e-35 1.0000000180025095e-35 1.0000000180025095e-35 1.0000000180025095e-35 1.0000000180025095e-35 1.0000000180025095e-35 1.0000000180025095e-35 1.0000000180025095e-35 1.0000000180025095e-35 1.0000000180025095e-35
decision_type=2 2 2 2 2 2 2 2 2 2 2 2 2 2 2 2 2 2 2 2
left_child=1 5 7 16 8 10 -7 -3 -5 -10 13 12 -12 -1 -15 -4 -2 -6 19 -18
right_child=3 2 15 4 17 6 -8 -9 9 -11 11 -13 -14 14 -16 -17 18 -19 -20 -21
leaf_value=-0.13506986163490425 0.23043444856187639 0.077903433320498372 0.25285340644384602 -0.037868440245460044 0.22187765337998991 -0.16721052497585115 0.24711444412172631 -0.12654615234797909 -0.030604182578566091 0.22430402683804795 -0.19185696936553642 0.074610377486943089 -0.075164206168596051 -0.24697201946296785 -0.18285626787723583 0.22604758290546487 0.21964570745934339 0.23119273009109437 0.21878621431980166 0.22377989318173716
leaf_weight=4.361705742776401 1.5669045597314841 2.0605874359607688 1.3266417607665062 3.6101928129792196 1.3737322166562089 1.5835407599806777 1.1789748072624207 2.664207249879837 1.967649884521961 2.4482856094837189 2.8620570749044418 1.9488323852419851 3.9201490432024002 1.8829071819782255 4.5486930310726166 1.3801021128892899 1.6473523750901224 1.618697963654995 1.0376823097467425 0.79164648056030262
leaf_count=47 16 14 11 19 16 16 10 21 12 28 22 15 25 16 48 15 21 17 14 9
internal_value=0.00156022 -0.0702232 0.0633511 0.134375 0.0935931 -0.114763 0.00961335 -0.0373812 0.0438854 0.110722 -0.132362 -0.0799856 -0.124408 -0.17473 -0.201627 0.239186 0.22347 0.226916 0.220331 0.220988
internal_weight=45.7805 29.7184 7.43154 16.0621 11.0186 22.2869 2.76252 4.72479 8.02613 4.41594 19.5243 8.73104 6.78221 10.7933 6.4316 2.70674 5.04359 2.99243 3.47668 2.439
internal_count=412 260 61 152 92 199 26 35 59 40 173 62 47 111 64 26 60 33 44 30
is_linear=0
shrinkage=0.2


Tree=10
num_leaves=33
num_cat=0
split_feature=8 5 10 12 1 2 1 1 1 10 1 6 1 1 1 1 0 10 1 0 1 1 1 1 5 12 0 6 1 2 1 1
split_gain=8.08502 6.99797 2.47627 1.66543 1.51127 1.35551 1.27723 3.4891 1.72514 2.92617 1.23037 0.827673 0.670456 0.636699 0.803216 0.584567 0.536565 0.189576 0.106921 0.0995318 0.0759578 0.0036514 0.00101827 0.000820145 0.000238595 0.000187267 9.88309e-05 6.19916e-05 5.34622e-05 5.26746e-05 3.49171e-05 1.49852e-05
threshold=1.0000000180025095e-35 1.0000000180025095e-35 1.0000000180025095e-35 1.0000000180025095e-35 63.500000000000007 1.0000000180025095e-35 63.500000000000007 68.500000000000014 59.500000000000007 1.0000000180025095e-35 58.500000000000007 1.0000000180025095e-35 67.500000000000014 59.500000000000007 66.500000000000014 62.500000000000007 1.0000000180025095e-35 1.0000000180025095e-35 66.500000000000014 1.0000000180025095e-35 60.500000000000007 60.500000000000007 68.500000000000014 56.500000000000007 1.0000000180025095e-35 1.0000000180025095e-35 1.0000000180025095e-35 1.0000000180025095e-35 64.500000000000014 1.0000000180025095e-35 61.500000000000007 58.500000000000007
decision_type=2 2 2 2 2 2 2 2 2 2 2 2 2 2 2 2 2 2 2 2 2 2 2 2 2 2 2 2 2 2 2 2
left_child=1 2 11 -4 10 22 8 18 9 -7 -3 16 -6 -13 30 -5 20 -10 -8 -12 -1 23 26 -18 -24 -25 27 -2 -23 -27 -15 -31
right_child=5 4 3 15 12 6 7 -9 17 -11 19 13 -14 14 -16 -17 21 -19 -20 -21 -22 28 24 25 -26 29 -28 -29 -30 31 -32 -33
leaf_value=-0.082073882277143642 0.21853144501636756 0.17936673238642248 -0.13485607055634 0.01689447415694471 0.26955945762025035 -0.11457558572828692 -0.088195033410761098 0.24783751238238608 0.35787379896378607 0.23865521693906602 -0.089463482485201362 0.038561538215695364 0.10022992249765655 -0.22264122077153259 -0.016454017817483551 0.22814903416768911 -0.22361057647142571 0.23408334478184953 -0.16569854718053023 -0.018709638135664296 -0.14938162120909934 -0.22488303473013641 0.21969563578169915 -0.21861553613519202 0.22434192831502586 -0.21664593261810861 0.2143277810810767 0.21600113105483254 -0.22667985333702961 -0.21445180869468106 -0.22090243198189474 -0.21551148087843905
leaf_weight=1.2708632797002803 0.66786162927746529 1.273069210350515 1.6531837433576577 0.95299239084124598 1.8863068819046023 1.8336498141288757 1.3840972334146502 1.5114340372383592 1.0040312297642229 1.9207086339592934 1.5547938942909241 1.1189997196197499 1.8552706576883791 0.90619921684265159 1.2971887812018392 1.1637561433017252 0.71766941994428624 0.97575122117996205 1.4662820994853971 1.6280248016119003 1.4200469553470609 0.97672672569751773 0.75032274797558751 1.0723272785544393 1.0761549361050129 1.1828766167163851 0.7905202917754649 0.92193006724119186 2.0579868927598 1.0664942041039469 0.94234615564346313 1.0687156915664671
leaf_count=12 9 12 10 10 11 14 10 17 9 20 10 10 15 10 11 12 8 12 10 12 12 10 10 14 14 17 13 14 20 17 11 16
internal_value=0.00186952 -0.0624043 -0.129436 0.0155622 0.0918839 0.123498 0.0837541 0.00219146 0.145797 0.0661353 0.0131936 -0.16564 0.185597 -0.0910063 -0.137096 0.133039 -0.19502 0.296863 -0.128064 -0.0532726 -0.117594 -0.220607 0.218881 -0.217342 0.222433 -0.216318 0.216155 0.217064 -0.226102 -0.215575 -0.221755 -0.214982
internal_weight=41.3686 27.0658 18.8684 3.76993 8.19747 14.3027 10.096 4.36181 5.73414 3.75436 4.45589 15.0984 3.74158 4.26473 3.14573 2.11675 10.8337 1.97978 2.85038 3.18282 2.69091 8.1428 4.20679 5.10808 1.82648 4.39041 2.38031 1.58979 3.03471 3.31809 1.84855 2.13521
internal_count=412 260 200 32 60 152 92 37 55 34 34 168 26 42 32 22 126 21 20 22 24 102 60 72 24 64 36 23 30 50 21 33
is_linear=0
shrinkage=0.2


Tree=11
num_leaves=24
num_cat=0
split_feature=8 13 5 12 3 5 2 12 6 12 3 3 2 6 12 3 13 2 2 6 5 6 2
split_gain=6.07994 5.37896 2.89714 2.11579 1.8055 1.40886 1.04376 0.632666 0.794565 0.466512 0.588993 0.419149 0.3559 0.0293913 0.0166112 0.00866162 0.0016689 0.00183777 0.00103337 0.000610652 0.000495503 0.000182577 0.000103707
threshold=1.0000000180025095e-35 1.0000000180025095e-35 1.0000000180025095e-35 1.0000000180025095e-35 1.0000000180025095e-35 1.0000000180025095e-35 1.0000000180025095e-35 1.0000000180025095e-35 1.0000000180025095e-35 1.0000000180025095e-35 1.0000000180025095e-35 1.0000000180025095e-35 1.0000000180025095e-35 1.0000000180025095e-35 1.0000000180025095e-35 1.0000000180025095e-35 1.0000000180025095e-35 1.0000000180025095e-35 1.0000000180025095e-35 1.0000000180025095e-35 1.0000000180025095e-35 1.0000000180025095e-35 1.0000000180025095e-35
decision_type=2 2 2 2 2 2 2 2 2 2 2 2 2 2 2 2 2 2 2 2 2 2 2
left_child=1 5 3 18 6 9 20 -8 -9 10 -1 -7 15 -14 -4 19 17 -6 -3 -11 -2 -16 -18
right_child=4 2 14 -5 16 11 7 8 -10 12 -12 -13 13 -15 21 -17 22 -19 -20 -21 -22 -23 -24
leaf_value=-0.017850801810542289 0.21409181288473969 -0.12562033030714845 0.24783736019515157 0.17753878659386119 0.21515772075686368 -0.079884554730116741 -0.034263477771801366 0.21513604173150505 0.016492057291738461 -0.21240919474353209 -0.21496954769989418 0.039586927192236665 -0.14276049157257825 -0.10555463339699547 0.2164914776171013 -0.19994838159046713 0.21132707957318281 0.22578929261183633 -0.11791829199214439 -0.21875034352308795 0.22166763678276197 0.22091426179126153 0.21436710900701594
leaf_weight=1.8965882807970094 0.69729668274521628 1.2816300243139258 1.6041861400008202 1.4283528886735437 1.2281935252249232 2.5418537408113471 3.3896706476807594 1.2464105710387232 2.2766663022339344 0.82510249689221415 0.89127841964364041 2.183787539601326 3.5155403725802898 1.1198187768459318 0.79871714860200882 1.8968532904982565 0.88659312948584534 1.3823651373386383 1.5269676595926285 2.3029367998242378 0.68418737128376961 0.70104198157787323 0.9091343954205513
leaf_count=18 12 14 12 13 20 14 23 21 16 15 14 13 56 9 12 21 18 16 10 30 10 9 16
internal_value=0.00178911 -0.0563967 0.086896 -0.0206441 0.1141 -0.117647 0.0591376 0.0274208 0.0867693 -0.152942 -0.0808695 -0.024675 -0.173741 -0.133772 0.233691 -0.210612 0.217559 0.220787 -0.121433 -0.217078 0.217844 0.218559 0.212866
internal_weight=37.2152 24.5147 7.3409 4.23695 12.7005 17.1738 8.29423 6.91275 3.52308 12.4481 2.78787 4.72564 9.66025 4.63536 3.10395 5.02489 4.40629 2.61056 2.8086 3.12804 1.38148 1.49976 1.79573
internal_count=412 260 70 37 152 190 82 60 37 163 32 27 131 65 33 66 70 36 24 45 22 21 34
is_linear=0
shrinkage=0.2


Tree=12
num_leaves=23
num_cat=0
split_feature=13 10 6 6 11 3 14 3 11 6 6 2 3 4 2 2 11 4 3 4 10 2
split_gain=4.11236 2.59244 2.00816 1.42435 1.35361 0.976196 0.924594 0.466808 1.16861 0.880131 0.424683 0.179636 0.310155 0.198613 0.164563 0.0305666 0.0141275 0.00197831 0.000326594 0.000282782 0.000111664 1.00347e-05
threshold=1.0000000180025095e-35 1.0000000180025095e-35 1.0000000180025095e-35 1.0000000180025095e-35 1.0000000180025095e-35 1.0000000180025095e-35 1.0000000180025095e-35 1.0000000180025095e-35 1.0000000180025095e-35 1.0000000180025095e-35 1.0000000180025095e-35 1.0000000180025095e-35 1.0000000180025095e-35 1.0000000180025095e-35 1.0000000180025095e-35 1.0000000180025095e-35 1.0000000180025095e-35 1.0000000180025095e-35 1.0000000180025095e-35 1.0000000180025095e-35 1.0000000180025095e-35 1.0000000180025095e-35
decision_type=2 2 2 2 2 2 2 2 2 2 2 2 2 2 2 2 2 2 2 2 2 2
left_child=1 3 4 6 14 15 11 8 -3 -10 -9 18 13 -13 -2 -5 -4 -18 -1 -20 -6 -19
right_child=2 7 16 5 20 -7 -8 10 9 -11 -12 12 -14 -15 -16 -17 17 21 19 -21 -22 -23
leaf_value=-0.21003449863513388 0.022865301502131508 -0.14913757797188662 0.24144712621241152 -0.037895417382450863 0.21095711170101819 0.13590422270100622 -0.02856510311740303 0.047963551743091255 0.023865082803684441 0.2304460919692819 0.22940144508559857 -0.13385625641362386 -0.027762895178249487 -0.2251204953978114 -0.058128643103940184 -0.068873323621149798 0.22413838906647821 0.20942210581063636 -0.21708968532518347 -0.21208021249207998 0.214607145849398 0.21077529819928859
leaf_weight=0.68237816169858168 1.9391503855586032 1.286119736731054 2.0816192962229252 2.3493449315428725 0.71516467258334138 1.3595444895327089 2.4156489595770836 1.1327255666255953 4.3355107121169567 1.0188019797205923 0.94780104607343663 2.4091289266943932 0.72476391494274128 1.5789573565125468 2.0794679149985313 2.7838296294212341 0.74537060782313369 0.41854498907923698 1.1564801856875417 0.73862023651599895 0.63111459463834763 0.46024153754115105
leaf_count=15 23 13 22 34 15 15 15 16 41 13 12 41 11 16 19 19 11 10 16 14 11 10
internal_value=0.00200688 -0.0399639 0.117312 -0.0872959 0.0391011 -0.0147847 -0.135802 0.0479527 0.0220524 0.0631727 0.130619 -0.171334 -0.148117 -0.169989 -0.0190457 -0.0546954 0.230539 0.216559 -0.213786 -0.215137 0.212668 0.210131
internal_weight=33.9903 24.9197 9.07067 16.1987 5.3649 6.49272 9.70598 8.72096 6.64043 5.35431 2.08053 7.29033 4.71285 3.98809 4.01862 5.13317 3.70578 1.62416 2.57748 1.8951 1.34628 0.878787
internal_count=412 291 121 196 68 68 128 95 67 54 28 113 68 57 42 53 53 31 45 30 26 20
is_linear=0
shrinkage=0.2


Tree=13
num_leaves=28
num_cat=0
split_feature=5 8 10 1 1 1 0 8 1 1 0 1 0 12 1 1 1 1 1 1 12 12 14 1 1 1 1
split_gain=3.74847 3.12496 1.61341 1.34503 2.69724 1.60091 2.74114 1.07768 1.08661 0.942629 0.782564 0.853555 0.624068 0.399589 0.729743 0.291015 0.04128 0.0760782 0.157792 0.0586491 0.0238184 0.00040725 0.000292725 0.000224063 3.02516e-05 2.48672e-05 1.84363e-05
threshold=1.0000000180025095e-35 1.0000000180025095e-35 1.0000000180025095e-35 68.500000000000014 63.500000000000007 59.500000000000007 1.0000000180025095e-35 1.0000000180025095e-35 63.500000000000007 62.500000000000007 1.0000000180025095e-35 58.500000000000007 1.0000000180025095e-35 1.0000000180025095e-35 67.500000000000014 60.500000000000007 69.500000000000014 58.500000000000007 59.500000000000007 62.500000000000007 1.0000000180025095e-35 1.0000000180025095e-35 1.0000000180025095e-35 56.500000000000007 61.500000000000007 57.500000000000007 61.500000000000007
decision_type=2 2 2 2 2 2 2 2 2 2 2 2 2 2 2 2 2 2 2 2 2 2 2 2 2 2 2
left_child=1 2 10 4 5 6 -3 8 15 -4 11 -1 -10 14 -12 -2 17 23 -19 26 -5 24 -23 -15 -9 -25 -20
right_child=7 3 9 20 -6 -7 -8 21 12 -11 13 -13 -14 16 -16 -17 -18 18 19 -21 -22 22 -24 25 -26 -27 -28
leaf_value=0.10201281314032279 0.052888370678571196 0.23283887594081609 -0.053267230814822181 0.26645543964280555 -0.14633877581424229 0.29788965574390652 -0.16263247695078956 0.20783123719134969 0.049619420647242785 0.17741191991727653 -0.21129439237916345 -0.1356211998747355 0.23050469610329349 -0.21429778037686931 0.081927607381883649 -0.060344102877471655 -0.22102400503076405 -0.10003743846303514 -0.21431549915648632 -0.14849893631208003 0.21305873065092618 0.216818140999822 0.21129896194780368 -0.21087965288139823 0.20991833314821773 -0.20908203864968566 -0.21295527818080273
leaf_weight=1.0079868659377074 1.6385439578443786 1.3771639950573444 2.1078606434166445 0.5539719760417936 2.4873985759913921 1.3305881358683107 1.4280326962471008 0.42566600628197193 1.3616297878324986 1.067378833889961 0.69920933246612527 1.5108335837721822 1.7351474761962891 0.5483759492635728 0.65991745889186859 2.0360135920345783 1.2183566093444822 1.1080606505274775 0.79466891288757346 0.84659995883703221 0.84209694713354111 0.77504783496260643 0.76260681450366974 0.42738927900791157 0.7996668741106987 1.1002403236925602 0.7996651753783226
leaf_count=8 17 18 19 6 20 17 12 12 10 13 15 17 16 9 8 17 15 20 13 13 18 13 17 9 19 27 14
internal_value=0.00196622 -0.0435758 -0.100946 0.055841 0.0182357 0.117216 0.0315175 0.10665 0.0636981 0.0242772 -0.138032 -0.0405243 0.150971 -0.167975 -0.0689219 -0.00985193 -0.187648 -0.180418 -0.162629 -0.191042 0.234247 0.211913 0.214081 -0.21083 0.209193 -0.209585 -0.213633
internal_weight=31.4501 21.9158 13.8965 8.01925 6.62318 4.13578 2.8052 9.53432 6.77133 3.17524 10.7213 2.51882 3.09678 8.20248 1.35913 3.67456 6.84336 5.625 3.54899 2.44093 1.39607 2.76299 1.53765 2.07601 1.22533 1.52763 1.59433
internal_count=412 291 200 91 67 47 30 121 60 32 168 25 26 143 23 34 120 105 60 40 24 61 30 45 31 36 27
is_linear=0
shrinkage=0.2


Tree=14
num_leaves=23
num_cat=0
split_feature=5 10 12 6 3 3 4 4 11 14 14 10 12 11 12 14 3 11 14 6 4 6
split_gain=2.68451 2.19017 2.2341 1.39407 1.66687 0.690943 1.95503 1.81146 2.82887 0.571652 0.536982 0.422066 0.314708 0.0399094 0.0183298 0.0153772 0.00671353 0.0105888 0.000306366 0.000104424 0.000101563 3.89961e-05
threshold=1.0000000180025095e-35 1.0000000180025095e-35 1.0000000180025095e-35 1.0000000180025095e-35 1.0000000180025095e-35 1.0000000180025095e-35 1.0000000180025095e-35 1.0000000180025095e-35 1.0000000180025095e-35 1.0000000180025095e-35 1.0000000180025095e-35 1.0000000180025095e-35 1.0000000180025095e-35 1.0000000180025095e-35 1.0000000180025095e-35 1.0000000180025095e-35 1.0000000180025095e-35 1.0000000180025095e-35 1.0000000180025095e-35 1.0000000180025095e-35 1.0000000180025095e-35 1.0000000180025095e-35
decision_type=2 2 2 2 2 2 2 2 2 2 2 2 2 2 2 2 2 2 2 2 2 2
left_child=1 3 13 10 -5 6 11 8 -7 -4 12 -2 -1 -3 15 -9 -14 -18 19 -16 21 -11
right_child=5 2 9 4 -6 7 -8 14 -10 20 -12 -13 16 -15 18 -17 17 -19 -20 -21 -22 -23
leaf_value=-0.11554902649102897 0.046892823975655189 -0.027497821664668798 0.040668073674233689 -0.063606615875458961 0.24974348267024848 -0.23770725079953087 -0.22642889835157082 0.2639970807767606 0.22875891860048345 0.21515223266427586 -0.043283535123373636 0.21527325607989081 -0.20866749937631035 -0.066560263160480235 0.21207462478670816 0.22659522031397128 -0.24625483645956342 -0.21165224123556226 0.20751728987844653 0.21593399092615861 0.2169150725499972 0.21311942893030819
leaf_weight=1.9355900026857868 1.4655157178640388 1.6783885285258282 1.0851541943848135 4.1976190060377121 0.81009932607412327 1.0612587630748749 0.91887719184160221 0.73838055320084084 1.0197125878185034 0.84253546781837962 1.4478599354624746 1.0030071195214987 2.0689832717180252 2.7775745484977961 0.60920524038374402 1.0869744084775448 0.61746442317962669 0.82824436947703362 0.41878676414489757 0.51963003724813461 0.90549204498529423 0.68386469595134258
leaf_count=31 7 15 13 52 12 7 8 8 17 18 17 21 54 20 13 16 11 16 13 11 16 16
internal_value=0.00186536 -0.0389132 0.0422094 -0.0932386 -0.0129159 0.0935518 0.022608 0.137614 -0.00913062 0.161375 -0.151549 0.115309 -0.18031 -0.051847 0.228149 0.241725 -0.215974 -0.226431 0.212137 0.213851 0.215237 0.214241
internal_weight=28.7202 19.8789 7.97301 11.9059 5.00772 8.84135 3.3874 5.45395 2.08097 3.51705 6.89814 2.46852 5.45028 4.45596 3.37298 1.82535 3.51469 1.44571 1.54762 1.12884 2.43189 1.5264
internal_count=412 291 98 193 64 121 36 85 24 63 129 28 112 35 61 24 81 27 37 24 50 34
is_linear=0
shrinkage=0.2


Tree=15
num_leaves=29
num_cat=0
split_feature=8 9 6 1 1 6 12 1 1 1 9 7 14 1 1 1 1 9 0 1 1 1 7 1 1 1 7 0
split_gain=2.2364 1.76252 1.0218 2.46517 0.93328 0.955116 1.18786 0.924571 2.05555 0.973971 1.88534 0.855942 0.515017 0.249648 0.169285 0.132227 0.129067 0.0951127 0.0798536 0.131145 0.0132532 0.0122557 0.00904132 0.00780478 0.011266 0.000117555 0.00010499 1.5209e-05
threshold=1.0000000180025095e-35 1.0000000180025095e-35 1.0000000180025095e-35 59.500000000000007 55.500000000000007 1.0000000180025095e-35 1.0000000180025095e-35 68.500000000000014 63.500000000000007 59.500000000000007 1.0000000180025095e-35 1.0000000180025095e-35 1.0000000180025095e-35 65.500000000000014 59.500000000000007 60.500000000000007 66.500000000000014 1.0000000180025095e-35 1.0000000180025095e-35 66.500000000000014 70.500000000000014 61.500000000000007 1.0000000180025095e-35 58.500000000000007 57.500000000000007 53.500000000000007 1.0000000180025095e-35 1.0000000180025095e-35
decision_type=2 2 2 2 2 2 2 2 2 2 2 2 2 2 2 2 2 2 2 2 2 2 2 2 2 2 2 2
left_child=1 4 3 -3 -1 12 -7 8 9 10 -2 -5 18 -10 -8 -14 21 -11 -6 23 -9 -16 -12 24 -20 -24 -22 -28
right_child=7 2 -4 11 5 6 14 20 13 17 22 -13 15 -15 16 -17 -18 -19 19 -21 26 -23 25 -25 -26 -27 27 -29
leaf_value=0.15203269924167961 -0.090379066388693419 -0.3025370752510198 0.25895830181537405 -0.070394945495459632 -0.23507939834913014 0.093826981498323928 -0.022419911317608645 0.24793316159754833 0.0019283823999836148 0.31630271188300396 0.23827334313470694 0.16880710867297996 -0.031930769907476744 -0.13138401530869814 -0.16611885924543349 -0.1142522458590724 -0.085675465210746107 0.21305569272138378 -0.20679353569365289 -0.10617475907344597 0.21258146848393175 -0.20989333606846025 0.21067226520242055 -0.20770656779248065 -0.16941034281911388 0.20600384913142689 0.20919322975822074 0.20727133875769865
leaf_weight=0.66872220486402767 1.4883207213133591 0.75442922860383932 0.88926331885159005 0.82929331809282336 0.89552914351224711 2.0509010404348373 0.68482162803411517 0.57003141753375519 0.82809434831142459 0.80630594305694081 0.73970980755984783 2.148954875767231 1.4993987679481509 1.7478436194360254 0.53068573400378249 1.627721022814512 0.97905566543340672 0.6403268463909626 0.52921902760863371 0.97400733828544606 0.34396645054221131 0.49395821988582611 0.40331579931080341 0.94372386671602715 0.82538072019815445 0.46394394896924496 0.34354434721171856 0.31638588197529316
leaf_count=8 18 9 12 16 10 17 10 12 12 11 8 24 14 16 11 17 13 19 17 14 8 11 10 27 30 17 11 10
internal_value=0.00207469 -0.0394585 0.0662968 0.0203977 -0.0779368 -0.0907156 -0.0208127 0.0848614 0.0541879 0.135129 0.0718129 0.102201 -0.13613 -0.0885277 -0.108264 -0.0747806 -0.137604 0.270602 -0.182161 -0.167679 0.223578 -0.187222 0.22203 -0.193743 -0.184015 0.208175 0.209748 0.208272
internal_weight=26.0169 17.3251 4.62194 3.73268 12.7031 12.0344 4.73942 8.69179 7.11786 4.54192 3.09529 2.97825 7.29498 2.57594 2.68852 3.12712 2.0037 1.44663 4.16786 3.27233 1.57393 1.02464 1.60697 2.29832 1.3546 0.86726 1.0039 0.65993
internal_count=412 260 61 49 199 191 62 152 111 83 53 40 129 28 45 31 35 30 98 88 41 22 35 74 47 27 29 21
is_linear=0
shrinkage=0.2


Tree=16
num_leaves=21
num_cat=0
split_feature=8 9 7 6 6 14 6 7 14 12 0 14 10 7 12 0 14 9 0 6
split_gain=1.63867 1.26776 0.844341 1.23205 0.829405 0.701785 0.50077 0.960435 1.44489 0.766328 0.657059 0.478365 0.443897 0.152171 0.117825 0.00093618 0.00535559 0.000838549 7.32764e-05 1.65447e-05
threshold=1.0000000180025095e-35 1.0000000180025095e-35 1.0000000180025095e-35 1.0000000180025095e-35 1.0000000180025095e-35 1.0000000180025095e-35 1.0000000180025095e-35 1.0000000180025095e-35 1.0000000180025095e-35 1.0000000180025095e-35 1.0000000180025095e-35 1.0000000180025095e-35 1.0000000180025095e-35 1.0000000180025095e-35 1.0000000180025095e-35 1.0000000180025095e-35 1.0000000180025095e-35 1.0000000180025095e-35 1.0000000180025095e-35 1.0000000180025095e-35
decision_type=2 2 2 2 2 2 2 2 2 2 2 2 2 2 2 2 2 2 2 2
left_child=1 6 3 -2 11 -4 7 12 10 -8 -9 13 15 -3 -12 -1 -17 -7 19 -19
right_child=2 4 5 -5 -6 17 9 8 -10 -11 14 -13 -14 -15 -16 16 -18 18 -20 -21
leaf_value=-0.22631225000706523 -0.070961835099969159 -0.12521673370774364 0.05446585077554518 0.21288959504033619 0.24955761568923662 0.215435975878501 0.07413178379373625 0.095586912060282525 0.24068832027315806 -0.089611068056401136 -0.070643714173710612 0.086684986914305484 -0.075385659162357815 -0.0035912090182024271 -0.16575786526981887 -0.20564994675982248 -0.23224296773460887 0.20778333989090331 0.2053091290005595 0.20942515587889898
leaf_weight=1.2102813757956081 2.4651172617450352 0.77039681002497584 2.3084653206169605 0.81350475829094637 0.75264164246618737 0.90594017691910278 2.0737834572792053 0.62636946141719896 0.65806400030851353 2.5479563325643539 0.77314408868551265 1.9096280802041292 1.2433895766735079 0.8831874318420887 1.5972059909254313 0.62930537387728691 0.58407110720872879 0.53991276025772095 0.39537996239960194 0.45024951826781034
leaf_count=15 23 18 36 21 12 20 17 9 7 46 9 16 10 15 57 24 5 20 17 15
internal_value=0.00216027 -0.0341138 0.077021 -0.000531487 0.0587891 0.132297 -0.0676846 -0.100221 -0.0276641 -0.0161393 -0.0865929 0.0184939 -0.172536 -0.0602559 -0.134734 -0.222376 -0.218451 0.210705 0.207611 0.20853
internal_weight=24.138 16.2594 7.87857 3.27862 4.31585 4.59995 11.9436 7.32183 3.65478 4.62174 2.99672 3.56321 3.66705 1.65358 2.37035 2.42366 1.21338 2.29148 1.38554 0.990162
internal_count=412 260 152 44 61 108 199 136 82 63 75 49 54 33 66 44 29 72 52 35
is_linear=0
shrinkage=0.2


Tree=17
num_leaves=21
num_cat=0
split_feature=13 5 9 8 4 2 14 5 0 2 14 9 8 2 4 0 9 0 9 0
split_gain=1.93484 1.42413 1.49732 1.33505 0.828003 0.906594 0.581073 0.480279 0.419369 0.283325 0.159168 0.00743407 0.00176065 0.00145219 0.000459538 0.000143552 6.18372e-05 2.28732e-05 2.22179e-05 2.55199e-06
threshold=1.0000000180025095e-35 1.0000000180025095e-35 1.0000000180025095e-35 1.0000000180025095e-35 1.0000000180025095e-35 1.0000000180025095e-35 1.0000000180025095e-35 1.0000000180025095e-35 1.0000000180025095e-35 1.0000000180025095e-35 1.0000000180025095e-35 1.0000000180025095e-35 1.0000000180025095e-35 1.0000000180025095e-35 1.0000000180025095e-35 1.0000000180025095e-35 1.0000000180025095e-35 1.0000000180025095e-35 1.0000000180025095e-35 1.0000000180025095e-35
decision_type=2 2 2 2 2 2 2 2 2 2 2 2 2 2 2 2 2 2 2 2
left_child=3 2 -2 6 5 18 7 8 -1 11 -7 -10 13 -3 -11 -15 -14 -18 -5 -20
right_child=1 12 -4 4 -6 10 -8 -9 9 14 -12 -13 16 15 -16 -17 17 -19 19 -21
leaf_value=-0.02553070651603899 -0.062436280408480031 0.22604995820505425 0.23699140168949581 0.20734435340318991 0.21474012195565431 0.016932358067165681 0.010938192352956587 -0.018800545368540728 -0.10620573034082824 -0.20831006325599866 -0.059846362271120702 -0.13066689666903317 0.20822347812742331 0.21618062447242639 -0.21510267316949958 0.21151820498726215 0.20626894729534329 0.20366731686297498 0.20475127199739013 0.20565645558916082
leaf_weight=1.2087274417281202 2.5544467857107516 0.50182074680924427 0.9045839775353669 0.29137005470693011 0.92891648691147555 1.9313051551580427 2.3348793499171725 2.052183672785759 1.9277352876961233 1.6909311823546889 2.4502467438578606 0.66959514468908299 0.31470005214214314 0.40850160550326109 0.52118203043937672 0.74750600941479206 0.2271525701507926 0.33383229002356529 0.28190302569419146 0.22324720770120621
leaf_count=15 30 6 18 10 21 15 18 15 60 57 32 17 10 7 8 20 10 20 14 9
internal_value=0.00196518 0.09931 0.0158682 -0.0333628 0.0408688 0.00967722 -0.0769304 -0.102352 -0.130843 -0.157311 -0.0260038 -0.112512 0.213234 0.217066 -0.20991 0.213166 0.20598 0.204721 0.205954 0.205151
internal_weight=22.5048 5.99254 3.45903 16.5122 6.10699 5.17807 10.4052 8.07035 6.01817 4.80944 4.38155 2.59733 2.53351 1.65783 2.21211 1.15601 0.875685 0.560985 0.79652 0.50515
internal_count=412 121 48 291 101 80 190 172 157 142 47 77 73 33 65 27 40 30 33 23
is_linear=0
shrinkage=0.2


Tree=18
num_leaves=30
num_cat=0
split_feature=8 3 1 1 1 0 1 2 1 1 3 7 1 0 2 7 1 0 3 9 1 1 2 5 1 1 9 5 1
split_gain=0.862804 1.14859 0.913159 1.47007 1.1192 2.22199 0.741212 1.39613 2.09083 1.52665 1.28245 2.12708 1.02786 1.46186 2.99605 0.471127 0.439314 0.627941 0.348268 0.0570083 0.0319811 0.0271347 0.00037673 0.00021282 0.000187971 3.74031e-05 9.09569e-06 5.27811e-06 7.02937e-08
threshold=1.0000000180025095e-35 1.0000000180025095e-35 68.500000000000014 63.500000000000007 59.500000000000007 1.0000000180025095e-35 63.500000000000007 1.0000000180025095e-35 55.500000000000007 55.500000000000007 1.0000000180025095e-35 1.0000000180025095e-35 67.500000000000014 1.0000000180025095e-35 1.0000000180025095e-35 1.0000000180025095e-35 60.500000000000007 1.0000000180025095e-35 1.0000000180025095e-35 1.0000000180025095e-35 61.500000000000007 58.500000000000007 1.0000000180025095e-35 1.0000000180025095e-35 69.500000000000014 59.500000000000007 1.0000000180025095e-35 1.0000000180025095e-35 58.500000000000007
decision_type=2 2 2 2 2 2 2 2 2 2 2 2 2 2 2 2 2 2 2 2 2 2 2 2 2 2 2 2 2
left_child=6 2 3 4 5 -2 7 9 -9 -1 20 19 15 -14 -15 -8 17 -10 28 25 21 -11 26 -24 -16 -12 -3 -28 -19
right_child=1 22 -4 -5 -6 -7 12 8 16 10 11 -13 13 14 24 -17 -18 18 -20 -21 -22 -23 23 -25 -26 -27 27 -29 -30
leaf_value=-0.48069447551523015 0.22506956799756217 0.20530571657323296 0.23702877015311566 -0.15919294876207435 0.28086959564472014 -0.19752941752432782 0.060319881919834312 0.37240181619856022 0.12420357957472124 -0.17680345837603925 -0.20676367805057444 0.24151619539456451 -0.2195191439413888 0.43818445294220221 -0.099847487700004303 0.25602343573406239 -0.12551018165639172 -0.20372131951124556 0.0095242621559700636 -0.10733842043195514 -0.16756847583685586 -0.23482080282656673 0.21289829577312164 0.20682620572891006 -0.10481233571274134 -0.20971672228760796 0.2044263141810696 0.20308621460168494 -0.20386851314910182
leaf_weight=0.46100346744060683 0.91741428244858947 0.19225940108299233 0.646700576879084 1.7723199389874933 0.75971952825784672 1.0877556912600994 1.1102106682956208 0.58884493261575688 1.155418455600739 0.48115176334977172 0.40322431363165356 0.92744943872094143 1.1169100413098931 0.60018811374902714 0.49659122154116631 0.8836852554231881 1.3265054095536468 0.23010516911745071 0.7288698498159647 0.33106963336467743 0.88941041752696026 0.97765222005546093 0.54863504972308874 0.39865331538021564 0.79072045907378197 0.29862319678068161 0.21004971489310265 0.26699227932840586 0.29764770902693272
leaf_count=5 19 8 19 17 13 14 13 10 9 20 16 9 18 6 8 10 20 13 16 10 16 18 15 17 20 7 11 19 16
internal_value=0.00207996 0.060589 0.014689 -0.0170017 0.0741442 -0.00418005 -0.0261487 -0.0601447 0.0221121 -0.134775 -0.0977631 0.0216588 0.0357244 -0.0381608 0.0691563 0.147055 -0.0330608 0.0177819 -0.0800689 -0.17575 -0.19746 -0.215685 0.207777 0.210343 -0.102897 -0.20802 0.204144 0.203676 -0.203804
internal_weight=20.8958 6.8005 5.18391 4.53721 2.76489 2.00517 14.0953 9.09698 4.32739 4.76958 4.30858 1.96037 4.99831 3.00441 1.8875 1.9939 3.73855 2.41204 1.25662 1.03292 2.34821 1.4588 1.61659 0.947288 1.28731 0.701848 0.669301 0.477042 0.527753
internal_count=412 152 82 63 46 33 260 185 84 101 96 42 75 52 34 23 74 54 45 33 54 38 70 32 28 23 38 30 29
is_linear=0
shrinkage=0.2


Tree=19
num_leaves=28
num_cat=0
split_feature=13 6 7 1 1 12 1 7 3 9 1 6 11 9 1 6 1 1 9 9 12 6 12 1 1 11 1
split_gain=1.45854 1.07179 1.42408 0.831938 0.597875 1.13827 0.804878 1.65531 1.18828 1.08929 0.79656 0.761235 0.673799 0.573728 1.05667 0.457439 0.276825 0.0139197 0.0115302 0.00894822 0.00515207 0.00278934 0.00145922 7.69886e-05 3.73862e-05 9.4419e-06 2.15218e-07
threshold=1.0000000180025095e-35 1.0000000180025095e-35 1.0000000180025095e-35 59.500000000000007 56.500000000000007 1.0000000180025095e-35 59.500000000000007 1.0000000180025095e-35 1.0000000180025095e-35 1.0000000180025095e-35 67.500000000000014 1.0000000180025095e-35 1.0000000180025095e-35 1.0000000180025095e-35 63.500000000000007 1.0000000180025095e-35 68.500000000000014 65.500000000000014 1.0000000180025095e-35 1.0000000180025095e-35 1.0000000180025095e-35 1.0000000180025095e-35 1.0000000180025095e-35 67.500000000000014 59.500000000000007 1.0000000180025095e-35 58.500000000000007
decision_type=2 2 2 2 2 2 2 2 2 2 2 2 2 2 2 2 2 2 2 2 2 2 2 2 2 2 2
left_child=4 2 3 -2 5 -1 9 13 10 21 12 16 -9 14 -8 -7 -12 -15 -3 -10 -4 22 -6 25 -22 -20 -24
right_child=1 18 20 -5 6 15 7 8 19 -11 11 -13 -14 17 -16 -17 -18 -19 23 -21 24 -23 26 -25 -26 -27 -28
leaf_value=0.35276490431252661 -0.22653941915234627 0.24014278112372472 0.23420659700647667 0.029335813030452591 -0.21779274207088975 -0.12365053420021713 -0.19813225014784031 -0.0095580128685272703 0.24709905172739927 0.057539415277484809 -0.10082126213183494 0.089474974118836967 0.22418488218422961 -0.17664710849024637 0.086684945251370424 0.10606420213872654 -0.28517300915693428 -0.21212904996803306 0.20523283188529581 0.21246313249607041 0.20814136251837773 -0.22346018446466034 -0.20292905469734521 0.20851591048849208 0.20489909029391851 0.20321388705821222 -0.2031628653786286
leaf_weight=0.4480830663815164 0.79102207627147381 1.008919804356992 0.49004386737942718 1.4219246925786135 0.43788923416286685 0.72517118602991104 0.96923983376473044 1.1014783056452868 0.60605394747108199 0.81221472285687912 0.97860172763466857 0.71504133660346259 0.89343060459941614 0.73591247946023974 1.1267317933961747 0.66447544749826193 0.48843329586088657 1.1083133108913896 0.16381324641406525 0.58767572324723005 0.2538421768695116 0.95889409258961666 0.44028586056083441 0.26978490548208356 0.32361477147787809 0.21330267749726772 0.24515856243669987
leaf_count=6 11 17 12 22 15 18 13 28 8 10 17 15 17 14 11 15 14 11 8 19 7 13 31 12 16 16 16
internal_value=0.00209108 0.0956058 0.0293956 -0.0621273 -0.0307802 0.07557 -0.046793 -0.0181574 0.0540723 -0.138909 0.00378075 -0.0797284 0.095125 -0.116611 -0.045023 -0.0138098 -0.162199 -0.19797 0.226779 0.230048 0.219124 -0.215537 -0.208774 0.205936 0.206324 0.204091 -0.203013
internal_weight=18.9794 4.93627 3.28045 2.21295 14.0431 1.83773 12.2054 9.31091 5.37071 2.89444 4.17699 2.18208 1.99491 3.9402 2.09597 1.38965 1.46704 1.84423 1.65582 1.19373 1.0675 2.08223 1.12333 0.646901 0.577457 0.377116 0.685444
internal_count=412 121 68 33 291 39 252 167 118 85 91 46 45 49 24 33 31 25 53 27 35 75 62 36 23 24 47
is_linear=0
shrinkage=0.2


Tree=20
num_leaves=20
num_cat=0
split_feature=8 3 5 14 12 12 4 4 3 4 12 14 11 12 2 5 2 4 5
split_gain=0.79868 0.745978 0.336836 0.550186 1.16788 0.961623 5.67013 1.23869 0.460697 1.57348 0.241159 0.697628 0.046032 0.00246333 0.000191688 0.000131365 3.1976e-06 2.99236e-07 6.45956e-07
threshold=1.0000000180025095e-35 1.0000000180025095e-35 1.0000000180025095e-35 1.0000000180025095e-35 1.0000000180025095e-35 1.0000000180025095e-35 1.0000000180025095e-35 1.0000000180025095e-35 1.0000000180025095e-35 1.0000000180025095e-35 1.0000000180025095e-35 1.0000000180025095e-35 1.0000000180025095e-35 1.0000000180025095e-35 1.0000000180025095e-35 1.0000000180025095e-35 1.0000000180025095e-35 1.0000000180025095e-35 1.0000000180025095e-35
decision_type=2 2 2 2 2 2 2 2 2 2 2 2 2 2 2 2 2 2 2
left_child=2 10 3 5 -5 6 -1 12 -4 -10 -2 -12 16 -11 17 -16 -7 18 -3
right_child=1 14 8 4 -6 7 -8 -9 9 13 11 -13 -14 -15 15 -17 -18 -19 -20
leaf_value=0.67325573698440122 -0.022724763280844381 0.20312780010611259 -0.051420406426362156 -0.064636849263810608 0.23292248307767829 -0.20706327256618917 -0.21066493939704187 0.12443704746425298 -0.11229275129847183 0.22868569117924903 -0.023858059381944741 0.20767337271317399 -0.15445911729678422 0.21106660408793912 0.21034506719883139 0.20479078651552629 -0.20658320916913742 0.20312056491045616 0.20247603450154303
leaf_weight=0.41376224160194552 2.0467165224254122 0.12172839418053605 2.0452793072909117 1.7543147876858713 0.75453100446611632 1.0849103499203929 0.97273347247391939 0.59035038761794556 0.98557413276284944 0.79122420167550445 1.2401100937277081 0.8971358467824756 0.96278821118175972 0.53003422636538744 0.4312052046880126 0.28153230901807547 1.1362424027174711 0.2292771190404892 0.12157043162733316
leaf_count=2 31 9 17 24 12 45 30 7 11 13 12 39 23 19 15 17 57 18 11
internal_value=0.00188789 0.0660206 -0.0267557 -0.0519742 0.0248536 -0.0893229 0.0531173 -0.141649 0.0176862 0.0789573 0.0263419 0.0733302 -0.190985 0.221618 0.20608 0.208151 -0.206818 0.202957 0.202802
internal_weight=17.391 5.36928 12.0217 7.66963 2.50885 5.16079 1.3865 3.77429 4.35211 2.30683 4.18396 2.13725 3.18394 1.32126 1.18531 0.712738 2.22115 0.472576 0.243299
internal_count=412 152 260 200 36 164 32 132 60 43 82 51 125 32 70 32 102 38 20
is_linear=0
shrinkage=0.2


Tree=21
num_leaves=31
num_cat=0
split_feature=8 3 1 1 1 10 1 2 1 3 1 0 4 2 0 3 1 10 0 9 1 1 3 2 1 1 9 1 10 1
split_gain=0.585874 0.65087 0.625763 1.04631 0.816978 1.81317 0.450756 0.732787 0.930698 0.82858 0.716975 0.640913 0.87779 0.605159 1.06864 0.695763 0.205973 0.157628 0.151497 0.045512 0.00333216 0.00200295 0.000550147 0.000104574 3.32592e-05 1.57962e-05 2.78038e-06 5.62531e-07 5.12739e-07 4.79648e-09
threshold=1.0000000180025095e-35 1.0000000180025095e-35 68.500000000000014 63.500000000000007 59.500000000000007 1.0000000180025095e-35 63.500000000000007 1.0000000180025095e-35 55.500000000000007 1.0000000180025095e-35 60.500000000000007 1.0000000180025095e-35 1.0000000180025095e-35 1.0000000180025095e-35 1.0000000180025095e-35 1.0000000180025095e-35 61.500000000000007 1.0000000180025095e-35 1.0000000180025095e-35 1.0000000180025095e-35 59.500000000000007 57.500000000000007 1.0000000180025095e-35 1.0000000180025095e-35 59.500000000000007 63.500000000000007 1.0000000180025095e-35 60.500000000000007 1.0000000180025095e-35 58.500000000000007
decision_type=2 2 2 2 2 2 2 2 2 2 2 2 2 2 2 2 2 2 2 2 2 2 2 2 2 2 2 2 2 2
left_child=6 2 3 4 5 -2 7 8 -1 17 11 -9 22 14 -8 18 20 19 -15 27 -11 -7 29 26 -25 -26 -3 -10 -28 -13
right_child=1 23 -4 -5 -6 21 13 10 9 16 -12 12 -14 15 -16 -17 -18 -19 -20 -21 -22 -23 -24 24 25 -27 28 -29 -30 -31
leaf_value=-0.41569240396445484 -0.22339395609843227 0.20323525746421456 0.23021731072420307 -0.14319528379909238 0.27001821246639235 0.20737074217261742 -0.049050823906530192 0.16164087508280345 -0.20433865702553194 -0.05394966493549419 -0.12834822797709566 -0.20206743656027926 0.15550841733802376 -0.061344778305308927 0.24595551811183802 0.077403956881402253 0.11054187021308107 -0.10075450750461344 -0.20832053740824652 -0.30589485702292252 -0.026359778176390899 0.22798200360430609 -0.21427394682714224 0.20848642499662109 0.2038142299118281 0.20653706821846796 0.20232797999461116 -0.20467135464218247 0.20177810271163113 -0.20211888439877945
leaf_weight=0.38004845380783292 0.73764020204544045 0.1159541644155978 0.50816019158810366 1.3760215919464824 0.63778698397800315 0.38075458910316229 0.9213702185079452 1.3439585790038113 0.3914167722687123 0.44709595013409853 1.0496728532016275 0.12872277479618788 0.47995264641940594 0.46709428355097771 1.051936287432909 1.0032954663038254 0.66395554691553116 0.6454348098486663 0.7023280318826437 0.22633959352970123 0.28782194014638662 0.37367404717952013 0.2989785224199295 0.23551546968519688 0.14491096651181579 0.2069187113083899 0.14213536819443107 0.42294688709080219 0.12975056748837233 0.16591131221503019
leaf_count=5 8 8 19 17 13 19 11 11 25 22 20 13 12 11 14 18 13 9 21 1 7 6 12 8 13 11 14 19 16 16
internal_value=0.00149802 0.0584066 0.0228014 -0.00726259 0.0805585 -0.000426283 -0.0241314 -0.0553305 -0.120376 -0.0839951 0.00967464 0.0696033 -0.0456154 0.0280344 0.108212 -0.0447845 0.0298006 -0.178404 -0.149615 -0.226561 -0.0431444 0.21758 -0.20823 0.204964 0.206647 0.205416 0.202415 -0.204511 0.202066 -0.202096
internal_weight=16.0675 4.98922 4.01404 3.50588 2.12986 1.49207 11.0783 6.93226 3.46506 3.08501 3.4672 2.41752 1.07357 4.14602 1.97331 2.17272 1.39887 1.68614 1.16942 1.0407 0.734918 0.754429 0.593613 0.975185 0.587345 0.35183 0.38784 0.814364 0.271886 0.294634
internal_count=412 152 82 63 46 33 260 185 101 96 84 64 53 75 25 50 42 54 32 45 29 25 41 70 32 24 38 44 30 29
is_linear=0
shrinkage=0.2


Tree=22
num_leaves=21
num_cat=0
split_feature=8 3 9 2 11 6 3 0 0 3 14 6 14 0 2 14 2 11 9 0
split_gain=0.45365 0.542221 0.343263 0.822145 0.420902 0.211327 0.225508 0.58272 0.185481 0.151276 0.121385 0.0590455 0.390288 0.0224144 0.0205776 0.018809 5.72035e-05 2.36867e-06 1.51511e-06 1.60841e-07
threshold=1.0000000180025095e-35 1.0000000180025095e-35 1.0000000180025095e-35 1.0000000180025095e-35 1.0000000180025095e-35 1.0000000180025095e-35 1.0000000180025095e-35 1.0000000180025095e-35 1.0000000180025095e-35 1.0000000180025095e-35 1.0000000180025095e-35 1.0000000180025095e-35 1.0000000180025095e-35 1.0000000180025095e-35 1.0000000180025095e-35 1.0000000180025095e-35 1.0000000180025095e-35 1.0000000180025095e-35 1.0000000180025095e-35 1.0000000180025095e-35
decision_type=2 2 2 2 2 2 2 2 2 2 2 2 2 2 2 2 2 2 2 2
left_child=2 11 4 10 5 8 7 -7 15 -10 13 -2 -13 -4 -6 -1 18 -18 -3 -20
right_child=1 16 3 -5 14 6 -8 -9 9 -11 -12 12 -14 -15 -16 -17 17 -19 19 -21
leaf_value=-0.030632536232638986 -0.00082730029551355785 0.20264138870027548 -0.042227057222049919 0.21901185740678319 0.07095202082899664 -0.22519191287045906 0.062106031267034234 0.010622175975682803 -0.20636449511234134 -0.073490209812159438 0.020550784300690995 -0.014597759085301568 0.20704048138310016 -0.097345904577895853 0.13951197081448619 -0.069843412924011111 0.20578634886071626 0.2048817975179639 0.20149193849029112 0.20183522476320817
leaf_weight=0.71089874207973314 1.9970177463255832 0.095184648875146993 0.62679220736026808 0.73456743825227011 0.39992264658212651 0.59078481793403681 0.905500829219818 1.442885821685195 0.80840005865320586 0.59496558085083961 1.2866309778764844 1.065667334012687 0.45284930896013986 0.55768534820526838 0.31150869466364384 1.5701301023364067 0.29118694039061666 0.19225033186376095 0.095475236419588327 0.12749949656426907
leaf_count=10 43 8 9 22 18 7 12 40 62 17 11 13 26 19 8 25 18 14 14 16
internal_value=0.00101318 0.0556203 -0.0213522 0.0332424 -0.0452121 -0.0609136 -0.0209162 -0.0578822 -0.092821 -0.150032 -0.0219799 0.0217747 0.0514988 -0.0681786 0.100972 -0.0576231 0.204056 0.205427 0.201973 0.201688
internal_weight=14.8578 4.31713 10.5407 3.20568 7.335 6.62357 2.93917 2.03367 3.68439 1.40337 2.47111 3.51553 1.51852 1.18448 0.711431 2.28103 0.801597 0.483437 0.318159 0.222975
internal_count=412 152 260 61 199 173 59 47 114 79 39 82 39 28 26 35 70 32 38 30
is_linear=0
shrinkage=0.2


Tree=23
num_leaves=24
num_cat=0
split_feature=13 7 6 10 7 3 10 3 4 3 4 6 6 0 6 9 9 10 0 10 4 9 6
split_gain=0.759289 0.698841 0.850139 0.569364 0.411691 0.607513 0.55812 1.20629 0.476107 0.456147 0.313644 0.295303 0.261213 0.178463 0.0838471 0.123383 0.0361038 0.00680809 0.00139059 0.00243943 3.26142e-05 3.26085e-05 3.49372e-07
threshold=1.0000000180025095e-35 1.0000000180025095e-35 1.0000000180025095e-35 1.0000000180025095e-35 1.0000000180025095e-35 1.0000000180025095e-35 1.0000000180025095e-35 1.0000000180025095e-35 1.0000000180025095e-35 1.0000000180025095e-35 1.0000000180025095e-35 1.0000000180025095e-35 1.0000000180025095e-35 1.0000000180025095e-35 1.0000000180025095e-35 1.0000000180025095e-35 1.0000000180025095e-35 1.0000000180025095e-35 1.0000000180025095e-35 1.0000000180025095e-35 1.0000000180025095e-35 1.0000000180025095e-35 1.0000000180025095e-35
decision_type=2 2 2 2 2 2 2 2 2 2 2 2 2 2 2 2 2 2 2 2 2 2 2
left_child=4 2 3 -2 5 12 7 10 16 20 13 -10 -1 -6 15 -15 -7 -4 19 -3 -8 -20 -23
right_child=1 18 17 -5 6 8 9 -9 11 -11 -12 -13 -14 14 -16 -17 -18 -19 21 -21 -22 22 -24
leaf_value=-0.072549681060159674 -0.20889068988216924 0.22878214658049237 0.25053103128750187 0.028602665507792932 0.040204869179385698 -0.28333519974401034 0.20754949962810099 0.22391212566585073 -0.1598919547781037 -0.0085393474788757751 -0.20912624552885226 0.21838381833108655 0.056115102998267968 -0.20163495780557811 -0.048559038866476459 -0.041486705600378086 -0.20526112741833846 0.20802041324048784 0.20531716248028037 0.20375127429433323 0.21030708048334656 0.2021768352711574 0.20162379696220026
leaf_weight=1.5770113430917245 0.58332646684721212 0.37266103830188535 0.27523551182821382 1.3118565492331982 0.76056960225105319 0.6366878701373937 0.60716877854429163 0.65831281151622523 0.1716029755771159 0.71631196793168783 0.54149956442415703 0.15906709572300315 1.0523099396377802 0.40268704574555192 2.2200741823762655 0.36853989958763123 0.37732527498155832 0.33302266686223447 0.28571680467575788 0.26755019300617278 0.23912260867655277 0.090161756612360477 0.092638694448396564
leaf_count=16 17 7 3 16 4 16 34 19 16 22 16 5 14 54 51 2 16 19 16 20 6 9 14
internal_value=0.000991186 0.0800746 0.021531 -0.0444964 -0.0262451 -0.0769772 0.00470366 -0.0281821 -0.186324 0.108914 -0.0668363 0.0220756 -0.0210553 -0.0462999 -0.0682947 -0.125106 -0.254283 0.227256 0.212262 0.218322 0.208329 0.203983 0.201897
internal_weight=14.1005 3.61217 2.50344 1.89518 10.4883 3.974 6.51429 4.95168 1.34468 1.5626 4.29337 0.33067 2.62932 3.75187 2.9913 0.771227 1.01401 0.608258 1.10873 0.640211 0.846291 0.468517 0.1828
internal_count=412 121 55 33 291 83 208 146 53 62 127 21 30 111 107 56 32 22 66 27 40 39 23
is_linear=0
shrinkage=0.2


Tree=24
num_leaves=21
num_cat=0
split_feature=8 4 9 4 5 12 4 4 3 12 11 3 2 3 4 11 3 2 5 9
split_gain=0.296082 0.41487 0.183312 0.738886 0.26226 0.485054 2.65954 0.456236 0.249541 0.136661 0.37886 0.122375 0.219233 0.0691285 0.992943 0.00137158 6.68774e-05 2.63705e-05 2.12542e-05 1.1085e-06
threshold=1.0000000180025095e-35 1.0000000180025095e-35 1.0000000180025095e-35 1.0000000180025095e-35 1.0000000180025095e-35 1.0000000180025095e-35 1.0000000180025095e-35 1.0000000180025095e-35 1.0000000180025095e-35 1.0000000180025095e-35 1.0000000180025095e-35 1.0000000180025095e-35 1.0000000180025095e-35 1.0000000180025095e-35 1.0000000180025095e-35 1.0000000180025095e-35 1.0000000180025095e-35 1.0000000180025095e-35 1.0000000180025095e-35 1.0000000180025095e-35
decision_type=2 2 2 2 2 2 2 2 2 2 2 2 2 2 2 2 2 2 2 2
left_child=2 9 4 8 5 6 -1 17 -4 -2 -11 -8 -13 -6 -15 -5 -3 -7 -18 -20
right_child=1 16 3 15 13 7 11 -9 -10 10 -12 12 -14 14 -16 -17 18 -19 19 -21
leaf_value=0.40694114610836113 -0.018600507297056354 0.20820910703710141 0.024076421715308528 0.22800540511431741 -0.026699271194741688 -0.206203199661006 -0.20744876552198904 0.042166272112497308 -0.11306867618060079 -0.0066104104622082957 0.20404003312798116 -0.20434212787103379 -0.036722056595848394 -0.12333972903842892 0.21627723098014423 0.20875357915346782 0.20461752356943969 -0.20440581150575965 0.20212827634310881 0.20112916824158422
leaf_weight=0.48858550190925432 1.7199010758195086 0.15219680638983835 1.339293014258147 0.24212151765823353 0.86250697355717432 0.70442463178187587 0.44655513763427723 0.38520853966474522 0.87898494116961945 1.026940321549773 0.5116825920995326 0.44934643432497967 1.0219800099730492 0.69264315813779831 0.6848192410543561 0.38088856660760939 0.22927566338330507 0.60860433243215084 0.12217772589065135 0.069793587550520897
leaf_count=2 38 6 12 5 11 45 16 3 23 13 48 27 10 9 19 21 18 57 14 15
internal_value=0.00104572 0.0477457 -0.0184354 0.0237838 -0.0373421 -0.0673801 -0.00962464 -0.149222 -0.0302668 0.0201392 0.0634432 -0.115746 -0.0879136 0.0177021 0.0455042 0.216235 0.204616 -0.20537 0.203318 0.201765
internal_weight=13.0179 3.83197 9.18596 2.84129 6.34467 4.1047 2.40647 1.69824 2.21828 3.25852 1.53862 1.91788 1.47133 2.23997 1.37746 0.62301 0.573444 1.31303 0.421247 0.191971
internal_count=412 152 260 61 199 160 55 105 35 99 61 53 37 39 28 26 53 102 47 29
is_linear=0
shrinkage=0.2


Tree=25
num_leaves=27
num_cat=0
split_feature=13 5 1 1 1 10 1 9 1 1 14 1 10 12 10 1 9 9 12 4 12 1 9 1 12 1
split_gain=0.482467 0.638336 0.323164 0.687738 0.131892 0.89113 0.114115 0.501865 0.23414 0.126581 0.620917 0.220417 1.51903 0.509658 0.278193 0.429742 0.0550837 0.0168377 0.00457868 0.000739328 7.34702e-05 5.08102e-05 3.08681e-05 1.61121e-05 1.42156e-05 5.81481e-08
threshold=1.0000000180025095e-35 1.0000000180025095e-35 59.500000000000007 60.500000000000007 69.500000000000014 1.0000000180025095e-35 67.500000000000014 1.0000000180025095e-35 66.500000000000014 56.500000000000007 1.0000000180025095e-35 59.500000000000007 1.0000000180025095e-35 1.0000000180025095e-35 1.0000000180025095e-35 61.500000000000007 1.0000000180025095e-35 1.0000000180025095e-35 1.0000000180025095e-35 1.0000000180025095e-35 1.0000000180025095e-35 58.500000000000007 1.0000000180025095e-35 57.500000000000007 1.0000000180025095e-35 71.500000000000014
decision_type=2 2 2 2 2 2 2 2 2 2 2 2 2 2 2 2 2 2 2 2 2 2 2 2 2 2
left_child=4 2 -2 -4 6 -6 8 -8 9 10 -1 12 17 -13 15 -15 -17 20 -7 -3 -11 23 24 -22 -21 -24
right_child=1 19 3 -5 5 18 7 -9 -10 11 -12 13 -14 14 -16 16 -18 -19 -20 22 21 -23 25 -25 -26 -27
leaf_value=-0.076939037014914891 -0.095898503853438732 0.21529187709015518 0.26891266309010076 -0.036660327208272558 -0.17753690361126809 0.24790991009961849 0.025640841138984974 -0.21215344976992234 0.082438387960922316 -0.20634906637142772 0.21696550791959998 -0.097078537663718822 0.2222445166656927 0.13664161007346329 0.20852397142894979 -0.055967812756322448 -0.18154662601271998 -0.27046752783688177 0.20956693924709335 0.20579427191041566 -0.21277882324608971 -0.20788481709780959 0.20114285489470329 -0.21067014760944122 0.20335748180091648 0.2014164612312852
leaf_weight=0.84174279542639474 0.74956846330315041 0.39948966866359104 0.45016390085220315 0.8526165138464421 0.38394429301843125 0.23471285915002227 0.79245996242389061 0.64312517642974854 0.80515409633517254 0.19620019942522027 0.43669894407503307 1.5638619624078274 0.415800156071782 0.58023270079866029 0.39917056378908466 0.34507081843912601 0.23477772111073136 0.22516190446913242 0.2654769136570394 0.22786275506950915 0.26092323008924723 0.19550421461462975 0.083444099873304367 0.32607331732288003 0.16517854738049209 0.049502086592838168
leaf_count=18 17 20 6 25 20 8 20 5 11 15 21 19 7 16 19 16 15 3 18 12 11 20 18 29 14 9
internal_value=0.000989315 0.0709107 0.00872906 0.0689276 -0.021776 0.0516421 -0.0296327 -0.0808882 -0.0188537 -0.0323984 0.0234549 -0.0474539 -0.107325 -0.0164044 0.0645082 0.0149541 -0.106814 -0.221155 0.227559 0.208806 -0.20981 -0.210677 0.203879 -0.211607 0.20477 0.201245
internal_weight=12.1239 2.97783 2.05235 1.30278 9.14609 0.884134 8.26196 1.43559 6.82637 6.02122 1.27844 4.74278 1.61966 3.12311 1.55925 1.16008 0.579849 1.20386 0.50019 0.925477 0.978701 0.782501 0.525987 0.586997 0.393041 0.132946
internal_count=412 121 48 31 291 46 245 25 220 209 39 170 85 85 66 47 31 78 26 73 75 60 53 40 26 27
is_linear=0
shrinkage=0.2


Tree=26
num_leaves=20
num_cat=0
split_feature=13 0 7 10 7 12 4 4 10 2 5 4 2 10 2 5 10 7 4
split_gain=0.330295 0.609481 0.587737 0.400291 0.238417 0.45023 1.06867 0.459338 0.18963 0.322242 0.140127 0.132942 0.385702 0.18357 0.114123 0.00355656 0.000828399 0.000722176 3.01372e-07
threshold=1.0000000180025095e-35 1.0000000180025095e-35 1.0000000180025095e-35 1.0000000180025095e-35 1.0000000180025095e-35 1.0000000180025095e-35 1.0000000180025095e-35 1.0000000180025095e-35 1.0000000180025095e-35 1.0000000180025095e-35 1.0000000180025095e-35 1.0000000180025095e-35 1.0000000180025095e-35 1.0000000180025095e-35 1.0000000180025095e-35 1.0000000180025095e-35 1.0000000180025095e-35 1.0000000180025095e-35 1.0000000180025095e-35
decision_type=2 2 2 2 2 2 2 2 2 2 2 2 2 2 2 2 2 2 2
left_child=4 2 3 -2 11 6 -6 8 10 -10 14 12 -1 -14 -7 -3 -4 -17 -19
right_child=1 15 16 -5 5 7 -8 -9 9 -11 -12 -13 13 -15 -16 17 -18 18 -20
leaf_value=0.1146972453881151 -0.21487311591513747 0.23803597231073059 0.22018873455924584 0.0092450867019223722 0.32858107499914996 -0.1710581106815949 -0.07358233835234386 0.20619288032697167 -0.049133168141632294 0.20539760374678637 -0.0079812199241849954 -0.13855357173153016 -0.16844331187725708 -0.039406778962500749 -0.064916436632227181 0.21869850580868444 0.20261899822315932 0.20266179624713418 0.20218222425171875
leaf_weight=0.51668509468436141 0.42568264668807532 0.26665660296566773 0.25136010139249254 1.2692616657586768 0.52059867605566956 0.59823355614207718 0.53685056325048208 0.32518175640143443 0.56659599626436818 0.30663019604980946 1.0592659525573254 0.69403045158833254 0.63072211947292101 1.4660508250817657 1.2556776939891279 0.17923524626530707 0.18734730896539986 0.071345784701406956 0.19754025526344776
leaf_count=19 15 6 7 26 10 53 19 18 20 22 9 28 18 18 57 9 20 8 30
internal_value=0.000987236 0.0599081 0.00636161 -0.0470419 -0.0188124 0.00801846 0.124409 -0.0219157 -0.041506 0.0402444 -0.0660108 -0.0607444 -0.0400813 -0.0782218 -0.099167 0.219747 0.212686 0.208865 0.202309
internal_weight=11.325 2.84843 2.13365 1.69494 8.47652 5.16903 1.05745 4.11159 3.7864 0.873226 2.91318 3.30749 2.61346 2.09677 1.85391 0.714778 0.438707 0.448121 0.268886
internal_count=412 121 68 41 291 208 29 179 161 42 119 83 55 36 110 53 27 47 38
is_linear=0
shrinkage=0.2


Tree=27
num_leaves=34
num_cat=0
split_feature=6 14 1 1 7 1 14 1 3 1 5 1 1 1 3 1 1 5 13 1 14 1 1 13 1 7 3 1 1 1 1 1 1
split_gain=0.30712 0.566168 0.481942 0.537457 0.874682 0.862139 0.657066 0.570143 1.09893 0.480443 0.407207 0.369491 0.148551 0.494047 0.59334 0.364525 0.124393 0.330649 0.0685227 0.0412138 0.0282405 0.00630558 0.00353286 0.00136247 0.000898697 0.000726193 0.00102896 1.96206e-05 1.08726e-06 4.64133e-07 7.22333e-07 1.14052e-08 5.54308e-09
threshold=1.0000000180025095e-35 1.0000000180025095e-35 69.500000000000014 68.500000000000014 1.0000000180025095e-35 60.500000000000007 1.0000000180025095e-35 59.500000000000007 1.0000000180025095e-35 58.500000000000007 1.0000000180025095e-35 59.500000000000007 67.500000000000014 62.500000000000007 1.0000000180025095e-35 55.500000000000007 69.500000000000014 1.0000000180025095e-35 1.0000000180025095e-35 75.500000000000014 1.0000000180025095e-35 61.500000000000007 66.500000000000014 1.0000000180025095e-35 65.500000000000014 1.0000000180025095e-35 1.0000000180025095e-35 73.500000000000014 60.500000000000007 63.500000000000007 53.500000000000007 57.500000000000007 58.500000000000007
decision_type=2 2 2 2 2 2 2 2 2 2 2 2 2 2 2 2 2 2 2 2 2 2 2 2 2 2 2 2 2 2 2 2 2
left_child=2 9 3 4 5 7 10 8 -1 -2 12 -8 13 14 15 -6 17 21 24 -18 -4 -11 -13 31 -7 26 -3 29 32 30 -27 -10 -17
right_child=1 25 20 -5 6 18 11 -9 23 16 -12 22 -14 -15 -16 28 19 -19 -20 -21 -22 -23 -24 -25 -26 27 -28 -29 -30 -31 -32 -33 -34
leaf_value=0.22169805439978196 -0.16045270647056764 0.22523479207325733 0.11976965612496858 -0.2834737459961158 0.16989244461400743 -0.20750989582755464 0.00026345081489470898 0.19261984345716643 -0.20341603264783267 0.12442883021751826 0.21856425986992531 0.21676973049286566 -0.20417224729781489 0.21232067187105913 -0.37221974443055655 -0.20065886798788629 0.0062285049104644288 -0.015952336707742636 -0.13057633062100232 -0.12469410281892378 0.23329631393365169 0.15458352797676664 0.24176697148452472 -0.22271354906288751 -0.21847046049703686 0.20189469576568544 0.20573471090835033 0.20555181709885262 -0.20192364431577522 0.20200806242470426 0.20082909101842464 -0.20332198144593738 -0.20073774409984937
leaf_weight=0.34637613594532035 0.54471007431857366 0.23867979552596796 0.13555638212710608 0.33699494786560524 0.25379611551761605 0.53581367898732402 0.39771469309926033 0.50127450004219998 0.12569255800917745 0.78117374610155865 0.21564282709732663 0.3991051244083792 0.29143650829792023 0.23151888325810432 0.24860744178295135 0.085255988640710711 0.19037292012944806 1.1106158476322889 0.59078645566478361 0.19437907263636589 0.24799045990221202 0.43010029476135969 0.52187306061387062 0.46103951521217823 0.67770233564078808 0.048918629996478558 0.19805647619068623 0.071610446786507964 0.03563432302325964 0.070419386960566044 0.053027606103569269 0.087462219409644604 0.061236511217430234
leaf_count=4 20 4 13 6 2 18 16 7 18 18 17 20 15 5 1 27 12 17 14 9 14 19 6 11 10 7 17 8 4 11 15 10 17
internal_value=0.00117026 0.0456489 -0.0245928 -0.0376332 -0.0239801 -0.0929218 0.0596543 0.0179491 -0.0678441 0.010924 -0.0345921 0.161365 -0.0798029 -0.0402354 -0.125654 0.0149632 0.0454134 0.0628669 -0.186436 -0.0599144 0.193173 0.135136 0.230934 -0.2166 -0.213631 0.211509 0.216392 0.202769 -0.200933 0.201613 0.20134 -0.203377 -0.200692
internal_weight=10.7206 3.93206 6.78851 6.40496 6.06797 3.32615 2.74182 1.52184 1.02057 3.25135 1.42313 1.31869 1.20749 0.916049 0.68453 0.435923 2.70664 2.32189 1.8043 0.384752 0.383547 1.21127 0.920978 0.674194 1.21352 0.680712 0.436736 0.243976 0.182127 0.172366 0.101946 0.213155 0.146492
internal_count=412 157 255 228 222 92 130 50 43 95 88 42 71 56 51 50 75 54 42 21 27 37 26 39 28 62 21 41 48 33 22 28 44
is_linear=0
shrinkage=0.2


end of trees

feature_importances:
Column_1=177
Column_2=52
Column_12=48
Column_0=45
Column_3=43
Column_9=43
Column_6=42
Column_4=39
Column_10=34
Column_7=33
Column_14=32
Column_5=31
Column_11=21
Column_13=20
Column_8=19

parameters:
[boosting: gbdt]
[objective: binary]
[metric: binary_logloss]
[tree_learner: serial]
[device_type: cpu]
[data_sample_strategy: bagging]
[data: ]
[valid: ]
[num_iterations: 10000]
[learning_rate: 0.2]
[num_leaves: 63]
[num_threads: 0]
[seed: 1236]
[deterministic: 0]
[force_col_wise: 0]
[force_row_wise: 0]
[histogram_pool_size: -1]
[max_depth: -1]
[min_data_in_leaf: 10]
[min_sum_hessian_in_leaf: 0.001]
[bagging_fraction: 1]
[pos_bagging_fraction: 1]
[neg_bagging_fraction: 1]
[bagging_freq: 0]
[bagging_seed: 21709]
[bagging_by_query: 0]
[feature_fraction: 0.5]
[feature_fraction_bynode: 1]
[feature_fraction_seed: 24116]
[extra_trees: 0]
[extra_seed: 15571]
[early_stopping_round: 0]
[early_stopping_min_delta: 0]
[first_metric_only: 0]
[max_delta_step: 0]
[lambda_l1: 0]
[lambda_l2: 0]
[linear_lambda: 0]
[min_gain_to_split: 0]
[drop_rate: 0.1]
[max_drop: 50]
[skip_drop: 0.5]
[xgboost_dart_mode: 0]
[uniform_drop: 0]
[drop_seed: 15722]
[top_rate: 0.2]
[other_rate: 0.1]
[min_data_per_group: 100]
[max_cat_threshold: 32]
[cat_l2: 10]
[cat_smooth: 10]
[max_cat_to_onehot: 4]
[top_k: 20]
[monotone_constraints: ]
[monotone_constraints_method: basic]
[monotone_penalty: 0]
[feature_contri: ]
[forcedsplits_filename: ]
[refit_decay_rate: 0.9]
[cegb_tradeoff: 1]
[cegb_penalty_split: 0]
[cegb_penalty_feature_lazy: ]
[cegb_penalty_feature_coupled: ]
[path_smooth: 0]
[interaction_constraints: ]
[verbosity: -1]
[saved_feature_importance_type: 0]
[use_quantized_grad: 0]
[num_grad_quant_bins: 4]
[quant_train_renew_leaf: 0]
[stochastic_rounding: 1]
[linear_tree: 0]
[max_bin: 255]
[max_bin_by_feature: ]
[min_data_in_bin: 3]
[bin_construct_sample_cnt: 200000]
[data_random_seed: 4074]
[is_enable_sparse: 1]
[enable_bundle: 1]
[use_missing: 1]
[zero_as_missing: 0]
[feature_pre_filter: 1]
[pre_partition: 0]
[two_round: 0]
[header: 0]
[label_column: ]
[weight_column: ]
[group_column: ]
[ignore_column: ]
[categorical_feature: ]
[forcedbins_filename: ]
[precise_float_parser: 0]
[parser_config_file: ]
[objective_seed: 10917]
[num_class: 1]
[is_unbalance: 0]
[scale_pos_weight: 1]
[sigmoid: 1]
[boost_from_average: 1]
[reg_sqrt: 0]
[alpha: 0.9]
[fair_c: 1]
[poisson_max_delta_step: 0.7]
[tweedie_variance_power: 1.5]
[lambdarank_truncation_level: 30]
[lambdarank_norm: 1]
[label_gain: ]
[lambdarank_position_bias_regularization: 0]
[eval_at: ]
[multi_error_top_k: 1]
[auc_mu_weights: ]
[num_machines: 1]
[local_listen_port: 12400]
[time_out: 120]
[machine_list_filename: ]
[machines: ]
[gpu_platform_id: -1]
[gpu_device_id: -1]
[gpu_use_dp: 0]
[num_gpu: 1]

end of parameters

pandas_categorical:null
