{"learner":{"attributes":{"best_iteration":"30","best_score":"-1.0"},"feature_names":[],"feature_types":[],"gradient_booster":{"model":{"gbtree_model_param":{"num_parallel_tree":"1","num_trees":"81"},"iteration_indptr":[0,1,2,3,4,5,6,7,8,9,10,11,12,13,14,15,16,17,18,19,20,21,22,23,24,25,26,27,28,29,30,31,32,33,34,35,36,37,38,39,40,41,42,43,44,45,46,47,48,49,50,51,52,53,54,55,56,57,58,59,60,61,62,63,64,65,66,67,68,69,70,71,72,73,74,75,76,77,78,79,80,81],"tree_info":[0,0,0,0,0,0,0,0,0,0,0,0,0,0,0,0,0,0,0,0,0,0,0,0,0,0,0,0,0,0,0,0,0,0,0,0,0,0,0,0,0,0,0,0,0,0,0,0,0,0,0,0,0,0,0,0,0,0,0,0,0,0,0,0,0,0,0,0,0,0,0,0,0,0,0,0,0,0,0,0,0],"trees":[{"base_weights":[-0E0,-8.636364E-1,1.4615384E0,-1.4371859E0,8.405797E-1,1.0454545E0,1.8888889E-1,-1.7857143E-1,4.0000003E-2,-1.6216217E-2,1.7777778E-1,2.2222223E-2,1.323077E0,2.4E-2,1.8181819E-1],"categories":[],"categories_nodes":[],"categories_segments":[],"categories_sizes":[],"default_left":[0,0,0,0,0,0,0,0,0,0,0,0,0,0,0],"id":0,"left_children":[1,3,5,7,9,11,-1,-1,-1,-1,-1,-1,13,-1,-1],"loss_changes":[1.3253497E2,6.571993E1,4.959984E0,3.256977E1,1.6499283E1,4.7340336E0,0E0,0E0,0E0,0E0,0E0,0E0,8.277483E0,0E0,0E0],"parents":[2147483647,0,0,1,1,2,2,3,3,4,4,5,5,12,12],"right_children":[2,4,6,8,10,12,-1,-1,-1,-1,-1,-1,14,-1,-1],"split_conditions":[1E0,1E0,1E0,1E0,1E0,1E0,1.8888889E-1,-1.7857143E-1,4.0000003E-2,-1.6216217E-2,1.7777778E-1,2.2222223E-2,1E0,2.4E-2,1.8181819E-1],"split_indices":[8,5,3,10,13,7,0,0,0,0,0,0,9,0,0],"split_type":[0,0,0,0,0,0,0,0,0,0,0,0,0,0,0],"sum_hessian":[1.03E2,6.5E1,3.8E1,4.875E1,1.625E1,2.1E1,1.7E1,4.1E1,7.75E0,8.25E0,8E0,5.75E0,1.525E1,5.25E0,1E1],"tree_param":{"num_deleted":"0","num_feature":"15","num_nodes":"15","size_leaf_vector":"1"}},{"base_weights":[4.244917E-3,-7.8180027E-1,1.3344676E0,-1.3052529E0,7.6893085E-1,9.551339E-1,1.725472E-1,-1.6579142E-1,2.5761146E-2,-1.4770809E-2,1.6315667E-1,1.6220538E-1,6.036756E-1,2.2737727E-2,8.069618E-2],"categories":[],"categories_nodes":[],"categories_segments":[],"categories_sizes":[],"default_left":[0,0,0,0,0,0,0,0,0,0,0,0,0,0,0],"id":1,"left_children":[1,3,5,7,9,11,-1,-1,-1,-1,-1,-1,13,-1,-1],"loss_changes":[1.09132675E2,5.42602E1,4.1017E0,2.7666496E1,1.3830864E1,4.157877E0,0E0,0E0,0E0,0E0,0E0,0E0,1.0362816E0,0E0,0E0],"parents":[2147483647,0,0,1,1,2,2,3,3,4,4,5,5,12,12],"right_children":[2,4,6,8,10,12,-1,-1,-1,-1,-1,-1,14,-1,-1],"split_conditions":[1E0,1E0,1E0,1E0,1E0,1E0,1.725472E-1,-1.6579142E-1,2.5761146E-2,-1.4770809E-2,1.6315667E-1,1.6220538E-1,1E0,2.2737727E-2,8.069618E-2],"split_indices":[8,5,3,9,13,2,0,0,0,0,0,0,12,0,0],"split_type":[0,0,0,0,0,0,0,0,0,0,0,0,0,0,0],"sum_hessian":[1.0237396E2,6.460836E1,3.7765606E1,4.842178E1,1.6186579E1,2.0916344E1,1.6849262E1,3.9457382E1,8.964399E0,8.249457E0,7.9371214E0,5.970894E0,1.4945449E1,5.9850917E0,8.960358E0],"tree_param":{"num_deleted":"0","num_feature":"15","num_nodes":"15","size_leaf_vector":"1"}},{"base_weights":[8.189866E-3,-7.1452546E-1,1.2306238E0,-1.1976864E0,7.0824206E-1,8.782274E-1,1.5994816E-1,-1.5112364E-1,4.081772E-2,-1.3455602E-2,1.5160403E-1,1.5933808E-2,1.125679E0,1.3317301E-2,1.593713E-1],"categories":[],"categories_nodes":[],"categories_segments":[],"categories_sizes":[],"default_left":[0,0,0,0,0,0,0,0,0,0,0,0,0,0,0],"id":2,"left_children":[1,3,5,7,9,11,-1,-1,-1,-1,-1,-1,13,-1,-1],"loss_changes":[9.088819E1,4.529718E1,3.563408E0,2.5107986E1,1.1791374E1,3.6922855E0,0E0,0E0,0E0,0E0,0E0,0E0,7.2323513E0,0E0,0E0],"parents":[2147483647,0,0,1,1,2,2,3,3,4,4,5,5,12,12],"right_children":[2,4,6,8,10,12,-1,-1,-1,-1,-1,-1,14,-1,-1],"split_conditions":[1E0,1E0,1E0,1E0,1E0,1E0,1.5994816E-1,-1.5112364E-1,4.081772E-2,-1.3455602E-2,1.5160403E-1,1.5933808E-2,1E0,1.3317301E-2,1.593713E-1],"split_indices":[8,5,3,10,13,7,0,0,0,0,0,0,9,0,0],"split_type":[0,0,0,0,0,0,0,0,0,0,0,0,0,0,0],"sum_hessian":[1.0088089E2,6.3659966E1,3.7220924E1,4.7639984E1,1.6019978E1,2.0764257E1,1.6456665E1,3.990695E1,7.733032E0,8.24802E0,7.7719584E0,5.7380757E0,1.5026182E1,5.226815E0,9.799367E0],"tree_param":{"num_deleted":"0","num_feature":"15","num_nodes":"15","size_leaf_vector":"1"}},{"base_weights":[1.1282229E-2,-6.580402E-1,1.1435816E0,-1.1086112E0,6.557956E-1,8.105267E-1,1.499369E-1,-1.4360377E-1,2.8070062E-2,-2.9544452E-2,1.3064478E-1,1.4456788E-1,4.8571998E-1,1.6015075E-2,6.670628E-2],"categories":[],"categories_nodes":[],"categories_segments":[],"categories_sizes":[],"default_left":[0,0,0,0,0,0,0,0,0,0,0,0,0,0,0],"id":3,"left_children":[1,3,5,7,9,11,-1,-1,-1,-1,-1,-1,13,-1,-1],"loss_changes":[7.625542E1,3.8168205E1,3.213768E0,2.199619E1,1.0771385E1,3.7295456E0,0E0,0E0,0E0,0E0,0E0,0E0,8.2123375E-1,0E0,0E0],"parents":[2147483647,0,0,1,1,2,2,3,3,4,4,5,5,12,12],"right_children":[2,4,6,8,10,12,-1,-1,-1,-1,-1,-1,14,-1,-1],"split_conditions":[1E0,1E0,1E0,1E0,1E0,1E0,1.499369E-1,-1.4360377E-1,2.8070062E-2,-2.9544452E-2,1.3064478E-1,1.4456788E-1,1E0,1.6015075E-2,6.670628E-2],"split_indices":[8,5,3,9,7,2,0,0,0,0,0,0,12,0,0],"split_type":[0,0,0,0,0,0,0,0,0,0,0,0,0,0,0],"sum_hessian":[9.862469E1,6.2247765E1,3.6376923E1,4.646806E1,1.5779703E1,2.048185E1,1.5895071E1,3.7578182E1,8.889879E0,6.631099E0,9.148604E0,5.7625093E0,1.4719341E1,5.939374E0,8.779967E0],"tree_param":{"num_deleted":"0","num_feature":"15","num_nodes":"15","size_leaf_vector":"1"}},{"base_weights":[1.3959849E-2,-6.0881317E-1,1.0681686E0,-1.0319649E0,6.039372E-1,7.555211E-1,1.441038E-1,-1.3308431E0,4.0785637E-2,-1.570036E-2,1.373409E-1,3.4828826E-3,9.9258703E-1,-1.4335741E-1,-9.439809E-2,2.0813486E-2,1.4618556E-1],"categories":[],"categories_nodes":[],"categories_segments":[],"categories_sizes":[],"default_left":[0,0,0,0,0,0,0,0,0,0,0,0,0,0,0,0,0],"id":4,"left_children":[1,3,5,7,9,11,-1,13,-1,-1,-1,-1,15,-1,-1,-1,-1],"loss_changes":[6.440812E1,3.227884E1,3.1578522E0,2.0380524E1,9.92754E0,3.7097893E0,0E0,1.7321014E-1,0E0,0E0,0E0,0E0,5.7530804E0,0E0,0E0,0E0,0E0],"parents":[2147483647,0,0,1,1,2,2,3,3,4,4,5,5,7,7,12,12],"right_children":[2,4,6,8,10,12,-1,14,-1,-1,-1,-1,16,-1,-1,-1,-1],"split_conditions":[1E0,1E0,1E0,1E0,1E0,1E0,1.441038E-1,1E0,4.0785637E-2,-1.570036E-2,1.373409E-1,3.4828826E-3,1E0,-1.4335741E-1,-9.439809E-2,2.0813486E-2,1.4618556E-1],"split_indices":[8,5,5,10,13,11,0,6,0,0,0,0,7,0,0,0,0],"split_type":[0,0,0,0,0,0,0,0,0,0,0,0,0,0,0,0,0],"sum_hessian":[9.61129E1,6.068549E1,3.5427414E1,4.5098747E1,1.55867405E1,2.091587E1,1.4511541E1,3.740906E1,7.689688E0,8.237012E0,7.3497295E0,5.4610186E0,1.5454853E1,2.7421625E1,9.987436E0,6.325078E0,9.129775E0],"tree_param":{"num_deleted":"0","num_feature":"15","num_nodes":"17","size_leaf_vector":"1"}},{"base_weights":[1.5429376E-2,-5.6729525E-1,1.0009028E0,-9.671572E-1,5.626726E-1,6.7994505E-1,1.3635285E-1,-1.2856841E-1,2.9645074E-2,-2.959007E-2,1.1744199E-1,1.2946701E-1,3.8080373E-1,5.5423588E-2,9.700116E-3],"categories":[],"categories_nodes":[],"categories_segments":[],"categories_sizes":[],"default_left":[0,0,0,0,0,0,0,0,0,0,0,0,0,0,0],"id":5,"left_children":[1,3,5,7,9,11,-1,-1,-1,-1,-1,-1,13,-1,-1],"loss_changes":[5.467814E1,2.7586775E1,3.1901016E0,1.8322357E1,8.8960905E0,3.3246078E0,0E0,0E0,0E0,0E0,0E0,0E0,7.033222E-1,0E0,0E0],"parents":[2147483647,0,0,1,1,2,2,3,3,4,4,5,5,12,12],"right_children":[2,4,6,8,10,12,-1,-1,-1,-1,-1,-1,14,-1,-1],"split_conditions":[1E0,1E0,1E0,1E0,1E0,1E0,1.3635285E-1,-1.2856841E-1,2.9645074E-2,-2.959007E-2,1.1744199E-1,1.2946701E-1,6.4E1,5.5423588E-2,9.700116E-3],"split_indices":[8,5,3,9,7,2,0,0,0,0,0,0,1,0,0],"split_type":[0,0,0,0,0,0,0,0,0,0,0,0,0,0,0],"sum_hessian":[9.3226234E1,5.8851086E1,3.4375153E1,4.3575207E1,1.5275879E1,1.9760405E1,1.4614748E1,3.4788372E1,8.786832E0,6.570556E0,8.705323E0,5.378932E0,1.4381474E1,8.3350315E0,6.0464416E0],"tree_param":{"num_deleted":"0","num_feature":"15","num_nodes":"15","size_leaf_vector":"1"}},{"base_weights":[1.764404E-2,-5.2861756E-1,9.416292E-1,-9.0768164E-1,5.20726E-1,6.321489E-1,1.304392E-1,-1.2017545E0,4.0230494E-2,-1.7277816E-2,1.2699372E-1,1.23199634E-1,3.4938326E-1,-1.3098054E-1,-8.096325E-2,5.0999667E-2,8.8789305E-3],"categories":[],"categories_nodes":[],"categories_segments":[],"categories_sizes":[],"default_left":[0,0,0,0,0,0,0,0,0,0,0,0,0,0,0,0,0],"id":6,"left_children":[1,3,5,7,9,11,-1,13,-1,-1,-1,-1,15,-1,-1,-1,-1],"loss_changes":[4.6560474E1,2.3540749E1,3.0225105E0,1.7036186E1,8.545998E0,3.0351334E0,0E0,4.369278E-1,0E0,0E0,0E0,0E0,5.9433866E-1,0E0,0E0,0E0,0E0],"parents":[2147483647,0,0,1,1,2,2,3,3,4,4,5,5,7,7,12,12],"right_children":[2,4,6,8,10,12,-1,14,-1,-1,-1,-1,16,-1,-1,-1,-1],"split_conditions":[1E0,1E0,1E0,1E0,1E0,1E0,1.304392E-1,1E0,4.0230494E-2,-1.7277816E-2,1.2699372E-1,1.23199634E-1,6.4E1,-1.3098054E-1,-8.096325E-2,5.0999667E-2,8.8789305E-3],"split_indices":[8,5,3,10,13,2,0,6,0,0,0,0,1,0,0,0,0],"split_type":[0,0,0,0,0,0,0,0,0,0,0,0,0,0,0,0,0],"sum_hessian":[9.026071E1,5.6993786E1,3.326693E1,4.196822E1,1.5025566E1,1.9431839E1,1.383509E1,3.434164E1,7.6265764E0,8.202418E0,6.823148E0,5.1499653E0,1.4281875E1,2.5088184E1,9.253457E0,8.243844E0,6.03803E0],"tree_param":{"num_deleted":"0","num_feature":"15","num_nodes":"17","size_leaf_vector":"1"}},{"base_weights":[1.9197343E-2,-4.9512625E-1,8.8822365E-1,-8.5602117E-1,4.8716885E-1,5.939419E-1,1.2719494E-1,-1.1737098E-1,3.0600881E-2,-1.5737496E-2,1.2147313E-1,2.7938592E-1,1.281994E-1,5.273216E-2,-1.47924945E-2],"categories":[],"categories_nodes":[],"categories_segments":[],"categories_sizes":[],"default_left":[0,0,0,0,0,0,0,0,0,0,0,0,0,0,0],"id":7,"left_children":[1,3,5,7,9,11,-1,-1,-1,-1,-1,13,-1,-1,-1],"loss_changes":[3.983116E1,2.0271711E1,2.9851131E0,1.5613476E1,7.5468054E0,4.1053705E0,0E0,0E0,0E0,0E0,0E0,1.7129264E0,0E0,0E0,0E0],"parents":[2147483647,0,0,1,1,2,2,3,3,4,4,5,5,11,11],"right_children":[2,4,6,8,10,12,-1,-1,-1,-1,-1,14,-1,-1,-1],"split_conditions":[1E0,1E0,1E0,1E0,1E0,7E1,1.2719494E-1,-1.1737098E-1,3.0600881E-2,-1.5737496E-2,1.2147313E-1,6.3E1,1.281994E-1,5.273216E-2,-1.47924945E-2],"split_indices":[8,5,5,9,13,1,0,0,0,0,0,1,0,0,0],"split_type":[0,0,0,0,0,0,0,0,0,0,0,0,0,0,0],"sum_hessian":[8.713163E1,5.5006744E1,3.212488E1,4.0321274E1,1.4685473E1,1.9623402E1,1.2501481E1,3.1656591E1,8.664681E0,8.202562E0,6.482911E0,1.443172E1,5.191681E0,8.984601E0,5.4471197E0],"tree_param":{"num_deleted":"0","num_feature":"15","num_nodes":"15","size_leaf_vector":"1"}},{"base_weights":[2.1449545E-2,-4.6314198E-1,8.37797E-1,-8.2227576E-1,4.5106566E-1,5.3611314E-1,1.2188559E-1,-1.0611903E-3,-9.9184877E-1,-3.240684E-2,1.263847E-1,-9.232331E-4,7.662047E-1,-1.1042154E0,-3.628985E-2,-7.2582536E-3,1.3007057E-1,-1.2314391E-1,-6.3250154E-2],"categories":[],"categories_nodes":[],"categories_segments":[],"categories_sizes":[],"default_left":[0,0,0,0,0,0,0,0,0,0,0,0,0,0,0,0,0,0,0],"id":8,"left_children":[1,3,5,7,9,11,-1,-1,13,-1,-1,-1,15,17,-1,-1,-1,-1,-1],"loss_changes":[3.4031345E1,1.8103678E1,3.0292377E0,5.375368E0,1.0413457E1,2.4745932E0,0E0,0E0,1.8861198E0,0E0,0E0,0E0,6.3000584E0,8.3929825E-1,0E0,0E0,0E0,0E0,0E0],"parents":[2147483647,0,0,1,1,2,2,3,3,4,4,5,5,8,8,12,12,13,13],"right_children":[2,4,6,8,10,12,-1,-1,14,-1,-1,-1,16,18,-1,-1,-1,-1,-1],"split_conditions":[1E0,1E0,1E0,1E0,1E0,1E0,1.2188559E-1,-1.0611903E-3,6.7E1,-3.240684E-2,1.263847E-1,-9.232331E-4,1E0,1E0,-3.628985E-2,-7.2582536E-3,1.3007057E-1,-1.2314391E-1,-6.3250154E-2],"split_indices":[8,13,3,0,12,11,0,0,1,0,0,0,7,6,0,0,0,0,0],"split_type":[0,0,0,0,0,0,0,0,0,0,0,0,0,0,0,0,0,0,0],"sum_hessian":[8.404485E1,5.3010178E1,3.1034676E1,3.8131363E1,1.4878817E1,1.8664732E1,1.2369944E1,6.7733235E0,3.135804E1,7.9235563E0,6.9552608E0,5.823112E0,1.28416195E1,2.596377E1,5.39427E0,5.334479E0,7.5071406E0,1.9180204E1,6.7835655E0],"tree_param":{"num_deleted":"0","num_feature":"15","num_nodes":"19","size_leaf_vector":"1"}},{"base_weights":[2.1552917E-2,-4.8639828E-1,7.2928053E-1,-9.48273E-1,7.814765E-1,4.66239E-2,1.3327068E-1,-1.0653104E0,-2.060367E-2,3.6475256E-2,1.1016931E-1,-4.0154606E-2,5.3049654E-2,-1.1804464E-1,-6.7242496E-2],"categories":[],"categories_nodes":[],"categories_segments":[],"categories_sizes":[],"default_left":[0,0,0,0,0,0,0,0,0,0,0,0,0,0,0],"id":9,"left_children":[1,3,5,7,9,11,-1,13,-1,-1,-1,-1,-1,-1,-1],"loss_changes":[2.9967445E1,2.9175007E1,1.4280844E1,2.9114494E0,1.4014034E0,3.9804988E0,0E0,6.036949E-1,0E0,0E0,0E0,0E0,0E0,0E0,0E0],"parents":[2147483647,0,0,1,1,2,2,3,3,4,4,5,5,7,7],"right_children":[2,4,6,8,10,12,-1,14,-1,-1,-1,-1,-1,-1,-1],"split_conditions":[1E0,1E0,1E0,1E0,1E0,1E0,1.3327068E-1,1E0,-2.060367E-2,3.6475256E-2,1.1016931E-1,-4.0154606E-2,5.3049654E-2,-1.1804464E-1,-6.7242496E-2],"split_indices":[10,5,7,8,13,6,0,6,0,0,0,0,0,0,0],"split_type":[0,0,0,0,0,0,0,0,0,0,0,0,0,0,0],"sum_hessian":[8.137402E1,4.75553E1,3.381872E1,3.5041935E1,1.2513367E1,1.6373095E1,1.744563E1,2.9893063E1,5.1488724E0,6.366805E0,6.146562E0,8.588469E0,7.7846255E0,2.1567963E1,8.3251E0],"tree_param":{"num_deleted":"0","num_feature":"15","num_nodes":"15","size_leaf_vector":"1"}},{"base_weights":[2.1209039E-2,-4.4475242E-1,7.19611E-1,-7.399719E-1,7.33242E-2,-9.481204E-2,1.1739325E-1,-1.1602815E-1,-4.345105E-2,5.9681483E-2,-6.96985E-2,-6.029907E-2,6.3139305E-2],"categories":[],"categories_nodes":[],"categories_segments":[],"categories_sizes":[],"default_left":[0,0,0,0,0,0,0,0,0,0,0,0,0],"id":10,"left_children":[1,3,5,7,-1,9,-1,-1,11,-1,-1,-1,-1],"loss_changes":[2.6159332E1,1.7320168E1,1.200972E1,1.1388632E1,0E0,5.5970945E0,0E0,0E0,6.3256984E0,0E0,0E0,0E0,0E0],"parents":[2147483647,0,0,1,1,2,2,3,3,5,5,8,8],"right_children":[2,4,6,8,-1,10,-1,-1,12,-1,-1,-1,-1],"split_conditions":[1E0,1E0,1E0,1E0,7.33242E-2,6.3E1,1.1739325E-1,-1.1602815E-1,1E0,5.9681483E-2,-6.96985E-2,-6.029907E-2,6.3139305E-2],"split_indices":[9,11,7,3,0,1,0,0,5,0,0,0,0],"split_type":[0,0,0,0,0,0,0,0,0,0,0,0,0],"sum_hessian":[7.8400826E1,4.7243786E1,3.1157038E1,3.807386E1,9.169926E0,1.1440302E1,1.9716736E1,2.332984E1,1.4744021E1,5.328799E0,6.1115036E0,8.118844E0,6.6251774E0],"tree_param":{"num_deleted":"0","num_feature":"15","num_nodes":"13","size_leaf_vector":"1"}},{"base_weights":[2.0555256E-2,-4.0409005E-1,7.3488706E-1,-7.3168886E-1,4.0942428E-1,4.312972E-1,1.1448779E-1,-5.0688493E-3,-8.8512725E-1,-2.6327876E-2,1.1473479E-1,-6.4057633E-3,6.5169734E-1,-1.0469147E0,-4.465346E-2,-4.372684E-3,1.1546221E-1,-1.271577E-1,-8.073836E-2],"categories":[],"categories_nodes":[],"categories_segments":[],"categories_sizes":[],"default_left":[0,0,0,0,0,0,0,0,0,0,0,0,0,0,0,0,0,0,0],"id":11,"left_children":[1,3,5,7,9,11,-1,-1,13,-1,-1,-1,15,17,-1,-1,-1,-1,-1],"loss_changes":[2.3581665E1,1.3301829E1,3.112568E0,3.6269932E0,7.573168E0,2.034374E0,0E0,0E0,1.5632038E0,0E0,0E0,0E0,4.499555E0,5.835724E-2,0E0,0E0,0E0,0E0,0E0],"parents":[2147483647,0,0,1,1,2,2,3,3,4,4,5,5,8,8,12,12,13,13],"right_children":[2,4,6,8,10,12,-1,-1,14,-1,-1,-1,16,18,-1,-1,-1,-1,-1],"split_conditions":[1E0,1E0,1E0,1E0,1E0,1E0,1.1448779E-1,-5.0688493E-3,1E0,-2.6327876E-2,1.1473479E-1,-6.4057633E-3,1E0,1E0,-4.465346E-2,-4.372684E-3,1.1546221E-1,-1.271577E-1,-8.073836E-2],"split_indices":[8,13,3,0,12,11,0,0,6,0,0,0,7,7,0,0,0,0,0],"split_type":[0,0,0,0,0,0,0,0,0,0,0,0,0,0,0,0,0,0,0],"sum_hessian":[7.5761665E1,4.77878E1,2.7973867E1,3.4140247E1,1.3647552E1,1.7251472E1,1.0722395E1,6.522409E0,2.761784E1,7.4757524E0,6.1717997E0,5.5306215E0,1.1720852E1,1.916229E1,8.455549E0,5.3022156E0,6.4186363E0,7.664735E0,1.1497556E1],"tree_param":{"num_deleted":"0","num_feature":"15","num_nodes":"19","size_leaf_vector":"1"}},{"base_weights":[2.016997E-2,-4.344845E-1,6.3374954E-1,-8.541432E-1,6.8412185E-1,4.3974824E-2,1.21003106E-1,-1.0362091E-1,-4.9319157E-1,9.787758E-2,2.7780175E-2,-3.5090595E-2,4.812484E-2,-7.0391305E-2,-1.671244E-2],"categories":[],"categories_nodes":[],"categories_segments":[],"categories_sizes":[],"default_left":[0,0,0,0,0,0,0,0,0,0,0,0,0,0,0],"id":12,"left_children":[1,3,5,7,9,11,-1,-1,13,-1,-1,-1,-1,-1,-1],"loss_changes":[2.1008802E1,2.0902817E1,1.0836185E1,1.5866089E0,1.2082925E0,3.082174E0,0E0,0E0,7.4881244E-1,0E0,0E0,0E0,0E0,0E0,0E0],"parents":[2147483647,0,0,1,1,2,2,3,3,4,4,5,5,8,8],"right_children":[2,4,6,8,10,12,-1,-1,14,-1,-1,-1,-1,-1,-1],"split_conditions":[1E0,1E0,1E0,1E0,1E0,1E0,1.21003106E-1,-1.0362091E-1,6.2E1,9.787758E-2,2.7780175E-2,-3.5090595E-2,4.812484E-2,-7.0391305E-2,-1.671244E-2],"split_indices":[10,5,7,6,14,6,0,0,1,0,0,0,0,0,0],"split_type":[0,0,0,0,0,0,0,0,0,0,0,0,0,0,0],"sum_hessian":[7.332232E1,4.228303E1,3.103929E1,3.0919594E1,1.1363438E1,1.58719845E1,1.5167305E1,1.9309175E1,1.1610418E1,5.7701674E0,5.59327E0,8.444066E0,7.427918E0,6.3487377E0,5.2616806E0],"tree_param":{"num_deleted":"0","num_feature":"15","num_nodes":"15","size_leaf_vector":"1"}},{"base_weights":[1.9874843E-2,-3.9453843E-1,6.416912E-1,-6.666331E-1,6.827884E-2,-5.5649463E-2,1.0641855E-1,-1.07081614E-1,-2.6685974E-2,5.8205884E-2,-6.0683526E-2,-5.183379E-2,5.5881232E-2],"categories":[],"categories_nodes":[],"categories_segments":[],"categories_sizes":[],"default_left":[0,0,0,0,0,0,0,0,0,0,0,0,0],"id":13,"left_children":[1,3,5,7,-1,9,-1,-1,11,-1,-1,-1,-1],"loss_changes":[1.8752567E1,1.3264718E1,8.630127E0,9.126077E0,0E0,4.5451145E0,0E0,0E0,4.528778E0,0E0,0E0,0E0,0E0],"parents":[2147483647,0,0,1,1,2,2,3,3,5,5,8,8],"right_children":[2,4,6,8,-1,10,-1,-1,12,-1,-1,-1,-1],"split_conditions":[1E0,1E0,1E0,1E0,6.827884E-2,6.3E1,1.0641855E-1,-1.07081614E-1,1E0,5.8205884E-2,-6.0683526E-2,-5.183379E-2,5.5881232E-2],"split_indices":[9,11,7,3,0,1,0,0,5,0,0,0,0],"split_type":[0,0,0,0,0,0,0,0,0,0,0,0,0],"sum_hessian":[7.0789635E1,4.2698483E1,2.8091154E1,3.4393192E1,8.305289E0,1.0925894E1,1.716526E1,2.0666922E1,1.3726272E1,5.039409E0,5.886484E0,7.523434E0,6.2028375E0],"tree_param":{"num_deleted":"0","num_feature":"15","num_nodes":"13","size_leaf_vector":"1"}},{"base_weights":[1.9454412E-2,-3.6120683E-1,6.616289E-1,-6.668015E-1,3.8068074E-1,3.5906297E-1,1.0926508E-1,-8.9013207E-1,-2.0154801E-1,-2.0875258E-2,1.0615736E-1,-7.852549E-3,5.6363934E-1,-1.0791593E-1,-5.4855574E-2,4.8804427E-3,-4.1912906E-2,-2.1767511E-3,1.0502473E-1],"categories":[],"categories_nodes":[],"categories_segments":[],"categories_sizes":[],"default_left":[0,0,0,0,0,0,0,0,0,0,0,0,0,0,0,0,0,0,0],"id":14,"left_children":[1,3,5,7,9,11,-1,13,15,-1,-1,-1,17,-1,-1,-1,-1,-1,-1],"loss_changes":[1.7191336E1,1.0271679E1,3.0195398E0,3.1101236E0,5.6508074E0,1.5536706E0,0E0,7.702694E-1,6.5019035E-1,0E0,0E0,0E0,3.330668E0,0E0,0E0,0E0,0E0,0E0,0E0],"parents":[2147483647,0,0,1,1,2,2,3,3,4,4,5,5,7,7,8,8,12,12],"right_children":[2,4,6,8,10,12,-1,14,16,-1,-1,-1,18,-1,-1,-1,-1,-1,-1],"split_conditions":[1E0,1E0,1E0,6.3E1,1E0,1E0,1.0926508E-1,1E0,1E0,-2.0875258E-2,1.0615736E-1,-7.852549E-3,1E0,-1.0791593E-1,-5.4855574E-2,4.8804427E-3,-4.1912906E-2,-2.1767511E-3,1.0502473E-1],"split_indices":[8,13,3,1,12,11,0,2,2,0,0,0,7,0,0,0,0,0,0],"split_type":[0,0,0,0,0,0,0,0,0,0,0,0,0,0,0,0,0,0,0],"sum_hessian":[6.834869E1,4.3186554E1,2.5162134E1,3.06589E1,1.2527654E1,1.5861109E1,9.301024E0,2.0098175E1,1.0560724E1,7.086471E0,5.4411826E0,5.2492113E0,1.0611897E1,1.154813E1,8.550045E0,5.2712407E0,5.2894835E0,5.2505565E0,5.361341E0],"tree_param":{"num_deleted":"0","num_feature":"15","num_nodes":"19","size_leaf_vector":"1"}},{"base_weights":[1.9800311E-2,-3.9089438E-1,5.625194E-1,-7.7066714E-1,5.87634E-1,4.9117636E-2,1.1207254E-1,-9.616769E-2,-4.08944E-2,8.9666605E-2,1.9914431E-2,-3.1047994E-2,4.5745816E-2],"categories":[],"categories_nodes":[],"categories_segments":[],"categories_sizes":[],"default_left":[0,0,0,0,0,0,0,0,0,0,0,0,0],"id":15,"left_children":[1,3,5,7,9,11,-1,-1,-1,-1,-1,-1,-1],"loss_changes":[1.51951E1,1.4884605E1,8.356536E0,1.5696125E0,1.1931133E0,2.5406382E0,0E0,0E0,0E0,0E0,0E0,0E0,0E0],"parents":[2147483647,0,0,1,1,2,2,3,3,4,4,5,5],"right_children":[2,4,6,8,10,12,-1,-1,-1,-1,-1,-1,-1],"split_conditions":[1E0,1E0,1E0,1E0,1E0,1E0,1.1207254E-1,-9.616769E-2,-4.08944E-2,8.9666605E-2,1.9914431E-2,-3.1047994E-2,4.5745816E-2],"split_indices":[10,5,7,6,14,6,0,0,0,0,0,0,0],"split_type":[0,0,0,0,0,0,0,0,0,0,0,0,0],"sum_hessian":[6.618602E1,3.783482E1,2.8351198E1,2.7409464E1,1.0425356E1,1.5335027E1,1.3016171E1,1.6852053E1,1.0557411E1,5.077931E0,5.3474255E0,8.281622E0,7.0534043E0],"tree_param":{"num_deleted":"0","num_feature":"15","num_nodes":"13","size_leaf_vector":"1"}},{"base_weights":[2.011303E-2,-3.2885996E-1,6.12017E-1,-6.185355E-1,3.6412254E-1,3.1001675E-1,1.0611885E-1,-7.962477E-1,-8.9523895E-3,-2.9163572E-3,8.1079155E-2,-1.0145399E-2,5.1113594E-2,-1.0357586E-1,-5.7132417E-1,-6.8205476E-2,-3.197011E-2],"categories":[],"categories_nodes":[],"categories_segments":[],"categories_sizes":[],"default_left":[0,0,0,0,0,0,0,0,0,0,0,0,0,0,0,0,0],"id":16,"left_children":[1,3,5,7,9,11,-1,13,-1,-1,-1,-1,-1,-1,15,-1,-1],"loss_changes":[1.3611312E1,8.554401E0,2.9847984E0,2.7144232E0,2.2829013E0,1.3776096E0,0E0,5.963154E-1,0E0,0E0,0E0,0E0,0E0,0E0,1.6096735E-1,0E0,0E0],"parents":[2147483647,0,0,1,1,2,2,3,3,4,4,5,5,7,7,14,14],"right_children":[2,4,6,8,10,12,-1,14,-1,-1,-1,-1,-1,-1,16,-1,-1],"split_conditions":[1E0,1E0,1E0,6.5E1,6.2E1,1E0,1.0611885E-1,1E0,-8.9523895E-3,-2.9163572E-3,8.1079155E-2,-1.0145399E-2,5.1113594E-2,-1.0357586E-1,6E1,-6.8205476E-2,-3.197011E-2],"split_indices":[8,13,3,1,1,11,0,7,0,0,0,0,0,0,1,0,0],"split_type":[0,0,0,0,0,0,0,0,0,0,0,0,0,0,0,0,0],"sum_hessian":[6.39213E1,4.0492344E1,2.3428955E1,2.8631456E1,1.1860888E1,1.5020276E1,8.408678E0,2.105368E1,7.577776E0,6.8044066E0,5.056481E0,5.093997E0,9.926279E0,8.45035E0,1.2603331E1,7.5640397E0,5.0392914E0],"tree_param":{"num_deleted":"0","num_feature":"15","num_nodes":"17","size_leaf_vector":"1"}},{"base_weights":[1.897145E-2,-3.4003663E-1,5.55634E-1,-5.9146893E-1,6.569179E-2,-5.9703924E-2,9.6760504E-2,-9.674469E-2,-3.1486437E-2,1.2011252E-3,-1.2437642E-2,-4.6898417E-2,4.9429443E-2],"categories":[],"categories_nodes":[],"categories_segments":[],"categories_sizes":[],"default_left":[0,0,0,0,0,0,0,0,0,0,0,0,0],"id":17,"left_children":[1,3,5,7,-1,9,-1,-1,11,-1,-1,-1,-1],"loss_changes":[1.238746E1,1.0053406E1,6.587371E0,6.563118E0,0E0,5.3769756E-2,0E0,0E0,3.3633924E0,0E0,0E0,0E0,0E0],"parents":[2147483647,0,0,1,1,2,2,3,3,5,5,8,8],"right_children":[2,4,6,8,-1,10,-1,-1,12,-1,-1,-1,-1],"split_conditions":[1E0,1E0,1E0,1E0,6.569179E-2,1E0,9.6760504E-2,-9.674469E-2,1E0,1.2011252E-3,-1.2437642E-2,-4.6898417E-2,4.9429443E-2],"split_indices":[9,11,7,3,0,14,0,0,5,0,0,0,0],"split_type":[0,0,0,0,0,0,0,0,0,0,0,0,0],"sum_hessian":[6.231429E1,3.7556633E1,2.4757656E1,3.0317318E1,7.2393146E0,1.0271206E1,1.448645E1,1.7703423E1,1.2613895E1,5.256529E0,5.0146775E0,6.943933E0,5.669963E0],"tree_param":{"num_deleted":"0","num_feature":"15","num_nodes":"13","size_leaf_vector":"1"}},{"base_weights":[1.8522678E-2,-3.47491E-1,4.93683E-1,-6.965708E-1,5.18151E-2,4.1896474E-2,1.0817116E-1,-8.9582525E-2,-3.3988096E-2,-3.2494064E-2,4.465092E-2],"categories":[],"categories_nodes":[],"categories_segments":[],"categories_sizes":[],"default_left":[0,0,0,0,0,0,0,0,0,0,0],"id":18,"left_children":[1,3,5,7,-1,9,-1,-1,-1,-1,-1],"loss_changes":[1.0828128E1,1.0997456E1,7.147527E0,1.5086203E0,0E0,2.5721028E0,0E0,0E0,0E0,0E0,0E0],"parents":[2147483647,0,0,1,1,2,2,3,3,5,5],"right_children":[2,4,6,8,-1,10,-1,-1,-1,-1,-1],"split_conditions":[1E0,1E0,1E0,1E0,5.18151E-2,1E0,1.0817116E-1,-8.9582525E-2,-3.3988096E-2,-3.2494064E-2,4.465092E-2],"split_indices":[10,5,12,6,0,5,0,0,0,0,0],"split_type":[0,0,0,0,0,0,0,0,0,0,0],"sum_hessian":[6.027457E1,3.4199528E1,2.6075043E1,2.4510649E1,9.68888E0,1.5351569E1,1.0723473E1,1.4756091E1,9.754557E0,8.154921E0,7.196649E0],"tree_param":{"num_deleted":"0","num_feature":"15","num_nodes":"11","size_leaf_vector":"1"}},{"base_weights":[1.8104777E-2,-2.9799706E-1,5.537354E-1,-5.6970185E-1,3.3631995E-2,2.546764E-1,1.02611795E-1,-7.432957E-1,-6.7127696E-3,9.6659857E-4,3.9009776E-2,-9.79714E-2,-5.0633002E-2],"categories":[],"categories_nodes":[],"categories_segments":[],"categories_sizes":[],"default_left":[0,0,0,0,0,0,0,0,0,0,0,0,0],"id":19,"left_children":[1,3,5,7,-1,9,-1,11,-1,-1,-1,-1,-1],"loss_changes":[1.0214389E1,6.736636E0,2.8999677E0,2.3020773E0,0E0,4.950124E-1,0E0,6.2093925E-1,0E0,0E0,0E0,0E0,0E0],"parents":[2147483647,0,0,1,1,2,2,3,3,5,5,7,7],"right_children":[2,4,6,8,-1,10,-1,12,-1,-1,-1,-1,-1],"split_conditions":[1E0,1E0,1E0,6.5E1,3.3631995E-2,1E0,1.02611795E-1,1E0,-6.7127696E-3,9.6659857E-4,3.9009776E-2,-9.79714E-2,-5.0633002E-2],"split_indices":[8,13,3,1,0,7,0,7,0,0,0,0,0],"split_type":[0,0,0,0,0,0,0,0,0,0,0,0,0],"sum_hessian":[5.8353558E1,3.6975914E1,2.1377645E1,2.595861E1,1.1017304E1,1.40328E1,7.3448443E0,1.8938198E1,7.0204115E0,5.376597E0,8.656203E0,7.9110317E0,1.1027166E1],"tree_param":{"num_deleted":"0","num_feature":"15","num_nodes":"13","size_leaf_vector":"1"}},{"base_weights":[1.7176589E-2,-3.0772942E-1,5.020063E-1,-5.4390883E-1,6.249812E-2,-4.2416723E-3,8.948954E-2,-9.021448E-2,-3.5908952E-2,-4.2111315E-2,4.3185767E-2],"categories":[],"categories_nodes":[],"categories_segments":[],"categories_sizes":[],"default_left":[0,0,0,0,0,0,0,0,0,0,0],"id":20,"left_children":[1,3,5,7,-1,-1,-1,-1,9,-1,-1],"loss_changes":[9.292234E0,8.127661E0,5.0979176E0,5.198579E0,0E0,0E0,0E0,0E0,2.5114348E0,0E0,0E0],"parents":[2147483647,0,0,1,1,2,2,3,3,8,8],"right_children":[2,4,6,8,-1,-1,-1,-1,10,-1,-1],"split_conditions":[1E0,1E0,1E0,1E0,6.249812E-2,-4.2416723E-3,8.948954E-2,-9.021448E-2,1E0,-4.2111315E-2,4.3185767E-2],"split_indices":[9,11,7,3,0,0,0,0,5,0,0],"split_type":[0,0,0,0,0,0,0,0,0,0,0],"sum_hessian":[5.70086E1,3.4352642E1,2.2655956E1,2.7744164E1,6.6084785E0,9.870514E0,1.2785442E1,1.5815422E1,1.1928741E1,6.596381E0,5.3323603E0],"tree_param":{"num_deleted":"0","num_feature":"15","num_nodes":"11","size_leaf_vector":"1"}},{"base_weights":[1.6943675E-2,-2.7239683E-1,5.121667E-1,-5.271113E-1,3.0553946E-2,2.2335748E-1,9.970447E-2,-6.944813E-1,-5.404608E-3,3.776807E-2,4.6538954E-4,-9.2523865E-2,-4.541632E-2],"categories":[],"categories_nodes":[],"categories_segments":[],"categories_sizes":[],"default_left":[0,0,0,0,0,0,0,0,0,0,0,0,0],"id":21,"left_children":[1,3,5,7,-1,9,-1,11,-1,-1,-1,-1,-1],"loss_changes":[8.195548E0,5.481324E0,2.729518E0,1.9776883E0,0E0,4.876588E-1,0E0,6.176977E-1,0E0,0E0,0E0,0E0,0E0],"parents":[2147483647,0,0,1,1,2,2,3,3,5,5,7,7],"right_children":[2,4,6,8,-1,10,-1,12,-1,-1,-1,-1,-1],"split_conditions":[1E0,1E0,1E0,6.5E1,3.0553946E-2,6.4E1,9.970447E-2,1E0,-5.404608E-3,3.776807E-2,4.6538954E-4,-9.2523865E-2,-4.541632E-2],"split_indices":[8,13,3,1,0,1,0,7,0,0,0,0,0],"split_type":[0,0,0,0,0,0,0,0,0,0,0,0,0],"sum_hessian":[5.5222656E1,3.514101E1,2.0081644E1,2.4452139E1,1.0688873E1,1.3500784E1,6.58086E0,1.7716139E1,6.7359996E0,7.489255E0,6.0115285E0,7.583899E0,1.013224E1],"tree_param":{"num_deleted":"0","num_feature":"15","num_nodes":"13","size_leaf_vector":"1"}},{"base_weights":[1.6148867E-2,-2.8425953E-1,4.6385345E-1,-5.1225245E-1,6.0298264E-2,-4.5265043E-3,8.51392E-2,-8.526025E-2,-4.692249E-2,-4.1558962E-2,4.103505E-2],"categories":[],"categories_nodes":[],"categories_segments":[],"categories_sizes":[],"default_left":[0,0,0,0,0,0,0,0,0,0,0],"id":22,"left_children":[1,3,5,7,-1,-1,-1,-1,9,-1,-1],"loss_changes":[7.537212E0,7.099766E0,4.4758625E0,4.275479E0,0E0,0E0,0E0,0E0,2.2894475E0,0E0,0E0],"parents":[2147483647,0,0,1,1,2,2,3,3,8,8],"right_children":[2,4,6,8,-1,-1,-1,-1,10,-1,-1],"split_conditions":[1E0,1E0,1E0,1E0,6.0298264E-2,-4.5265043E-3,8.51392E-2,-8.526025E-2,1E0,-4.1558962E-2,4.103505E-2],"split_indices":[9,11,7,3,0,0,0,0,5,0,0],"split_type":[0,0,0,0,0,0,0,0,0,0,0],"sum_hessian":[5.406079E1,3.2570896E1,2.1489897E1,2.6248512E1,6.3223834E0,9.669735E0,1.1820161E1,1.4679459E1,1.1569053E1,6.455551E0,5.113502E0],"tree_param":{"num_deleted":"0","num_feature":"15","num_nodes":"11","size_leaf_vector":"1"}},{"base_weights":[1.5963485E-2,-2.2131036E-1,5.5482006E-1,-4.8925883E-1,2.6403075E-1,9.118655E-3,1.0154279E-1,-6.823138E-1,1.2875644E-2,-3.2230567E-2,9.091955E-2,-8.3248034E-2,-4.089894E-2],"categories":[],"categories_nodes":[],"categories_segments":[],"categories_sizes":[],"default_left":[0,0,0,0,0,0,0,0,0,0,0,0,0],"id":23,"left_children":[1,3,5,7,9,-1,-1,11,-1,-1,-1,-1,-1],"loss_changes":[6.9549217E0,5.0468435E0,3.4569278E0,3.0365415E0,5.626968E0,0E0,0E0,4.3897247E-1,0E0,0E0,0E0,0E0,0E0],"parents":[2147483647,0,0,1,1,2,2,3,3,4,4,7,7],"right_children":[2,4,6,8,10,-1,-1,12,-1,-1,-1,-1,-1],"split_conditions":[1E0,1E0,1E0,1E0,1E0,9.118655E-3,1.0154279E-1,1E0,1.2875644E-2,-3.2230567E-2,9.091955E-2,-8.3248034E-2,-4.089894E-2],"split_indices":[13,10,5,5,12,0,0,6,0,0,0,0,0],"split_type":[0,0,0,0,0,0,0,0,0,0,0,0,0],"sum_hessian":[5.243593E1,3.681468E1,1.5621252E1,2.371433E1,1.3100347E1,8.382081E0,7.2391706E0,1.7990452E1,5.723879E0,7.1252394E0,5.975107E0,1.0290832E1,7.6996202E0],"tree_param":{"num_deleted":"0","num_feature":"15","num_nodes":"13","size_leaf_vector":"1"}},{"base_weights":[1.6245686E-2,-2.4613173E-1,4.6614105E-1,-4.7224155E-1,2.4756584E-2,1.869098E-1,9.675749E-2,-6.363203E-1,-2.3335402E-3,3.501784E-2,-3.3745577E-3,-8.625389E-2,-3.8979057E-2],"categories":[],"categories_nodes":[],"categories_segments":[],"categories_sizes":[],"default_left":[0,0,0,0,0,0,0,0,0,0,0,0,0],"id":24,"left_children":[1,3,5,7,-1,9,-1,11,-1,-1,-1,-1,-1],"loss_changes":[6.238374E0,3.847745E0,2.5431862E0,1.698895E0,0E0,5.066641E-1,0E0,6.119251E-1,0E0,0E0,0E0,0E0,0E0],"parents":[2147483647,0,0,1,1,2,2,3,3,5,5,7,7],"right_children":[2,4,6,8,-1,10,-1,12,-1,-1,-1,-1,-1],"split_conditions":[1E0,1E0,1E0,6.5E1,2.4756584E-2,6.4E1,9.675749E-2,1E0,-2.3335402E-3,3.501784E-2,-3.3745577E-3,-8.625389E-2,-3.8979057E-2],"split_indices":[8,13,3,1,0,1,0,7,0,0,0,0,0],"split_type":[0,0,0,0,0,0,0,0,0,0,0,0,0],"sum_hessian":[5.087664E1,3.2421467E1,1.8455173E1,2.2266867E1,1.01546E1,1.2735797E1,5.719377E0,1.6000916E1,6.265951E0,6.9823694E0,5.7534275E0,7.041151E0,8.9597645E0],"tree_param":{"num_deleted":"0","num_feature":"15","num_nodes":"13","size_leaf_vector":"1"}},{"base_weights":[1.5522245E-2,-2.5681272E-1,4.2105508E-1,-5.257301E-1,5.0124694E-2,8.013946E-2,1.01471804E-1,-7.169048E-1,2.0367568E-3,-4.3147825E-2,5.9701163E-2,-8.313944E-2,-4.2713236E-2],"categories":[],"categories_nodes":[],"categories_segments":[],"categories_sizes":[],"default_left":[0,0,0,0,0,0,0,0,0,0,0,0,0],"id":25,"left_children":[1,3,5,7,-1,9,-1,11,-1,-1,-1,-1,-1],"loss_changes":[5.7300634E0,6.598254E0,4.1344137E0,2.4602485E0,0E0,4.043674E0,0E0,2.2144985E-1,0E0,0E0,0E0,0E0,0E0],"parents":[2147483647,0,0,1,1,2,2,3,3,5,5,7,7],"right_children":[2,4,6,8,-1,10,-1,12,-1,-1,-1,-1,-1],"split_conditions":[1E0,6.4E1,1E0,1E0,5.0124694E-2,1E0,1.01471804E-1,1E0,2.0367568E-3,-4.3147825E-2,5.9701163E-2,-8.313944E-2,-4.2713236E-2],"split_indices":[9,1,6,5,0,7,0,6,0,0,0,0,0],"split_type":[0,0,0,0,0,0,0,0,0,0,0,0,0],"sum_hessian":[4.990449E1,3.007464E1,1.982985E1,2.242572E1,7.648919E0,1.3317286E1,6.512564E0,1.6379057E1,6.0466633E0,6.7756896E0,6.541596E0,1.0400624E1,5.978434E0],"tree_param":{"num_deleted":"0","num_feature":"15","num_nodes":"13","size_leaf_vector":"1"}},{"base_weights":[1.5284211E-2,-1.9879761E-1,5.072325E-1,-4.4098932E-1,2.3387203E-1,9.675902E-3,1.02620065E-1,-6.328307E-1,1.2714423E-2,-2.9515374E-2,8.521419E-2,-7.72188E-2,-3.893592E-2],"categories":[],"categories_nodes":[],"categories_segments":[],"categories_sizes":[],"default_left":[0,0,0,0,0,0,0,0,0,0,0,0,0],"id":26,"left_children":[1,3,5,7,9,-1,-1,11,-1,-1,-1,-1,-1],"loss_changes":[5.32671E0,3.8014448E0,3.1657896E0,2.5843973E0,4.6079803E0,0E0,0E0,2.8773737E-1,0E0,0E0,0E0,0E0,0E0],"parents":[2147483647,0,0,1,1,2,2,3,3,4,4,7,7],"right_children":[2,4,6,8,10,-1,-1,12,-1,-1,-1,-1,-1],"split_conditions":[1E0,1E0,1E0,1E0,1E0,9.675902E-3,1.02620065E-1,1E0,1.2714423E-2,-2.9515374E-2,8.521419E-2,-7.72188E-2,-3.893592E-2],"split_indices":[13,10,6,5,7,0,0,6,0,0,0,0,0],"split_type":[0,0,0,0,0,0,0,0,0,0,0,0,0],"sum_hessian":[4.8620327E1,3.4292923E1,1.4327402E1,2.197368E1,1.2319243E1,8.662396E0,5.665005E0,1.6341707E1,5.6319733E0,6.9203897E0,5.3988533E0,9.011923E0,7.3297844E0],"tree_param":{"num_deleted":"0","num_feature":"15","num_nodes":"13","size_leaf_vector":"1"}},{"base_weights":[1.5668998E-2,-2.2228551E-1,4.2690626E-1,-4.516434E-1,2.1176812E-1,4.659479E-3,5.813146E-1,-7.042103E-2,2.037929E-2,-9.4848574E-4,4.143674E-2,1.07102476E-1,1.0758241E-2],"categories":[],"categories_nodes":[],"categories_segments":[],"categories_sizes":[],"default_left":[0,0,0,0,0,0,0,0,0,0,0,0,0],"id":27,"left_children":[1,3,5,7,9,-1,11,-1,-1,-1,-1,-1,-1],"loss_changes":[4.82761E0,3.2111144E0,1.0340314E0,3.5858421E0,5.1942754E-1,0E0,2.846086E0,0E0,0E0,0E0,0E0,0E0,0E0],"parents":[2147483647,0,0,1,1,2,2,3,3,4,4,6,6],"right_children":[2,4,6,8,10,-1,12,-1,-1,-1,-1,-1,-1],"split_conditions":[1E0,1E0,1E0,1E0,6.3E1,4.659479E-3,6.4E1,-7.042103E-2,2.037929E-2,-9.4848574E-4,4.143674E-2,1.07102476E-1,1.0758241E-2],"split_indices":[8,5,10,9,1,0,1,0,0,0,0,0,0],"split_type":[0,0,0,0,0,0,0,0,0,0,0,0,0],"sum_hessian":[4.7364193E1,3.0294397E1,1.7069798E1,1.9794355E1,1.0500042E1,5.3050632E0,1.1764734E1,1.4234713E1,5.559642E0,5.474585E0,5.025457E0,5.1648555E0,6.599879E0],"tree_param":{"num_deleted":"0","num_feature":"15","num_nodes":"13","size_leaf_vector":"1"}},{"base_weights":[1.6727747E-2,-1.8838744E-1,4.8922628E-1,-4.207184E-1,1.8428624E-1,7.0224367E-3,9.6029125E-2,-7.245517E-2,-1.8468809E-1,-1.0852905E-3,3.0838061E-2,-3.5526983E-2,5.529033E-3],"categories":[],"categories_nodes":[],"categories_segments":[],"categories_sizes":[],"default_left":[0,0,0,0,0,0,0,0,0,0,0,0,0],"id":28,"left_children":[1,3,5,7,9,-1,-1,-1,11,-1,-1,-1,-1],"loss_changes":[4.6672115E0,2.990087E0,2.807832E0,1.3740027E0,3.3299807E-1,0E0,0E0,0E0,5.589808E-1,0E0,0E0,0E0,0E0],"parents":[2147483647,0,0,1,1,2,2,3,3,4,4,8,8],"right_children":[2,4,6,8,10,-1,-1,-1,12,-1,-1,-1,-1],"split_conditions":[1E0,1E0,1E0,1E0,1E0,7.0224367E-3,9.6029125E-2,-7.245517E-2,6.3E1,-1.0852905E-3,3.0838061E-2,-3.5526983E-2,5.529033E-3],"split_indices":[13,8,5,7,7,0,0,0,1,0,0,0,0],"split_type":[0,0,0,0,0,0,0,0,0,0,0,0,0],"sum_hessian":[4.6206005E1,3.2638626E1,1.3567379E1,2.0025486E1,1.261314E1,7.7886357E0,5.7787437E0,7.850318E0,1.2175169E1,5.257785E0,7.355355E0,6.8357496E0,5.339419E0],"tree_param":{"num_deleted":"0","num_feature":"15","num_nodes":"13","size_leaf_vector":"1"}},{"base_weights":[1.6230553E-2,-1.7456736E-1,4.6210173E-1,-3.049112E-1,4.1981902E-2,6.396743E-3,9.40286E-2,-6.3785635E-2,-4.2905174E-2,-4.4892155E-2,7.1068496E-2],"categories":[],"categories_nodes":[],"categories_segments":[],"categories_sizes":[],"default_left":[0,0,0,0,0,0,0,0,0,0,0],"id":29,"left_children":[1,3,5,7,-1,-1,-1,-1,9,-1,-1],"loss_changes":[4.018966E0,2.6960135E0,2.6333082E0,2.3946106E0,0E0,0E0,0E0,0E0,5.401045E0,0E0,0E0],"parents":[2147483647,0,0,1,1,2,2,3,3,8,8],"right_children":[2,4,6,8,-1,-1,-1,-1,10,-1,-1],"split_conditions":[1E0,6.9E1,1E0,1E0,4.1981902E-2,6.396743E-3,9.40286E-2,-6.3785635E-2,1E0,-4.4892155E-2,7.1068496E-2],"split_indices":[13,1,5,7,0,0,0,0,14,0,0],"split_type":[0,0,0,0,0,0,0,0,0,0,0],"sum_hessian":[4.529409E1,3.2146423E1,1.3147669E1,2.6764263E1,5.3821588E0,7.79301E0,5.354658E0,1.1154778E1,1.5609487E1,1.0406827E1,5.20266E0],"tree_param":{"num_deleted":"0","num_feature":"15","num_nodes":"11","size_leaf_vector":"1"}},{"base_weights":[1.7571267E-2,-2.255469E-1,3.7381038E-1,-6.798745E-1,2.811675E-1,-1.1576126E-1,1.13036685E-1,-1.0243993E-1,-3.095294E-2,-1.4313119E-2,6.603273E-2,-4.0482253E-2,2.0794308E-2],"categories":[],"categories_nodes":[],"categories_segments":[],"categories_sizes":[],"default_left":[0,0,0,0,0,0,0,0,0,0,0,0,0],"id":30,"left_children":[1,3,5,7,9,11,-1,-1,-1,-1,-1,-1,-1],"loss_changes":[4.006338E0,6.5311437E0,7.073866E0,1.5729423E0,2.3028052E0,1.2339548E0,0E0,0E0,0E0,0E0,0E0,0E0,0E0],"parents":[2147483647,0,0,1,1,2,2,3,3,4,4,5,5],"right_children":[2,4,6,8,10,12,-1,-1,-1,-1,-1,-1,-1],"split_conditions":[1E0,1E0,1E0,1E0,1E0,1E0,1.13036685E-1,-1.0243993E-1,-3.095294E-2,-1.4313119E-2,6.603273E-2,-4.0482253E-2,2.0794308E-2],"split_indices":[6,7,3,10,14,8,0,0,0,0,0,0,0],"split_type":[0,0,0,0,0,0,0,0,0,0,0,0,0],"sum_hessian":[4.4284702E1,2.6539488E1,1.7745214E1,1.3812903E1,1.2726584E1,1.1287806E1,6.457409E0,6.2409773E0,7.571926E0,6.299563E0,6.4270215E0,5.830604E0,5.4572015E0],"tree_param":{"num_deleted":"0","num_feature":"15","num_nodes":"13","size_leaf_vector":"1"}},{"base_weights":[1.6672311E-2,-2.1128403E-1,3.5299063E-1,-6.390343E-1,2.6204842E-1,-8.7188244E-2,1.15712605E-1,-9.895415E-2,-2.8282946E-2,-1.312106E-2,6.229335E-2,-3.0803457E-2,1.3314544E-2],"categories":[],"categories_nodes":[],"categories_segments":[],"categories_sizes":[],"default_left":[0,0,0,0,0,0,0,0,0,0,0,0,0],"id":31,"left_children":[1,3,5,7,9,11,-1,-1,-1,-1,-1,-1,-1],"loss_changes":[3.45465E0,5.61446E0,6.537811E0,1.5208464E0,1.9948682E0,6.581242E-1,0E0,0E0,0E0,0E0,0E0,0E0,0E0],"parents":[2147483647,0,0,1,1,2,2,3,3,4,4,5,5],"right_children":[2,4,6,8,10,12,-1,-1,-1,-1,-1,-1,-1],"split_conditions":[1E0,1E0,1E0,1E0,1E0,6.2E1,1.15712605E-1,-9.895415E-2,-2.8282946E-2,-1.312106E-2,6.229335E-2,-3.0803457E-2,1.3314544E-2],"split_indices":[6,7,14,10,14,1,0,0,0,0,0,0,0],"split_type":[0,0,0,0,0,0,0,0,0,0,0,0,0],"sum_hessian":[4.3088295E1,2.5903019E1,1.7185278E1,1.3422784E1,1.2480236E1,1.1682127E1,5.5031505E0,5.869326E0,7.5534577E0,6.2767916E0,6.203444E0,5.635489E0,6.0466375E0],"tree_param":{"num_deleted":"0","num_feature":"15","num_nodes":"13","size_leaf_vector":"1"}},{"base_weights":[1.6068941E-2,-1.6316868E-1,4.429294E-1,-3.6989194E-1,1.9410859E-1,5.4401457E-3,8.8369735E-2,-6.0892355E-1,3.005081E-3,4.2326964E-2,-3.2249254E-3,-8.634191E-2,-2.985518E-2],"categories":[],"categories_nodes":[],"categories_segments":[],"categories_sizes":[],"default_left":[0,0,0,0,0,0,0,0,0,0,0,0,0],"id":32,"left_children":[1,3,5,7,9,-1,-1,11,-1,-1,-1,-1,-1],"loss_changes":[3.3687499E0,2.3669329E0,2.1800227E0,1.9330828E0,6.3849574E-1,0E0,0E0,7.36186E-1,0E0,0E0,0E0,0E0,0E0],"parents":[2147483647,0,0,1,1,2,2,3,3,4,4,7,7],"right_children":[2,4,6,8,10,-1,-1,12,-1,-1,-1,-1,-1],"split_conditions":[1E0,1E0,1E0,1E0,6.4E1,5.4401457E-3,8.8369735E-2,6E1,3.005081E-3,4.2326964E-2,-3.2249254E-3,-8.634191E-2,-2.985518E-2],"split_indices":[13,10,9,3,1,0,0,1,0,0,0,0,0],"split_type":[0,0,0,0,0,0,0,0,0,0,0,0,0],"sum_hessian":[4.2085888E1,3.0075155E1,1.2010735E1,1.9029335E1,1.1045821E1,6.980761E0,5.0299735E0,1.1583662E1,7.445672E0,5.056643E0,5.9891777E0,5.3856797E0,6.197983E0],"tree_param":{"num_deleted":"0","num_feature":"15","num_nodes":"13","size_leaf_vector":"1"}},{"base_weights":[1.5194998E-2,-2.0255227E-1,3.37481E-1,-6.1237466E-1,2.5812536E-1,-1.2011396E-1,1.07721925E-1,-9.60467E-2,-2.7340228E-2,-1.0448034E-2,5.8581408E-2,-3.740951E-2,1.7436638E-2],"categories":[],"categories_nodes":[],"categories_segments":[],"categories_sizes":[],"default_left":[0,0,0,0,0,0,0,0,0,0,0,0,0],"id":33,"left_children":[1,3,5,7,9,11,-1,-1,-1,-1,-1,-1,-1],"loss_changes":[3.0451865E0,5.0554533E0,6.045987E0,1.3921833E0,1.5958838E0,9.401884E-1,0E0,0E0,0E0,0E0,0E0,0E0,0E0],"parents":[2147483647,0,0,1,1,2,2,3,3,4,4,5,5],"right_children":[2,4,6,8,10,12,-1,-1,-1,-1,-1,-1,-1],"split_conditions":[1E0,1E0,1E0,1E0,1E0,1E0,1.07721925E-1,-9.60467E-2,-2.7340228E-2,-1.0448034E-2,5.8581408E-2,-3.740951E-2,1.7436638E-2],"split_indices":[6,7,3,10,14,8,0,0,0,0,0,0,0],"split_type":[0,0,0,0,0,0,0,0,0,0,0,0,0],"sum_hessian":[4.141893E1,2.4940083E1,1.6478848E1,1.3024286E1,1.1915796E1,1.069849E1,5.7803564E0,5.5211377E0,7.503149E0,5.9798837E0,5.9359126E0,5.599081E0,5.0994096E0],"tree_param":{"num_deleted":"0","num_feature":"15","num_nodes":"13","size_leaf_vector":"1"}},{"base_weights":[1.4459703E-2,-1.5351845E-1,4.1896784E-1,-3.491737E-1,1.7733784E-1,1.17371455E-2,7.197143E-2,-6.0700666E-2,2.6494492E-4,2.6405323E-2,5.6552626E-3],"categories":[],"categories_nodes":[],"categories_segments":[],"categories_sizes":[],"default_left":[0,0,0,0,0,0,0,0,0,0,0],"id":34,"left_children":[1,3,5,7,9,-1,-1,-1,-1,-1,-1],"loss_changes":[2.8763661E0,2.0022306E0,1.0412793E0,1.7407384E0,1.08676344E-1,0E0,0E0,0E0,0E0,0E0,0E0],"parents":[2147483647,0,0,1,1,2,2,3,3,4,4],"right_children":[2,4,6,8,10,-1,-1,-1,-1,-1,-1],"split_conditions":[1E0,1E0,6.2E1,1E0,6.5E1,1.17371455E-2,7.197143E-2,-6.0700666E-2,2.6494492E-4,2.6405323E-2,5.6552626E-3],"split_indices":[13,10,1,6,1,0,0,0,0,0,0],"split_type":[0,0,0,0,0,0,0,0,0,0,0],"sum_hessian":[4.0384956E1,2.8973677E1,1.1411279E1,1.8172073E1,1.0801604E1,6.3917413E0,5.0195374E0,1.0068253E1,8.10382E0,5.5971217E0,5.204482E0],"tree_param":{"num_deleted":"0","num_feature":"15","num_nodes":"11","size_leaf_vector":"1"}},{"base_weights":[1.4477359E-2,-1.05322875E-1,5.508123E-2,5.198129E-2,-2.4807489E-1,-4.4796577E-1,2.696512E-2,-7.530903E-2,-1.6420378E-1,-5.151732E-2,2.8098753E-2],"categories":[],"categories_nodes":[],"categories_segments":[],"categories_sizes":[],"default_left":[0,0,0,0,0,0,0,0,0,0,0],"id":35,"left_children":[1,3,-1,-1,5,7,-1,-1,9,-1,-1],"loss_changes":[2.6857834E0,3.1871397E0,0E0,0E0,3.078052E0,1.6938596E0,0E0,0E0,2.0440273E0,0E0,0E0],"parents":[2147483647,0,0,1,1,4,4,5,5,8,8],"right_children":[2,4,-1,-1,6,8,-1,-1,10,-1,-1],"split_conditions":[6.9E1,5.7E1,5.508123E-2,5.198129E-2,1E0,1E0,2.696512E-2,-7.530903E-2,6.2E1,-5.151732E-2,2.8098753E-2],"split_indices":[1,1,0,0,13,7,0,0,1,0,0],"split_type":[0,0,0,0,0,0,0,0,0,0,0],"sum_hessian":[3.98972E1,3.3269478E1,6.6277223E0,5.6938324E0,2.7575647E1,1.9991713E1,7.5839353E0,8.83627E0,1.1155442E1,6.149919E0,5.005523E0],"tree_param":{"num_deleted":"0","num_feature":"15","num_nodes":"11","size_leaf_vector":"1"}},{"base_weights":[1.3931094E-2,-2.0164494E-1,3.0580848E-1,-4.0580305E-1,2.5964648E-2,-9.842734E-3,6.689651E-2,-6.2449634E-2,-1.1315941E-2],"categories":[],"categories_nodes":[],"categories_segments":[],"categories_sizes":[],"default_left":[0,0,0,0,0,0,0,0,0],"id":36,"left_children":[1,3,5,7,-1,-1,-1,-1,-1],"loss_changes":[2.5980544E0,2.34566E0,2.638079E0,1.0096574E0,0E0,0E0,0E0,0E0,0E0],"parents":[2147483647,0,0,1,1,2,2,3,3],"right_children":[2,4,6,8,-1,-1,-1,-1,-1],"split_conditions":[1E0,1E0,1E0,1E0,2.5964648E-2,-9.842734E-3,6.689651E-2,-6.2449634E-2,-1.1315941E-2],"split_indices":[11,5,7,6,0,0,0,0,0],"split_type":[0,0,0,0,0,0,0,0,0],"sum_hessian":[3.931021E1,2.2788286E1,1.6521925E1,1.5880286E1,6.908E0,8.163718E0,8.358206E0,8.439469E0,7.4408174E0],"tree_param":{"num_deleted":"0","num_feature":"15","num_nodes":"9","size_leaf_vector":"1"}},{"base_weights":[1.3086256E-2,-1.7836119E-1,3.0895618E-1,-4.1734704E-1,4.3621793E-2,6.704014E-2,-9.310485E-3,-6.81466E-2,-1.2396278E-2],"categories":[],"categories_nodes":[],"categories_segments":[],"categories_sizes":[],"default_left":[0,0,0,0,0,0,0,0,0],"id":37,"left_children":[1,3,5,7,-1,-1,-1,-1,-1],"loss_changes":[2.2965457E0,3.8038802E0,2.374776E0,1.3309236E0,0E0,0E0,0E0,0E0,0E0],"parents":[2147483647,0,0,1,1,2,2,3,3],"right_children":[2,4,6,8,-1,-1,-1,-1,-1],"split_conditions":[1E0,6.4E1,6.4E1,1E0,4.3621793E-2,6.704014E-2,-9.310485E-3,-6.81466E-2,-1.2396278E-2],"split_indices":[9,1,1,3,0,0,0,0,0],"split_type":[0,0,0,0,0,0,0,0,0],"sum_hessian":[3.857097E1,2.3659117E1,1.4911853E1,1.7265974E1,6.393142E0,7.5010977E0,7.4107556E0,8.390058E0,8.875917E0],"tree_param":{"num_deleted":"0","num_feature":"15","num_nodes":"9","size_leaf_vector":"1"}},{"base_weights":[1.237598E-2,-1.890846E-1,3.0736244E-1,-5.627737E-1,2.4938378E-1,-1.0857485E-2,1.0154022E-1,-7.6617874E-2,-2.6201805E-2,-7.1757413E-3,5.2200478E-2],"categories":[],"categories_nodes":[],"categories_segments":[],"categories_sizes":[],"default_left":[0,0,0,0,0,0,0,0,0,0,0],"id":38,"left_children":[1,3,5,7,9,-1,-1,-1,-1,-1,-1],"loss_changes":[2.379794E0,4.045325E0,4.891289E0,6.051569E-1,1.0581777E0,0E0,0E0,0E0,0E0,0E0,0E0],"parents":[2147483647,0,0,1,1,2,2,3,3,4,4],"right_children":[2,4,6,8,10,-1,-1,-1,-1,-1,-1],"split_conditions":[1E0,1E0,1E0,1E0,1E0,-1.0857485E-2,1.0154022E-1,-7.6617874E-2,-2.6201805E-2,-7.1757413E-3,5.2200478E-2],"split_indices":[6,7,3,9,14,0,0,0,0,0,0],"split_type":[0,0,0,0,0,0,0,0,0,0,0],"sum_hessian":[3.8066948E1,2.2832518E1,1.5234431E1,1.2173787E1,1.06587305E1,1.0130143E1,5.1042886E0,6.339074E0,5.834713E0,5.2321577E0,5.426573E0],"tree_param":{"num_deleted":"0","num_feature":"15","num_nodes":"11","size_leaf_vector":"1"}},{"base_weights":[1.2453579E-2,-1.3959989E-1,3.842261E-2,-3.1545898E-1,1.5414554E-2,-5.3344667E-2,5.792592E-3],"categories":[],"categories_nodes":[],"categories_segments":[],"categories_sizes":[],"default_left":[0,0,0,0,0,0,0],"id":39,"left_children":[1,3,-1,5,-1,-1,-1],"loss_changes":[2.2208881E0,1.4921172E0,0E0,1.4802918E0,0E0,0E0,0E0],"parents":[2147483647,0,0,1,1,3,3],"right_children":[2,4,-1,6,-1,-1,-1],"split_conditions":[1E0,1E0,3.842261E-2,1E0,1.5414554E-2,-5.3344667E-2,5.792592E-3],"split_indices":[13,10,0,3,0,0,0],"split_type":[0,0,0,0,0,0,0],"sum_hessian":[3.7338524E1,2.694332E1,1.0395206E1,1.6807255E1,1.0136063E1,1.034122E1,6.466036E0],"tree_param":{"num_deleted":"0","num_feature":"15","num_nodes":"7","size_leaf_vector":"1"}},{"base_weights":[1.1354557E-2,-1.8342558E-1,2.9994485E-1,-5.418075E-1,2.4516289E-1,7.286121E-3,5.9875216E-2,-7.377062E-2,-2.5543446E-2,-5.1641813E-3,4.931287E-2],"categories":[],"categories_nodes":[],"categories_segments":[],"categories_sizes":[],"default_left":[0,0,0,0,0,0,0,0,0,0,0],"id":40,"left_children":[1,3,5,7,9,-1,-1,-1,-1,-1,-1],"loss_changes":[2.1870816E0,3.706403E0,1.0192105E0,5.398643E-1,8.559054E-1,0E0,0E0,0E0,0E0,0E0,0E0],"parents":[2147483647,0,0,1,1,2,2,3,3,4,4],"right_children":[2,4,6,8,10,-1,-1,-1,-1,-1,-1],"split_conditions":[1E0,1E0,1E0,1E0,1E0,7.286121E-3,5.9875216E-2,-7.377062E-2,-2.5543446E-2,-5.1641813E-3,4.931287E-2],"split_indices":[6,7,4,9,14,0,0,0,0,0,0],"split_type":[0,0,0,0,0,0,0,0,0,0,0],"sum_hessian":[3.692921E1,2.2265692E1,1.4663521E1,1.1982153E1,1.0283538E1,9.038443E0,5.6250772E0,6.1791553E0,5.802998E0,5.041187E0,5.242351E0],"tree_param":{"num_deleted":"0","num_feature":"15","num_nodes":"11","size_leaf_vector":"1"}},{"base_weights":[1.0615678E-2,-1.6985324E-1,3.1344828E-1,-3.561582E-1,1.6974285E-2,4.4461396E-2,1.1711027E-2,-7.188235E-2,3.8987522E-3],"categories":[],"categories_nodes":[],"categories_segments":[],"categories_sizes":[],"default_left":[0,0,0,0,0,0,0,0,0],"id":41,"left_children":[1,3,5,7,-1,-1,-1,-1,-1],"loss_changes":[2.0997145E0,1.585963E0,3.1707096E-1,2.3055353E0,0E0,0E0,0E0,0E0,0E0],"parents":[2147483647,0,0,1,1,2,2,3,3],"right_children":[2,4,6,8,-1,-1,-1,-1,-1],"split_conditions":[1E0,1E0,6.4E1,1E0,1.6974285E-2,4.4461396E-2,1.1711027E-2,-7.188235E-2,3.8987522E-3],"split_indices":[8,6,1,7,0,0,0,0,0],"split_type":[0,0,0,0,0,0,0,0,0],"sum_hessian":[3.644564E1,2.3111675E1,1.3333966E1,1.48926735E1,8.219002E0,7.2356086E0,6.098357E0,7.3383703E0,7.5543027E0],"tree_param":{"num_deleted":"0","num_feature":"15","num_nodes":"9","size_leaf_vector":"1"}},{"base_weights":[9.585729E-3,-1.4398606E-1,3.940659E-2,-2.8516257E-1,1.8097414E-2,1.1137524E-3,-5.6630876E-2],"categories":[],"categories_nodes":[],"categories_segments":[],"categories_sizes":[],"default_left":[0,0,0,0,0,0,0],"id":42,"left_children":[1,3,-1,5,-1,-1,-1],"loss_changes":[2.2447424E0,1.3000067E0,0E0,1.6189578E0,0E0,0E0,0E0],"parents":[2147483647,0,0,1,1,3,3],"right_children":[2,4,-1,6,-1,-1,-1],"split_conditions":[1E0,1E0,3.940659E-2,1E0,1.8097414E-2,1.1137524E-3,-5.6630876E-2],"split_indices":[13,3,0,0,0,0,0],"split_type":[0,0,0,0,0,0,0],"sum_hessian":[3.6056328E1,2.6212036E1,9.844293E0,1.8358704E1,7.853331E0,9.406049E0,8.952655E0],"tree_param":{"num_deleted":"0","num_feature":"15","num_nodes":"7","size_leaf_vector":"1"}},{"base_weights":[8.621112E-3,-1.01761766E-1,4.91581E-2,4.54418E-2,-2.2834529E-1,-4.157592E-1,2.6587794E-2,-7.01047E-2,-1.3354513E-2],"categories":[],"categories_nodes":[],"categories_segments":[],"categories_sizes":[],"default_left":[0,0,0,0,0,0,0,0,0],"id":43,"left_children":[1,3,-1,-1,5,7,-1,-1,-1],"loss_changes":[2.0063946E0,2.2650774E0,0E0,0E0,2.4884913E0,1.436465E0,0E0,0E0,0E0],"parents":[2147483647,0,0,1,1,4,4,5,5],"right_children":[2,4,-1,-1,6,8,-1,-1,-1],"split_conditions":[6.9E1,5.7E1,4.91581E-2,4.54418E-2,1E0,1E0,2.6587794E-2,-7.01047E-2,-1.3354513E-2],"split_indices":[1,1,0,0,13,7,0,0,0],"split_type":[0,0,0,0,0,0,0,0,0],"sum_hessian":[3.569766E1,2.9699081E1,5.998577E0,5.026017E0,2.4673065E1,1.8004396E1,6.6686683E0,8.215411E0,9.788985E0],"tree_param":{"num_deleted":"0","num_feature":"15","num_nodes":"9","size_leaf_vector":"1"}},{"base_weights":[8.773516E-3,-1.608743E-1,2.9436165E-1,-3.4282437E-1,1.6816517E-2,4.2199377E-2,1.0514825E-2,-6.9632374E-2,4.079185E-3],"categories":[],"categories_nodes":[],"categories_segments":[],"categories_sizes":[],"default_left":[0,0,0,0,0,0,0,0,0],"id":44,"left_children":[1,3,5,7,-1,-1,-1,-1,-1],"loss_changes":[1.8063946E0,1.4599754E0,2.9090858E-1,2.1183925E0,0E0,0E0,0E0,0E0,0E0],"parents":[2147483647,0,0,1,1,2,2,3,3],"right_children":[2,4,6,8,-1,-1,-1,-1,-1],"split_conditions":[1E0,1E0,6.4E1,1E0,1.6816517E-2,4.2199377E-2,1.0514825E-2,-6.9632374E-2,4.079185E-3],"split_indices":[8,6,1,7,0,0,0,0,0],"split_type":[0,0,0,0,0,0,0,0,0],"sum_hessian":[3.530673E1,2.242331E1,1.2883419E1,1.4411976E1,8.011333E0,6.9590235E0,5.924396E0,7.076177E0,7.3357987E0],"tree_param":{"num_deleted":"0","num_feature":"15","num_nodes":"9","size_leaf_vector":"1"}},{"base_weights":[7.883081E-3,-1.307604E-1,3.5843644E-2,-2.7196032E-1,2.0068038E-2,1.5184762E-3,-5.4567218E-2],"categories":[],"categories_nodes":[],"categories_segments":[],"categories_sizes":[],"default_left":[0,0,0,0,0,0,0],"id":45,"left_children":[1,3,-1,5,-1,-1,-1],"loss_changes":[1.7941455E0,1.2945105E0,0E0,1.5019088E0,0E0,0E0,0E0],"parents":[2147483647,0,0,1,1,3,3],"right_children":[2,4,-1,6,-1,-1,-1],"split_conditions":[1E0,1E0,3.5843644E-2,1E0,2.0068038E-2,1.5184762E-3,-5.4567218E-2],"split_indices":[13,3,0,0,0,0,0],"split_type":[0,0,0,0,0,0,0],"sum_hessian":[3.4950752E1,2.5494637E1,9.456114E0,1.8004042E1,7.4905953E0,9.247361E0,8.7566805E0],"tree_param":{"num_deleted":"0","num_feature":"15","num_nodes":"7","size_leaf_vector":"1"}},{"base_weights":[7.0991456E-3,-9.6539885E-2,4.592758E-2,-2.6790768E-1,2.6892422E-2,-4.3062076E-1,8.125113E-3,-1.2476114E-2,-6.8408325E-2],"categories":[],"categories_nodes":[],"categories_segments":[],"categories_sizes":[],"default_left":[0,0,0,0,0,0,0,0,0],"id":46,"left_children":[1,3,-1,5,-1,7,-1,-1,-1],"loss_changes":[1.7136816E0,1.9387506E0,0E0,1.2162468E0,0E0,1.0264633E0,0E0,0E0,0E0],"parents":[2147483647,0,0,1,1,3,3,5,5],"right_children":[2,4,-1,6,-1,8,-1,-1,-1],"split_conditions":[6.9E1,1E0,4.592758E-2,1E0,2.6892422E-2,6.1E1,8.125113E-3,-1.2476114E-2,-6.8408325E-2],"split_indices":[1,5,0,6,0,1,0,0,0],"split_type":[0,0,0,0,0,0,0,0,0],"sum_hessian":[3.462166E1,2.880585E1,5.81581E0,1.9792154E1,9.013694E0,1.3341509E1,6.450647E0,6.7220573E0,6.619451E0],"tree_param":{"num_deleted":"0","num_feature":"15","num_nodes":"9","size_leaf_vector":"1"}},{"base_weights":[6.3846E-3,-1.825249E-1,2.628842E-1,-3.927527E-2,9.468862E-3,-5.048157E-3,5.572147E-2],"categories":[],"categories_nodes":[],"categories_segments":[],"categories_sizes":[],"default_left":[0,0,0,0,0,0,0],"id":47,"left_children":[1,3,5,-1,-1,-1,-1],"loss_changes":[1.7599078E0,1.2572894E0,1.4479818E0,0E0,0E0,0E0,0E0],"parents":[2147483647,0,0,1,1,2,2],"right_children":[2,4,6,-1,-1,-1,-1],"split_conditions":[1E0,1E0,1E0,-3.927527E-2,9.468862E-3,-5.048157E-3,5.572147E-2],"split_indices":[11,3,7,0,0,0,0],"split_type":[0,0,0,0,0,0,0],"sum_hessian":[3.4330044E1,1.993587E1,1.43941765E1,1.1100728E1,8.83514E0,7.3729167E0,7.02126E0],"tree_param":{"num_deleted":"0","num_feature":"15","num_nodes":"7","size_leaf_vector":"1"}},{"base_weights":[6.522745E-3,-1.5691102E-1,2.800841E-1,-3.3415484E-1,1.5914872E-2,4.090261E-2,9.040929E-3,-6.6629715E-2,3.709294E-3],"categories":[],"categories_nodes":[],"categories_segments":[],"categories_sizes":[],"default_left":[0,0,0,0,0,0,0,0,0],"id":48,"left_children":[1,3,5,7,-1,-1,-1,-1,-1],"loss_changes":[1.6026717E0,1.3117037E0,2.9069257E-1,1.8393551E0,0E0,0E0,0E0,0E0,0E0],"parents":[2147483647,0,0,1,1,2,2,3,3],"right_children":[2,4,6,8,-1,-1,-1,-1,-1],"split_conditions":[1E0,1E0,6.4E1,1E0,1.5914872E-2,4.090261E-2,9.040929E-3,-6.6629715E-2,3.709294E-3],"split_indices":[8,6,1,7,0,0,0,0,0],"split_type":[0,0,0,0,0,0,0,0,0],"sum_hessian":[3.3863625E1,2.1465754E1,1.2397871E1,1.3716434E1,7.749321E0,6.692091E0,5.70578E0,6.820037E0,6.896396E0],"tree_param":{"num_deleted":"0","num_feature":"15","num_nodes":"9","size_leaf_vector":"1"}},{"base_weights":[5.821555E-3,-1.298874E-1,3.521179E-2,-2.5998855E-1,1.801606E-2,7.880945E-4,-5.192098E-2],"categories":[],"categories_nodes":[],"categories_segments":[],"categories_sizes":[],"default_left":[0,0,0,0,0,0,0],"id":49,"left_children":[1,3,-1,5,-1,-1,-1],"loss_changes":[1.668846E0,1.0772238E0,0E0,1.2819442E0,0E0,0E0,0E0],"parents":[2147483647,0,0,1,1,3,3],"right_children":[2,4,-1,6,-1,-1,-1],"split_conditions":[1E0,1E0,3.521179E-2,1E0,1.801606E-2,7.880945E-4,-5.192098E-2],"split_indices":[13,3,0,0,0,0,0],"split_type":[0,0,0,0,0,0,0],"sum_hessian":[3.353756E1,2.4544012E1,8.993549E0,1.7402922E1,7.14109E0,9.035536E0,8.367385E0],"tree_param":{"num_deleted":"0","num_feature":"15","num_nodes":"7","size_leaf_vector":"1"}},{"base_weights":[5.2194097E-3,-9.246872E-2,4.334199E-2,-2.4435069E-1,2.3075202E-2,-4.008781E-1,8.77794E-3,-1.0407124E-2,-6.474456E-2],"categories":[],"categories_nodes":[],"categories_segments":[],"categories_sizes":[],"default_left":[0,0,0,0,0,0,0,0,0],"id":50,"left_children":[1,3,-1,5,-1,7,-1,-1,-1],"loss_changes":[1.472474E0,1.4656217E0,0E0,1.0757262E0,0E0,9.413371E-1,0E0,0E0,0E0],"parents":[2147483647,0,0,1,1,3,3,5,5],"right_children":[2,4,-1,6,-1,8,-1,-1,-1],"split_conditions":[6.9E1,1E0,4.334199E-2,1E0,2.3075202E-2,6.1E1,8.77794E-3,-1.0407124E-2,-6.474456E-2],"split_indices":[1,5,0,6,0,1,0,0,0],"split_type":[0,0,0,0,0,0,0,0,0],"sum_hessian":[3.3243183E1,2.7706398E1,5.536786E0,1.9015158E1,8.691241E0,1.2783509E1,6.2316475E0,6.446084E0,6.3374257E0],"tree_param":{"num_deleted":"0","num_feature":"15","num_nodes":"9","size_leaf_vector":"1"}},{"base_weights":[4.6755015E-3,-1.6982405E-1,2.4392031E-1,-3.6661588E-2,8.951145E-3,-3.6254872E-3,5.127864E-2],"categories":[],"categories_nodes":[],"categories_segments":[],"categories_sizes":[],"default_left":[0,0,0,0,0,0,0],"id":51,"left_children":[1,3,5,-1,-1,-1,-1],"loss_changes":[1.4604889E0,1.0660055E0,1.1294351E0,0E0,0E0,0E0,0E0],"parents":[2147483647,0,0,1,1,2,2],"right_children":[2,4,6,-1,-1,-1,-1],"split_conditions":[1E0,1E0,1E0,-3.6661588E-2,8.951145E-3,-3.6254872E-3,5.127864E-2],"split_indices":[11,3,7,0,0,0,0],"split_type":[0,0,0,0,0,0,0],"sum_hessian":[3.2991127E1,1.9244677E1,1.374645E1,1.0706545E1,8.538132E0,7.1553187E0,6.591131E0],"tree_param":{"num_deleted":"0","num_feature":"15","num_nodes":"7","size_leaf_vector":"1"}},{"base_weights":[4.9348264E-3,-1.5277928E-1,2.6741445E-1,-3.2538167E-1,1.5114029E-2,3.9646357E-2,7.864355E-3,-6.379659E-2,3.3491463E-3],"categories":[],"categories_nodes":[],"categories_segments":[],"categories_sizes":[],"default_left":[0,0,0,0,0,0,0,0,0],"id":52,"left_children":[1,3,5,7,-1,-1,-1,-1,-1],"loss_changes":[1.4309664E0,1.1829227E0,2.8471774E-1,1.6032448E0,0E0,0E0,0E0,0E0,0E0],"parents":[2147483647,0,0,1,1,2,2,3,3],"right_children":[2,4,6,8,-1,-1,-1,-1,-1],"split_conditions":[1E0,1E0,6.4E1,1E0,1.5114029E-2,3.9646357E-2,7.864355E-3,-6.379659E-2,3.3491463E-3],"split_indices":[8,6,1,7,0,0,0,0,0],"split_type":[0,0,0,0,0,0,0,0,0],"sum_hessian":[3.2580204E1,2.0612732E1,1.1967474E1,1.3101495E1,7.5112357E0,6.4546533E0,5.5128207E0,6.5866914E0,6.514804E0],"tree_param":{"num_deleted":"0","num_feature":"15","num_nodes":"9","size_leaf_vector":"1"}},{"base_weights":[4.3697064E-3,-1.2867817E-1,3.466878E-2,-2.4880597E-1,1.6196677E-2,1.7786035E-4,-4.943601E-2],"categories":[],"categories_nodes":[],"categories_segments":[],"categories_sizes":[],"default_left":[0,0,0,0,0,0,0],"id":53,"left_children":[1,3,-1,5,-1,-1,-1],"loss_changes":[1.5603682E0,9.025199E-1,0E0,1.1003067E0,0E0,0E0,0E0],"parents":[2147483647,0,0,1,1,3,3],"right_children":[2,4,-1,6,-1,-1,-1],"split_conditions":[1E0,1E0,3.466878E-2,1E0,1.6196677E-2,1.7786035E-4,-4.943601E-2],"split_indices":[13,3,0,0,0,0,0],"split_type":[0,0,0,0,0,0,0],"sum_hessian":[3.228065E1,2.3695198E1,8.585453E0,1.6867546E1,6.827652E0,8.839607E0,8.02794E0],"tree_param":{"num_deleted":"0","num_feature":"15","num_nodes":"7","size_leaf_vector":"1"}},{"base_weights":[3.900355E-3,-1.1833221E-1,3.1764578E-2,-2.7340317E-1,1.0277147E-2,-4.613911E-2,-5.6139415E-4],"categories":[],"categories_nodes":[],"categories_segments":[],"categories_sizes":[],"default_left":[0,0,0,0,0,0,0],"id":54,"left_children":[1,3,-1,5,-1,-1,-1],"loss_changes":[1.3037548E0,8.677193E-1,0E0,7.357433E-1,0E0,0E0,0E0],"parents":[2147483647,0,0,1,1,3,3],"right_children":[2,4,-1,6,-1,-1,-1],"split_conditions":[1E0,1E0,3.1764578E-2,1E0,1.0277147E-2,-4.613911E-2,-5.6139415E-4],"split_indices":[13,8,0,2,0,0,0],"split_type":[0,0,0,0,0,0,0],"sum_hessian":[3.2016174E1,2.3488205E1,8.5279665E0,1.3666602E1,9.821604E0,7.6049595E0,6.0616426E0],"tree_param":{"num_deleted":"0","num_feature":"15","num_nodes":"7","size_leaf_vector":"1"}},{"base_weights":[3.3405414E-3,-1.5877426E-1,2.4007086E-1,-4.4900867E-1,2.1082439E-2,3.4543087E-3,4.9920034E-2,-6.584609E-2,-1.6700236E-2],"categories":[],"categories_nodes":[],"categories_segments":[],"categories_sizes":[],"default_left":[0,0,0,0,0,0,0,0,0],"id":55,"left_children":[1,3,5,7,-1,-1,-1,-1,-1],"loss_changes":[1.2984631E0,2.2501721E0,7.1487445E-1,5.737386E-1,0E0,0E0,0E0,0E0,0E0],"parents":[2147483647,0,0,1,1,2,2,3,3],"right_children":[2,4,6,8,-1,-1,-1,-1,-1],"split_conditions":[1E0,1E0,6.3E1,1E0,2.1082439E-2,3.4543087E-3,4.9920034E-2,-6.584609E-2,-1.6700236E-2],"split_indices":[6,7,1,9,0,0,0,0,0],"split_type":[0,0,0,0,0,0,0,0,0],"sum_hessian":[3.1840761E1,1.9094204E1,1.2746558E1,1.0575071E1,8.519132E0,7.7405043E0,5.0060544E0,5.30214E0,5.272931E0],"tree_param":{"num_deleted":"0","num_feature":"15","num_nodes":"9","size_leaf_vector":"1"}},{"base_weights":[2.6424632E-3,-1.16089866E-1,3.1195939E-2,-2.3219931E-1,1.663631E-2,3.7624373E-4,-4.669569E-2],"categories":[],"categories_nodes":[],"categories_segments":[],"categories_sizes":[],"default_left":[0,0,0,0,0,0,0],"id":56,"left_children":[1,3,-1,5,-1,-1,-1],"loss_changes":[1.2318724E0,8.3406913E-1,0E0,9.770268E-1,0E0,0E0,0E0],"parents":[2147483647,0,0,1,1,3,3],"right_children":[2,4,-1,6,-1,-1,-1],"split_conditions":[1E0,1E0,3.1195939E-2,1E0,1.663631E-2,3.7624373E-4,-4.669569E-2],"split_indices":[13,3,0,0,0,0,0],"split_type":[0,0,0,0,0,0,0],"sum_hessian":[3.1556221E1,2.3254568E1,8.301653E0,1.660612E1,6.6484475E0,8.772548E0,7.8335724E0],"tree_param":{"num_deleted":"0","num_feature":"15","num_nodes":"7","size_leaf_vector":"1"}},{"base_weights":[2.3395664E-3,-1.5552306E-1,2.3337759E-1,-4.3138695E-1,1.9875554E-2,4.0899556E-2,6.7580207E-3,-6.3558035E-2,-1.604828E-2],"categories":[],"categories_nodes":[],"categories_segments":[],"categories_sizes":[],"default_left":[0,0,0,0,0,0,0,0,0],"id":57,"left_children":[1,3,5,7,-1,-1,-1,-1,-1],"loss_changes":[1.214968E0,2.020744E0,3.6596376E-1,5.3119946E-1,0E0,0E0,0E0,0E0,0E0],"parents":[2147483647,0,0,1,1,2,2,3,3],"right_children":[2,4,6,8,-1,-1,-1,-1,-1],"split_conditions":[1E0,1E0,1E0,1E0,1.9875554E-2,4.0899556E-2,6.7580207E-3,-6.3558035E-2,-1.604828E-2],"split_indices":[6,7,7,9,0,0,0,0,0],"split_type":[0,0,0,0,0,0,0,0,0],"sum_hessian":[3.1316946E1,1.879894E1,1.2518006E1,1.0446771E1,8.35217E0,5.3666434E0,7.151363E0,5.1892447E0,5.2575264E0],"tree_param":{"num_deleted":"0","num_feature":"15","num_nodes":"9","size_leaf_vector":"1"}},{"base_weights":[1.6023003E-3,-1.5889676E-1,2.2210537E-1,-3.363252E-2,7.961376E-3,-1.9949956E-3,4.6008244E-2],"categories":[],"categories_nodes":[],"categories_segments":[],"categories_sizes":[],"default_left":[0,0,0,0,0,0,0],"id":58,"left_children":[1,3,5,-1,-1,-1,-1],"loss_changes":[1.1697831E0,8.365586E-1,8.110754E-1,0E0,0E0,0E0,0E0],"parents":[2147483647,0,0,1,1,2,2],"right_children":[2,4,6,-1,-1,-1,-1],"split_conditions":[1E0,1E0,1E0,-3.363252E-2,7.961376E-3,-1.9949956E-3,4.6008244E-2],"split_indices":[11,3,7,0,0,0,0],"split_type":[0,0,0,0,0,0,0],"sum_hessian":[3.1056349E1,1.8135403E1,1.2920948E1,1.0164158E1,7.971244E0,6.8597794E0,6.061168E0],"tree_param":{"num_deleted":"0","num_feature":"15","num_nodes":"7","size_leaf_vector":"1"}},{"base_weights":[2.094962E-3,-1.4485656E-1,2.4314861E-1,-3.0895224E-1,1.4302484E-2,3.804545E-2,4.9482672E-3,-5.8663797E-2,1.2387977E-3],"categories":[],"categories_nodes":[],"categories_segments":[],"categories_sizes":[],"default_left":[0,0,0,0,0,0,0,0,0],"id":59,"left_children":[1,3,5,7,-1,-1,-1,-1,-1],"loss_changes":[1.1584685E0,1.0044158E0,3.1045127E-1,1.190763E0,0E0,0E0,0E0,0E0,0E0],"parents":[2147483647,0,0,1,1,2,2,3,3],"right_children":[2,4,6,8,-1,-1,-1,-1,-1],"split_conditions":[1E0,1E0,6.4E1,1E0,1.4302484E-2,3.804545E-2,4.9482672E-3,-5.8663797E-2,1.2387977E-3],"split_indices":[8,6,1,7,0,0,0,0,0],"split_type":[0,0,0,0,0,0,0,0,0],"sum_hessian":[3.0709356E1,1.9326546E1,1.1382811E1,1.2263192E1,7.0633526E0,6.0962105E0,5.2866E0,6.135559E0,6.127633E0],"tree_param":{"num_deleted":"0","num_feature":"15","num_nodes":"9","size_leaf_vector":"1"}},{"base_weights":[1.7462001E-3,-1.1953324E-1,3.2145765E-2,-2.28716E-1,1.53848175E-2,7.4233967E-3,-4.0836215E-2],"categories":[],"categories_nodes":[],"categories_segments":[],"categories_sizes":[],"default_left":[0,0,0,0,0,0,0],"id":60,"left_children":[1,3,-1,5,-1,-1,-1],"loss_changes":[1.2580801E0,7.37626E-1,0E0,9.674484E-1,0E0,0E0,0E0],"parents":[2147483647,0,0,1,1,3,3],"right_children":[2,4,-1,6,-1,-1,-1],"split_conditions":[1E0,1E0,3.2145765E-2,6.1E1,1.53848175E-2,7.4233967E-3,-4.0836215E-2],"split_indices":[13,3,0,1,0,0,0],"split_type":[0,0,0,0,0,0,0],"sum_hessian":[3.0455145E1,2.2533428E1,7.921716E0,1.6219202E1,6.3142257E0,6.2560163E0,9.963186E0],"tree_param":{"num_deleted":"0","num_feature":"15","num_nodes":"7","size_leaf_vector":"1"}},{"base_weights":[1.9911842E-3,-9.0661086E-2,4.076649E-2,-2.765762E-1,1.21020004E-1,2.7345914E-2,-6.555542E-2,-3.5385806E-2,5.7985988E-2],"categories":[],"categories_nodes":[],"categories_segments":[],"categories_sizes":[],"default_left":[0,0,0,0,0,0,0,0,0],"id":61,"left_children":[1,3,-1,5,7,-1,-1,-1,-1],"loss_changes":[1.2136853E0,1.0686697E0,0E0,3.1619658E0,3.0368068E0,0E0,0E0,0E0,0E0],"parents":[2147483647,0,0,1,1,3,3,4,4],"right_children":[2,4,-1,6,8,-1,-1,-1,-1],"split_conditions":[6.9E1,1E0,4.076649E-2,6.1E1,6E1,2.7345914E-2,-6.555542E-2,-3.5385806E-2,5.7985988E-2],"split_indices":[1,7,0,1,1,0,0,0,0],"split_type":[0,0,0,0,0,0,0,0,0],"sum_hessian":[3.0307068E1,2.5304306E1,5.002762E0,1.330885E1,1.1995457E1,5.5427413E0,7.766109E0,6.007141E0,5.988315E0],"tree_param":{"num_deleted":"0","num_feature":"15","num_nodes":"9","size_leaf_vector":"1"}},{"base_weights":[2.5269135E-3,-1.4008819E-1,2.3710816E-1,-3.021348E-1,1.4139737E-2,3.515862E-2,6.859807E-3,-5.5724245E-2,-6.272799E-4],"categories":[],"categories_nodes":[],"categories_segments":[],"categories_sizes":[],"default_left":[0,0,0,0,0,0,0,0,0],"id":62,"left_children":[1,3,5,7,-1,-1,-1,-1,-1],"loss_changes":[1.0727705E0,9.528699E-1,2.0968533E-1,9.763508E-1,0E0,0E0,0E0,0E0,0E0],"parents":[2147483647,0,0,1,1,2,2,3,3],"right_children":[2,4,6,8,-1,-1,-1,-1,-1],"split_conditions":[1E0,1E0,6.4E1,1E0,1.4139737E-2,3.515862E-2,6.859807E-3,-5.5724245E-2,-6.272799E-4],"split_indices":[8,6,1,7,0,0,0,0,0],"split_type":[0,0,0,0,0,0,0,0,0],"sum_hessian":[3.0073374E1,1.8953371E1,1.1120002E1,1.1982109E1,6.971262E0,5.974655E0,5.145347E0,5.959803E0,6.0223064E0],"tree_param":{"num_deleted":"0","num_feature":"15","num_nodes":"9","size_leaf_vector":"1"}},{"base_weights":[2.1471716E-3,-1.1702534E-1,3.189814E-2,-2.2160526E-1,1.5014435E-2,9.4954E-4,-4.4983253E-2],"categories":[],"categories_nodes":[],"categories_segments":[],"categories_sizes":[],"default_left":[0,0,0,0,0,0,0],"id":63,"left_children":[1,3,-1,5,-1,-1,-1],"loss_changes":[1.2017363E0,6.798537E-1,0E0,9.02762E-1,0E0,0E0,0E0],"parents":[2147483647,0,0,1,1,3,3],"right_children":[2,4,-1,6,-1,-1,-1],"split_conditions":[1E0,1E0,3.189814E-2,1E0,1.5014435E-2,9.4954E-4,-4.4983253E-2],"split_indices":[13,3,0,0,0,0,0],"split_type":[0,0,0,0,0,0,0],"sum_hessian":[2.983875E1,2.214128E1,7.697472E0,1.6035103E1,6.1061764E0,8.443596E0,7.591506E0],"tree_param":{"num_deleted":"0","num_feature":"15","num_nodes":"7","size_leaf_vector":"1"}},{"base_weights":[1.9432984E-3,-1.075654E-1,2.9221928E-2,-2.4935722E-1,9.000574E-3,-4.3867216E-2,1.6423252E-3],"categories":[],"categories_nodes":[],"categories_segments":[],"categories_sizes":[],"default_left":[0,0,0,0,0,0,0],"id":64,"left_children":[1,3,-1,5,-1,-1,-1],"loss_changes":[1.004725E0,6.6571236E-1,0E0,6.931925E-1,0E0,0E0,0E0],"parents":[2147483647,0,0,1,1,3,3],"right_children":[2,4,-1,6,-1,-1,-1],"split_conditions":[1E0,1E0,2.9221928E-2,1E0,9.000574E-3,-4.3867216E-2,1.6423252E-3],"split_indices":[13,8,0,2,0,0,0],"split_type":[0,0,0,0,0,0,0],"sum_hessian":[2.9618473E1,2.1962427E1,7.6560464E0,1.263354E1,9.328886E0,6.998218E0,5.6353226E0],"tree_param":{"num_deleted":"0","num_feature":"15","num_nodes":"7","size_leaf_vector":"1"}},{"base_weights":[1.5821378E-3,-1.4534509E-1,2.158161E-1,-3.7854947E-2,1.596383E-2,3.874321E-2,5.4345103E-3],"categories":[],"categories_nodes":[],"categories_segments":[],"categories_sizes":[],"default_left":[0,0,0,0,0,0,0],"id":65,"left_children":[1,3,5,-1,-1,-1,-1],"loss_changes":[9.9096376E-1,1.3891002E0,3.3377457E-1,0E0,0E0,0E0,0E0],"parents":[2147483647,0,0,1,1,2,2],"right_children":[2,4,6,-1,-1,-1,-1],"split_conditions":[1E0,1E0,1E0,-3.7854947E-2,1.596383E-2,3.874321E-2,5.4345103E-3],"split_indices":[6,7,7,0,0,0,0],"split_type":[0,0,0,0,0,0,0],"sum_hessian":[2.9485815E1,1.7681168E1,1.1804646E1,9.882976E0,7.7981925E0,5.0441685E0,6.7604775E0],"tree_param":{"num_deleted":"0","num_feature":"15","num_nodes":"7","size_leaf_vector":"1"}},{"base_weights":[2.1152871E-3,-1.5170184E-1,2.1706547E-1,-2.8861067E-1,1.5225847E-2,4.556419E-2,-3.9712377E-4,-4.9939197E-2,-5.6172395E-3],"categories":[],"categories_nodes":[],"categories_segments":[],"categories_sizes":[],"default_left":[0,0,0,0,0,0,0,0,0],"id":66,"left_children":[1,3,5,7,-1,-1,-1,-1,-1],"loss_changes":[1.0346622E0,8.033644E-1,6.8993163E-1,6.0529447E-1,0E0,0E0,0E0,0E0,0E0],"parents":[2147483647,0,0,1,1,2,2,3,3],"right_children":[2,4,6,8,-1,-1,-1,-1,-1],"split_conditions":[1E0,1E0,6.4E1,6E1,1.5225847E-2,4.556419E-2,-3.9712377E-4,-4.9939197E-2,-5.6172395E-3],"split_indices":[11,5,1,1,0,0,0,0,0],"split_type":[0,0,0,0,0,0,0,0,0],"sum_hessian":[2.929769E1,1.7248796E1,1.2048893E1,1.1927119E1,5.321676E0,5.284102E0,6.7647915E0,5.6526504E0,6.2744694E0],"tree_param":{"num_deleted":"0","num_feature":"15","num_nodes":"9","size_leaf_vector":"1"}},{"base_weights":[2.0386355E-3,-1.0359824E-1,2.8508881E-2,-2.4464078E-1,9.263284E-3,-4.2627417E-2,1.0911503E-3],"categories":[],"categories_nodes":[],"categories_segments":[],"categories_sizes":[],"default_left":[0,0,0,0,0,0,0],"id":67,"left_children":[1,3,-1,5,-1,-1,-1],"loss_changes":[9.289241E-1,6.492095E-1,0E0,6.2875986E-1,0E0,0E0,0E0],"parents":[2147483647,0,0,1,1,3,3],"right_children":[2,4,-1,6,-1,-1,-1],"split_conditions":[1E0,1E0,2.8508881E-2,1E0,9.263284E-3,-4.2627417E-2,1.0911503E-3],"split_indices":[13,8,0,2,0,0,0],"split_type":[0,0,0,0,0,0,0],"sum_hessian":[2.9079374E1,2.1637905E1,7.4414687E0,1.244574E1,9.192165E0,6.8845243E0,5.5612154E0],"tree_param":{"num_deleted":"0","num_feature":"15","num_nodes":"7","size_leaf_vector":"1"}},{"base_weights":[1.6777552E-3,-1.4003853E-1,2.0906326E-1,-3.6448795E-2,1.53882E-2,5.1043327E-3,3.1168465E-2],"categories":[],"categories_nodes":[],"categories_segments":[],"categories_sizes":[],"default_left":[0,0,0,0,0,0,0],"id":68,"left_children":[1,3,5,-1,-1,-1,-1],"loss_changes":[9.096871E-1,1.2695775E0,1.8779433E-1,0E0,0E0,0E0,0E0],"parents":[2147483647,0,0,1,1,2,2],"right_children":[2,4,6,-1,-1,-1,-1],"split_conditions":[1E0,1E0,1E0,-3.6448795E-2,1.53882E-2,5.1043327E-3,3.1168465E-2],"split_indices":[6,7,2,0,0,0,0],"split_type":[0,0,0,0,0,0,0],"sum_hessian":[2.8956211E1,1.7394484E1,1.1561727E1,9.726699E0,7.667785E0,5.141721E0,6.420006E0],"tree_param":{"num_deleted":"0","num_feature":"15","num_nodes":"7","size_leaf_vector":"1"}},{"base_weights":[1.9676473E-3,-1.4856333E-1,2.1286945E-1,-2.798521E-1,1.4482774E-2,4.4017836E-2,3.9335882E-4,-4.8210967E-2,-5.813091E-3],"categories":[],"categories_nodes":[],"categories_segments":[],"categories_sizes":[],"default_left":[0,0,0,0,0,0,0,0,0],"id":69,"left_children":[1,3,5,7,-1,-1,-1,-1,-1],"loss_changes":[9.77474E-1,7.32859E-1,6.070996E-1,5.441137E-1,0E0,0E0,0E0,0E0,0E0],"parents":[2147483647,0,0,1,1,2,2,3,3],"right_children":[2,4,6,8,-1,-1,-1,-1,-1],"split_conditions":[1E0,1E0,6.4E1,6E1,1.4482774E-2,4.4017836E-2,3.9335882E-4,-4.8210967E-2,-5.813091E-3],"split_indices":[11,5,1,1,0,0,0,0,0],"split_type":[0,0,0,0,0,0,0,0,0],"sum_hessian":[2.8793106E1,1.6973715E1,1.1819392E1,1.1758211E1,5.2155037E0,5.1307263E0,6.688666E0,5.5348434E0,6.2233677E0],"tree_param":{"num_deleted":"0","num_feature":"15","num_nodes":"9","size_leaf_vector":"1"}},{"base_weights":[1.911569E-3,-1.00626394E-1,2.7954808E-2,-2.3836231E-1,9.0424E-3,-4.1255288E-2,1.8251783E-3],"categories":[],"categories_nodes":[],"categories_segments":[],"categories_sizes":[],"default_left":[0,0,0,0,0,0,0],"id":70,"left_children":[1,3,-1,5,-1,-1,-1],"loss_changes":[8.70398E-1,6.0946506E-1,0E0,6.00128E-1,0E0,0E0,0E0],"parents":[2147483647,0,0,1,1,3,3],"right_children":[2,4,-1,6,-1,-1,-1],"split_conditions":[1E0,1E0,2.7954808E-2,1E0,9.0424E-3,-4.1255288E-2,1.8251783E-3],"split_indices":[13,8,0,6,0,0,0],"split_type":[0,0,0,0,0,0,0],"sum_hessian":[2.8586193E1,2.134173E1,7.244463E0,1.2257304E1,9.084425E0,6.9392433E0,5.318061E0],"tree_param":{"num_deleted":"0","num_feature":"15","num_nodes":"7","size_leaf_vector":"1"}},{"base_weights":[1.6102327E-3,-1.4194487E-1,2.0180869E-1,-2.647218E-1,1.3233815E-2,4.198008E-2,4.448237E-4,-4.5396324E-2,-5.9745065E-3],"categories":[],"categories_nodes":[],"categories_segments":[],"categories_sizes":[],"default_left":[0,0,0,0,0,0,0,0,0],"id":71,"left_children":[1,3,5,7,-1,-1,-1,-1,-1],"loss_changes":[8.757907E-1,6.3290924E-1,5.4550135E-1,4.6153504E-1,0E0,0E0,0E0,0E0,0E0],"parents":[2147483647,0,0,1,1,2,2,3,3],"right_children":[2,4,6,8,-1,-1,-1,-1,-1],"split_conditions":[1E0,1E0,6.4E1,6E1,1.3233815E-2,4.198008E-2,4.448237E-4,-4.5396324E-2,-5.9745065E-3],"split_indices":[11,5,1,1,0,0,0,0,0],"split_type":[0,0,0,0,0,0,0,0,0],"sum_hessian":[2.847667E1,1.6753977E1,1.1722693E1,1.1597473E1,5.156503E0,5.034652E0,6.688041E0,5.3986E0,6.1988735E0],"tree_param":{"num_deleted":"0","num_feature":"15","num_nodes":"9","size_leaf_vector":"1"}},{"base_weights":[1.5751553E-3,-1.3256408E-1,1.962287E-1,-3.542868E-2,1.6070336E-2,3.709035E-3,3.0256435E-2],"categories":[],"categories_nodes":[],"categories_segments":[],"categories_sizes":[],"default_left":[0,0,0,0,0,0,0],"id":72,"left_children":[1,3,5,-1,-1,-1,-1],"loss_changes":[7.9066426E-1,1.2230942E0,1.9777793E-1,0E0,0E0,0E0,0E0],"parents":[2147483647,0,0,1,1,2,2],"right_children":[2,4,6,-1,-1,-1,-1],"split_conditions":[1E0,1E0,1E0,-3.542868E-2,1.6070336E-2,3.709035E-3,3.0256435E-2],"split_indices":[6,7,2,0,0,0,0],"split_type":[0,0,0,0,0,0,0],"sum_hessian":[2.8285006E1,1.693427E1,1.1350735E1,9.524941E0,7.4093304E0,5.0868025E0,6.263932E0],"tree_param":{"num_deleted":"0","num_feature":"15","num_nodes":"7","size_leaf_vector":"1"}},{"base_weights":[1.8690039E-3,-9.770802E-2,2.7420942E-2,-2.3223826E-1,8.838964E-3,-4.059863E-2,1.3993941E-3],"categories":[],"categories_nodes":[],"categories_segments":[],"categories_sizes":[],"default_left":[0,0,0,0,0,0,0],"id":73,"left_children":[1,3,-1,5,-1,-1,-1],"loss_changes":[8.16735E-1,5.7299757E-1,0E0,5.654399E-1,0E0,0E0,0E0],"parents":[2147483647,0,0,1,1,3,3],"right_children":[2,4,-1,6,-1,-1,-1],"split_conditions":[1E0,1E0,2.7420942E-2,1E0,8.838964E-3,-4.059863E-2,1.3993941E-3],"split_indices":[13,8,0,2,0,0,0],"split_type":[0,0,0,0,0,0,0],"sum_hessian":[2.8128916E1,2.1067238E1,7.0616784E0,1.2083861E1,8.983377E0,6.704319E0,5.379542E0],"tree_param":{"num_deleted":"0","num_feature":"15","num_nodes":"7","size_leaf_vector":"1"}},{"base_weights":[1.5530984E-3,-1.3927029E-1,1.9849278E-1,-2.8256178E-2,8.668364E-3,1.3619993E-3,3.7760954E-2],"categories":[],"categories_nodes":[],"categories_segments":[],"categories_sizes":[],"default_left":[0,0,0,0,0,0,0],"id":74,"left_children":[1,3,5,-1,-1,-1,-1],"loss_changes":[8.325792E-1,5.9143674E-1,4.0921572E-1,0E0,0E0,0E0,0E0],"parents":[2147483647,0,0,1,1,2,2],"right_children":[2,4,6,-1,-1,-1,-1],"split_conditions":[1E0,1E0,1E0,-2.8256178E-2,8.668364E-3,1.3619993E-3,3.7760954E-2],"split_indices":[11,14,7,0,0,0,0],"split_type":[0,0,0,0,0,0,0],"sum_hessian":[2.80237E1,1.6510532E1,1.1513169E1,9.950054E0,6.560478E0,6.195063E0,5.3181057E0],"tree_param":{"num_deleted":"0","num_feature":"15","num_nodes":"7","size_leaf_vector":"1"}},{"base_weights":[2.1223554E-3,-1.3190904E-1,1.9771777E-1,-3.385902E-2,1.4529365E-2,1.1679758E-2,2.472747E-2],"categories":[],"categories_nodes":[],"categories_segments":[],"categories_sizes":[],"default_left":[0,0,0,0,0,0,0],"id":75,"left_children":[1,3,5,-1,-1,-1,-1],"loss_changes":[7.804073E-1,1.0617626E0,1.9641697E-2,0E0,0E0,0E0,0E0],"parents":[2147483647,0,0,1,1,2,2],"right_children":[2,4,6,-1,-1,-1,-1],"split_conditions":[1E0,1E0,6.2E1,-3.385902E-2,1.4529365E-2,1.1679758E-2,2.472747E-2],"split_indices":[6,7,1,0,0,0,0],"split_type":[0,0,0,0,0,0,0],"sum_hessian":[2.7773598E1,1.6673628E1,1.1099971E1,9.424963E0,7.248665E0,5.490886E0,5.6090846E0],"tree_param":{"num_deleted":"0","num_feature":"15","num_nodes":"7","size_leaf_vector":"1"}},{"base_weights":[2.4595412E-3,-1.478736E-1,1.745383E-1,-4.2095084E-2,2.0330926E-2,-1.3241832E-2,3.701108E-2],"categories":[],"categories_nodes":[],"categories_segments":[],"categories_sizes":[],"default_left":[0,0,0,0,0,0,0],"id":76,"left_children":[1,3,5,-1,-1,-1,-1],"loss_changes":[7.665186E-1,1.6030487E0,8.780256E-1,0E0,0E0,0E0,0E0],"parents":[2147483647,0,0,1,1,2,2],"right_children":[2,4,6,-1,-1,-1,-1],"split_conditions":[1E0,1E0,1E0,-4.2095084E-2,2.0330926E-2,-1.3241832E-2,3.701108E-2],"split_indices":[10,3,9,0,0,0,0],"split_type":[0,0,0,0,0,0,0],"sum_hessian":[2.7632915E1,1.4823407E1,1.2809507E1,8.227274E0,6.5961337E0,5.1108313E0,7.6986766E0],"tree_param":{"num_deleted":"0","num_feature":"15","num_nodes":"7","size_leaf_vector":"1"}},{"base_weights":[2.2486823E-3,-1.2953272E-1,1.9490838E-1,-3.2668117E-2,1.3851655E-2,1.2268489E-2,2.3607425E-2],"categories":[],"categories_nodes":[],"categories_segments":[],"categories_sizes":[],"default_left":[0,0,0,0,0,0,0],"id":77,"left_children":[1,3,5,-1,-1,-1,-1],"loss_changes":[7.454775E-1,9.6720177E-1,6.482154E-3,0E0,0E0,0E0,0E0],"parents":[2147483647,0,0,1,1,2,2],"right_children":[2,4,6,-1,-1,-1,-1],"split_conditions":[1E0,1E0,6.2E1,-3.2668117E-2,1.3851655E-2,1.2268489E-2,2.3607425E-2],"split_indices":[6,7,1,0,0,0,0],"split_type":[0,0,0,0,0,0,0],"sum_hessian":[2.7367857E1,1.644616E1,1.0921698E1,9.350324E0,7.0958357E0,5.410137E0,5.5115604E0],"tree_param":{"num_deleted":"0","num_feature":"15","num_nodes":"7","size_leaf_vector":"1"}},{"base_weights":[2.5843827E-3,-9.286863E-2,2.6382802E-2,-2.2119789E-1,8.308282E-3,-3.911544E-2,2.2859774E-3],"categories":[],"categories_nodes":[],"categories_segments":[],"categories_sizes":[],"default_left":[0,0,0,0,0,0,0],"id":78,"left_children":[1,3,-1,5,-1,-1,-1],"loss_changes":[7.2858447E-1,5.020109E-1,0E0,5.3401077E-1,0E0,0E0,0E0],"parents":[2147483647,0,0,1,1,3,3],"right_children":[2,4,-1,6,-1,-1,-1],"split_conditions":[1E0,1E0,2.6382802E-2,1E0,8.308282E-3,-3.911544E-2,2.2859774E-3],"split_indices":[13,8,0,6,0,0,0],"split_type":[0,0,0,0,0,0,0],"sum_hessian":[2.7235054E1,2.0418917E1,6.816137E0,1.1658615E1,8.760302E0,6.517356E0,5.141259E0],"tree_param":{"num_deleted":"0","num_feature":"15","num_nodes":"7","size_leaf_vector":"1"}},{"base_weights":[2.2289662E-3,-1.3085602E-1,1.892781E-1,-2.6893843E-2,8.72447E-3,3.1134735E-3,3.4247536E-2],"categories":[],"categories_nodes":[],"categories_segments":[],"categories_sizes":[],"default_left":[0,0,0,0,0,0,0],"id":79,"left_children":[1,3,5,-1,-1,-1,-1],"loss_changes":[7.255049E-1,5.3659314E-1,2.8275064E-1,0E0,0E0,0E0,0E0],"parents":[2147483647,0,0,1,1,2,2],"right_children":[2,4,6,-1,-1,-1,-1],"split_conditions":[1E0,1E0,1E0,-2.6893843E-2,8.72447E-3,3.1134735E-3,3.4247536E-2],"split_indices":[11,14,7,0,0,0,0],"split_type":[0,0,0,0,0,0,0],"sum_hessian":[2.7149458E1,1.6038513E1,1.1110944E1,9.678094E0,6.3604198E0,6.059274E0,5.0516696E0],"tree_param":{"num_deleted":"0","num_feature":"15","num_nodes":"7","size_leaf_vector":"1"}},{"base_weights":[2.7300573E-3,-1.22214064E-1,1.8465385E-1,-3.1084914E-2,1.3709965E-2,1.1763073E-2,2.2214146E-2],"categories":[],"categories_nodes":[],"categories_segments":[],"categories_sizes":[],"default_left":[0,0,0,0,0,0,0],"id":80,"left_children":[1,3,5,-1,-1,-1,-1],"loss_changes":[6.5739745E-1,8.819642E-1,3.4412146E-3,0E0,0E0,0E0,0E0],"parents":[2147483647,0,0,1,1,2,2],"right_children":[2,4,6,-1,-1,-1,-1],"split_conditions":[1E0,1E0,6.2E1,-3.1084914E-2,1.3709965E-2,1.1763073E-2,2.2214146E-2],"split_indices":[6,7,1,0,0,0,0],"split_type":[0,0,0,0,0,0,0],"sum_hessian":[2.6928793E1,1.6159063E1,1.0769731E1,9.239296E0,6.9197674E0,5.3472953E0,5.4224353E0],"tree_param":{"num_deleted":"0","num_feature":"15","num_nodes":"7","size_leaf_vector":"1"}}]},"name":"gbtree"},"learner_model_param":{"base_score":"5E-1","boost_from_average":"1","num_class":"0","num_feature":"15","num_target":"1"},"objective":{"name":"binary:logistic","reg_loss_param":{"scale_pos_weight":"1"}}},"version":[3,0,1]}