tree
version=v4
num_class=1
num_tree_per_iteration=1
label_index=0
max_feature_idx=30
objective=binary sigmoid:1
feature_names=Column_0 Column_1 Column_2 Column_3 Column_4 Column_5 Column_6 Column_7 Column_8 Column_9 Column_10 Column_11 Column_12 Column_13 Column_14 Column_15 Column_16 Column_17 Column_18 Column_19 Column_20 Column_21 Column_22 Column_23 Column_24 Column_25 Column_26 Column_27 Column_28 Column_29 Column_30
feature_infos=[0:1] [39:87] [0:1] [0:1] [0:1] [0:1] [0:1] [0:1] [0:1] [0:1] [0:1] [0:1] [0:1] [0:1] [0:1] [1.8586632430022048:6.4608166863538541] [0.90899177946984622:7.087401958582543] [1.375720536406531:6.5568694143676201] [0.57747367870966682:7.5506571270209255] [2.0297812057899538:6.3991156793137938] [2.343434173214952:6.7698528118757455] [1.9251026199620362:6.2595595782155469] [1.0988076617078857:6.890558792634053] [1.9573958769736488:6.1214246623732427] [1.8433026585986703:7.3576138071371826] [1.7999603784532137:6.667261172131024] [0.46745664828767397:7.3641791247748998] [2.3039708915871437:6.5270317498460173] [0.85638050805683352:7.2070016784634419] [0.01717133052863196:7.9860415044616788] [0:14]
tree_sizes=826 1271 1698 1688 1589 1682 1593 1795 1585 1787 1903 1792 1991 1796 1800 1920 1802 1803 1600 2024 2018 2021 1931

Tree=0
num_leaves=7
num_cat=0
split_feature=29 15 23 29 15 22
split_gain=161.739 49.5338 22.6154 8.05594 6.0293 1.89517
threshold=4.5959439236099433 5.3056729476486817 5.2623056951796405 5.1625808603462113 4.8893479593298652 4.6151381622882601
decision_type=2 2 2 2 2 2
left_child=4 3 -3 -2 -1 -6
right_child=1 2 -4 -5 5 -7
leaf_value=-0.17500000000000002 0.15384615384615385 0.17435897435897429 -0.25641025641025644 0.40000000000000002 -0.39999999999999997 -0.27692307692307694
leaf_weight=7.9999999999999991 6.4999999999999991 9.7500000000000018 9.7499999999999982 29.25 21.750000000000004 6.4999999999999991
leaf_count=32 26 39 39 117 87 26
internal_value=0 0.215385 -0.0410256 0.355245 -0.328276 -0.371681
internal_weight=91.5 55.25 19.5 35.75 36.25 28.25
internal_count=366 221 78 143 145 113
is_linear=0
shrinkage=0.2


Tree=1
num_leaves=11
num_cat=0
split_feature=16 15 16 22 15 8 22 27 15 29
split_gain=111.86 38.436 28.3116 10.8077 9.22035 7.97108 0.49534 0.196779 0.111504 0.0274061
threshold=4.4811823219836038 5.3056729476486817 5.5369955877217656 4.5593236850416661 4.908653712714087 1.0000000180025095e-35 4.6601014826064189 5.3311235731635884 4.9140487645278617 5.4534990917537316
decision_type=2 2 2 2 2 2 2 2 2 2
left_child=3 6 5 7 -5 -3 -2 -1 -9 -8
right_child=1 2 -4 4 -6 -7 9 8 -10 -11
leaf_value=-0.29763578040435562 0.27406748989573576 -0.35476490279894196 0.30583732008282949 0.09629802196697447 -0.25391131094092695 -0.031132039736383389 0.35013808087977616 -0.3678898013568308 -0.33406401264827157 0.33406401264827157
leaf_weight=4.8134807795286205 6.1035537570714942 6.8861931562423724 6.4312810599803916 5.2008267343044263 7.1293082982301712 5.4562353789806366 5.3233757019042995 5.1947699338197735 15.61694875359535 20.902685254812241
leaf_count=20 25 28 26 21 29 22 22 21 65 87
internal_value=3.82811e-05 0.193209 -0.0344054 -0.260048 -0.106194 -0.211696 0.325384 -0.334078 -0.342507 0.337327
internal_weight=89.0587 51.1033 18.7737 37.9553 12.3301 12.3424 32.3296 25.6252 20.8117 26.2261
internal_count=366 210 76 156 50 50 134 106 86 109
is_linear=0
shrinkage=0.2


Tree=2
num_leaves=15
num_cat=0
split_feature=16 15 8 28 15 27 28 27 15 15 20 15 21 15
split_gain=77.6055 27.7637 20.5082 12.4775 9.62173 4.17187 0.315018 0.230819 0.128437 0.0833111 0.000454729 0.000156083 7.67874e-05 0.000190865
threshold=4.4811823219836038 5.3056729476486817 1.0000000180025095e-35 6.0894985315956971 4.5435385523865701 5.3116538608481569 5.1803768392423759 5.4967619909391008 5.0062602845287598 5.0314264115355938 3.8044145641884159 5.0955250384262678 4.1299894628105323 4.6943095046485563
decision_type=2 2 2 2 2 2 2 2 2 2 2 2 2 2
left_child=4 6 -3 -4 -1 -6 -2 8 -7 -9 -8 -10 -12 -14
right_child=1 2 3 -5 5 7 10 9 11 -11 12 -13 13 -15
leaf_value=0.048075880598730608 0.24905573518806712 -0.2792995224607665 0.35662330027767009 -0.080079593752394249 -0.11888973633410248 -0.25554067805282615 0.2983940132256907 -0.34085435386142504 -0.29760448434343578 -0.30544116843940439 0.29552178788008215 -0.29599089218703928 0.29582168296238009 0.29746589613904389
leaf_weight=4.5458975881338111 7.432222023606303 7.6067470163106927 5.5815926641225815 4.9274294823408127 6.3516166359186199 4.4105692952871349 4.4185442924499538 5.2308460772037488 4.4074392020702344 5.4008883535861969 5.6874272823333767 5.2591381072998047 7.8837209939956647 4.4002560377120972
leaf_count=19 32 33 23 20 27 20 20 22 20 24 26 24 36 20
internal_value=-2.23966e-05 0.166105 -0.0291802 0.151864 -0.223685 -0.263459 0.284733 -0.300621 -0.283822 -0.322865 0.296576 -0.296727 0.296129 0.296411
internal_weight=83.5443 47.9379 18.1158 10.509 35.6064 31.0605 29.8222 24.7089 14.0771 10.6317 22.3899 9.66658 17.9714 12.284
internal_count=366 210 76 43 156 137 134 110 64 46 102 44 82 56
is_linear=0
shrinkage=0.2


Tree=3
num_leaves=15
num_cat=0
split_feature=16 18 25 25 19 25 28 10 19 16 1 25 1 16
split_gain=55.3252 19.0167 17.8689 9.9443 5.89944 2.47485 0.827513 0.653809 0.847539 0.143205 0.0621312 0.0204379 0.00870058 0.000164366
threshold=4.4811823219836038 3.0588386477583289 6.2111078584724044 3.9875431378147312 3.8878927165584258 4.9292224061395871 2.1740158974485508 1.0000000180025095e-35 5.2703853054568865 3.0350169191169374 58.500000000000007 5.434718239441275 61.500000000000007 1.1180717495073489
decision_type=2 2 2 2 2 2 2 2 2 2 2 2 2 2
left_child=3 -2 4 -1 -3 6 -5 8 -6 12 -9 -12 13 -8
right_child=1 2 -4 5 7 -7 9 10 -10 -11 11 -13 -14 -15
leaf_value=0.097882653761358296 -0.22740303219913308 0.021548788010571647 -0.19541560704962671 -0.20204222124723603 0.16902453780012169 -0.10850635154901866 -0.27311156364244832 0.30667481503392408 0.28408867599787613 -0.31737565939939172 0.27452580666057907 0.29070751638466802 -0.28361984604056228 -0.2713974780392025
leaf_weight=4.0389414578676215 4.8278498351573935 4.3155780583620063 4.2183417677879325 6.3582597672939363 4.8070725053548831 4.9520646929740897 5.2917649149894732 7.5054480433464077 5.4791925251483917 4.4247693270444861 5.4873409122228605 7.243277445435524 3.944648712873458 3.877316415309906
leaf_count=18 23 21 18 30 23 22 27 35 27 20 28 35 19 20
internal_value=8.40879e-05 0.147063 0.193351 -0.196038 0.240425 -0.237188 -0.263855 0.271372 0.230316 -0.286263 0.292242 0.283733 -0.275766 -0.272387
internal_weight=76.7719 43.8841 39.0563 32.8878 34.8379 28.8488 23.8968 30.5223 10.2863 17.5385 20.2361 12.7306 13.1137 9.16908
internal_count=366 210 187 156 169 138 116 148 50 86 98 63 66 47
is_linear=0
shrinkage=0.2


Tree=4
num_leaves=14
num_cat=0
split_feature=29 7 16 27 1 28 24 29 16 27 11 27 25
split_gain=44.3689 22.0954 18.7447 5.14719 2.70498 2.29792 1.34793 0.246053 0.239998 0.0729904 0.0159967 0.00193427 0.00263492
threshold=4.3459062623707405 1.0000000180025095e-35 5.5369955877217656 5.3116538608481569 59.500000000000007 6.0894985315956971 6.040298478524174 5.3010906582603434 2.2534093476351211 5.5207713272268659 1.0000000180025095e-35 4.2311433558151146 4.8231434674948845
decision_type=2 2 2 2 2 2 2 2 2 2 2 2 2
left_child=3 2 4 -1 -2 -6 7 -3 -5 -10 -9 -12 -13
right_child=1 6 -4 8 5 -7 -8 10 9 -11 11 12 -14
leaf_value=-0.036862648549907256 -0.039913834057834968 0.31468190958900816 0.22722875974051041 -0.22688591498439595 -0.13706235018333693 -0.33659246815974497 0.14544353257141845 0.2722494404069693 -0.25813420019849004 -0.28759677431097191 0.25372761342161071 0.25569245554624864 0.26312601336157865
leaf_weight=5.2872372269630459 4.5881827771663692 4.4715898483991685 7.4680029600858679 6.3801020383834866 5.0925867557525617 4.2235245853662491 3.9506830275058737 3.9780018627643559 6.2682761102914792 7.2579180300235748 3.6674515455961227 3.9127675145864487 3.7214888483285904
leaf_count=25 23 21 38 37 25 19 20 21 36 35 22 23 21
internal_value=0.00030306 0.119118 -0.0283449 -0.212271 -0.165614 -0.227521 0.252087 0.273418 -0.258861 -0.273943 0.261342 0.257503 0.259316
internal_weight=70.2678 45.0743 21.3723 25.1935 13.9043 9.31611 23.702 19.7513 19.9063 13.5262 15.2797 11.3017 7.63426
internal_count=366 233 105 133 67 44 128 108 108 71 87 66 44
is_linear=0
shrinkage=0.2


Tree=5
num_leaves=15
num_cat=0
split_feature=16 15 16 15 27 21 16 19 16 24 15 21 28 19
split_gain=30.521 14.5071 8.36591 6.4681 6.94466 2.29555 1.17549 2.24122 0.232581 0.0461433 0.0391164 0.00811734 0.00240277 0.00131374
threshold=4.4811823219836038 5.3877715630934704 5.5369955877217656 4.5100202746294782 5.2958613150045055 5.0173132592120648 5.180696739165044 5.2703853054568865 2.2534093476351211 4.4026201044607598 5.0153061798133027 4.8047350807545515 5.5131227544542476 5.249438143543351
decision_type=2 2 2 2 2 2 2 2 2 2 2 2 2 2
left_child=3 6 5 -1 -5 -3 7 -2 -6 -8 -10 -12 -11 -14
right_child=1 2 -4 4 8 -7 9 -9 10 12 11 -13 13 -15
leaf_value=0.095475780305513402 0.055540420308517961 -0.059620709561424935 0.17663691058354192 0.044514805471902619 -0.21070339092542772 -0.26364320238872735 0.27290447349789149 0.25389358802026663 -0.27130691313926841 0.25077439986351679 -0.24395815407843055 -0.25646582294873399 0.24722091453585185 0.24182760677402296
leaf_weight=3.4678703397512463 4.3083414733409899 4.5296813994646055 4.4774252027273169 3.9702246934175518 5.5821478366851833 4.2999990731477737 3.4220506995916358 4.8365320265293121 5.9151663184165946 3.1618349254131299 4.2772644460201246 4.0319468080997467 3.2045433521270752 4.1412443369626999
leaf_count=16 23 20 22 18 37 24 20 31 32 20 29 24 21 29
internal_value=0.000380309 0.12025 -0.0460543 -0.15969 -0.196907 -0.158978 0.216158 0.160445 -0.2453 0.252734 -0.258876 -0.250027 0.246165 0.24418
internal_weight=63.6263 36.3817 13.3071 27.2446 23.7768 8.82968 23.0745 9.14487 19.8065 13.9297 14.2244 8.30921 10.5076 7.34579
internal_count=366 210 66 156 140 44 144 54 122 90 85 53 70 50
is_linear=0
shrinkage=0.2


Tree=6
num_leaves=14
num_cat=0
split_feature=29 12 16 18 29 19 29 9 15 18 18 15 15
split_gain=24.952 11.5151 14.3212 2.87507 1.70038 3.41611 1.18633 0.0397719 0.036247 0.0062101 0.00267772 0.000276927 0.000233107
threshold=4.3459062623707405 1.0000000180025095e-35 5.6496337695700314 4.5253987829955697 2.7815176051823012 4.9254266557627977 5.0545504215020154 1.0000000180025095e-35 5.0867834388534066 5.6236751585640699 6.2857868116891469 4.3769940727098149 5.1597148378354412
decision_type=2 2 2 2 2 2 2 2 2 2 2 2 2
left_child=4 2 3 -2 9 -6 -3 -8 -4 12 11 -9 -1
right_child=1 6 8 -5 5 -7 7 10 -10 -11 -12 -13 -14
leaf_value=-0.23588140388806839 -0.23161595072392843 0.12704863074308287 0.23496089412657098 -0.04445643978238048 -0.011795597287018119 -0.24347961508258276 0.25872908443650516 0.23477517432173634 0.26623146190525887 -0.24628506891871738 0.24093525343173355 0.23175668462055343 -0.23351001617909972
leaf_weight=4.6417387425899523 5.6297204494476336 4.5948696881532696 3.0193591788411132 7.8764472901821136 5.3610528707504255 4.8474020957946777 5.2230297625064832 2.5048224627971649 2.9134281873703003 2.6947485059499741 2.9640062227845192 2.3623629584908485 2.5795455724000931
leaf_count=36 34 24 24 39 33 25 33 20 17 18 22 20 21
internal_value=0.000199225 0.0974924 -0.00869462 -0.122469 -0.179105 -0.121809 0.214448 0.245212 0.250317 -0.238092 0.236196 0.23331 -0.235034
internal_weight=57.2125 37.088 19.439 13.5062 20.1245 10.2085 17.6491 13.0542 5.93279 9.91603 7.83119 4.86719 7.22128
internal_count=366 233 114 73 133 58 119 95 41 75 62 40 57
is_linear=0
shrinkage=0.2


Tree=7
num_leaves=16
num_cat=0
split_feature=27 29 16 29 23 0 22 23 22 19 23 29 12 23 22
split_gain=19.3313 8.67145 6.36448 9.99701 9.11332 5.04883 3.21715 0.738172 0.483021 0.0258803 0.0183274 0.00680288 0.00111626 0.000136087 1.94494e-05
threshold=5.2958613150045055 4.5959439236099433 5.5369955877217656 6.1580849185295081 5.2382305760598085 1.0000000180025095e-35 4.7157507107410011 4.5198659454442138 4.7376810425536364 5.0422432198599854 4.8625533220352271 2.117154805576408 1.0000000180025095e-35 4.8211727182842559 4.3070349623900555
decision_type=2 2 2 2 2 2 2 2 2 2 2 2 2 2 2
left_child=2 8 3 4 6 -3 -1 -8 9 11 12 13 -4 -2 -15
right_child=1 5 10 -5 -6 -7 7 -9 -10 -11 -12 -13 -14 14 -16
leaf_value=0.057979389741376723 -0.22642019280584622 -0.1291457568175455 0.23375995606700922 -0.24476959690315386 -0.16571349726741547 0.21007978336292688 0.21704375683943156 0.34330889002723441 -0.15047119657501562 -0.2547799365777289 0.24772388290363742 -0.23857912896275085 0.22761441217332284 -0.2287861704607832 -0.22796085096006832
leaf_weight=3.9987534284591728 2.0604419559240359 3.3491584286093703 2.2362769767642003 3.8749447613954535 3.5165816247463217 3.6870031878352165 3.6804732978343964 3.72799913585186 3.3495979309082022 2.365901067852973 5.1711447909474373 3.5898542478680611 2.5082426369190216 2.3097677156329155 2.259380504488945
leaf_count=23 20 21 19 23 19 22 30 20 22 15 39 27 24 21 21
internal_value=0.000439983 -0.136313 0.10984 0.0414554 0.115773 0.0486111 0.202549 0.280581 -0.217967 -0.235931 0.239488 -0.231567 0.230511 -0.22777 -0.228378
internal_weight=51.6855 22.9711 28.7144 18.7988 14.9238 7.03616 11.4072 7.40847 15.9349 12.5853 9.91566 10.2194 4.74452 6.62959 4.56915
internal_count=366 169 197 115 92 43 73 50 126 104 82 89 43 62 42
is_linear=0
shrinkage=0.2


Tree=8
num_leaves=14
num_cat=0
split_feature=29 7 29 20 22 25 18 29 22 29 19 18 15
split_gain=13.4477 10.2475 5.69083 7.36969 3.73651 0.906709 0.594867 0.165829 0.11402 0.0717712 0.00149585 0.00108172 3.31319e-05
threshold=4.3459062623707405 1.0000000180025095e-35 5.553740961690754 4.9580024712504214 4.6151381622882601 5.6157152181927197 5.2555518179319707 4.125083984319649 5.4533011913837637 5.1625808603462113 5.378546193293805 5.6236751585640699 5.0062602845287598
decision_type=2 2 2 2 2 2 2 2 2 2 2 2 2
left_child=4 2 -2 -4 6 8 -1 11 9 -3 -11 12 -8
right_child=1 5 3 -5 -6 -7 7 -9 -10 10 -12 -13 -14
leaf_value=-0.13638745446189443 -0.20709615606339532 0.26618585641215048 0.23000216887622296 -0.10451251562375219 -0.0056545792785575658 0.1154383799852748 -0.22342058575033283 -0.29011394795858297 0.20023383222185764 0.22983036758581854 0.22201954768506998 -0.22864134013043189 -0.2222614654609629
leaf_weight=2.908927306532858 5.0664167255163202 3.3274490311741811 4.9126827493309957 5.6805021017789841 5.044559344649314 3.6879435330629358 2.0604629665613179 2.1100683808326721 3.4132339358329773 2.2177040502429013 1.7583455294370649 1.9306556135416029 1.8922566920518873
leaf_count=27 33 20 39 33 32 33 22 13 34 21 20 18 21
internal_value=0.000482642 0.0792298 -0.0327589 0.0506216 -0.147977 0.200975 -0.21383 -0.242013 0.23041 0.244513 0.226376 -0.224761 -0.222866
internal_weight=46.0112 30.0643 15.6596 10.5932 15.9469 14.4047 10.9024 7.99344 10.7167 7.3035 3.97605 5.88338 3.95272
internal_count=366 233 105 72 133 128 101 74 95 61 41 61 43
is_linear=0
shrinkage=0.2


Tree=9
num_leaves=16
num_cat=0
split_feature=8 25 20 25 25 25 24 29 28 19 20 17 29 1 1
split_gain=11.7192 6.85705 5.10038 5.19076 4.6604 2.49402 1.66395 1.28156 0.400893 0.258936 0.263081 0.145595 0.0117571 0.00549226 1.01088e-05
threshold=1.0000000180025095e-35 6.2111078584724044 5.0302878626840695 4.4544123695830669 4.9292224061395871 5.2110339545930975 6.017352765991073 4.6507718668920885 1.6983786840887012 5.4908178227219597 5.0451426333805154 5.3138056558628826 3.4151330056371743 59.500000000000007 58.500000000000007
decision_type=2 2 2 2 2 2 2 2 2 2 2 2 2 2 2
left_child=2 6 3 -1 8 7 9 -5 -4 10 13 12 14 -2 -10
right_child=1 -3 4 5 -6 -7 -8 -9 11 -11 -12 -13 -14 -15 -16
leaf_value=0.20619411501376456 0.23733564794535544 -0.12704758653613604 -0.14858188598325417 -0.2552680738988613 0.09393956232472056 0.063948324878928695 0.041247060379291607 -0.057840656812995342 -0.21792363603299486 0.18304602059712388 0.30778899764874407 -0.28582372321209992 -0.23524491547721862 0.22398783361542166 -0.21856482236658761
leaf_weight=3.7837086617946651 2.0401682034134847 3.1342715695500365 2.4927128702402106 2.7295972481369954 2.2836922705173484 3.1894079446792603 2.0948875918984404 2.5380585789680481 2.1886377781629549 2.6760159879922867 2.5510851144790649 2.070559486746788 2.737185537815094 3.1169853061437607 1.7862487807869909
leaf_count=30 19 17 26 24 14 25 16 27 29 33 15 11 22 35 23
internal_value=0.00065746 0.137421 -0.0821084 0.0114824 -0.1666 -0.075632 0.203845 -0.160144 -0.219369 0.236647 0.255255 -0.23946 -0.225158 0.229268 -0.218212
internal_weight=41.4132 15.6134 25.7998 12.2408 13.559 8.45706 12.4791 5.26766 11.2753 10.3843 7.70824 8.78263 6.71207 5.15715 3.97489
internal_count=366 135 231 106 125 76 118 51 111 102 69 85 74 54 52
is_linear=0
shrinkage=0.2


Tree=10
num_leaves=17
num_cat=0
split_feature=27 15 7 16 29 24 18 15 27 20 23 16 29 26 16 16
split_gain=9.46021 6.69347 5.04176 6.10682 3.33303 2.14567 1.79479 0.491351 0.329136 0.16211 0.0605268 0.0254954 0.00302612 0.000317951 0.000290281 9.30007e-06
threshold=5.2958613150045055 4.4927084814303226 1.0000000180025095e-35 5.5369955877217656 5.553740961690754 6.017352765991073 5.298309093936628 4.8671345354830367 5.0609139335159012 5.1583788427344279 5.3299149435424633 5.4264392362580045 2.117154805576408 5.5936598165107823 5.8812280202031966 1.9062475630453311
decision_type=2 2 2 2 2 2 2 2 2 2 2 2 2 2 2 2
left_child=2 -2 3 6 7 8 -1 -3 9 11 12 -4 15 -14 -13 -9
right_child=1 4 5 -5 -6 -7 -8 10 -10 -11 -12 14 13 -15 -16 -17
leaf_value=-0.22830106412707149 0.2343127944869508 -0.12743462235080469 0.24625525648380953 0.23481834001492685 0.075884003166230202 0.043925464585686226 -0.025637568432148074 -0.21448126956294766 0.30637801100539908 0.15500554183577686 -0.26052958509600549 0.21830476641963911 -0.22473463436699001 -0.22102557279775722 0.21435126426978868 -0.21509345411672598
leaf_weight=3.2053142264485359 1.9079051576554764 2.5702150911092749 1.860329881310461 2.7238786183297634 1.9698693528771389 3.5147336572408685 3.8442967087030411 1.9510719850659355 1.7908339053392408 1.6328306198120115 1.6804964840412138 1.5489518791437151 1.7102097123861315 2.0121618434786797 1.4274997636675832 2.0206120908260345
leaf_count=25 18 22 18 30 13 25 20 31 16 19 12 21 18 24 23 31
internal_value=0.000446523 -0.116985 0.0866728 -0.0195139 -0.165153 0.174809 -0.117785 -0.204904 0.230498 0.209494 -0.226143 0.227888 -0.218633 -0.22273 0.216409 -0.214793
internal_weight=37.3712 15.8225 21.5487 9.77349 13.9146 11.7752 7.04961 11.9448 8.26045 6.46961 9.37455 4.83678 7.69406 3.72237 2.97645 3.97168
internal_count=366 169 197 75 151 122 45 138 97 81 116 62 104 42 44 62
is_linear=0
shrinkage=0.2


Tree=11
num_leaves=16
num_cat=0
split_feature=16 19 22 28 27 18 22 20 28 16 20 18 19 20 1
split_gain=7.16473 4.76233 3.5406 3.08575 2.40886 1.82339 3.42439 1.14369 0.691765 0.00979313 0.00501887 0.000875029 0.000621707 0.000188941 1.87357e-06
threshold=5.6496337695700314 5.2703853054568865 4.4666587939497191 6.0894985315956971 4.909777568071453 4.6261520257811357 5.189210735161895 5.207671292735542 4.6367670479714276 4.3706271053334618 4.8851308848293611 5.2555518179319707 4.52955403230989 4.4266370339206533 58.500000000000007
decision_type=2 2 2 2 2 2 2 2 2 2 2 2 2 2 2
left_child=1 2 8 4 -4 -6 -7 -3 9 12 11 -2 -1 -13 -14
right_child=10 7 3 -5 5 6 -8 -9 -10 -11 -12 13 14 -15 -16
leaf_value=-0.21653140573458438 0.21899274875446509 0.23593912628994038 0.19600193329434812 -0.17278901128745441 -0.15901387506407413 0.16618967419607372 -0.11475695461452003 0.022363124397354883 -0.06352986588633501 -0.2334213856361648 0.2297405431070435 0.21084076350830949 -0.21170254521924209 0.21460824158475572 -0.21202782391168751
leaf_weight=1.8517093509435714 1.5996623449027532 2.6606466546654692 2.6728597655892399 4.0745025165379039 2.6728586107492429 3.724033385515213 3.2497604861855507 1.6096642464399336 1.4397252164781091 1.2729018591344354 1.3360273428261278 1.021089054644108 1.6703373156487944 1.1126755215227602 1.22979474440217
leaf_count=27 23 33 23 29 24 30 25 15 15 13 14 21 32 19 23
internal_value=0.000360556 -0.0390831 -0.0738986 -0.0219106 0.0279903 -0.0185617 0.0352697 0.155433 -0.188079 -0.217842 0.219221 0.215456 -0.213668 0.212805 -0.21184
internal_weight=33.1982 28.1288 23.8585 16.394 12.3195 9.64665 6.97379 4.27031 7.46447 6.02474 5.06945 3.73343 4.75184 2.13376 2.90013
internal_count=366 289 241 131 102 79 55 48 110 95 77 63 82 40 55
is_linear=0
shrinkage=0.2


Tree=12
num_leaves=18
num_cat=0
split_feature=27 15 26 23 22 24 27 27 22 23 27 24 15 24 24 27 1
split_gain=5.67093 4.72066 3.31186 3.63951 1.7936 1.407 1.09502 0.321012 1.03964 0.301091 0.268883 0.0302602 0.00588156 0.00347761 0.000352954 0.000157337 5.49797e-07
threshold=5.2958613150045055 4.4927084814303226 1.5661392321290097 5.2382305760598085 4.7157507107410011 5.042191541582663 4.9760303880983132 5.5207713272268659 4.360401080760484 5.0387345876319971 4.9760303880983132 6.040298478524174 5.4854072320166356 5.7728076964274981 5.0038882554204829 5.3311235731635884 58.500000000000007
decision_type=2 2 2 2 2 2 2 2 2 2 2 2 2 2 2 2 2
left_child=2 -2 -1 4 -4 -3 -5 8 15 10 12 -9 13 14 -6 -7 -17
right_child=1 5 3 6 9 7 -8 11 -10 -11 -12 -13 -14 -15 -16 16 -18
leaf_value=-0.14643415850344443 0.22871859829865443 -0.024166363978398459 0.039070866361033144 0.055674906828851047 0.21528692397092045 -0.21254980461513148 -0.14470190003171918 -0.21629889308378633 0.015907941221430338 0.29836847451635845 0.11163048839391845 -0.25176813164255119 0.23222888882784917 0.22601170959106917 0.21075453252244936 -0.20943777989961015 -0.20964591161668744
leaf_weight=2.3675646185875001 1.5089003182947625 2.7254625409841529 3.0207651406526548 2.1428831443190566 1.1756683774292476 1.027722075581549 2.22218032553792 2.3828931935131554 1.0972634889185426 1.5847571231424806 1.1127515845000742 1.6136404201388357 1.2187162861227987 1.0723535120487211 1.6543521322309969 1.2045704349875452 0.87750708311796177
leaf_count=13 18 22 29 25 21 19 20 36 13 11 15 13 12 15 36 28 20
internal_value=0.000454132 -0.102884 0.0735998 0.107862 0.169958 -0.148666 -0.0463336 -0.190028 -0.151468 0.220527 0.200738 -0.23062 0.2201 0.216313 0.212637 -0.210525 -0.209525
internal_weight=30.01 12.438 17.572 15.2044 10.8394 10.9291 4.36506 8.2036 4.20706 7.8186 6.23384 3.99653 5.12109 3.90237 2.83002 3.1098 2.08208
internal_count=366 169 197 184 139 151 45 129 80 110 99 49 84 72 57 67 48
is_linear=0
shrinkage=0.2


Tree=13
num_leaves=16
num_cat=0
split_feature=15 27 25 29 15 25 24 19 22 19 25 25 15 22 29
split_gain=4.48122 5.31813 5.36782 3.53963 1.48168 1.39155 0.841805 0.316634 0.16944 0.126267 0.0487211 0.00729888 0.00205472 0.000960063 7.5925e-05
threshold=4.4432774841428859 4.909777568071453 6.2111078584724044 5.7659353254958221 4.8893479593298652 4.9023486108979144 5.7353853180401178 5.249438143543351 5.1515419304530825 4.9254266557627977 4.2073789706416784 4.4707489510544933 5.3490829241327313 4.332314150387095 2.117154805576408
decision_type=2 2 2 2 2 2 2 2 2 2 2 2 2 2 2
left_child=7 2 6 4 -3 9 8 -1 -2 10 -6 -12 -10 14 -13
right_child=1 3 -4 -5 5 -7 -8 -9 12 -11 11 13 -14 -15 -16
leaf_value=0.23277315784834873 0.29662837726907187 -0.017464422766191198 -0.16729184641613698 0.14245237133888325 -0.17680836841111749 -0.051506361026340486 0.053897725109361964 0.11817347157778256 0.20982035094040824 -0.26967568372395262 -0.23065284699989227 -0.20792124965936903 0.22103444313294152 -0.21616178798334484 -0.21058905327807664
leaf_weight=2.6550313439220217 1.7115109711885477 3.0552896857261649 2.1210038214921951 2.0531648807227603 1.6202478781342486 2.6537637710571289 1.1306616179645059 1.5144932139664886 1.2411288991570475 1.5999722033739088 1.206242501735687 0.91525771841406844 1.3805179484188554 1.4459784813225267 0.79942343384027481
leaf_count=35 22 32 15 24 39 20 16 28 31 9 12 25 19 22 17
internal_value=0.00042031 -0.0342546 0.102752 -0.101956 -0.139697 -0.176164 0.20758 0.191147 0.247681 -0.219765 -0.206428 -0.217417 0.215726 -0.212366 -0.209165
internal_weight=27.1037 22.9342 7.58482 15.3493 13.2962 10.2409 5.46382 4.16952 4.33316 7.58712 5.98715 4.3669 2.62165 3.16066 1.71468
internal_count=366 303 103 200 176 144 88 63 72 124 115 76 50 64 42
is_linear=0
shrinkage=0.2


Tree=14
num_leaves=16
num_cat=0
split_feature=21 16 24 21 30 21 24 21 1 5 21 21 24 21 25
split_gain=4.67041 3.77558 2.78896 1.9556 4.76007 2.11991 1.16044 2.70441 0.611917 0.470519 0.30315 0.0678547 0.00604797 0.000804974 0.000420662
threshold=4.1195239079455375 5.6496337695700314 6.040298478524174 4.1527497152250854 9.5000000000000018 4.8809750600675139 5.3590673745433204 5.0533257236942459 68.500000000000014 1.0000000180025095e-35 4.3614906813541969 5.5262803957604243 6.0055563586856726 3.6376501149435385 4.9292224061395871
decision_type=2 2 2 2 2 2 2 2 2 2 2 2 2 2 2
left_child=12 2 3 -2 5 -5 9 -8 10 11 -4 -7 13 -1 -3
right_child=1 14 8 4 -6 6 7 -9 -10 -11 -12 -13 -14 -15 -16
leaf_value=0.2097299088279333 -0.2223005522604288 0.2084719246283262 -0.081529548516464267 0.086457389170398344 0.20828324411813456 -0.18684017659043894 -0.20727533757493186 0.29135737977459486 -0.3299954194437793 -0.09829795381256122 -0.23383490027468176 -0.24379476972858699 0.23140527016437762 0.21810745014918553 0.21397841697982267
leaf_weight=0.86805693991482547 1.8076608702540458 1.0204805061221116 1.0441046413034198 2.6420114748179895 3.2958421446382991 1.8413077518343928 0.9485066086053846 0.80377387627959251 1.3635021373629568 2.504060585051775 1.0468631908297537 1.5336356759071348 1.4565937574952839 0.9730698186904192 1.2164279166609047
leaf_count=22 13 29 23 34 33 34 30 11 13 24 24 17 14 19 26
internal_value=0.000454754 -0.0341878 -0.0633683 -0.0268871 -0.000854374 -0.0679492 -0.121406 0.0214483 -0.225756 -0.163985 -0.157783 -0.212721 0.221776 0.214158 0.211466
internal_weight=24.3659 21.0682 18.8313 15.3768 13.5691 10.2733 7.63128 1.75228 3.45447 5.879 2.09097 3.37494 3.29772 1.84113 2.23691
internal_count=366 311 256 196 183 150 116 41 60 75 47 51 55 41 55
is_linear=0
shrinkage=0.2


Tree=15
num_leaves=17
num_cat=0
split_feature=8 20 24 18 17 17 14 22 18 17 17 20 20 22 9 24
split_gain=2.8855 3.18212 2.13868 4.90372 1.22261 1.10475 1.51922 0.627714 0.581724 0.430326 0.368193 0.0985848 0.0481844 0.000336684 0.000176954 1.11085e-05
threshold=1.0000000180025095e-35 5.1195076821132206 6.040298478524174 5.5561916954750652 3.7752281985209621 5.7941728426460619 1.0000000180025095e-35 4.6472179778728515 4.2868066691015292 4.8174461919586351 4.7520458171945146 4.6107313257668281 4.9804226706843453 5.2853467580288136 1.0000000180025095e-35 6.2052099724490466
decision_type=2 2 2 2 2 2 2 2 2 2 2 2 2 2 2 2
left_child=2 12 3 5 -3 6 10 9 -8 -4 -1 -12 13 -2 -15 -11
right_child=1 4 7 -5 -6 -7 8 -9 -10 15 11 -13 -14 14 -16 -17
leaf_value=-0.068882916111039444 0.21220172685601957 -0.1364057614845986 -0.020095973295461231 0.32884090075116124 0.080392190043546252 0.078169305990350657 -0.079475935736069994 -0.32333003000978733 0.10682456484428274 -0.20675494942086381 -0.15677764983176093 -0.22486859783559746 0.2595773110640815 0.21017102795499973 0.20566802019730326 -0.20793402154471938
leaf_weight=1.1426956225186566 1.4574671536684043 2.0627834871411324 0.79631216824054885 1.4530198257416476 2.0994950719177723 1.7138411700725553 1.2544354870915415 1.0834762640297411 1.4400436673313377 0.66951986588537671 1.3678732309490444 2.2488511092960835 1.0856312401592729 0.67923649214208104 0.7181308139115572 0.61158615909516811
leaf_count=35 34 27 10 25 20 12 24 10 16 24 26 32 8 18 28 17
internal_value=0.000186411 0.094899 -0.0554986 -0.0125173 -0.0270507 -0.0666201 -0.0999109 -0.199918 0.0200909 -0.135552 -0.167848 -0.199116 0.223713 0.210075 0.207857 -0.207318
internal_weight=21.8844 8.10274 13.7817 10.6208 4.16228 9.16774 7.4539 3.16089 2.69448 2.07742 4.75942 3.61672 3.94047 2.85483 1.39737 1.28111
internal_count=366 135 231 170 47 145 133 61 40 51 93 58 88 80 46 41
is_linear=0
shrinkage=0.2


Tree=16
num_leaves=16
num_cat=0
split_feature=21 16 21 30 16 20 7 30 10 20 20 20 20 21 22
split_gain=3.30159 2.51811 1.48416 2.02851 1.46333 1.69091 1.54495 1.3895 0.297584 0.261953 0.0104643 0.0102427 0.00318912 0.00261388 0.000182678
threshold=4.1195239079455375 5.6496337695700314 4.327474518780563 9.5000000000000018 4.290099433939587 4.8648870186729267 1.0000000180025095e-35 12.500000000000002 1.0000000180025095e-35 5.5925990092302973 5.2468263683596534 4.5948950581909944 5.39259909559979 3.6376501149435385 6.2447922710670412
decision_type=2 2 2 2 2 2 2 2 2 2 2 2 2 2 2
left_child=10 2 8 4 9 6 11 -5 -2 12 13 -6 -4 -1 -3
right_child=1 14 3 7 5 -7 -8 -9 -10 -11 -12 -13 -14 -15 -16
leaf_value=0.21150350398169171 -0.23386862024261196 0.20664539545443594 -0.2330199954953045 0.22943968236729312 -0.19249989624903499 0.10444625173772921 0.085451578153273977 -0.021370878129587739 -0.11387383421945528 -0.097553973717036266 0.2299994619120482 -0.21958845142379221 -0.21753056598454557 0.19514541493184018 0.21105086774866427
leaf_weight=0.80190535262227347 1.6600857675075558 0.99461742490529903 1.019434019923209 1.779622497968375 1.2447739802300932 2.612346138805151 1.0883352598175409 1.7547308932989834 1.6467432789504528 0.92645375058054913 0.9670325219631194 1.0125148668885229 1.1112924031913278 0.76204222068190575 0.6058192104101181
leaf_count=23 27 39 16 26 28 24 24 32 18 21 13 13 27 19 16
internal_value=0.000170254 -0.0307805 -0.0549131 -0.0235035 -0.0738505 -0.0161306 -0.11028 0.104918 -0.174113 -0.186338 0.213645 -0.204651 -0.224941 0.203533 0.208313
internal_weight=19.9877 17.4568 15.8563 12.5495 9.01515 5.95797 3.34562 3.53435 3.30683 3.05718 2.53098 2.25729 2.13073 1.56395 1.60044
internal_count=366 311 256 211 153 89 65 58 45 64 55 41 43 42 55
is_linear=0
shrinkage=0.2


Tree=17
num_leaves=16
num_cat=0
split_feature=29 26 23 22 1 26 29 2 23 28 26 13 28 23 1
split_gain=1.88304 1.6633 2.14976 2.3402 1.19311 1.1908 0.633575 0.482624 0.0560334 0.0711512 0.0126435 0.00161566 6.08295e-05 2.1493e-05 2.08297e-07
threshold=2.7815176051823012 0.69243308907141665 5.2623056951796405 4.7157507107410011 63.500000000000007 5.4720066879055853 4.3459062623707405 1.0000000180025095e-35 4.4441594652094967 6.1325839038615699 4.7493371864884955 1.0000000180025095e-35 5.4530961665128945 4.9981234431345101 58.500000000000007
decision_type=2 2 2 2 2 2 2 2 2 2 2 2 2 2 2
left_child=13 -2 3 5 7 -3 -5 -4 9 12 -10 -12 -8 14 -1
right_child=1 2 4 6 -6 -7 8 -9 10 -11 11 -13 -14 -15 -16
leaf_value=-0.20411488516686274 -0.22616223242783967 -0.11290215340339152 -0.20394401095850068 0.064871737509876667 0.066769964607624285 0.13267503291573676 0.20865094233706058 -0.05871216492861462 0.24181644568674773 0.11304471094919216 0.22136212936415314 0.20941330045622528 0.20555365129040493 -0.20569355374184847 -0.20429763189872416
leaf_weight=0.53229247964918858 1.0229742527008081 2.4464586749672876 1.7622789107263079 1.6809405684471128 1.8998205196112392 1.1663581505417822 0.5299929743632672 1.904267349280417 1.1173376506194475 0.46970445383340109 0.82548063434660401 1.0021935096010566 0.4864173261448741 0.62708760239183892 0.46957258135080338
leaf_count=27 10 33 24 19 21 31 18 33 14 15 16 35 22 25 23
internal_value=0.00026499 0.020738 0.0372554 0.0939899 -0.0618642 -0.0336203 0.16942 -0.128516 0.20908 0.17742 0.225056 0.21481 0.207169 -0.204775 -0.204201
internal_weight=17.9432 16.3142 15.2913 9.72488 5.56637 3.61282 6.11207 3.66655 4.43113 1.48611 2.94501 1.82767 1.01641 1.62895 1.00187
internal_count=366 291 281 203 78 64 139 57 120 55 65 51 40 75 50
is_linear=0
shrinkage=0.2


Tree=18
num_leaves=14
num_cat=0
split_feature=21 24 5 19 21 22 21 19 17 29 22 29 19
split_gain=2.26542 1.79993 1.9147 1.42734 1.30463 2.10611 3.46274 0.0339363 0.0251257 0.0122325 0.00531811 0.00136827 4.97872e-05
threshold=4.1195239079455375 6.1959711178995489 1.0000000180025095e-35 3.8118830592110355 5.5011031935583068 4.3790896432481743 4.5006068039616265 4.2890246469565092 4.578855467452132 5.0545504215020154 5.1736850645865191 4.1718075280869309 5.1959035370633009
decision_type=2 2 2 2 2 2 2 2 2 2 2 2 2
left_child=10 2 4 -4 5 8 -7 -5 -2 -9 -1 -10 -11
right_child=1 -3 3 7 -6 6 -8 9 11 12 -12 -13 -14
leaf_value=0.19342738183467356 -0.15994482302365998 -0.23522213467926392 -0.022791258516581699 0.15948462213982426 -0.22506246950614883 -0.099616085973687082 0.22798269068011817 0.2394940222915489 -0.20559601388326509 0.2070888920362644 0.21556907670481126 -0.21805979960637087 0.20451098190636113
leaf_weight=0.68345259595662611 0.53113749064504912 1.4809403270483006 1.9669485706835974 0.50807711854577098 1.5250695440918205 2.9236398199573159 2.310608153231442 0.66667065769433964 0.8445189520716665 0.82460031099617459 1.1883732834830878 0.60450147837400436 0.47074190806597471
leaf_count=19 30 31 23 14 25 37 35 6 36 33 36 14 27
internal_value=0.000292129 -0.0261673 -0.00267114 0.104327 -0.0569941 -0.0214658 0.0449992 0.205552 -0.197156 0.217481 0.207485 -0.210796 0.206152
internal_weight=16.5293 14.6575 13.1765 4.43704 8.73948 7.21441 5.23425 2.47009 1.98016 1.96201 1.87183 1.44902 1.29534
internal_count=366 311 280 103 177 152 72 80 80 66 55 50 60
is_linear=0
shrinkage=0.2


Tree=19
num_leaves=18
num_cat=0
split_feature=15 10 15 19 26 22 29 0 18 15 28 24 29 22 24 28 22
split_gain=1.61537 1.4716 2.33109 1.66198 2.84004 0.644663 0.630026 0.409396 0.328563 0.235904 0.013477 0.00920032 0.00404485 0.00330157 0.000269808 2.90666e-05 1.77134e-07
threshold=4.4432774841428859 1.0000000180025095e-35 5.456062603218844 4.5130939934046523 5.8934893849212573 4.7832098037566135 6.1580849185295081 1.0000000180025095e-35 5.8421487705820923 4.5100202746294782 5.2363316753459594 3.684874627336602 4.125083984319649 4.6151381622882601 4.8796122295313475 2.5936814020073236 4.3014721507937645
decision_type=2 2 2 2 2 2 2 2 2 2 2 2 2 2 2 2 2
left_child=8 3 10 4 7 9 -4 -2 13 -5 -3 -12 15 -1 -13 16 -11
right_child=1 2 6 5 -6 -7 -8 -9 -10 12 11 14 -14 -15 -16 -17 -18
leaf_value=0.22797801620639302 -0.039467784628408983 0.22985438708385481 0.02998702196436567 -0.37437290798053402 0.23607586809982087 -0.096461355973351606 -0.16126831584646326 -0.22173352091264437 0.053841235781627486 -0.20276689051875563 0.17182132183839058 0.21078416534994859 -0.2272467633764694 0.20850148388300746 0.20435708102279848 -0.20525339107395857 -0.20297022632186623
leaf_weight=0.62841529864817969 0.96315711736678911 0.77527728956192765 1.378599767573178 0.46954002603888501 1.4480648059397934 2.5054728984832764 1.377224378287792 1.0096994414925575 0.75729163456708182 0.30765975918620803 0.40978441853076208 0.44934454187750794 0.40843173116445541 0.78058861661702394 0.62421511765569448 0.29373688064515591 0.38684850372374058
leaf_count=11 19 16 27 7 27 25 23 22 22 23 15 15 7 30 38 12 27
internal_value=0.000360739 -0.0266565 0.0578579 -0.0810404 0.0233724 -0.162745 -0.0655929 -0.132751 0.160085 -0.251734 0.208485 0.197316 -0.210505 0.217188 0.207047 -0.203586 -0.20288
internal_weight=14.9734 12.8071 5.01445 7.79261 3.42092 4.37169 2.75582 1.97286 2.1663 1.86622 2.25862 1.48334 1.39668 1.409 1.07356 0.988245 0.694508
internal_count=366 303 134 169 68 101 50 41 63 76 84 68 69 41 53 62 50
is_linear=0
shrinkage=0.2


Tree=20
num_leaves=18
num_cat=0
split_feature=15 27 26 22 26 15 18 26 26 29 23 15 27 18 22 27 22
split_gain=1.22154 1.98448 2.28687 1.08786 0.994137 0.939745 0.65738 0.418641 0.976953 0.158459 0.0945931 0.0856841 0.00295105 0.00157247 0.000126021 7.004e-05 3.57069e-06
threshold=4.908653712714087 4.909777568071453 0.69243308907141665 4.6772764531520226 5.2193564141596474 4.4432774841428859 6.1713337156650647 5.6744350131916512 5.9727800150224866 5.0545504215020154 4.4556518484046554 5.0806021747588206 5.414045056255091 4.7201044122158482 4.7832098037566135 5.0364197752009554 4.3014721507937645
decision_type=2 2 2 2 2 2 2 2 2 2 2 2 2 2 2 2 2
left_child=3 2 -2 5 -3 -1 9 12 -9 -5 -4 -10 -6 -11 16 -15 -14
right_child=1 4 10 6 7 -7 -8 8 11 13 -12 -13 14 15 -16 -17 -18
leaf_value=0.1147450018392579 -0.21607508370681239 0.04405245657127075 0.13914158327446643 0.35390651144486701 -0.21920560198197367 -0.12711677278211478 0.038337149871029819 0.097901936963203595 -0.12230564163109968 0.22062628152169719 0.23566859865686729 -0.22092943639580531 -0.20337983846333427 0.20333312283340105 -0.20731799530690298 0.20716098840879607 -0.20235647341113477
leaf_weight=1.2050934461876761 0.68861082196235512 1.2948059327900407 0.57353840768337239 0.41856014728546176 1.3420589677989485 1.3766782023012636 0.95277742622420181 0.72829616442322764 0.56151750963181235 0.41556750144809462 1.3909198055043814 0.94602677877992392 0.26980062201619126 0.36284722713753581 0.47502704709768295 0.40418951446190476 0.27578493766486645
leaf_count=25 10 21 26 4 18 29 24 13 18 9 37 31 17 28 14 18 24
internal_value=0.000237754 -0.0460874 0.0975502 0.0773279 -0.110751 -0.014223 0.169876 -0.154339 -0.0923055 0.248149 0.207487 -0.184195 -0.213042 0.210718 -0.204936 0.20535 -0.202863
internal_weight=13.6821 8.54639 2.65307 5.13571 5.89332 2.58177 2.55394 4.59851 2.23584 1.60116 1.96446 1.50754 2.36267 1.1826 1.02061 0.767037 0.545586
internal_count=366 229 73 137 156 54 83 135 62 59 63 49 73 55 55 46 41
is_linear=0
shrinkage=0.2


Tree=21
num_leaves=18
num_cat=0
split_feature=21 16 26 26 22 25 27 29 18 16 1 18 17 17 20 0 29
split_gain=1.52972 1.14591 1.20202 1.77118 1.61482 1.56748 2.09895 0.199255 0.147811 0.267675 0.0812197 0.0141524 0.0050269 0.00316182 0.00028065 5.81206e-05 1.05014e-05
threshold=4.1195239079455375 5.6496337695700314 5.7653567182680119 5.0786391052444317 5.1369610285264402 4.4607354179920735 5.2093883780342578 5.2536479814476467 6.1082304476423568 4.6210981838578675 69.500000000000014 6.2314975572656559 6.0167742058060627 4.7520458171945146 5.39259909559979 1.0000000180025095e-35 2.0837909704507949
decision_type=2 2 2 2 2 2 2 2 2 2 2 2 2 2 2 2 2
left_child=11 2 3 4 -2 -4 -7 8 9 13 12 -1 16 -5 -15 -3 -8
right_child=1 15 5 7 -6 6 10 -9 -10 -11 -12 -13 -14 14 -16 -17 -18
leaf_value=0.17230613581289114 0.16827820959672032 0.20603817233129398 0.2109079671054187 -0.1863226687491778 -0.14112667003369686 0.22360299766344421 -0.20207111153229029 -0.11151033665482164 -0.12789869962624739 -0.37123853035908477 -0.12590463757324363 0.2148557240532577 -0.23168242600168051 -0.20437556657071043 -0.21066433803811566 0.20249517319260965 -0.20386258258216017
leaf_weight=0.48544830689206786 1.4616229608654943 0.51661650976166207 1.4321141624823215 0.39541571587324265 1.253279131837189 0.75109016709029708 0.25443810503929831 0.98282301612198342 0.57979395240545262 0.48991374671459187 0.66653136629611254 0.87856347765773535 0.45766507834196091 0.67468591127544619 0.49001007527112961 0.28869981225579977 0.26953656785190105
leaf_count=21 19 26 33 35 26 8 26 25 6 2 10 34 4 35 12 29 15
internal_value=-2.7601e-05 -0.0248764 -0.0430807 -0.0966138 0.0254478 0.0453297 -0.0535037 -0.188343 -0.217057 -0.242273 -0.179784 0.199712 -0.216369 -0.201775 -0.207021 0.204768 -0.202993
internal_weight=12.3282 10.9642 10.1589 6.32754 2.7149 3.83138 2.39926 3.61264 2.62982 2.05003 1.64817 1.36401 0.98164 1.56011 1.1647 0.805316 0.523975
internal_count=366 311 256 160 45 96 63 115 90 84 55 55 45 82 47 55 41
is_linear=0
shrinkage=0.2


Tree=22
num_leaves=17
num_cat=0
split_feature=21 16 26 24 26 1 8 25 16 5 1 23 16 8 1 16
split_gain=1.1954 0.917207 1.08264 2.23614 0.977446 0.569098 0.365446 0.0912276 0.264615 0.0180696 0.0111791 0.010725 0.00193717 6.31631e-05 3.10741e-05 5.17951e-06
threshold=4.1195239079455375 5.5369955877217656 5.8934893849212573 6.1041761492255118 5.0786391052444317 53.500000000000007 1.0000000180025095e-35 5.5459472616890277 4.6968155387658976 1.0000000180025095e-35 62.500000000000007 5.1026617247036503 5.6280880599528187 1.0000000180025095e-35 62.500000000000007 1.1180717495073489
decision_type=2 2 2 2 2 2 2 2 2 2 2 2 2 2 2 2
left_child=10 2 4 -4 -2 -3 7 8 9 14 -1 -5 -7 -14 15 -6
right_child=1 5 3 11 6 12 -8 -9 -10 -11 -12 -13 13 -15 -16 -17
leaf_value=0.21633933656993565 0.004408880558952534 -0.070283235520868653 0.19069379431045475 -0.17025898085670904 -0.20161305974081312 0.2228462626294484 -0.035056589194507916 -0.26689236449583142 -0.059848309336683315 -0.24807572540199063 0.17628108000359277 -0.21382262214865089 0.20690719620577858 0.2027543565765397 -0.20448568509402656 -0.20288480955408064
leaf_weight=0.47026220848783917 2.3313409537076932 0.40607154741883167 1.7518379278481009 0.40311731677502383 0.22957400185987464 0.37353324331343174 0.70927897095680226 0.57511200755834568 0.56724609062075604 0.55025991797447193 0.68396405875682831 0.5146436532959342 0.2532290150411427 0.34758281428366899 0.54386404436081648 0.28980655781924725
leaf_count=19 39 11 36 37 29 9 12 8 15 6 36 12 12 37 26 22
internal_value=3.94732e-05 -0.0225331 -0.0471814 0.0582064 -0.0957182 0.128635 -0.163084 -0.196034 -0.177347 -0.218655 0.192602 -0.194688 0.211536 0.204505 -0.203429 -0.202323
internal_weight=11.0007 9.8465 8.46608 2.6696 5.79648 1.38042 3.46514 2.75586 2.18075 1.6135 1.15423 0.917761 0.974345 0.600812 1.06324 0.519381
internal_count=366 311 242 85 157 69 118 106 98 83 55 49 58 49 77 51
is_linear=0
shrinkage=0.2


end of trees

feature_importances:
Column_15=31
Column_29=30
Column_16=29
Column_22=27
Column_27=21
Column_21=18
Column_24=18
Column_20=17
Column_25=17
Column_18=16
Column_19=16
Column_1=14
Column_26=14
Column_23=13
Column_28=12
Column_17=8
Column_8=6
Column_7=4
Column_0=3
Column_5=3
Column_10=3
Column_30=3
Column_9=2
Column_12=2
Column_2=1
Column_11=1
Column_13=1
Column_14=1

parameters:
[boosting: gbdt]
[objective: binary]
[metric: custom]
[tree_learner: serial]
[device_type: cpu]
[data_sample_strategy: bagging]
[data: ]
[valid: ]
[num_iterations: 10000]
[learning_rate: 0.2]
[num_leaves: 63]
[num_threads: 0]
[seed: 1239]
[deterministic: 0]
[force_col_wise: 0]
[force_row_wise: 0]
[histogram_pool_size: -1]
[max_depth: -1]
[min_data_in_leaf: 20]
[min_sum_hessian_in_leaf: 0.001]
[bagging_fraction: 1]
[pos_bagging_fraction: 1]
[neg_bagging_fraction: 1]
[bagging_freq: 0]
[bagging_seed: 21187]
[bagging_by_query: 0]
[feature_fraction: 0.5]
[feature_fraction_bynode: 1]
[feature_fraction_seed: 30770]
[extra_trees: 0]
[extra_seed: 27351]
[early_stopping_round: 0]
[early_stopping_min_delta: 0]
[first_metric_only: 0]
[max_delta_step: 0]
[lambda_l1: 0]
[lambda_l2: 0]
[linear_lambda: 0]
[min_gain_to_split: 0]
[drop_rate: 0.1]
[max_drop: 50]
[skip_drop: 0.5]
[xgboost_dart_mode: 0]
[uniform_drop: 0]
[drop_seed: 3778]
[top_rate: 0.2]
[other_rate: 0.1]
[min_data_per_group: 100]
[max_cat_threshold: 32]
[cat_l2: 10]
[cat_smooth: 10]
[max_cat_to_onehot: 4]
[top_k: 20]
[monotone_constraints: ]
[monotone_constraints_method: basic]
[monotone_penalty: 0]
[feature_contri: ]
[forcedsplits_filename: ]
[refit_decay_rate: 0.9]
[cegb_tradeoff: 1]
[cegb_penalty_split: 0]
[cegb_penalty_feature_lazy: ]
[cegb_penalty_feature_coupled: ]
[path_smooth: 0]
[interaction_constraints: ]
[verbosity: -1]
[saved_feature_importance_type: 0]
[use_quantized_grad: 0]
[num_grad_quant_bins: 4]
[quant_train_renew_leaf: 0]
[stochastic_rounding: 1]
[linear_tree: 0]
[max_bin: 255]
[max_bin_by_feature: ]
[min_data_in_bin: 3]
[bin_construct_sample_cnt: 200000]
[data_random_seed: 4084]
[is_enable_sparse: 1]
[enable_bundle: 1]
[use_missing: 1]
[zero_as_missing: 0]
[feature_pre_filter: 1]
[pre_partition: 0]
[two_round: 0]
[header: 0]
[label_column: ]
[weight_column: ]
[group_column: ]
[ignore_column: ]
[categorical_feature: ]
[forcedbins_filename: ]
[precise_float_parser: 0]
[parser_config_file: ]
[objective_seed: 9093]
[num_class: 1]
[is_unbalance: 0]
[scale_pos_weight: 1]
[sigmoid: 1]
[boost_from_average: 1]
[reg_sqrt: 0]
[alpha: 0.9]
[fair_c: 1]
[poisson_max_delta_step: 0.7]
[tweedie_variance_power: 1.5]
[lambdarank_truncation_level: 30]
[lambdarank_norm: 1]
[label_gain: ]
[lambdarank_position_bias_regularization: 0]
[eval_at: ]
[multi_error_top_k: 1]
[auc_mu_weights: ]
[num_machines: 1]
[local_listen_port: 12400]
[time_out: 120]
[machine_list_filename: ]
[machines: ]
[gpu_platform_id: -1]
[gpu_device_id: -1]
[gpu_use_dp: 0]
[num_gpu: 1]

end of parameters

pandas_categorical:null
