{"learner":{"attributes":{"best_iteration":"7","best_score":"-0.926316"},"feature_names":[],"feature_types":[],"gradient_booster":{"model":{"gbtree_model_param":{"num_parallel_tree":"1","num_trees":"58"},"iteration_indptr":[0,1,2,3,4,5,6,7,8,9,10,11,12,13,14,15,16,17,18,19,20,21,22,23,24,25,26,27,28,29,30,31,32,33,34,35,36,37,38,39,40,41,42,43,44,45,46,47,48,49,50,51,52,53,54,55,56,57,58],"tree_info":[0,0,0,0,0,0,0,0,0,0,0,0,0,0,0,0,0,0,0,0,0,0,0,0,0,0,0,0,0,0,0,0,0,0,0,0,0,0,0,0,0,0,0,0,0,0,0,0,0,0,0,0,0,0,0,0,0,0],"trees":[{"base_weights":[-0E0,-8.595745E-1,1.4532374E0,-1.4285715E0,7.5E-1,9.866667E-1,1.882353E-1,-1.76E-1,4.8275862E-2,-2.857143E-2,1.7575757E-1,-0E0,1.3962264E0,6.666667E-2,1.7575757E-1],"categories":[],"categories_nodes":[],"categories_segments":[],"categories_sizes":[],"default_left":[0,0,0,0,0,0,0,0,0,0,0,0,0,0,0],"id":0,"left_children":[1,3,5,7,9,11,-1,-1,-1,-1,-1,-1,13,-1,-1],"loss_changes":[1.16797E2,5.48772E1,5.1001434E0,2.8563942E1,1.7199133E1,7.5768547E0,0E0,0E0,0E0,0E0,0E0,0E0,2.3213253E0,0E0,0E0],"parents":[2147483647,0,0,1,1,2,2,3,3,4,4,5,5,12,12],"right_children":[2,4,6,8,10,12,-1,-1,-1,-1,-1,-1,14,-1,-1],"split_conditions":[1E0,1E0,1E0,1E0,1E0,1E0,1.882353E-1,-1.76E-1,4.8275862E-2,-2.857143E-2,1.7575757E-1,-0E0,1E0,6.666667E-2,1.7575757E-1],"split_indices":[8,5,3,10,13,7,0,0,0,0,0,0,11,0,0],"split_type":[0,0,0,0,0,0,0,0,0,0,0,0,0,0,0],"sum_hessian":[9.15E1,5.775E1,3.375E1,4.275E1,1.5E1,1.775E1,1.6E1,3.65E1,6.25E0,7.75E0,7.25E0,5.5E0,1.225E1,5E0,7.25E0],"tree_param":{"num_deleted":"0","num_feature":"15","num_nodes":"15","size_leaf_vector":"1"}},{"base_weights":[4.884535E-3,-7.780416E-1,1.328387E0,-1.2974576E0,6.8686175E-1,9.0406376E-1,1.719967E-1,-1.6011408E-1,4.41371E-2,-4.167119E-2,1.488119E-1,-0E0,1.2810785E0,8.385613E-2,1.5829249E-1],"categories":[],"categories_nodes":[],"categories_segments":[],"categories_sizes":[],"default_left":[0,0,0,0,0,0,0,0,0,0,0,0,0,0,0],"id":1,"left_children":[1,3,5,7,9,11,-1,-1,-1,-1,-1,-1,13,-1,-1],"loss_changes":[9.631849E1,4.5333385E1,4.185383E0,2.36586E1,1.4717406E1,6.3699703E0,0E0,0E0,0E0,0E0,0E0,0E0,4.3427086E-1,0E0,0E0],"parents":[2147483647,0,0,1,1,2,2,3,3,4,4,5,5,12,12],"right_children":[2,4,6,8,10,12,-1,-1,-1,-1,-1,-1,14,-1,-1],"split_conditions":[1E0,1E0,1E0,1E0,1E0,1E0,1.719967E-1,-1.6011408E-1,4.41371E-2,-4.167119E-2,1.488119E-1,-0E0,6E1,8.385613E-2,1.5829249E-1],"split_indices":[8,5,3,10,7,7,0,0,0,0,0,0,1,0,0],"split_type":[0,0,0,0,0,0,0,0,0,0,0,0,0,0,0],"sum_hessian":[9.095572E1,5.7407875E1,3.3547848E1,4.2465157E1,1.4942717E1,1.7688745E1,1.5859102E1,3.6218796E1,6.24636E0,6.4874554E0,8.455261E0,5.5E0,1.2188746E1,6.474708E0,5.7140384E0],"tree_param":{"num_deleted":"0","num_feature":"15","num_nodes":"15","size_leaf_vector":"1"}},{"base_weights":[8.850387E-3,-7.1157175E-1,1.2267888E0,-1.191886E0,6.298757E-1,8.3353907E-1,1.5945846E-1,-1.5440944E-1,2.2729853E-2,-2.8385809E-2,1.5379785E-1,-0E0,1.1849982E0,7.7043384E-2,1.4718598E-1],"categories":[],"categories_nodes":[],"categories_segments":[],"categories_sizes":[],"default_left":[0,0,0,0,0,0,0,0,0,0,0,0,0,0,0],"id":2,"left_children":[1,3,5,7,9,11,-1,-1,-1,-1,-1,-1,13,-1,-1],"loss_changes":[8.0358734E1,3.7833256E1,3.5936737E0,2.1706963E1,1.3570393E1,5.432582E0,0E0,0E0,0E0,0E0,0E0,0E0,4.1726875E-1,0E0,0E0],"parents":[2147483647,0,0,1,1,2,2,3,3,4,4,5,5,12,12],"right_children":[2,4,6,8,10,12,-1,-1,-1,-1,-1,-1,14,-1,-1],"split_conditions":[1E0,1E0,1E0,1E0,1E0,1E0,1.5945846E-1,-1.5440944E-1,2.2729853E-2,-2.8385809E-2,1.5379785E-1,-0E0,6E1,7.7043384E-2,1.4718598E-1],"split_indices":[8,5,3,9,13,7,0,0,0,0,0,0,1,0,0],"split_type":[0,0,0,0,0,0,0,0,0,0,0,0,0,0,0],"sum_hessian":[8.958934E1,5.6553288E1,3.303605E1,4.1724903E1,1.4828385E1,1.7544096E1,1.5491955E1,3.335817E1,8.366733E0,7.7339215E0,7.094464E0,5.5E0,1.2044096E1,6.4330173E0,5.6110783E0],"tree_param":{"num_deleted":"0","num_feature":"15","num_nodes":"15","size_leaf_vector":"1"}},{"base_weights":[1.2348435E-2,-6.54496E-1,1.1416534E0,-1.1018958E0,5.828171E-1,7.939542E-1,1.5266874E-1,-1.3846473E0,4.3946866E-2,-3.9372995E-2,1.3128157E-1,1.1752225E-2,1.0966636E0,-1.494841E-1,-9.388148E-2,5.710428E-2,1.4219314E-1],"categories":[],"categories_nodes":[],"categories_segments":[],"categories_sizes":[],"default_left":[0,0,0,0,0,0,0,0,0,0,0,0,0,0,0,0,0],"id":3,"left_children":[1,3,5,7,9,11,-1,13,-1,-1,-1,-1,15,-1,-1,-1,-1],"loss_changes":[6.7551414E1,3.1869432E1,3.2457924E0,1.88153E1,1.1662466E1,3.8806267E0,0E0,3.4267426E-1,0E0,0E0,0E0,0E0,1.4802723E0,0E0,0E0,0E0,0E0],"parents":[2147483647,0,0,1,1,2,2,3,3,4,4,5,5,7,7,12,12],"right_children":[2,4,6,8,10,12,-1,14,-1,-1,-1,-1,16,-1,-1,-1,-1],"split_conditions":[1E0,1E0,1E0,1E0,1E0,1E0,1.5266874E-1,1E0,4.3946866E-2,-3.9372995E-2,1.3128157E-1,1.1752225E-2,6.2E1,-1.494841E-1,-9.388148E-2,5.710428E-2,1.4219314E-1],"split_indices":[8,5,5,10,7,12,0,6,0,0,0,0,1,0,0,0,0],"split_type":[0,0,0,0,0,0,0,0,0,0,0,0,0,0,0,0,0],"sum_hessian":[8.770907E1,5.5410255E1,3.2298813E1,4.0775642E1,1.4634613E1,1.858129E1,1.3717525E1,3.454103E1,6.2346106E0,6.457206E0,8.177407E0,6.1737385E0,1.240755E1,2.5809042E1,8.73199E0,5.796395E0,6.611155E0],"tree_param":{"num_deleted":"0","num_feature":"15","num_nodes":"17","size_leaf_vector":"1"}},{"base_weights":[1.4250774E-2,-6.075483E-1,1.0669743E0,-1.0054387E0,6.0523766E-1,7.0533055E-1,1.4218603E-1,-1.3644738E-1,2.0013018E-2,-5.3182002E-2,1.3360594E-1,-2.5384265E-3,1.0269374E0,6.387546E-2,1.3132428E-1],"categories":[],"categories_nodes":[],"categories_segments":[],"categories_sizes":[],"default_left":[0,0,0,0,0,0,0,0,0,0,0,0,0,0,0],"id":4,"left_children":[1,3,5,7,9,11,-1,-1,-1,-1,-1,-1,13,-1,-1],"loss_changes":[5.7231255E1,2.7139622E1,3.1632423E0,1.8354668E1,1.2515704E1,4.270647E0,0E0,0E0,0E0,0E0,0E0,0E0,5.5772495E-1,0E0,0E0],"parents":[2147483647,0,0,1,1,2,2,3,3,4,4,5,5,12,12],"right_children":[2,4,6,8,10,12,-1,-1,-1,-1,-1,-1,14,-1,-1],"split_conditions":[1E0,1E0,1E0,1E0,1E0,1E0,1.4218603E-1,-1.3644738E-1,2.0013018E-2,-5.3182002E-2,1.3360594E-1,-2.5384265E-3,6E1,6.387546E-2,1.3132428E-1],"split_indices":[8,9,3,5,7,7,0,0,0,0,0,0,1,0,0],"split_type":[0,0,0,0,0,0,0,0,0,0,0,0,0,0,0],"sum_hessian":[8.544139E1,5.3980362E1,3.146103E1,4.077416E1,1.32062025E1,1.7061815E1,1.4399213E1,3.1316006E1,9.458153E0,5.273564E0,7.932639E0,5.4958663E0,1.1565949E1,6.280988E0,5.284961E0],"tree_param":{"num_deleted":"0","num_feature":"15","num_nodes":"15","size_leaf_vector":"1"}},{"base_weights":[1.6638452E-2,-5.6479144E-1,1.0029341E0,-9.3939215E-1,5.6047153E-1,6.568798E-1,1.3529436E-1,-1.2868779E0,1.822784E-2,-4.9082026E-2,1.24545276E-1,-2.3235804E-3,9.632607E-1,-1.3925634E-1,-8.5608415E-2,5.903108E-2,1.2469794E-1],"categories":[],"categories_nodes":[],"categories_segments":[],"categories_sizes":[],"default_left":[0,0,0,0,0,0,0,0,0,0,0,0,0,0,0,0,0],"id":5,"left_children":[1,3,5,7,9,11,-1,13,-1,-1,-1,-1,15,-1,-1,-1,-1],"loss_changes":[4.868237E1,2.3046888E1,2.9239998E0,1.6002972E1,1.0671177E1,3.7256699E0,0E0,2.1976852E-1,0E0,0E0,0E0,0E0,5.628767E-1,0E0,0E0,0E0,0E0],"parents":[2147483647,0,0,1,1,2,2,3,3,4,4,5,5,7,7,12,12],"right_children":[2,4,6,8,10,12,-1,14,-1,-1,-1,-1,16,-1,-1,-1,-1],"split_conditions":[1E0,1E0,1E0,1E0,1E0,1E0,1.3529436E-1,1E0,1.822784E-2,-4.9082026E-2,1.24545276E-1,-2.3235804E-3,6E1,-1.3925634E-1,-8.5608415E-2,5.903108E-2,1.2469794E-1],"split_indices":[8,9,3,5,7,7,0,6,0,0,0,0,1,0,0,0,0],"split_type":[0,0,0,0,0,0,0,0,0,0,0,0,0,0,0,0,0],"sum_hessian":[8.290433E1,5.2426064E1,3.0478262E1,3.9456238E1,1.2969826E1,1.6772274E1,1.3705989E1,3.0011576E1,9.444664E0,5.228583E0,7.7412424E0,5.4960656E0,1.1276207E1,2.2306604E1,7.7049704E0,6.202977E0,5.0732303E0],"tree_param":{"num_deleted":"0","num_feature":"15","num_nodes":"17","size_leaf_vector":"1"}},{"base_weights":[1.764925E-2,-5.28442E-1,9.46102E-1,-9.27111E-1,5.143676E-1,6.226214E-1,1.3283657E-1,-1.1162853E0,-1.160672E-2,-3.1299677E-2,1.2888865E-1,6.4411983E-3,8.9295644E-1,-1.2559977E-1,-4.47952E-2,3.9716538E-2,1.2323828E-1],"categories":[],"categories_nodes":[],"categories_segments":[],"categories_sizes":[],"default_left":[0,0,0,0,0,0,0,0,0,0,0,0,0,0,0,0,0],"id":6,"left_children":[1,3,5,7,9,11,-1,13,-1,-1,-1,-1,15,-1,-1,-1,-1],"loss_changes":[4.167745E1,2.200319E1,2.9364834E0,5.672371E0,9.992236E0,2.7142363E0,0E0,2.289688E0,0E0,0E0,0E0,0E0,1.5799379E0,0E0,0E0,0E0,0E0],"parents":[2147483647,0,0,1,1,2,2,3,3,4,4,5,5,7,7,12,12],"right_children":[2,4,6,8,10,12,-1,14,-1,-1,-1,-1,16,-1,-1,-1,-1],"split_conditions":[1E0,1E0,1E0,1E0,1E0,1E0,1.3283657E-1,1E0,-1.160672E-2,-3.1299677E-2,1.2888865E-1,6.4411983E-3,6.2E1,-1.2559977E-1,-4.47952E-2,3.9716538E-2,1.2323828E-1],"split_indices":[8,13,5,9,12,12,0,3,0,0,0,0,1,0,0,0,0],"split_type":[0,0,0,0,0,0,0,0,0,0,0,0,0,0,0,0,0],"sum_hessian":[8.021474E1,5.077882E1,2.9435917E1,3.681521E1,1.3963609E1,1.7367716E1,1.2068199E1,2.9547062E1,7.2681484E0,7.03959E0,6.924019E0,6.0707045E0,1.1297012E1,2.3711063E1,5.835998E0,5.4729404E0,5.8240714E0],"tree_param":{"num_deleted":"0","num_feature":"15","num_nodes":"17","size_leaf_vector":"1"}},{"base_weights":[1.9180572E-2,-4.919729E-1,8.9336467E-1,-8.686507E-1,4.7769347E-1,1.2946752E-1,5.8931935E-1,-1.0538456E0,-1.0590274E-2,-2.9407194E-2,1.3101205E-1,2.526691E-1,1.1870793E-1,-1.1934078E-1,-4.1325364E-2,6.1840255E-2,-2.0540178E-2],"categories":[],"categories_nodes":[],"categories_segments":[],"categories_sizes":[],"default_left":[0,0,0,0,0,0,0,0,0,0,0,0,0,0,0,0,0],"id":7,"left_children":[1,3,5,7,9,-1,11,13,-1,-1,-1,15,-1,-1,-1,-1,-1],"loss_changes":[3.5635235E1,1.8804615E1,2.8264484E0,5.060726E0,9.849315E0,0E0,3.437522E0,2.130886E0,0E0,0E0,0E0,2.3303323E0,0E0,0E0,0E0,0E0,0E0],"parents":[2147483647,0,0,1,1,2,2,3,3,4,4,6,6,7,7,11,11],"right_children":[2,4,6,8,10,-1,12,14,-1,-1,-1,16,-1,-1,-1,-1,-1],"split_conditions":[1E0,1E0,1E0,1E0,1E0,1.2946752E-1,1E0,1E0,-1.0590274E-2,-2.9407194E-2,1.3101205E-1,6.4E1,1.1870793E-1,-1.1934078E-1,-4.1325364E-2,6.1840255E-2,-2.0540178E-2],"split_indices":[8,13,2,9,5,0,13,3,0,0,0,1,0,0,0,0,0],"split_type":[0,0,0,0,0,0,0,0,0,0,0,0,0,0,0,0,0],"sum_hessian":[7.776543E1,4.9347908E1,2.8417519E1,3.5616467E1,1.37314415E1,1.0845E1,1.757252E1,2.8351171E1,7.2652974E0,7.4609365E0,6.2705045E0,1.2151597E1,5.4209213E0,2.257082E1,5.7803516E0,6.5621905E0,5.5894065E0],"tree_param":{"num_deleted":"0","num_feature":"15","num_nodes":"17","size_leaf_vector":"1"}},{"base_weights":[2.0819051E-2,-4.5922336E-1,8.439559E-1,-8.2394415E-1,4.5781457E-1,5.1412463E-1,1.2143963E-1,-1.0878407E0,3.932048E-2,-2.4210801E-2,1.2491836E-1,-5.920075E-3,7.9661477E-1,-1.2200353E-1,-6.031945E-2,4.661959E-2,9.982814E-2],"categories":[],"categories_nodes":[],"categories_segments":[],"categories_sizes":[],"default_left":[0,0,0,0,0,0,0,0,0,0,0,0,0,0,0,0,0],"id":8,"left_children":[1,3,5,7,9,11,-1,13,-1,-1,-1,-1,15,-1,-1,-1,-1],"loss_changes":[3.0516077E1,1.670182E1,2.85042E0,1.1758865E1,8.351184E0,2.7645612E0,0E0,1.1385117E0,0E0,0E0,0E0,0E0,2.8819227E-1,0E0,0E0,0E0,0E0],"parents":[2147483647,0,0,1,1,2,2,3,3,4,4,5,5,7,7,12,12],"right_children":[2,4,6,8,10,12,-1,14,-1,-1,-1,-1,16,-1,-1,-1,-1],"split_conditions":[1E0,1E0,1E0,1E0,1E0,1E0,1.2143963E-1,1E0,3.932048E-2,-2.4210801E-2,1.2491836E-1,-5.920075E-3,5.9E1,-1.2200353E-1,-6.031945E-2,4.661959E-2,9.982814E-2],"split_indices":[8,5,3,10,13,7,0,6,0,0,0,0,1,0,0,0,0],"split_type":[0,0,0,0,0,0,0,0,0,0,0,0,0,0,0,0,0],"sum_hessian":[7.524758E1,4.780844E1,2.7439138E1,3.4277313E1,1.3531125E1,1.5778348E1,1.166079E1,2.8257002E1,6.020313E0,7.5487404E0,5.982384E0,5.469073E0,1.0309276E1,2.1009085E1,7.247918E0,5.162514E0,5.1467614E0],"tree_param":{"num_deleted":"0","num_feature":"15","num_nodes":"17","size_leaf_vector":"1"}},{"base_weights":[2.2401989E-2,-4.3068978E-1,8.0035067E-1,-7.659054E-1,4.982469E-1,4.9394456E-1,1.1973412E-1,-1.0996209E0,1.8199785E-2,-4.189084E-2,1.11830436E-1,2.3089915E-3,7.428275E-1,-1.22473575E-1,-6.3368306E-2,2.5240455E-2,1.11538425E-1],"categories":[],"categories_nodes":[],"categories_segments":[],"categories_sizes":[],"default_left":[0,0,0,0,0,0,0,0,0,0,0,0,0,0,0,0,0],"id":9,"left_children":[1,3,5,7,9,11,-1,13,-1,-1,-1,-1,15,-1,-1,-1,-1],"loss_changes":[2.6240414E1,1.504111E1,2.7402744E0,1.1267794E1,7.912201E0,1.9938755E0,0E0,7.407284E-1,0E0,0E0,0E0,0E0,1.7638273E0,0E0,0E0,0E0,0E0],"parents":[2147483647,0,0,1,1,2,2,3,3,4,4,5,5,7,7,12,12],"right_children":[2,4,6,8,10,12,-1,14,-1,-1,-1,-1,16,-1,-1,-1,-1],"split_conditions":[1E0,1E0,1E0,1E0,1E0,1E0,1.1973412E-1,1E0,1.8199785E-2,-4.189084E-2,1.11830436E-1,2.3089915E-3,6.2E1,-1.22473575E-1,-6.3368306E-2,2.5240455E-2,1.11538425E-1],"split_indices":[8,9,5,5,7,12,0,6,0,0,0,0,1,0,0,0,0],"split_type":[0,0,0,0,0,0,0,0,0,0,0,0,0,0,0,0,0],"sum_hessian":[7.2466736E1,4.6077007E1,2.6389727E1,3.398772E1,1.2089288E1,1.6160734E1,1.0228992E1,2.5019415E1,8.968305E0,5.007246E0,7.0820417E0,5.966208E0,1.0194527E1,1.8439465E1,6.5799494E0,5.1252666E0,5.06926E0],"tree_param":{"num_deleted":"0","num_feature":"15","num_nodes":"17","size_leaf_vector":"1"}},{"base_weights":[2.3086326E-2,-4.0536225E-1,7.5916004E-1,-7.464422E-1,4.4951698E-1,4.4145933E-1,1.1455553E-1,-9.225136E-1,-8.205715E-3,-2.8019E-2,1.16213225E-1,7.6234244E-2,-4.8479172E-3,-1.0726472E-1,-2.987643E-2],"categories":[],"categories_nodes":[],"categories_segments":[],"categories_sizes":[],"default_left":[0,0,0,0,0,0,0,0,0,0,0,0,0,0,0],"id":10,"left_children":[1,3,5,7,9,11,-1,13,-1,-1,-1,-1,-1,-1,-1],"loss_changes":[2.2640745E1,1.3577159E1,2.7353811E0,3.7655926E0,7.3849545E0,2.5706182E0,0E0,2.1012554E0,0E0,0E0,0E0,0E0,0E0,0E0,0E0],"parents":[2147483647,0,0,1,1,2,2,3,3,4,4,5,5,7,7],"right_children":[2,4,6,8,10,12,-1,14,-1,-1,-1,-1,-1,-1,-1],"split_conditions":[1E0,1E0,1E0,1E0,1E0,6.4E1,1.1455553E-1,1E0,-8.205715E-3,-2.8019E-2,1.16213225E-1,7.6234244E-2,-4.8479172E-3,-1.0726472E-1,-2.987643E-2],"split_indices":[8,13,3,9,12,1,0,3,0,0,0,0,0,0,0],"split_type":[0,0,0,0,0,0,0,0,0,0,0,0,0,0,0],"sum_hessian":[6.981532E1,4.441301E1,2.5402317E1,3.183737E1,1.2575638E1,1.5116104E1,1.0286212E1,2.4860472E1,6.976899E0,6.513119E0,6.0625186E0,8.797937E0,6.3181667E0,1.945747E1,5.4030013E0],"tree_param":{"num_deleted":"0","num_feature":"15","num_nodes":"15","size_leaf_vector":"1"}},{"base_weights":[2.3389373E-2,-3.7864327E-1,7.169452E-1,-7.145059E-1,4.0938836E-1,1.154655E-1,4.19111E-1,-1.0248778E0,2.1544171E-2,-2.0919679E-2,1.16842546E-1,7.075664E-2,-2.076255E-3,-1.1604679E-1,-5.422085E-2],"categories":[],"categories_nodes":[],"categories_segments":[],"categories_sizes":[],"default_left":[0,0,0,0,0,0,0,0,0,0,0,0,0,0,0],"id":11,"left_children":[1,3,5,7,9,-1,11,13,-1,-1,-1,-1,-1,-1,-1],"loss_changes":[1.937608E1,1.1945521E1,2.8388348E0,9.236229E0,6.720696E0,0E0,2.1383936E0,9.148197E-1,0E0,0E0,0E0,0E0,0E0,0E0,0E0],"parents":[2147483647,0,0,1,1,2,2,3,3,4,4,6,6,7,7],"right_children":[2,4,6,8,10,-1,12,14,-1,-1,-1,-1,-1,-1,-1],"split_conditions":[1E0,1E0,1E0,1E0,1E0,1.154655E-1,6.4E1,1E0,2.1544171E-2,-2.0919679E-2,1.16842546E-1,7.075664E-2,-2.076255E-3,-1.1604679E-1,-5.422085E-2],"split_indices":[8,5,2,9,13,0,1,6,0,0,0,0,0,0,0],"split_type":[0,0,0,0,0,0,0,0,0,0,0,0,0,0,0],"sum_hessian":[6.7516556E1,4.3028393E1,2.4488161E1,3.0235281E1,1.279311E1,8.750789E0,1.5737371E1,2.2592806E1,7.6424766E0,7.447822E0,5.345288E0,9.137027E0,6.6003447E0,1.654169E1,6.0511146E0],"tree_param":{"num_deleted":"0","num_feature":"15","num_nodes":"15","size_leaf_vector":"1"}},{"base_weights":[2.3675514E-2,-4.1744593E-1,5.9622234E-1,-8.8364905E-1,7.511916E-2,-5.3750284E-2,1.2664498E-1,-1.0727014E-1,-4.5078095E-2,-4.661263E-2,4.4359293E-2],"categories":[],"categories_nodes":[],"categories_segments":[],"categories_sizes":[],"default_left":[0,0,0,0,0,0,0,0,0,0,0],"id":12,"left_children":[1,3,5,7,-1,9,-1,-1,-1,-1,-1],"loss_changes":[1.6949537E1,2.1332836E1,1.2783033E1,1.773304E0,0E0,3.4425066E0,0E0,0E0,0E0,0E0,0E0],"parents":[2147483647,0,0,1,1,2,2,3,3,5,5],"right_children":[2,4,6,8,-1,10,-1,-1,-1,-1,-1],"split_conditions":[1E0,1E0,1E0,1E0,7.511916E-2,1E0,1.2664498E-1,-1.0727014E-1,-4.5078095E-2,-4.661263E-2,4.4359293E-2],"split_indices":[10,5,7,6,0,13,0,0,0,0,0],"split_type":[0,0,0,0,0,0,0,0,0,0,0],"sum_hessian":[6.512477E1,3.6937214E1,2.8187557E1,2.6578249E1,1.0358965E1,1.4776966E1,1.341059E1,1.747015E1,9.108099E0,8.112878E0,6.664089E0],"tree_param":{"num_deleted":"0","num_feature":"15","num_nodes":"11","size_leaf_vector":"1"}},{"base_weights":[2.2918282E-2,-4.2146644E-1,5.490325E-1,-7.585244E-1,3.4797552E-1,-2.5932243E-1,1.1404151E-1,-9.900885E-2,-3.3563457E-2,4.3901633E-2,1.9604413E-2,-8.9143366E-2,2.3717709E-2],"categories":[],"categories_nodes":[],"categories_segments":[],"categories_sizes":[],"default_left":[0,0,0,0,0,0,0,0,0,0,0,0,0],"id":13,"left_children":[1,3,5,7,9,11,-1,-1,-1,-1,-1,-1,-1],"loss_changes":[1.515756E1,9.386492E0,1.4478073E1,2.0937796E0,7.16238E-2,4.4009194E0,0E0,0E0,0E0,0E0,0E0,0E0,0E0],"parents":[2147483647,0,0,1,1,2,2,3,3,4,4,5,5],"right_children":[2,4,6,8,10,12,-1,-1,-1,-1,-1,-1,-1],"split_conditions":[1E0,1E0,1E0,1E0,6.2E1,1E0,1.1404151E-1,-9.900885E-2,-3.3563457E-2,4.3901633E-2,1.9604413E-2,-8.9143366E-2,2.3717709E-2],"split_indices":[11,5,7,6,1,10,0,0,0,0,0,0,0],"split_type":[0,0,0,0,0,0,0,0,0,0,0,0,0],"sum_hessian":[6.2842358E1,3.4175106E1,2.866725E1,2.3774677E1,1.0400431E1,1.2349009E1,1.6318241E1,1.449586E1,9.278817E0,5.3218727E0,5.0785575E0,5.0826583E0,7.2663503E0],"tree_param":{"num_deleted":"0","num_feature":"15","num_nodes":"13","size_leaf_vector":"1"}},{"base_weights":[2.1178009E-2,-2.9816258E-1,7.3223597E-1,-6.917374E-1,3.5885346E-1,1.76577E-2,1.1358511E-1,-9.611543E-1,-2.051918E-2,-4.448942E-2,1.1542785E-1,-1.2227179E-1,-7.052885E-2],"categories":[],"categories_nodes":[],"categories_segments":[],"categories_sizes":[],"default_left":[0,0,0,0,0,0,0,0,0,0,0,0,0],"id":14,"left_children":[1,3,5,7,9,-1,-1,11,-1,-1,-1,-1,-1],"loss_changes":[1.4239108E1,1.1450333E1,4.1561127E0,3.3988476E0,1.1309973E1,0E0,0E0,3.0112648E-1,0E0,0E0,0E0,0E0,0E0],"parents":[2147483647,0,0,1,1,2,2,3,3,4,4,7,7],"right_children":[2,4,6,8,10,-1,-1,12,-1,-1,-1,-1,-1],"split_conditions":[1E0,1E0,1E0,1E0,1E0,1.76577E-2,1.1358511E-1,1E0,-2.051918E-2,-4.448942E-2,1.1542785E-1,-1.2227179E-1,-7.052885E-2],"split_indices":[13,10,5,6,7,0,0,7,0,0,0,0,0],"split_type":[0,0,0,0,0,0,0,0,0,0,0,0,0],"sum_hessian":[6.0746605E1,4.2320763E1,1.8425842E1,2.6433409E1,1.5887355E1,8.357507E0,1.0068336E1,1.6385008E1,1.0048401E1,8.1215315E0,7.7658234E0,6.2337213E0,1.0151287E1],"tree_param":{"num_deleted":"0","num_feature":"15","num_nodes":"13","size_leaf_vector":"1"}},{"base_weights":[2.005652E-2,-3.9275217E-1,5.20017E-1,-7.1254253E-1,3.1267565E-2,-1.9955727E-1,1.0796561E-1,-8.627459E-2,-1.6869543E-2,7.17147E-3,-5.0533272E-2],"categories":[],"categories_nodes":[],"categories_segments":[],"categories_sizes":[],"default_left":[0,0,0,0,0,0,0,0,0,0,0],"id":15,"left_children":[1,3,5,7,-1,9,-1,-1,-1,-1,-1],"loss_changes":[1.2553022E1,7.744514E0,1.1285836E1,1.7534676E0,0E0,1.1038368E0,0E0,0E0,0E0,0E0,0E0],"parents":[2147483647,0,0,1,1,2,2,3,3,5,5],"right_children":[2,4,6,8,-1,10,-1,-1,-1,-1,-1],"split_conditions":[1E0,1E0,1E0,6.4E1,3.1267565E-2,1E0,1.0796561E-1,-8.627459E-2,-1.6869543E-2,7.17147E-3,-5.0533272E-2],"split_indices":[11,13,7,1,0,0,0,0,0,0,0],"split_type":[0,0,0,0,0,0,0,0,0,0,0],"sum_hessian":[5.8832848E1,3.234258E1,2.6490269E1,2.2247206E1,1.0095373E1,1.1870632E1,1.4619637E1,1.697309E1,5.274116E0,6.6958246E0,5.1748075E0],"tree_param":{"num_deleted":"0","num_feature":"15","num_nodes":"11","size_leaf_vector":"1"}},{"base_weights":[1.881527E-2,-3.2371837E-1,5.94217E-1,-5.954991E-1,3.789427E-2,2.663529E-1,1.0543781E-1,-9.019848E-1,1.1492921E-2,5.7984896E-2,-1.7461557E-2,-1.0611363E-1,-4.143391E-2],"categories":[],"categories_nodes":[],"categories_segments":[],"categories_sizes":[],"default_left":[0,0,0,0,0,0,0,0,0,0,0,0,0],"id":16,"left_children":[1,3,5,7,-1,9,-1,11,-1,-1,-1,-1,-1],"loss_changes":[1.1670385E1,7.320627E0,3.0509639E0,6.0215273E0,0E0,2.0689445E0,0E0,1.0427227E0,0E0,0E0,0E0,0E0,0E0],"parents":[2147483647,0,0,1,1,2,2,3,3,5,5,7,7],"right_children":[2,4,6,8,-1,10,-1,12,-1,-1,-1,-1,-1],"split_conditions":[1E0,1E0,1E0,1E0,3.789427E-2,6.4E1,1.0543781E-1,1E0,1.1492921E-2,5.7984896E-2,-1.7461557E-2,-1.0611363E-1,-4.143391E-2],"split_indices":[8,9,3,5,0,1,0,6,0,0,0,0,0],"split_type":[0,0,0,0,0,0,0,0,0,0,0,0,0],"sum_hessian":[5.723618E1,3.6152306E1,2.1083874E1,2.6179068E1,9.973235E0,1.3233704E1,7.8501697E0,1.8100641E1,8.078428E0,7.55074E0,5.682964E0,1.27601185E1,5.340522E0],"tree_param":{"num_deleted":"0","num_feature":"15","num_nodes":"13","size_leaf_vector":"1"}},{"base_weights":[1.8083617E-2,-2.7251416E-1,6.69004E-1,-6.2341666E-1,3.0057505E-1,1.55686885E-2,1.08236864E-1,-8.977382E-1,-1.6196864E-2,-4.0476684E-2,1.0852891E-1,-1.15772545E-1,-6.29311E-2],"categories":[],"categories_nodes":[],"categories_segments":[],"categories_sizes":[],"default_left":[0,0,0,0,0,0,0,0,0,0,0,0,0],"id":17,"left_children":[1,3,5,7,9,-1,-1,11,-1,-1,-1,-1,-1],"loss_changes":[1.0859397E1,8.177938E0,3.5896125E0,3.015417E0,9.164869E0,0E0,0E0,3.4895992E-1,0E0,0E0,0E0,0E0,0E0],"parents":[2147483647,0,0,1,1,2,2,3,3,4,4,7,7],"right_children":[2,4,6,8,10,-1,-1,12,-1,-1,-1,-1,-1],"split_conditions":[1E0,1E0,1E0,1E0,1E0,1.55686885E-2,1.08236864E-1,1E0,-1.6196864E-2,-4.0476684E-2,1.0852891E-1,-1.15772545E-1,-6.29311E-2],"split_indices":[13,10,5,6,7,0,0,7,0,0,0,0,0],"split_type":[0,0,0,0,0,0,0,0,0,0,0,0,0],"sum_hessian":[5.5445904E1,3.8734543E1,1.671136E1,2.3969934E1,1.4764609E1,8.068505E0,8.642856E0,1.44401045E1,9.52983E0,8.030534E0,6.734076E0,5.6524167E0,8.787687E0],"tree_param":{"num_deleted":"0","num_feature":"15","num_nodes":"13","size_leaf_vector":"1"}},{"base_weights":[1.7267006E-2,-2.5551596E-1,6.327444E-1,-5.847422E-1,2.8455192E-1,1.766303E-2,1.1247629E-1,-8.545386E-1,-1.4774923E-2,-3.6914535E-2,1.0546154E-1,-1.1169135E-1,-5.902341E-2],"categories":[],"categories_nodes":[],"categories_segments":[],"categories_sizes":[],"default_left":[0,0,0,0,0,0,0,0,0,0,0,0,0],"id":18,"left_children":[1,3,5,7,9,-1,-1,11,-1,-1,-1,-1,-1],"loss_changes":[9.354273E0,7.038692E0,3.6393566E0,2.743413E0,8.096607E0,0E0,0E0,3.6985874E-1,0E0,0E0,0E0,0E0,0E0],"parents":[2147483647,0,0,1,1,2,2,3,3,4,4,7,7],"right_children":[2,4,6,8,10,-1,-1,12,-1,-1,-1,-1,-1],"split_conditions":[1E0,1E0,1E0,1E0,1E0,1.766303E-2,1.1247629E-1,1E0,-1.4774923E-2,-3.6914535E-2,1.0546154E-1,-1.1169135E-1,-5.902341E-2],"split_indices":[13,10,6,6,7,0,0,7,0,0,0,0,0],"split_type":[0,0,0,0,0,0,0,0,0,0,0,0,0],"sum_hessian":[5.375312E1,3.7650887E1,1.6102232E1,2.3340042E1,1.4310845E1,9.061227E0,7.041005E0,1.3839891E1,9.50015E0,8.021837E0,6.289008E0,5.326462E0,8.51343E0],"tree_param":{"num_deleted":"0","num_feature":"15","num_nodes":"13","size_leaf_vector":"1"}},{"base_weights":[1.6590664E-2,-3.5349202E-1,4.7686577E-1,-6.32431E-1,2.7091017E-2,-1.372793E-1,1.0026164E-1,-8.70524E-2,-2.6191784E-2,2.047279E-2,-4.188793E-2],"categories":[],"categories_nodes":[],"categories_segments":[],"categories_sizes":[],"default_left":[0,0,0,0,0,0,0,0,0,0,0],"id":19,"left_children":[1,3,5,7,-1,9,-1,-1,-1,-1,-1],"loss_changes":[9.246129E0,5.416278E0,7.9440675E0,1.6346941E0,0E0,1.2444174E0,0E0,0E0,0E0,0E0,0E0],"parents":[2147483647,0,0,1,1,2,2,3,3,5,5],"right_children":[2,4,6,8,-1,10,-1,-1,-1,-1,-1],"split_conditions":[1E0,1E0,1E0,1E0,2.7091017E-2,6.4E1,1.0026164E-1,-8.70524E-2,-2.6191784E-2,2.047279E-2,-4.188793E-2],"split_indices":[11,5,7,6,0,1,0,0,0,0,0],"split_type":[0,0,0,0,0,0,0,0,0,0,0],"sum_hessian":[5.2290886E1,2.9113928E1,2.3176958E1,2.011507E1,8.998856E0,1.1030633E1,1.2146325E1,1.142428E1,8.690791E0,5.1043324E0,5.9263005E0],"tree_param":{"num_deleted":"0","num_feature":"15","num_nodes":"11","size_leaf_vector":"1"}},{"base_weights":[1.5441731E-2,-2.4498554E-1,6.061559E-1,-6.0381246E-1,1.8803015E-1,1.7546568E-2,1.08414724E-1,-1.8186105E-2,-8.0491126E-1,-4.144041E-2,8.8448696E-2,-9.736365E-2,-4.4178076E-2],"categories":[],"categories_nodes":[],"categories_segments":[],"categories_sizes":[],"default_left":[0,0,0,0,0,0,0,0,0,0,0,0,0],"id":20,"left_children":[1,3,5,7,9,-1,-1,-1,11,-1,-1,-1,-1],"loss_changes":[8.125193E0,5.8156266E0,3.13512E0,1.5766397E0,7.6639037E0,0E0,0E0,0E0,3.945427E-1,0E0,0E0,0E0,0E0],"parents":[2147483647,0,0,1,1,2,2,3,3,4,4,8,8],"right_children":[2,4,6,8,10,-1,-1,-1,12,-1,-1,-1,-1],"split_conditions":[1E0,1E0,1E0,1E0,1E0,1.7546568E-2,1.08414724E-1,-1.8186105E-2,6E1,-4.144041E-2,8.8448696E-2,-9.736365E-2,-4.4178076E-2],"split_indices":[13,11,6,12,7,0,0,0,1,0,0,0,0],"split_type":[0,0,0,0,0,0,0,0,0,0,0,0,0],"sum_hessian":[5.085123E1,3.569826E1,1.5152968E1,1.9305744E1,1.6392519E1,8.690003E0,6.462966E0,6.845871E0,1.2459873E1,9.006709E0,7.38581E0,7.3592396E0,5.1006336E0],"tree_param":{"num_deleted":"0","num_feature":"15","num_nodes":"13","size_leaf_vector":"1"}},{"base_weights":[1.4862377E-2,-2.869269E-1,5.218859E-1,-5.251681E-1,3.1910904E-2,2.0806545E-1,1.00838855E-1,-8.127395E-2,7.535259E-3,4.9855344E-2,-1.8543782E-2],"categories":[],"categories_nodes":[],"categories_segments":[],"categories_sizes":[],"default_left":[0,0,0,0,0,0,0,0,0,0,0],"id":21,"left_children":[1,3,5,7,-1,9,-1,-1,-1,-1,-1],"loss_changes":[7.878033E0,4.832124E0,2.7215748E0,4.1313095E0,0E0,1.5706205E0,0E0,0E0,0E0,0E0,0E0],"parents":[2147483647,0,0,1,1,2,2,3,3,5,5],"right_children":[2,4,6,8,-1,10,-1,-1,-1,-1,-1],"split_conditions":[1E0,1E0,1E0,1E0,3.1910904E-2,6.4E1,1.00838855E-1,-8.127395E-2,7.535259E-3,4.9855344E-2,-1.8543782E-2],"split_indices":[8,9,3,5,0,1,0,0,0,0,0],"split_type":[0,0,0,0,0,0,0,0,0,0,0],"sum_hessian":[4.950699E1,3.1306755E1,1.8200233E1,2.2568283E1,8.738472E0,1.1931469E1,6.268765E0,1.5021532E1,7.5467515E0,6.7106447E0,5.2208247E0],"tree_param":{"num_deleted":"0","num_feature":"15","num_nodes":"11","size_leaf_vector":"1"}},{"base_weights":[1.5477676E-2,-2.3060057E-1,5.7634795E-1,-5.163091E-1,2.5072974E-1,1.1083912E-2,1.00947656E-1,-7.765279E-3,-6.576406E-1,1.7153699E-3,4.0611107E-2,-9.1729276E-2,-1.4505177E-2],"categories":[],"categories_nodes":[],"categories_segments":[],"categories_sizes":[],"default_left":[0,0,0,0,0,0,0,0,0,0,0,0,0],"id":22,"left_children":[1,3,5,7,9,-1,-1,-1,11,-1,-1,-1,-1],"loss_changes":[6.904317E0,4.9171753E0,2.9623146E0,1.3236117E0,4.881106E-1,0E0,0E0,0E0,2.0811815E0,0E0,0E0,0E0,0E0],"parents":[2147483647,0,0,1,1,2,2,3,3,4,4,8,8],"right_children":[2,4,6,8,10,-1,-1,-1,12,-1,-1,-1,-1],"split_conditions":[1E0,1E0,1E0,1E0,1E0,1.1083912E-2,1.00947656E-1,-7.765279E-3,1E0,1.7153699E-3,4.0611107E-2,-9.1729276E-2,-1.4505177E-2],"split_indices":[13,8,5,0,12,0,0,0,6,0,0,0,0],"split_type":[0,0,0,0,0,0,0,0,0,0,0,0,0],"sum_hessian":[4.8061806E1,3.3814682E1,1.4247123E1,2.1173704E1,1.2640979E1,7.4722056E0,6.774917E0,5.537179E0,1.5636525E1,5.493422E0,7.147557E0,9.8549595E0,5.781565E0],"tree_param":{"num_deleted":"0","num_feature":"15","num_nodes":"13","size_leaf_vector":"1"}},{"base_weights":[1.5212069E-2,-3.0733883E-1,4.1763926E-1,-6.066654E-1,1.4504281E-2,-1.1862268E-2,9.291211E-2,-5.226678E-3,-8.5958965E-2],"categories":[],"categories_nodes":[],"categories_segments":[],"categories_sizes":[],"default_left":[0,0,0,0,0,0,0,0,0],"id":23,"left_children":[1,3,5,7,-1,-1,-1,-1,-1],"loss_changes":[6.3379874E0,3.7617755E0,6.0644484E0,2.2715807E0,0E0,0E0,0E0,0E0,0E0],"parents":[2147483647,0,0,1,1,2,2,3,3],"right_children":[2,4,6,8,-1,-1,-1,-1,-1],"split_conditions":[1E0,1E0,1E0,1E0,1.4504281E-2,-1.1862268E-2,9.291211E-2,-5.226678E-3,-8.5958965E-2],"split_indices":[11,3,7,12,0,0,0,0,0],"split_type":[0,0,0,0,0,0,0,0,0],"sum_hessian":[4.683879E1,2.6130846E1,2.0707943E1,1.5520426E1,1.061042E1,1.0484048E1,1.0223895E1,5.2403865E0,1.028004E1],"tree_param":{"num_deleted":"0","num_feature":"15","num_nodes":"9","size_leaf_vector":"1"}},{"base_weights":[1.4329403E-2,-2.5756574E-1,4.6736598E-1,-4.793877E-1,2.8928718E-2,1.7299809E-1,9.68923E-2,-7.524515E-2,4.7651483E-3,4.5432962E-2,-1.9643575E-2],"categories":[],"categories_nodes":[],"categories_segments":[],"categories_sizes":[],"default_left":[0,0,0,0,0,0,0,0,0,0,0],"id":24,"left_children":[1,3,5,7,-1,9,-1,-1,-1,-1,-1],"loss_changes":[5.88213E0,3.762824E0,2.4750457E0,3.1489167E0,0E0,1.3880602E0,0E0,0E0,0E0,0E0,0E0],"parents":[2147483647,0,0,1,1,2,2,3,3,5,5],"right_children":[2,4,6,8,-1,10,-1,-1,-1,-1,-1],"split_conditions":[1E0,1E0,1E0,1E0,2.8928718E-2,6.4E1,9.68923E-2,-7.524515E-2,4.7651483E-3,4.5432962E-2,-1.9643575E-2],"split_indices":[8,9,3,5,0,1,0,0,0,0,0],"split_type":[0,0,0,0,0,0,0,0,0,0,0],"sum_hessian":[4.577566E1,2.887654E1,1.6899122E1,2.0631199E1,8.245338E0,1.1496597E1,5.4025245E0,1.3308334E1,7.322865E0,6.396063E0,5.100534E0],"tree_param":{"num_deleted":"0","num_feature":"15","num_nodes":"11","size_leaf_vector":"1"}},{"base_weights":[1.4937188E-2,-2.1309556E-1,5.38291E-1,-4.7981513E-1,1.9300942E-1,1.1765571E-2,1.0294551E-1,-7.720744E-2,-5.266276E-3,5.628701E-2,-1.0105769E-2],"categories":[],"categories_nodes":[],"categories_segments":[],"categories_sizes":[],"default_left":[0,0,0,0,0,0,0,0,0,0,0],"id":25,"left_children":[1,3,5,7,9,-1,-1,-1,-1,-1,-1],"loss_changes":[5.550032E0,3.6062443E0,2.7930822E0,2.4394336E0,1.5330706E0,0E0,0E0,0E0,0E0,0E0,0E0],"parents":[2147483647,0,0,1,1,2,2,3,3,4,4],"right_children":[2,4,6,8,10,-1,-1,-1,-1,-1,-1],"split_conditions":[1E0,1E0,1E0,1E0,6.3E1,1.1765571E-2,1.0294551E-1,-7.720744E-2,-5.266276E-3,5.628701E-2,-1.0105769E-2],"split_indices":[13,10,6,6,1,0,0,0,0,0,0],"split_type":[0,0,0,0,0,0,0,0,0,0,0],"sum_hessian":[4.4544178E1,3.143871E1,1.3105469E1,1.8866295E1,1.2572414E1,7.7273083E0,5.37816E0,1.0722457E1,8.143838E0,5.16371E0,7.408704E0],"tree_param":{"num_deleted":"0","num_feature":"15","num_nodes":"11","size_leaf_vector":"1"}},{"base_weights":[1.5481368E-2,-2.7702942E-1,3.8041744E-1,-5.6108993E-1,1.3440545E-2,-1.2286338E-2,8.9020304E-2,-5.0870734E-3,-8.090225E-2],"categories":[],"categories_nodes":[],"categories_segments":[],"categories_sizes":[],"default_left":[0,0,0,0,0,0,0,0,0],"id":26,"left_children":[1,3,5,7,-1,-1,-1,-1,-1],"loss_changes":[4.881798E0,3.0457988E0,5.325145E0,1.8852358E0,0E0,0E0,0E0,0E0,0E0],"parents":[2147483647,0,0,1,1,2,2,3,3],"right_children":[2,4,6,8,-1,-1,-1,-1,-1],"split_conditions":[1E0,1E0,1E0,1E0,1.3440545E-2,-1.2286338E-2,8.9020304E-2,-5.0870734E-3,-8.090225E-2],"split_indices":[11,3,7,12,0,0,0,0,0],"split_type":[0,0,0,0,0,0,0,0,0],"sum_hessian":[4.3744843E1,2.4415627E1,1.9329216E1,1.4228399E1,1.0187228E1,1.0108594E1,9.220621E0,5.0471253E0,9.181274E0],"tree_param":{"num_deleted":"0","num_feature":"15","num_nodes":"9","size_leaf_vector":"1"}},{"base_weights":[1.4561502E-2,-1.3368227E-1,7.234227E-2,6.668389E-2,-3.0452684E-1,-5.415457E-1,3.4348264E-2,-8.474816E-2,-1.4282651E-1,-2.2764686E-2,-3.7300375E-3],"categories":[],"categories_nodes":[],"categories_segments":[],"categories_sizes":[],"default_left":[0,0,0,0,0,0,0,0,0,0,0],"id":27,"left_children":[1,3,-1,-1,5,7,-1,-1,9,-1,-1],"loss_changes":[4.70239E0,5.2759438E0,0E0,0E0,4.9864364E0,2.7177954E0,0E0,0E0,9.271297E-2,0E0,0E0],"parents":[2147483647,0,0,1,1,4,4,5,5,8,8],"right_children":[2,4,-1,-1,6,8,-1,-1,10,-1,-1],"split_conditions":[6.9E1,5.7E1,7.234227E-2,6.668389E-2,1E0,1E0,3.4348264E-2,-8.474816E-2,1E0,-2.2764686E-2,-3.7300375E-3],"split_indices":[1,1,0,0,13,11,0,0,8,0,0],"split_type":[0,0,0,0,0,0,0,0,0,0,0],"sum_hessian":[4.282846E1,3.6091976E1,6.736483E0,5.8372703E0,3.0254705E1,2.2272509E1,7.9821973E0,1.1965733E1,1.0306776E1,5.0724E0,5.234376E0],"tree_param":{"num_deleted":"0","num_feature":"15","num_nodes":"11","size_leaf_vector":"1"}},{"base_weights":[1.4536168E-2,-2.2839096E-1,4.1409576E-1,-4.2764533E-1,2.4730606E-2,5.985827E-2,1.4903803E-2,-6.9480136E-2,4.7638323E-3],"categories":[],"categories_nodes":[],"categories_segments":[],"categories_sizes":[],"default_left":[0,0,0,0,0,0,0,0,0],"id":28,"left_children":[1,3,5,7,-1,-1,-1,-1,-1],"loss_changes":[4.2785506E0,2.7077482E0,7.251551E-1,2.5362709E0,0E0,0E0,0E0,0E0,0E0],"parents":[2147483647,0,0,1,1,2,2,3,3],"right_children":[2,4,6,8,-1,-1,-1,-1,-1],"split_conditions":[1E0,1E0,6.4E1,1E0,2.4730606E-2,5.985827E-2,1.4903803E-2,-6.9480136E-2,4.7638323E-3],"split_indices":[8,9,1,5,0,0,0,0,0],"split_type":[0,0,0,0,0,0,0,0,0],"sum_hessian":[4.2105385E1,2.6451565E1,1.565382E1,1.8713913E1,7.7376504E0,8.48779E0,7.1660304E0,1.1684316E1,7.0295978E0],"tree_param":{"num_deleted":"0","num_feature":"15","num_nodes":"9","size_leaf_vector":"1"}},{"base_weights":[1.3916021E-2,-1.2665811E-1,6.829487E-2,6.1497297E-2,-2.8486195E-1,-5.120571E-1,3.3272248E-2,-8.014914E-2,-1.5222193E-1,-2.2013007E-2,-6.138566E-3],"categories":[],"categories_nodes":[],"categories_segments":[],"categories_sizes":[],"default_left":[0,0,0,0,0,0,0,0,0,0,0],"id":29,"left_children":[1,3,-1,-1,5,7,-1,-1,9,-1,-1],"loss_changes":[4.0554986E0,4.3658786E0,0E0,0E0,4.3967595E0,2.2124166E0,0E0,0E0,5.5737525E-2,0E0,0E0],"parents":[2147483647,0,0,1,1,4,4,5,5,8,8],"right_children":[2,4,-1,-1,6,8,-1,-1,10,-1,-1],"split_conditions":[6.9E1,5.7E1,6.829487E-2,6.1497297E-2,1E0,1E0,3.3272248E-2,-8.014914E-2,1E0,-2.2013007E-2,-6.138566E-3],"split_indices":[1,1,0,0,13,11,0,0,8,0,0],"split_type":[0,0,0,0,0,0,0,0,0,0,0],"sum_hessian":[4.1201523E1,3.4717518E1,6.484004E0,5.596221E0,2.9121298E1,2.1414326E1,7.7069707E0,1.1187917E1,1.0226409E1,5.03725E0,5.189159E0],"tree_param":{"num_deleted":"0","num_feature":"15","num_nodes":"11","size_leaf_vector":"1"}},{"base_weights":[1.38409585E-2,-1.1638993E-1,6.353695E-2,-4.2430815E-1,2.4326804E-1,-7.997468E-1,3.413216E-2,-1.8147623E-2,8.9278355E-2,-4.0420286E-2,-1.0034173E-1],"categories":[],"categories_nodes":[],"categories_segments":[],"categories_sizes":[],"default_left":[0,0,0,0,0,0,0,0,0,0,0],"id":30,"left_children":[1,3,-1,5,7,9,-1,-1,-1,-1,-1],"loss_changes":[3.4379218E0,4.002081E0,0E0,5.8297596E0,4.817223E0,6.634636E-1,0E0,0E0,0E0,0E0,0E0],"parents":[2147483647,0,0,1,1,3,3,4,4,5,5],"right_children":[2,4,-1,6,8,10,-1,-1,-1,-1,-1],"split_conditions":[6.9E1,1E0,6.353695E-2,1E0,1E0,6.1E1,3.413216E-2,-1.8147623E-2,8.9278355E-2,-4.0420286E-2,-1.0034173E-1],"split_indices":[1,7,0,6,11,1,0,0,0,0,0],"split_type":[0,0,0,0,0,0,0,0,0,0,0],"sum_hessian":[4.0560154E1,3.4205666E1,6.354488E0,1.8331526E1,1.587414E1,1.2270119E1,6.061408E0,1.0033457E1,5.8406835E0,5.1850114E0,7.0851073E0],"tree_param":{"num_deleted":"0","num_feature":"15","num_nodes":"11","size_leaf_vector":"1"}},{"base_weights":[1.3577599E-2,-2.110568E-1,3.794746E-1,-4.8901865E-1,1.1542913E-1,5.6552857E-2,1.15305325E-2,-9.33698E-2,2.2207674E-2,2.4382671E-2,-8.689035E-4],"categories":[],"categories_nodes":[],"categories_segments":[],"categories_sizes":[],"default_left":[0,0,0,0,0,0,0,0,0,0,0],"id":31,"left_children":[1,3,5,7,9,-1,-1,-1,-1,-1,-1],"loss_changes":[3.4327407E0,2.4083683E0,7.1497655E-1,4.694168E0,2.04941E-1,0E0,0E0,0E0,0E0,0E0,0E0],"parents":[2147483647,0,0,1,1,2,2,3,3,4,4],"right_children":[2,4,6,8,10,-1,-1,-1,-1,-1,-1],"split_conditions":[1E0,1E0,6.4E1,1E0,6.2E1,5.6552857E-2,1.15305325E-2,-9.33698E-2,2.2207674E-2,2.4382671E-2,-8.689035E-4],"split_indices":[8,7,1,6,1,0,0,0,0,0,0],"split_type":[0,0,0,0,0,0,0,0,0,0,0],"sum_hessian":[3.9789944E1,2.4916307E1,1.4873637E1,1.3189379E1,1.1726928E1,8.057777E0,6.81586E0,7.922222E0,5.2671566E0,5.290031E0,6.436897E0],"tree_param":{"num_deleted":"0","num_feature":"15","num_nodes":"11","size_leaf_vector":"1"}},{"base_weights":[1.2613922E-2,-1.8033125E-1,4.637936E-1,-3.852724E-1,1.3422418E-1,2.7800778E-2,5.6617986E-2,-6.1840028E-2,-7.7978516E-4,3.2038283E-2,-6.5792534E-3],"categories":[],"categories_nodes":[],"categories_segments":[],"categories_sizes":[],"default_left":[0,0,0,0,0,0,0,0,0,0,0],"id":32,"left_children":[1,3,5,7,9,-1,-1,-1,-1,-1,-1],"loss_changes":[3.5829144E0,1.9132316E0,7.69639E-2,1.5565557E0,4.7286025E-1,0E0,0E0,0E0,0E0,0E0,0E0],"parents":[2147483647,0,0,1,1,2,2,3,3,4,4],"right_children":[2,4,6,8,10,-1,-1,-1,-1,-1,-1],"split_conditions":[1E0,1E0,6.1E1,1E0,6.4E1,2.7800778E-2,5.6617986E-2,-6.1840028E-2,-7.7978516E-4,3.2038283E-2,-6.5792534E-3],"split_indices":[13,8,1,2,1,0,0,0,0,0,0],"split_type":[0,0,0,0,0,0,0,0,0,0,0],"sum_hessian":[3.919713E1,2.7876266E1,1.1320861E1,1.6742966E1,1.1133301E1,5.3422756E0,5.9785852E0,9.955935E0,6.787031E0,5.454725E0,5.6785755E0],"tree_param":{"num_deleted":"0","num_feature":"15","num_nodes":"11","size_leaf_vector":"1"}},{"base_weights":[1.2618553E-2,-1.6557787E-1,4.3014738E-1,-4.0548235E-1,1.0930332E-1,2.5568454E-2,5.2829284E-2,-4.5006434E-3,-6.258427E-2,-3.251749E-2,7.068746E-2],"categories":[],"categories_nodes":[],"categories_segments":[],"categories_sizes":[],"default_left":[0,0,0,0,0,0,0,0,0,0,0],"id":33,"left_children":[1,3,5,7,9,-1,-1,-1,-1,-1,-1],"loss_changes":[3.027182E0,1.9282081E0,7.317114E-2,1.2004123E0,3.8908987E0,0E0,0E0,0E0,0E0,0E0,0E0],"parents":[2147483647,0,0,1,1,2,2,3,3,4,4],"right_children":[2,4,6,8,10,-1,-1,-1,-1,-1,-1],"split_conditions":[1E0,1E0,6.1E1,1E0,1E0,2.5568454E-2,5.2829284E-2,-4.5006434E-3,-6.258427E-2,-3.251749E-2,7.068746E-2],"split_indices":[13,11,1,12,7,0,0,0,0,0,0],"split_type":[0,0,0,0,0,0,0,0,0,0,0],"sum_hessian":[3.872949E1,2.7567455E1,1.1162035E1,1.4466553E1,1.3100903E1,5.3165402E0,5.8454947E0,5.9452586E0,8.521295E0,7.849545E0,5.2513576E0],"tree_param":{"num_deleted":"0","num_feature":"15","num_nodes":"11","size_leaf_vector":"1"}},{"base_weights":[1.2926067E-2,-1.0995977E-1,5.934287E-2,5.6368597E-2,-2.547033E-1,-4.5446554E-1,2.842745E-2,-7.3025264E-2,-1.0822724E-2],"categories":[],"categories_nodes":[],"categories_segments":[],"categories_sizes":[],"default_left":[0,0,0,0,0,0,0,0,0],"id":34,"left_children":[1,3,-1,-1,5,7,-1,-1,-1],"loss_changes":[2.8511128E0,3.3684635E0,0E0,0E0,3.1345155E0,1.9023333E0,0E0,0E0,0E0],"parents":[2147483647,0,0,1,1,4,4,5,5],"right_children":[2,4,-1,-1,6,8,-1,-1,-1],"split_conditions":[6.9E1,5.7E1,5.934287E-2,5.6368597E-2,1E0,1E0,2.842745E-2,-7.3025264E-2,-1.0822724E-2],"split_indices":[1,1,0,0,13,11,0,0,0],"split_type":[0,0,0,0,0,0,0,0,0],"sum_hessian":[3.8052895E1,3.207381E1,5.9790845E0,5.1607895E0,2.691302E1,1.9749887E1,7.1631317E0,1.0376029E1,9.373858E0],"tree_param":{"num_deleted":"0","num_feature":"15","num_nodes":"9","size_leaf_vector":"1"}},{"base_weights":[1.3176848E-2,-1.8830478E-1,3.3952338E-1,-4.6466672E-1,1.4254414E-1,5.2354943E-2,8.540877E-3,-9.127456E-2,2.3436151E-2,9.579196E-3,1.7227065E-2],"categories":[],"categories_nodes":[],"categories_segments":[],"categories_sizes":[],"default_left":[0,0,0,0,0,0,0,0,0,0,0],"id":35,"left_children":[1,3,5,7,9,-1,-1,-1,-1,-1,-1],"loss_changes":[2.598015E0,2.3037653E0,6.5991926E-1,4.4638243E0,4.0486455E-5,0E0,0E0,0E0,0E0,0E0,0E0],"parents":[2147483647,0,0,1,1,2,2,3,3,4,4],"right_children":[2,4,6,8,10,-1,-1,-1,-1,-1,-1],"split_conditions":[1E0,1E0,6.4E1,1E0,1E0,5.2354943E-2,8.540877E-3,-9.127456E-2,2.3436151E-2,9.579196E-3,1.7227065E-2],"split_indices":[8,7,1,6,2,0,0,0,0,0,0],"split_type":[0,0,0,0,0,0,0,0,0,0,0],"sum_hessian":[3.75395E1,2.3471518E1,1.4067986E1,1.2568465E1,1.0903052E1,7.5442567E0,6.5237284E0,7.4727063E0,5.095759E0,5.87913E0,5.0239224E0],"tree_param":{"num_deleted":"0","num_feature":"15","num_nodes":"11","size_leaf_vector":"1"}},{"base_weights":[1.224719E-2,-1.6421363E-1,3.7615326E-1,-4.7748205E-1,2.1558085E-1,-1.709256E-2,7.7550374E-2,-7.082056E-2,-1.9004097E-2,4.560466E-2,-2.1945152E-3],"categories":[],"categories_nodes":[],"categories_segments":[],"categories_sizes":[],"default_left":[0,0,0,0,0,0,0,0,0,0,0],"id":36,"left_children":[1,3,5,7,9,-1,-1,-1,-1,-1,-1],"loss_changes":[2.5018463E0,3.230368E0,2.9099474E0,8.413403E-1,7.2798514E-1,0E0,0E0,0E0,0E0,0E0,0E0],"parents":[2147483647,0,0,1,1,2,2,3,3,4,4],"right_children":[2,4,6,8,10,-1,-1,-1,-1,-1,-1],"split_conditions":[1E0,1E0,1E0,6E1,6.3E1,-1.709256E-2,7.7550374E-2,-7.082056E-2,-1.9004097E-2,4.560466E-2,-2.1945152E-3],"split_indices":[5,10,3,1,1,0,0,0,0,0,0],"split_type":[0,0,0,0,0,0,0,0,0,0,0],"sum_hessian":[3.6998455E1,2.5285885E1,1.1712571E1,1.37155695E1,1.1570316E1,5.183531E0,6.5290403E0,6.7963986E0,6.919171E0,5.292414E0,6.277902E0],"tree_param":{"num_deleted":"0","num_feature":"15","num_nodes":"11","size_leaf_vector":"1"}},{"base_weights":[1.161061E-2,-1.0317477E-1,5.427981E-2,-3.786945E-1,2.2953211E-1,-7.2526526E-1,2.9235631E-2,-1.734773E-2,7.720303E-2,-3.9200775E-2,-9.557768E-2],"categories":[],"categories_nodes":[],"categories_segments":[],"categories_sizes":[],"default_left":[0,0,0,0,0,0,0,0,0,0,0],"id":37,"left_children":[1,3,-1,5,7,9,-1,-1,-1,-1,-1],"loss_changes":[2.337798E0,2.9848654E0,0E0,4.321589E0,3.4010043E0,5.425334E-1,0E0,0E0,0E0,0E0,0E0],"parents":[2147483647,0,0,1,1,3,3,4,4,5,5],"right_children":[2,4,-1,6,8,10,-1,-1,-1,-1,-1],"split_conditions":[6.9E1,1E0,5.427981E-2,1E0,1E0,6.2E1,2.9235631E-2,-1.734773E-2,7.720303E-2,-3.9200775E-2,-9.557768E-2],"split_indices":[1,7,0,6,14,1,0,0,0,0,0],"split_type":[0,0,0,0,0,0,0,0,0,0,0],"sum_hessian":[3.6423313E1,3.06137E1,5.8096113E0,1.6670433E1,1.3943268E1,1.0939718E1,5.7307153E0,8.390432E0,5.552835E0,5.5771956E0,5.3625226E0],"tree_param":{"num_deleted":"0","num_feature":"15","num_nodes":"11","size_leaf_vector":"1"}},{"base_weights":[1.0938713E-2,-2.0011766E-1,3.1337824E-1,-5.0416374E-1,5.1735397E-2,8.17523E-2,-2.4349915E-2,-7.432899E-2,-1.8471347E-2],"categories":[],"categories_nodes":[],"categories_segments":[],"categories_sizes":[],"default_left":[0,0,0,0,0,0,0,0,0],"id":38,"left_children":[1,3,5,7,-1,-1,-1,-1,-1],"loss_changes":[2.4114993E0,5.121687E0,4.5545063E0,1.0969143E0,0E0,0E0,0E0,0E0,0E0],"parents":[2147483647,0,0,1,1,2,2,3,3],"right_children":[2,4,6,8,-1,-1,-1,-1,-1],"split_conditions":[1E0,6.4E1,6.4E1,1E0,5.1735397E-2,8.17523E-2,-2.4349915E-2,-7.432899E-2,-1.8471347E-2],"split_indices":[9,1,1,3,0,0,0,0,0],"split_type":[0,0,0,0,0,0,0,0,0],"sum_hessian":[3.5796505E1,2.128274E1,1.4513764E1,1.5156927E1,6.125812E0,7.3718925E0,7.141872E0,7.9094725E0,7.2474546E0],"tree_param":{"num_deleted":"0","num_feature":"15","num_nodes":"9","size_leaf_vector":"1"}},{"base_weights":[1.0396721E-2,-1.974473E-1,2.880977E-1,-4.387976E-2,1.313521E-2,-8.947565E-3,7.345343E-2],"categories":[],"categories_nodes":[],"categories_segments":[],"categories_sizes":[],"default_left":[0,0,0,0,0,0,0],"id":39,"left_children":[1,3,5,-1,-1,-1,-1],"loss_changes":[2.156836E0,1.7560041E0,2.7594757E0,0E0,0E0,0E0,0E0],"parents":[2147483647,0,0,1,1,2,2],"right_children":[2,4,6,-1,-1,-1,-1],"split_conditions":[1E0,1E0,1E0,-4.387976E-2,1.313521E-2,-8.947565E-3,7.345343E-2],"split_indices":[11,3,7,0,0,0,0],"split_type":[0,0,0,0,0,0,0],"sum_hessian":[3.5382652E1,2.0401922E1,1.4980731E1,1.1572648E1,8.829274E0,8.549541E0,6.4311895E0],"tree_param":{"num_deleted":"0","num_feature":"15","num_nodes":"7","size_leaf_vector":"1"}},{"base_weights":[1.0680104E-2,-1.9607264E-1,2.8894594E-1,-5.4268175E-1,2.9799655E-2,-1.8508136E-2,1.0549187E-1,-7.276539E-2,-3.1598937E-2],"categories":[],"categories_nodes":[],"categories_segments":[],"categories_sizes":[],"default_left":[0,0,0,0,0,0,0,0,0],"id":40,"left_children":[1,3,5,7,-1,-1,-1,-1,-1],"loss_changes":[2.119336E0,3.7862315E0,5.8912306E0,3.0651498E-1,0E0,0E0,0E0,0E0,0E0],"parents":[2147483647,0,0,1,1,2,2,3,3],"right_children":[2,4,6,8,-1,-1,-1,-1,-1],"split_conditions":[1E0,1E0,1E0,1E0,2.9799655E-2,-1.8508136E-2,1.0549187E-1,-7.276539E-2,-3.1598937E-2],"split_indices":[6,7,3,9,0,0,0,0,0],"split_type":[0,0,0,0,0,0,0,0,0],"sum_hessian":[3.4852627E1,2.0165184E1,1.4687444E1,1.1793315E1,8.371869E0,9.541187E0,5.1462564E0,5.2773385E0,6.515977E0],"tree_param":{"num_deleted":"0","num_feature":"15","num_nodes":"9","size_leaf_vector":"1"}},{"base_weights":[1.0340025E-2,-1.8019855E-1,3.136003E-1,-3.9658257E-1,1.4275863E-2,4.8667636E-2,7.470667E-3,-8.224347E-2,1.1847381E-2],"categories":[],"categories_nodes":[],"categories_segments":[],"categories_sizes":[],"default_left":[0,0,0,0,0,0,0,0,0],"id":41,"left_children":[1,3,5,7,-1,-1,-1,-1,-1],"loss_changes":[2.0960393E0,1.6158373E0,5.4185677E-1,3.0859334E0,0E0,0E0,0E0,0E0,0E0],"parents":[2147483647,0,0,1,1,2,2,3,3],"right_children":[2,4,6,8,-1,-1,-1,-1,-1],"split_conditions":[1E0,1E0,6.4E1,1E0,1.4275863E-2,4.8667636E-2,7.470667E-3,-8.224347E-2,1.1847381E-2],"split_indices":[8,6,1,7,0,0,0,0,0],"split_type":[0,0,0,0,0,0,0,0,0],"sum_hessian":[3.4296482E1,2.1311962E1,1.2984521E1,1.262508E1,8.686883E0,6.9280257E0,6.056495E0,6.584327E0,6.0407524E0],"tree_param":{"num_deleted":"0","num_feature":"15","num_nodes":"9","size_leaf_vector":"1"}},{"base_weights":[9.178149E-3,-1.5170789E-1,4.002511E-2,-3.036187E-1,2.1913398E-2,8.299607E-3,-5.045479E-1,-7.386406E-2,-1.9710442E-2],"categories":[],"categories_nodes":[],"categories_segments":[],"categories_sizes":[],"default_left":[0,0,0,0,0,0,0,0,0],"id":42,"left_children":[1,3,-1,5,-1,-1,7,-1,-1],"loss_changes":[2.2531173E0,1.4982054E0,0E0,1.4749293E0,0E0,0E0,7.382169E-1,0E0,0E0],"parents":[2147483647,0,0,1,1,3,3,6,6],"right_children":[2,4,-1,6,-1,-1,8,-1,-1],"split_conditions":[1E0,1E0,4.002511E-2,6.1E1,2.1913398E-2,8.299607E-3,1E0,-7.386406E-2,-1.9710442E-2],"split_indices":[13,3,0,1,0,0,7,0,0],"split_type":[0,0,0,0,0,0,0,0,0],"sum_hessian":[3.3845192E1,2.4413597E1,9.431595E0,1.7447653E1,6.9659443E0,6.167497E0,1.1280156E1,5.6077757E0,5.6723804E0],"tree_param":{"num_deleted":"0","num_feature":"15","num_nodes":"9","size_leaf_vector":"1"}},{"base_weights":[7.561496E-3,-1.9215754E-1,2.8187975E-1,-3.7867498E-1,1.7477844E-2,-4.194329E-3,6.799569E-2,-6.559028E-2,-4.6032965E-3],"categories":[],"categories_nodes":[],"categories_segments":[],"categories_sizes":[],"default_left":[0,0,0,0,0,0,0,0,0],"id":43,"left_children":[1,3,5,7,-1,-1,-1,-1,-1],"loss_changes":[1.9498113E0,1.4772424E0,1.9599394E0,1.2594731E0,0E0,0E0,0E0,0E0,0E0],"parents":[2147483647,0,0,1,1,2,2,3,3],"right_children":[2,4,6,8,-1,-1,-1,-1,-1],"split_conditions":[1E0,1E0,1E0,1E0,1.7477844E-2,-4.194329E-3,6.799569E-2,-6.559028E-2,-4.6032965E-3],"split_indices":[11,5,7,6,0,0,0,0,0],"split_type":[0,0,0,0,0,0,0,0,0],"sum_hessian":[3.360056E1,1.961746E1,1.39831E1,1.2985036E1,6.632424E0,8.204023E0,5.779076E0,6.552396E0,6.4326406E0],"tree_param":{"num_deleted":"0","num_feature":"15","num_nodes":"9","size_leaf_vector":"1"}},{"base_weights":[7.296961E-3,-1.4546776E-1,3.833267E-2,-3.279715E-1,1.1541349E-2,-5.533283E-2,1.8741231E-3],"categories":[],"categories_nodes":[],"categories_segments":[],"categories_sizes":[],"default_left":[0,0,0,0,0,0,0],"id":44,"left_children":[1,3,-1,5,-1,-1,-1],"loss_changes":[2.0102584E0,1.2243323E0,0E0,1.1763483E0,0E0,0E0,0E0],"parents":[2147483647,0,0,1,1,3,3],"right_children":[2,4,-1,6,-1,-1,-1],"split_conditions":[1E0,1E0,3.833267E-2,1E0,1.1541349E-2,-5.533283E-2,1.8741231E-3],"split_indices":[13,8,0,2,0,0,0],"split_type":[0,0,0,0,0,0,0],"sum_hessian":[3.302434E1,2.3919872E1,9.104467E0,1.392279E1,9.997084E0,8.076978E0,5.8458114E0],"tree_param":{"num_deleted":"0","num_feature":"15","num_nodes":"7","size_leaf_vector":"1"}},{"base_weights":[6.4272378E-3,-9.9488825E-2,4.811802E-2,-3.2942152E-1,1.9211279E-1,-6.366838E-2,2.5754962E-2,-1.0693793E-2,4.587121E-2],"categories":[],"categories_nodes":[],"categories_segments":[],"categories_sizes":[],"default_left":[0,0,0,0,0,0,0,0,0],"id":45,"left_children":[1,3,-1,5,7,-1,-1,-1,-1],"loss_changes":[1.7441095E0,1.9680595E0,0E0,3.095156E0,1.0979726E0,0E0,0E0,0E0,0E0],"parents":[2147483647,0,0,1,1,3,3,4,4],"right_children":[2,4,-1,6,8,-1,-1,-1,-1],"split_conditions":[6.9E1,1E0,4.811802E-2,1E0,6E1,-6.366838E-2,2.5754962E-2,-1.0693793E-2,4.587121E-2],"split_indices":[1,7,0,6,1,0,0,0,0],"split_type":[0,0,0,0,0,0,0,0,0],"sum_hessian":[3.2733166E1,2.7408785E1,5.3243823E0,1.5252355E1,1.215643E1,9.95599E0,5.2963643E0,6.011769E0,6.1446614E0],"tree_param":{"num_deleted":"0","num_feature":"15","num_nodes":"9","size_leaf_vector":"1"}},{"base_weights":[7.0594074E-3,-1.376258E-1,3.6730748E-2,-2.8204808E-1,2.1950698E-2,-5.1257957E-2,6.471207E-3],"categories":[],"categories_nodes":[],"categories_segments":[],"categories_sizes":[],"default_left":[0,0,0,0,0,0,0],"id":46,"left_children":[1,3,-1,5,-1,-1,-1],"loss_changes":[1.7912165E0,1.3283443E0,0E0,1.4657743E0,0E0,0E0,0E0],"parents":[2147483647,0,0,1,1,3,3],"right_children":[2,4,-1,6,-1,-1,-1],"split_conditions":[1E0,1E0,3.6730748E-2,1E0,2.1950698E-2,-5.1257957E-2,6.471207E-3],"split_indices":[13,3,0,11,0,0,0],"split_type":[0,0,0,0,0,0,0],"sum_hessian":[3.2395622E1,2.355377E1,8.841851E0,1.6921188E1,6.6325817E0,9.876766E0,7.0444226E0],"tree_param":{"num_deleted":"0","num_feature":"15","num_nodes":"7","size_leaf_vector":"1"}},{"base_weights":[6.6992636E-3,-1.72438E-1,2.888905E-1,-3.8873902E-1,1.407963E-2,4.481197E-2,6.6108266E-3,-7.837668E-2,1.018654E-2],"categories":[],"categories_nodes":[],"categories_segments":[],"categories_sizes":[],"default_left":[0,0,0,0,0,0,0,0,0],"id":47,"left_children":[1,3,5,7,-1,-1,-1,-1,-1],"loss_changes":[1.7209977E0,1.467271E0,4.3901408E-1,2.5214105E0,0E0,0E0,0E0,0E0,0E0],"parents":[2147483647,0,0,1,1,2,2,3,3],"right_children":[2,4,6,8,-1,-1,-1,-1,-1],"split_conditions":[1E0,1E0,6.4E1,1E0,1.407963E-2,4.481197E-2,6.6108266E-3,-7.837668E-2,1.018654E-2],"split_indices":[8,6,1,7,0,0,0,0,0],"split_type":[0,0,0,0,0,0,0,0,0],"sum_hessian":[3.2059345E1,1.9848373E1,1.2210974E1,1.1598256E1,8.250117E0,6.5313506E0,5.679623E0,6.0939445E0,5.504312E0],"tree_param":{"num_deleted":"0","num_feature":"15","num_nodes":"9","size_leaf_vector":"1"}},{"base_weights":[5.7813977E-3,-1.3493879E-1,3.6009382E-2,-2.780672E-1,2.2299344E-2,1.0713603E-2,-4.8007053E-1,-6.7703E-2,-2.0812068E-2],"categories":[],"categories_nodes":[],"categories_segments":[],"categories_sizes":[],"default_left":[0,0,0,0,0,0,0,0,0],"id":48,"left_children":[1,3,-1,5,-1,-1,7,-1,-1],"loss_changes":[1.6772052E0,1.2969913E0,0E0,1.4260283E0,0E0,0E0,4.8958206E-1,0E0,0E0],"parents":[2147483647,0,0,1,1,3,3,6,6],"right_children":[2,4,-1,6,-1,-1,8,-1,-1],"split_conditions":[1E0,1E0,3.6009382E-2,6.1E1,2.2299344E-2,1.0713603E-2,1E0,-6.7703E-2,-2.0812068E-2],"split_indices":[13,3,0,1,0,0,7,0,0],"split_type":[0,0,0,0,0,0,0,0,0],"sum_hessian":[3.1664463E1,2.3106531E1,8.557933E0,1.6665522E1,6.441009E0,5.894617E0,1.0770905E1,5.382845E0,5.38806E0],"tree_param":{"num_deleted":"0","num_feature":"15","num_nodes":"9","size_leaf_vector":"1"}},{"base_weights":[4.544679E-3,-1.8449628E-1,2.709616E-1,-3.6493593E-1,1.7317886E-2,-7.4829237E-4,6.2345605E-2,-6.218428E-2,-6.1916267E-3],"categories":[],"categories_nodes":[],"categories_segments":[],"categories_sizes":[],"default_left":[0,0,0,0,0,0,0,0,0],"id":49,"left_children":[1,3,5,7,-1,-1,-1,-1,-1],"loss_changes":[1.6840004E0,1.3264112E0,1.3661311E0,9.9933267E-1,0E0,0E0,0E0,0E0,0E0],"parents":[2147483647,0,0,1,1,2,2,3,3],"right_children":[2,4,6,8,-1,-1,-1,-1,-1],"split_conditions":[1E0,1E0,1E0,1E0,1.7317886E-2,-7.4829237E-4,6.2345605E-2,-6.218428E-2,-6.1916267E-3],"split_indices":[11,5,7,6,0,0,0,0,0],"split_type":[0,0,0,0,0,0,0,0,0],"sum_hessian":[3.1444172E1,1.8572914E1,1.2871257E1,1.2331586E1,6.2413287E0,7.7377653E0,5.1334915E0,6.104176E0,6.22741E0],"tree_param":{"num_deleted":"0","num_feature":"15","num_nodes":"9","size_leaf_vector":"1"}},{"base_weights":[4.501972E-3,-1.29772E-1,3.4624513E-2,-3.088418E-1,1.2056228E-2,-6.197208E-2,4.361636E-3],"categories":[],"categories_nodes":[],"categories_segments":[],"categories_sizes":[],"default_left":[0,0,0,0,0,0,0],"id":50,"left_children":[1,3,-1,5,-1,-1,-1],"loss_changes":[1.5110803E0,1.098108E0,0E0,1.5695232E0,0E0,0E0,0E0],"parents":[2147483647,0,0,1,1,3,3],"right_children":[2,4,-1,6,-1,-1,-1],"split_conditions":[1E0,1E0,3.4624513E-2,1E0,1.2056228E-2,-6.197208E-2,4.361636E-3],"split_indices":[13,10,0,6,0,0,0],"split_type":[0,0,0,0,0,0,0],"sum_hessian":[3.0951109E1,2.2665783E1,8.285325E0,1.307746E1,9.588323E0,6.545683E0,6.5317774E0],"tree_param":{"num_deleted":"0","num_feature":"15","num_nodes":"7","size_leaf_vector":"1"}},{"base_weights":[3.5967228E-3,-1.7484806E-1,2.5701824E-1,-3.70416E-2,1.3123444E-2,6.1961558E-2,-3.6124715E-3],"categories":[],"categories_nodes":[],"categories_segments":[],"categories_sizes":[],"default_left":[0,0,0,0,0,0,0],"id":51,"left_children":[1,3,5,-1,-1,-1,-1],"loss_changes":[1.4778835E0,1.1972799E0,1.4571013E0,0E0,0E0,0E0,0E0],"parents":[2147483647,0,0,1,1,2,2],"right_children":[2,4,6,-1,-1,-1,-1],"split_conditions":[1E0,1E0,6.4E1,-3.70416E-2,1.3123444E-2,6.1961558E-2,-3.6124715E-3],"split_indices":[11,14,1,0,0,0,0],"split_type":[0,0,0,0,0,0,0],"sum_hessian":[3.068706E1,1.8189276E1,1.2497785E1,1.096996E1,7.219315E0,5.089157E0,7.408628E0],"tree_param":{"num_deleted":"0","num_feature":"15","num_nodes":"7","size_leaf_vector":"1"}},{"base_weights":[4.3518986E-3,-1.5887699E-1,2.5918582E-1,-3.7462157E-1,1.424571E-2,3.9290976E-2,7.265571E-3,-7.595317E-2,1.2308875E-2],"categories":[],"categories_nodes":[],"categories_segments":[],"categories_sizes":[],"default_left":[0,0,0,0,0,0,0,0,0],"id":52,"left_children":[1,3,5,7,-1,-1,-1,-1,-1],"loss_changes":[1.3496197E0,1.3402052E0,2.8727925E-1,2.356121E0,0E0,0E0,0E0,0E0,0E0],"parents":[2147483647,0,0,1,1,2,2,3,3],"right_children":[2,4,6,8,-1,-1,-1,-1,-1],"split_conditions":[1E0,1E0,6.4E1,1E0,1.424571E-2,3.9290976E-2,7.265571E-3,-7.595317E-2,1.2308875E-2],"split_indices":[8,6,1,7,0,0,0,0,0],"split_type":[0,0,0,0,0,0,0,0,0],"sum_hessian":[3.045574E1,1.8794096E1,1.1661644E1,1.0810761E1,7.983334E0,6.1478314E0,5.5138125E0,5.799556E0,5.011206E0],"tree_param":{"num_deleted":"0","num_feature":"15","num_nodes":"9","size_leaf_vector":"1"}},{"base_weights":[3.625023E-3,-1.7050783E-1,2.5009963E-1,-4.8300013E-2,1.1631607E-2,-9.40892E-3,5.7246853E-2],"categories":[],"categories_nodes":[],"categories_segments":[],"categories_sizes":[],"default_left":[0,0,0,0,0,0,0],"id":53,"left_children":[1,3,5,-1,-1,-1,-1],"loss_changes":[1.3775337E0,1.7430634E0,1.5275599E0,0E0,0E0,0E0,0E0],"parents":[2147483647,0,0,1,1,2,2],"right_children":[2,4,6,-1,-1,-1,-1],"split_conditions":[1E0,1E0,1E0,-4.8300013E-2,1.1631607E-2,-9.40892E-3,5.7246853E-2],"split_indices":[3,10,12,0,0,0,0],"split_type":[0,0,0,0,0,0,0],"sum_hessian":[3.0102299E1,1.7820461E1,1.2281837E1,8.201277E0,9.6191845E0,6.28237E0,5.9994674E0],"tree_param":{"num_deleted":"0","num_feature":"15","num_nodes":"7","size_leaf_vector":"1"}},{"base_weights":[3.6140098E-3,-1.2178269E-1,3.255735E-2,-2.519933E-1,2.0352986E-2,1.1865337E-2,-4.425835E-1,-6.4555146E-2,-1.5812388E-2],"categories":[],"categories_nodes":[],"categories_segments":[],"categories_sizes":[],"default_left":[0,0,0,0,0,0,0,0,0],"id":54,"left_children":[1,3,-1,5,-1,-1,7,-1,-1],"loss_changes":[1.2847029E0,1.0222628E0,0E0,1.2404869E0,0E0,0E0,5.5135036E-1,0E0,0E0],"parents":[2147483647,0,0,1,1,3,3,6,6],"right_children":[2,4,-1,6,-1,-1,8,-1,-1],"split_conditions":[1E0,1E0,3.255735E-2,6.1E1,2.0352986E-2,1.1865337E-2,1E0,-6.4555146E-2,-1.5812388E-2],"split_indices":[13,3,0,1,0,0,7,0,0],"split_type":[0,0,0,0,0,0,0,0,0],"sum_hessian":[2.9839033E1,2.1922434E1,7.9165983E0,1.58168955E1,6.105539E0,5.4994287E0,1.0317467E1,5.2803974E0,5.03707E0],"tree_param":{"num_deleted":"0","num_feature":"15","num_nodes":"9","size_leaf_vector":"1"}},{"base_weights":[2.6639488E-3,-1.6672319E-1,2.256115E-1,-4.3892734E-2,2.5296172E-2,3.1868086E-4,4.833055E-2],"categories":[],"categories_nodes":[],"categories_segments":[],"categories_sizes":[],"default_left":[0,0,0,0,0,0,0],"id":55,"left_children":[1,3,5,-1,-1,-1,-1],"loss_changes":[1.1949276E0,2.1661696E0,7.8118265E-1,0E0,0E0,0E0,0E0],"parents":[2147483647,0,0,1,1,2,2],"right_children":[2,4,6,-1,-1,-1,-1],"split_conditions":[1E0,1E0,6.3E1,-4.3892734E-2,2.5296172E-2,3.1868086E-4,4.833055E-2],"split_indices":[6,7,1,0,0,0,0],"split_type":[0,0,0,0,0,0,0],"sum_hessian":[2.9645567E1,1.6989655E1,1.2655913E1,1.0277745E1,6.711909E0,7.336173E0,5.3197403E0],"tree_param":{"num_deleted":"0","num_feature":"15","num_nodes":"7","size_leaf_vector":"1"}},{"base_weights":[3.3321274E-3,-1.6296543E-1,2.463136E-1,-4.4707483E-1,4.684193E-2,7.396701E-2,-2.7595356E-2,-6.470292E-2,-1.8111596E-2],"categories":[],"categories_nodes":[],"categories_segments":[],"categories_sizes":[],"default_left":[0,0,0,0,0,0,0,0,0],"id":56,"left_children":[1,3,5,7,-1,-1,-1,-1,-1],"loss_changes":[1.2698336E0,3.5583146E0,3.492797E0,5.9473133E-1,0E0,0E0,0E0,0E0,0E0],"parents":[2147483647,0,0,1,1,2,2,3,3],"right_children":[2,4,6,8,-1,-1,-1,-1,-1],"split_conditions":[1E0,6.4E1,6.4E1,1E0,4.684193E-2,7.396701E-2,-2.7595356E-2,-6.470292E-2,-1.8111596E-2],"split_indices":[9,1,1,7,0,0,0,0,0],"split_type":[0,0,0,0,0,0,0,0,0],"sum_hessian":[2.9432499E1,1.766904E1,1.1763458E1,1.2387051E1,5.2819896E0,5.835099E0,5.9283586E0,6.2530437E0,6.134007E0],"tree_param":{"num_deleted":"0","num_feature":"15","num_nodes":"9","size_leaf_vector":"1"}},{"base_weights":[3.3535238E-3,-1.18482195E-1,3.2277834E-2,-2.814727E-1,1.1295698E-2,-5.789879E-2,4.687013E-3],"categories":[],"categories_nodes":[],"categories_segments":[],"categories_sizes":[],"default_left":[0,0,0,0,0,0,0],"id":57,"left_children":[1,3,-1,5,-1,-1,-1],"loss_changes":[1.2105362E0,8.819441E-1,0E0,1.3469278E0,0E0,0E0,0E0],"parents":[2147483647,0,0,1,1,3,3],"right_children":[2,4,-1,6,-1,-1,-1],"split_conditions":[1E0,1E0,3.2277834E-2,1E0,1.1295698E-2,-5.789879E-2,4.687013E-3],"split_indices":[13,10,0,6,0,0,0],"split_type":[0,0,0,0,0,0,0],"sum_hessian":[2.9122623E1,2.1537008E1,7.5856166E0,1.2510402E1,9.026606E0,6.1628284E0,6.347573E0],"tree_param":{"num_deleted":"0","num_feature":"15","num_nodes":"7","size_leaf_vector":"1"}}]},"name":"gbtree"},"learner_model_param":{"base_score":"5E-1","boost_from_average":"1","num_class":"0","num_feature":"15","num_target":"1"},"objective":{"name":"binary:logistic","reg_loss_param":{"scale_pos_weight":"1"}}},"version":[3,0,1]}