{"learner":{"attributes":{"best_iteration":"42","best_score":"-1.0"},"feature_names":[],"feature_types":[],"gradient_booster":{"model":{"gbtree_model_param":{"num_parallel_tree":"1","num_trees":"93"},"iteration_indptr":[0,1,2,3,4,5,6,7,8,9,10,11,12,13,14,15,16,17,18,19,20,21,22,23,24,25,26,27,28,29,30,31,32,33,34,35,36,37,38,39,40,41,42,43,44,45,46,47,48,49,50,51,52,53,54,55,56,57,58,59,60,61,62,63,64,65,66,67,68,69,70,71,72,73,74,75,76,77,78,79,80,81,82,83,84,85,86,87,88,89,90,91,92,93],"tree_info":[0,0,0,0,0,0,0,0,0,0,0,0,0,0,0,0,0,0,0,0,0,0,0,0,0,0,0,0,0,0,0,0,0,0,0,0,0,0,0,0,0,0,0,0,0,0,0,0,0,0,0,0,0,0,0,0,0,0,0,0,0,0,0,0,0,0,0,0,0,0,0,0,0,0,0,0,0,0,0,0,0,0,0,0,0,0,0,0,0,0,0,0,0],"trees":[{"base_weights":[-0E0,-8.636364E-1,1.4615384E0,-1.4371859E0,8.405797E-1,1.0454545E0,1.4166667E-1,-1.3392858E-1,3.0000001E-2,-1.2162162E-2,1.3333334E-1,1.6666668E-2,1.323077E0,1.8000001E-2,1.3636364E-1],"categories":[],"categories_nodes":[],"categories_segments":[],"categories_sizes":[],"default_left":[0,0,0,0,0,0,0,0,0,0,0,0,0,0,0],"id":0,"left_children":[1,3,5,7,9,11,-1,-1,-1,-1,-1,-1,13,-1,-1],"loss_changes":[1.3253497E2,6.571993E1,4.959984E0,3.256977E1,1.6499283E1,4.7340336E0,0E0,0E0,0E0,0E0,0E0,0E0,8.277483E0,0E0,0E0],"parents":[2147483647,0,0,1,1,2,2,3,3,4,4,5,5,12,12],"right_children":[2,4,6,8,10,12,-1,-1,-1,-1,-1,-1,14,-1,-1],"split_conditions":[1E0,1E0,1E0,1E0,1E0,1E0,1.4166667E-1,-1.3392858E-1,3.0000001E-2,-1.2162162E-2,1.3333334E-1,1.6666668E-2,1E0,1.8000001E-2,1.3636364E-1],"split_indices":[8,5,3,10,13,7,0,0,0,0,0,0,9,0,0],"split_type":[0,0,0,0,0,0,0,0,0,0,0,0,0,0,0],"sum_hessian":[1.03E2,6.5E1,3.8E1,4.875E1,1.625E1,2.1E1,1.7E1,4.1E1,7.75E0,8.25E0,8E0,5.75E0,1.525E1,5.25E0,1E1],"tree_param":{"num_deleted":"0","num_feature":"15","num_nodes":"15","size_leaf_vector":"1"}},{"base_weights":[3.1787849E-3,-8.013835E-1,1.3647236E0,-1.3366221E0,7.8628194E-1,9.7701037E-1,1.322734E-1,-1.2691037E-1,1.8230516E-2,-1.1348983E-2,1.24949776E-1,1.232869E-1,6.2422144E-1,1.813857E-2,6.2219903E-2],"categories":[],"categories_nodes":[],"categories_segments":[],"categories_sizes":[],"default_left":[0,0,0,0,0,0,0,0,0,0,0,0,0,0,0],"id":1,"left_children":[1,3,5,7,9,11,-1,-1,-1,-1,-1,-1,13,-1,-1],"loss_changes":[1.1463354E2,5.6948807E1,4.2884827E0,2.8247345E1,1.44507885E1,4.1381817E0,0E0,0E0,0E0,0E0,0E0,0E0,1.053442E0,0E0,0E0],"parents":[2147483647,0,0,1,1,2,2,3,3,4,4,5,5,12,12],"right_children":[2,4,6,8,10,12,-1,-1,-1,-1,-1,-1,14,-1,-1],"split_conditions":[1E0,1E0,1E0,1E0,1E0,1E0,1.322734E-1,-1.2691037E-1,1.8230516E-2,-1.1348983E-2,1.24949776E-1,1.232869E-1,1E0,1.813857E-2,6.2219903E-2],"split_indices":[8,5,3,9,13,2,0,0,0,0,0,0,12,0,0],"split_type":[0,0,0,0,0,0,0,0,0,0,0,0,0,0,0],"sum_hessian":[1.0264702E2,6.47792E1,3.786782E1,4.856495E1,1.6214245E1,2.0952831E1,1.691499E1,3.9585022E1,8.97993E0,8.249695E0,7.9645495E0,5.9835887E0,1.4969243E1,5.991595E0,8.977648E0],"tree_param":{"num_deleted":"0","num_feature":"15","num_nodes":"15","size_leaf_vector":"1"}},{"base_weights":[6.251261E-3,-7.478196E-1,1.2819654E0,-1.2506231E0,7.3839885E-1,9.16881E-1,1.24562785E-1,-1.1780373E-1,3.0560952E-2,-1.0590824E-2,1.1793868E-1,1.3046135E-2,1.1707542E0,1.1878722E-2,1.2324319E-1],"categories":[],"categories_nodes":[],"categories_segments":[],"categories_sizes":[],"default_left":[0,0,0,0,0,0,0,0,0,0,0,0,0,0,0],"id":2,"left_children":[1,3,5,7,9,11,-1,-1,-1,-1,-1,-1,13,-1,-1],"loss_changes":[9.9825264E1,4.966442E1,3.8093643E0,2.6703949E1,1.2780687E1,3.920189E0,0E0,0E0,0E0,0E0,0E0,0E0,7.4510746E0,0E0,0E0],"parents":[2147483647,0,0,1,1,2,2,3,3,4,4,5,5,12,12],"right_children":[2,4,6,8,10,12,-1,-1,-1,-1,-1,-1,14,-1,-1],"split_conditions":[1E0,1E0,1E0,1E0,1E0,1E0,1.24562785E-1,-1.1780373E-1,3.0560952E-2,-1.0590824E-2,1.1793868E-1,1.3046135E-2,1E0,1.1878722E-2,1.2324319E-1],"split_indices":[8,5,3,10,13,7,0,0,0,0,0,0,9,0,0],"split_type":[0,0,0,0,0,0,0,0,0,0,0,0,0,0,0],"sum_hessian":[1.0177418E2,6.422485E1,3.754932E1,4.8107944E1,1.6116909E1,2.0864307E1,1.6685013E1,4.036774E1,7.7402062E0,8.24886E0,7.868049E0,5.7430553E0,1.5121252E1,5.236512E0,9.88474E0],"tree_param":{"num_deleted":"0","num_feature":"15","num_nodes":"15","size_leaf_vector":"1"}},{"base_weights":[8.730653E-3,-7.011309E-1,1.2097334E0,-1.176471E0,6.956869E-1,8.6201584E-1,1.1812148E-1,-1.1116543E-1,2.8534006E-2,-9.8838E-3,1.1198449E-1,1.1254059E-1,5.309367E-1,1.4147796E-2,5.3900056E-2],"categories":[],"categories_nodes":[],"categories_segments":[],"categories_sizes":[],"default_left":[0,0,0,0,0,0,0,0,0,0,0,0,0,0,0],"id":3,"left_children":[1,3,5,7,9,11,-1,-1,-1,-1,-1,-1,13,-1,-1],"loss_changes":[8.729949E1,4.355555E1,3.472824E0,2.3600471E1,1.1395261E1,3.789587E0,0E0,0E0,0E0,0E0,0E0,0E0,8.819499E-1,0E0,0E0],"parents":[2147483647,0,0,1,1,2,2,3,3,4,4,5,5,12,12],"right_children":[2,4,6,8,10,12,-1,-1,-1,-1,-1,-1,14,-1,-1],"split_conditions":[1E0,1E0,1E0,1E0,1E0,1E0,1.1812148E-1,-1.1116543E-1,2.8534006E-2,-9.8838E-3,1.1198449E-1,1.1254059E-1,1E0,1.4147796E-2,5.3900056E-2],"split_indices":[8,5,3,10,13,2,0,0,0,0,0,0,12,0,0],"split_type":[0,0,0,0,0,0,0,0,0,0,0,0,0,0,0],"sum_hessian":[1.0040372E2,6.336662E1,3.7037098E1,4.7395557E1,1.5971062E1,2.0694548E1,1.634255E1,3.9656223E1,7.739336E0,8.2476015E0,7.7234607E0,5.8601966E0,1.4834352E1,5.9642477E0,8.870104E0],"tree_param":{"num_deleted":"0","num_feature":"15","num_nodes":"15","size_leaf_vector":"1"}},{"base_weights":[1.1338639E-2,-6.5997636E-1,1.1457597E0,-1.1116768E0,6.572065E-1,8.241038E-1,1.14079505E-1,-1.0821438E-1,2.2366326E-2,-2.2093598E-2,9.809553E-2,5.155847E-1,1.0924626E-1,3.906914E-4,7.6270413E-1,3.1304823E-3,1.0308629E-1],"categories":[],"categories_nodes":[],"categories_segments":[],"categories_sizes":[],"default_left":[0,0,0,0,0,0,0,0,0,0,0,0,0,0,0,0,0],"id":4,"left_children":[1,3,5,7,9,11,-1,-1,-1,-1,-1,13,-1,-1,15,-1,-1],"loss_changes":[7.669638E1,3.8380547E1,3.2658234E0,2.2606022E1,1.0782894E1,3.6088247E0,0E0,0E0,0E0,0E0,0E0,2.0852551E0,0E0,0E0,4.8623476E0,0E0,0E0],"parents":[2147483647,0,0,1,1,2,2,3,3,4,4,5,5,11,11,14,14],"right_children":[2,4,6,8,10,12,-1,-1,-1,-1,-1,14,-1,-1,16,-1,-1],"split_conditions":[1E0,1E0,1E0,1E0,1E0,7E1,1.14079505E-1,-1.0821438E-1,2.2366326E-2,-2.2093598E-2,9.809553E-2,1E0,1.0924626E-1,3.906914E-4,1E0,3.1304823E-3,1.0308629E-1],"split_indices":[8,5,5,9,7,1,0,0,0,0,0,7,0,0,9,0,0],"split_type":[0,0,0,0,0,0,0,0,0,0,0,0,0,0,0,0,0],"sum_hessian":[9.871743E1,6.228019E1,3.6437244E1,4.6492554E1,1.5787636E1,2.1341818E1,1.50954275E1,3.7629967E1,8.862585E0,6.633109E0,9.154527E0,1.5564904E1,5.7769136E0,5.410887E0,1.0154017E1,5.1514325E0,5.002585E0],"tree_param":{"num_deleted":"0","num_feature":"15","num_nodes":"17","size_leaf_vector":"1"}},{"base_weights":[1.38671715E-2,-6.2240756E-1,1.0897713E0,-1.0530804E0,6.179184E-1,7.6045126E-1,1.0861751E-1,-1.03065275E-1,2.0839099E-2,-1.116266E-2,1.04046345E-1,1.033875E-1,4.4948897E-1,1.0655872E-2,4.668913E-2],"categories":[],"categories_nodes":[],"categories_segments":[],"categories_sizes":[],"default_left":[0,0,0,0,0,0,0,0,0,0,0,0,0,0,0],"id":5,"left_children":[1,3,5,7,9,11,-1,-1,-1,-1,-1,-1,13,-1,-1],"loss_changes":[6.769893E1,3.3853027E1,3.2364464E0,2.0258331E1,1.0028543E1,3.4657307E0,0E0,0E0,0E0,0E0,0E0,0E0,7.427077E-1,0E0,0E0],"parents":[2147483647,0,0,1,1,2,2,3,3,4,4,5,5,12,12],"right_children":[2,4,6,8,10,12,-1,-1,-1,-1,-1,-1,14,-1,-1],"split_conditions":[1E0,1E0,1E0,1E0,1E0,1E0,1.0861751E-1,-1.03065275E-1,2.0839099E-2,-1.116266E-2,1.04046345E-1,1.033875E-1,1E0,1.0655872E-2,4.668913E-2],"split_indices":[8,5,3,9,13,2,0,0,0,0,0,0,12,0,0],"split_type":[0,0,0,0,0,0,0,0,0,0,0,0,0,0,0],"sum_hessian":[9.690174E1,6.1156273E1,3.574547E1,4.550629E1,1.5649982E1,2.0256866E1,1.5488602E1,3.6634697E1,8.871594E0,8.242258E0,7.407725E0,5.6313496E0,1.4625518E1,5.9232874E0,8.70223E0],"tree_param":{"num_deleted":"0","num_feature":"15","num_nodes":"15","size_leaf_vector":"1"}},{"base_weights":[1.5956758E-2,-5.8876026E-1,1.037774E0,-1.0006101E0,5.8573365E-1,7.1901864E-1,1.0446628E-1,-1.2977259E0,3.0509247E-2,-2.2174269E-2,9.046217E-2,9.9119015E-2,4.2159382E-1,-1.0521639E-1,-6.7908294E-2,4.4705592E-2,9.7455075E-3],"categories":[],"categories_nodes":[],"categories_segments":[],"categories_sizes":[],"default_left":[0,0,0,0,0,0,0,0,0,0,0,0,0,0,0,0,0],"id":6,"left_children":[1,3,5,7,9,11,-1,13,-1,-1,-1,-1,15,-1,-1,-1,-1],"loss_changes":[5.9822647E1,3.001404E1,3.072113E0,1.9517376E1,9.338722E0,3.21214E0,0E0,2.8639984E-1,0E0,0E0,0E0,0E0,7.1384525E-1,0E0,0E0,0E0,0E0],"parents":[2147483647,0,0,1,1,2,2,3,3,4,4,5,5,7,7,12,12],"right_children":[2,4,6,8,10,12,-1,14,-1,-1,-1,-1,16,-1,-1,-1,-1],"split_conditions":[1E0,1E0,1E0,1E0,1E0,1E0,1.0446628E-1,1E0,3.0509247E-2,-2.2174269E-2,9.046217E-2,9.9119015E-2,6.4E1,-1.0521639E-1,-6.7908294E-2,4.4705592E-2,9.7455075E-3],"split_indices":[8,5,3,10,7,2,0,6,0,0,0,0,1,0,0,0,0],"split_type":[0,0,0,0,0,0,0,0,0,0,0,0,0,0,0,0,0],"sum_hessian":[9.482564E1,5.9837368E1,3.498827E1,4.441188E1,1.54254875E1,2.003191E1,1.4956362E1,3.6734745E1,7.677134E0,6.5887985E0,8.836688E0,5.4820704E0,1.4549839E1,2.6937405E1,9.797341E0,8.450553E0,6.0992856E0],"tree_param":{"num_deleted":"0","num_feature":"15","num_nodes":"17","size_leaf_vector":"1"}},{"base_weights":[1.6959395E-2,-5.5885327E-1,9.902238E-1,-9.5427233E-1,5.523257E-1,6.876561E-1,1.0225733E-1,-9.530363E-2,2.1667257E-2,-1.2152573E-2,9.781457E-2,-2.4704416E-3,9.294617E-1,1.2174466E-2,1.0506251E-1],"categories":[],"categories_nodes":[],"categories_segments":[],"categories_sizes":[],"default_left":[0,0,0,0,0,0,0,0,0,0,0,0,0,0,0],"id":7,"left_children":[1,3,5,7,9,11,-1,-1,-1,-1,-1,-1,13,-1,-1],"loss_changes":[5.3059822E1,2.6672186E1,3.0357819E0,1.7776093E1,8.939713E0,3.7681932E0,0E0,0E0,0E0,0E0,0E0,0E0,5.5926723E0,0E0,0E0],"parents":[2147483647,0,0,1,1,2,2,3,3,4,4,5,5,12,12],"right_children":[2,4,6,8,10,12,-1,-1,-1,-1,-1,-1,14,-1,-1],"split_conditions":[1E0,1E0,1E0,1E0,1E0,1E0,1.0225733E-1,-9.530363E-2,2.1667257E-2,-1.2152573E-2,9.781457E-2,-2.4704416E-3,1E0,1.2174466E-2,1.0506251E-1],"split_indices":[8,5,5,9,13,11,0,0,0,0,0,0,7,0,0],"split_type":[0,0,0,0,0,0,0,0,0,0,0,0,0,0,0],"sum_hessian":[9.269156E1,5.8504387E1,3.4187172E1,4.3253574E1,1.5250811E1,2.0450247E1,1.3736924E1,3.4459835E1,8.793742E0,8.222755E0,7.0280557E0,5.3552012E0,1.5095045E1,6.256786E0,8.838259E0],"tree_param":{"num_deleted":"0","num_feature":"15","num_nodes":"15","size_leaf_vector":"1"}},{"base_weights":[1.8549975E-2,-5.304176E-1,9.456579E-1,-9.103948E-1,5.248836E-1,6.325955E-1,9.834126E-2,-1.2045522E0,3.0199042E-2,-2.207212E-2,8.41604E-2,9.222617E-2,3.5115704E-1,-9.852839E-2,-6.0604207E-2,3.8990412E-2,5.9045656E-3],"categories":[],"categories_nodes":[],"categories_segments":[],"categories_sizes":[],"default_left":[0,0,0,0,0,0,0,0,0,0,0,0,0,0,0,0,0],"id":8,"left_children":[1,3,5,7,9,11,-1,13,-1,-1,-1,-1,15,-1,-1,-1,-1],"loss_changes":[4.702527E1,2.3757267E1,3.102316E0,1.7113163E1,8.160228E0,3.002819E0,0E0,4.7156525E-1,0E0,0E0,0E0,0E0,6.618916E-1,0E0,0E0,0E0,0E0],"parents":[2147483647,0,0,1,1,2,2,3,3,4,4,5,5,7,7,12,12],"right_children":[2,4,6,8,10,12,-1,14,-1,-1,-1,-1,16,-1,-1,-1,-1],"split_conditions":[1E0,1E0,1E0,1E0,1E0,1E0,9.834126E-2,1E0,3.0199042E-2,-2.207212E-2,8.41604E-2,9.222617E-2,6.4E1,-9.852839E-2,-6.0604207E-2,3.8990412E-2,5.9045656E-3],"split_indices":[8,5,3,10,7,2,0,6,0,0,0,0,1,0,0,0,0],"split_type":[0,0,0,0,0,0,0,0,0,0,0,0,0,0,0,0,0],"sum_hessian":[9.0410706E1,5.7054787E1,3.335592E1,4.2051E1,1.5003787E1,1.943898E1,1.3916939E1,3.442216E1,7.6288395E0,6.5404034E0,8.463384E0,5.1479836E0,1.42909975E1,2.5177282E1,9.244878E0,8.264516E0,6.026482E0],"tree_param":{"num_deleted":"0","num_feature":"15","num_nodes":"17","size_leaf_vector":"1"}},{"base_weights":[1.939203E-2,-5.049281E-1,9.050495E-1,-8.7114125E-1,4.959619E-1,5.9977996E-1,9.540536E-2,-8.902456E-2,2.2247247E-2,-1.2912509E-2,9.27885E-2,1.2436952E-3,8.2276773E-1,2.4328749E-3,1.00807235E-1],"categories":[],"categories_nodes":[],"categories_segments":[],"categories_sizes":[],"default_left":[0,0,0,0,0,0,0,0,0,0,0,0,0,0,0],"id":9,"left_children":[1,3,5,7,9,11,-1,-1,-1,-1,-1,-1,13,-1,-1],"loss_changes":[4.185297E1,2.1191696E1,2.9912796E0,1.57801285E1,8.042003E0,2.6113296E0,0E0,0E0,0E0,0E0,0E0,0E0,5.9642153E0,0E0,0E0],"parents":[2147483647,0,0,1,1,2,2,3,3,4,4,5,5,12,12],"right_children":[2,4,6,8,10,12,-1,-1,-1,-1,-1,-1,14,-1,-1],"split_conditions":[1E0,1E0,1E0,1E0,1E0,1E0,9.540536E-2,-8.902456E-2,2.2247247E-2,-1.2912509E-2,9.27885E-2,1.2436952E-3,1E0,2.4328749E-3,1.00807235E-1],"split_indices":[8,5,3,9,13,7,0,0,0,0,0,0,11,0,0],"split_type":[0,0,0,0,0,0,0,0,0,0,0,0,0,0,0],"sum_hessian":[8.8144775E1,5.5636917E1,3.2507854E1,4.082807E1,1.4808848E1,1.9184978E1,1.3322876E1,3.212311E1,8.704958E0,8.19219E0,6.6166573E0,5.603658E0,1.3581321E1,5.8201895E0,7.7611313E0],"tree_param":{"num_deleted":"0","num_feature":"15","num_nodes":"15","size_leaf_vector":"1"}},{"base_weights":[2.0860778E-2,-4.802116E-1,8.6683035E-1,-8.497667E-1,4.5878163E-1,5.701299E-1,9.429955E-2,-1.5783315E-3,-1.0197836E0,-2.3835035E-2,9.56214E-2,2.7040967E-1,9.2736155E-2,-1.1331794E0,-2.4566205E-2,3.912649E-2,-1.2086355E-2,-9.16511E-2,-5.442872E-2],"categories":[],"categories_nodes":[],"categories_segments":[],"categories_sizes":[],"default_left":[0,0,0,0,0,0,0,0,0,0,0,0,0,0,0,0,0,0,0],"id":10,"left_children":[1,3,5,7,9,11,-1,-1,13,-1,-1,15,-1,17,-1,-1,-1,-1,-1],"loss_changes":[3.720501E1,1.9526802E1,3.0648365E0,5.6037064E0,1.0688404E1,3.7353444E0,0E0,0E0,2.2275848E0,0E0,0E0,1.7470286E0,0E0,1.2813187E-1,0E0,0E0,0E0,0E0,0E0],"parents":[2147483647,0,0,1,1,2,2,3,3,4,4,5,5,8,8,11,11,13,13],"right_children":[2,4,6,8,10,12,-1,-1,14,-1,-1,16,-1,18,-1,-1,-1,-1,-1],"split_conditions":[1E0,1E0,1E0,1E0,1E0,7E1,9.429955E-2,-1.5783315E-3,1E0,-2.3835035E-2,9.56214E-2,6.3E1,9.2736155E-2,6.3E1,-2.4566205E-2,3.912649E-2,-1.2086355E-2,-9.16511E-2,-5.442872E-2],"split_indices":[8,13,5,0,12,1,0,0,4,0,0,1,0,1,0,0,0,0,0],"split_type":[0,0,0,0,0,0,0,0,0,0,0,0,0,0,0,0,0,0,0],"sum_hessian":[8.578803E1,5.4148144E1,3.1639885E1,3.8924023E1,1.522412E1,1.9377115E1,1.2262769E1,6.817401E0,3.2106625E1,8.114159E0,7.109962E0,1.43351E1,5.0420156E0,2.7040154E1,5.0664687E0,8.927955E0,5.4071455E0,2.0558836E1,6.4813185E0],"tree_param":{"num_deleted":"0","num_feature":"15","num_nodes":"19","size_leaf_vector":"1"}},{"base_weights":[2.113739E-2,-4.5621374E-1,8.3022743E-1,-8.074191E-1,4.7673807E-1,5.30011E-1,9.090882E-2,-1.0983118E0,2.8606636E-2,-1.9897169E-2,7.85427E-2,-5.8041816E-4,7.439378E-1,-9.125286E-2,-5.1292617E-2,-1.9564317E-3,9.5383525E-2],"categories":[],"categories_nodes":[],"categories_segments":[],"categories_sizes":[],"default_left":[0,0,0,0,0,0,0,0,0,0,0,0,0,0,0,0,0],"id":11,"left_children":[1,3,5,7,9,11,-1,13,-1,-1,-1,-1,15,-1,-1,-1,-1],"loss_changes":[3.313398E1,1.807363E1,3.0062218E0,1.4110847E1,6.794231E0,2.2598934E0,0E0,7.4119186E-1,0E0,0E0,0E0,0E0,5.734959E0,0E0,0E0,0E0,0E0],"parents":[2147483647,0,0,1,1,2,2,3,3,4,4,5,5,7,7,12,12],"right_children":[2,4,6,8,10,12,-1,14,-1,-1,-1,-1,16,-1,-1,-1,-1],"split_conditions":[1E0,1E0,1E0,1E0,1E0,1E0,9.090882E-2,1E0,2.8606636E-2,-1.9897169E-2,7.85427E-2,-5.8041816E-4,1E0,-9.125286E-2,-5.1292617E-2,-1.9564317E-3,9.5383525E-2],"split_indices":[8,5,3,10,7,7,0,6,0,0,0,0,11,0,0,0,0],"split_type":[0,0,0,0,0,0,0,0,0,0,0,0,0,0,0,0,0],"sum_hessian":[8.380972E1,5.2985313E1,3.082441E1,3.8592064E1,1.4393249E1,1.8594511E1,1.2229899E1,3.1066643E1,7.525422E0,6.488621E0,7.9046273E0,5.566293E0,1.3028218E1,2.2657595E1,8.409048E0,5.6851807E0,7.343037E0],"tree_param":{"num_deleted":"0","num_feature":"15","num_nodes":"17","size_leaf_vector":"1"}},{"base_weights":[2.1614816E-2,-4.8882318E-1,7.297191E-1,-9.422816E-1,7.548389E-1,5.4647245E-2,9.972533E-2,-1.0620073E0,-1.4307347E-2,2.3126459E-2,8.2926326E-2,6.232916E-2,-3.266561E-1,-8.859537E-2,-4.89732E-2,-6.1850257E-2,2.4689803E-2],"categories":[],"categories_nodes":[],"categories_segments":[],"categories_sizes":[],"default_left":[0,0,0,0,0,0,0,0,0,0,0,0,0,0,0,0,0],"id":12,"left_children":[1,3,5,7,9,11,-1,13,-1,-1,-1,-1,15,-1,-1,-1,-1],"loss_changes":[3.0186102E1,2.8094849E1,1.4091263E1,3.0390224E0,1.7783852E0,5.4518547E0,0E0,7.339859E-1,0E0,0E0,0E0,0E0,4.3389487E0,0E0,0E0,0E0,0E0],"parents":[2147483647,0,0,1,1,2,2,3,3,4,4,5,5,7,7,12,12],"right_children":[2,4,6,8,10,12,-1,14,-1,-1,-1,-1,16,-1,-1,-1,-1],"split_conditions":[1E0,1E0,1E0,1E0,1E0,6.1E1,9.972533E-2,1E0,-1.4307347E-2,2.3126459E-2,8.2926326E-2,6.232916E-2,1E0,-8.859537E-2,-4.89732E-2,-6.1850257E-2,2.4689803E-2],"split_indices":[10,5,7,8,13,1,0,6,0,0,0,0,13,0,0,0,0],"split_type":[0,0,0,0,0,0,0,0,0,0,0,0,0,0,0,0,0],"sum_hessian":[8.1528564E1,4.7556828E1,3.3971733E1,3.502757E1,1.2529261E1,1.649852E1,1.7473213E1,2.9857723E1,5.1698446E0,6.339937E0,6.1893234E0,5.0454617E0,1.1453058E1,2.1655499E1,8.202225E0,6.363566E0,5.089493E0],"tree_param":{"num_deleted":"0","num_feature":"15","num_nodes":"17","size_leaf_vector":"1"}},{"base_weights":[2.1538582E-2,-4.2304462E-1,7.719529E-1,-7.6062787E-1,4.1293308E-1,4.7120157E-1,8.778097E-2,-9.972254E-4,-9.251935E-1,-2.2059824E-2,8.908039E-2,-9.3669945E-4,6.855403E-1,-1.0371103E0,-2.3731923E-2,-3.3774916E-3,8.949804E-2,-8.750946E-2,-4.2711698E-2],"categories":[],"categories_nodes":[],"categories_segments":[],"categories_sizes":[],"default_left":[0,0,0,0,0,0,0,0,0,0,0,0,0,0,0,0,0,0,0],"id":13,"left_children":[1,3,5,7,9,11,-1,-1,13,-1,-1,-1,15,17,-1,-1,-1,-1,-1],"loss_changes":[2.712407E1,1.4731139E1,3.0720406E0,4.506481E0,8.75501E0,1.9685297E0,0E0,0E0,1.722395E0,0E0,0E0,0E0,4.9200006E0,8.506279E-1,0E0,0E0,0E0,0E0,0E0],"parents":[2147483647,0,0,1,1,2,2,3,3,4,4,5,5,8,8,12,12,13,13],"right_children":[2,4,6,8,10,12,-1,-1,14,-1,-1,-1,16,18,-1,-1,-1,-1,-1],"split_conditions":[1E0,1E0,1E0,1E0,1E0,1E0,8.778097E-2,-9.972254E-4,6.7E1,-2.2059824E-2,8.908039E-2,-9.3669945E-4,1E0,1E0,-2.3731923E-2,-3.3774916E-3,8.949804E-2,-8.750946E-2,-4.2711698E-2],"split_indices":[8,13,3,0,12,11,0,0,1,0,0,0,7,6,0,0,0,0,0],"split_type":[0,0,0,0,0,0,0,0,0,0,0,0,0,0,0,0,0,0,0],"sum_hessian":[7.932302E1,5.008588E1,2.9237143E1,3.5742523E1,1.4343355E1,1.790516E1,1.1331981E1,6.645325E0,2.9097198E1,7.8238897E0,6.5194654E0,5.787174E0,1.2117987E1,2.3984268E1,5.1129303E0,5.34251E0,6.775477E0,1.7606422E1,6.377845E0],"tree_param":{"num_deleted":"0","num_feature":"15","num_nodes":"19","size_leaf_vector":"1"}},{"base_weights":[2.165023E-2,-4.3907908E-1,7.1326286E-1,-8.074569E-1,5.143774E-1,-8.910602E-2,8.7098464E-2,-1.0498159E0,1.26389135E-2,-3.6522811E-3,8.886751E-2,4.4825524E-2,-5.1149826E-2,-8.66323E-2,-5.0003987E-2],"categories":[],"categories_nodes":[],"categories_segments":[],"categories_sizes":[],"default_left":[0,0,0,0,0,0,0,0,0,0,0,0,0,0,0],"id":14,"left_children":[1,3,5,7,9,11,-1,13,-1,-1,-1,-1,-1,-1,-1],"loss_changes":[2.5285683E1,1.7153473E1,1.1505129E1,8.399786E0,5.3026133E0,5.4131155E0,0E0,3.586502E-1,0E0,0E0,0E0,0E0,0E0,0E0,0E0],"parents":[2147483647,0,0,1,1,2,2,3,3,4,4,5,5,7,7],"right_children":[2,4,6,8,10,12,-1,14,-1,-1,-1,-1,-1,-1,-1],"split_conditions":[1E0,1E0,1E0,1E0,1E0,6.3E1,8.7098464E-2,1E0,1.26389135E-2,-3.6522811E-3,8.886751E-2,4.4825524E-2,-5.1149826E-2,-8.66323E-2,-5.0003987E-2],"split_indices":[9,5,7,8,7,1,0,6,0,0,0,0,0,0,0],"split_type":[0,0,0,0,0,0,0,0,0,0,0,0,0,0,0],"sum_hessian":[7.7370636E1,4.665546E1,3.0715178E1,3.376365E1,1.289181E1,1.1292918E1,1.9422258E1,2.6986559E1,6.77709E0,7.5114284E0,5.3803825E0,5.228448E0,6.064471E0,1.958822E1,7.3983383E0],"tree_param":{"num_deleted":"0","num_feature":"15","num_nodes":"15","size_leaf_vector":"1"}},{"base_weights":[2.1120192E-2,-4.5405424E-1,6.584091E-1,-8.767451E-1,6.819359E-1,5.893177E-2,9.262353E-2,-9.772231E-1,-2.113404E-2,2.1129575E-2,7.727385E-2,-2.8720051E-2,4.0334195E-2,-1.079344E0,-4.2088784E-2,-9.3719155E-2,-5.9213713E-2],"categories":[],"categories_nodes":[],"categories_segments":[],"categories_sizes":[],"default_left":[0,0,0,0,0,0,0,0,0,0,0,0,0,0,0,0,0],"id":15,"left_children":[1,3,5,7,9,11,-1,13,-1,-1,-1,-1,-1,15,-1,-1,-1],"loss_changes":[2.3382826E1,2.1850569E1,1.1322434E1,1.6791592E0,1.4616494E0,3.8480916E0,0E0,5.6547356E-1,0E0,0E0,0E0,0E0,0E0,5.2085876E-2,0E0,0E0,0E0],"parents":[2147483647,0,0,1,1,2,2,3,3,4,4,5,5,7,7,13,13],"right_children":[2,4,6,8,10,12,-1,14,-1,-1,-1,-1,-1,16,-1,-1,-1],"split_conditions":[1E0,1E0,1E0,1E0,1E0,1E0,9.262353E-2,1E0,-2.113404E-2,2.1129575E-2,7.727385E-2,-2.8720051E-2,4.0334195E-2,6E1,-4.2088784E-2,-9.3719155E-2,-5.9213713E-2],"split_indices":[10,5,7,9,13,6,0,3,0,0,0,0,0,1,0,0,0],"split_type":[0,0,0,0,0,0,0,0,0,0,0,0,0,0,0,0,0],"sum_hessian":[7.522882E1,4.3260506E1,3.1968313E1,3.1695232E1,1.1565276E1,1.6213202E1,1.5755112E1,2.6566162E1,5.1290693E0,6.224025E0,5.3412514E0,8.53648E0,7.6767216E0,2.0050291E1,6.5158706E0,1.0544797E1,9.505495E0],"tree_param":{"num_deleted":"0","num_feature":"15","num_nodes":"17","size_leaf_vector":"1"}},{"base_weights":[2.0008888E-2,-3.861152E-1,7.0425165E-1,-7.059151E-1,3.9274606E-1,4.0463662E-1,8.414718E-2,-4.5764633E-3,-8.5615987E-1,-1.752544E-2,8.314628E-2,-4.651732E-3,6.202385E-1,-7.6176114E-2,-3.2502457E-2,-1.4853121E-3,8.326784E-2],"categories":[],"categories_nodes":[],"categories_segments":[],"categories_sizes":[],"default_left":[0,0,0,0,0,0,0,0,0,0,0,0,0,0,0,0,0],"id":16,"left_children":[1,3,5,7,9,11,-1,-1,13,-1,-1,-1,15,-1,-1,-1,-1],"loss_changes":[2.0915602E1,1.2049779E1,3.053259E0,3.2289028E0,6.7166195E0,1.8377075E0,0E0,0E0,1.4070454E0,0E0,0E0,0E0,3.8865962E0,0E0,0E0,0E0,0E0],"parents":[2147483647,0,0,1,1,2,2,3,3,4,4,5,5,8,8,12,12],"right_children":[2,4,6,8,10,12,-1,-1,14,-1,-1,-1,16,-1,-1,-1,-1],"split_conditions":[1E0,1E0,1E0,1E0,1E0,1E0,8.414718E-2,-4.5764633E-3,1E0,-1.752544E-2,8.314628E-2,-4.651732E-3,1E0,-7.6176114E-2,-3.2502457E-2,-1.4853121E-3,8.326784E-2],"split_indices":[8,13,3,0,12,11,0,0,6,0,0,0,7,0,0,0,0],"split_type":[0,0,0,0,0,0,0,0,0,0,0,0,0,0,0,0,0],"sum_hessian":[7.328791E1,4.626411E1,2.7023804E1,3.286388E1,1.340023E1,1.6882816E1,1.0140986E1,6.475447E0,2.6388432E1,7.5058575E0,5.8943725E0,5.560251E0,1.1322566E1,1.8141333E1,8.247099E0,5.3256826E0,5.9968834E0],"tree_param":{"num_deleted":"0","num_feature":"15","num_nodes":"17","size_leaf_vector":"1"}},{"base_weights":[2.07242E-2,-4.2433587E-1,6.0998654E-1,-8.3149725E-1,6.5695864E-1,4.2679E-2,8.896796E-2,-7.5990945E-2,-4.8187208E-1,7.186126E-2,1.8749423E-2,-2.726334E-2,3.691614E-2,-5.1936388E-2,-1.1854217E-2],"categories":[],"categories_nodes":[],"categories_segments":[],"categories_sizes":[],"default_left":[0,0,0,0,0,0,0,0,0,0,0,0,0,0,0],"id":17,"left_children":[1,3,5,7,9,11,-1,-1,13,-1,-1,-1,-1,-1,-1],"loss_changes":[1.9267046E1,1.89852E1,1.0278979E1,1.472784E0,1.2332354E0,3.2757072E0,0E0,0E0,7.405288E-1,0E0,0E0,0E0,0E0,0E0,0E0],"parents":[2147483647,0,0,1,1,2,2,3,3,4,4,5,5,8,8],"right_children":[2,4,6,8,10,12,-1,-1,14,-1,-1,-1,-1,-1,-1],"split_conditions":[1E0,1E0,1E0,1E0,1E0,1E0,8.896796E-2,-7.5990945E-2,6.2E1,7.186126E-2,1.8749423E-2,-2.726334E-2,3.691614E-2,-5.1936388E-2,-1.1854217E-2],"split_indices":[10,5,7,6,14,6,0,0,1,0,0,0,0,0,0],"split_type":[0,0,0,0,0,0,0,0,0,0,0,0,0,0,0],"sum_hessian":[7.147927E1,4.088181E1,3.0597466E1,2.9866571E1,1.1015238E1,1.5959635E1,1.463783E1,1.8403486E1,1.1463084E1,5.551937E0,5.4633007E0,8.484556E0,7.4750786E0,6.25576E0,5.207324E0],"tree_param":{"num_deleted":"0","num_feature":"15","num_nodes":"15","size_leaf_vector":"1"}},{"base_weights":[2.0446265E-2,-3.884107E-1,6.303167E-1,-6.619738E-1,5.2458186E-2,-5.9560467E-2,7.8880325E-2,-8.0213025E-2,-2.564676E-2,8.423648E-3,-1.8118404E-2,-4.0583983E-2,4.4287216E-2],"categories":[],"categories_nodes":[],"categories_segments":[],"categories_sizes":[],"default_left":[0,0,0,0,0,0,0,0,0,0,0,0,0],"id":18,"left_children":[1,3,5,7,-1,9,-1,-1,11,-1,-1,-1,-1],"loss_changes":[1.785842E1,1.3231947E1,8.415636E0,8.996781E0,0E0,3.975956E-1,0E0,0E0,4.9598694E0,0E0,0E0,0E0,0E0],"parents":[2147483647,0,0,1,1,2,2,3,3,5,5,8,8],"right_children":[2,4,6,8,-1,10,-1,-1,12,-1,-1,-1,-1],"split_conditions":[1E0,1E0,1E0,1E0,5.2458186E-2,1E0,7.8880325E-2,-8.0213025E-2,1E0,8.423648E-3,-1.8118404E-2,-4.0583983E-2,4.4287216E-2],"split_indices":[9,11,7,3,0,0,0,0,5,0,0,0,0],"split_type":[0,0,0,0,0,0,0,0,0,0,0,0,0],"sum_hessian":[6.9638115E1,4.190688E1,2.7731234E1,3.3798927E1,8.107951E0,1.0841721E1,1.6889513E1,2.0188519E1,1.361041E1,5.77318E0,5.0685406E0,7.4769015E0,6.133508E0],"tree_param":{"num_deleted":"0","num_feature":"15","num_nodes":"13","size_leaf_vector":"1"}},{"base_weights":[2.0020997E-2,-3.5214576E-1,6.4701104E-1,-6.572445E-1,3.756536E-1,3.4582096E-1,8.137524E-2,-8.735111E-1,-2.1821187E-1,-1.4519751E-2,7.894581E-2,-5.6450926E-3,5.481877E-1,-8.051928E-2,-3.8833726E-2,1.0328467E-3,-3.1153979E-2,-1.682803E-3,7.78297E-2],"categories":[],"categories_nodes":[],"categories_segments":[],"categories_sizes":[],"default_left":[0,0,0,0,0,0,0,0,0,0,0,0,0,0,0,0,0,0,0],"id":19,"left_children":[1,3,5,7,9,11,-1,13,15,-1,-1,-1,17,-1,-1,-1,-1,-1,-1],"loss_changes":[1.6295664E1,9.985531E0,3.0548048E0,2.7780972E0,5.4412045E0,1.4791994E0,0E0,9.113474E-1,5.386892E-1,0E0,0E0,0E0,3.2407384E0,0E0,0E0,0E0,0E0,0E0,0E0],"parents":[2147483647,0,0,1,1,2,2,3,3,4,4,5,5,7,7,8,8,12,12],"right_children":[2,4,6,8,10,12,-1,14,16,-1,-1,-1,18,-1,-1,-1,-1,-1,-1],"split_conditions":[1E0,1E0,1E0,6.3E1,1E0,1E0,8.137524E-2,1E0,1E0,-1.4519751E-2,7.894581E-2,-5.6450926E-3,1E0,-8.051928E-2,-3.8833726E-2,1.0328467E-3,-3.1153979E-2,-1.682803E-3,7.78297E-2],"split_indices":[8,13,3,1,12,11,0,2,2,0,0,0,7,0,0,0,0,0,0],"split_type":[0,0,0,0,0,0,0,0,0,0,0,0,0,0,0,0,0,0,0],"sum_hessian":[6.78587E1,4.285771E1,2.500099E1,3.0266653E1,1.2591057E1,1.5874367E1,9.126623E0,1.961481E1,1.0651843E1,7.227502E0,5.363555E0,5.356504E0,1.0517863E1,1.1262314E1,8.352497E0,5.321296E0,5.330547E0,5.2973146E0,5.2205486E0],"tree_param":{"num_deleted":"0","num_feature":"15","num_nodes":"19","size_leaf_vector":"1"}},{"base_weights":[2.0171734E-2,-3.9053923E-1,5.5466884E-1,-7.6859653E-1,5.8663744E-1,4.1089285E-2,8.4121734E-2,-7.182879E-2,-3.1334624E-2,6.7392066E-2,1.4430633E-2,-2.5751939E-2,3.5637077E-2],"categories":[],"categories_nodes":[],"categories_segments":[],"categories_sizes":[],"default_left":[0,0,0,0,0,0,0,0,0,0,0,0,0],"id":20,"left_children":[1,3,5,7,9,11,-1,-1,-1,-1,-1,-1,-1],"loss_changes":[1.4983386E1,1.472014E1,8.584982E0,1.4762821E0,1.2218323E0,2.9318576E0,0E0,0E0,0E0,0E0,0E0,0E0,0E0],"parents":[2147483647,0,0,1,1,2,2,3,3,4,4,5,5],"right_children":[2,4,6,8,10,12,-1,-1,-1,-1,-1,-1,-1],"split_conditions":[1E0,1E0,1E0,1E0,1E0,1E0,8.4121734E-2,-7.182879E-2,-3.1334624E-2,6.7392066E-2,1.4430633E-2,-2.5751939E-2,3.5637077E-2],"split_indices":[10,5,7,6,14,6,0,0,0,0,0,0,0],"split_type":[0,0,0,0,0,0,0,0,0,0,0,0,0],"sum_hessian":[6.6267265E1,3.7625175E1,2.8642092E1,2.7283129E1,1.0342047E1,1.5591182E1,1.3050909E1,1.6602484E1,1.0680645E1,5.059535E0,5.282511E0,8.379028E0,7.212154E0],"tree_param":{"num_deleted":"0","num_feature":"15","num_nodes":"13","size_leaf_vector":"1"}},{"base_weights":[2.0335436E-2,-3.5320777E-1,5.766268E-1,-6.1175585E-1,5.0097913E-2,-4.7050357E-2,7.392628E-2,-7.55076E-2,-2.202962E-2,-5.345619E-5,-6.627323E-3,-3.6808297E-2,4.0215086E-2],"categories":[],"categories_nodes":[],"categories_segments":[],"categories_sizes":[],"default_left":[0,0,0,0,0,0,0,0,0,0,0,0,0],"id":21,"left_children":[1,3,5,7,-1,9,-1,-1,11,-1,-1,-1,-1],"loss_changes":[1.3830136E1,1.0930471E1,6.8640537E0,7.507285E0,0E0,2.2027873E-2,0E0,0E0,3.92338E0,0E0,0E0,0E0,0E0],"parents":[2147483647,0,0,1,1,2,2,3,3,5,5,8,8],"right_children":[2,4,6,8,-1,10,-1,-1,12,-1,-1,-1,-1],"split_conditions":[1E0,1E0,1E0,1E0,5.0097913E-2,1E0,7.392628E-2,-7.55076E-2,1E0,-5.345619E-5,-6.627323E-3,-3.6808297E-2,4.0215086E-2],"split_indices":[9,11,7,3,0,14,0,0,5,0,0,0,0],"split_type":[0,0,0,0,0,0,0,0,0,0,0,0,0],"sum_hessian":[6.457528E1,3.8851807E1,2.5723473E1,3.1322367E1,7.52944E0,1.0539373E1,1.5184099E1,1.833439E1,1.2987976E1,5.447135E0,5.092239E0,7.125506E0,5.8624697E0],"tree_param":{"num_deleted":"0","num_feature":"15","num_nodes":"13","size_leaf_vector":"1"}},{"base_weights":[1.995964E-2,-3.2342818E-1,5.991717E-1,-6.158073E-1,3.6132166E-1,2.9788542E-1,7.908627E-2,-7.882029E-1,-8.085439E-3,-2.9155235E-3,6.114843E-2,-6.675149E-3,3.6798444E-2,-7.609823E-2,-4.24299E-2],"categories":[],"categories_nodes":[],"categories_segments":[],"categories_sizes":[],"default_left":[0,0,0,0,0,0,0,0,0,0,0,0,0,0,0],"id":22,"left_children":[1,3,5,7,9,11,-1,13,-1,-1,-1,-1,-1,-1,-1],"loss_changes":[1.2916792E1,8.392777E0,3.0000553E0,2.4519596E0,2.3647585E0,1.2318654E0,0E0,5.075531E-1,0E0,0E0,0E0,0E0,0E0,0E0,0E0],"parents":[2147483647,0,0,1,1,2,2,3,3,4,4,5,5,7,7],"right_children":[2,4,6,8,10,12,-1,14,-1,-1,-1,-1,-1,-1,-1],"split_conditions":[1E0,1E0,1E0,6.5E1,6.2E1,1E0,7.908627E-2,1E0,-8.085439E-3,-2.9155235E-3,6.114843E-2,-6.675149E-3,3.6798444E-2,-7.609823E-2,-4.24299E-2],"split_indices":[8,13,3,1,1,11,0,7,0,0,0,0,0,0,0],"split_type":[0,0,0,0,0,0,0,0,0,0,0,0,0,0,0],"sum_hessian":[6.2968643E1,3.980922E1,2.3159424E1,2.7967955E1,1.1841264E1,1.4932573E1,8.2268505E0,2.0469755E1,7.498201E0,6.7794843E0,5.061779E0,5.144793E0,9.787781E0,8.379728E0,1.2090026E1],"tree_param":{"num_deleted":"0","num_feature":"15","num_nodes":"15","size_leaf_vector":"1"}},{"base_weights":[1.9584227E-2,-3.3050668E-1,5.392999E-1,-5.7918406E-1,4.8186768E-2,-5.8948472E-2,7.121414E-2,-7.1922064E-2,-2.7292999E-2,1.3377101E-4,-8.448796E-3,-3.574457E-2,3.8493946E-2],"categories":[],"categories_nodes":[],"categories_segments":[],"categories_sizes":[],"default_left":[0,0,0,0,0,0,0,0,0,0,0,0,0],"id":23,"left_children":[1,3,5,7,-1,9,-1,-1,11,-1,-1,-1,-1],"loss_changes":[1.1601606E1,9.599055E0,6.3508563E0,6.4497766E0,0E0,3.7301015E-2,0E0,0E0,3.5534515E0,0E0,0E0,0E0,0E0],"parents":[2147483647,0,0,1,1,2,2,3,3,5,5,8,8],"right_children":[2,4,6,8,-1,10,-1,-1,12,-1,-1,-1,-1],"split_conditions":[1E0,1E0,1E0,1E0,4.8186768E-2,1E0,7.121414E-2,-7.1922064E-2,1E0,1.3377101E-4,-8.448796E-3,-3.574457E-2,3.8493946E-2],"split_indices":[9,11,7,3,0,14,0,0,5,0,0,0,0],"split_type":[0,0,0,0,0,0,0,0,0,0,0,0,0],"sum_hessian":[6.1783768E1,3.7133774E1,2.4649994E1,2.989738E1,7.2363944E0,1.0375359E1,1.4274634E1,1.7273354E1,1.2624027E1,5.3226867E0,5.052672E0,6.958464E0,5.665563E0],"tree_param":{"num_deleted":"0","num_feature":"15","num_nodes":"13","size_leaf_vector":"1"}},{"base_weights":[1.9219583E-2,-3.5122067E-1,4.915099E-1,-6.932957E-1,3.754612E-2,4.4269685E-2,8.117614E-2,-8.96168E-1,-2.4880152E-2,-2.5814125E-2,3.508974E-2,-8.0139175E-2,-4.809725E-2],"categories":[],"categories_nodes":[],"categories_segments":[],"categories_sizes":[],"default_left":[0,0,0,0,0,0,0,0,0,0,0,0,0],"id":24,"left_children":[1,3,5,7,-1,9,-1,11,-1,-1,-1,-1,-1],"loss_changes":[1.0893791E1,1.0524216E1,7.180145E0,1.5612965E0,0E0,2.8943913E0,0E0,1.9454956E-3,0E0,0E0,0E0,0E0,0E0],"parents":[2147483647,0,0,1,1,2,2,3,3,5,5,7,7],"right_children":[2,4,6,8,-1,10,-1,12,-1,-1,-1,-1,-1],"split_conditions":[1E0,1E0,1E0,1E0,3.754612E-2,1E0,8.117614E-2,1E0,-2.4880152E-2,-2.5814125E-2,3.508974E-2,-8.0139175E-2,-4.809725E-2],"split_indices":[10,5,12,6,0,5,0,7,0,0,0,0,0],"split_type":[0,0,0,0,0,0,0,0,0,0,0,0,0],"sum_hessian":[6.027943E1,3.392598E1,2.6353449E1,2.4338419E1,9.587562E0,1.5611282E1,1.0742166E1,1.4643377E1,9.695042E0,8.241156E0,7.3701267E0,6.8313446E0,7.8120327E0],"tree_param":{"num_deleted":"0","num_feature":"15","num_nodes":"13","size_leaf_vector":"1"}},{"base_weights":[1.7844008E-2,-3.0081144E-1,5.5528665E-1,-5.8011657E-1,2.5705332E-2,2.5687334E-1,7.70711E-2,-7.4902755E-1,-6.914227E-3,1.020126E-3,2.9314283E-2,-7.2832204E-2,-3.9083887E-2],"categories":[],"categories_nodes":[],"categories_segments":[],"categories_sizes":[],"default_left":[0,0,0,0,0,0,0,0,0,0,0,0,0],"id":25,"left_children":[1,3,5,7,-1,9,-1,11,-1,-1,-1,-1,-1],"loss_changes":[1.0422369E1,7.0725975E0,2.9271955E0,2.1593933E0,0E0,4.903779E-1,0E0,5.0340366E-1,0E0,0E0,0E0,0E0,0E0],"parents":[2147483647,0,0,1,1,2,2,3,3,5,5,7,7],"right_children":[2,4,6,8,-1,10,-1,12,-1,-1,-1,-1,-1],"split_conditions":[1E0,1E0,1E0,6.5E1,2.5705332E-2,1E0,7.70711E-2,1E0,-6.914227E-3,1.020126E-3,2.9314283E-2,-7.2832204E-2,-3.9083887E-2],"split_indices":[8,13,3,1,0,7,0,7,0,0,0,0,0],"split_type":[0,0,0,0,0,0,0,0,0,0,0,0,0],"sum_hessian":[5.8881996E1,3.7241444E1,2.1640554E1,2.6038923E1,1.1202519E1,1.4207932E1,7.4326224E0,1.89453E1,7.093624E0,5.437212E0,8.7707205E0,7.943993E0,1.1001306E1],"tree_param":{"num_deleted":"0","num_feature":"15","num_nodes":"13","size_leaf_vector":"1"}},{"base_weights":[1.7118985E-2,-3.0856165E-1,5.010798E-1,-5.461478E-1,4.6645522E-2,-3.2382587E-3,6.7129575E-2,-6.8449765E-2,-2.894392E-2,-3.293774E-2,3.4950722E-2],"categories":[],"categories_nodes":[],"categories_segments":[],"categories_sizes":[],"default_left":[0,0,0,0,0,0,0,0,0,0,0],"id":26,"left_children":[1,3,5,7,-1,-1,-1,-1,9,-1,-1],"loss_changes":[9.430894E0,8.253768E0,5.1966987E0,5.480304E0,0E0,0E0,0E0,0E0,2.8606193E0,0E0,0E0],"parents":[2147483647,0,0,1,1,2,2,3,3,8,8],"right_children":[2,4,6,8,-1,-1,-1,-1,10,-1,-1],"split_conditions":[1E0,1E0,1E0,1E0,4.6645522E-2,-3.2382587E-3,6.7129575E-2,-6.8449765E-2,1E0,-3.293774E-2,3.4950722E-2],"split_indices":[9,11,7,3,0,0,0,0,5,0,0],"split_type":[0,0,0,0,0,0,0,0,0,0,0],"sum_hessian":[5.7853416E1,3.4798347E1,2.3055069E1,2.8049498E1,6.7488503E0,1.0055092E1,1.2999976E1,1.5968697E1,1.2080802E1,6.6674285E0,5.4133735E0],"tree_param":{"num_deleted":"0","num_feature":"15","num_nodes":"11","size_leaf_vector":"1"}},{"base_weights":[1.6951915E-2,-2.4287932E-1,6.0401016E-1,-5.477571E-1,2.75892E-1,8.3172945E-3,7.929517E-2,-7.1230686E-1,-6.05361E-3,-7.330076E-3,3.508935E-2,-6.976721E-2,-3.6129132E-2],"categories":[],"categories_nodes":[],"categories_segments":[],"categories_sizes":[],"default_left":[0,0,0,0,0,0,0,0,0,0,0,0,0],"id":27,"left_children":[1,3,5,7,9,-1,-1,11,-1,-1,-1,-1,-1],"loss_changes":[8.915273E0,6.5664186E0,3.8888245E0,1.9316196E0,1.1702877E0,0E0,0E0,5.072098E-1,0E0,0E0,0E0,0E0,0E0],"parents":[2147483647,0,0,1,1,2,2,3,3,4,4,7,7],"right_children":[2,4,6,8,10,-1,-1,12,-1,-1,-1,-1,-1],"split_conditions":[1E0,1E0,1E0,6.5E1,1E0,8.3172945E-3,7.929517E-2,1E0,-6.05361E-3,-7.330076E-3,3.508935E-2,-6.976721E-2,-3.6129132E-2],"split_indices":[13,8,5,1,12,0,0,7,0,0,0,0,0],"split_type":[0,0,0,0,0,0,0,0,0,0,0,0,0],"sum_hessian":[5.6485233E1,3.9561596E1,1.6923635E1,2.4882486E1,1.46791115E1,8.701594E0,8.22204E0,1.801148E1,6.871006E0,5.148801E0,9.530311E0,7.7000585E0,1.0311421E1],"tree_param":{"num_deleted":"0","num_feature":"15","num_nodes":"13","size_leaf_vector":"1"}},{"base_weights":[1.6189586E-2,-3.2206655E-1,4.401073E-1,-6.4245784E-1,3.4268893E-2,1.6537245E-2,7.7559225E-2,-8.45704E-1,-2.1974565E-2,-2.4709433E-2,3.2061603E-2,-7.699053E-2,-4.3182716E-2],"categories":[],"categories_nodes":[],"categories_segments":[],"categories_sizes":[],"default_left":[0,0,0,0,0,0,0,0,0,0,0,0,0],"id":28,"left_children":[1,3,5,7,-1,9,-1,11,-1,-1,-1,-1,-1],"loss_changes":[8.236148E0,8.273678E0,6.392582E0,1.3909225E0,0E0,2.399809E0,0E0,9.5149994E-2,0E0,0E0,0E0,0E0,0E0],"parents":[2147483647,0,0,1,1,2,2,3,3,5,5,7,7],"right_children":[2,4,6,8,-1,10,-1,12,-1,-1,-1,-1,-1],"split_conditions":[1E0,1E0,1E0,1E0,3.4268893E-2,1E0,7.7559225E-2,1E0,-2.1974565E-2,-2.4709433E-2,3.2061603E-2,-7.699053E-2,-4.3182716E-2],"split_indices":[10,5,12,6,0,5,0,7,0,0,0,0,0],"split_type":[0,0,0,0,0,0,0,0,0,0,0,0,0],"sum_hessian":[5.544918E1,3.097422E1,2.447496E1,2.2071589E1,8.902632E0,1.48872595E1,9.587701E0,1.3057443E1,9.014147E0,8.190034E0,6.6972256E0,6.1407E0,6.9167423E0],"tree_param":{"num_deleted":"0","num_feature":"15","num_nodes":"13","size_leaf_vector":"1"}},{"base_weights":[1.4960578E-2,-2.3180537E-1,5.8053684E-1,-5.205048E-1,2.5327846E-1,1.0718603E-2,8.191046E-2,-6.8134093E-1,-5.524162E-3,-5.7547186E-3,3.21205E-2,-6.705102E-2,-3.422177E-2],"categories":[],"categories_nodes":[],"categories_segments":[],"categories_sizes":[],"default_left":[0,0,0,0,0,0,0,0,0,0,0,0,0],"id":29,"left_children":[1,3,5,7,9,-1,-1,11,-1,-1,-1,-1,-1],"loss_changes":[7.842119E0,5.6165285E0,3.6637406E0,1.737884E0,9.1555977E-1,0E0,0E0,4.618845E-1,0E0,0E0,0E0,0E0,0E0],"parents":[2147483647,0,0,1,1,2,2,3,3,4,4,7,7],"right_children":[2,4,6,8,10,-1,-1,12,-1,-1,-1,-1,-1],"split_conditions":[1E0,1E0,1E0,6.5E1,1E0,1.0718603E-2,8.191046E-2,1E0,-5.524162E-3,-5.7547186E-3,3.21205E-2,-6.705102E-2,-3.422177E-2],"split_indices":[13,8,6,1,12,0,0,7,0,0,0,0,0],"split_type":[0,0,0,0,0,0,0,0,0,0,0,0,0],"sum_hessian":[5.422552E1,3.816426E1,1.6061264E1,2.3879356E1,1.4284904E1,9.34605E0,6.715213E0,1.7173326E1,6.7060294E0,5.144623E0,9.140281E0,7.3012004E0,9.872126E0],"tree_param":{"num_deleted":"0","num_feature":"15","num_nodes":"13","size_leaf_vector":"1"}},{"base_weights":[1.4368611E-2,-2.8601944E-1,4.616494E-1,-5.1408774E-1,4.613868E-2,1.2256678E-1,7.749431E-2,-6.486501E-2,-3.2600954E-2,-3.2629985E-2,4.940833E-2,-2.9627778E-2,3.130326E-2],"categories":[],"categories_nodes":[],"categories_segments":[],"categories_sizes":[],"default_left":[0,0,0,0,0,0,0,0,0,0,0,0,0],"id":30,"left_children":[1,3,5,7,-1,9,-1,-1,11,-1,-1,-1,-1],"loss_changes":[7.4362745E0,7.127677E0,4.1808996E0,4.5305743E0,0E0,4.7968383E0,0E0,0E0,2.189697E0,0E0,0E0,0E0,0E0],"parents":[2147483647,0,0,1,1,2,2,3,3,5,5,8,8],"right_children":[2,4,6,8,-1,10,-1,-1,12,-1,-1,-1,-1],"split_conditions":[1E0,1E0,1E0,1E0,4.613868E-2,1E0,7.749431E-2,-6.486501E-2,1E0,-3.2629985E-2,4.940833E-2,-2.9627778E-2,3.130326E-2],"split_indices":[9,11,6,3,0,7,0,0,5,0,0,0,0],"split_type":[0,0,0,0,0,0,0,0,0,0,0,0,0],"sum_hessian":[5.3364044E1,3.2139862E1,2.1224182E1,2.599167E1,6.148191E0,1.4083912E1,7.14027E0,1.4576191E1,1.1415479E1,6.9965105E0,7.087402E0,6.3904033E0,5.0250754E0],"tree_param":{"num_deleted":"0","num_feature":"15","num_nodes":"13","size_leaf_vector":"1"}},{"base_weights":[1.50957005E-2,-2.539323E-1,4.7164315E-1,-4.8854357E-1,2.0167973E-2,1.7922218E-1,7.3474616E-2,-6.462705E-1,-4.3647275E-3,2.5596146E-2,-3.3203894E-3,-6.425726E-2,-3.141619E-2],"categories":[],"categories_nodes":[],"categories_segments":[],"categories_sizes":[],"default_left":[0,0,0,0,0,0,0,0,0,0,0,0,0],"id":31,"left_children":[1,3,5,7,-1,9,-1,11,-1,-1,-1,-1,-1],"loss_changes":[6.6366897E0,4.306345E0,2.798964E0,1.5811744E0,0E0,5.1972044E-1,0E0,4.7170734E-1,0E0,0E0,0E0,0E0,0E0],"parents":[2147483647,0,0,1,1,2,2,3,3,5,5,7,7],"right_children":[2,4,6,8,-1,10,-1,12,-1,-1,-1,-1,-1],"split_conditions":[1E0,1E0,1E0,6.5E1,2.0167973E-2,6.4E1,7.3474616E-2,1E0,-4.3647275E-3,2.5596146E-2,-3.3203894E-3,-6.425726E-2,-3.141619E-2],"split_indices":[8,13,3,1,0,1,0,7,0,0,0,0,0],"split_type":[0,0,0,0,0,0,0,0,0,0,0,0,0],"sum_hessian":[5.205903E1,3.3035892E1,1.9023136E1,2.2848686E1,1.0187206E1,1.2932077E1,6.0910597E0,1.6353287E1,6.4953995E0,7.1908364E0,5.7412405E0,7.0548086E0,9.298477E0],"tree_param":{"num_deleted":"0","num_feature":"15","num_nodes":"13","size_leaf_vector":"1"}},{"base_weights":[1.4553588E-2,-2.6967183E-1,4.390264E-1,-5.414577E-1,3.6251143E-2,1.1727112E-1,7.525937E-2,-7.3477757E-1,8.428768E-4,-3.0630236E-2,4.732131E-2,-6.324912E-2,-3.4207612E-2],"categories":[],"categories_nodes":[],"categories_segments":[],"categories_sizes":[],"default_left":[0,0,0,0,0,0,0,0,0,0,0,0,0],"id":32,"left_children":[1,3,5,7,-1,9,-1,11,-1,-1,-1,-1,-1],"loss_changes":[6.4261084E0,6.797366E0,3.7594385E0,2.5658188E0,0E0,4.23514E0,0E0,1.5223789E-1,0E0,0E0,0E0,0E0,0E0],"parents":[2147483647,0,0,1,1,2,2,3,3,5,5,7,7],"right_children":[2,4,6,8,-1,10,-1,12,-1,-1,-1,-1,-1],"split_conditions":[1E0,6.4E1,1E0,1E0,3.6251143E-2,1E0,7.525937E-2,1E0,8.428768E-4,-3.0630236E-2,4.732131E-2,-6.324912E-2,-3.4207612E-2],"split_indices":[9,1,6,5,0,7,0,6,0,0,0,0,0],"split_type":[0,0,0,0,0,0,0,0,0,0,0,0,0],"sum_hessian":[5.1282856E1,3.0934153E1,2.0348705E1,2.2936638E1,7.997514E0,1.3729787E1,6.618918E0,1.6748848E1,6.1877904E0,6.88696E0,6.842827E0,1.0595677E1,6.1531706E0],"tree_param":{"num_deleted":"0","num_feature":"15","num_nodes":"13","size_leaf_vector":"1"}},{"base_weights":[1.4375494E-2,-2.0916554E-1,5.321504E-1,-4.698029E-1,2.536521E-1,5.6973654E-3,7.5143635E-2,-6.6520214E-1,1.0044632E-2,-2.1778293E-2,6.603044E-2,-6.0102154E-2,-3.1540506E-2],"categories":[],"categories_nodes":[],"categories_segments":[],"categories_sizes":[],"default_left":[0,0,0,0,0,0,0,0,0,0,0,0,0],"id":33,"left_children":[1,3,5,7,9,-1,-1,11,-1,-1,-1,-1,-1],"loss_changes":[6.047059E0,4.526534E0,3.2983613E0,2.8878384E0,4.9653234E0,0E0,0E0,2.65666E-1,0E0,0E0,0E0,0E0,0E0],"parents":[2147483647,0,0,1,1,2,2,3,3,4,4,7,7],"right_children":[2,4,6,8,10,-1,-1,12,-1,-1,-1,-1,-1],"split_conditions":[1E0,1E0,1E0,1E0,1E0,5.6973654E-3,7.5143635E-2,1E0,1.0044632E-2,-2.1778293E-2,6.603044E-2,-6.0102154E-2,-3.1540506E-2],"split_indices":[13,10,5,5,12,0,0,6,0,0,0,0,0],"split_type":[0,0,0,0,0,0,0,0,0,0,0,0,0],"sum_hessian":[5.028348E1,3.5536987E1,1.4746497E1,2.2724508E1,1.2812477E1,8.070751E0,6.675746E0,1.7091106E1,5.633401E0,7.1461954E0,5.666282E0,9.518477E0,7.57263E0],"tree_param":{"num_deleted":"0","num_feature":"15","num_nodes":"13","size_leaf_vector":"1"}},{"base_weights":[1.4633185E-2,-2.5128582E-1,4.158538E-1,-4.7131446E-1,4.5804746E-2,1.0277563E-1,7.32093E-2,-6.0313735E-2,-2.416762E-3,-2.773516E-2,4.3557413E-2],"categories":[],"categories_nodes":[],"categories_segments":[],"categories_sizes":[],"default_left":[0,0,0,0,0,0,0,0,0,0,0],"id":34,"left_children":[1,3,5,7,-1,9,-1,-1,-1,-1,-1],"loss_changes":[5.459799E0,6.1315556E0,3.475158E0,3.6440816E0,0E0,3.4210713E0,0E0,0E0,0E0,0E0,0E0],"parents":[2147483647,0,0,1,1,2,2,3,3,5,5],"right_children":[2,4,6,8,-1,10,-1,-1,-1,-1,-1],"split_conditions":[1E0,1E0,1E0,1E0,4.5804746E-2,1E0,7.32093E-2,-6.0313735E-2,-2.416762E-3,-2.773516E-2,4.3557413E-2],"split_indices":[9,11,6,3,0,7,0,0,0,0,0],"split_type":[0,0,0,0,0,0,0,0,0,0,0],"sum_hessian":[4.9193928E1,2.9810179E1,1.9383747E1,2.4109497E1,5.700683E0,1.3194255E1,6.1894913E0,1.3240551E1,1.0868946E1,6.7485027E0,6.4457526E0],"tree_param":{"num_deleted":"0","num_feature":"15","num_nodes":"11","size_leaf_vector":"1"}},{"base_weights":[1.5307539E-2,-2.3031494E-1,4.3527535E-1,-4.465809E-1,1.766786E-2,1.5599486E-1,7.130638E-2,-5.9628034E-1,-4.0679295E-3,2.4526948E-2,-5.4961303E-3,-5.5506006E-2,-1.9454617E-2],"categories":[],"categories_nodes":[],"categories_segments":[],"categories_sizes":[],"default_left":[0,0,0,0,0,0,0,0,0,0,0,0,0],"id":35,"left_children":[1,3,5,7,-1,9,-1,11,-1,-1,-1,-1,-1],"loss_changes":[5.171456E0,3.2964826E0,2.513289E0,1.2584577E0,0E0,5.410972E-1,0E0,5.738106E-1,0E0,0E0,0E0,0E0,0E0],"parents":[2147483647,0,0,1,1,2,2,3,3,5,5,7,7],"right_children":[2,4,6,8,-1,10,-1,12,-1,-1,-1,-1,-1],"split_conditions":[1E0,1E0,1E0,6.5E1,1.766786E-2,6.4E1,7.130638E-2,1E0,-4.0679295E-3,2.4526948E-2,-5.4961303E-3,-5.5506006E-2,-1.9454617E-2],"split_indices":[8,13,3,1,0,1,0,6,0,0,0,0,0],"split_type":[0,0,0,0,0,0,0,0,0,0,0,0,0],"sum_hessian":[4.8161724E1,3.0673563E1,1.748816E1,2.0977282E1,9.696282E0,1.2187632E1,5.300527E0,1.4807592E1,6.1696887E0,6.736292E0,5.45134E0,9.539024E0,5.2685676E0],"tree_param":{"num_deleted":"0","num_feature":"15","num_nodes":"13","size_leaf_vector":"1"}},{"base_weights":[1.5022706E-2,-2.3669398E-1,3.9637133E-1,-4.981368E-1,3.5712846E-2,1.00918904E-1,7.098768E-2,-6.81201E-1,4.9337116E-4,-2.6042229E-2,4.195466E-2,-5.997618E-2,-2.9722279E-2],"categories":[],"categories_nodes":[],"categories_segments":[],"categories_sizes":[],"default_left":[0,0,0,0,0,0,0,0,0,0,0,0,0],"id":36,"left_children":[1,3,5,7,-1,9,-1,11,-1,-1,-1,-1,-1],"loss_changes":[4.7504277E0,5.8000865E0,3.1003594E0,2.0674329E0,0E0,3.0525906E0,0E0,2.3648643E-1,0E0,0E0,0E0,0E0,0E0],"parents":[2147483647,0,0,1,1,2,2,3,3,5,5,7,7],"right_children":[2,4,6,8,-1,10,-1,12,-1,-1,-1,-1,-1],"split_conditions":[1E0,6.4E1,1E0,1E0,3.5712846E-2,1E0,7.098768E-2,1E0,4.9337116E-4,-2.6042229E-2,4.195466E-2,-5.997618E-2,-2.9722279E-2],"split_indices":[9,1,6,5,0,7,0,6,0,0,0,0,0],"split_type":[0,0,0,0,0,0,0,0,0,0,0,0,0],"sum_hessian":[4.7510475E1,2.8848066E1,1.866241E1,2.1327456E1,7.5206103E0,1.2911583E1,5.750828E0,1.5394186E1,5.9332695E0,6.6520376E0,6.2595453E0,9.596497E0,5.797689E0],"tree_param":{"num_deleted":"0","num_feature":"15","num_nodes":"13","size_leaf_vector":"1"}},{"base_weights":[1.4869031E-2,-1.884284E-1,4.866664E-1,-4.2527786E-1,2.2534609E-1,3.930092E-3,7.294929E-2,-6.137118E-1,8.62588E-3,-2.0088028E-2,6.2006053E-2,-5.6764647E-2,-2.9589117E-2],"categories":[],"categories_nodes":[],"categories_segments":[],"categories_sizes":[],"default_left":[0,0,0,0,0,0,0,0,0,0,0,0,0],"id":37,"left_children":[1,3,5,7,9,-1,-1,11,-1,-1,-1,-1,-1],"loss_changes":[4.662731E0,3.4305077E0,3.0367806E0,2.3089583E0,4.089275E0,0E0,0E0,2.1782732E-1,0E0,0E0,0E0,0E0,0E0],"parents":[2147483647,0,0,1,1,2,2,3,3,4,4,7,7],"right_children":[2,4,6,8,10,-1,-1,12,-1,-1,-1,-1,-1],"split_conditions":[1E0,1E0,1E0,1E0,1E0,3.930092E-3,7.294929E-2,6E1,8.62588E-3,-2.0088028E-2,6.2006053E-2,-5.6764647E-2,-2.9589117E-2],"split_indices":[13,10,5,5,7,0,0,1,0,0,0,0,0],"split_type":[0,0,0,0,0,0,0,0,0,0,0,0,0],"sum_hessian":[4.6656986E1,3.302649E1,1.3630495E1,2.0986034E1,1.2040458E1,7.7833633E0,5.8471317E0,1.54586935E1,5.52734E0,6.9201465E0,5.1203113E0,7.867529E0,7.5911646E0],"tree_param":{"num_deleted":"0","num_feature":"15","num_nodes":"13","size_leaf_vector":"1"}},{"base_weights":[1.51154455E-2,-2.1581097E-1,4.1239968E-1,-4.362559E-1,1.5786259E-2,1.517262E-3,5.759882E-1,-6.556155E-2,3.0659742E-3,6.6494696E-2,1.112984E-2],"categories":[],"categories_nodes":[],"categories_segments":[],"categories_sizes":[],"default_left":[0,0,0,0,0,0,0,0,0,0,0],"id":38,"left_children":[1,3,5,7,-1,-1,9,-1,-1,-1,-1],"loss_changes":[4.3774447E0,2.931505E0,1.1127367E0,4.2652817E0,0E0,0E0,1.5061464E0,0E0,0E0,0E0,0E0],"parents":[2147483647,0,0,1,1,2,2,3,3,6,6],"right_children":[2,4,6,8,-1,-1,10,-1,-1,-1,-1],"split_conditions":[1E0,1E0,1E0,1E0,1.5786259E-2,1.517262E-3,6.6E1,-6.556155E-2,3.0659742E-3,6.6494696E-2,1.112984E-2],"split_indices":[8,6,10,7,0,0,1,0,0,0,0],"split_type":[0,0,0,0,0,0,0,0,0,0,0],"sum_hessian":[4.574388E1,2.921758E1,1.6526299E1,1.9243193E1,9.974388E0,5.195303E0,1.13309965E1,9.600296E0,9.642897E0,5.94152E0,5.389476E0],"tree_param":{"num_deleted":"0","num_feature":"15","num_nodes":"11","size_leaf_vector":"1"}},{"base_weights":[1.4783095E-2,-1.8437894E-1,4.841832E-1,-4.1376173E-1,1.8435591E-1,5.7331487E-3,7.16804E-2,-5.7619745E-1,-8.276808E-3,2.49585E-2,-5.048081E-4,-5.7714578E-2,-2.386476E-2],"categories":[],"categories_nodes":[],"categories_segments":[],"categories_sizes":[],"default_left":[0,0,0,0,0,0,0,0,0,0,0,0,0],"id":39,"left_children":[1,3,5,7,9,-1,-1,11,-1,-1,-1,-1,-1],"loss_changes":[4.411733E0,2.883264E0,2.6282444E0,9.5991755E-1,3.828323E-1,0E0,0E0,4.1799355E-1,0E0,0E0,0E0,0E0,0E0],"parents":[2147483647,0,0,1,1,2,2,3,3,4,4,7,7],"right_children":[2,4,6,8,10,-1,-1,12,-1,-1,-1,-1,-1],"split_conditions":[1E0,1E0,1E0,1E0,6.4E1,5.7331487E-3,7.16804E-2,1E0,-8.276808E-3,2.49585E-2,-5.048081E-4,-5.7714578E-2,-2.386476E-2],"split_indices":[13,8,5,6,1,0,0,11,0,0,0,0,0],"split_type":[0,0,0,0,0,0,0,0,0,0,0,0,0],"sum_hessian":[4.523611E1,3.218677E1,1.304934E1,1.976761E1,1.2419159E1,7.621414E0,5.4279256E0,1.2289165E1,7.4784465E0,6.5725236E0,5.846635E0,5.891655E0,6.3975096E0],"tree_param":{"num_deleted":"0","num_feature":"15","num_nodes":"13","size_leaf_vector":"1"}},{"base_weights":[1.4214457E-2,-1.7441882E-1,4.638825E-1,-3.8428763E-1,1.9016822E-1,5.350996E-3,7.053715E-2,-5.7642186E-1,1.0454535E-2,3.02986E-2,-2.0378067E-3,-5.422056E-2,-2.696136E-2],"categories":[],"categories_nodes":[],"categories_segments":[],"categories_sizes":[],"default_left":[0,0,0,0,0,0,0,0,0,0,0,0,0],"id":40,"left_children":[1,3,5,7,9,-1,-1,11,-1,-1,-1,-1,-1],"loss_changes":[3.9503226E0,2.5876389E0,2.50618E0,2.2122557E0,5.999882E-1,0E0,0E0,2.3901176E-1,0E0,0E0,0E0,0E0,0E0],"parents":[2147483647,0,0,1,1,2,2,3,3,4,4,7,7],"right_children":[2,4,6,8,10,-1,-1,12,-1,-1,-1,-1,-1],"split_conditions":[1E0,1E0,1E0,1E0,6.4E1,5.350996E-3,7.053715E-2,6E1,1.0454535E-2,3.02986E-2,-2.0378067E-3,-5.422056E-2,-2.696136E-2],"split_indices":[13,10,5,5,1,0,0,1,0,0,0,0,0],"split_type":[0,0,0,0,0,0,0,0,0,0,0,0,0],"sum_hessian":[4.461784E1,3.1863422E1,1.27544155E1,2.0188307E1,1.1675117E1,7.624561E0,5.129854E0,1.4695824E1,5.492482E0,5.452404E0,6.2227125E0,7.3793373E0,7.316487E0],"tree_param":{"num_deleted":"0","num_feature":"15","num_nodes":"13","size_leaf_vector":"1"}},{"base_weights":[1.41558945E-2,-1.6466817E-1,4.4431847E-1,-3.854033E-1,1.8105303E-1,4.4298605E-3,6.714811E-2,-4.940163E-2,-1.7652166E-1,2.4380635E-2,-1.7709074E-4,-2.4850743E-2,2.1900176E-3],"categories":[],"categories_nodes":[],"categories_segments":[],"categories_sizes":[],"default_left":[0,0,0,0,0,0,0,0,0,0,0,0,0],"id":41,"left_children":[1,3,5,7,9,-1,-1,-1,11,-1,-1,-1,-1],"loss_changes":[3.5326247E0,2.5496764E0,2.2885625E0,1.0341437E0,3.532459E-1,0E0,0E0,0E0,4.169917E-1,0E0,0E0,0E0,0E0],"parents":[2147483647,0,0,1,1,2,2,3,3,4,4,8,8],"right_children":[2,4,6,8,10,-1,-1,-1,12,-1,-1,-1,-1],"split_conditions":[1E0,1E0,1E0,1E0,6.4E1,4.4298605E-3,6.714811E-2,-4.940163E-2,6.3E1,2.4380635E-2,-1.7709074E-4,-2.4850743E-2,2.1900176E-3],"split_indices":[13,8,9,7,1,0,0,0,1,0,0,0,0],"split_type":[0,0,0,0,0,0,0,0,0,0,0,0,0],"sum_hessian":[4.397277E1,3.1496479E1,1.2476292E1,1.9152964E1,1.2343514E1,7.3384542E0,5.137838E0,7.3644576E0,1.1788507E1,6.481612E0,5.861902E0,6.377962E0,5.410545E0],"tree_param":{"num_deleted":"0","num_feature":"15","num_nodes":"13","size_leaf_vector":"1"}},{"base_weights":[1.3841583E-2,-1.1244097E-1,4.3494556E-2,4.0286765E-2,-2.607934E-1,-4.8119298E-1,2.320194E-2,-6.0439743E-2,-1.7939359E-1,-5.129265E-2,1.9582327E-2],"categories":[],"categories_nodes":[],"categories_segments":[],"categories_sizes":[],"default_left":[0,0,0,0,0,0,0,0,0,0,0],"id":42,"left_children":[1,3,-1,-1,5,7,-1,-1,9,-1,-1],"loss_changes":[3.2429488E0,3.7232985E0,0E0,0E0,4.0371313E0,2.0804105E0,0E0,0E0,3.0796826E0,0E0,0E0],"parents":[2147483647,0,0,1,1,4,4,5,5,8,8],"right_children":[2,4,-1,-1,6,8,-1,-1,10,-1,-1],"split_conditions":[6.9E1,5.7E1,4.3494556E-2,4.0286765E-2,1E0,1E0,2.320194E-2,-6.0439743E-2,6.1E1,-5.129265E-2,1.9582327E-2],"split_indices":[1,1,0,0,13,7,0,0,1,0,0],"split_type":[0,0,0,0,0,0,0,0,0,0,0],"sum_hessian":[4.3452168E1,3.618204E1,7.270127E0,6.2395983E0,2.9942442E1,2.1707258E1,8.235183E0,9.65278E0,1.2054479E1,5.3613586E0,6.69312E0],"tree_param":{"num_deleted":"0","num_feature":"15","num_nodes":"11","size_leaf_vector":"1"}},{"base_weights":[1.3168219E-2,-1.904479E-1,3.6365798E-1,-4.028756E-1,1.5422001E-2,3.6598045E-2,1.2654913E-2,-6.263655E-2,4.9127075E-3],"categories":[],"categories_nodes":[],"categories_segments":[],"categories_sizes":[],"default_left":[0,0,0,0,0,0,0,0,0],"id":43,"left_children":[1,3,5,7,-1,-1,-1,-1,-1],"loss_changes":[3.207213E0,2.478136E0,3.175304E-1,3.874977E0,0E0,0E0,0E0,0E0,0E0],"parents":[2147483647,0,0,1,1,2,2,3,3],"right_children":[2,4,6,8,-1,-1,-1,-1,-1],"split_conditions":[1E0,1E0,6.4E1,1E0,1.5422001E-2,3.6598045E-2,1.2654913E-2,-6.263655E-2,4.9127075E-3],"split_indices":[8,6,1,7,0,0,0,0,0],"split_type":[0,0,0,0,0,0,0,0,0],"sum_hessian":[4.2970276E1,2.7468908E1,1.55013685E1,1.7868357E1,9.600553E0,8.5470295E0,6.9543386E0,8.885046E0,8.983311E0],"tree_param":{"num_deleted":"0","num_feature":"15","num_nodes":"9","size_leaf_vector":"1"}},{"base_weights":[1.231055E-2,-1.9940615E-1,3.4236535E-1,-4.460063E-1,3.245157E-2,5.205532E-2,-3.6620498E-3,-5.511152E-2,-9.457538E-3],"categories":[],"categories_nodes":[],"categories_segments":[],"categories_sizes":[],"default_left":[0,0,0,0,0,0,0,0,0],"id":44,"left_children":[1,3,5,7,-1,-1,-1,-1,-1],"loss_changes":[3.1129298E0,4.429026E0,2.4271755E0,1.759052E0,0E0,0E0,0E0,0E0,0E0],"parents":[2147483647,0,0,1,1,2,2,3,3],"right_children":[2,4,6,8,-1,-1,-1,-1,-1],"split_conditions":[1E0,6.4E1,6.4E1,1E0,3.245157E-2,5.205532E-2,-3.6620498E-3,-5.511152E-2,-9.457538E-3],"split_indices":[9,1,1,3,0,0,0,0,0],"split_type":[0,0,0,0,0,0,0,0,0],"sum_hessian":[4.2571014E1,2.617601E1,1.6395004E1,1.9041647E1,7.1343627E0,8.225523E0,8.16948E0,9.325505E0,9.716143E0],"tree_param":{"num_deleted":"0","num_feature":"15","num_nodes":"9","size_leaf_vector":"1"}},{"base_weights":[1.1816914E-2,-1.6282488E-1,3.9574602E-1,-4.6923152E-1,2.2035E-1,-1.1548377E-2,5.5084188E-2,-6.416541E-1,-9.56281E-3,-2.3233725E-2,6.492085E-2,-6.24018E-2,-2.605987E-2],"categories":[],"categories_nodes":[],"categories_segments":[],"categories_sizes":[],"default_left":[0,0,0,0,0,0,0,0,0,0,0,0,0],"id":45,"left_children":[1,3,5,7,9,-1,-1,11,-1,-1,-1,-1,-1],"loss_changes":[2.9566846E0,3.6675787E0,2.6785533E0,9.3093157E-1,5.1151347E0,0E0,0E0,3.3680773E-1,0E0,0E0,0E0,0E0,0E0],"parents":[2147483647,0,0,1,1,2,2,3,3,4,4,7,7],"right_children":[2,4,6,8,10,-1,-1,12,-1,-1,-1,-1,-1],"split_conditions":[1E0,1E0,1E0,1E0,1E0,-1.1548377E-2,5.5084188E-2,6E1,-9.56281E-3,-2.3233725E-2,6.492085E-2,-6.24018E-2,-2.605987E-2],"split_indices":[5,10,3,3,12,0,0,1,0,0,0,0,0],"split_type":[0,0,0,0,0,0,0,0,0,0,0,0,0],"sum_hessian":[4.213564E1,2.9357424E1,1.2778216E1,1.6188036E1,1.3169387E1,5.0795417E0,7.698674E0,1.0175959E1,6.0120773E0,7.5150733E0,5.654314E0,5.068158E0,5.1078005E0],"tree_param":{"num_deleted":"0","num_feature":"15","num_nodes":"13","size_leaf_vector":"1"}},{"base_weights":[1.0972696E-2,-2.0423536E-1,3.2013255E-1,-6.236378E-1,2.7146804E-1,-1.5470573E-1,8.1942126E-2,-7.257135E-2,-2.1554573E-2,-1.0800321E-2,4.6933044E-2,-3.2158017E-2,1.3127782E-2],"categories":[],"categories_nodes":[],"categories_segments":[],"categories_sizes":[],"default_left":[0,0,0,0,0,0,0,0,0,0,0,0,0],"id":46,"left_children":[1,3,5,7,9,11,-1,-1,-1,-1,-1,-1,-1],"loss_changes":[2.887433E0,5.2803755E0,6.696721E0,1.3316784E0,1.9596164E0,1.1502796E0,0E0,0E0,0E0,0E0,0E0,0E0,0E0],"parents":[2147483647,0,0,1,1,2,2,3,3,4,4,5,5],"right_children":[2,4,6,8,10,12,-1,-1,-1,-1,-1,-1,-1],"split_conditions":[1E0,1E0,1E0,1E0,1E0,1E0,8.1942126E-2,-7.257135E-2,-2.1554573E-2,-1.0800321E-2,4.6933044E-2,-3.2158017E-2,1.3127782E-2],"split_indices":[6,7,3,10,14,8,0,0,0,0,0,0,0],"split_type":[0,0,0,0,0,0,0,0,0,0,0,0,0],"sum_hessian":[4.1415367E1,2.4618006E1,1.679736E1,1.29179535E1,1.1700053E1,1.0897818E1,5.899542E0,5.457327E0,7.4606266E0,5.658382E0,6.041671E0,5.7873216E0,5.110496E0],"tree_param":{"num_deleted":"0","num_feature":"15","num_nodes":"13","size_leaf_vector":"1"}},{"base_weights":[1.054888E-2,-1.5216273E-1,3.0709153E-2,-3.4871083E-1,1.5044102E-1,-3.8475093E-2,-4.8035174E-3,2.216249E-2,-2.2764772E-3],"categories":[],"categories_nodes":[],"categories_segments":[],"categories_sizes":[],"default_left":[0,0,0,0,0,0,0,0,0],"id":47,"left_children":[1,3,-1,5,7,-1,-1,-1,-1],"loss_changes":[2.7624438E0,1.8532193E0,0E0,8.3965683E-1,3.39954E-1,0E0,0E0,0E0,0E0],"parents":[2147483647,0,0,1,1,3,3,4,4],"right_children":[2,4,-1,6,8,-1,-1,-1,-1],"split_conditions":[1E0,1E0,3.0709153E-2,1E0,6.4E1,-3.8475093E-2,-4.8035174E-3,2.216249E-2,-2.2764772E-3],"split_indices":[13,8,0,6,1,0,0,0,0],"split_type":[0,0,0,0,0,0,0,0,0],"sum_hessian":[4.060032E1,2.9276966E1,1.1323352E1,1.7656374E1,1.1620591E1,1.0686602E1,6.969773E0,6.0954747E0,5.525116E0],"tree_param":{"num_deleted":"0","num_feature":"15","num_nodes":"9","size_leaf_vector":"1"}},{"base_weights":[9.973019E-3,-2.023209E-1,2.979539E-1,-4.030274E-1,1.8192248E-2,-1.0615409E-2,5.2000146E-2,-4.5653142E-2,-9.757147E-3],"categories":[],"categories_nodes":[],"categories_segments":[],"categories_sizes":[],"default_left":[0,0,0,0,0,0,0,0,0],"id":48,"left_children":[1,3,5,7,-1,-1,-1,-1,-1],"loss_changes":[2.586495E0,2.27483E0,3.2153592E0,8.8510036E-1,0E0,0E0,0E0,0E0,0E0],"parents":[2147483647,0,0,1,1,2,2,3,3],"right_children":[2,4,6,8,-1,-1,-1,-1,-1],"split_conditions":[1E0,1E0,1E0,1E0,1.8192248E-2,-1.0615409E-2,5.2000146E-2,-4.5653142E-2,-9.757147E-3],"split_indices":[11,5,7,6,0,0,0,0,0],"split_type":[0,0,0,0,0,0,0,0,0],"sum_hessian":[4.0320797E1,2.3381706E1,1.6939089E1,1.6177446E1,7.2042603E0,8.3260975E0,8.612992E0,8.523725E0,7.653721E0],"tree_param":{"num_deleted":"0","num_feature":"15","num_nodes":"9","size_leaf_vector":"1"}},{"base_weights":[9.519123E-3,-1.474555E-1,2.9723944E-2,-2.602589E-1,2.5355991E-2,1.243743E-2,-3.9026466E-1,-5.3299904E-2,-6.29581E-3],"categories":[],"categories_nodes":[],"categories_segments":[],"categories_sizes":[],"default_left":[0,0,0,0,0,0,0,0,0],"id":49,"left_children":[1,3,-1,5,-1,-1,7,-1,-1],"loss_changes":[2.5326092E0,1.7154443E0,0E0,1.4317062E0,0E0,0E0,1.8253679E0,0E0,0E0],"parents":[2147483647,0,0,1,1,3,3,6,6],"right_children":[2,4,-1,6,-1,-1,8,-1,-1],"split_conditions":[1E0,6.9E1,2.9723944E-2,5.8E1,2.5355991E-2,1.243743E-2,1E0,-5.3299904E-2,-6.29581E-3],"split_indices":[13,1,0,1,0,0,7,0,0],"split_type":[0,0,0,0,0,0,0,0,0],"sum_hessian":[3.974867E1,2.8714344E1,1.1034326E1,2.3677399E1,5.0369453E0,5.4709353E0,1.8206463E1,8.25354E0,9.952923E0],"tree_param":{"num_deleted":"0","num_feature":"15","num_nodes":"9","size_leaf_vector":"1"}},{"base_weights":[8.998577E-3,-1.7617479E-1,3.2531756E-1,-3.765826E-1,1.4120481E-2,8.312841E-3,3.258002E-2,-5.8278266E-2,4.7427807E-3],"categories":[],"categories_nodes":[],"categories_segments":[],"categories_sizes":[],"default_left":[0,0,0,0,0,0,0,0,0],"id":50,"left_children":[1,3,5,7,-1,-1,-1,-1,-1],"loss_changes":[2.4296114E0,1.9841292E0,3.0995333E-1,3.084644E0,0E0,0E0,0E0,0E0,0E0],"parents":[2147483647,0,0,1,1,2,2,3,3],"right_children":[2,4,6,8,-1,-1,-1,-1,-1],"split_conditions":[1E0,1E0,1E0,1E0,1.4120481E-2,8.312841E-3,3.258002E-2,-5.8278266E-2,4.7427807E-3],"split_indices":[8,6,11,7,0,0,0,0,0],"split_type":[0,0,0,0,0,0,0,0,0],"sum_hessian":[3.9500984E1,2.519491E1,1.4306072E1,1.6234407E1,8.960504E0,5.502697E0,8.803375E0,8.09609E0,8.138317E0],"tree_param":{"num_deleted":"0","num_feature":"15","num_nodes":"9","size_leaf_vector":"1"}},{"base_weights":[8.301971E-3,-1.4578967E-1,2.9371304E-2,-3.0623734E-1,1.5824549E-2,-4.258965E-2,5.163435E-3],"categories":[],"categories_nodes":[],"categories_segments":[],"categories_sizes":[],"default_left":[0,0,0,0,0,0,0],"id":51,"left_children":[1,3,-1,5,-1,-1,-1],"loss_changes":[2.429171E0,1.7461064E0,0E0,2.06743E0,0E0,0E0,0E0],"parents":[2147483647,0,0,1,1,3,3],"right_children":[2,4,-1,6,-1,-1,-1],"split_conditions":[1E0,1E0,2.9371304E-2,1E0,1.5824549E-2,-4.258965E-2,5.163435E-3],"split_indices":[13,3,0,11,0,0,0],"split_type":[0,0,0,0,0,0,0],"sum_hessian":[3.915998E1,2.8373558E1,1.0786424E1,1.9669668E1,8.703891E0,1.1284582E1,8.385085E0],"tree_param":{"num_deleted":"0","num_feature":"15","num_nodes":"7","size_leaf_vector":"1"}},{"base_weights":[7.829128E-3,-1.9046524E-1,2.9220116E-1,-5.813311E-1,2.6513875E-1,-1.1259293E-2,7.822974E-2,-5.9460558E-2,-2.0088527E-2,-8.181657E-3,4.288449E-2],"categories":[],"categories_nodes":[],"categories_segments":[],"categories_sizes":[],"default_left":[0,0,0,0,0,0,0,0,0,0,0],"id":52,"left_children":[1,3,5,7,9,-1,-1,-1,-1,-1,-1],"loss_changes":[2.299491E0,4.4368696E0,5.7171383E0,6.6655636E-1,1.4155935E0,0E0,0E0,0E0,0E0,0E0,0E0],"parents":[2147483647,0,0,1,1,2,2,3,3,4,4],"right_children":[2,4,6,8,10,-1,-1,-1,-1,-1,-1],"split_conditions":[1E0,1E0,1E0,1E0,1E0,-1.1259293E-2,7.822974E-2,-5.9460558E-2,-2.0088527E-2,-8.181657E-3,4.288449E-2],"split_indices":[6,7,3,9,14,0,0,0,0,0,0],"split_type":[0,0,0,0,0,0,0,0,0,0,0],"sum_hessian":[3.8791836E1,2.3049501E1,1.5742334E1,1.2257635E1,1.0791866E1,1.0409985E1,5.3323503E0,6.4066734E0,5.850962E0,5.1505837E0,5.6412826E0],"tree_param":{"num_deleted":"0","num_feature":"15","num_nodes":"11","size_leaf_vector":"1"}},{"base_weights":[8.066192E-3,-1.4017284E-1,2.8368136E-2,-3.127136E-1,1.1073124E-2,-4.033009E-2,5.602678E-3],"categories":[],"categories_nodes":[],"categories_segments":[],"categories_sizes":[],"default_left":[0,0,0,0,0,0,0],"id":53,"left_children":[1,3,-1,5,-1,-1,-1],"loss_changes":[2.204205E0,1.4724903E0,0E0,1.6335557E0,0E0,0E0,0E0],"parents":[2147483647,0,0,1,1,3,3],"right_children":[2,4,-1,6,-1,-1,-1],"split_conditions":[1E0,1E0,2.8368136E-2,1E0,1.1073124E-2,-4.033009E-2,5.602678E-3],"split_indices":[13,10,0,3,0,0,0],"split_type":[0,0,0,0,0,0,0],"sum_hessian":[3.820194E1,2.772188E1,1.0480057E1,1.7277657E1,1.0444224E1,1.0684074E1,6.5935807E0],"tree_param":{"num_deleted":"0","num_feature":"15","num_nodes":"7","size_leaf_vector":"1"}},{"base_weights":[7.558682E-3,-1.860249E-1,2.8758466E-1,-5.647995E-1,2.6205927E-1,-9.529095E-3,7.574021E-2,-5.7816353E-2,-1.968435E-2,-6.8511185E-3,4.114399E-2],"categories":[],"categories_nodes":[],"categories_segments":[],"categories_sizes":[],"default_left":[0,0,0,0,0,0,0,0,0,0,0],"id":54,"left_children":[1,3,5,7,9,-1,-1,-1,-1,-1,-1],"loss_changes":[2.1618552E0,4.154044E0,5.0070086E0,6.1440134E-1,1.2141573E0,0E0,0E0,0E0,0E0,0E0,0E0],"parents":[2147483647,0,0,1,1,2,2,3,3,4,4],"right_children":[2,4,6,8,10,-1,-1,-1,-1,-1,-1],"split_conditions":[1E0,1E0,1E0,1E0,1E0,-9.529095E-3,7.574021E-2,-5.7816353E-2,-1.968435E-2,-6.8511185E-3,4.114399E-2],"split_indices":[6,7,3,9,14,0,0,0,0,0,0],"split_type":[0,0,0,0,0,0,0,0,0,0,0],"sum_hessian":[3.7893528E1,2.2603373E1,1.5290155E1,1.210787E1,1.0495502E1,1.0237339E1,5.0528164E0,6.278522E0,5.829348E0,5.004302E0,5.491201E0],"tree_param":{"num_deleted":"0","num_feature":"15","num_nodes":"11","size_leaf_vector":"1"}},{"base_weights":[7.827482E-3,-1.02090046E-1,3.6990378E-2,3.5135325E-2,-2.3189615E-1,-4.245276E-1,2.0580359E-2,-5.2588806E-2,-1.1630463E-2],"categories":[],"categories_nodes":[],"categories_segments":[],"categories_sizes":[],"default_left":[0,0,0,0,0,0,0,0,0],"id":55,"left_children":[1,3,-1,-1,5,7,-1,-1,-1],"loss_changes":[2.095799E0,2.4851859E0,0E0,0E0,2.7312694E0,1.3683009E0,0E0,0E0,0E0],"parents":[2147483647,0,0,1,1,4,4,5,5],"right_children":[2,4,-1,-1,6,8,-1,-1,-1],"split_conditions":[6.9E1,5.7E1,3.6990378E-2,3.5135325E-2,1E0,1E0,2.0580359E-2,-5.2588806E-2,-1.1630463E-2],"split_indices":[1,1,0,0,13,7,0,0,0],"split_type":[0,0,0,0,0,0,0,0,0],"sum_hessian":[3.733908E1,3.1088514E1,6.2505674E0,5.278394E0,2.581012E1,1.8813639E1,6.9964814E0,8.492217E0,1.0321422E1],"tree_param":{"num_deleted":"0","num_feature":"15","num_nodes":"9","size_leaf_vector":"1"}},{"base_weights":[7.991298E-3,-1.6601488E-1,3.023221E-1,-3.4914437E-1,1.259883E-2,3.300845E-2,7.2774165E-3,-5.3900808E-2,4.062603E-3],"categories":[],"categories_nodes":[],"categories_segments":[],"categories_sizes":[],"default_left":[0,0,0,0,0,0,0,0,0],"id":56,"left_children":[1,3,5,7,-1,-1,-1,-1,-1],"loss_changes":[1.9980061E0,1.5600713E0,3.6702788E-1,2.4502144E0,0E0,0E0,0E0,0E0,0E0],"parents":[2147483647,0,0,1,1,2,2,3,3],"right_children":[2,4,6,8,-1,-1,-1,-1,-1],"split_conditions":[1E0,1E0,6.4E1,1E0,1.259883E-2,3.300845E-2,7.2774165E-3,-5.3900808E-2,4.062603E-3],"split_indices":[8,6,1,7,0,0,0,0,0],"split_type":[0,0,0,0,0,0,0,0,0],"sum_hessian":[3.703186E1,2.3547005E1,1.3484857E1,1.5179077E1,8.367928E0,7.384513E0,6.100344E0,7.513204E0,7.6658735E0],"tree_param":{"num_deleted":"0","num_feature":"15","num_nodes":"9","size_leaf_vector":"1"}},{"base_weights":[7.413429E-3,-1.8389495E-1,2.7247274E-1,-3.6891815E-1,1.7516142E-2,-6.6039017E-3,4.557408E-2,-3.9139584E-2,-4.733349E-3],"categories":[],"categories_nodes":[],"categories_segments":[],"categories_sizes":[],"default_left":[0,0,0,0,0,0,0,0,0],"id":57,"left_children":[1,3,5,7,-1,-1,-1,-1,-1],"loss_changes":[1.9638652E0,1.8252946E0,2.0140078E0,7.1490574E-1,0E0,0E0,0E0,0E0,0E0],"parents":[2147483647,0,0,1,1,2,2,3,3],"right_children":[2,4,6,8,-1,-1,-1,-1,-1],"split_conditions":[1E0,1E0,1E0,1E0,1.7516142E-2,-6.6039017E-3,4.557408E-2,-3.9139584E-2,-4.733349E-3],"split_indices":[11,5,7,14,0,0,0,0,0],"split_type":[0,0,0,0,0,0,0,0,0],"sum_hessian":[3.6740715E1,2.1516933E1,1.5223782E1,1.4989425E1,6.5275087E0,7.689827E0,7.533955E0,9.521127E0,5.4682984E0],"tree_param":{"num_deleted":"0","num_feature":"15","num_nodes":"9","size_leaf_vector":"1"}},{"base_weights":[7.315688E-3,-1.3358638E-1,2.7159316E-2,-2.7335933E-1,1.4125188E-2,1.3897512E-3,-4.125184E-2],"categories":[],"categories_nodes":[],"categories_segments":[],"categories_sizes":[],"default_left":[0,0,0,0,0,0,0],"id":58,"left_children":[1,3,-1,5,-1,-1,-1],"loss_changes":[1.9114392E0,1.2845613E0,0E0,1.586201E0,0E0,0E0,0E0],"parents":[2147483647,0,0,1,1,3,3],"right_children":[2,4,-1,6,-1,-1,-1],"split_conditions":[1E0,1E0,2.7159316E-2,1E0,1.4125188E-2,1.3897512E-3,-4.125184E-2],"split_indices":[13,3,0,0,0,0,0],"split_type":[0,0,0,0,0,0,0],"sum_hessian":[3.6266315E1,2.6404156E1,9.862159E0,1.8515781E1,7.8883743E0,9.464012E0,9.051769E0],"tree_param":{"num_deleted":"0","num_feature":"15","num_nodes":"7","size_leaf_vector":"1"}},{"base_weights":[6.7714415E-3,-1.7911725E-1,2.752083E-1,-5.200318E-1,1.757139E-2,3.139353E-3,4.6718705E-2,-5.483723E-2,-1.6737076E-2],"categories":[],"categories_nodes":[],"categories_segments":[],"categories_sizes":[],"default_left":[0,0,0,0,0,0,0,0,0],"id":59,"left_children":[1,3,5,7,-1,-1,-1,-1,-1],"loss_changes":[1.8963642E0,3.2895558E0,1.2347581E0,6.283891E-1,0E0,0E0,0E0,0E0,0E0],"parents":[2147483647,0,0,1,1,2,2,3,3],"right_children":[2,4,6,8,-1,-1,-1,-1,-1],"split_conditions":[1E0,1E0,6.4E1,1E0,1.757139E-2,3.139353E-3,4.6718705E-2,-5.483723E-2,-1.6737076E-2],"split_indices":[6,7,1,9,0,0,0,0,0],"split_type":[0,0,0,0,0,0,0,0,0],"sum_hessian":[3.601589E1,2.1476477E1,1.4539414E1,1.1628796E1,9.84768E0,9.3708935E0,5.1685205E0,5.940838E0,5.6879582E0],"tree_param":{"num_deleted":"0","num_feature":"15","num_nodes":"9","size_leaf_vector":"1"}},{"base_weights":[6.108007E-3,-1.3149075E-1,2.6693782E-2,-3.048751E-1,1.2404281E-1,-3.4612276E-2,-3.7769002E-3,2.1655127E-2,-5.8777262E-3],"categories":[],"categories_nodes":[],"categories_segments":[],"categories_sizes":[],"default_left":[0,0,0,0,0,0,0,0,0],"id":60,"left_children":[1,3,-1,5,7,-1,-1,-1,-1],"loss_changes":[1.8159307E0,1.2388915E0,0E0,6.320925E-1,4.1163015E-1,0E0,0E0,0E0,0E0],"parents":[2147483647,0,0,1,1,3,3,4,4],"right_children":[2,4,-1,6,8,-1,-1,-1,-1],"split_conditions":[1E0,1E0,2.6693782E-2,1E0,6.4E1,-3.4612276E-2,-3.7769002E-3,2.1655127E-2,-5.8777262E-3],"split_indices":[13,8,0,6,1,0,0,0,0],"split_type":[0,0,0,0,0,0,0,0,0],"sum_hessian":[3.575483E1,2.61089E1,9.64593E0,1.5439688E1,1.0669213E1,9.054553E0,6.3851337E0,5.6475973E0,5.021616E0],"tree_param":{"num_deleted":"0","num_feature":"15","num_nodes":"9","size_leaf_vector":"1"}},{"base_weights":[5.769218E-3,-1.7769173E-1,2.60485E-1,-3.493545E-1,1.55734215E-2,-5.5784276E-3,4.341684E-2,-4.0795606E-2,-7.840133E-3],"categories":[],"categories_nodes":[],"categories_segments":[],"categories_sizes":[],"default_left":[0,0,0,0,0,0,0,0,0],"id":61,"left_children":[1,3,5,7,-1,-1,-1,-1,-1],"loss_changes":[1.7552165E0,1.5180705E0,1.7188559E0,6.8110096E-1,0E0,0E0,0E0,0E0,0E0],"parents":[2147483647,0,0,1,1,2,2,3,3],"right_children":[2,4,6,8,-1,-1,-1,-1,-1],"split_conditions":[1E0,1E0,1E0,1E0,1.55734215E-2,-5.5784276E-3,4.341684E-2,-4.0795606E-2,-7.840133E-3],"split_indices":[11,5,7,6,0,0,0,0,0],"split_type":[0,0,0,0,0,0,0,0,0],"sum_hessian":[3.557E1,2.085292E1,1.4717079E1,1.4490826E1,6.3620944E0,7.5467024E0,7.170377E0,7.39296E0,7.097865E0],"tree_param":{"num_deleted":"0","num_feature":"15","num_nodes":"9","size_leaf_vector":"1"}},{"base_weights":[5.5590905E-3,-9.5950365E-2,3.4012508E-2,-2.564496E-1,1.8809939E-2,-4.1468287E-1,5.418151E-3,-5.0684113E-2,4.6213674E-3],"categories":[],"categories_nodes":[],"categories_segments":[],"categories_sizes":[],"default_left":[0,0,0,0,0,0,0,0,0],"id":62,"left_children":[1,3,-1,5,-1,7,-1,-1,-1],"loss_changes":[1.687102E0,1.7502632E0,0E0,1.1327235E0,0E0,1.8400955E0,0E0,0E0,0E0],"parents":[2147483647,0,0,1,1,3,3,5,5],"right_children":[2,4,-1,6,-1,8,-1,-1,-1],"split_conditions":[6.9E1,1E0,3.4012508E-2,1E0,1.8809939E-2,1E0,5.418151E-3,-5.0684113E-2,4.6213674E-3],"split_indices":[1,5,0,6,0,7,0,0,0],"split_type":[0,0,0,0,0,0,0,0,0],"sum_hessian":[3.514646E1,2.929387E1,5.8525887E0,2.0202978E1,9.090893E0,1.3461128E1,6.74185E0,8.424206E0,5.036923E0],"tree_param":{"num_deleted":"0","num_feature":"15","num_nodes":"9","size_leaf_vector":"1"}},{"base_weights":[5.418782E-3,-1.3115454E-1,2.6927363E-2,-2.658603E-1,1.3973192E-2,1.4687361E-3,-4.041007E-2],"categories":[],"categories_nodes":[],"categories_segments":[],"categories_sizes":[],"default_left":[0,0,0,0,0,0,0],"id":63,"left_children":[1,3,-1,5,-1,-1,-1],"loss_changes":[1.7787199E0,1.1869915E0,0E0,1.4975646E0,0E0,0E0,0E0],"parents":[2147483647,0,0,1,1,3,3],"right_children":[2,4,-1,6,-1,-1,-1],"split_conditions":[1E0,1E0,2.6927363E-2,1E0,1.3973192E-2,1.4687361E-3,-4.041007E-2],"split_indices":[13,3,0,0,0,0,0],"split_type":[0,0,0,0,0,0,0],"sum_hessian":[3.4855984E1,2.5598398E1,9.257586E0,1.8086508E1,7.511892E0,9.294499E0,8.792007E0],"tree_param":{"num_deleted":"0","num_feature":"15","num_nodes":"7","size_leaf_vector":"1"}},{"base_weights":[5.0232015E-3,-1.6102919E-1,2.8207317E-1,-3.3180627E-1,1.0490832E-2,3.1841107E-2,5.43584E-3,-5.0246533E-2,3.4915511E-3],"categories":[],"categories_nodes":[],"categories_segments":[],"categories_sizes":[],"default_left":[0,0,0,0,0,0,0,0,0],"id":64,"left_children":[1,3,5,7,-1,-1,-1,-1,-1],"loss_changes":[1.6841911E0,1.2236638E0,3.7871695E-1,1.9389515E0,0E0,0E0,0E0,0E0,0E0],"parents":[2147483647,0,0,1,1,2,2,3,3],"right_children":[2,4,6,8,-1,-1,-1,-1,-1],"split_conditions":[1E0,1E0,6.4E1,1E0,1.0490832E-2,3.1841107E-2,5.43584E-3,-5.0246533E-2,3.4915511E-3],"split_indices":[8,6,1,7,0,0,0,0,0],"split_type":[0,0,0,0,0,0,0,0,0],"sum_hessian":[3.4621693E1,2.1909067E1,1.2712625E1,1.3911201E1,7.997867E0,6.957571E0,5.7550535E0,6.939007E0,6.9721937E0],"tree_param":{"num_deleted":"0","num_feature":"15","num_nodes":"9","size_leaf_vector":"1"}},{"base_weights":[4.6063606E-3,-1.2950076E-1,2.6590992E-2,-2.620476E-1,1.3930739E-2,-3.6947664E-2,4.197985E-3],"categories":[],"categories_nodes":[],"categories_segments":[],"categories_sizes":[],"default_left":[0,0,0,0,0,0,0],"id":65,"left_children":[1,3,-1,5,-1,-1,-1],"loss_changes":[1.705771E0,1.1477118E0,0E0,1.4158686E0,0E0,0E0,0E0],"parents":[2147483647,0,0,1,1,3,3],"right_children":[2,4,-1,6,-1,-1,-1],"split_conditions":[1E0,1E0,2.6590992E-2,1E0,1.3930739E-2,-3.6947664E-2,4.197985E-3],"split_indices":[13,3,0,11,0,0,0],"split_type":[0,0,0,0,0,0,0],"sum_hessian":[3.4369183E1,2.530248E1,9.066703E0,1.79317E1,7.37078E0,1.0076468E1,7.855232E0],"tree_param":{"num_deleted":"0","num_feature":"15","num_nodes":"7","size_leaf_vector":"1"}},{"base_weights":[4.424433E-3,-9.3605205E-2,3.2816608E-2,-2.4148655E-1,1.6911382E-2,-3.9668927E-1,5.9503205E-3,-5.2124457E-3,-5.034223E-2],"categories":[],"categories_nodes":[],"categories_segments":[],"categories_sizes":[],"default_left":[0,0,0,0,0,0,0,0,0],"id":66,"left_children":[1,3,-1,5,-1,7,-1,-1,-1],"loss_changes":[1.530842E0,1.4435195E0,0E0,1.0570964E0,0E0,1.2153132E0,0E0,0E0,0E0],"parents":[2147483647,0,0,1,1,3,3,5,5],"right_children":[2,4,-1,6,-1,8,-1,-1,-1],"split_conditions":[6.9E1,1E0,3.2816608E-2,1E0,1.6911382E-2,6.1E1,5.9503205E-3,-5.2124457E-3,-5.034223E-2],"split_indices":[1,5,0,6,0,1,0,0,0],"split_type":[0,0,0,0,0,0,0,0,0],"sum_hessian":[3.4089455E1,2.84372E1,5.6522555E0,1.9597845E1,8.8393545E0,1.3048837E1,6.5490084E0,6.5253024E0,6.523535E0],"tree_param":{"num_deleted":"0","num_feature":"15","num_nodes":"9","size_leaf_vector":"1"}},{"base_weights":[4.080454E-3,-1.2312068E-1,2.5299584E-2,-2.905576E-1,1.1887909E-1,-3.481342E-2,-3.1650607E-3,1.8554827E-2,-2.500092E-3],"categories":[],"categories_nodes":[],"categories_segments":[],"categories_sizes":[],"default_left":[0,0,0,0,0,0,0,0,0],"id":67,"left_children":[1,3,-1,5,7,-1,-1,-1,-1],"loss_changes":[1.5208397E0,1.0876433E0,0E0,6.553178E-1,2.3004556E-1,0E0,0E0,0E0,0E0],"parents":[2147483647,0,0,1,1,3,3,4,4],"right_children":[2,4,-1,6,8,-1,-1,-1,-1],"split_conditions":[1E0,1E0,2.5299584E-2,1E0,6.3E1,-3.481342E-2,-3.1650607E-3,1.8554827E-2,-2.500092E-3],"split_indices":[13,8,0,2,1,0,0,0,0],"split_type":[0,0,0,0,0,0,0,0,0],"sum_hessian":[3.3898026E1,2.4989882E1,8.908143E0,1.4651809E1,1.0338074E1,8.111923E0,6.539886E0,5.2662697E0,5.0718036E0],"tree_param":{"num_deleted":"0","num_feature":"15","num_nodes":"9","size_leaf_vector":"1"}},{"base_weights":[3.8629286E-3,-1.7139377E-1,2.488703E-1,-2.7951384E-2,6.9338474E-3,-3.7598035E-3,4.015192E-2],"categories":[],"categories_nodes":[],"categories_segments":[],"categories_sizes":[],"default_left":[0,0,0,0,0,0,0],"id":68,"left_children":[1,3,5,-1,-1,-1,-1],"loss_changes":[1.5345505E0,1.1416663E0,1.3029017E0,0E0,0E0,0E0,0E0],"parents":[2147483647,0,0,1,1,2,2],"right_children":[2,4,6,-1,-1,-1,-1],"split_conditions":[1E0,1E0,1E0,-2.7951384E-2,6.9338474E-3,-3.7598035E-3,4.015192E-2],"split_indices":[11,3,7,0,0,0,0],"split_type":[0,0,0,0,0,0,0],"sum_hessian":[3.3744392E1,1.984761E1,1.3896779E1,1.1024409E1,8.823202E0,7.2035894E0,6.6931896E0],"tree_param":{"num_deleted":"0","num_feature":"15","num_nodes":"7","size_leaf_vector":"1"}},{"base_weights":[4.103669E-3,-1.5122952E-1,2.618761E-1,-3.251627E-1,1.1629693E-2,2.9997833E-2,4.505951E-3,-4.915352E-2,3.867428E-3],"categories":[],"categories_nodes":[],"categories_segments":[],"categories_sizes":[],"default_left":[0,0,0,0,0,0,0,0,0],"id":69,"left_children":[1,3,5,7,-1,-1,-1,-1,-1],"loss_changes":[1.4181007E0,1.2286477E0,3.469168E-1,1.8287734E0,0E0,0E0,0E0,0E0,0E0],"parents":[2147483647,0,0,1,1,2,2,3,3],"right_children":[2,4,6,8,-1,-1,-1,-1,-1],"split_conditions":[1E0,1E0,6.4E1,1E0,1.1629693E-2,2.9997833E-2,4.505951E-3,-4.915352E-2,3.867428E-3],"split_indices":[8,6,1,7,0,0,0,0,0],"split_type":[0,0,0,0,0,0,0,0,0],"sum_hessian":[3.342748E1,2.111621E1,1.2311268E1,1.3428817E1,7.6873937E0,6.7262573E0,5.58501E0,6.7619953E0,6.6668215E0],"tree_param":{"num_deleted":"0","num_feature":"15","num_nodes":"9","size_leaf_vector":"1"}},{"base_weights":[3.7438131E-3,-1.20803095E-1,2.4737304E-2,-2.4893573E-1,1.3842755E-2,1.1582909E-3,-3.801957E-2],"categories":[],"categories_nodes":[],"categories_segments":[],"categories_sizes":[],"default_left":[0,0,0,0,0,0,0],"id":70,"left_children":[1,3,-1,5,-1,-1,-1],"loss_changes":[1.4286227E0,1.042789E0,0E0,1.2609384E0,0E0,0E0,0E0],"parents":[2147483647,0,0,1,1,3,3],"right_children":[2,4,-1,6,-1,-1,-1],"split_conditions":[1E0,1E0,2.4737304E-2,1E0,1.3842755E-2,1.1582909E-3,-3.801957E-2],"split_indices":[13,3,0,0,0,0,0],"split_type":[0,0,0,0,0,0,0],"sum_hessian":[3.3195316E1,2.4476286E1,8.719031E0,1.7371943E1,7.1043425E0,9.044078E0,8.327866E0],"tree_param":{"num_deleted":"0","num_feature":"15","num_nodes":"7","size_leaf_vector":"1"}},{"base_weights":[3.4659873E-3,-9.097825E-2,3.159708E-2,-2.8849205E-1,1.3090768E-1,1.8326104E-2,-4.8916727E-2,-1.7355924E-2,4.7562335E-2],"categories":[],"categories_nodes":[],"categories_segments":[],"categories_sizes":[],"default_left":[0,0,0,0,0,0,0,0,0],"id":71,"left_children":[1,3,-1,5,7,-1,-1,-1,-1],"loss_changes":[1.3797814E0,1.2889471E0,0E0,3.1471944E0,2.7237494E0,0E0,0E0,0E0,0E0],"parents":[2147483647,0,0,1,1,3,3,4,4],"right_children":[2,4,-1,6,8,-1,-1,-1,-1],"split_conditions":[6.9E1,1E0,3.159708E-2,6.1E1,1E0,1.8326104E-2,-4.8916727E-2,-1.7355924E-2,4.7562335E-2],"split_indices":[1,7,0,1,14,0,0,0,0],"split_type":[0,0,0,0,0,0,0,0,0],"sum_hessian":[3.2993977E1,2.7549139E1,5.4448357E0,1.4416224E1,1.3132916E1,5.981689E0,8.434534E0,7.9496975E0,5.1832185E0],"tree_param":{"num_deleted":"0","num_feature":"15","num_nodes":"9","size_leaf_vector":"1"}},{"base_weights":[4.185056E-3,-1.617928E-1,2.402615E-1,-4.533488E-1,1.5716553E-2,2.0273614E-3,3.8492482E-2,-5.0704107E-2,-1.1744335E-2],"categories":[],"categories_nodes":[],"categories_segments":[],"categories_sizes":[],"default_left":[0,0,0,0,0,0,0,0,0],"id":72,"left_children":[1,3,5,7,-1,-1,-1,-1,-1],"loss_changes":[1.3587089E0,2.3010468E0,8.189219E-1,6.6938424E-1,0E0,0E0,0E0,0E0,0E0],"parents":[2147483647,0,0,1,1,2,2,3,3],"right_children":[2,4,6,8,-1,-1,-1,-1,-1],"split_conditions":[1E0,1E0,6.3E1,1E0,1.5716553E-2,2.0273614E-3,3.8492482E-2,-5.0704107E-2,-1.1744335E-2],"split_indices":[6,7,1,9,0,0,0,0,0],"split_type":[0,0,0,0,0,0,0,0,0],"sum_hessian":[3.2683506E1,1.9375713E1,1.3307791E1,1.0730243E1,8.645472E0,8.088521E0,5.2192698E0,5.399771E0,5.330471E0],"tree_param":{"num_deleted":"0","num_feature":"15","num_nodes":"9","size_leaf_vector":"1"}},{"base_weights":[3.625988E-3,-1.1944188E-1,2.4518082E-2,-2.426438E-1,1.3172152E-2,1.2310423E-3,-3.710995E-2],"categories":[],"categories_nodes":[],"categories_segments":[],"categories_sizes":[],"default_left":[0,0,0,0,0,0,0],"id":73,"left_children":[1,3,-1,5,-1,-1,-1],"loss_changes":[1.3704017E0,9.5032465E-1,0E0,1.1861783E0,0E0,0E0,0E0],"parents":[2147483647,0,0,1,1,3,3],"right_children":[2,4,-1,6,-1,-1,-1],"split_conditions":[1E0,1E0,2.4518082E-2,1E0,1.3172152E-2,1.2310423E-3,-3.710995E-2],"split_indices":[13,3,0,0,0,0,0],"split_type":[0,0,0,0,0,0,0],"sum_hessian":[3.2463245E1,2.3969135E1,8.494109E0,1.7034382E1,6.9347534E0,8.8633375E0,8.171045E0],"tree_param":{"num_deleted":"0","num_feature":"15","num_nodes":"7","size_leaf_vector":"1"}},{"base_weights":[3.3623101E-3,-1.5959494E-1,2.3559582E-1,-4.40761E-1,1.506662E-2,2.6071412E-3,3.6891297E-2,-4.941834E-2,-1.14858765E-2],"categories":[],"categories_nodes":[],"categories_segments":[],"categories_sizes":[],"default_left":[0,0,0,0,0,0,0,0,0],"id":74,"left_children":[1,3,5,7,-1,-1,-1,-1,-1],"loss_changes":[1.2966807E0,2.130591E0,7.098222E-1,6.289232E-1,0E0,0E0,0E0,0E0,0E0],"parents":[2147483647,0,0,1,1,2,2,3,3],"right_children":[2,4,6,8,-1,-1,-1,-1,-1],"split_conditions":[1E0,1E0,6.3E1,1E0,1.506662E-2,2.6071412E-3,3.6891297E-2,-4.941834E-2,-1.14858765E-2],"split_indices":[6,7,1,9,0,0,0,0,0],"split_type":[0,0,0,0,0,0,0,0,0],"sum_hessian":[3.2270172E1,1.9147346E1,1.3122827E1,1.0632006E1,8.51534E0,7.9940896E0,5.128737E0,5.3120193E0,5.3199863E0],"tree_param":{"num_deleted":"0","num_feature":"15","num_nodes":"9","size_leaf_vector":"1"}},{"base_weights":[2.8557144E-3,-1.1771234E-1,2.4170535E-2,-2.7362752E-1,7.868545E-3,-3.380065E-2,-1.9294412E-3],"categories":[],"categories_nodes":[],"categories_segments":[],"categories_sizes":[],"default_left":[0,0,0,0,0,0,0],"id":75,"left_children":[1,3,-1,5,-1,-1,-1],"loss_changes":[1.3111162E0,8.872059E-1,0E0,6.389922E-1,0E0,0E0,0E0],"parents":[2147483647,0,0,1,1,3,3],"right_children":[2,4,-1,6,-1,-1,-1],"split_conditions":[1E0,1E0,2.4170535E-2,1E0,7.868545E-3,-3.380065E-2,-1.9294412E-3],"split_indices":[13,8,0,2,0,0,0],"split_type":[0,0,0,0,0,0,0],"sum_hessian":[3.2059658E1,2.3732883E1,8.326774E0,1.3822958E1,9.909926E0,7.586691E0,6.236267E0],"tree_param":{"num_deleted":"0","num_feature":"15","num_nodes":"7","size_leaf_vector":"1"}},{"base_weights":[2.5146795E-3,-1.5493795E-1,2.2496977E-1,-3.0141354E-1,1.2760992E-2,-2.285228E-3,3.5745256E-2,-3.6191784E-2,-6.106033E-3],"categories":[],"categories_nodes":[],"categories_segments":[],"categories_sizes":[],"default_left":[0,0,0,0,0,0,0,0,0],"id":76,"left_children":[1,3,5,7,-1,-1,-1,-1,-1],"loss_changes":[1.1882035E0,9.975891E-1,9.179313E-1,5.210687E-1,0E0,0E0,0E0,0E0,0E0],"parents":[2147483647,0,0,1,1,2,2,3,3],"right_children":[2,4,6,8,-1,-1,-1,-1,-1],"split_conditions":[1E0,1E0,1E0,1E0,1.2760992E-2,-2.285228E-3,3.5745256E-2,-3.6191784E-2,-6.106033E-3],"split_indices":[11,5,7,6,0,0,0,0,0],"split_type":[0,0,0,0,0,0,0,0,0],"sum_hessian":[3.1928183E1,1.8873278E1,1.3054905E1,1.3061073E1,5.8122034E0,6.914618E0,6.140287E0,6.508586E0,6.5524874E0],"tree_param":{"num_deleted":"0","num_feature":"15","num_nodes":"9","size_leaf_vector":"1"}},{"base_weights":[2.4749276E-3,-1.1449896E-1,2.3533788E-2,-2.3233105E-1,1.2677923E-2,6.9097965E-3,-4.2572767E-1,-4.1328467E-2,-1.7348416E-2],"categories":[],"categories_nodes":[],"categories_segments":[],"categories_sizes":[],"default_left":[0,0,0,0,0,0,0,0,0],"id":77,"left_children":[1,3,-1,5,-1,-1,7,-1,-1],"loss_changes":[1.2235377E0,8.557579E-1,0E0,1.1489576E0,0E0,0E0,1.4683461E-1,0E0,0E0],"parents":[2147483647,0,0,1,1,3,3,6,6],"right_children":[2,4,-1,6,-1,-1,8,-1,-1],"split_conditions":[1E0,1E0,2.3533788E-2,6.1E1,1.2677923E-2,6.9097965E-3,1E0,-4.1328467E-2,-1.7348416E-2],"split_indices":[13,3,0,1,0,0,12,0,0],"split_type":[0,0,0,0,0,0,0,0,0],"sum_hessian":[3.1613192E1,2.3438435E1,8.174757E0,1.6685081E1,6.7533517E0,6.42667E0,1.0258412E1,5.122268E0,5.136144E0],"tree_param":{"num_deleted":"0","num_feature":"15","num_nodes":"9","size_leaf_vector":"1"}},{"base_weights":[1.7768572E-3,-1.7161183E-1,2.0570794E-1,-4.5539686E-1,3.094132E-2,-5.847292E-3,3.2079555E-2,-5.5467952E-2,-1.2293727E-2],"categories":[],"categories_nodes":[],"categories_segments":[],"categories_sizes":[],"default_left":[0,0,0,0,0,0,0,0,0],"id":78,"left_children":[1,3,5,7,-1,-1,-1,-1,-1],"loss_changes":[1.1839379E0,3.1888056E0,1.002141E0,9.2732525E-1,0E0,0E0,0E0,0E0,0E0],"parents":[2147483647,0,0,1,1,2,2,3,3],"right_children":[2,4,6,8,-1,-1,-1,-1,-1],"split_conditions":[1E0,1E0,1E0,6E1,3.094132E-2,-5.847292E-3,3.2079555E-2,-5.5467952E-2,-1.2293727E-2],"split_indices":[10,4,8,1,0,0,0,0,0],"split_type":[0,0,0,0,0,0,0,0,0],"sum_hessian":[3.1484652E1,1.7102253E1,1.4382398E1,1.1658841E1,5.4434123E0,6.599338E0,7.78306E0,5.1249905E0,6.5338507E0],"tree_param":{"num_deleted":"0","num_feature":"15","num_nodes":"9","size_leaf_vector":"1"}},{"base_weights":[1.2597721E-3,-1.5865436E-1,2.3081622E-1,-4.2945555E-1,1.4675143E-2,3.4014713E-2,2.075341E-3,-4.801291E-2,-1.1409167E-2],"categories":[],"categories_nodes":[],"categories_segments":[],"categories_sizes":[],"default_left":[0,0,0,0,0,0,0,0,0],"id":79,"left_children":[1,3,5,7,-1,-1,-1,-1,-1],"loss_changes":[1.220299E0,1.9644648E0,6.048739E-1,5.700524E-1,0E0,0E0,0E0,0E0,0E0],"parents":[2147483647,0,0,1,1,2,2,3,3],"right_children":[2,4,6,8,-1,-1,-1,-1,-1],"split_conditions":[1E0,1E0,1E0,1E0,1.4675143E-2,3.4014713E-2,2.075341E-3,-4.801291E-2,-1.1409167E-2],"split_indices":[6,7,7,9,0,0,0,0,0],"split_type":[0,0,0,0,0,0,0,0,0],"sum_hessian":[3.1244644E1,1.859784E1,1.2646804E1,1.0421144E1,8.176696E0,5.444887E0,7.2019167E0,5.1783476E0,5.2427964E0],"tree_param":{"num_deleted":"0","num_feature":"15","num_nodes":"9","size_leaf_vector":"1"}},{"base_weights":[8.216567E-4,-1.10317856E-1,2.2395216E-2,-2.2253239E-1,1.2158807E-2,7.710269E-3,-4.1569826E-1,-4.0377412E-2,-1.6772391E-2],"categories":[],"categories_nodes":[],"categories_segments":[],"categories_sizes":[],"default_left":[0,0,0,0,0,0,0,0,0],"id":80,"left_children":[1,3,-1,5,-1,-1,7,-1,-1],"loss_changes":[1.0933868E0,7.717346E-1,0E0,1.1403067E0,0E0,0E0,1.4246118E-1,0E0,0E0],"parents":[2147483647,0,0,1,1,3,3,6,6],"right_children":[2,4,-1,6,-1,-1,8,-1,-1],"split_conditions":[1E0,1E0,2.2395216E-2,6.1E1,1.2158807E-2,7.710269E-3,1E0,-4.0377412E-2,-1.6772391E-2],"split_indices":[13,3,0,1,0,0,12,0,0],"split_type":[0,0,0,0,0,0,0,0,0],"sum_hessian":[3.1042215E1,2.3063766E1,7.978449E0,1.646507E1,6.5986953E0,6.3082747E0,1.0156796E1,5.0978994E0,5.0588965E0],"tree_param":{"num_deleted":"0","num_feature":"15","num_nodes":"9","size_leaf_vector":"1"}},{"base_weights":[2.5304625E-4,-1.4231758E-1,2.3706512E-1,-3.0898735E-1,1.1096701E-2,2.758042E-2,3.4808337E-3,-4.478466E-2,1.8947177E-3],"categories":[],"categories_nodes":[],"categories_segments":[],"categories_sizes":[],"default_left":[0,0,0,0,0,0,0,0,0],"id":81,"left_children":[1,3,5,7,-1,-1,-1,-1,-1],"loss_changes":[1.1114367E0,1.0398965E0,2.9112655E-1,1.3035252E0,0E0,0E0,0E0,0E0,0E0],"parents":[2147483647,0,0,1,1,2,2,3,3],"right_children":[2,4,6,8,-1,-1,-1,-1,-1],"split_conditions":[1E0,1E0,6.4E1,1E0,1.1096701E-2,2.758042E-2,3.4808337E-3,-4.478466E-2,1.8947177E-3],"split_indices":[8,6,1,7,0,0,0,0,0],"split_type":[0,0,0,0,0,0,0,0,0],"sum_hessian":[3.0920029E1,1.9549469E1,1.137056E1,1.237786E1,7.1716094E0,6.195411E0,5.175148E0,6.2250576E0,6.152803E0],"tree_param":{"num_deleted":"0","num_feature":"15","num_nodes":"9","size_leaf_vector":"1"}},{"base_weights":[1.2200887E-4,-1.6979529E-1,2.0054017E-1,-4.3883833E-1,2.9318312E-2,-7.0281317E-3,2.8925218E-2,-5.4300193E-2,-1.11626685E-2],"categories":[],"categories_nodes":[],"categories_segments":[],"categories_sizes":[],"default_left":[0,0,0,0,0,0,0,0,0],"id":82,"left_children":[1,3,5,7,-1,-1,-1,-1,-1],"loss_changes":[1.1145014E0,2.8434105E0,8.540965E-1,9.209931E-1,0E0,0E0,0E0,0E0,0E0],"parents":[2147483647,0,0,1,1,2,2,3,3],"right_children":[2,4,6,8,-1,-1,-1,-1,-1],"split_conditions":[1E0,1E0,1E0,6E1,2.9318312E-2,-7.0281317E-3,2.8925218E-2,-5.4300193E-2,-1.11626685E-2],"split_indices":[10,4,9,1,0,0,0,0,0],"split_type":[0,0,0,0,0,0,0,0,0],"sum_hessian":[3.072709E1,1.6711578E1,1.4015512E1,1.1439785E1,5.271794E0,5.6033115E0,8.412201E0,5.0134478E0,6.4263377E0],"tree_param":{"num_deleted":"0","num_feature":"15","num_nodes":"9","size_leaf_vector":"1"}},{"base_weights":[-4.0499456E-4,-1.5050185E-1,2.1390134E-1,-3.0202737E-2,1.34207355E-2,3.1723317E-2,1.7828626E-3],"categories":[],"categories_nodes":[],"categories_segments":[],"categories_sizes":[],"default_left":[0,0,0,0,0,0,0],"id":83,"left_children":[1,3,5,-1,-1,-1,-1],"loss_changes":[1.0452377E0,1.6597136E0,5.2202666E-1,0E0,0E0,0E0,0E0],"parents":[2147483647,0,0,1,1,2,2],"right_children":[2,4,6,-1,-1,-1,-1],"split_conditions":[1E0,1E0,1E0,-3.0202737E-2,1.34207355E-2,3.1723317E-2,1.7828626E-3],"split_indices":[6,7,7,0,0,0,0],"split_type":[0,0,0,0,0,0,0],"sum_hessian":[3.049359E1,1.8108442E1,1.2385148E1,1.0130689E1,7.9777536E0,5.315397E0,7.0697513E0],"tree_param":{"num_deleted":"0","num_feature":"15","num_nodes":"7","size_leaf_vector":"1"}},{"base_weights":[1.2497068E-4,-1.522019E-1,2.128686E-1,-3.4677576E-2,1.3279018E-2,-9.792486E-3,4.381665E-2],"categories":[],"categories_nodes":[],"categories_segments":[],"categories_sizes":[],"default_left":[0,0,0,0,0,0,0],"id":84,"left_children":[1,3,5,-1,-1,-1,-1],"loss_changes":[1.0478344E0,2.0061836E0,1.7968935E0,0E0,0E0,0E0,0E0],"parents":[2147483647,0,0,1,1,2,2],"right_children":[2,4,6,-1,-1,-1,-1],"split_conditions":[1E0,1E0,1E0,-3.4677576E-2,1.3279018E-2,-9.792486E-3,4.381665E-2],"split_indices":[3,10,12,0,0,0,0],"split_type":[0,0,0,0,0,0,0],"sum_hessian":[3.0334238E1,1.7843012E1,1.2491226E1,8.979679E0,8.863334E0,6.826419E0,5.664807E0],"tree_param":{"num_deleted":"0","num_feature":"15","num_nodes":"7","size_leaf_vector":"1"}},{"base_weights":[5.0427223E-4,-1.067248E-1,2.1806743E-2,-2.4812016E-1,6.909655E-3,-3.204277E-2,4.4574568E-4],"categories":[],"categories_nodes":[],"categories_segments":[],"categories_sizes":[],"default_left":[0,0,0,0,0,0,0],"id":85,"left_children":[1,3,-1,5,-1,-1,-1],"loss_changes":[9.980908E-1,6.8138504E-1,0E0,6.3776267E-1,0E0,0E0,0E0],"parents":[2147483647,0,0,1,1,3,3],"right_children":[2,4,-1,6,-1,-1,-1],"split_conditions":[1E0,1E0,2.1806743E-2,1E0,6.909655E-3,-3.204277E-2,4.4574568E-4],"split_indices":[13,8,0,2,0,0,0],"split_type":[0,0,0,0,0,0,0],"sum_hessian":[3.007171E1,2.2420952E1,7.6507587E0,1.2958804E1,9.462148E0,7.2006636E0,5.758141E0],"tree_param":{"num_deleted":"0","num_feature":"15","num_nodes":"7","size_leaf_vector":"1"}},{"base_weights":[3.5059033E-4,-1.4728786E-1,2.125597E-1,-2.9442158E-2,1.3198646E-2,2.9875433E-2,2.9093903E-3],"categories":[],"categories_nodes":[],"categories_segments":[],"categories_sizes":[],"default_left":[0,0,0,0,0,0,0],"id":86,"left_children":[1,3,5,-1,-1,-1,-1],"loss_changes":[1.0016247E0,1.5640672E0,4.079634E-1,0E0,0E0,0E0,0E0],"parents":[2147483647,0,0,1,1,2,2],"right_children":[2,4,6,-1,-1,-1,-1],"split_conditions":[1E0,1E0,1E0,-2.9442158E-2,1.3198646E-2,2.9875433E-2,2.9093903E-3],"split_indices":[6,7,7,0,0,0,0],"split_type":[0,0,0,0,0,0,0],"sum_hessian":[2.9970646E1,1.7854687E1,1.2115959E1,1.0030162E1,7.824525E0,5.2310033E0,6.884956E0],"tree_param":{"num_deleted":"0","num_feature":"15","num_nodes":"7","size_leaf_vector":"1"}},{"base_weights":[8.3059026E-4,-1.4614278E-1,2.0729348E-1,-2.3493817E-2,8.44826E-3,3.4861136E-2,-2.0310907E-3],"categories":[],"categories_nodes":[],"categories_segments":[],"categories_sizes":[],"default_left":[0,0,0,0,0,0,0],"id":87,"left_children":[1,3,5,-1,-1,-1,-1],"loss_changes":[9.654806E-1,8.392005E-1,8.110607E-1,0E0,0E0,0E0,0E0],"parents":[2147483647,0,0,1,1,2,2],"right_children":[2,4,6,-1,-1,-1,-1],"split_conditions":[1E0,1E0,6.4E1,-2.3493817E-2,8.44826E-3,3.4861136E-2,-2.0310907E-3],"split_indices":[11,14,1,0,0,0,0],"split_type":[0,0,0,0,0,0,0],"sum_hessian":[2.9818922E1,1.7589653E1,1.2229269E1,1.056012E1,7.0295324E0,5.3584275E0,6.870842E0],"tree_param":{"num_deleted":"0","num_feature":"15","num_nodes":"7","size_leaf_vector":"1"}},{"base_weights":[1.3426342E-3,-1.4456558E-1,2.1109132E-1,-2.8329397E-2,1.2344879E-2,2.8809398E-2,3.5274036E-3],"categories":[],"categories_nodes":[],"categories_segments":[],"categories_sizes":[],"default_left":[0,0,0,0,0,0,0],"id":88,"left_children":[1,3,5,-1,-1,-1,-1],"loss_changes":[9.690997E-1,1.4087362E0,3.5064232E-1,0E0,0E0,0E0,0E0],"parents":[2147483647,0,0,1,1,2,2],"right_children":[2,4,6,-1,-1,-1,-1],"split_conditions":[1E0,1E0,1E0,-2.8329397E-2,1.2344879E-2,2.8809398E-2,3.5274036E-3],"split_indices":[6,7,7,0,0,0,0],"split_type":[0,0,0,0,0,0,0],"sum_hessian":[2.9668587E1,1.7680326E1,1.198826E1,9.952652E0,7.7276745E0,5.18171E0,6.8065505E0],"tree_param":{"num_deleted":"0","num_feature":"15","num_nodes":"7","size_leaf_vector":"1"}},{"base_weights":[1.7531727E-3,-1.3169035E-1,2.2220072E-1,-2.8331354E-1,9.600413E-3,2.6361434E-2,2.8147893E-3,-4.0357977E-2,5.987598E-4],"categories":[],"categories_nodes":[],"categories_segments":[],"categories_sizes":[],"default_left":[0,0,0,0,0,0,0,0,0],"id":89,"left_children":[1,3,5,7,-1,-1,-1,-1,-1],"loss_changes":[9.2719924E-1,8.096923E-1,2.704926E-1,9.4783866E-1,0E0,0E0,0E0,0E0,0E0],"parents":[2147483647,0,0,1,1,2,2,3,3],"right_children":[2,4,6,8,-1,-1,-1,-1,-1],"split_conditions":[1E0,1E0,6.4E1,1E0,9.600413E-3,2.6361434E-2,2.8147893E-3,-4.0357977E-2,5.987598E-4],"split_indices":[8,6,1,7,0,0,0,0,0],"split_type":[0,0,0,0,0,0,0,0,0],"sum_hessian":[2.9524136E1,1.8642122E1,1.0882013E1,1.1712718E1,6.929404E0,5.869525E0,5.0124884E0,5.795879E0,5.916839E0],"tree_param":{"num_deleted":"0","num_feature":"15","num_nodes":"9","size_leaf_vector":"1"}},{"base_weights":[1.5262555E-3,-1.4939503E-1,2.1707602E-1,-3.3138514E-2,1.21420175E-2,-7.969923E-3,4.235994E-2],"categories":[],"categories_nodes":[],"categories_segments":[],"categories_sizes":[],"default_left":[0,0,0,0,0,0,0],"id":90,"left_children":[1,3,5,-1,-1,-1,-1],"loss_changes":[1.0200539E0,1.7510765E0,1.5115756E0,0E0,0E0,0E0,0E0],"parents":[2147483647,0,0,1,1,2,2],"right_children":[2,4,6,-1,-1,-1,-1],"split_conditions":[1E0,1E0,1E0,-3.3138514E-2,1.21420175E-2,-7.969923E-3,4.235994E-2],"split_indices":[3,10,12,0,0,0,0],"split_type":[0,0,0,0,0,0,0],"sum_hessian":[2.9359419E1,1.7449047E1,1.1910372E1,8.78048E0,8.668566E0,6.5313663E0,5.379006E0],"tree_param":{"num_deleted":"0","num_feature":"15","num_nodes":"7","size_leaf_vector":"1"}},{"base_weights":[1.8522765E-3,-1.05130136E-1,2.215856E-2,-2.0264181E-1,1.0721963E-2,8.434349E-3,-2.8989932E-2],"categories":[],"categories_nodes":[],"categories_segments":[],"categories_sizes":[],"default_left":[0,0,0,0,0,0,0],"id":91,"left_children":[1,3,-1,5,-1,-1,-1],"loss_changes":[9.7706985E-1,5.8083737E-1,0E0,1.016316E0,0E0,0E0,0E0],"parents":[2147483647,0,0,1,1,3,3],"right_children":[2,4,-1,6,-1,-1,-1],"split_conditions":[1E0,1E0,2.215856E-2,6.1E1,1.0721963E-2,8.434349E-3,-2.8989932E-2],"split_indices":[13,3,0,1,0,0,0],"split_type":[0,0,0,0,0,0,0],"sum_hessian":[2.911856E1,2.181234E1,7.3062224E0,1.57894745E1,6.022865E0,5.9619756E0,9.827498E0],"tree_param":{"num_deleted":"0","num_feature":"15","num_nodes":"7","size_leaf_vector":"1"}},{"base_weights":[2.10313E-3,-9.804443E-2,2.07577E-2,-2.3097287E-1,6.5568904E-3,-3.088321E-2,1.8737273E-3],"categories":[],"categories_nodes":[],"categories_segments":[],"categories_sizes":[],"default_left":[0,0,0,0,0,0,0],"id":92,"left_children":[1,3,-1,5,-1,-1,-1],"loss_changes":[8.529073E-1,5.807668E-1,0E0,6.3593143E-1,0E0,0E0,0E0],"parents":[2147483647,0,0,1,1,3,3],"right_children":[2,4,-1,6,-1,-1,-1],"split_conditions":[1E0,1E0,2.07577E-2,1E0,6.5568904E-3,-3.088321E-2,1.8737273E-3],"split_indices":[13,8,0,2,0,0,0],"split_type":[0,0,0,0,0,0,0],"sum_hessian":[2.9020252E1,2.1737473E1,7.282779E0,1.2519353E1,9.21812E0,6.980007E0,5.5393457E0],"tree_param":{"num_deleted":"0","num_feature":"15","num_nodes":"7","size_leaf_vector":"1"}}]},"name":"gbtree"},"learner_model_param":{"base_score":"5E-1","boost_from_average":"1","num_class":"0","num_feature":"15","num_target":"1"},"objective":{"name":"binary:logistic","reg_loss_param":{"scale_pos_weight":"1"}}},"version":[3,0,1]}