tree
version=v4
num_class=1
num_tree_per_iteration=1
label_index=0
max_feature_idx=30
objective=binary sigmoid:1
feature_names=Column_0 Column_1 Column_2 Column_3 Column_4 Column_5 Column_6 Column_7 Column_8 Column_9 Column_10 Column_11 Column_12 Column_13 Column_14 Column_15 Column_16 Column_17 Column_18 Column_19 Column_20 Column_21 Column_22 Column_23 Column_24 Column_25 Column_26 Column_27 Column_28 Column_29 Column_30
feature_infos=[0:1] [38:87] [0:1] [0:1] [0:1] [0:1] [0:1] [0:1] [0:1] [0:1] [0:1] [0:1] [0:1] [0:1] [0:1] [2.2276284387346923:6.1780659036068206] [0.83527052667534596:6.91465210067798] [0.64477049306171985:7.1618768678790046] [1.8843850137714033:7.14762987747394] [1.2368330863076002:6.5839225884378081] [1.9928918197834813:6.2966076679794574] [1.5497261250489436:6.8311392216690905] [1.1935586366494937:7.3050032719409908] [0.032074191111900602:7.6608650334716577] [0.591822798809026:7.0809415078672684] [1.7967485948137092:6.207175599709049] [1.3216662507849068:6.6494551902487249] [1.548528129160325:6.27664661323006] [2.5087394355379646:6.3944576187982332] [2.0267600654670952:6.7951709399588038] [0:14]
tree_sizes=1448 1901 2424 3046 3157 3258 3267 3281 3166 3262 3268 2848 3393 2970 3366

Tree=0
num_leaves=14
num_cat=0
split_feature=16 23 0 19 19 7 18 18 23 15 29 0 6
split_gain=199.972 36.6668 26.6831 9.30866 6.47203 16.1185 3.01699 2.57106 1.55781 1.10956 0.33214 1.42109e-14 1.42109e-14
threshold=4.4314831441834075 5.1098806585726555 1.0000000180025095e-35 4.8208368123050134 2.6136695907792631 1.0000000180025095e-35 5.3458306721107158 5.94145434139865 4.6844617102746406 5.0592292437361577 4.2836154916766302 1.0000000180025095e-35 1.0000000180025095e-35
decision_type=2 2 2 2 2 2 2 2 2 2 2 2 2
left_child=3 2 8 -1 5 -3 -5 10 -2 -8 -6 -12 -11
right_child=1 4 -4 6 7 -7 9 -9 -10 12 11 -13 -14
leaf_value=-0.025000000000000001 -0.20000000000000007 -0.12 0.19999999999999996 -0.080000000000000016 0.16363636363636344 0.19999999999999996 -0.13846153846153847 0.10000000000000001 -0.10588235294117646 -0.20000000000000001 0.20000000000000001 0.19999999999999996 -0.19999999999999993
leaf_weight=3.9999999999999991 2.9999999999999982 2.4999999999999991 3.25 2.4999999999999991 2.7500000000000027 4.25 3.2499999999999991 2.9999999999999991 4.25 21.25 18 11.000000000000002 8.5000000000000018
leaf_count=16 12 10 13 10 11 17 13 12 17 85 72 44 34
internal_value=0 0.128846 -0.0380952 -0.16962 0.171084 0.0814815 -0.185915 0.188489 -0.144828 -0.193939 0.19685 0.2 -0.2
internal_weight=91.5 52 10.5 39.5 41.5 6.75 35.5 34.75 7.25 33 31.75 29 29.75
internal_count=366 208 42 158 166 27 142 139 29 132 127 116 119
is_linear=0
shrinkage=0.1


Tree=1
num_leaves=17
num_cat=0
split_feature=16 23 20 20 20 23 20 21 28 29 17 15 18 28 21 15
split_gain=163.431 30.0051 23.2421 17.0199 6.64931 3.42589 1.46527 1.30467 1.24338 0.319575 0.018184 0.00662024 0.00228377 0.0021208 2.0815e-05 1.42109e-14
threshold=4.4314831441834075 5.1098806585726555 5.0262460147884811 6.1276517335202145 4.7319653285453613 5.8008031112306435 5.1045940979337816 6.1896834843524706 5.3448287418748981 4.2696304077567344 4.6405699452268827 5.0592292437361577 5.9052669386184133 3.9405090646572725 6.1202901796740052 4.6924347403479985
decision_type=2 2 2 2 2 2 2 2 2 2 2 2 2 2 2 2
left_child=4 2 -2 8 -1 6 10 -4 9 -3 11 -6 13 -11 15 -15
right_child=1 3 7 -5 5 -7 -8 -9 -10 12 -12 -13 -14 14 -16 -17
leaf_value=-0.026925795194757348 0.18867112274631775 0.14521357538544485 -0.16533614490090209 -0.056145805170062027 -0.18706967651372849 -0.069278230316975747 -0.10329255606995942 -0.075844459251867058 0.10661484851794215 0.18471381586558941 -0.19010242807103531 -0.18187308119005771 0.18533282504837739 0.18187308119005763 0.18217718156916671 0.18187308119005771
leaf_weight=3.7293456196784964 3.223067566752432 2.4843810200691214 4.7135191261768341 3.4813617765903464 2.7368615716695848 3.2397147864103308 2.478899121284484 2.4894380569458008 2.4863225519657126 2.972601771354678 3.4854287654161444 23.514074385166168 2.4826036095619193 15.346027493476873 2.475983038544654 9.4056297540664655
leaf_count=15 13 10 19 14 11 13 10 10 10 12 14 95 10 62 10 38
internal_value=2.35022e-06 0.116993 -0.0345314 0.155398 -0.153941 -0.167301 -0.177158 -0.134407 0.174957 0.179789 -0.183316 -0.182415 0.182417 0.182178 0.181901 0.181873
internal_weight=90.7453 51.5609 10.426 41.1349 39.1843 35.455 32.2153 7.20296 37.6535 35.1672 29.7364 26.2509 32.6828 30.2002 27.2276 24.7517
internal_count=366 208 42 166 158 143 130 29 152 142 120 106 132 122 110 100
is_linear=0
shrinkage=0.1


Tree=2
num_leaves=22
num_cat=0
split_feature=16 22 20 19 29 20 18 29 27 23 16 23 28 19 28 29 15 18 21 1 1
split_gain=135.445 39.5954 13.3149 7.34512 5.3963 3.31202 1.86723 0.351704 0.149089 0.0167554 0.00925577 0.0076728 0.00177275 0.00128347 0.000870891 0.000133132 1.1932e-05 2.39162e-06 2.29864e-08 7.10543e-15 7.10543e-15
threshold=4.4314831441834075 2.5840887326396684 6.1276517335202145 4.8208368123050134 3.8476980180717706 4.7319653285453613 5.94145434139865 4.1169321586443948 5.8294752866965593 5.1098806585726555 3.1015239844414162 3.6457517482610267 3.9405090646572725 5.0719224576140247 5.1866647772288532 4.4638148142684857 5.5236421324369713 5.6902995635618749 5.7550275734880882 58.500000000000007 67.500000000000014
decision_type=2 2 2 2 2 2 2 2 2 2 2 2 2 2 2 2 2 2 2 2 2
left_child=3 8 4 -1 -3 -5 9 -7 -2 -6 16 -12 -11 -13 15 -14 19 18 20 -9 -17
right_child=1 2 -4 5 6 7 -8 10 -10 12 11 13 14 -15 -16 17 -18 -19 -20 -21 -22
leaf_value=-0.012951937514968363 -0.17199164767520592 0.022257949232027653 -0.050591870770665105 -0.059886899709966079 0.17611104451591295 -0.13157943851750506 0.089719233680690569 -0.16825816740612257 -0.13787052233569133 0.17090832775274223 -0.16870161224011493 -0.1730277432635566 0.16902426895940115 -0.17594679443421471 0.17021411489433896 0.16825816740612259 -0.16804321439226169 0.16815997603074104 0.16824778844417931 -0.16825816740612271 0.16825816740612271
leaf_weight=3.9821663200855246 2.672456443309783 2.9336941242218009 3.4773610830306998 3.2223948538303366 3.4139147251844397 2.657410770654681 3.2003519833087912 6.9919820576906258 2.4586625248193741 3.3903003782033911 4.3446294367313367 3.9026395082473755 2.4155713617801728 2.4530570954084396 2.6645800322294226 13.742861285805711 3.1324470937252036 2.8924439698457709 2.410959154367446 7.7152905464172363 4.8220565915107718
leaf_count=16 11 12 14 13 14 11 13 29 10 14 18 16 10 10 11 57 13 12 10 32 20
internal_value=1.21071e-05 0.107656 0.137438 -0.14153 0.153048 -0.156406 0.162898 -0.166375 -0.155642 0.169448 -0.169615 -0.17194 0.168745 -0.174154 0.168491 0.168317 -0.16822 0.168245 0.168257 -0.168258 0.168258
internal_weight=88.8972 50.4952 45.3641 38.402 41.8867 34.4199 38.953 31.1975 5.13112 35.7527 28.54 10.7003 32.3388 6.3557 28.9485 26.2839 17.8397 23.8683 20.9759 14.7073 18.5649
internal_count=366 208 187 158 173 142 161 129 21 148 118 44 134 26 120 109 74 99 87 61 77
is_linear=0
shrinkage=0.1


Tree=3
num_leaves=28
num_cat=0
split_feature=16 22 19 30 19 22 28 15 19 21 27 17 28 25 1 23 21 1 21 27 28 23 28 29 11 15 21
split_gain=113.501 33.1669 6.39835 4.92075 4.66663 10.748 2.48678 2.26586 1.14207 0.195366 0.141721 0.0335134 0.0107318 0.0077127 0.00552628 0.013572 0.00543679 0.00122236 0.0012512 0.000655641 0.000345972 2.00495e-05 7.15614e-06 2.06535e-07 1.59442e-07 1.86663e-08 7.096e-09
threshold=4.4314831441834075 2.5840887326396684 4.8208368123050134 13.500000000000002 2.6136695907792631 5.9521733785082631 5.5440326419883155 4.9174014738612195 5.7990271640376934 4.2539945453114552 5.8294752866965593 5.0098835657201075 3.9405090646572725 4.902891923712601 64.500000000000014 5.728842582846557 5.2638318515645368 60.500000000000007 4.4001694461152292 3.473537571845188 5.1866647772288532 5.5484498609751984 4.3180176906453278 4.5639884720352377 1.0000000180025095e-35 5.4869324139874065 5.7294621598932602
decision_type=2 2 2 2 2 2 2 2 2 2 2 2 2 2 2 2 2 2 2 2 2 2 2 2 2 2 2
left_child=2 10 -1 4 5 -3 9 -4 11 -6 -2 17 13 -11 20 -16 -13 24 19 -19 21 -14 -17 -23 25 -9 -25
right_child=1 3 7 -5 6 -7 -8 8 -10 12 -12 16 14 -15 15 22 -18 18 -20 -21 -22 23 -24 26 -26 -27 -28
leaf_value=-0.011666885165882625 -0.1606432852177348 -0.10704566769644877 -0.060711326317707308 -0.010160013167806051 0.13236104191609113 0.15928320760945602 0.052684754502825476 -0.15768741416156901 -0.090706520817857725 0.16012544610363966 -0.12690558679149039 -0.17072655107604634 0.15735317583455824 0.16821169189632643 0.16531438642356791 0.15789749702029277 -0.16398950517640987 -0.16128374034309184 -0.15753413903839278 -0.15897187548801014 0.1589427045659671 0.1576529287019981 0.15767082060534901 0.1576874141615692 -0.15766183467879735 -0.15769733053681634 0.15768087033128941
leaf_weight=3.9788857400417319 2.5797822177410117 2.4533273279666892 2.8579809665679923 2.4430659711360923 2.8349657058715811 3.9629817754030228 2.4343891441822043 10.439976230263719 2.6186929792165747 2.3374774158000973 2.4066206812858582 2.4214770495891562 2.316313803195956 2.3810846954584122 4.0329407155513746 2.3221466094255447 2.3704816401004791 2.5871359109878531 2.7819863557815552 2.3328380584716797 2.3320766091346732 2.5515843778848639 3.4797224104404449 5.7999867945909482 2.5516904592514029 2.3201017677783957 2.3199241459369659
leaf_count=16 11 10 12 10 12 17 10 45 11 10 10 10 10 10 17 10 10 11 12 10 10 11 15 25 11 10 10
internal_value=1.9355e-05 0.100066 -0.131515 0.127765 0.135873 0.0574502 0.150192 -0.145843 -0.15384 0.157449 -0.14436 -0.159786 0.15983 0.164206 0.159009 0.160859 -0.167394 -0.158202 -0.159229 -0.160188 0.157821 0.15762 0.157762 0.157678 -0.157685 -0.157689 0.157686
internal_weight=86.2496 48.9884 37.2612 44.002 41.5589 6.41631 35.1426 33.2824 30.4244 32.7082 4.9864 27.8057 29.8733 4.71856 25.1547 9.83481 4.79196 23.0137 7.70196 4.91997 15.3199 12.9878 5.80187 10.6715 15.3118 12.7601 8.11991
internal_count=366 208 158 187 177 27 150 142 130 140 21 119 128 20 108 42 20 99 33 21 66 56 25 46 66 55 35
is_linear=0
shrinkage=0.1


Tree=4
num_leaves=29
num_cat=0
split_feature=16 15 27 18 7 16 27 15 18 15 29 2 25 24 29 17 21 27 25 15 17 17 28 1 27 21 28 15
split_gain=95.902 16.5356 12.5681 4.91922 4.56194 9.45759 7.59937 4.21499 1.90976 1.18947 1.92404 0.545389 0.176553 0.02652 0.0148133 0.014225 0.00147333 0.00114796 0.000767055 0.00100508 0.000143621 3.23945e-05 1.52334e-05 6.49131e-06 2.10078e-06 3.48806e-07 1.21168e-08 1.00566e-08
threshold=4.4314831441834075 5.2945081986453246 5.148980097587935 5.3458306721107158 1.0000000180025095e-35 5.700618421438981 5.1940318134549175 4.9343744099133593 5.94145434139865 5.2311452445742166 4.8162606859486479 1.0000000180025095e-35 5.786617651877255 6.4285606570836507 4.4638148142684857 5.0098835657201075 4.2812815901983443 5.5986231335349865 5.1755584438577378 5.3311321489720713 4.3088060984892449 6.0292263175553833 4.9390794437356282 69.500000000000014 4.1483047671053663 4.6380923523066917 4.3359707643736378 5.4869324139874065
decision_type=2 2 2 2 2 2 2 2 2 2 2 2 2 2 2 2 2 2 2 2 2 2 2 2 2 2 2 2
left_child=3 4 -3 -1 5 6 -2 -5 14 10 -9 -4 15 -7 -6 18 -16 21 19 20 -11 22 24 27 -18 -26 -27 -20
right_child=1 2 11 7 8 13 -8 9 -10 12 -12 -13 -14 -15 16 -17 17 -19 23 -21 -22 -23 -24 -25 25 26 -28 -29
leaf_value=0.0022739522055995141 0.10299300370170138 0.15548084097362283 -0.15526184894070577 -0.011843103071361619 0.15830097083638783 0.16264212833471173 -0.12876392118029914 -0.15154976675737719 0.064507088285766609 -0.15026240498036325 -0.032882217312945564 -0.09057637648065614 -0.17812356371774338 0.14907537491374243 0.15207436540516373 -0.15663650226750869 0.14916631020741689 0.15127194761806328 -0.14927178044610045 -0.15222200116009213 -0.14927681242756127 0.14954742573958213 0.14895119033874613 -0.14907968465671986 0.14922451521331093 0.14926613885220238 0.14927583090475915 -0.14927975966634718
leaf_weight=2.8792335242032996 2.5665154755115491 2.257585033774375 2.9268619567155838 2.6015824526548377 2.3017087429761949 2.3384405821561813 3.1530530601739883 3.3446738123893764 2.8692681491374961 3.3387365788221448 2.309935986995697 2.3499875515699387 2.6835428923368445 3.7538142800331116 2.6963049918413189 3.6801488399505606 3.7564067393541389 3.3505697697401038 5.5281884968280774 2.4732420742511749 2.6536226272583008 2.8796041011810294 2.4269687533378592 2.2083240151405334 2.2105532884597778 2.2111892849206924 3.0958720147609711 2.2113971710205078
leaf_count=12 11 10 13 11 10 10 13 15 12 15 10 10 11 17 12 16 17 15 25 11 12 13 11 10 10 10 14 10
internal_value=2.98397e-05 0.0938145 -0.0419769 -0.123087 0.119644 0.0675818 -0.0247687 -0.134014 0.141766 -0.144458 -0.103073 -0.126455 -0.153903 0.154283 0.150658 -0.150961 0.14988 0.149584 -0.149826 -0.150526 -0.149826 0.149243 0.149178 -0.149231 0.149227 0.149258 0.149272 -0.149274
internal_weight=83.0573 47.1447 7.53443 35.9126 39.6103 11.8118 5.71957 33.0334 27.7984 30.4318 5.65461 5.27685 24.7772 6.09225 24.9292 22.0937 22.6275 19.9312 18.4135 8.4656 5.99236 16.5806 13.701 9.94791 11.274 7.51761 5.30706 7.73959
internal_count=366 208 33 158 175 51 24 146 124 135 25 23 110 27 112 99 102 90 83 38 27 75 62 45 51 34 24 35
is_linear=0
shrinkage=0.1


Tree=5
num_leaves=30
num_cat=0
split_feature=16 22 18 30 15 15 15 15 18 18 1 27 25 4 27 23 17 23 27 25 21 1 1 27 22 16 1 15 15
split_gain=81.5042 24.0519 4.35938 3.87158 3.78958 3.003 8.65276 1.10422 1.99365 1.04265 0.280158 0.138988 0.109011 0.0263734 0.0674414 0.0120897 0.00901779 0.00653221 0.00162311 0.000490579 0.000686433 0.000251813 0.00021069 3.50916e-05 1.34724e-05 1.88045e-05 4.1172e-06 6.38761e-09 1.77636e-15
threshold=4.4314831441834075 2.5840887326396684 5.3458306721107158 13.500000000000002 4.9343744099133593 4.2499992682284358 4.1951927859462144 5.2311452445742166 6.0835003710945568 5.8072289646676474 68.500000000000014 5.8294752866965593 5.786617651877255 1.0000000180025095e-35 4.7144832422952447 6.2717974095965596 5.0098835657201075 5.1098806585726555 4.1483047671053663 5.1755584438577378 4.4001694461152292 58.500000000000007 70.500000000000014 5.6872288430115594 5.0282422027056048 5.594456520971657 69.500000000000014 5.4869324139874065 5.4372211369299119
decision_type=2 2 2 2 2 2 2 2 2 2 2 2 2 2 2 2 2 2 2 2 2 2 2 2 2 2 2 2 2
left_child=2 11 -1 5 -4 6 10 8 -6 13 15 -2 16 14 18 -3 19 -15 -7 20 -9 -22 23 24 -19 -26 27 28 -21
right_child=1 3 4 -5 7 9 -8 12 -10 -11 -12 -13 -14 17 -16 -17 -18 22 -20 26 21 -23 -24 -25 25 -27 -28 -29 -30
leaf_value=0.0020457026579821973 -0.14494566321795871 0.15175171011435551 -0.010687731967893389 -0.010198972564986459 -0.019283509405570394 0.14234908107797328 -0.054104364036073029 -0.14500622870152999 -0.14371237106247331 0.074788255604361115 0.1073503314857035 -0.11021981067784177 -0.16552605760620834 0.14849361135467043 0.16395234009569659 0.14245171573498677 -0.14845569234404687 0.14222975537036905 0.14597076208031859 -0.14243950394247978 -0.14378563461158719 -0.14242235380894869 0.143491417978132 0.14282271739766814 0.14233882698083133 0.14270901518792548 -0.14228219807500997 -0.14244604230451716 -0.14243950394247967
leaf_weight=2.8803717046976081 2.3424125909805289 2.8761456906795484 2.59490738809109 2.3931980878114691 2.0800680220127132 2.9259120821952882 3.4551635086536399 2.1354968547821134 3.3802023977041245 2.2738208025693885 2.5705701559782028 2.2690844237804413 2.6029967963695517 2.1770326346159008 2.4991855025291443 2.7195241451263428 3.5036906450986853 3.9661800116300565 2.1443623900413513 3.1376224011182767 2.1167375147342682 3.7645307779312134 2.3175639510154715 2.098743110895156 3.9704848080873489 2.0968787670135498 2.0885947942733765 2.0918785035610199 2.0917482674121857
leaf_count=12 11 13 11 10 9 14 15 10 16 10 12 10 11 10 11 13 16 19 10 15 10 18 11 10 19 10 10 10 10
internal_value=4.16997e-05 0.0885271 -0.115726 0.113175 -0.126464 0.120926 0.078551 -0.136826 -0.0963117 0.139531 0.134678 -0.127859 -0.146227 0.145615 0.150508 0.147232 -0.143826 0.143387 0.143881 -0.142896 -0.143471 -0.142913 0.142618 0.142451 0.142373 0.142467 -0.142406 -0.142441 -0.14244
internal_weight=79.5651 45.0963 34.4688 40.4848 31.5885 38.0916 11.6214 28.9936 5.46027 26.4702 8.16624 4.6115 23.5333 24.1963 7.56946 5.59567 20.9303 16.6269 5.07027 17.4266 8.01677 5.88127 14.4499 12.1323 10.0335 6.06736 9.40984 7.32125 5.22937
internal_count=366 208 158 187 146 177 53 135 25 124 38 21 110 114 35 26 99 79 24 83 38 28 69 58 48 29 45 35 25
is_linear=0
shrinkage=0.1


Tree=6
num_leaves=30
num_cat=0
split_feature=16 22 20 20 19 30 18 20 2 30 15 21 15 25 19 15 21 28 24 27 16 17 15 28 27 25 21 18 21
split_gain=69.5859 20.5365 11.3895 8.5993 4.41961 4.39116 1.67239 1.09209 0.148836 0.0777349 0.0494264 0.00709365 0.00179729 0.00270201 0.0022806 0.001917 0.000901406 0.000813643 0.000390535 0.000216917 0.00014504 3.95485e-05 2.52687e-05 1.63097e-05 3.17158e-06 1.98592e-06 2.5671e-06 1.10139e-06 3.93419e-08
threshold=4.4314831441834075 2.5840887326396684 4.6409554173751681 6.1276517335202145 4.6677583264876814 13.500000000000002 5.94145434139865 5.1045940979337816 1.0000000180025095e-35 10.500000000000002 5.1103131095179917 5.0664644639715828 4.2499992682284358 5.4468648934616093 4.8797736539872085 4.0537726681066113 4.3686311749755609 3.9405090646572725 0.73948952593483874 5.7035427394467115 0.9032349874372485 3.7440958943151439 5.1447086017814483 4.2509053703592725 4.9023418039874951 5.0610449299713842 4.4652643749154954 5.5053273641037803 4.4001694461152292
decision_type=2 2 2 2 2 2 2 2 2 2 2 2 2 2 2 2 2 2 2 2 2 2 2 2 2 2 2 2 2
left_child=2 8 -1 5 -4 6 12 9 -2 10 -6 18 14 16 15 -3 -14 -18 -12 22 -20 -22 23 -19 27 -23 28 -25 -27
right_child=1 3 4 -5 7 -7 -8 -9 -10 -11 11 -13 13 -15 -16 -17 17 19 20 -21 21 25 -24 24 -26 26 -28 -29 -30
leaf_value=0.12363221923946169 -0.13788453100865811 0.13710046915411717 0.013714723957101955 -0.046423566007948891 -0.15171402391248853 -0.0091746378498103204 0.059942176915216222 -0.076640643317692714 -0.10094773423326264 -0.15956554805021747 -0.13843484309172441 -0.14278869639123329 0.13935573060264136 0.14065319810161855 0.14238757691194079 0.14094016653010669 0.13868505935431458 0.13696237120336263 -0.13758771912800546 0.13779417790452952 -0.13720578983425902 -0.13666909030907778 0.13633958408596245 0.13677526476099686 0.13659276577623156 -0.13679234468388055 -0.13667650369125436 0.1366772357905473 -0.13680871373398845
leaf_weight=1.9719659537076939 2.3886417746543875 3.5521718859672573 2.1603552699089077 3.3345962315797797 2.9086743444204428 2.3942942023277274 3.0022150576114646 2.9223799258470526 2.0079599618911743 2.101932004094123 2.0040321052074495 2.5067214965820304 2.0203811973333421 2.8525358438491812 2.0738968402147293 2.0510205328464508 2.7997472435236004 2.3643846064805976 2.971424192190173 1.9878601133823384 2.1726669371128073 2.9447661638259879 1.954843834042548 1.9658036381006221 3.5302173048257828 3.1459644138813001 2.3560196310281754 2.7486908584833145 2.7532851099967957
leaf_count=8 12 18 9 14 13 10 13 14 9 9 10 12 10 14 10 10 14 12 15 10 11 15 10 10 18 16 12 14 14
internal_value=4.71032e-05 0.0837706 -0.109386 0.107076 -0.124234 0.121577 0.131092 -0.134586 -0.121015 -0.141133 -0.139502 -0.137799 0.138235 0.13778 0.139555 0.138506 0.137357 0.137124 -0.137117 0.136824 -0.136956 -0.136815 0.13667 0.136731 0.136664 -0.13674 -0.136765 0.136718 -0.1368
internal_weight=75.9494 43.0293 32.9202 38.6327 30.9482 35.2981 32.9038 28.7879 4.3966 25.8655 23.7636 20.8549 29.9016 22.2245 7.67709 5.60319 19.3719 17.3515 18.3482 14.5518 16.3441 13.3727 12.5639 10.6091 8.24471 11.2 8.25527 4.71449 5.89925
internal_count=366 208 158 187 150 173 163 141 21 127 118 105 150 112 38 28 98 88 93 74 83 68 64 54 42 57 42 24 30
is_linear=0
shrinkage=0.1


Tree=7
num_leaves=30
num_cat=0
split_feature=16 22 15 20 29 18 18 22 29 2 15 25 23 21 28 21 18 28 24 16 22 14 28 15 12 21 15 18 2
split_gain=59.7685 17.6337 9.23374 7.55655 3.23088 2.53596 1.63666 0.925542 0.405079 0.155654 0.0378205 0.0411106 0.00259131 0.00176931 0.00154688 0.000829793 0.00128357 0.000408059 0.000268871 0.000116362 3.35052e-05 9.46167e-06 1.50882e-05 4.94841e-06 2.25499e-06 1.55391e-06 1.78988e-06 1.01937e-06 2.61412e-08
threshold=4.4314831441834075 2.5840887326396684 4.9117389553381932 6.1276517335202145 3.8476980180717706 5.3737382507188451 5.94145434139865 6.134785584519423 5.1256500189094174 1.0000000180025095e-35 5.1376014284266081 5.4425204930149027 5.1098806585726555 5.0664644639715828 5.1493726542670091 4.4652643749154954 5.5229748780538772 3.9405090646572725 0.73948952593483874 0.9032349874372485 6.250458943812693 1.0000000180025095e-35 4.6834533020569884 4.3198880451341948 1.0000000180025095e-35 4.4652643749154954 5.2417867311675739 5.1620120253775914 1.0000000180025095e-35
decision_type=2 2 2 2 2 2 2 2 2 2 2 2 2 2 2 2 2 2 2 2 2 2 2 2 2 2 2 2 2
left_child=2 9 -1 4 -3 -4 12 8 10 -2 -7 13 -6 18 15 16 -14 -17 -12 -20 21 22 -19 -23 -25 26 -21 -26 -28
right_child=1 3 5 -5 6 7 -8 -9 -10 -11 11 -13 14 -15 -16 17 -18 20 19 25 -22 23 -24 24 27 -27 28 -29 -30
leaf_value=0.12427423727773318 -0.13300865297465705 0.013494352999791258 -0.027728254740531019 -0.04193422640125341 0.13614433317827276 -0.14725563133283107 0.054881929706709187 -0.064457062820009903 -0.088403205087920697 -0.094291771181500394 -0.13346881281765829 -0.14685990745903238 0.13217729831008432 -0.13521892432619917 0.13524799324073258 0.13347787501777858 0.13562125885578713 0.13238656249886829 -0.1327650899937993 -0.1319899055868218 0.13248657029483196 0.13186214892318657 0.13200881926943792 0.13213569399403399 0.13196324630754611 -0.13197574026773981 -0.13210288548060997 0.13205251783511154 -0.13208848911751289
leaf_weight=1.6772479712963129 2.2364154607057563 2.805413305759429 2.8781669139862087 3.323039934039115 2.7010922729969087 2.588536739349375 2.9537348598241797 2.2045614570379248 1.9524011909961689 1.9383968114852903 1.877258688211447 2.3410519659519187 2.2099750488996568 2.5029739737510672 2.4895925372838965 2.6147999465465572 2.1206102073192596 2.0324448049068424 2.7812085747718802 2.387123227119444 2.2205353528261176 1.8323993682861326 2.2041487842798233 2.0244724154472351 2.3860739767551422 2.9373178631067276 2.2074998617172241 2.7571382969617844 2.942654550075531
leaf_count=7 12 12 13 14 14 12 13 10 10 9 10 11 12 13 13 14 11 11 15 13 12 10 12 11 13 16 12 15 16
internal_value=4.89544e-05 0.0797025 -0.103982 0.101869 0.116197 -0.116915 0.125629 -0.126521 -0.132102 -0.115032 -0.135883 -0.134409 0.133202 -0.132756 0.132883 0.13262 0.133864 0.132323 -0.132349 -0.13219 0.132127 0.132067 0.13219 0.132009 0.132046 -0.132037 -0.132061 0.132011 -0.132095
internal_weight=72.1283 40.8503 31.278 36.6755 33.3524 29.6008 30.547 26.7226 24.518 4.17481 22.5656 19.9771 27.5933 17.636 24.8922 22.4026 4.33059 18.072 15.1331 13.2558 15.4572 13.2367 4.23659 9.00008 7.16768 10.4746 7.53728 5.14321 5.15015
internal_count=366 208 158 187 173 151 161 138 128 21 118 106 148 95 134 121 23 98 82 72 84 72 23 49 39 57 41 28 28
is_linear=0
shrinkage=0.1


Tree=8
num_leaves=29
num_cat=0
split_feature=16 22 23 18 27 13 16 15 18 28 27 7 25 27 18 28 28 1 14 24 25 21 21 24 29 1 29 1
split_gain=51.4319 15.1811 3.91413 3.72715 3.29779 11.8033 3.79272 1.11913 0.65894 0.354249 0.163366 0.054608 0.0513364 0.00710163 0.00798817 0.00429706 0.00428668 0.00128541 0.000533162 0.000435687 0.00017833 0.00039014 0.000152153 1.06557e-05 8.35912e-06 6.75847e-07 4.37443e-07 1.85759e-07
threshold=4.4314831441834075 2.5840887326396684 5.8053371804942033 5.3458306721107158 5.1150574566554221 1.0000000180025095e-35 5.643048738487086 4.9343744099133593 5.94145434139865 5.6977919016713487 5.8294752866965593 1.0000000180025095e-35 5.5780267665914236 4.3345749799135636 5.4846925765836056 5.0818032879644148 5.0818032879644148 69.500000000000014 1.0000000180025095e-35 2.8734773029638787 5.1755584438577378 4.4001694461152292 4.4001694461152292 6.5406947617944704 5.0184482169651536 69.500000000000014 5.5342516618493729 58.500000000000007
decision_type=2 2 2 2 2 2 2 2 2 2 2 2 2 2 2 2 2 2 2 2 2 2 2 2 2 2 2 2
left_child=2 10 3 -1 8 6 -6 -5 11 12 -2 -3 13 19 -15 18 17 22 -7 20 21 -9 -13 -20 -24 27 -26 -22
right_child=1 4 -4 7 5 15 -8 9 -10 -11 -12 16 -14 14 -16 -17 -18 -19 23 -21 25 -23 24 -25 26 -27 -28 -29
leaf_value=-0.00037069119146187135 -0.13033842056191958 0.14394948672649047 0.036440823903243151 -0.048185536878451778 -0.11498868011840258 0.1297403515974882 0.051361992460885547 -0.12998405470321328 0.078894359551665377 -0.0914860540374548 -0.089674479527211082 0.12907283730035962 -0.14812302360897242 -0.12976686891344377 -0.13689978041622602 0.13372902127038808 0.13355810913235516 0.13115268678333797 0.12814146083876721 -0.13013380971130659 -0.12812841606374165 -0.12810691302453672 0.12786300092100567 0.12782658135476502 0.12812482530912525 -0.12803055753228082 0.12806786621096283 -0.12808645583259423
leaf_weight=2.8492967486381593 1.9445371031761163 3.2612684220075652 1.9916865378618229 1.9394618868827844 3.5338762998580906 2.9845272600650787 2.2389074862003326 1.9458432942628947 2.6795809119939795 2.4648414999246588 2.0083606839179993 1.7413014322519282 1.7252824306488026 3.7067336589097968 2.7237345278263092 2.1867766082286835 2.1786234527826318 1.7972371578216542 2.9131966084241867 1.7784793078899372 1.8847207129001615 2.5689672380685806 2.044957309961319 1.702962204813957 3.083867684006691 1.7100229263305662 2.39582858979702 2.3967268764972687
leaf_count=12 11 17 9 9 15 17 11 11 12 14 10 10 8 21 14 12 12 10 17 10 11 15 12 10 18 10 14 14
internal_value=5.40534e-05 0.0760147 -0.0989616 -0.108699 0.0971421 0.0629343 -0.0504715 -0.121123 0.12489 -0.127299 -0.109678 0.132358 -0.131617 -0.130096 -0.132788 0.129823 0.129504 0.128705 0.128699 -0.128686 -0.128441 -0.128916 0.12823 0.128025 0.128036 -0.128084 0.1281 -0.128105
internal_weight=68.3816 38.6958 29.6858 27.6941 34.7429 15.5602 5.77278 24.8448 19.1827 22.9054 3.9529 16.5031 20.4405 18.7152 6.43047 9.78746 13.2418 11.0632 7.60069 12.2848 10.5063 4.51481 9.26596 4.61616 7.52465 5.99147 5.4797 4.28145
internal_count=366 208 158 149 187 82 26 137 105 128 21 93 114 106 35 56 76 64 44 71 61 26 54 27 44 35 32 25
is_linear=0
shrinkage=0.1


Tree=9
num_leaves=30
num_cat=0
split_feature=16 22 20 20 23 30 20 18 21 25 15 29 25 20 27 20 18 24 15 28 17 19 1 21 20 25 24 17 1
split_gain=44.3782 13.1223 8.92078 6.1503 4.4097 3.3668 1.75439 1.66826 0.177745 0.0854978 0.0300987 0.004912 0.00174188 0.000721136 0.00090289 0.000904977 0.00043064 0.000543197 0.000209153 0.0001521 7.0058e-05 0.000154639 4.1066e-05 3.06103e-05 2.62684e-05 7.00885e-06 6.94608e-06 5.93088e-06 2.43148e-07
threshold=4.4314831441834075 2.5840887326396684 4.6409554173751681 6.1276517335202145 5.8053371804942033 13.500000000000002 5.1045940979337816 5.94145434139865 6.1480436045084508 5.786617651877255 5.1103131095179917 4.310790089594513 5.4301251591120225 5.3723067161925773 4.1483047671053663 5.7047233154330348 4.9073903042467935 6.1252347539723502 5.2311452445742166 4.9799547005849725 4.4519375680344213 5.2576249049935031 58.500000000000007 5.2649492840782841 4.8123799830948686 4.7487661594717236 2.7318353550820302 5.9117637469449749 69.500000000000014
decision_type=2 2 2 2 2 2 2 2 2 2 2 2 2 2 2 2 2 2 2 2 2 2 2 2 2 2 2 2 2
left_child=2 8 -1 5 6 7 9 11 -2 10 -4 -3 18 16 -15 -16 23 19 -12 24 21 -20 -23 25 -18 -13 28 -25 -22
right_child=1 3 4 -5 -6 -7 -8 -9 -10 -11 12 13 -14 14 15 -17 17 -19 20 -21 26 22 -24 27 -26 -27 -28 -29 -30
leaf_value=0.10972837790407806 -0.12568481600656484 0.13068437199031199 -0.13693991134461866 -0.037229853838813713 0.032492855928587194 -0.0073732779592731905 -0.027588826897811919 0.044917403893432593 -0.082024258671546085 -0.14651781201642436 -0.12602701066750122 0.12467912427854555 -0.12801930652896062 0.1246715244495106 0.12866762461406786 0.12577426863179281 0.12451625991396337 0.12722371416796413 -0.12608334761633921 0.12595936813578931 -0.12471256723626611 -0.12535058457845991 -0.12471953331757629 0.12428008511272325 0.12505269255844118 0.12494008628520287 -0.12492420220490652 0.12451256419622017 -0.12466204614578924
leaf_weight=1.9912108629941965 1.9462125152349465 1.9315501898527241 2.7206776440143718 3.2637488692998877 2.0093161910772315 2.3508578538894644 1.8308925181627262 2.84516717493534 1.7900591641664503 2.5843288749456397 2.4555182754993465 2.2226236462593096 2.5535812228918067 2.2221882194280616 2.0618863999843597 2.2724219560623169 1.7392198592424386 1.6711702942848203 1.6355138421058635 1.6290318369865415 2.3833541274070744 1.6125595420598982 2.8605074286460876 1.7289626002311704 1.9212628304958341 1.9167112112045286 1.9162015616893766 3.003985196352005 1.5869302153587339
leaf_count=8 12 11 14 14 9 10 10 13 9 12 15 14 15 14 12 14 11 10 10 10 15 10 18 11 12 12 12 19 10
internal_value=6.72107e-05 0.0727939 -0.0943076 0.0930318 -0.109844 0.107435 -0.121692 0.11737 -0.104767 -0.129415 -0.127174 0.125846 -0.125612 0.125428 0.12631 0.127151 0.125063 0.125652 -0.125186 0.125156 -0.125014 -0.125251 -0.124947 0.124601 0.124798 0.1248 -0.124768 0.124428 -0.124692
internal_weight=64.6577 36.5171 28.1406 32.7808 26.1494 29.517 24.1401 27.1662 3.73627 22.3092 19.7248 24.321 17.0042 22.3895 6.5565 4.33431 15.833 6.96068 14.4506 5.28951 11.9951 6.10858 4.47307 8.87228 3.66048 4.13933 5.88649 4.73295 3.97028
internal_count=366 208 158 187 150 173 141 163 21 131 119 150 105 139 40 26 99 43 90 33 75 38 28 56 23 26 37 30 25
is_linear=0
shrinkage=0.1


Tree=10
num_leaves=30
num_cat=0
split_feature=23 20 24 20 28 21 21 20 30 23 18 23 29 1 25 28 22 20 22 25 15 29 28 23 22 13 19 18 18
split_gain=35.3965 15.6807 15.423 4.99566 3.12246 1.75882 1.10022 1.07275 0.308187 0.249897 0.233943 0.229833 0.0376935 0.0134407 0.0024082 0.000674772 0.000412269 0.000362817 0.000319744 0.000119843 7.20603e-05 0.000176877 1.18246e-05 7.98448e-06 1.68433e-06 9.41912e-07 3.7854e-07 1.53745e-07 1.37965e-07
threshold=5.1098806585726555 4.6162704979575349 3.4939108243488417 6.1276517335202145 4.0949830000658221 4.1298018742546292 5.2146658210534174 5.4043564869637679 9.5000000000000018 5.0530978156604158 5.94145434139865 5.270284757545161 4.2836154916766302 64.500000000000014 4.8330420025726477 5.1493726542670091 5.9755762666381536 4.8397028328502474 6.1839357875328211 5.3000334530045139 5.3820700845448943 4.6874333373876658 4.0281969853553976 5.5667700747149373 5.2458522632862943 1.0000000180025095e-35 5.2795383162082912 5.8958037107888748 5.3022176804045271
decision_type=2 2 2 2 2 2 2 2 2 2 2 2 2 2 2 2 2 2 2 2 2 2 2 2 2 2 2 2 2
left_child=1 -1 6 5 -3 -4 -2 8 9 13 11 -7 -13 14 -6 16 22 -15 -18 20 21 26 -14 -24 -25 28 -16 -22 -26
right_child=2 4 3 -5 7 10 -8 -9 -10 -11 -12 12 15 17 19 -17 18 -19 -20 -21 27 -23 23 24 25 -27 -28 -29 -30
leaf_value=0.13027317410512815 -0.045403823931161207 0.0078373826977130492 0.036517365445063239 -0.022041741623803887 -0.12581344883484746 0.085042805129147914 -0.1431434173727778 -0.045441118313092194 -0.16710247590891469 -0.084509821939897908 0.15859226870368229 0.1374167439034846 0.12148275448457822 -0.13052288834334391 -0.1218464192015371 0.12426564382489852 0.12396590402500084 -0.12852978799308087 0.12223127821045665 -0.12304432295700929 -0.12180094458868809 -0.12287271696167312 0.12200244926855114 0.1216780907974378 0.12183970074001252 0.12173576709402237 -0.12177630504712618 -0.12184007592342681 0.12179637927861904
leaf_weight=3.1273525506258038 2.1625504642724982 2.1662458330392864 2.5898292362690034 3.0042264014482489 2.2573642879724636 1.6702704876661361 2.4638457447290421 1.8890256583690632 1.5431424230337132 1.7399434745311726 1.7593115717172612 1.8228982836008096 1.4554901719093347 1.952630251646041 1.4714811444282516 1.5589657127857197 1.703539267182349 1.7159715592861176 2.824631541967392 1.6718774139881123 2.6451250314712524 3.1759443134069443 1.4777605533599834 2.3426385968923569 1.4711907207965853 2.6399788409471512 1.6152903437614439 1.6183280944824217 1.4693107604980467
leaf_count=16 13 12 14 13 14 10 12 9 7 11 8 10 10 11 10 10 11 10 19 11 18 21 10 16 10 18 11 11 10
internal_value=6.32381e-05 -0.0810461 0.0715978 0.0997413 -0.107001 0.114502 -0.0974563 -0.117679 -0.124054 -0.12071 0.123602 0.120589 0.123753 -0.124185 -0.122813 0.122283 0.122082 -0.129591 0.122884 -0.122258 -0.122133 -0.122349 0.121748 0.121789 0.121749 0.121779 -0.12181 -0.121816 0.121818
internal_weight=61.0062 28.5897 32.4164 27.79 25.4624 24.7858 4.6264 23.2961 21.4071 19.864 22.196 20.4367 18.7664 18.124 14.4554 16.9435 15.3845 3.6686 4.52817 12.198 10.5262 6.26272 10.8564 9.40088 7.92312 5.58048 3.08677 4.26345 2.9405
internal_count=366 172 194 169 156 156 25 144 135 128 142 134 124 117 96 114 104 21 30 82 71 42 74 64 54 38 21 29 20
is_linear=0
shrinkage=0.1


Tree=11
num_leaves=26
num_cat=0
split_feature=15 20 19 7 10 20 19 28 20 27 1 18 25 29 15 1 17 21 17 25 28 1 21 19 1
split_gain=26.1612 15.6305 12.2246 5.59078 5.51878 5.35224 2.57362 1.37205 0.891886 0.517123 0.337546 0.213448 0.0804312 0.0321654 0.00915718 0.00342234 0.00115602 0.000431336 0.00019075 8.42367e-05 6.26651e-05 3.94273e-05 6.3112e-06 2.93353e-06 2.28518e-06
threshold=4.8987409237177406 4.6162704979575349 4.6340389000750699 1.0000000180025095e-35 1.0000000180025095e-35 5.61493255138911 5.2650113236596647 5.4975138773132466 5.5245567704696388 4.9368206220665218 56.500000000000007 5.8699824187027794 5.786617651877255 4.7504218689220119 5.1103131095179917 62.500000000000007 5.0098835657201075 4.4652643749154954 4.3088060984892449 5.0408294879590665 4.6333799188385747 60.500000000000007 4.4652643749154954 3.735235577160251 58.500000000000007
decision_type=2 2 2 2 2 2 2 2 2 2 2 2 2 2 2 2 2 2 2 2 2 2 2 2 2
left_child=3 9 -3 5 8 -1 -6 10 12 -2 -5 13 14 -12 -4 18 -17 -15 19 -16 23 22 24 -19 -20
right_child=1 2 4 7 6 -7 -8 -9 -10 -11 11 -13 -14 17 15 16 -18 20 21 -21 -22 -23 -24 -25 -26
leaf_value=0.12272089236868861 0.14101682485383943 0.12555646521378672 -0.12743137027924764 0.090586782928184756 -0.057137929344403073 -0.06373398817097968 0.12127216895097657 0.026118462902797575 -0.048475310175911036 0.069952069200933942 0.13361672136388789 0.15599762311343798 -0.13962164473452557 0.12128370550305852 -0.11981624124991264 -0.12104425362020509 -0.12454179748875389 0.11944021950870776 -0.11947003280786217 -0.12055676075731524 0.12005289449610033 -0.11988617931673096 -0.11914519335201933 0.11925824876505393 -0.11931732784527721
leaf_weight=2.4308674335479763 3.0202104151248923 2.5977440476417568 2.1738039404153957 2.6628118753433254 1.8749465197324746 4.1986333578824997 1.421588137745857 1.626256227493285 1.7028264850378025 1.5492037236690519 2.2722110748290998 2.49097616970539 2.7372022271156302 2.0083784162998199 3.0346061140298861 1.5787359178066247 2.3542299121618271 1.4987896233797076 1.6366637945175169 3.1108676940202713 1.8019322305917738 1.5157356560230253 1.6180126070976255 2.1664550751447678 2.4423752725124359
leaf_count=17 19 15 13 18 10 19 10 8 9 10 14 13 14 14 22 11 15 11 12 22 13 11 12 16 18
internal_value=6.08606e-05 -0.0552944 -0.0817021 0.0822159 -0.101495 0.00463422 0.0197991 0.113335 -0.118222 0.116923 0.122853 0.129873 -0.123571 0.123197 -0.121314 -0.120545 -0.123138 0.12003 -0.119782 -0.120191 0.11957 -0.119433 -0.119312 0.119333 -0.119379
internal_weight=57.5261 34.3688 29.7993 23.1573 27.2016 6.6295 3.29653 16.5278 23.9051 4.56941 14.9016 12.2387 22.2022 9.74777 19.465 17.2912 3.93297 7.47556 13.3583 6.14547 5.46718 7.21279 5.69705 3.66524 4.07904
internal_count=366 223 194 143 179 36 20 107 159 29 99 81 150 68 136 123 26 54 97 44 40 53 42 27 30
is_linear=0
shrinkage=0.1


Tree=12
num_leaves=31
num_cat=0
split_feature=16 20 23 0 20 20 28 23 23 23 5 29 15 17 17 4 27 21 1 27 29 1 19 21 3 17 17 15 1 15
split_gain=28.5088 7.58181 7.39352 6.45534 5.66021 5.05277 1.92042 1.68204 1.35212 0.331717 0.0674794 0.0353729 0.00580776 0.00370377 0.00227595 0.000649912 0.000367993 0.000749268 0.000171065 0.000148275 0.000170654 7.89404e-05 4.63644e-05 1.37596e-05 4.98573e-06 4.77004e-06 3.74645e-06 1.95762e-06 9.88858e-08 6.13522e-08
threshold=4.4314831441834075 4.6162704979575349 5.1098806585726555 1.0000000180025095e-35 5.3723067161925773 6.1276517335202145 5.7236290001313277 5.0479363014856746 5.8008031112306435 5.270284757545161 1.0000000180025095e-35 4.2836154916766302 5.1103131095179917 5.1124232431136285 4.7149020207040877 1.0000000180025095e-35 4.4107197894842303 4.8568740954867211 61.500000000000007 3.1402109209167786 5.0184482169651536 70.500000000000014 2.6136695907792631 5.2981933898518898 1.0000000180025095e-35 6.0292263175553833 5.7069313502693451 5.4372211369299119 69.500000000000014 5.3311321489720713
decision_type=2 2 2 2 2 2 2 2 2 2 2 2 2 2 2 2 2 2 2 2 2 2 2 2 2 2 2 2 2 2
left_child=1 -1 3 7 8 6 9 -2 10 -4 12 -11 -3 18 -13 16 22 -18 19 27 24 23 -16 26 -21 -25 -17 29 -20 -14
right_child=2 4 5 -5 -6 -7 -8 -9 -10 11 -12 14 13 -15 15 21 17 -19 28 20 -22 -23 -24 25 -26 -27 -28 -29 -30 -31
leaf_value=0.11925146472723487 -0.034404737143001497 -0.12416469520197491 0.075256773765341262 0.12720217904041012 0.087881181218316506 -0.027642509584947541 -0.010961914029521101 -0.15193315162681506 -0.024519366712582355 0.13294117402170444 -0.14210456665084295 0.12205633388831488 -0.1171583535553064 -0.12186914058134868 0.11797298719816247 0.11704462719499405 0.12037693505225358 0.11780344156039031 -0.11847203866784853 -0.11769404180784296 -0.11891205372939245 0.11786346528272132 0.11716759148028738 0.11672722932135447 -0.11744836195092966 0.11698185996370131 0.11728378856581628 -0.11727764419987277 -0.1184332492823082 -0.11713223929069527
leaf_weight=1.713471964001658 2.5999095886945751 2.0160010904073848 1.8511267229914761 1.9133009687066076 1.5035644024610508 3.1831876188516608 1.2796228528022755 2.29057976603508 1.5819582790136326 1.8254638463258768 1.3803716748952854 1.4182304963469494 1.5000659823417648 2.6215993762016288 1.6697316840291008 1.3685471564531329 2.2245740368962288 2.3020900711417198 1.3146954327821725 1.6605868190526962 1.333543926477432 1.2785242423415182 1.2497584819793699 1.5958359614014628 1.6435715854167938 1.3649649918079374 1.2562405019998548 1.5071700811386106 1.3141700625419614 2.2476735636591911
leaf_count=7 18 13 13 13 7 14 6 11 8 11 7 10 12 18 13 11 16 18 10 13 10 10 10 13 13 11 10 12 10 18
internal_value=5.62151e-05 -0.0832322 0.0634313 -0.0285265 -0.0992761 0.0896448 0.107694 -0.089452 -0.113261 0.115519 -0.120834 0.119765 -0.119123 -0.118451 0.118235 0.117857 0.118504 0.119068 -0.117736 -0.117545 -0.117957 0.117155 0.117628 0.116992 -0.117572 0.116845 0.117159 -0.117181 -0.118453 -0.117143
internal_weight=54.0101 23.3384 30.6717 6.80379 21.625 23.8679 20.6847 4.89049 20.1214 19.4051 18.5394 17.554 17.1591 15.1431 15.7285 14.3103 7.44615 4.52666 12.5215 9.89261 4.6377 6.86411 2.91949 5.58559 3.30416 2.9608 2.62479 5.25491 2.62887 3.74774
internal_count=366 158 208 42 151 166 152 29 144 146 136 133 129 116 122 112 57 34 98 78 36 55 23 45 26 24 21 42 20 30
is_linear=0
shrinkage=0.1


Tree=13
num_leaves=27
num_cat=0
split_feature=16 22 19 27 13 18 19 15 18 22 7 24 18 21 27 29 4 16 1 23 27 21 15 2 15 15
split_gain=24.834 8.03558 5.04092 2.86341 8.36204 1.92484 1.82029 0.99836 0.761768 0.371146 0.0763112 0.061609 0.00232525 0.00161988 0.00155227 0.000352719 0.000228904 0.00021182 0.000164121 8.46052e-05 4.63748e-05 4.46451e-05 1.6548e-05 7.24186e-08 2.41008e-08 2.85414e-08
threshold=4.4314831441834075 2.5840887326396684 4.8208368123050134 5.1150574566554221 1.0000000180025095e-35 5.2822112395730274 5.9516245581878424 4.9174014738612195 5.94145434139865 1.8477830690496597 1.0000000180025095e-35 5.1868443229592183 4.9073903042467935 5.0367181900510074 4.865113427545003 5.1001235585832578 1.0000000180025095e-35 5.2386739909179356 61.500000000000007 5.9021681381276503 3.1402109209167786 5.343724517269778 4.9174014738612195 1.0000000180025095e-35 5.3311321489720713 5.4372211369299119
decision_type=2 2 2 2 2 2 2 2 2 2 2 2 2 2 2 2 2 2 2 2 2 2 2 2 2 2
left_child=2 9 -1 8 5 -5 7 -4 10 -2 -3 13 19 15 16 18 17 -12 20 21 24 -6 -18 -20 -9 -26
right_child=1 3 6 4 12 -7 -8 11 -10 -11 14 -13 -14 -15 -16 -17 22 -19 23 -21 -22 -23 -24 -25 25 -27
leaf_value=0.034568489175864567 -0.057847698422307386 0.13596901437815109 -0.042169204908086573 -0.094479027495003795 0.11640481554793335 0.035447395278470288 0.0040534132625718996 -0.11526140299681109 0.058157053807861382 -0.1271201725056931 0.11684515208723285 -0.13904756618414377 0.11955989608481242 -0.11882495406983773 0.1190935254695845 -0.11711281555006386 0.11526631532606746 0.11545830724884065 -0.11640906507218968 0.11508606011998859 -0.11579646744844879 0.11557387194535665 0.11479160658103015 -0.11637445764373644 -0.11523857016480613 -0.11525823425031667
leaf_weight=3.2501842677593258 1.6030999198555975 2.5315643846988687 1.9374021142721236 3.497933164238928 1.2057402655482294 1.6917118951678274 1.5311075001955021 1.3785035014152507 2.3494230210781089 1.4944481700658796 2.2026049196720123 1.3200041949748982 2.1809817254543304 2.3550961986184111 1.6446971520781515 2.1127816438674918 1.3787360638380053 2.2026436403393745 1.2095800042152405 1.9360652118921278 2.3507636040449142 1.3943051472306249 1.5711235851049421 1.2090620249509811 2.0654777139425278 1.1485774070024493
leaf_count=16 12 17 11 16 10 10 7 12 12 9 18 9 17 18 13 17 12 19 10 17 20 12 14 10 18 10
internal_value=5.01649e-05 0.0609145 -0.0803425 0.0791945 0.0432156 -0.0521258 -0.100402 -0.109762 0.110057 -0.091269 0.120631 -0.118406 0.116877 -0.116436 0.116316 -0.115946 0.115695 0.116152 -0.115682 0.115587 -0.115435 0.115959 0.115013 -0.116392 -0.11525 -0.115246
internal_weight=50.7536 28.8851 21.8685 25.7875 11.9067 5.18965 18.6184 17.0872 13.8808 3.09755 11.5314 15.1498 6.71709 13.8298 8.99981 11.4747 7.35511 4.40525 9.36196 4.53611 6.94332 2.60005 2.94986 2.41864 4.59256 3.21406
internal_count=366 208 158 187 82 26 142 135 105 21 93 124 56 115 76 97 63 37 80 39 60 22 26 20 40 28
is_linear=0
shrinkage=0.1


Tree=14
num_leaves=31
num_cat=0
split_feature=23 24 20 15 20 28 18 15 17 17 15 27 20 18 18 28 15 19 1 18 29 28 20 27 4 20 28 14 15 15
split_gain=19.8902 10.217 10.1499 3.59628 6.65996 2.67691 1.7683 1.38101 1.16962 0.50074 0.793067 0.457151 0.34961 0.121203 0.0783369 0.0405741 0.0136354 0.00178362 0.000261833 0.000205456 0.000193682 0.000191863 8.9603e-05 2.59187e-05 2.66832e-05 2.09547e-05 1.01403e-05 6.59074e-06 9.16455e-07 3.04291e-08
threshold=5.1224546125008157 3.4939108243488417 4.2578882842912149 4.2499992682284358 6.1276517335202145 4.0949830000658221 5.94145434139865 4.8987409237177406 5.0947873194003641 5.4323637588196521 5.3191837606361849 5.6872288430115594 6.1276517335202145 5.3458306721107158 5.94145434139865 5.2416654142524433 5.0592292437361577 4.7122348544968373 61.500000000000007 4.9263709606755457 5.2011903061445528 5.0395945501791859 5.7374725374322875 3.1402109209167786 1.0000000180025095e-35 5.0626793710824805 4.0949830000658221 1.0000000180025095e-35 5.4372211369299119 5.3311321489720713
decision_type=2 2 2 2 2 2 2 2 2 2 2 2 2 2 2 2 2 2 2 2 2 2 2 2 2 2 2 2 2 2
left_child=2 8 -1 4 6 -4 17 -7 -2 13 -11 12 14 -9 15 21 -15 19 20 -3 23 22 25 28 -25 26 -5 -28 29 -18
right_child=1 3 5 11 -6 7 -8 9 -10 10 -12 -13 -14 16 -16 -17 18 -19 -20 -21 -22 -23 -24 24 -26 -27 27 -29 -30 -31
leaf_value=0.14362827697927552 -0.025534905631399513 0.11361779046777487 0.02292981491148198 0.11321934104584774 -0.14332180263245961 -0.019540145935632143 -0.02056867162069595 -0.14787921731023795 -0.13460251004457266 -0.018041887590500367 -0.11763389993424095 0.073117638516929553 0.17704090536185607 -0.12375558573259829 0.14073189211646878 0.13486678820274461 -0.11359993823791854 0.11938278937782301 -0.11528128372590823 0.11535063904463663 -0.11511559795188353 0.11514587076649772 0.1145307443875595 -0.11428893446693367 -0.11368179510661663 0.11385163527576797 0.11340291592367575 0.11370797612443616 -0.11368848923034908 -0.11357990801524241
leaf_weight=2.0572471693158176 1.7774789333343535 1.0545238479971915 1.9235806912183786 1.2372168824076633 1.6796710342168806 1.8718262687325502 1.2286176383495329 1.2833016663789774 2.2003661245107651 1.3981821388006204 1.8676017597317693 1.9619753435254086 1.1725611090660084 1.7418433278799046 1.512757584452628 1.0398168191313732 1.2646258771419507 1.1436275392770765 1.8344144374132145 1.9485078603029249 1.2501087263226507 1.1281908452510832 1.210560619831085 1.5273491740226746 1.3760228231549263 2.0278591215610504 1.3547630831599236 1.4839633330702782 1.2706702649593351 1.8948103114962578
leaf_count=13 13 10 13 12 8 9 6 7 12 10 15 17 5 12 8 7 12 9 16 17 11 10 11 14 13 19 13 14 12 18
internal_value=5.53667e-05 0.061186 -0.0681223 0.0887981 0.0304891 -0.0893678 0.0848017 -0.100993 -0.0858662 -0.110118 -0.0749955 0.117912 0.125135 -0.118651 0.119599 0.116228 -0.115566 0.116022 -0.114197 0.114742 -0.113965 0.113932 0.113745 -0.113769 -0.114001 0.113589 0.113458 0.113562 -0.113617 -0.113588
internal_weight=47.724 25.1625 22.5616 21.1846 7.05495 20.5043 5.37528 18.5808 3.97785 16.7089 3.26578 14.1297 12.1677 13.4431 10.9951 9.48237 12.1598 4.14666 10.418 3.00303 8.58359 8.44255 7.31436 7.33348 2.90337 6.1038 4.07594 2.83873 4.43011 3.15944
internal_count=366 191 175 166 50 162 42 149 25 140 25 116 99 115 94 86 108 36 96 27 80 79 69 69 27 58 39 27 42 30
is_linear=0
shrinkage=0.1


end of trees

feature_importances:
Column_15=44
Column_18=32
Column_20=31
Column_21=29
Column_28=29
Column_27=25
Column_1=24
Column_23=23
Column_29=20
Column_16=19
Column_19=18
Column_17=17
Column_25=17
Column_22=16
Column_24=10
Column_30=6
Column_2=5
Column_7=5
Column_4=4
Column_0=3
Column_13=3
Column_14=3
Column_3=1
Column_5=1
Column_6=1
Column_10=1
Column_11=1
Column_12=1

parameters:
[boosting: gbdt]
[objective: binary]
[metric: custom]
[tree_learner: serial]
[device_type: cpu]
[data_sample_strategy: bagging]
[data: ]
[valid: ]
[num_iterations: 10000]
[learning_rate: 0.1]
[num_leaves: 31]
[num_threads: 0]
[seed: 1242]
[deterministic: 0]
[force_col_wise: 0]
[force_row_wise: 0]
[histogram_pool_size: -1]
[max_depth: -1]
[min_data_in_leaf: 10]
[min_sum_hessian_in_leaf: 0.001]
[bagging_fraction: 0.8]
[pos_bagging_fraction: 1]
[neg_bagging_fraction: 1]
[bagging_freq: 0]
[bagging_seed: 20664]
[bagging_by_query: 0]
[feature_fraction: 0.8]
[feature_fraction_bynode: 1]
[feature_fraction_seed: 4656]
[extra_trees: 0]
[extra_seed: 6363]
[early_stopping_round: 0]
[early_stopping_min_delta: 0]
[first_metric_only: 0]
[max_delta_step: 0]
[lambda_l1: 0]
[lambda_l2: 0]
[linear_lambda: 0]
[min_gain_to_split: 0]
[drop_rate: 0.1]
[max_drop: 50]
[skip_drop: 0.5]
[xgboost_dart_mode: 0]
[uniform_drop: 0]
[drop_seed: 24603]
[top_rate: 0.2]
[other_rate: 0.1]
[min_data_per_group: 100]
[max_cat_threshold: 32]
[cat_l2: 10]
[cat_smooth: 10]
[max_cat_to_onehot: 4]
[top_k: 20]
[monotone_constraints: ]
[monotone_constraints_method: basic]
[monotone_penalty: 0]
[feature_contri: ]
[forcedsplits_filename: ]
[refit_decay_rate: 0.9]
[cegb_tradeoff: 1]
[cegb_penalty_split: 0]
[cegb_penalty_feature_lazy: ]
[cegb_penalty_feature_coupled: ]
[path_smooth: 0]
[interaction_constraints: ]
[verbosity: -1]
[saved_feature_importance_type: 0]
[use_quantized_grad: 0]
[num_grad_quant_bins: 4]
[quant_train_renew_leaf: 0]
[stochastic_rounding: 1]
[linear_tree: 0]
[max_bin: 255]
[max_bin_by_feature: ]
[min_data_in_bin: 3]
[bin_construct_sample_cnt: 200000]
[data_random_seed: 4094]
[is_enable_sparse: 1]
[enable_bundle: 1]
[use_missing: 1]
[zero_as_missing: 0]
[feature_pre_filter: 1]
[pre_partition: 0]
[two_round: 0]
[header: 0]
[label_column: ]
[weight_column: ]
[group_column: ]
[ignore_column: ]
[categorical_feature: ]
[forcedbins_filename: ]
[precise_float_parser: 0]
[parser_config_file: ]
[objective_seed: 7268]
[num_class: 1]
[is_unbalance: 0]
[scale_pos_weight: 1]
[sigmoid: 1]
[boost_from_average: 1]
[reg_sqrt: 0]
[alpha: 0.9]
[fair_c: 1]
[poisson_max_delta_step: 0.7]
[tweedie_variance_power: 1.5]
[lambdarank_truncation_level: 30]
[lambdarank_norm: 1]
[label_gain: ]
[lambdarank_position_bias_regularization: 0]
[eval_at: ]
[multi_error_top_k: 1]
[auc_mu_weights: ]
[num_machines: 1]
[local_listen_port: 12400]
[time_out: 120]
[machine_list_filename: ]
[machines: ]
[gpu_platform_id: -1]
[gpu_device_id: -1]
[gpu_use_dp: 0]
[num_gpu: 1]

end of parameters

pandas_categorical:null
