tree
version=v4
num_class=1
num_tree_per_iteration=1
label_index=0
max_feature_idx=30
objective=binary sigmoid:1
feature_names=Column_0 Column_1 Column_2 Column_3 Column_4 Column_5 Column_6 Column_7 Column_8 Column_9 Column_10 Column_11 Column_12 Column_13 Column_14 Column_15 Column_16 Column_17 Column_18 Column_19 Column_20 Column_21 Column_22 Column_23 Column_24 Column_25 Column_26 Column_27 Column_28 Column_29 Column_30
feature_infos=[0:1] [38:87] [0:1] [0:1] [0:1] [0:1] [0:1] [0:1] [0:1] [0:1] [0:1] [0:1] [0:1] [0:1] [0:1] [1.2575273730320791:7.1241512480846838] [1.951830660107585:6.4458237676432395] [1.3807024860565313:6.5743587482398302] [1.2675106513689389:6.6375906630254109] [0.69232549540937693:7.2804341787471918] [2.1424599148947419:6.7512587985265533] [1.3028882002444551:7.5825156466299966] [1.7972614499610589:6.1159248277474081] [1.0016507050318519:7.2917817654769541] [0.62183875790967469:7.5448623520105542] [1.5637135731740173:6.729632952167016] [2.0789277316894008:6.7811691864451094] [0.8990537426737002:7.2244406661446288] [0.64820499868600845:7.5950464970307108] [1.800446123099561:6.7295119546840407] [0:14]
tree_sizes=1691 2107 2637 2737

Tree=0
num_leaves=15
num_cat=0
split_feature=23 25 16 18 16 18 15 26 21 15 13 27 1 1
split_gain=153.288 45.9115 32.8018 23.7378 14.9363 18.3335 6.05273 4.97268 4.29581 1.80001 1.69896 0.203296 1.42109e-14 1.42109e-14
threshold=4.8217529629725764 2.2276558436385039 3.92229270367107 4.7578318457761073 5.7722670613218687 2.4553588367110164 3.9388068438944246 5.8671455029592643 6.2642628401581089 5.7585979905506397 1.0000000180025095e-35 5.2648316549703917 69.500000000000014 67.500000000000014
decision_type=2 2 2 2 2 2 2 2 2 2 2 2 2 2
left_child=2 -2 -1 -4 7 -6 -5 8 12 -10 11 13 -3 -8
right_child=1 4 3 6 5 -7 10 -9 9 -11 -12 -13 -14 -15
leaf_value=0.19509684276615841 -0.20490613748828498 0.19509684276615838 0.12236902817444142 -0.051058837390422149 -0.20490613748828498 0.16176326107828809 -0.20490613748828496 0.035095650664381049 0.035095650664381049 0.15509654474071402 -0.13431737626691262 -0.18137655041449421 0.19509684276615841 -0.20490613748828498
leaf_weight=2.7499795109033576 3.9999701976776114 23.499824911355976 2.7499795109033576 3.2499757856130591 2.4999813735485068 2.9999776482582092 23.499824911355979 2.4999813735485068 2.4999813735485068 2.4999813735485077 4.2499683350324622 4.2499683350324622 6.9999478459358206 3.4999739229679099
leaf_count=11 16 94 11 13 10 12 94 10 10 10 17 17 28 14
internal_value=-0.00544961 0.119307 -0.139369 -0.161532 0.149119 -0.00490465 -0.18168 0.171412 0.181012 0.0950961 -0.193638 -0.201706 0.195097 -0.204906
internal_weight=91.7493 47.4996 44.2497 41.4997 43.4997 5.49996 38.7497 37.9997 35.4997 4.99996 35.4997 31.2498 30.4998 26.9998
internal_count=367 190 177 166 174 22 155 152 142 20 142 125 122 108
is_linear=0
shrinkage=1


Tree=1
num_leaves=19
num_cat=0
split_feature=17 16 23 16 28 5 30 25 17 25 25 23 5 21 26 16 1 1
split_gain=150.215 37.1751 19.8831 32.0001 7.04322 6.95271 3.21811 1.77581 3.0063 0.982377 0.325633 0.0118541 0.00688719 0.003658 0.00112073 0.000434704 0.000450115 1.42109e-14
threshold=4.4882332133062883 3.92229270367107 5.5278418827878051 5.409727521869816 5.9927348211818883 1.0000000180025095e-35 9.5000000000000018 4.4280981485537829 4.0487959602283876 5.4635828458175721 4.2179792815406483 4.4009851771832036 1.0000000180025095e-35 6.0570306033492054 5.4912185701709548 5.7210989413340583 53.500000000000007 60.500000000000007
decision_type=2 2 2 2 2 2 2 2 2 2 2 2 2 2 2 2 2 2
left_child=1 -1 3 6 -5 7 12 14 -9 11 -4 -10 -2 15 17 16 -12 -3
right_child=2 5 10 4 -6 -7 -8 8 9 -11 13 -13 -14 -15 -16 -17 -18 -19
leaf_value=0.18330393663231073 0.18810012334366794 -0.18147237946079511 0.14505944423852807 -0.18837653716505531 0.013454932071900384 0.0046179620242716539 0.064261437034734317 -0.043210604917132689 -0.18216615537426539 -0.11116726972139722 0.18371493292006466 -0.19121174295717674 0.18227549701009277 0.18665498716375473 -0.18370264071879189 0.1837986910293436 0.18227549701009282 -0.1814723794607952
leaf_weight=3.469192072749137 4.4765337854623812 15.833222389221197 2.4828492701053646 4.722561076283454 2.7276106923818588 2.4834263920783988 2.9908068627119055 2.7319925129413596 3.4663225412368757 2.4918138831853867 2.4786477535963156 2.4890752881765366 3.7145411968231201 2.4848743826150885 2.4764699339866629 2.7284102737903586 17.582161664962769 9.1535816937684995
leaf_count=14 18 64 10 19 11 10 12 11 14 10 10 10 15 10 10 11 71 37
internal_value=-4.56239e-06 -0.131055 0.125978 0.0460701 -0.114483 -0.157573 0.153042 -0.167996 -0.134397 -0.163888 0.179617 -0.185947 0.185459 0.183012 -0.181673 0.182614 0.182453 -0.181472
internal_weight=90.9841 44.5951 46.389 18.6321 7.45017 41.1259 11.1819 38.6425 11.1792 8.44721 27.7569 5.9554 8.19107 25.2741 27.4633 22.7892 20.0608 24.9868
internal_count=367 180 187 75 30 166 45 156 45 34 112 24 33 102 111 92 81 101
is_linear=0
shrinkage=0.1


Tree=2
num_leaves=24
num_cat=0
split_feature=20 22 22 23 15 24 1 21 10 22 23 27 26 22 16 23 26 28 26 23 1 20 15
split_gain=116.108 43.1514 15.3375 12.7164 8.01113 4.45451 1.8582 0.929915 0.919871 0.348366 0.0697339 0.0170427 0.0156324 0.00832077 0.00346892 0.00097489 0.000118188 2.82554e-06 2.47581e-06 2.82418e-07 1.18558e-07 2.05551e-08 3.55271e-15
threshold=5.0248433995010187 4.3307661318775237 5.6562475871824178 5.415115457988648 3.9388068438944246 4.5725659857385681 56.500000000000007 6.2642628401581089 1.0000000180025095e-35 4.6065053775013931 4.4009851771832036 5.4967075107790411 5.4293502962604938 3.7712753255276037 5.7376692229015251 5.4788288707704629 3.8938375709047262 6.2602889549769136 5.3921030009708861 6.3694909151390453 67.500000000000014 3.8075579320711195 5.839533028301708
decision_type=2 2 2 2 2 2 2 2 2 2 2 2 2 2 2 2 2 2 2 2 2 2 2
left_child=2 13 5 4 -3 -1 -6 12 9 -8 11 18 14 -2 15 -7 -17 19 20 21 -11 -18 -23
right_child=1 3 -4 -5 6 7 8 -9 -10 10 -12 -13 -14 -15 -16 16 17 -19 -20 -21 -22 22 -24
leaf_value=0.025235577424488079 0.16851674965710153 -0.00343963885593657 -0.068695545498894298 0.044857127083129673 -0.076871671280509896 0.17046353489579957 -0.13444676080563772 0.10871404912828563 -0.10438643562047206 -0.1679513299013404 -0.18272081790632433 -0.17601275378496425 0.17767509793275169 0.17643916635057863 0.17255057350699227 0.16925141459922952 0.16855563940071838 0.16846005147400508 -0.16784165428504327 0.16852605617515032 -0.16792776550624888 0.16856607237756771 0.1685660723775676
leaf_weight=2.4683457016944876 2.8952881693840018 3.7070027738809577 3.3825011998414984 3.8971487730741492 2.6736554205417624 3.3930466175079479 2.89673888683319 2.7079032957553855 2.4713207334280005 18.789952039718642 4.1847894191741934 2.9390810281038275 2.4354337751865378 2.4454358816146851 2.9212714284658423 2.6589701920747784 2.412995874881747 3.8597807586193076 2.4082238078117362 2.4128012359142295 2.4088086187839499 6.2739678025245649 2.4130645394325256
leaf_count=10 12 15 14 16 11 14 12 11 10 78 17 12 10 10 12 11 10 16 10 10 10 26 10
internal_value=-6.30551e-06 -0.0970269 0.134371 -0.128025 -0.143885 0.154598 -0.157313 0.164739 -0.163271 -0.167598 -0.170723 -0.168832 0.17001 0.172144 0.169301 0.168896 0.168631 0.168536 -0.167938 0.168557 -0.167949 0.168564 0.168566
internal_weight=89.0575 51.7174 37.3401 46.3767 42.4796 33.9576 38.7726 31.4892 36.0989 33.6276 30.7309 26.5461 28.7813 5.34072 26.3459 23.4246 20.0316 17.3726 23.607 13.5128 21.1988 11.1 8.68703
internal_count=367 213 154 191 175 140 160 130 149 139 127 110 119 22 109 97 83 72 98 56 88 46 36
is_linear=0
shrinkage=0.1


Tree=3
num_leaves=25
num_cat=0
split_feature=17 30 22 23 22 21 21 22 22 29 23 16 23 25 25 17 30 16 19 28 25 29 29 27
split_gain=104.601 27.3191 25.0755 15.7974 8.67325 4.84933 3.25632 1.37401 0.719459 0.311703 0.0323889 0.057166 0.0253466 0.00465967 0.00317011 0.00396012 0.000882794 7.12618e-05 5.14833e-05 1.7074e-06 2.29918e-06 1.06546e-06 4.0797e-08 1.37347e-08
threshold=4.4882332133062883 1.5000000000000002 5.3263136028786118 5.5894405980887605 4.3530958759086316 5.1652503613947953 6.3435389546200378 5.2387245867203855 4.6434636946941792 5.6707059539329547 5.4524062791485504 4.7551848191008608 4.3769140490776897 4.2770495818124008 4.1614657763003793 4.0487959602283876 13.500000000000002 5.6136028374352973 4.0356634727376433 5.4523864512939326 4.4423207398868634 5.5505165243469117 5.1866113906683866 5.9696860960035929
decision_type=2 2 2 2 2 2 2 2 2 2 2 2 2 2 2 2 2 2 2 2 2 2 2 2
left_child=1 -1 6 5 -3 -4 9 8 -6 10 11 -2 14 -12 18 -16 17 19 21 -15 -21 -10 23 -22
right_child=2 4 3 -5 7 -7 -8 -9 12 -11 13 -13 -14 16 15 -17 -18 -19 -20 20 22 -23 -24 -25
leaf_value=0.17338472594715149 0.15906481158620328 0.033294604009119225 -0.17358291681512139 0.16575989645733877 -0.11183607257123028 0.00097413472460823082 0.05121885669548365 -0.08537509206964855 -0.15737271217480564 0.12287417220376518 0.16295850997632469 0.17726631274496127 -0.16684906937131849 0.15781662746449868 -0.16284222620017053 -0.15772858924007094 0.1598220491872625 0.15847778253903147 -0.15789963877432975 0.15781135688037043 0.15792214818099082 -0.15744571291479664 0.15791258513767079 0.1579319510578911
leaf_weight=3.1006949692964545 4.2003076076507631 2.8419917672872534 4.6016995310783368 2.8531205356121063 3.589376524090766 2.4329313039779663 3.1548862010240546 3.1868610531091681 2.3165748715400829 2.3574538975954047 2.3677884936332729 2.9286585599184036 3.8166340291500083 3.2499206662178102 2.8370012193918219 3.2485429793596268 3.0407307147979727 2.3281975984573355 2.7860427349805823 2.3213209658861151 2.3225151747465116 14.599449947476385 2.3224127441644669 3.716191902756691
leaf_count=13 18 12 19 12 15 10 13 13 10 10 10 12 16 14 12 14 13 10 12 10 10 63 10 16
internal_value=-4.8602e-07 -0.112363 0.107595 -0.0327146 -0.134952 -0.113212 0.14803 -0.148095 -0.154117 0.157833 0.160695 0.166542 -0.159243 0.158772 -0.158118 -0.160112 0.158258 0.157966 -0.157501 0.15788 0.157899 -0.157436 0.157924 0.157928
internal_weight=86.5213 42.3232 44.1981 9.88775 39.2225 7.03463 34.3104 36.3805 33.1936 31.1555 28.798 7.12897 29.6042 21.6691 25.7876 6.08554 19.3013 16.2606 19.7021 13.9324 10.6824 16.916 8.36112 6.03871
internal_count=367 180 187 41 167 29 146 155 142 133 123 30 127 93 111 26 83 70 85 60 46 73 36 26
is_linear=0
shrinkage=0.1


end of trees

feature_importances:
Column_23=10
Column_16=8
Column_22=8
Column_25=7
Column_1=6
Column_21=5
Column_26=5
Column_15=4
Column_17=4
Column_27=3
Column_28=3
Column_29=3
Column_30=3
Column_5=2
Column_18=2
Column_20=2
Column_10=1
Column_13=1
Column_19=1
Column_24=1

parameters:
[boosting: gbdt]
[objective: binary]
[metric: custom]
[tree_learner: serial]
[device_type: cpu]
[data_sample_strategy: bagging]
[data: ]
[valid: ]
[num_iterations: 10000]
[learning_rate: 0.1]
[num_leaves: 31]
[num_threads: 0]
[seed: 1242]
[deterministic: 0]
[force_col_wise: 0]
[force_row_wise: 0]
[histogram_pool_size: -1]
[max_depth: -1]
[min_data_in_leaf: 10]
[min_sum_hessian_in_leaf: 0.001]
[bagging_fraction: 0.8]
[pos_bagging_fraction: 1]
[neg_bagging_fraction: 1]
[bagging_freq: 0]
[bagging_seed: 20664]
[bagging_by_query: 0]
[feature_fraction: 0.8]
[feature_fraction_bynode: 1]
[feature_fraction_seed: 4656]
[extra_trees: 0]
[extra_seed: 6363]
[early_stopping_round: 0]
[early_stopping_min_delta: 0]
[first_metric_only: 0]
[max_delta_step: 0]
[lambda_l1: 0]
[lambda_l2: 0]
[linear_lambda: 0]
[min_gain_to_split: 0]
[drop_rate: 0.1]
[max_drop: 50]
[skip_drop: 0.5]
[xgboost_dart_mode: 0]
[uniform_drop: 0]
[drop_seed: 24603]
[top_rate: 0.2]
[other_rate: 0.1]
[min_data_per_group: 100]
[max_cat_threshold: 32]
[cat_l2: 10]
[cat_smooth: 10]
[max_cat_to_onehot: 4]
[top_k: 20]
[monotone_constraints: ]
[monotone_constraints_method: basic]
[monotone_penalty: 0]
[feature_contri: ]
[forcedsplits_filename: ]
[refit_decay_rate: 0.9]
[cegb_tradeoff: 1]
[cegb_penalty_split: 0]
[cegb_penalty_feature_lazy: ]
[cegb_penalty_feature_coupled: ]
[path_smooth: 0]
[interaction_constraints: ]
[verbosity: -1]
[saved_feature_importance_type: 0]
[use_quantized_grad: 0]
[num_grad_quant_bins: 4]
[quant_train_renew_leaf: 0]
[stochastic_rounding: 1]
[linear_tree: 0]
[max_bin: 255]
[max_bin_by_feature: ]
[min_data_in_bin: 3]
[bin_construct_sample_cnt: 200000]
[data_random_seed: 4094]
[is_enable_sparse: 1]
[enable_bundle: 1]
[use_missing: 1]
[zero_as_missing: 0]
[feature_pre_filter: 1]
[pre_partition: 0]
[two_round: 0]
[header: 0]
[label_column: ]
[weight_column: ]
[group_column: ]
[ignore_column: ]
[categorical_feature: ]
[forcedbins_filename: ]
[precise_float_parser: 0]
[parser_config_file: ]
[objective_seed: 7268]
[num_class: 1]
[is_unbalance: 0]
[scale_pos_weight: 1]
[sigmoid: 1]
[boost_from_average: 1]
[reg_sqrt: 0]
[alpha: 0.9]
[fair_c: 1]
[poisson_max_delta_step: 0.7]
[tweedie_variance_power: 1.5]
[lambdarank_truncation_level: 30]
[lambdarank_norm: 1]
[label_gain: ]
[lambdarank_position_bias_regularization: 0]
[eval_at: ]
[multi_error_top_k: 1]
[auc_mu_weights: ]
[num_machines: 1]
[local_listen_port: 12400]
[time_out: 120]
[machine_list_filename: ]
[machines: ]
[gpu_platform_id: -1]
[gpu_device_id: -1]
[gpu_use_dp: 0]
[num_gpu: 1]

end of parameters

pandas_categorical:null
