tree
version=v4
num_class=1
num_tree_per_iteration=1
label_index=0
max_feature_idx=14
objective=binary sigmoid:1
feature_names=Column_0 Column_1 Column_2 Column_3 Column_4 Column_5 Column_6 Column_7 Column_8 Column_9 Column_10 Column_11 Column_12 Column_13 Column_14
feature_infos=[0:1] [38:86] [0:1] [0:1] [0:1] [0:1] [0:1] [0:1] [0:1] [0:1] [0:1] [0:1] [0:1] [0:1] [0:1]
tree_sizes=929 997 996 1107 998 1207 995 1208 998 1211 1100 994 1101 1107 998 1005 1099 991 1101 998 992 1101 1103 1106 994 1093 1097 1001 995 1103 1100 995 1092 1202 1209 1203 1206 1201 1205 1308 1209 1312 1208 1092 1094 1196

Tree=0
num_leaves=8
num_cat=0
split_feature=8 5 9 3 1 6 0
split_gain=121.023 47.3161 38.6235 7.66133 2.52691 0.470295 0.38239
threshold=1.0000000180025095e-35 1.0000000180025095e-35 1.0000000180025095e-35 1.0000000180025095e-35 63.500000000000007 1.0000000180025095e-35 1.0000000180025095e-35
decision_type=2 2 2 2 2 2 2
left_child=1 2 5 4 -2 6 -1
right_child=3 -3 -4 -5 -6 -7 -8
leaf_value=-0.086666666666666628 0.068181818181818163 0.037037037037037035 0.027272727272727271 0.10000000000000001 0.03125 -0.082857142857142865 -0.10000000000000001
leaf_weight=7.5000000000000027 11.000000000000002 13.499999999999998 8.2499999999999982 15.499999999999998 7.9999999999999991 8.7499999999999982 19
leaf_count=30 44 54 33 62 32 35 76
internal_value=0 -0.0447368 -0.0701149 0.073913 0.0526316 -0.0929078 -0.0962264
internal_weight=91.5 57 43.5 34.5 19 35.25 26.5
internal_count=366 228 174 138 76 141 106
is_linear=0
shrinkage=0.05


Tree=1
num_leaves=8
num_cat=0
split_feature=8 5 9 3 12 6 0
split_gain=109.397 42.7864 34.9604 6.96462 2.49533 0.428924 0.349007
threshold=1.0000000180025095e-35 1.0000000180025095e-35 1.0000000180025095e-35 1.0000000180025095e-35 1.0000000180025095e-35 1.0000000180025095e-35 1.0000000180025095e-35
decision_type=2 2 2 2 2 2 2
left_child=1 2 5 4 -2 6 -1
right_child=3 -3 -4 -5 -6 -7 -8
leaf_value=-0.082490746707980997 0.028785156165423039 0.035197462211430705 0.025913993245874064 0.095241872246060344 0.065499316920757999 -0.07885183261861492 -0.095241872246060344
leaf_weight=7.485934495925906 7.9943785667419442 13.4953715801239 8.2484662681817991 15.461314707994459 10.990894734859467 8.7349994480609876 18.952579319477081
leaf_count=30 32 54 33 62 44 35 76
internal_value=-4.00109e-07 -0.0425638 -0.0667316 0.0703286 0.0500396 -0.0884578 -0.0916315
internal_weight=91.3639 56.9174 43.422 34.4466 18.9853 35.1735 26.4385
internal_count=366 228 174 138 76 141 106
is_linear=0
shrinkage=0.05


Tree=2
num_leaves=8
num_cat=0
split_feature=8 5 9 5 7 6 0
split_gain=99.1744 38.8297 31.8154 6.7051 3.31064 0.398708 0.325087
threshold=1.0000000180025095e-35 1.0000000180025095e-35 1.0000000180025095e-35 1.0000000180025095e-35 1.0000000180025095e-35 1.0000000180025095e-35 1.0000000180025095e-35
decision_type=2 2 2 2 2 2 2
left_child=1 2 5 4 -2 6 -1
right_child=3 -3 -4 -5 -6 -7 -8
leaf_value=-0.078789859554421693 0.021654006736614495 0.03347050168276821 0.024631428963904557 0.092347946107544626 0.064087527233291239 -0.075279264943448054 -0.091131780775723592
leaf_weight=7.446603029966357 7.4757278859615335 13.482405245304106 8.2441684752702695 14.888996556401251 11.934979930520058 8.6930456757545453 18.820077061653137
leaf_count=30 30 54 33 60 48 35 76
internal_value=-1.87336e-06 -0.0406077 -0.0637249 0.0671064 0.0477449 -0.084561 -0.0876328
internal_weight=90.986 56.6863 43.2039 34.2997 19.4107 34.9597 26.2667
internal_count=366 228 174 138 78 141 106
is_linear=0
shrinkage=0.05


Tree=3
num_leaves=9
num_cat=0
split_feature=8 9 5 3 12 6 0 13
split_gain=90.1206 35.3735 29.7395 6.25431 2.16503 0.376631 0.308063 0.00066947
threshold=1.0000000180025095e-35 1.0000000180025095e-35 1.0000000180025095e-35 1.0000000180025095e-35 1.0000000180025095e-35 1.0000000180025095e-35 1.0000000180025095e-35 1.0000000180025095e-35
decision_type=2 2 2 2 2 2 2 2
left_child=1 2 5 4 -2 6 -1 -5
right_child=3 -3 -4 7 -6 -7 -8 -9
leaf_value=-0.075480743689809185 0.025126941786413282 0.037414414974076153 0.017846345960302094 0.088374011963195248 0.059419430430960943 -0.072065343210802393 -0.087549100739152091 0.087710275549254729
leaf_weight=7.385899722576144 7.9648426473140725 11.977066934108732 9.7228151857852918 7.3689529895782453 10.903304547071457 8.6282833665609342 18.615716159343719 7.8421429991722107
leaf_count=30 32 48 39 30 44 35 76 32
internal_value=-4.31586e-06 -0.0388329 -0.0594229 0.0641757 0.0449435 -0.0811173 -0.084121 0.0880318
internal_weight=90.409 56.3298 44.3527 34.0792 18.8681 34.6299 26.0016 15.2111
internal_count=366 228 180 138 76 141 106 62
is_linear=0
shrinkage=0.05


Tree=4
num_leaves=8
num_cat=0
split_feature=8 5 10 5 7 12 2
split_gain=82.0768 32.6823 27.8107 6.12727 2.89055 0.720712 0.70154
threshold=1.0000000180025095e-35 1.0000000180025095e-35 1.0000000180025095e-35 1.0000000180025095e-35 1.0000000180025095e-35 1.0000000180025095e-35 1.0000000180025095e-35
decision_type=2 2 2 2 2 2 2
left_child=1 2 5 4 -2 -1 -7
right_child=3 -3 -4 -5 -6 6 -8
leaf_value=-0.065789361649071093 0.018563017329261411 0.030724765934588883 0.02923689187819415 0.085953173904833924 0.058380699646812952 -0.090586031209243731 -0.073910192146719095
leaf_weight=9.7145679146051389 7.4382991194725046 13.443748757243155 7.4135856330394736 14.577785342931746 11.770526528358459 11.985651031136513 13.311486154794693
leaf_count=40 30 54 30 60 48 49 55
internal_value=-7.1415e-06 -0.0372102 -0.0587374 0.0615112 0.042962 -0.0773656 -0.0818111
internal_weight=89.6557 55.869 42.4253 33.7866 19.2088 35.0117 25.2971
internal_count=366 228 174 138 78 144 104
is_linear=0
shrinkage=0.05


Tree=5
num_leaves=10
num_cat=0
split_feature=8 9 5 3 1 6 0 13 1
split_gain=74.8406 31.1459 25.0087 5.78391 2.06983 0.429777 0.231822 0.0017954 2.37357e-05
threshold=1.0000000180025095e-35 1.0000000180025095e-35 1.0000000180025095e-35 1.0000000180025095e-35 63.500000000000007 1.0000000180025095e-35 1.0000000180025095e-35 1.0000000180025095e-35 58.500000000000007
decision_type=2 2 2 2 2 2 2 2 2
left_child=1 2 5 4 -2 6 -1 -5 -8
right_child=3 -3 -4 7 -6 -7 8 -9 -10
leaf_value=-0.07135770468050065 0.054819634636670805 0.035834844248272969 0.015470065780652645 0.082983263687914505 0.021115585531731859 -0.065860466669576304 -0.08188112597484154 0.081880805959575434 -0.081996353125885768
leaf_weight=7.2655182927846935 10.756711572408678 11.946280583739279 9.6922143995761854 7.1793161034584028 7.9012431055307379 8.417068734765051 9.9855764508247393 7.6048263013362885 8.0901184380054456
leaf_count=30 44 48 39 30 32 35 42 32 34
internal_value=-8.89448e-06 -0.0356656 -0.055324 0.0590564 0.0405467 -0.0756494 -0.0789008 0.0824162 -0.0819327
internal_weight=88.8389 55.3968 43.4505 33.4421 18.658 33.7583 25.3412 14.7841 18.0757
internal_count=366 228 180 138 76 141 106 62 76
is_linear=0
shrinkage=0.05


Tree=6
num_leaves=8
num_cat=0
split_feature=8 13 0 5 7 6 7
split_gain=68.3866 29.9858 8.48023 5.67401 2.62181 1.80394 1.33499
threshold=1.0000000180025095e-35 1.0000000180025095e-35 1.0000000180025095e-35 1.0000000180025095e-35 1.0000000180025095e-35 1.0000000180025095e-35 1.0000000180025095e-35
decision_type=2 2 2 2 2 2 2
left_child=1 2 -1 4 -2 6 -4
right_child=3 -3 5 -5 -6 -7 -8
leaf_value=-0.0081761253305994118 0.015643202459433497 0.026885923424986836 -0.090645610196033732 0.080787037563189543 0.053786091399453478 -0.049262799018720604 -0.06583754738451221
leaf_weight=7.3664197325706473 7.38742420077324 14.672419279813765 8.6433323621749878 14.11460594832897 11.547248184680939 9.5515153855085355 14.554666802287102
leaf_count=30 30 60 36 60 48 40 62
internal_value=-1.23386e-05 -0.0342775 -0.056648 0.0567916 0.0389045 -0.0675509 -0.0750808
internal_weight=87.8376 54.7884 40.1159 33.0493 18.9347 32.7495 23.198
internal_count=366 228 168 138 78 138 98
is_linear=0
shrinkage=0.05


Tree=7
num_leaves=10
num_cat=0
split_feature=8 9 5 3 1 6 0 13 1
split_gain=62.4546 27.9653 22.7731 5.46405 1.84137 0.430394 0.127685 0.00278132 0.000111195
threshold=1.0000000180025095e-35 1.0000000180025095e-35 1.0000000180025095e-35 1.0000000180025095e-35 63.500000000000007 1.0000000180025095e-35 1.0000000180025095e-35 1.0000000180025095e-35 58.500000000000007
decision_type=2 2 2 2 2 2 2 2 2
left_child=1 2 5 4 -2 6 -1 -5 -8
right_child=3 -3 -4 7 -6 -7 8 -9 -10
leaf_value=-0.06943718679188958 0.050321321840827896 0.034873266818429602 0.015528023572614826 0.078659803175826173 0.018324863829214787 -0.06181490770263063 -0.077245030376868432 0.077261511362960375 -0.077499407662669231
leaf_weight=7.1927403211593655 10.546494722366335 11.912660181522368 9.6885667592287046 6.9355114102363569 7.8385078161954871 8.2082996517419797 9.5884190201759356 7.2988812029361725 7.7833094894886008
leaf_count=30 44 48 39 30 32 35 42 32 34
internal_value=-1.14855e-05 -0.0328249 -0.0518178 0.0546859 0.0366795 -0.0717272 -0.0750394 0.0779428 -0.077359
internal_weight=86.9934 54.374 42.4613 32.6194 18.385 32.7728 24.5645 14.2344 17.3717
internal_count=366 228 180 138 76 141 106 62 76
is_linear=0
shrinkage=0.05


Tree=8
num_leaves=8
num_cat=0
split_feature=8 13 11 5 7 12 2
split_gain=57.2066 26.7932 7.85783 5.35717 2.3955 0.806275 0.166
threshold=1.0000000180025095e-35 1.0000000180025095e-35 1.0000000180025095e-35 1.0000000180025095e-35 1.0000000180025095e-35 1.0000000180025095e-35 1.0000000180025095e-35
decision_type=2 2 2 2 2 2 2
left_child=1 2 5 4 -2 -1 -7
right_child=3 -3 -4 -5 -6 6 -8
leaf_value=-0.053337487814141972 0.013051975854596269 0.026259548309982974 -0.015810859112441799 0.076638421326596512 0.049767625791111311 -0.077165679940461682 -0.06806930823452198
leaf_weight=8.1777127832174319 7.3288270533084878 14.57192577421665 10.348415702581404 13.548652842640875 11.280581340193748 8.6582352221012115 11.920999556779861
leaf_count=34 30 60 43 60 48 38 53
internal_value=-1.52131e-05 -0.0316096 -0.0531735 0.0527212 0.0353081 -0.0666187 -0.0718964
internal_weight=85.8354 53.6773 39.1054 32.1581 18.6094 28.7569 20.5792
internal_count=366 228 168 138 78 125 91
is_linear=0
shrinkage=0.05


Tree=9
num_leaves=10
num_cat=0
split_feature=8 9 5 3 12 6 2 1 13
split_gain=52.3624 24.6891 20.8909 5.23891 1.77443 0.50112 0.092793 0.00467698 0.00349456
threshold=1.0000000180025095e-35 1.0000000180025095e-35 1.0000000180025095e-35 1.0000000180025095e-35 1.0000000180025095e-35 1.0000000180025095e-35 1.0000000180025095e-35 59.500000000000007 1.0000000180025095e-35
decision_type=2 2 2 2 2 2 2 2 2
left_child=1 2 5 4 -2 6 -1 -8 -5
right_child=3 -3 -4 8 -6 -7 7 -9 -10
leaf_value=-0.076263675046060742 0.015118847772114056 0.033220565614938517 0.015665310729018878 0.075133190708952274 0.046786462317380553 -0.05737529693893037 -0.068901560423114475 -0.070644916465032098 0.07353005640821933
leaf_weight=8.0753642618656194 7.7330307811498651 11.870172798633574 9.6817640513181669 6.6555778980255145 10.336061954498291 7.9061523377895346 8.8030753135681135 6.8334305882453927 6.9479986578226089
leaf_count=36 32 48 39 30 44 35 40 30 32
internal_value=-1.55822e-05 -0.0303323 -0.0485983 0.0508781 0.0332337 -0.0682765 -0.0719112 -0.0696634 0.0743144
internal_weight=84.8426 53.17 41.2998 31.6727 18.0691 31.618 23.7119 15.6365 13.6036
internal_count=366 228 180 138 76 141 106 70 62
is_linear=0
shrinkage=0.05


Tree=10
num_leaves=9
num_cat=0
split_feature=8 13 9 5 3 7 1 4
split_gain=48.0478 24.1758 7.16563 5.17744 2.40635 2.13783 0.19467 0.0159675
threshold=1.0000000180025095e-35 1.0000000180025095e-35 1.0000000180025095e-35 1.0000000180025095e-35 1.0000000180025095e-35 1.0000000180025095e-35 60.500000000000007 1.0000000180025095e-35
decision_type=2 2 2 2 2 2 2 2
left_child=1 2 4 5 6 -2 -1 -5
right_child=3 -3 -4 7 -6 -7 -8 -9
leaf_value=-0.063604959672830017 0.010959143096841907 0.025787154647947681 -0.0032861468434048999 0.075118050609980502 -0.036564834566835507 0.045919701337736429 -0.072757496769401644 0.071603631487480918
leaf_weight=11.133334219455724 7.2712696492671975 14.450707837939261 6.7018034011125556 6.4039002954959887 7.979729935526847 10.969638228416443 12.149957582354544 6.5251759439706802
leaf_count=52 30 60 27 29 35 48 54 31
internal_value=-1.92564e-05 -0.0292527 -0.0502027 0.0491397 -0.0602601 0.0319836 -0.068381 0.0733444
internal_weight=83.5855 52.4155 37.9648 31.17 31.263 18.2409 23.2833 12.9291
internal_count=366 228 168 138 141 78 106 60
is_linear=0
shrinkage=0.05


Tree=11
num_leaves=8
num_cat=0
split_feature=8 5 10 2 7 6 7
split_gain=44.0522 22.5551 19.8974 5.1003 2.61398 0.887252 0.898278
threshold=1.0000000180025095e-35 1.0000000180025095e-35 1.0000000180025095e-35 1.0000000180025095e-35 1.0000000180025095e-35 1.0000000180025095e-35 1.0000000180025095e-35
decision_type=2 2 2 2 2 2 2
left_child=1 2 5 -2 -5 6 -1
right_child=3 -3 -4 4 -6 -7 -8
leaf_value=-0.081435618666700696 0.073943913714507467 0.027946411466265 0.026835926608992974 0.0081185032063049948 0.046144416309870206 -0.0506156850804017 -0.061479673208058298
leaf_weight=9.7257171720266342 11.431607559323313 13.328982070088385 7.2940977066755286 7.2666296511888513 11.954347133636475 8.0746344178915042 13.4201999604702
leaf_count=43 53 54 30 31 54 37 64
internal_value=-1.97953e-05 -0.0281144 -0.0475156 0.0474974 0.0317684 -0.0648865 -0.069865
internal_weight=82.4962 51.8436 38.5146 30.6526 19.221 31.2206 23.1459
internal_count=366 228 174 138 85 144 107
is_linear=0
shrinkage=0.05


Tree=12
num_leaves=9
num_cat=0
split_feature=8 13 9 3 3 1 1 13
split_gain=40.4383 21.3674 6.6243 5.13875 2.27703 1.57127 0.194979 0.00276355
threshold=1.0000000180025095e-35 1.0000000180025095e-35 1.0000000180025095e-35 1.0000000180025095e-35 1.0000000180025095e-35 63.500000000000007 60.500000000000007 1.0000000180025095e-35
decision_type=2 2 2 2 2 2 2 2
left_child=1 2 4 5 6 -2 -1 -5
right_child=3 -3 -4 7 -6 -7 -8 -9
leaf_value=-0.060537251558087257 0.041496893420956575 0.024591965657721732 -0.0023139378146728663 0.070971032023647726 -0.03402222502060398 0.011280110863110546 -0.069900569751488159 0.069491656967568399
leaf_weight=10.592384204268461 9.9088713675737399 14.369771629571913 6.6891596913337699 6.2024950981140154 7.7714260667562476 7.6035672128200522 11.702503204345701 6.4288740903139114
leaf_count=52 44 60 27 30 35 32 54 32
internal_value=-2.26038e-05 -0.0271049 -0.0473161 0.0459102 -0.0573282 0.0283773 -0.065452 0.0702181
internal_weight=81.2691 51.1252 36.7555 30.1438 30.0663 17.5124 22.2949 12.6314
internal_count=366 228 168 138 141 76 106 62
is_linear=0
shrinkage=0.05


Tree=13
num_leaves=9
num_cat=0
split_feature=8 5 10 5 7 6 7 4
split_gain=37.115 20.4513 17.6927 5.02617 1.83581 0.927655 0.917763 0.0118798
threshold=1.0000000180025095e-35 1.0000000180025095e-35 1.0000000180025095e-35 1.0000000180025095e-35 1.0000000180025095e-35 1.0000000180025095e-35 1.0000000180025095e-35 1.0000000180025095e-35
decision_type=2 2 2 2 2 2 2 2
left_child=1 2 5 4 -2 6 -1 -5
right_child=3 -3 -4 7 -6 -7 -8 -9
leaf_value=-0.079052360099825913 0.007972843961035897 0.027213809377922595 0.024758237936995647 0.071007728693622471 0.040807922933512458 -0.047163541457937518 -0.058502326803157992 0.067857603901843574
leaf_weight=9.4710091650486028 7.1748867481946954 13.275035768747328 7.2959825843572608 5.9692650735378283 10.467015534639359 7.7402309328317633 12.743299752473831 6.0024802833795547
leaf_count=43 30 54 30 29 48 37 64 31
internal_value=-2.31566e-05 -0.0260734 -0.0450635 0.0444227 0.027454 -0.0620699 -0.0672638 0.0694283
internal_weight=80.1392 50.5256 37.2505 29.6136 17.6419 29.9545 22.2143 11.9717
internal_count=366 228 174 138 78 144 107 60
is_linear=0
shrinkage=0.05


Tree=14
num_leaves=8
num_cat=0
split_feature=9 5 7 8 6 1 4
split_gain=35.3196 21.2489 18.2278 12.8261 0.650701 0.496711 0.106703
threshold=1.0000000180025095e-35 1.0000000180025095e-35 1.0000000180025095e-35 1.0000000180025095e-35 1.0000000180025095e-35 64.500000000000014 1.0000000180025095e-35
decision_type=2 2 2 2 2 2 2
left_child=1 3 -2 4 6 -4 -1
right_child=2 -3 5 -5 -6 -7 -8
leaf_value=-0.062767682442945047 -0.010143396743758045 0.027646592040790514 0.062734417127782424 0.017852497331599847 -0.048699105150637884 0.078608278804232337 -0.069843351792742786
leaf_weight=11.068228706717495 11.186097458004953 12.846595674753187 11.762186467647554 6.1439085602760306 7.0991840213537207 8.4817370474338514 10.274151936173439
leaf_count=58 48 56 55 28 35 38 48
internal_value=-2.56123e-05 -0.0272639 0.0410806 -0.0476601 -0.0618121 0.0693852 -0.0661739
internal_weight=78.8621 47.4321 31.43 34.5855 28.4416 20.2439 21.3424
internal_count=366 225 141 169 141 93 106
is_linear=0
shrinkage=0.05


Tree=15
num_leaves=8
num_cat=0
split_feature=9 5 7 8 6 2 4
split_gain=32.4294 19.6435 17.0084 11.9954 0.632354 0.480952 0.0884015
threshold=1.0000000180025095e-35 1.0000000180025095e-35 1.0000000180025095e-35 1.0000000180025095e-35 1.0000000180025095e-35 1.0000000180025095e-35 1.0000000180025095e-35
decision_type=2 2 2 2 2 2 2
left_child=1 3 -2 4 6 -4 -1
right_child=2 -3 5 -5 -6 -7 -8
leaf_value=-0.061572874393144329 -0.0096203585021103627 0.026409308846282321 0.059488006045673204 0.017067130038939379 -0.047298496120704886 0.075083218599481069 -0.068104819384894086
leaf_weight=10.727514714002613 11.204073503613474 12.77782306075096 9.6501251459121704 6.1062785536050788 6.9478168040513983 10.136975571513176 10.016157597303391
leaf_count=58 48 56 46 28 35 47 48
internal_value=-2.87163e-05 -0.0264006 0.0396047 -0.0463663 -0.0603541 0.0674775 -0.0647268
internal_weight=77.5668 46.5756 30.9912 33.7978 27.6915 19.7871 20.7437
internal_count=366 225 141 169 141 93 106
is_linear=0
shrinkage=0.05


Tree=16
num_leaves=9
num_cat=0
split_feature=8 13 11 3 1 1 1 13
split_gain=30.1205 18.3342 5.3494 5.16229 1.33671 0.677383 1.22873 0.000504775
threshold=1.0000000180025095e-35 1.0000000180025095e-35 1.0000000180025095e-35 1.0000000180025095e-35 63.500000000000007 62.500000000000007 60.500000000000007 1.0000000180025095e-35
decision_type=2 2 2 2 2 2 2 2
left_child=1 2 5 4 -2 6 -1 -5
right_child=3 -3 -4 7 -6 -7 -8 -9
leaf_value=-0.052084673603484205 0.035821903420116159 0.024249481715722405 -0.012444935409120502 0.067094517242198462 0.0073704385122746012 -0.042575239909790549 -0.079877359682472393 0.066431635447490381
leaf_weight=11.891078487038618 9.3317796438932437 13.911955490708349 9.6993945688009244 5.6076446175575274 7.4034780263900748 6.5430648475885382 5.9751095920801154 5.8866413980722427
leaf_count=64 44 60 43 30 32 32 29 32
internal_value=-3.13664e-05 -0.0241259 -0.0438569 0.0409553 0.0232353 -0.0563389 -0.0613796 0.066755
internal_weight=76.2501 48.0206 34.1086 28.2295 16.7353 24.4093 17.8662 11.4943
internal_count=366 228 168 138 76 125 93 62
is_linear=0
shrinkage=0.05


Tree=17
num_leaves=8
num_cat=0
split_feature=9 11 7 3 5 1 1
split_gain=28.2843 18.1479 15.9669 12.0774 9.72933 0.752117 0.483577
threshold=1.0000000180025095e-35 1.0000000180025095e-35 1.0000000180025095e-35 1.0000000180025095e-35 1.0000000180025095e-35 59.500000000000007 64.500000000000014
decision_type=2 2 2 2 2 2 2
left_child=1 3 -2 5 -5 -1 -4
right_child=2 -3 6 4 -6 -7 -8
leaf_value=-0.074707333185011299 -0.010146134314403451 0.039496351267775627 0.058441563361662542 -0.043716777863884844 0.038111161579041417 -0.055982526227538278 0.074580715966395594
leaf_weight=9.774032413959505 11.131253793835642 8.7477950751781446 11.024989679455759 7.7964236140251142 6.80180624127388 11.882376819849013 8.0159181058406812
leaf_count=54 48 42 55 37 31 61 38
internal_value=-3.046e-05 -0.0251431 0.0374256 -0.0407398 -0.00559039 -0.0644335 0.0652359
internal_weight=75.1746 45.0024 30.1722 36.2546 14.5982 21.6564 19.0409
internal_count=366 225 141 183 68 115 93
is_linear=0
shrinkage=0.05


Tree=18
num_leaves=9
num_cat=0
split_feature=8 13 3 0 6 7 1 13
split_gain=26.3079 16.2334 5.03319 5.01756 2.37171 1.76778 1.29233 0.000116003
threshold=1.0000000180025095e-35 1.0000000180025095e-35 1.0000000180025095e-35 1.0000000180025095e-35 1.0000000180025095e-35 1.0000000180025095e-35 63.500000000000007 1.0000000180025095e-35
decision_type=2 2 2 2 2 2 2 2
left_child=1 3 6 -1 5 -5 -2 -4
right_child=2 -3 7 4 -6 -7 -8 -9
leaf_value=-0.0038550849467731615 0.034003893831186981 0.022818912232808557 0.065438935689337244 -0.080350501371953043 -0.028545216831171467 -0.048804235810993461 0.0057901673391628338 0.065112540486524748
leaf_weight=6.860786795616149 9.1217122972011584 13.730457738041876 5.292175233364107 7.4912393093109175 7.6645048260688773 10.906356647610664 7.3125049471855155 5.6057319641113281
leaf_count=30 44 60 30 36 40 62 32 32
internal_value=-3.09367e-05 -0.022852 0.0389224 -0.041899 -0.0519139 -0.0616494 0.02145 0.065271
internal_weight=73.9855 46.6533 27.3321 32.9229 26.0621 18.3976 16.4342 10.8979
internal_count=366 228 138 168 138 98 76 62
is_linear=0
shrinkage=0.05


Tree=19
num_leaves=8
num_cat=0
split_feature=9 11 7 3 5 1 2
split_gain=25.0583 16.8728 14.7226 10.8951 8.9886 0.776544 0.488206
threshold=1.0000000180025095e-35 1.0000000180025095e-35 1.0000000180025095e-35 1.0000000180025095e-35 1.0000000180025095e-35 59.500000000000007 1.0000000180025095e-35
decision_type=2 2 2 2 2 2 2
left_child=1 3 -2 5 -5 -1 -4
right_child=2 -3 6 4 -6 -7 -8
leaf_value=-0.073374885260861625 -0.0098915068498445502 0.038863903071809119 0.054834388526388202 -0.042825880164487101 0.036616761268032261 -0.053910059156583603 0.071176990932283232
leaf_weight=9.2562340945005435 11.041210472583773 8.5605403631925565 8.9031634926795959 7.6568770855665189 6.655624657869339 11.477559328079222 9.3890880197286606
leaf_count=54 48 42 46 37 31 61 47
internal_value=-2.97193e-05 -0.024066 0.0357023 -0.0394374 -0.00588332 -0.0625998 0.0632228
internal_weight=72.9403 43.6068 29.3335 35.0463 14.3125 20.7338 18.2923
internal_count=366 225 141 183 68 115 93
is_linear=0
shrinkage=0.05


Tree=20
num_leaves=8
num_cat=0
split_feature=9 11 7 3 5 1 1
split_gain=23.0265 15.4983 13.8064 10.2366 8.20448 0.770252 0.479601
threshold=1.0000000180025095e-35 1.0000000180025095e-35 1.0000000180025095e-35 1.0000000180025095e-35 1.0000000180025095e-35 59.500000000000007 64.500000000000014
decision_type=2 2 2 2 2 2 2
left_child=1 3 -2 5 -5 -1 -4
right_child=2 -3 6 4 -6 -7 -8
leaf_value=-0.072026874522662418 -0.0093826501241310849 0.037053193664869304 0.05473192736752041 -0.04116132623878821 0.035137657783697755 -0.052373435364005641 0.071345100636899889
leaf_weight=8.9653964340686816 11.057583943009378 8.5307004451751691 10.281092420220377 7.5704264491796476 6.5906804651021957 11.229944258928297 7.5231342017650595
leaf_count=54 48 42 55 37 31 61 38
internal_value=-2.9895e-05 -0.0232666 0.0344986 -0.038244 -0.00565123 -0.0610983 0.0617518
internal_weight=71.749 42.8871 28.8618 34.3564 14.1611 20.1953 17.8042
internal_count=366 225 141 183 68 115 93
is_linear=0
shrinkage=0.05


Tree=21
num_leaves=9
num_cat=0
split_feature=8 13 3 7 1 7 2 13
split_gain=21.9551 13.9664 4.94998 4.6995 2.96284 1.9848 1.67896 1.21749e-05
threshold=1.0000000180025095e-35 1.0000000180025095e-35 1.0000000180025095e-35 1.0000000180025095e-35 62.500000000000007 1.0000000180025095e-35 1.0000000180025095e-35 1.0000000180025095e-35
decision_type=2 2 2 2 2 2 2 2
left_child=1 3 5 -1 6 -2 -5 -4
right_child=2 -3 7 4 -6 -7 -8 -9
leaf_value=-0.066360851930547277 -0.0030354220884054092 0.02139220239320818 0.063686966867993994 -0.05644069440346753 0.0012321322022468906 0.033135014524969315 -0.021139477375532539 0.063796704950939975
leaf_weight=10.812106862664224 6.2133821099996558 13.355778217315672 4.8673330843448639 6.8820360302925128 6.8440172225236884 9.7351056188344955 6.5969210714101791 5.2577297389507294
leaf_count=50 26 60 30 41 36 50 41 32
internal_value=-2.99952e-05 -0.0213806 0.0364018 -0.0397285 -0.0255597 0.0190433 -0.0391634 0.063744
internal_weight=70.5644 44.4909 26.0736 31.1351 20.323 15.9485 13.479 10.1251
internal_count=366 228 138 168 118 76 82 62
is_linear=0
shrinkage=0.05


Tree=22
num_leaves=9
num_cat=0
split_feature=9 5 7 8 6 2 1 2
split_gain=20.4505 14.5718 12.6151 8.56135 0.880299 0.501571 0.177662 0.292253
threshold=1.0000000180025095e-35 1.0000000180025095e-35 1.0000000180025095e-35 1.0000000180025095e-35 1.0000000180025095e-35 1.0000000180025095e-35 60.500000000000007 1.0000000180025095e-35
decision_type=2 2 2 2 2 2 2 2
left_child=1 3 -2 4 6 -4 7 -1
right_child=2 -3 5 -5 -6 -7 -8 -9
leaf_value=-0.065442126350674146 -0.0087943898247306966 0.024021093120167644 0.051146443448227365 0.012823544061325506 -0.037684058474973678 0.06831236435541814 -0.068066914908360296 -0.050246694313758535
leaf_weight=5.680216148495683 10.977740377187731 12.071471199393271 8.3059296309947968 5.8780725300312033 5.8035073429346076 8.7259588241577148 5.0274188369512549 7.143906369805336
leaf_count=33 48 56 46 28 35 47 28 45
internal_value=-2.6847e-05 -0.0222628 0.0330018 -0.0411811 -0.0546008 0.0599411 -0.0601004 -0.0569772
internal_weight=69.6142 41.6046 28.0096 29.5331 23.655 17.0319 17.8515 12.8241
internal_count=366 225 141 169 141 93 106 78
is_linear=0
shrinkage=0.05


Tree=23
num_leaves=9
num_cat=0
split_feature=8 13 3 7 1 7 2 13
split_gain=19.0331 12.6968 4.88774 4.41939 2.69343 1.64319 0.535464 0.00012419
threshold=1.0000000180025095e-35 1.0000000180025095e-35 1.0000000180025095e-35 1.0000000180025095e-35 61.500000000000007 1.0000000180025095e-35 1.0000000180025095e-35 1.0000000180025095e-35
decision_type=2 2 2 2 2 2 2 2
left_child=1 3 5 -1 6 -2 -5 -4
right_child=2 -3 7 4 -6 -7 -8 -9
leaf_value=-0.064200103558225252 -0.0026655888889168563 0.020858123541390133 0.062468055740663969 -0.052896383942259539 -0.0040901270104485429 0.030487694083378175 -0.030261525947846969 0.062828575673427783
leaf_weight=10.525298163294794 6.2160886824131003 13.127415612339972 4.5720441788434982 5.1047455966472643 9.0814636647701246 9.3730476796627045 5.3525398075580597 5.0022255480289459
leaf_count=50 26 60 30 32 50 50 36 32
internal_value=-2.88557e-05 -0.0201673 0.0345376 -0.038081 -0.0240109 0.017268 -0.0413108 0.0626564
internal_weight=68.3549 43.1915 25.1634 30.064 19.5387 15.5891 10.4573 9.57427
internal_count=366 228 138 168 118 76 68 62
is_linear=0
shrinkage=0.05


Tree=24
num_leaves=8
num_cat=0
split_feature=9 11 7 3 5 1 2
split_gain=18.2385 14.1974 11.5663 8.75065 7.15599 0.94354 0.501013
threshold=1.0000000180025095e-35 1.0000000180025095e-35 1.0000000180025095e-35 1.0000000180025095e-35 1.0000000180025095e-35 59.500000000000007 1.0000000180025095e-35
decision_type=2 2 2 2 2 2 2
left_child=1 3 -2 5 -5 -1 -4
right_child=2 -3 6 4 -6 -7 -8
leaf_value=-0.071376639906250219 -0.0082524950179734165 0.037843639235187701 0.049353575807741232 -0.03964719071232304 0.033127746057784527 -0.048663470612461956 0.066901413043939387
leaf_weight=8.0857550501823443 10.891174286603929 8.086511090397833 7.9643114954233178 7.249705567955969 6.3248834609985352 10.523102998733519 8.3137151747941971
leaf_count=54 48 42 46 37 31 61 47
internal_value=-2.54433e-05 -0.0213833 0.0316309 -0.0362648 -0.00573876 -0.0585326 0.0583158
internal_weight=67.4392 40.27 27.1692 32.1834 13.5746 18.6089 16.278
internal_count=366 225 141 183 68 115 93
is_linear=0
shrinkage=0.05


Tree=25
num_leaves=9
num_cat=0
split_feature=13 11 7 5 1 1 1 8
split_gain=17.0814 13.4743 17.922 9.11243 1.37163 1.69748 0.595902 0.164822
threshold=1.0000000180025095e-35 1.0000000180025095e-35 1.0000000180025095e-35 1.0000000180025095e-35 63.500000000000007 57.500000000000007 59.500000000000007 1.0000000180025095e-35
decision_type=2 2 2 2 2 2 2 2
left_child=1 4 -3 -2 5 -1 -7 -5
right_child=3 2 -4 7 -6 6 -8 -9
leaf_value=-0.023901217100331922 0.001055758143356523 -0.034987267562318833 0.056191264370346966 0.07336695509104571 -0.02044819792190837 -0.070241033303543879 -0.049350286161406083 0.061393275822232911
leaf_weight=4.6997106075286927 9.614189624786377 10.651518017053604 10.909224599599838 5.3512759208679199 5.045779660344123 6.1738467365503293 7.6349772363901138 6.2086586356163025
leaf_count=28 45 49 61 25 29 44 43 42
internal_value=-2.54794e-05 -0.0174136 0.0111469 0.0370229 -0.0435568 -0.0498567 -0.0586904 0.0669361
internal_weight=66.2892 45.1151 21.5607 21.1741 23.5543 18.5085 13.8088 11.5599
internal_count=366 254 110 112 144 115 87 67
is_linear=0
shrinkage=0.05


Tree=26
num_leaves=9
num_cat=0
split_feature=8 13 3 7 1 2 1 13
split_gain=16.1892 10.3983 4.622 3.94502 2.22474 1.6948 1.21831 3.19924e-06
threshold=1.0000000180025095e-35 1.0000000180025095e-35 1.0000000180025095e-35 1.0000000180025095e-35 62.500000000000007 1.0000000180025095e-35 63.500000000000007 1.0000000180025095e-35
decision_type=2 2 2 2 2 2 2 2
left_child=1 3 6 -1 5 -5 -2 -4
right_child=2 -3 7 4 -6 -7 -8 -9
leaf_value=-0.060644409484877565 0.028843873206625899 0.018461287133024706 0.061505181612337201 -0.05346407086660853 0.0017649949482480304 -0.015502039621575323 0.00036407825694827211 0.061444858417046257
leaf_weight=10.252442285418512 8.2783547937870008 12.775444343686102 4.220159500837326 5.9789877533912676 6.4376353919506064 5.7845497131347656 6.8725959509611139 4.5869217664003372
leaf_count=50 44 60 30 41 36 41 32 32
internal_value=-1.82045e-05 -0.0190126 0.0326691 -0.0358381 -0.0218651 -0.0347968 0.0159252 0.0614738
internal_weight=65.1871 41.2291 23.958 28.4536 18.2012 11.7635 15.151 8.80708
internal_count=366 228 138 168 118 82 76 62
is_linear=0
shrinkage=0.05


Tree=27
num_leaves=8
num_cat=0
split_feature=5 10 12 13 6 7 8
split_gain=15.4573 20.5965 13.675 8.21767 1.72088 1.29042 0.134501
threshold=1.0000000180025095e-35 1.0000000180025095e-35 1.0000000180025095e-35 1.0000000180025095e-35 1.0000000180025095e-35 1.0000000180025095e-35 1.0000000180025095e-35
decision_type=2 2 2 2 2 2 2
left_child=1 4 -3 -2 5 -1 -5
right_child=3 2 -4 6 -6 -7 -8
leaf_value=-0.069327149400006949 0.0017275559432025954 -0.022241032573548862 0.065068507491967534 0.071339984866097481 -0.027265680975466541 -0.041787408338445908 0.060236339239436547
leaf_weight=7.8639493137598047 9.3951004296541214 8.3980500996112823 9.6246384680271149 5.1648501753807068 8.8378406465053576 9.2648585438728333 5.7788473516702652
leaf_count=43 47 36 50 25 55 68 42
internal_value=-1.62029e-05 -0.016682 0.0243848 0.036029 -0.0451852 -0.0544311 0.0654767
internal_weight=64.3281 43.9893 18.0227 20.3388 25.9666 17.1288 10.9437
internal_count=366 252 86 114 166 111 67
is_linear=0
shrinkage=0.05


Tree=28
num_leaves=8
num_cat=0
split_feature=9 11 7 3 5 1 2
split_gain=14.588 12.5095 9.53411 7.01972 5.7388 1.01752 0.492377
threshold=1.0000000180025095e-35 1.0000000180025095e-35 1.0000000180025095e-35 1.0000000180025095e-35 1.0000000180025095e-35 59.500000000000007 1.0000000180025095e-35
decision_type=2 2 2 2 2 2 2
left_child=1 3 -2 5 -5 -1 -4
right_child=2 -3 6 4 -6 -7 -8
leaf_value=-0.069469966019315987 -0.0069364013743449865 0.037353198221010957 0.045888914885673093 -0.037196644405311195 0.029652688529743482 -0.044811329044123965 0.064100066003154751
leaf_weight=7.2818070799112347 10.62932051718235 7.6412251442670813 7.3436146676540375 6.9886876344680804 5.938467301428318 9.8326141238212568 7.5045885443687439
leaf_count=54 48 42 46 37 31 61 47
internal_value=-9.71356e-06 -0.0197682 0.0292142 -0.0342973 -0.00648745 -0.055303 0.0550932
internal_weight=63.1603 37.6828 25.4775 30.0416 12.9272 17.1144 14.8482
internal_count=366 225 141 183 68 115 93
is_linear=0
shrinkage=0.05


Tree=29
num_leaves=9
num_cat=0
split_feature=8 13 3 7 11 1 6 2
split_gain=13.6382 8.74509 4.51127 3.58348 9.3027 1.17675 0.225774 0.00555502
threshold=1.0000000180025095e-35 1.0000000180025095e-35 1.0000000180025095e-35 1.0000000180025095e-35 1.0000000180025095e-35 63.500000000000007 1.0000000180025095e-35 1.0000000180025095e-35
decision_type=2 2 2 2 2 2 2 2
left_child=1 3 5 -1 6 -2 -5 -4
right_child=2 -3 7 4 -6 -7 -8 -9
leaf_value=-0.057791004489180536 0.0271454206150748 0.01706359433028716 0.059268798736498943 -0.047105906643610793 0.042538618027047247 -0.0012619380562428882 -0.033403489436991715 0.061880859292692207
leaf_weight=9.8844598233699816 7.9658736735582352 12.287001296877859 4.2500836327672005 7.7217736095190066 4.4139806926250449 6.7217519581317902 4.9227078780531883 3.9061920195817947
leaf_count=50 44 60 34 63 20 32 35 28
internal_value=-9.89399e-06 -0.0178941 0.0307027 -0.0338362 -0.0199556 0.0141449 -0.0417713 0.0605198
internal_weight=62.0738 39.2299 22.8439 26.9429 17.0585 14.6876 12.6445 8.15628
internal_count=366 228 138 168 118 76 98 62
is_linear=0
shrinkage=0.05


Tree=30
num_leaves=9
num_cat=0
split_feature=5 10 12 13 14 1 6 8
split_gain=13.0932 17.1485 12.1865 7.50777 2.71329 1.15814 3.20496 0.0998315
threshold=1.0000000180025095e-35 1.0000000180025095e-35 1.0000000180025095e-35 1.0000000180025095e-35 1.0000000180025095e-35 58.500000000000007 1.0000000180025095e-35 1.0000000180025095e-35
decision_type=2 2 2 2 2 2 2 2
left_child=1 4 -3 -2 5 -1 -7 -5
right_child=3 2 -4 7 -6 6 -8 -9
leaf_value=-0.066334869473988631 0.0012534723196522771 -0.021324385865307091 0.062455011805126442 0.06888561672325727 -0.0070243703634888261 -0.063772807653042093 -0.013093679017380747 0.058949800893438598
leaf_weight=7.3709485456347528 9.1518346443772316 8.3565988391637802 9.0317362546920776 4.88168965280056 4.3528152629733077 7.06728847324848 5.5849313214421272 5.243802897632122
leaf_count=55 47 36 50 25 23 49 39 42
internal_value=-9.92856e-06 -0.0157426 0.0221918 0.0340748 -0.0428026 -0.0505804 -0.0414021 0.06374
internal_weight=61.0416 41.7643 17.3883 19.2773 24.376 20.0232 12.6522 10.1255
internal_count=366 252 86 114 166 143 88 67
is_linear=0
shrinkage=0.05


Tree=31
num_leaves=8
num_cat=0
split_feature=9 11 7 3 5 1 1
split_gain=12.0993 11.1662 8.25866 5.85583 4.98712 1.05466 0.522296
threshold=1.0000000180025095e-35 1.0000000180025095e-35 1.0000000180025095e-35 1.0000000180025095e-35 1.0000000180025095e-35 59.500000000000007 64.500000000000014
decision_type=2 2 2 2 2 2 2
left_child=1 3 -2 5 -5 -1 -4
right_child=2 -3 6 4 -6 -7 -8
leaf_value=-0.068096372688387932 -0.0063249724505943994 0.036630957937054093 0.044281946057885956 -0.036000579143621085 0.027457793557300342 -0.041961910249131949 0.063962717440419842
leaf_weight=6.6236225888133058 10.413039818406105 7.2980682030320159 7.9075465425848961 6.7972068041563034 5.6860153079032898 9.2532681152224523 5.8762391954660416
leaf_count=54 48 42 55 37 31 61 38
internal_value=-6.89348e-06 -0.0185251 0.0272829 -0.0327187 -0.00709576 -0.0528649 0.0526722
internal_weight=59.855 35.6582 24.1968 28.3601 12.4832 15.8769 13.7838
internal_count=366 225 141 183 68 115 93
is_linear=0
shrinkage=0.05


Tree=32
num_leaves=9
num_cat=0
split_feature=8 5 9 2 1 6 1 2
split_gain=11.6153 7.28915 7.44842 4.35411 1.50566 1.0976 0.215262 0.390154
threshold=1.0000000180025095e-35 1.0000000180025095e-35 1.0000000180025095e-35 1.0000000180025095e-35 63.500000000000007 1.0000000180025095e-35 60.500000000000007 1.0000000180025095e-35
decision_type=2 2 2 2 2 2 2 2
left_child=1 2 5 -2 -5 6 7 -1
right_child=3 -3 -4 4 -6 -7 -8 -9
leaf_value=-0.061913803903794945 0.061525203606108463 0.016034540697816662 0.012594993898284314 0.02800927445727612 -0.0040332570922581657 -0.027083281558861184 -0.064663556232740393 -0.041965569346121057
leaf_weight=4.5512261092662865 6.9765394255518922 11.486910879611967 6.870947152376174 8.1644343584775907 6.6542140990495691 4.6001478433609 4.2206721007823935 5.3119890987873077
leaf_count=33 53 54 33 49 36 35 28 45
internal_value=-7.02826e-06 -0.0170479 -0.0319185 0.0289548 0.0136208 -0.048288 -0.055214 -0.0511704
internal_weight=58.8371 37.0419 25.555 21.7952 14.8186 18.684 14.0839 9.86322
internal_count=366 228 174 138 85 141 106 78
is_linear=0
shrinkage=0.05


Tree=33
num_leaves=10
num_cat=0
split_feature=1 5 13 10 1 2 7 1 0
split_gain=11.3422 9.87682 8.48841 8.42758 2.62177 1.01298 1.15595 1.02116 0.519245
threshold=68.500000000000014 1.0000000180025095e-35 1.0000000180025095e-35 1.0000000180025095e-35 61.500000000000007 1.0000000180025095e-35 1.0000000180025095e-35 58.500000000000007 1.0000000180025095e-35
decision_type=2 2 2 2 2 2 2 2 2
left_child=1 3 -3 5 -5 6 -1 -7 -2
right_child=8 2 -4 4 -6 7 -8 -9 -10
leaf_value=-0.068899079958667273 0.060633579435297159 -0.013141127586947427 0.062181728427084672 0.028832409401841449 -0.01706011016009595 -0.048878819908254004 -0.036797020150598686 -0.015800448496314814 0.03747800589123737
leaf_weight=6.3526481240987778 4.9667174071073514 7.6304020881652814 7.3367803022265434 6.6289413720369321 5.8659838959574699 4.7126400321722031 5.0203349068760872 4.6208897158503532 4.7235232964158058
leaf_count=35 29 38 53 35 29 35 43 37 32
internal_value=-1.05721e-05 -0.00993987 0.0237815 -0.0251414 0.00728728 -0.0447099 -0.0547284 -0.0325022 0.0493464
internal_weight=57.8589 48.1686 14.9672 33.2014 12.4949 20.7065 11.373 9.33353 9.69024
internal_count=366 305 91 214 64 150 78 72 61
is_linear=0
shrinkage=0.05


Tree=34
num_leaves=10
num_cat=0
split_feature=13 11 7 5 3 12 1 8 1
split_gain=10.567 7.81638 12.1855 6.50268 1.85709 0.713165 0.77441 0.0641109 0.0448262
threshold=1.0000000180025095e-35 1.0000000180025095e-35 1.0000000180025095e-35 1.0000000180025095e-35 1.0000000180025095e-35 1.0000000180025095e-35 59.500000000000007 1.0000000180025095e-35 63.500000000000007
decision_type=2 2 2 2 2 2 2 2 2
left_child=1 4 -3 -2 5 -1 -7 -5 -4
right_child=3 2 8 7 -6 6 -8 -9 -10
leaf_value=-0.027066698829896509 0.0013676478485746236 -0.03036073338526012 0.046113443233188132 0.06589110205583637 -0.0071642453994063895 -0.062431045775524968 -0.036175567204235093 0.057470697098124905 0.053080382505880479
leaf_weight=4.3200688585639009 8.8647121787071228 9.8595175296068192 4.6600679457187653 4.4665668606758118 4.2635992914438239 6.4061207920312881 5.0008962601423264 4.5768134444952011 4.5759301632642746
leaf_count=26 45 49 30 25 24 55 39 42 31
internal_value=-7.39298e-06 -0.0145802 0.00829733 0.0317992 -0.0364333 -0.0443681 -0.0509205 0.0616296 0.0495652
internal_weight=56.9943 39.0862 19.0955 17.9081 19.9907 15.7271 11.407 9.04338 9.236
internal_count=366 254 110 112 144 120 94 67 61
is_linear=0
shrinkage=0.05


Tree=35
num_leaves=10
num_cat=0
split_feature=1 5 13 10 1 2 7 1 0
split_gain=10.2727 8.26909 7.75567 7.43598 2.36902 1.09033 1.12149 0.932661 0.506665
threshold=68.500000000000014 1.0000000180025095e-35 1.0000000180025095e-35 1.0000000180025095e-35 61.500000000000007 1.0000000180025095e-35 1.0000000180025095e-35 58.500000000000007 1.0000000180025095e-35
decision_type=2 2 2 2 2 2 2 2 2
left_child=1 3 -3 5 -5 6 -1 -7 -2
right_child=8 2 -4 4 -6 7 -8 -9 -10
leaf_value=-0.067449754844862209 0.059295948545236635 -0.012759344218956088 0.060814853195180756 0.027445177300806395 -0.016335917585025613 -0.045631241353269625 -0.035063477574944234 -0.013561685740273678 0.036006137667696857
leaf_weight=6.0845639556646347 4.7543260306119901 7.5865367874503118 6.7855386734008789 6.549863860011099 5.8490692898631096 4.5731281563639641 4.7675777897238731 4.4960828796029091 4.5894880890846252
leaf_count=35 29 38 53 35 29 35 43 37 32
internal_value=2.56886e-07 -0.00957646 0.0219775 -0.0236078 0.0067919 -0.0425283 -0.0532218 -0.0297327 0.0478565
internal_weight=56.0362 46.6924 14.3721 32.3203 12.3989 19.9214 10.8521 9.06921 9.34381
internal_count=366 305 91 214 64 150 78 72 61
is_linear=0
shrinkage=0.05


Tree=36
num_leaves=10
num_cat=0
split_feature=8 7 3 3 2 1 1 2 2
split_gain=9.45868 6.38033 13.0572 4.23432 1.5631 1.24253 0.446251 2.35888 0.00862274
threshold=1.0000000180025095e-35 1.0000000180025095e-35 1.0000000180025095e-35 1.0000000180025095e-35 1.0000000180025095e-35 63.500000000000007 65.500000000000014 1.0000000180025095e-35 1.0000000180025095e-35
decision_type=2 2 2 2 2 2 2 2 2
left_child=1 4 6 5 -1 -2 7 -3 -5
right_child=3 2 -4 8 -6 -7 -8 -9 -10
leaf_value=-0.053540149873766756 0.024798264449953249 -0.056585609975768836 0.062199607375432835 0.057265907944607231 -0.021521968590022752 -0.0053634166135347414 -0.011498527623597316 -0.0050784280817759769 0.060819310569088583
leaf_weight=8.8390547931194288 7.3927444368600863 4.6234510913491267 6.3201411664485923 3.4186476767063132 6.7021012157201758 6.345361202955246 3.8769244849681845 4.2811130359768867 3.4103556498885155
leaf_count=48 44 42 34 34 35 32 28 41 28
internal_value=2.97735e-06 -0.0159432 0.00341171 0.0268624 -0.0397324 0.0108672 -0.0256575 -0.0318221 0.0590405
internal_weight=55.2099 34.6428 19.1016 20.5671 15.5412 13.7381 12.7815 8.90456 6.829
internal_count=366 228 145 138 83 76 111 83 62
is_linear=0
shrinkage=0.05


Tree=37
num_leaves=10
num_cat=0
split_feature=1 5 13 10 1 2 7 1 0
split_gain=9.24473 7.29959 7.11595 6.65424 2.18882 0.953599 1.03746 0.882184 0.527512
threshold=68.500000000000014 1.0000000180025095e-35 1.0000000180025095e-35 1.0000000180025095e-35 61.500000000000007 1.0000000180025095e-35 1.0000000180025095e-35 58.500000000000007 1.0000000180025095e-35
decision_type=2 2 2 2 2 2 2 2 2
left_child=1 3 -3 5 -5 6 -1 -7 -2
right_child=8 2 -4 4 -6 7 -8 -9 -10
leaf_value=-0.065603387336512095 0.05805594854559213 -0.011930747722152919 0.059984208260179611 0.026177713243609041 -0.016087318745158105 -0.044752356034909027 -0.03349151613150176 -0.01325284619120839 0.033916620143189614
leaf_weight=5.7118804156780243 4.5797849372029287 7.5112961679697019 6.3459544628858566 6.4602573364973086 5.8256650418043137 4.4628767147660255 4.4943096712231636 4.4282800778746605 4.4742314517498016
leaf_count=35 29 38 53 35 29 35 43 37 32
internal_value=7.73862e-06 -0.00922214 0.0210028 -0.022568 0.00613673 -0.0410346 -0.0514629 -0.0290639 0.046127
internal_weight=54.2945 45.2405 13.8573 31.3833 12.2859 19.0973 10.2062 8.89116 9.05402
internal_count=366 305 91 214 64 150 78 72 61
is_linear=0
shrinkage=0.05


Tree=38
num_leaves=10
num_cat=0
split_feature=11 7 13 3 1 12 1 2 1
split_gain=8.52274 9.66582 5.25919 1.65739 0.981273 0.735961 0.704551 0.609116 0.04214
threshold=1.0000000180025095e-35 1.0000000180025095e-35 1.0000000180025095e-35 1.0000000180025095e-35 63.500000000000007 1.0000000180025095e-35 59.500000000000007 1.0000000180025095e-35 60.500000000000007
decision_type=2 2 2 2 2 2 2 2 2
left_child=2 4 3 5 -2 -1 -7 -3 -4
right_child=1 7 8 -5 -6 6 -8 -9 -10
leaf_value=-0.023727382595552092 0.0032794739293724126 0.040218745739758463 0.0077034277231096075 -0.0058534449900840783 -0.026139975040585035 -0.05990992773015507 -0.034041676249675551 0.062020289977408362 0.014119871970684733
leaf_weight=4.1793062463402757 5.5800868943333626 6.0980134978890419 5.5071961209177989 4.1740035265684119 5.7603711113333702 5.95655557513237 4.7163447961211205 6.750308446586132 4.7796821296215057
leaf_count=26 34 45 35 24 28 55 39 50 30
internal_value=1.01254e-05 0.0219786 -0.0181179 -0.0336907 -0.0116641 -0.0415139 -0.0484788 0.0516729 0.0106848
internal_weight=53.5019 24.1888 29.3131 19.0262 11.3405 14.8522 10.6729 12.8483 10.2869
internal_count=366 157 209 144 62 120 94 95 65
is_linear=0
shrinkage=0.05


Tree=39
num_leaves=11
num_cat=0
split_feature=1 5 13 10 14 1 2 1 0 7
split_gain=8.41795 6.43041 6.68318 5.754 2.41268 1.92924 0.919805 1.62682 0.507407 0.0676066
threshold=68.500000000000014 1.0000000180025095e-35 1.0000000180025095e-35 1.0000000180025095e-35 1.0000000180025095e-35 61.500000000000007 1.0000000180025095e-35 58.500000000000007 1.0000000180025095e-35 1.0000000180025095e-35
decision_type=2 2 2 2 2 2 2 2 2 2
left_child=1 3 -3 4 6 -5 9 -8 -2 -1
right_child=8 2 -4 5 -6 -7 7 -9 -10 -11
leaf_value=-0.065623751807147399 0.056835898797341466 -0.011645513960599143 0.059255548226160061 0.02417985571965927 -0.0027773941307567794 -0.015700129789843222 -0.061202071189539298 -0.014795098171708694 0.032754553037897045 -0.055915511832080426
leaf_weight=3.7355150505900401 4.380333196371792 7.4639789834618551 5.9917683601379395 6.3593901470303553 3.656970188021659 5.7970799431204796 3.47994664311409 4.1294327229261398 4.3694178238511086 3.4490295872092247
leaf_count=24 29 38 53 35 21 29 31 36 32 38
internal_value=1.385e-05 -0.00888151 0.0199263 -0.0215461 -0.0391431 0.00516221 -0.0481325 -0.0360181 0.0448102 -0.0609632
internal_weight=52.8129 44.0631 13.4557 30.6074 18.4509 12.1565 14.7939 7.60938 8.74975 7.18454
internal_count=366 305 91 214 150 64 129 67 61 62
is_linear=0
shrinkage=0.05


Tree=40
num_leaves=10
num_cat=0
split_feature=8 7 3 3 1 2 1 2 2
split_gain=7.85419 5.57038 10.8759 4.04321 1.29285 1.23846 0.295007 2.37986 0.00786523
threshold=1.0000000180025095e-35 1.0000000180025095e-35 1.0000000180025095e-35 1.0000000180025095e-35 63.500000000000007 1.0000000180025095e-35 65.500000000000014 1.0000000180025095e-35 1.0000000180025095e-35
decision_type=2 2 2 2 2 2 2 2 2
left_child=1 5 6 4 -2 -1 7 -3 -5
right_child=3 2 -4 8 -6 -7 -8 -9 -10
leaf_value=-0.050511587864870915 0.02402573862487406 -0.055823363873690149 0.059736040126322346 0.056655235558427844 -0.0072411201250544219 -0.021424651397420804 -0.012154752182374391 -0.0013848970224816693 0.060217427891038344
leaf_weight=8.2636289820075017 7.1446450129151362 4.0853970572352427 5.8429967164993277 3.0716304443776599 6.1536795422434807 6.5683242678642264 3.7943945452570906 3.9474099054932594 3.1272301822900772
leaf_count=48 44 42 34 34 32 35 28 41 28
internal_value=1.32822e-05 -0.0150372 0.00392696 0.0251028 0.00955728 -0.0376305 -0.0236444 -0.0290717 0.0584523
internal_weight=51.9993 32.5022 17.6702 19.4972 13.2983 14.832 11.8272 8.03281 6.19886
internal_count=366 228 145 138 76 83 111 83 62
is_linear=0
shrinkage=0.05


Tree=41
num_leaves=11
num_cat=0
split_feature=1 5 13 10 14 1 2 1 0 3
split_gain=7.60288 5.70299 6.14728 5.18404 2.23233 1.78246 0.857799 1.55903 0.524344 0.0136836
threshold=68.500000000000014 1.0000000180025095e-35 1.0000000180025095e-35 1.0000000180025095e-35 1.0000000180025095e-35 61.500000000000007 1.0000000180025095e-35 58.500000000000007 1.0000000180025095e-35 1.0000000180025095e-35
decision_type=2 2 2 2 2 2 2 2 2 2
left_child=1 3 -3 4 6 -5 9 -8 -2 -1
right_child=8 2 -4 5 -6 -7 7 -9 -10 -11
leaf_value=-0.057690435987269008 0.055738404269718933 -0.010882349365972144 0.058605607259427941 0.023072317600800696 -0.0025651665137631928 -0.015428655022574095 -0.060390941116143626 -0.014379540242870104 0.030878020003275847 -0.062226795854379194
leaf_weight=3.4000468179583567 4.2211256399750692 7.383345499634741 5.5943125002086163 6.2742423415184039 3.5628948658704749 5.7714820057153702 3.3615868240594864 4.0701552703976631 4.2630760446190834 3.2526646181941032
leaf_count=39 29 38 53 35 21 29 31 36 32 23
internal_value=1.77958e-05 -0.0085774 0.019072 -0.0206618 -0.0379223 0.0046253 -0.0468665 -0.0351918 0.0432468 -0.0599084
internal_weight=51.1549 42.6707 12.9777 29.6931 17.6473 12.0457 14.0845 7.43174 8.4842 6.65271
internal_count=366 305 91 214 150 64 129 67 61 62
is_linear=0
shrinkage=0.05


Tree=42
num_leaves=10
num_cat=0
split_feature=11 7 13 3 1 12 1 2 1
split_gain=7.29244 8.23831 3.83703 1.41708 1.12572 0.731649 0.646345 0.619397 0.0219411
threshold=1.0000000180025095e-35 1.0000000180025095e-35 1.0000000180025095e-35 1.0000000180025095e-35 63.500000000000007 1.0000000180025095e-35 59.500000000000007 1.0000000180025095e-35 60.500000000000007
decision_type=2 2 2 2 2 2 2 2 2
left_child=2 4 3 5 -2 -1 -7 -3 -4
right_child=1 7 8 -5 -6 6 -8 -9 -10
leaf_value=-0.020542039333994851 0.0062580128545983021 0.038004875257676395 0.0058504205710252144 -0.004882190749052562 -0.026045756461767856 -0.057259618725227071 -0.031511262269836263 0.060871990172729845 0.01060520772813239
leaf_weight=4.0346363410353669 5.1896460130810738 5.7275874689221382 5.234859377145769 4.0528759956359854 5.6146364584565163 5.4829028695821762 4.3877347633242607 6.1314765550196171 4.5221985802054405
leaf_count=26 34 45 35 24 28 55 39 50 30
internal_value=1.70165e-05 0.0210539 -0.0171853 -0.0308984 -0.0105292 -0.0384812 -0.0458139 0.0498278 0.00805417
internal_weight=50.3786 22.6633 27.7152 17.9581 10.8043 13.9053 9.87064 11.8591 9.75706
internal_count=366 157 209 144 62 120 94 95 65
is_linear=0
shrinkage=0.05


Tree=43
num_leaves=9
num_cat=0
split_feature=1 7 3 10 6 1 1 0
split_gain=6.94459 5.45913 8.48276 14.4249 7.93105 2.44442 1.80038 0.50465
threshold=68.500000000000014 1.0000000180025095e-35 1.0000000180025095e-35 1.0000000180025095e-35 1.0000000180025095e-35 60.500000000000007 59.500000000000007 1.0000000180025095e-35
decision_type=2 2 2 2 2 2 2 2
left_child=1 4 3 6 5 -1 -3 -2
right_child=7 2 -4 -5 -6 -7 -8 -9
leaf_value=-0.02652273980997499 0.054642431457115531 -0.065587781558430799 0.057114141934505175 0.060288651556784346 0.020429010983708317 -0.068264778021181111 -0.023414392843920915 0.029844482048068582
leaf_weight=6.9194075986742991 4.0390042886137945 5.2293931618332881 6.4739378504455081 4.7672821655869475 6.1464458853006354 7.112288810312748 4.9035689607262611 4.1695894300937653
leaf_count=47 29 55 50 38 34 37 44 32
internal_value=2.07719e-05 -0.00828128 0.00932752 -0.0114351 -0.0269338 -0.0476807 -0.0451791 0.0420462
internal_weight=49.7609 41.5523 21.3742 14.9002 20.1781 14.0317 10.133 8.20859
internal_count=366 305 187 137 118 84 99 61
is_linear=0
shrinkage=0.05


Tree=44
num_leaves=9
num_cat=0
split_feature=8 7 3 2 1 2 1 1
split_gain=6.71292 4.73164 8.79798 3.78822 1.66809 1.11897 0.188215 0.000557481
threshold=1.0000000180025095e-35 1.0000000180025095e-35 1.0000000180025095e-35 1.0000000180025095e-35 63.500000000000007 1.0000000180025095e-35 59.500000000000007 66.500000000000014
decision_type=2 2 2 2 2 2 2 2
left_child=1 5 6 -2 -5 -1 -3 -8
right_child=3 2 -4 4 -6 -7 7 -9
leaf_value=-0.04811230557888433 0.059229141325416935 -0.0307160057193262 0.056675248688102614 0.025477594211140188 -0.010458057508898118 -0.019934503617721561 -0.01735817561196485 -0.01646908277174616
leaf_weight=7.8251302838325518 5.3635170720517644 3.8009576275944728 5.3340305536985388 7.1795692890882492 5.8692418299615383 6.4088224321603775 3.5234668701887131 3.5289186611771584
leaf_count=48 53 51 34 49 36 35 33 27
internal_value=2.56033e-05 -0.0143966 0.00409444 0.0238543 0.00931405 -0.0354253 -0.0217471 -0.0169133
internal_weight=48.8337 30.4213 16.1874 18.4123 13.0488 14.234 10.8533 7.05239
internal_count=366 228 145 138 85 83 111 60
is_linear=0
shrinkage=0.05


Tree=45
num_leaves=10
num_cat=0
split_feature=9 11 4 7 3 5 2 1 1
split_gain=6.37006 7.99603 4.88626 5.52184 2.88103 2.2426 1.07376 0.910291 0.032165
threshold=1.0000000180025095e-35 1.0000000180025095e-35 1.0000000180025095e-35 1.0000000180025095e-35 1.0000000180025095e-35 1.0000000180025095e-35 1.0000000180025095e-35 59.500000000000007 62.500000000000007
decision_type=2 2 2 2 2 2 2 2 2
left_child=1 4 3 -2 7 -6 -5 -1 -9
right_child=2 -3 -4 6 5 -7 -8 8 -10
leaf_value=-0.061639165327701445 -0.024143072610379207 0.037931236699906723 0.062883782333246305 0.019187254578021506 -0.029372211010571022 0.017210923184905375 0.05852433152977346 -0.030552554884621316 -0.037014197136824585
leaf_weight=4.7448583953082597 7.1482214629650134 5.7200381010770789 5.3358319550752631 3.539824515581131 5.85978764295578 4.6212104484438896 3.401999406516552 3.8321355432271957 3.8717345371842384
leaf_count=54 33 42 44 33 37 31 31 33 28
internal_value=3.13096e-05 -0.0149555 0.0221342 0.00670255 -0.0281486 -0.00883309 0.0384653 -0.0444109 -0.0338
internal_weight=48.0756 28.6498 19.4259 14.09 22.9297 10.481 6.94182 12.4487 7.70387
internal_count=366 225 141 97 183 68 64 115 61
is_linear=0
shrinkage=0.05


end of trees

feature_importances:
Column_1=70
Column_7=40
Column_5=36
Column_2=32
Column_3=32
Column_8=31
Column_13=31
Column_9=20
Column_6=19
Column_0=14
Column_11=14
Column_10=11
Column_12=10
Column_4=5
Column_14=3

parameters:
[boosting: gbdt]
[objective: binary]
[metric: custom]
[tree_learner: serial]
[device_type: cpu]
[data_sample_strategy: bagging]
[data: ]
[valid: ]
[num_iterations: 10000]
[learning_rate: 0.05]
[num_leaves: 15]
[num_threads: 0]
[seed: 1243]
[deterministic: 0]
[force_col_wise: 0]
[force_row_wise: 0]
[histogram_pool_size: -1]
[max_depth: -1]
[min_data_in_leaf: 30]
[min_sum_hessian_in_leaf: 0.001]
[bagging_fraction: 0.5]
[pos_bagging_fraction: 1]
[neg_bagging_fraction: 1]
[bagging_freq: 0]
[bagging_seed: 31412]
[bagging_by_query: 0]
[feature_fraction: 1]
[feature_fraction_bynode: 1]
[feature_fraction_seed: 28720]
[extra_trees: 0]
[extra_seed: 10290]
[early_stopping_round: 0]
[early_stopping_min_delta: 0]
[first_metric_only: 0]
[max_delta_step: 0]
[lambda_l1: 0]
[lambda_l2: 0]
[linear_lambda: 0]
[min_gain_to_split: 0]
[drop_rate: 0.1]
[max_drop: 50]
[skip_drop: 0.5]
[xgboost_dart_mode: 0]
[uniform_drop: 0]
[drop_seed: 9699]
[top_rate: 0.2]
[other_rate: 0.1]
[min_data_per_group: 100]
[max_cat_threshold: 32]
[cat_l2: 10]
[cat_smooth: 10]
[max_cat_to_onehot: 4]
[top_k: 20]
[monotone_constraints: ]
[monotone_constraints_method: basic]
[monotone_penalty: 0]
[feature_contri: ]
[forcedsplits_filename: ]
[refit_decay_rate: 0.9]
[cegb_tradeoff: 1]
[cegb_penalty_split: 0]
[cegb_penalty_feature_lazy: ]
[cegb_penalty_feature_coupled: ]
[path_smooth: 0]
[interaction_constraints: ]
[verbosity: -1]
[saved_feature_importance_type: 0]
[use_quantized_grad: 0]
[num_grad_quant_bins: 4]
[quant_train_renew_leaf: 0]
[stochastic_rounding: 1]
[linear_tree: 0]
[max_bin: 255]
[max_bin_by_feature: ]
[min_data_in_bin: 3]
[bin_construct_sample_cnt: 200000]
[data_random_seed: 4097]
[is_enable_sparse: 1]
[enable_bundle: 1]
[use_missing: 1]
[zero_as_missing: 0]
[feature_pre_filter: 1]
[pre_partition: 0]
[two_round: 0]
[header: 0]
[label_column: ]
[weight_column: ]
[group_column: ]
[ignore_column: ]
[categorical_feature: ]
[forcedbins_filename: ]
[precise_float_parser: 0]
[parser_config_file: ]
[objective_seed: 17583]
[num_class: 1]
[is_unbalance: 0]
[scale_pos_weight: 1]
[sigmoid: 1]
[boost_from_average: 1]
[reg_sqrt: 0]
[alpha: 0.9]
[fair_c: 1]
[poisson_max_delta_step: 0.7]
[tweedie_variance_power: 1.5]
[lambdarank_truncation_level: 30]
[lambdarank_norm: 1]
[label_gain: ]
[lambdarank_position_bias_regularization: 0]
[eval_at: ]
[multi_error_top_k: 1]
[auc_mu_weights: ]
[num_machines: 1]
[local_listen_port: 12400]
[time_out: 120]
[machine_list_filename: ]
[machines: ]
[gpu_platform_id: -1]
[gpu_device_id: -1]
[gpu_use_dp: 0]
[num_gpu: 1]

end of parameters

pandas_categorical:null
