{"learner":{"attributes":{"best_iteration":"226","best_score":"0.9879227053140096"},"feature_names":[],"feature_types":[],"gradient_booster":{"model":{"gbtree_model_param":{"num_parallel_tree":"1","num_trees":"277"},"iteration_indptr":[0,1,2,3,4,5,6,7,8,9,10,11,12,13,14,15,16,17,18,19,20,21,22,23,24,25,26,27,28,29,30,31,32,33,34,35,36,37,38,39,40,41,42,43,44,45,46,47,48,49,50,51,52,53,54,55,56,57,58,59,60,61,62,63,64,65,66,67,68,69,70,71,72,73,74,75,76,77,78,79,80,81,82,83,84,85,86,87,88,89,90,91,92,93,94,95,96,97,98,99,100,101,102,103,104,105,106,107,108,109,110,111,112,113,114,115,116,117,118,119,120,121,122,123,124,125,126,127,128,129,130,131,132,133,134,135,136,137,138,139,140,141,142,143,144,145,146,147,148,149,150,151,152,153,154,155,156,157,158,159,160,161,162,163,164,165,166,167,168,169,170,171,172,173,174,175,176,177,178,179,180,181,182,183,184,185,186,187,188,189,190,191,192,193,194,195,196,197,198,199,200,201,202,203,204,205,206,207,208,209,210,211,212,213,214,215,216,217,218,219,220,221,222,223,224,225,226,227,228,229,230,231,232,233,234,235,236,237,238,239,240,241,242,243,244,245,246,247,248,249,250,251,252,253,254,255,256,257,258,259,260,261,262,263,264,265,266,267,268,269,270,271,272,273,274,275,276,277],"tree_info":[0,0,0,0,0,0,0,0,0,0,0,0,0,0,0,0,0,0,0,0,0,0,0,0,0,0,0,0,0,0,0,0,0,0,0,0,0,0,0,0,0,0,0,0,0,0,0,0,0,0,0,0,0,0,0,0,0,0,0,0,0,0,0,0,0,0,0,0,0,0,0,0,0,0,0,0,0,0,0,0,0,0,0,0,0,0,0,0,0,0,0,0,0,0,0,0,0,0,0,0,0,0,0,0,0,0,0,0,0,0,0,0,0,0,0,0,0,0,0,0,0,0,0,0,0,0,0,0,0,0,0,0,0,0,0,0,0,0,0,0,0,0,0,0,0,0,0,0,0,0,0,0,0,0,0,0,0,0,0,0,0,0,0,0,0,0,0,0,0,0,0,0,0,0,0,0,0,0,0,0,0,0,0,0,0,0,0,0,0,0,0,0,0,0,0,0,0,0,0,0,0,0,0,0,0,0,0,0,0,0,0,0,0,0,0,0,0,0,0,0,0,0,0,0,0,0,0,0,0,0,0,0,0,0,0,0,0,0,0,0,0,0,0,0,0,0,0,0,0,0,0,0,0,0,0,0,0,0,0,0,0,0,0,0,0,0,0,0,0,0,0,0,0,0,0,0,0],"trees":[{"base_weights":[8.7008506E-2,-8.078631E-1,1.4880308E0,-1.3886652E0,6.71717E-1,1.1096095E0,9.270538E-2,-9.0392575E-2,3.4952757E-1,-6.622593E-1,1.3562206E0,-3.3151854E-2,1.3949201E0,-3.9564288E-1,6.9419764E-2,-7.479607E-2,5.5707157E-2,8.0436426E-1,8.117344E-2,2.0436071E-1,9.0945415E-2,-4.5281373E-2,7.88098E-3,-1.0959785E-2,6.0200136E-2,6.0163748E-2,-2.8376961E-2],"categories":[],"categories_nodes":[],"categories_segments":[],"categories_sizes":[],"default_left":[0,0,0,0,0,0,0,0,0,0,0,0,0,0,0,0,0,0,0,0,0,0,0,0,0,0,0],"id":0,"left_children":[1,3,5,7,9,11,-1,-1,13,15,17,-1,19,21,-1,-1,-1,23,-1,25,-1,-1,-1,-1,-1,-1,-1],"loss_changes":[9.3350975E1,4.0032623E1,1.9600372E0,2.46764E1,1.3225091E1,9.396219E0,0E0,0E0,6.1617403E0,9.44145E0,5.8345795E-2,0E0,7.0737896E0,1.5535128E0,0E0,0E0,0E0,2.30917E0,0E0,4.538192E0,0E0,0E0,0E0,0E0,0E0,0E0,0E0],"parents":[2147483647,0,0,1,1,2,2,3,3,4,4,5,5,8,8,9,9,10,10,12,12,13,13,17,17,19,19],"right_children":[2,4,6,8,10,12,-1,-1,14,16,18,-1,20,22,-1,-1,-1,24,-1,26,-1,-1,-1,-1,-1,-1,-1],"split_conditions":[1E0,1E0,1E0,1E0,1E0,1E0,9.270538E-2,-9.0392575E-2,1E0,1E0,1E0,-3.3151854E-2,1E0,1E0,6.9419764E-2,-7.479607E-2,5.5707157E-2,1E0,8.117344E-2,1E0,9.0945415E-2,-4.5281373E-2,7.88098E-3,-1.0959785E-2,6.0200136E-2,6.0163748E-2,-2.8376961E-2],"split_indices":[8,9,3,5,7,10,0,0,7,10,4,0,7,3,0,0,0,10,0,14,0,0,0,0,0,0,0],"split_type":[0,0,0,0,0,0,0,0,0,0,0,0,0,0,0,0,0,0,0,0,0,0,0,0,0,0,0],"sum_hessian":[7.249946E1,4.4499664E1,2.799979E1,3.199976E1,1.2499907E1,1.5749882E1,1.2249908E1,2.5749807E1,6.2499533E0,4.249968E0,8.249938E0,1.999985E0,1.3749897E1,3.99997E0,2.249983E0,2.9999776E0,1.2499906E0,3.99997E0,4.249968E0,3.99997E0,9.749927E0,1.7499869E0,2.249983E0,1.2499906E0,2.7499793E0,1.4999888E0,2.4999812E0],"tree_param":{"num_deleted":"0","num_feature":"15","num_nodes":"27","size_leaf_vector":"1"}},{"base_weights":[-1.7451467E-2,-8.316291E-1,1.3448656E0,-1.3517249E0,8.847429E-1,9.141764E-1,8.8142924E-2,-1.6489298E0,4.3282914E-1,-1.800861E-1,8.249428E-2,-4.4236954E-2,1.2131833E0,-7.425817E-1,-8.798717E-2,-6.0677707E-2,7.2779275E-2,-8.400904E-1,3.250501E-2,1.8943682E-1,8.522966E-2,-5.3863715E-2,1.159894E-3,-5.4166026E-2,-1.1178659E-2,-3.2692183E-2,6.3524984E-2],"categories":[],"categories_nodes":[],"categories_segments":[],"categories_sizes":[],"default_left":[0,0,0,0,0,0,0,0,0,0,0,0,0,0,0,0,0,0,0,0,0,0,0,0,0,0,0],"id":1,"left_children":[1,3,5,7,9,11,-1,13,15,17,-1,-1,19,21,-1,-1,-1,23,-1,25,-1,-1,-1,-1,-1,-1,-1],"loss_changes":[7.918569E1,4.107417E1,3.1970863E0,1.9106945E1,9.253721E0,9.266936E0,0E0,1.6999207E0,1.1437022E1,3.558644E0,0E0,0E0,6.460369E0,1.3042982E0,0E0,0E0,0E0,2.825222E-1,0E0,5.8430233E0,0E0,0E0,0E0,0E0,0E0,0E0,0E0],"parents":[2147483647,0,0,1,1,2,2,3,3,4,4,5,5,7,7,8,8,9,9,12,12,13,13,17,17,19,19],"right_children":[2,4,6,8,10,12,-1,14,16,18,-1,-1,20,22,-1,-1,-1,24,-1,26,-1,-1,-1,-1,-1,-1,-1],"split_conditions":[1E0,1E0,1E0,1E0,1E0,1E0,8.8142924E-2,1E0,1E0,1E0,8.249428E-2,-4.4236954E-2,1E0,1E0,-8.798717E-2,-6.0677707E-2,7.2779275E-2,1E0,3.250501E-2,1E0,8.522966E-2,-5.3863715E-2,1.159894E-3,-5.4166026E-2,-1.1178659E-2,-3.2692183E-2,6.3524984E-2],"split_indices":[8,5,3,10,13,10,0,0,12,7,0,0,7,7,0,0,0,2,0,6,0,0,0,0,0,0,0],"split_type":[0,0,0,0,0,0,0,0,0,0,0,0,0,0,0,0,0,0,0,0,0,0,0,0,0,0,0],"sum_hessian":[6.938362E1,4.3672596E1,2.5711021E1,3.3679478E1,9.993117E0,1.42328825E1,1.1478139E1,2.8936335E1,4.7431455E0,4.498002E0,5.4951153E0,1.7493484E0,1.2483534E1,3.99143E0,2.4944904E1,1.7459874E0,2.997158E0,2.4991941E0,1.9988079E0,4.498135E0,7.985399E0,2.4944391E0,1.496991E0,1.249196E0,1.2499981E0,2.7489824E0,1.7491529E0],"tree_param":{"num_deleted":"0","num_feature":"15","num_nodes":"27","size_leaf_vector":"1"}},{"base_weights":[-5.199545E-2,-7.483557E-1,1.2185334E0,-1.1712124E0,5.023502E-1,7.5211746E-1,8.454747E-2,-7.953828E-2,-4.3848786E-1,-6.602548E-1,1.1941668E0,-7.9898447E-1,1.1201746E0,-1.1884539E0,7.639178E-2,-7.0432596E-2,5.21512E-2,5.9647906E-1,7.466679E-2,-5.3306557E-2,-8.81976E-3,6.658624E-3,8.155283E-2,-7.8508735E-2,5.164769E-2,-1.1837568E-2,4.954194E-2,-8.1655693E-1,5.784737E-2,-9.760733E-3,-5.3741504E-2],"categories":[],"categories_nodes":[],"categories_segments":[],"categories_sizes":[],"default_left":[0,0,0,0,0,0,0,0,0,0,0,0,0,0,0,0,0,0,0,0,0,0,0,0,0,0,0,0,0,0,0],"id":2,"left_children":[1,3,5,7,9,11,-1,-1,13,15,17,19,21,23,-1,-1,-1,25,-1,-1,-1,27,-1,-1,-1,-1,-1,29,-1,-1,-1],"loss_changes":[6.642476E1,2.621255E1,4.5884857E0,1.0525963E1,1.1197705E1,9.563584E0,0E0,0E0,2.3454803E1,8.444681E0,6.237316E-1,3.9335632E-1,7.2073145E0,1.1106165E1,0E0,0E0,0E0,1.7100872E0,0E0,0E0,0E0,5.6743746E0,0E0,0E0,0E0,0E0,0E0,3.514397E-1,0E0,0E0,0E0],"parents":[2147483647,0,0,1,1,2,2,3,3,4,4,5,5,8,8,9,9,10,10,11,11,12,12,13,13,17,17,21,21,27,27],"right_children":[2,4,6,8,10,12,-1,-1,14,16,18,20,22,24,-1,-1,-1,26,-1,-1,-1,28,-1,-1,-1,-1,-1,30,-1,-1,-1],"split_conditions":[1E0,1E0,1E0,1E0,1E0,1E0,8.454747E-2,-7.953828E-2,1E0,1E0,1E0,5.8E1,1E0,1E0,7.639178E-2,-7.0432596E-2,5.21512E-2,1E0,7.466679E-2,-5.3306557E-2,-8.81976E-3,1E0,8.155283E-2,-7.8508735E-2,5.164769E-2,-1.1837568E-2,4.954194E-2,6.7E1,5.784737E-2,-9.760733E-3,-5.3741504E-2],"split_indices":[8,9,3,3,7,10,0,0,6,10,4,1,7,7,0,0,0,10,0,0,0,6,0,0,0,0,0,1,0,0,0],"split_type":[0,0,0,0,0,0,0,0,0,0,0,0,0,0,0,0,0,0,0,0,0,0,0,0,0,0,0,0,0,0,0],"sum_hessian":[7.3047104E1,4.7450886E1,2.5596222E1,3.5509037E1,1.1941849E1,1.4184218E1,1.1412003E1,2.1835278E1,1.36737585E1,4.472085E0,7.469764E0,2.4957159E0,1.1688502E1,1.01848135E1,3.4889452E0,3.2271125E0,1.2449723E0,3.4903789E0,3.9793851E0,1.2478579E0,1.2478579E0,3.9947019E0,7.6938004E0,8.941493E0,1.2433202E0,1.2496624E0,2.2407165E0,2.4974825E0,1.4972194E0,1.2488643E0,1.2486182E0],"tree_param":{"num_deleted":"0","num_feature":"15","num_nodes":"31","size_leaf_vector":"1"}},{"base_weights":[6.1901484E-2,-6.4671046E-1,1.164514E0,-1.1304842E0,7.3042506E-1,7.5151646E-1,8.163607E-2,-1.5390121E0,7.6791215E-1,-5.444793E-1,1.3960246E0,-5.3207487E-2,1.1281049E0,-7.9630665E-2,-3.1397313E-2,-3.834449E-2,7.281689E-2,-5.2310925E-2,1.8748539E-2,1.8357748E-2,7.823215E-2,2.251856E-2,8.02671E-2,5.8310397E-2,-3.4909874E-2],"categories":[],"categories_nodes":[],"categories_segments":[],"categories_sizes":[],"default_left":[0,0,0,0,0,0,0,0,0,0,0,0,0,0,0,0,0,0,0,0,0,0,0,0,0],"id":3,"left_children":[1,3,5,7,9,11,-1,13,15,17,19,-1,21,-1,-1,-1,-1,-1,-1,-1,-1,23,-1,-1,-1],"loss_changes":[5.8214558E1,3.1081438E1,4.405773E0,2.7550674E1,1.1293953E1,1.30501995E1,0E0,3.825302E-1,8.18354E0,2.6884532E0,8.8911057E-1,0E0,7.793127E0,0E0,0E0,0E0,0E0,0E0,0E0,0E0,0E0,5.3380585E0,0E0,0E0,0E0],"parents":[2147483647,0,0,1,1,2,2,3,3,4,4,5,5,7,7,8,8,9,9,10,10,12,12,21,21],"right_children":[2,4,6,8,10,12,-1,14,16,18,20,-1,22,-1,-1,-1,-1,-1,-1,-1,-1,24,-1,-1,-1],"split_conditions":[1E0,1E0,1E0,1E0,1E0,1E0,8.163607E-2,1E0,1E0,1E0,1E0,-5.3207487E-2,1E0,-7.9630665E-2,-3.1397313E-2,-3.834449E-2,7.281689E-2,-5.2310925E-2,1.8748539E-2,1.8357748E-2,7.823215E-2,1E0,8.02671E-2,5.8310397E-2,-3.4909874E-2],"split_indices":[8,5,3,10,3,10,0,14,9,0,4,0,7,0,0,0,0,0,0,0,0,14,0,0,0],"split_type":[0,0,0,0,0,0,0,0,0,0,0,0,0,0,0,0,0,0,0,0,0,0,0,0,0],"sum_hessian":[7.254366E1,4.441385E1,2.8129814E1,3.300029E1,1.1413562E1,1.6330269E1,1.1799544E1,2.731213E1,5.6881595E0,3.9773078E0,7.436254E0,2.4916036E0,1.3838666E1,2.5088036E1,2.2240937E0,1.726054E0,3.9621058E0,2.4839532E0,1.4933546E0,1.4945138E0,5.9417405E0,4.4882326E0,9.350433E0,1.4960531E0,2.9921796E0],"tree_param":{"num_deleted":"0","num_feature":"15","num_nodes":"25","size_leaf_vector":"1"}},{"base_weights":[5.1593583E-2,-6.174979E-1,1.2002826E0,-1.0958383E0,8.49638E-1,8.155063E-1,7.915921E-2,-1.4763305E0,7.5754833E-1,-3.756719E-1,1.3716744E0,1.22334264E-1,1.1150652E0,-7.891044E-2,-2.604906E-2,-3.220609E-2,6.285074E-2,-4.4179663E-2,1.9075518E-2,2.4394983E-2,7.594665E-2,5.7736404E-2,-2.8679043E-2,-1.7811751E-1,7.781939E-2,-5.1013052E-2,3.302745E-2],"categories":[],"categories_nodes":[],"categories_segments":[],"categories_sizes":[],"default_left":[0,0,0,0,0,0,0,0,0,0,0,0,0,0,0,0,0,0,0,0,0,0,0,0,0,0,0],"id":4,"left_children":[1,3,5,7,9,11,-1,13,15,17,19,21,23,-1,-1,-1,-1,-1,-1,-1,-1,-1,-1,25,-1,-1,-1],"loss_changes":[5.825182E1,3.4578453E1,2.8168373E0,2.6924026E1,8.416131E0,3.1795673E0,0E0,2.1657639E0,5.635908E0,2.0582082E0,4.1413116E-1,4.931432E0,6.57065E0,0E0,0E0,0E0,0E0,0E0,0E0,0E0,0E0,0E0,0E0,3.2893336E0,0E0,0E0,0E0],"parents":[2147483647,0,0,1,1,2,2,3,3,4,4,5,5,7,7,8,8,9,9,10,10,11,11,12,12,23,23],"right_children":[2,4,6,8,10,12,-1,14,16,18,20,22,24,-1,-1,-1,-1,-1,-1,-1,-1,-1,-1,26,-1,-1,-1],"split_conditions":[1E0,1E0,1E0,1E0,1E0,1E0,7.915921E-2,1E0,1E0,1E0,1E0,1E0,1E0,-7.891044E-2,-2.604906E-2,-3.220609E-2,6.285074E-2,-4.4179663E-2,1.9075518E-2,2.4394983E-2,7.594665E-2,5.7736404E-2,-2.8679043E-2,1E0,7.781939E-2,-5.1013052E-2,3.302745E-2],"split_indices":[8,5,5,10,3,12,0,13,12,0,4,14,11,0,0,0,0,0,0,0,0,0,0,14,0,0,0],"split_type":[0,0,0,0,0,0,0,0,0,0,0,0,0,0,0,0,0,0,0,0,0,0,0,0,0,0,0],"sum_hessian":[7.382733E1,4.694507E1,2.6882261E1,3.559339E1,1.135168E1,1.4969386E1,1.1912875E1,2.9699627E1,5.8937635E0,3.475187E0,7.8764925E0,4.942031E0,1.0027355E1,2.6248518E1,3.451108E0,1.4723207E0,4.4214425E0,1.9800267E0,1.4951603E0,1.7410105E0,6.135482E0,1.7244724E0,3.2175584E0,2.7030778E0,7.3242774E0,1.2407031E0,1.4623746E0],"tree_param":{"num_deleted":"0","num_feature":"15","num_nodes":"27","size_leaf_vector":"1"}},{"base_weights":[1.1009525E-2,-6.181237E-1,9.8038274E-1,-1.2150348E0,1.0740991E0,4.581E-1,7.544989E-2,-1.4595562E0,2.0628428E-1,6.720456E-2,7.477791E-2,4.15596E-2,6.828083E-2,-4.2895093E-3,-7.706456E-2,-3.5845708E-2,5.371393E-2,-1.8732784E-2,2.620097E-2,9.94838E-1,-4.397267E-1,6.0451146E-2,1.1760123E-2,-5.5893846E-2,4.157295E-1,-2.3552088E-2,5.481114E-2],"categories":[],"categories_nodes":[],"categories_segments":[],"categories_sizes":[],"default_left":[0,0,0,0,0,0,0,0,0,0,0,0,0,0,0,0,0,0,0,0,0,0,0,0,0,0,0],"id":5,"left_children":[1,3,5,7,9,11,-1,13,15,17,-1,19,-1,-1,-1,-1,-1,-1,-1,21,23,-1,-1,-1,25,-1,-1],"loss_changes":[4.590815E1,4.742642E1,7.4870644E0,1.2195007E1,5.177312E0,6.1186676E0,0E0,3.1603355E0,5.497695E0,1.1484022E0,0E0,6.047854E0,0E0,0E0,0E0,0E0,0E0,0E0,0E0,4.3300104E-1,5.5810833E0,0E0,0E0,0E0,3.3095636E0,0E0,0E0],"parents":[2147483647,0,0,1,1,2,2,3,3,4,4,5,5,7,7,8,8,9,9,11,11,19,19,20,20,24,24],"right_children":[2,4,6,8,10,12,-1,14,16,18,-1,20,-1,-1,-1,-1,-1,-1,-1,22,24,-1,-1,-1,26,-1,-1],"split_conditions":[1E0,1E0,1E0,1E0,1E0,1E0,7.544989E-2,1E0,1E0,6.4E1,7.477791E-2,6.1E1,6.828083E-2,-4.2895093E-3,-7.706456E-2,-3.5845708E-2,5.371393E-2,-1.8732784E-2,2.620097E-2,5.9E1,1E0,6.0451146E-2,1.1760123E-2,-5.5893846E-2,1E0,-2.3552088E-2,5.481114E-2],"split_indices":[10,5,12,14,4,0,0,0,12,1,0,1,0,0,0,0,0,0,0,1,13,0,0,0,5,0,0],"split_type":[0,0,0,0,0,0,0,0,0,0,0,0,0,0,0,0,0,0,0,0,0,0,0,0,0,0,0],"sum_hessian":[7.3282265E1,4.4659885E1,2.8622381E1,3.32229E1,1.1436986E1,1.5336349E1,1.3286033E1,2.8323303E1,4.8995967E0,3.7167861E0,7.7202E0,1.1228419E1,4.107929E0,1.7056184E0,2.6617685E1,2.458642E0,2.4409544E0,1.9807407E0,1.7360455E0,3.409071E0,7.819349E0,2.1978016E0,1.2112694E0,4.190573E0,3.6287756E0,1.7092258E0,1.9195498E0],"tree_param":{"num_deleted":"0","num_feature":"15","num_nodes":"27","size_leaf_vector":"1"}},{"base_weights":[-3.4914806E-2,-6.741393E-1,1.1514841E0,-1.1348269E0,5.177559E-1,8.0768234E-1,7.49961E-2,-1.3425238E-1,-1.3229839E0,-3.0371177E-1,7.232486E-2,-3.16766E-2,1.092635E0,-9.0003115E-1,3.855309E-2,-7.119532E-2,-6.7241967E-1,-9.069134E-1,4.978244E-2,1.861098E-1,7.245702E-2,-5.4280408E-2,-1.6523441E-2,-9.380414E-3,-4.7048133E-2,-6.115372E-2,-3.9865986E-1,5.3005856E-2,-4.8885837E-1,-6.840569E-3,-2.3310425E-2,1.1493722E-2,-4.953494E-2],"categories":[],"categories_nodes":[],"categories_segments":[],"categories_sizes":[],"default_left":[0,0,0,0,0,0,0,0,0,0,0,0,0,0,0,0,0,0,0,0,0,0,0,0,0,0,0,0,0,0,0,0,0],"id":6,"left_children":[1,3,5,7,9,11,-1,13,15,17,-1,-1,19,21,-1,-1,23,25,-1,27,-1,-1,-1,-1,-1,-1,29,-1,31,-1,-1,-1,-1],"loss_changes":[5.804927E1,2.7882103E1,2.0004578E0,6.6309433E0,1.1535282E1,7.124503E0,0E0,5.434026E0,1.0337296E0,7.5996428E0,0E0,0E0,4.0751686E0,8.152127E-2,0E0,0E0,6.004162E-1,5.341635E-1,0E0,3.433725E0,0E0,0E0,0E0,0E0,0E0,0E0,5.5888295E-3,0E0,1.4803996E0,0E0,0E0,0E0,0E0],"parents":[2147483647,0,0,1,1,2,2,3,3,4,4,5,5,7,7,8,8,9,9,12,12,13,13,16,16,17,17,19,19,26,26,28,28],"right_children":[2,4,6,8,10,12,-1,14,16,18,-1,-1,20,22,-1,-1,24,26,-1,28,-1,-1,-1,-1,-1,-1,30,-1,32,-1,-1,-1,-1],"split_conditions":[1E0,1E0,1E0,1E0,1E0,1E0,7.49961E-2,1E0,1E0,1E0,7.232486E-2,-3.16766E-2,1E0,6.4E1,3.855309E-2,-7.119532E-2,1E0,1E0,4.978244E-2,1E0,7.245702E-2,-5.4280408E-2,-1.6523441E-2,-9.380414E-3,-4.7048133E-2,-6.115372E-2,6.1E1,5.3005856E-2,6.5E1,-6.840569E-3,-2.3310425E-2,1.1493722E-2,-4.953494E-2],"split_indices":[8,13,3,0,7,10,0,9,4,6,0,0,7,1,0,0,11,10,0,14,0,0,0,0,0,0,1,0,1,0,0,0,0],"split_type":[0,0,0,0,0,0,0,0,0,0,0,0,0,0,0,0,0,0,0,0,0,0,0,0,0,0,0,0,0,0,0,0,0],"sum_hessian":[7.4520676E1,4.870857E1,2.5812105E1,3.5164703E1,1.3543867E1,1.4662602E1,1.1149503E1,5.837225E0,2.9327477E1,7.544114E0,5.9997525E0,2.2185385E0,1.2444064E1,3.1654766E0,2.6717484E0,2.4359797E1,4.967681E0,5.358548E0,2.1855657E0,3.9420986E0,8.5019655E0,1.7041761E0,1.4613004E0,2.3762882E0,2.5913928E0,2.436493E0,2.9220555E0,1.4691273E0,2.4729714E0,1.2196246E0,1.7024308E0,1.239584E0,1.2333875E0],"tree_param":{"num_deleted":"0","num_feature":"15","num_nodes":"33","size_leaf_vector":"1"}},{"base_weights":[-3.5671342E-2,-6.68972E-1,1.0358256E0,-1.040159E0,4.7704563E-1,5.604644E-1,7.395237E-2,-1.3252376E0,4.334094E-1,-5.4832363E-1,1.0479934E0,-4.7987457E-2,9.18892E-1,-7.079315E-2,-1.9737529E-2,-3.9913397E-2,5.4878723E-2,-4.9657036E-2,1.6436312E-2,5.6356047E-3,6.828658E-2,1.7758773E-1,6.994347E-2,5.8238357E-2,-7.146062E-1,-5.638615E-2,6.208971E-3],"categories":[],"categories_nodes":[],"categories_segments":[],"categories_sizes":[],"default_left":[0,0,0,0,0,0,0,0,0,0,0,0,0,0,0,0,0,0,0,0,0,0,0,0,0,0,0],"id":7,"left_children":[1,3,5,7,9,11,-1,13,15,17,19,-1,21,-1,-1,-1,-1,-1,-1,-1,-1,23,-1,-1,25,-1,-1],"loss_changes":[5.2554035E1,2.1188177E1,5.2353973E0,1.6141216E1,7.9429536E0,9.326677E0,0E0,2.0801582E0,6.406477E0,2.338794E0,2.350648E0,0E0,4.3956633E0,0E0,0E0,0E0,0E0,0E0,0E0,0E0,0E0,6.3591447E0,0E0,0E0,1.4969525E0,0E0,0E0],"parents":[2147483647,0,0,1,1,2,2,3,3,4,4,5,5,7,7,8,8,9,9,10,10,12,12,21,21,24,24],"right_children":[2,4,6,8,10,12,-1,14,16,18,20,-1,22,-1,-1,-1,-1,-1,-1,-1,-1,24,-1,-1,26,-1,-1],"split_conditions":[1E0,1E0,1E0,1E0,1E0,1E0,7.395237E-2,1E0,1E0,1E0,1E0,-4.7987457E-2,1E0,-7.079315E-2,-1.9737529E-2,-3.9913397E-2,5.4878723E-2,-4.9657036E-2,1.6436312E-2,5.6356047E-3,6.828658E-2,6.3E1,6.994347E-2,5.8238357E-2,6.8E1,-5.638615E-2,6.208971E-3],"split_indices":[8,5,3,10,3,10,0,14,9,0,4,0,12,0,0,0,0,0,0,0,0,1,0,0,1,0,0],"split_type":[0,0,0,0,0,0,0,0,0,0,0,0,0,0,0,0,0,0,0,0,0,0,0,0,0,0,0],"sum_hessian":[7.542594E1,4.7642715E1,2.7783224E1,3.6056606E1,1.1586108E1,1.44982195E1,1.3285005E1,3.0296135E1,5.7604733E0,4.1581254E0,7.427983E0,2.446045E0,1.2052175E1,2.7131964E1,3.1641712E0,1.947315E0,3.813158E0,2.671065E0,1.4870605E0,2.2271035E0,5.200879E0,5.2750616E0,6.7771125E0,2.3591933E0,2.9158685E0,1.722859E0,1.1930095E0],"tree_param":{"num_deleted":"0","num_feature":"15","num_nodes":"27","size_leaf_vector":"1"}},{"base_weights":[3.642987E-2,-5.937624E-1,1.0673543E0,-1.0313987E0,6.1553776E-1,7.244186E-1,7.1137875E-2,-1.2331854E0,3.277805E-1,-2.041614E-1,6.821454E-2,-7.7308804E-2,1.0659235E0,-6.968518E-2,-1.1706979E-1,-4.467413E-2,4.698694E-2,-6.7658424E-1,3.8640223E-2,5.141663E-2,-3.5417836E-2,-3.0713579E-2,6.913426E-2,9.300123E-3,-1.7928893E-2,-4.925309E-2,-1.427193E-2],"categories":[],"categories_nodes":[],"categories_segments":[],"categories_sizes":[],"default_left":[0,0,0,0,0,0,0,0,0,0,0,0,0,0,0,0,0,0,0,0,0,0,0,0,0,0,0],"id":8,"left_children":[1,3,5,7,9,11,-1,13,15,17,-1,19,21,-1,23,-1,-1,25,-1,-1,-1,-1,-1,-1,-1,-1,-1],"loss_changes":[4.6172287E1,2.3997469E1,2.2539444E0,9.396694E0,7.8624167E0,4.3953886E0,0E0,4.9892387E0,4.5977407E0,3.6468818E0,0E0,4.6621256E0,6.7648077E0,0E0,4.1127703E-1,0E0,0E0,3.336625E-1,0E0,0E0,0E0,0E0,0E0,0E0,0E0,0E0,0E0],"parents":[2147483647,0,0,1,1,2,2,3,3,4,4,5,5,7,7,8,8,9,9,11,11,12,12,14,14,17,17],"right_children":[2,4,6,8,10,12,-1,14,16,18,-1,20,22,-1,24,-1,-1,26,-1,-1,-1,-1,-1,-1,-1,-1,-1],"split_conditions":[1E0,1E0,1E0,1E0,1E0,1E0,7.1137875E-2,1E0,1E0,1E0,6.821454E-2,1E0,1E0,-6.968518E-2,1E0,-4.467413E-2,4.698694E-2,1E0,3.8640223E-2,5.141663E-2,-3.5417836E-2,-3.0713579E-2,6.913426E-2,9.300123E-3,-1.7928893E-2,-4.925309E-2,-1.427193E-2],"split_indices":[8,13,3,10,7,7,0,5,7,6,0,14,10,0,2,0,0,10,0,0,0,0,0,0,0,0,0],"split_type":[0,0,0,0,0,0,0,0,0,0,0,0,0,0,0,0,0,0,0,0,0,0,0,0,0,0,0],"sum_hessian":[6.909373E1,4.3144215E1,2.594951E1,3.1787628E1,1.1356584E1,1.4752663E1,1.1196849E1,2.7759142E1,4.0284863E0,5.768661E0,5.587923E0,4.637993E0,1.011467E1,2.4051395E1,3.7077467E0,1.1912045E0,2.8372817E0,4.0956345E0,1.6730263E0,1.4565134E0,3.1814792E0,1.4554296E0,8.659241E0,1.7462187E0,1.9615281E0,1.4408804E0,2.6547542E0],"tree_param":{"num_deleted":"0","num_feature":"15","num_nodes":"27","size_leaf_vector":"1"}},{"base_weights":[6.879608E-3,-5.5714434E-1,9.991452E-1,-1.0357054E0,5.6843376E-1,6.348774E-1,6.889902E-2,-1.1831396E0,1.4912711E-1,-2.7687877E-1,6.813594E-2,-1.7995211E-1,9.014542E-1,-1.2959964E0,-2.4353328E-1,3.3159994E-2,-1.5929345E-2,-4.9864214E-2,4.762348E-2,-4.6002146E-2,4.423369E-2,-1.7583133E-1,6.896414E-2,-1.0216939E-2,-6.763036E-2,-5.0430924E-2,3.0854976E-2,4.7416262E-2,-4.479399E-2],"categories":[],"categories_nodes":[],"categories_segments":[],"categories_sizes":[],"default_left":[0,0,0,0,0,0,0,0,0,0,0,0,0,0,0,0,0,0,0,0,0,0,0,0,0,0,0,0,0],"id":9,"left_children":[1,3,5,7,9,11,-1,13,15,17,-1,19,21,23,25,-1,-1,-1,-1,-1,-1,27,-1,-1,-1,-1,-1,-1,-1],"loss_changes":[3.957017E1,2.4875423E1,2.6608772E0,5.764759E0,9.841984E0,3.4022632E0,0E0,2.7131882E0,1.2760252E0,7.733838E0,0E0,4.3679376E0,6.1137047E0,1.285183E0,3.4499617E0,0E0,0E0,0E0,0E0,0E0,0E0,4.4042616E0,0E0,0E0,0E0,0E0,0E0,0E0,0E0],"parents":[2147483647,0,0,1,1,2,2,3,3,4,4,5,5,7,7,8,8,9,9,11,11,12,12,13,13,14,14,21,21],"right_children":[2,4,6,8,10,12,-1,14,16,18,-1,20,22,24,26,-1,-1,-1,-1,-1,-1,28,-1,-1,-1,-1,-1,-1,-1],"split_conditions":[1E0,1E0,1E0,1E0,1E0,1E0,6.889902E-2,1E0,1E0,1E0,6.813594E-2,1E0,1E0,1E0,1E0,3.3159994E-2,-1.5929345E-2,-4.9864214E-2,4.762348E-2,-4.6002146E-2,4.423369E-2,5.9E1,6.896414E-2,-1.0216939E-2,-6.763036E-2,-5.0430924E-2,3.0854976E-2,4.7416262E-2,-4.479399E-2],"split_indices":[8,13,5,14,5,11,0,10,0,12,0,4,12,0,7,0,0,0,0,0,0,1,0,0,0,0,0,0,0],"split_type":[0,0,0,0,0,0,0,0,0,0,0,0,0,0,0,0,0,0,0,0,0,0,0,0,0,0,0,0,0],"sum_hessian":[6.87091E1,4.408742E1,2.4621675E1,3.0990896E1,1.3096527E1,1.3916331E1,1.0705343E1,2.7562586E1,3.42831E0,6.660038E0,6.436489E0,3.5106103E0,1.0405722E1,2.4268393E1,3.2941933E0,1.4341024E0,1.9942074E0,4.3182735E0,2.3417642E0,2.1510687E0,1.3595417E0,3.3914862E0,7.014235E0,1.4237096E0,2.2844683E1,1.6528728E0,1.6413205E0,1.2003859E0,2.1911001E0],"tree_param":{"num_deleted":"0","num_feature":"15","num_nodes":"29","size_leaf_vector":"1"}},{"base_weights":[-1.9609304E-2,-6.447439E-1,8.8974655E-1,-1.0741456E0,8.483478E-1,3.2361957E-1,6.674343E-2,-1.2543862E0,7.67518E-2,6.058622E-2,-1.5322278E-1,5.8378328E-2,1.5279141E-2,-1.3269095E0,-2.1056248E-2,-3.0758047E-2,4.9710162E-2,-1.7718693E-2,5.702674E-3,-3.2015917E-1,5.2826505E-2,-2.0715492E-2,-6.80499E-2,-9.5070994E-1,4.510878E-1,-1.602888E-2,-5.9608728E-2,-1.041721E-2,4.8812076E-2],"categories":[],"categories_nodes":[],"categories_segments":[],"categories_sizes":[],"default_left":[0,0,0,0,0,0,0,0,0,0,0,0,0,0,0,0,0,0,0,0,0,0,0,0,0,0,0,0,0],"id":10,"left_children":[1,3,5,7,9,11,-1,13,15,-1,17,-1,19,21,-1,-1,-1,-1,-1,23,-1,-1,-1,25,27,-1,-1,-1,-1],"loss_changes":[3.8063984E1,2.6340147E1,6.4442883E0,6.577633E0,3.6131563E0,3.4512143E0,0E0,1.0771713E0,3.8953846E0,0E0,2.229366E-1,0E0,4.1024284E0,1.9641113E-1,0E0,0E0,0E0,0E0,0E0,4.766073E0,0E0,0E0,0E0,4.1338396E-1,1.8275373E0,0E0,0E0,0E0,0E0],"parents":[2147483647,0,0,1,1,2,2,3,3,4,4,5,5,7,7,8,8,10,10,12,12,13,13,19,19,23,23,24,24],"right_children":[2,4,6,8,10,12,-1,14,16,-1,18,-1,20,22,-1,-1,-1,-1,-1,24,-1,-1,-1,26,28,-1,-1,-1,-1],"split_conditions":[1E0,1E0,1E0,1E0,1E0,5.9E1,6.674343E-2,1E0,6E1,6.058622E-2,6.4E1,5.8378328E-2,7E1,5.7E1,-2.1056248E-2,-3.0758047E-2,4.9710162E-2,-1.7718693E-2,5.702674E-3,1E0,5.2826505E-2,-2.0715492E-2,-6.80499E-2,1E0,1E0,-1.602888E-2,-5.9608728E-2,-1.041721E-2,4.8812076E-2],"split_indices":[10,5,7,8,14,1,0,13,1,0,1,0,1,1,0,0,0,0,0,13,0,0,0,9,5,0,0,0,0],"split_type":[0,0,0,0,0,0,0,0,0,0,0,0,0,0,0,0,0,0,0,0,0,0,0,0,0,0,0,0,0],"sum_hessian":[6.494955E1,3.8662254E1,2.628729E1,3.0244703E1,8.417554E0,1.2331083E1,1.3956208E1,2.607172E1,4.1729817E0,6.0226655E0,2.3948877E0,2.554003E0,9.777081E0,2.3439247E1,2.632474E0,2.5667272E0,1.6062548E0,1.1805439E0,1.2143439E0,7.918625E0,1.8584553E0,1.3176562E0,2.2121592E1,4.228679E0,3.689946E0,1.8163424E0,2.4123366E0,1.90328E0,1.7866659E0],"tree_param":{"num_deleted":"0","num_feature":"15","num_nodes":"29","size_leaf_vector":"1"}},{"base_weights":[2.8251588E-2,-5.3316903E-1,7.968494E-1,-9.1977274E-1,6.638408E-1,2.2340383E-1,6.499869E-2,-1.113833E0,3.100149E-1,-3.1828785E-1,6.363399E-2,-3.906525E-1,7.364723E-1,-6.803721E-2,-5.946551E-1,-1.5394749E-2,3.6227543E-2,-5.398209E-2,3.6074664E-2,-7.6921344E-1,4.3403115E-2,1.2705292E-1,5.9902348E-2,-5.3514022E-2,5.102223E-2,8.38463E-3,-5.102658E-2,4.4854432E-2,-2.2781292E-2],"categories":[],"categories_nodes":[],"categories_segments":[],"categories_sizes":[],"default_left":[0,0,0,0,0,0,0,0,0,0,0,0,0,0,0,0,0,0,0,0,0,0,0,0,0,0,0,0,0],"id":11,"left_children":[1,3,5,7,9,11,-1,13,15,17,-1,19,21,-1,23,-1,-1,-1,-1,25,-1,27,-1,-1,-1,-1,-1,-1,-1],"loss_changes":[2.9224092E1,1.8736217E1,7.9533863E0,7.510874E0,6.4700212E0,4.875179E0,0E0,2.5430946E0,1.471661E0,4.484958E0,0E0,4.1373973E0,2.1767144E0,0E0,8.931143E0,0E0,0E0,0E0,0E0,1.6140807E0,0E0,2.5116546E0,0E0,0E0,0E0,0E0,0E0,0E0,0E0],"parents":[2147483647,0,0,1,1,2,2,3,3,4,4,5,5,7,7,8,8,9,9,11,11,12,12,14,14,19,19,21,21],"right_children":[2,4,6,8,10,12,-1,14,16,18,-1,20,22,-1,24,-1,-1,-1,-1,26,-1,28,-1,-1,-1,-1,-1,-1,-1],"split_conditions":[1E0,1E0,1E0,1E0,1E0,1E0,6.499869E-2,1E0,6E1,1E0,6.363399E-2,7E1,1E0,-6.803721E-2,1E0,-1.5394749E-2,3.6227543E-2,-5.398209E-2,3.6074664E-2,6.2E1,4.3403115E-2,1E0,5.9902348E-2,-5.3514022E-2,5.102223E-2,8.38463E-3,-5.102658E-2,4.4854432E-2,-2.2781292E-2],"split_indices":[10,13,7,14,7,13,0,6,1,0,0,1,6,0,3,0,0,0,0,1,0,2,0,0,0,0,0,0,0],"split_type":[0,0,0,0,0,0,0,0,0,0,0,0,0,0,0,0,0,0,0,0,0,0,0,0,0,0,0,0,0],"sum_hessian":[6.574112E1,3.8167824E1,2.7573294E1,2.902507E1,9.142752E0,1.3560962E1,1.4012332E1,2.51506E1,3.8744712E0,3.681417E0,5.4613347E0,6.2815742E0,7.279388E0,1.5946016E1,9.204583E0,1.6589234E0,2.2155478E0,2.1031222E0,1.5782948E0,5.1281595E0,1.1534144E0,3.686863E0,3.5925248E0,7.371194E0,1.8333899E0,1.1550218E0,3.9731379E0,1.3556792E0,2.331184E0],"tree_param":{"num_deleted":"0","num_feature":"15","num_nodes":"29","size_leaf_vector":"1"}},{"base_weights":[4.5409687E-2,-4.7576946E-1,8.7612236E-1,-8.449491E-1,5.258503E-1,6.589823E-2,5.562205E-1,-6.0079504E-2,1.7058602E-1,-1.4517604E-1,6.0950965E-2,-1.906362E-1,8.073314E-1,5.3931385E-2,-4.640899E-2,-6.990935E-1,3.2558944E-2,-5.4353625E-2,4.5575544E-2,2.9523712E-1,6.0580935E-2,-4.999133E-2,-1.2906182E-2,-2.5648823E-1,4.968928E-2,4.705081E-2,-5.469802E-2],"categories":[],"categories_nodes":[],"categories_segments":[],"categories_sizes":[],"default_left":[0,0,0,0,0,0,0,0,0,0,0,0,0,0,0,0,0,0,0,0,0,0,0,0,0,0,0],"id":12,"left_children":[1,3,5,7,9,-1,11,-1,13,15,-1,17,19,-1,-1,21,-1,-1,-1,23,-1,-1,-1,25,-1,-1,-1],"loss_changes":[2.7437101E1,1.4864779E1,2.7174644E0,1.066424E1,5.3488626E0,0E0,3.1340036E0,0E0,9.3635645E0,3.3416183E0,0E0,5.740502E0,2.1438365E0,0E0,0E0,3.176489E-1,0E0,0E0,0E0,2.818954E0,0E0,0E0,0E0,5.5543313E0,0E0,0E0,0E0],"parents":[2147483647,0,0,1,1,2,2,3,3,4,4,6,6,8,8,9,9,11,11,12,12,15,15,19,19,23,23],"right_children":[2,4,6,8,10,-1,12,-1,14,16,-1,18,20,-1,-1,22,-1,-1,-1,24,-1,-1,-1,26,-1,-1,-1],"split_conditions":[1E0,1E0,1E0,1E0,1E0,6.589823E-2,1E0,-6.0079504E-2,1E0,1E0,6.0950965E-2,1E0,1E0,5.3931385E-2,-4.640899E-2,1E0,3.2558944E-2,-5.4353625E-2,4.5575544E-2,1E0,6.0580935E-2,-4.999133E-2,-1.2906182E-2,1E0,4.968928E-2,4.705081E-2,-5.469802E-2],"split_indices":[8,5,2,9,13,0,10,0,0,7,0,3,12,0,0,6,0,0,0,13,0,0,0,14,0,0,0],"split_type":[0,0,0,0,0,0,0,0,0,0,0,0,0,0,0,0,0,0,0,0,0,0,0,0,0,0,0],"sum_hessian":[6.1409657E1,3.7997658E1,2.3411999E1,2.787853E1,1.0119125E1,8.521862E0,1.4890137E1,2.0497059E1,7.3814716E0,5.543383E0,4.5757427E0,3.8072886E0,1.1082849E1,4.0515327E0,3.3299387E0,3.3413715E0,2.2020116E0,2.1071258E0,1.7001629E0,5.652863E0,5.4299855E0,1.2330915E0,2.10828E0,3.511918E0,2.140945E0,1.394409E0,2.1175091E0],"tree_param":{"num_deleted":"0","num_feature":"15","num_nodes":"27","size_leaf_vector":"1"}},{"base_weights":[4.8572123E-2,-4.899937E-1,9.6030194E-1,-8.97873E-1,7.1549165E-1,6.4006954E-1,6.458368E-2,-1.2098467E0,4.2277136E-1,-2.517258E-1,5.6034375E-2,-3.5310376E-2,8.927236E-1,-6.410882E-2,-4.9693185E-1,-3.426371E-2,9.8040485E-1,-3.3950802E-2,1.55008705E-2,1.7710245E-1,6.1351586E-2,-3.3636164E-2,-1.935854E-3,1.4472834E-2,5.5033483E-2,4.945287E-2,-3.9229894E-1,-4.8767403E-2,2.5024673E-2],"categories":[],"categories_nodes":[],"categories_segments":[],"categories_sizes":[],"default_left":[0,0,0,0,0,0,0,0,0,0,0,0,0,0,0,0,0,0,0,0,0,0,0,0,0,0,0,0,0],"id":13,"left_children":[1,3,5,7,9,11,-1,13,15,17,-1,-1,19,-1,21,-1,23,-1,-1,25,-1,-1,-1,-1,-1,-1,27,-1,-1],"loss_changes":[3.2641933E1,2.1220001E1,1.7909241E0,1.3577713E1,4.6467853E0,5.571772E0,0E0,6.990204E-1,4.8741593E0,1.1957395E0,0E0,0E0,2.8146458E0,0E0,2.9773885E-1,0E0,9.1542244E-2,0E0,0E0,2.7939696E0,0E0,0E0,0E0,0E0,0E0,0E0,2.453149E0,0E0,0E0],"parents":[2147483647,0,0,1,1,2,2,3,3,4,4,5,5,7,7,8,8,9,9,12,12,14,14,16,16,19,19,26,26],"right_children":[2,4,6,8,10,12,-1,14,16,18,-1,-1,20,-1,22,-1,24,-1,-1,26,-1,-1,-1,-1,-1,-1,28,-1,-1],"split_conditions":[1E0,1E0,1E0,1E0,1E0,1E0,6.458368E-2,1E0,1E0,1E0,5.6034375E-2,-3.5310376E-2,1E0,-6.410882E-2,6E1,-3.426371E-2,5.9E1,-3.3950802E-2,1.55008705E-2,6.3E1,6.1351586E-2,-3.3636164E-2,-1.935854E-3,1.4472834E-2,5.5033483E-2,4.945287E-2,6.9E1,-4.8767403E-2,2.5024673E-2],"split_indices":[8,5,3,10,3,10,0,13,9,0,0,0,7,0,1,0,1,0,0,1,0,0,0,0,0,0,1,0,0],"split_type":[0,0,0,0,0,0,0,0,0,0,0,0,0,0,0,0,0,0,0,0,0,0,0,0,0,0,0,0,0],"sum_hessian":[6.4518654E1,4.085051E1,2.3668144E1,3.071364E1,1.01368685E1,1.3527225E1,1.0140919E1,2.4912497E1,5.8011436E0,3.104668E0,7.0322003E0,1.8538352E0,1.1673389E1,2.1892834E1,3.0196636E0,1.8654683E0,3.9356756E0,1.6447909E0,1.4598769E0,4.2040153E0,7.4693737E0,1.8440608E0,1.1756028E0,1.0885484E0,2.8471272E0,1.4291142E0,2.774901E0,1.6227046E0,1.1521963E0],"tree_param":{"num_deleted":"0","num_feature":"15","num_nodes":"29","size_leaf_vector":"1"}},{"base_weights":[-4.5858375E-3,-4.861189E-1,8.4361243E-1,-8.716159E-1,5.334553E-1,4.067988E-1,6.3338324E-2,-6.2461823E-2,3.202463E-1,7.2609913E-3,5.9474964E-2,-4.0924463E-2,7.5334734E-1,-2.4435033E-1,5.427279E-2,-6.8004864E-1,4.2092845E-2,-1.366501E-1,6.046459E-2,-7.319256E-1,3.400789E-2,-4.821236E-2,-1.8491596E-3,-4.0948477E-2,3.9947495E-2,-4.9762677E-2,-1.29851075E-2],"categories":[],"categories_nodes":[],"categories_segments":[],"categories_sizes":[],"default_left":[0,0,0,0,0,0,0,0,0,0,0,0,0,0,0,0,0,0,0,0,0,0,0,0,0,0,0],"id":14,"left_children":[1,3,5,7,9,11,-1,-1,13,15,-1,-1,17,19,-1,21,-1,23,-1,25,-1,-1,-1,-1,-1,-1,-1],"loss_changes":[2.6015255E1,1.6431599E1,3.748497E0,1.383803E1,4.052976E0,6.0618205E0,0E0,0E0,3.7127388E0,4.8948617E0,0E0,0E0,4.432985E0,2.9355764E0,0E0,8.2062626E-1,0E0,3.5022466E0,0E0,2.4170923E-1,0E0,0E0,0E0,0E0,0E0,0E0,0E0],"parents":[2147483647,0,0,1,1,2,2,3,3,4,4,5,5,8,8,9,9,12,12,13,13,15,15,17,17,19,19],"right_children":[2,4,6,8,10,12,-1,-1,14,16,-1,-1,18,20,-1,22,-1,24,-1,26,-1,-1,-1,-1,-1,-1,-1],"split_conditions":[1E0,1E0,1E0,1E0,1E0,1E0,6.3338324E-2,-6.2461823E-2,1E0,1E0,5.9474964E-2,-4.0924463E-2,1E0,6.4E1,5.427279E-2,1E0,4.2092845E-2,1E0,6.046459E-2,1E0,3.400789E-2,-4.821236E-2,-1.8491596E-3,-4.0948477E-2,3.9947495E-2,-4.9762677E-2,-1.29851075E-2],"split_indices":[8,9,3,5,4,10,0,0,7,10,0,0,12,1,0,14,0,5,0,4,0,0,0,0,0,0,0],"split_type":[0,0,0,0,0,0,0,0,0,0,0,0,0,0,0,0,0,0,0,0,0,0,0,0,0,0,0],"sum_hessian":[6.1690823E1,3.962314E1,2.2067684E1,2.885739E1,1.0765747E1,1.1823679E1,1.0244005E1,2.187769E1,6.9796996E0,6.5351534E0,4.230594E0,2.3065615E0,9.5171175E0,4.4080048E0,2.571695E0,3.6853533E0,2.8498E0,3.461198E0,6.0559196E0,3.0223558E0,1.3856487E0,2.2094479E0,1.4759055E0,2.073606E0,1.3875921E0,1.2292782E0,1.7930777E0],"tree_param":{"num_deleted":"0","num_feature":"15","num_nodes":"27","size_leaf_vector":"1"}},{"base_weights":[5.7417963E-2,-4.8028362E-1,9.4860303E-1,-8.0042094E-1,4.9840134E-1,6.212468E-1,6.1911147E-2,8.165602E-3,-5.604138E-2,-5.931366E-1,1.0285444E0,4.395772E-2,8.545812E-1,-6.312846E-1,4.540685E-2,-4.447273E-2,-3.5761911E-3,1.8652597E-2,5.8112323E-2,-4.391158E-1,4.115016E-2,-2.2904683E-2,5.937127E-2,-4.674909E-2,6.737766E-3,3.9096936E-3,-4.0764302E-2],"categories":[],"categories_nodes":[],"categories_segments":[],"categories_sizes":[],"default_left":[0,0,0,0,0,0,0,0,0,0,0,0,0,0,0,0,0,0,0,0,0,0,0,0,0,0,0],"id":15,"left_children":[1,3,5,7,9,11,-1,13,-1,15,17,19,21,23,-1,-1,-1,-1,-1,25,-1,-1,-1,-1,-1,-1,-1],"loss_changes":[2.8650555E1,1.2104648E1,1.3618298E0,7.402136E0,6.295581E0,1.6540551E0,0E0,5.805169E0,0E0,5.308595E-1,1.7806053E-1,2.1185367E0,4.4277964E0,1.4997108E0,0E0,0E0,0E0,0E0,0E0,7.514696E-1,0E0,0E0,0E0,0E0,0E0,0E0,0E0],"parents":[2147483647,0,0,1,1,2,2,3,3,4,4,5,5,7,7,9,9,10,10,11,11,12,12,13,13,19,19],"right_children":[2,4,6,8,10,12,-1,14,-1,16,18,20,22,24,-1,-1,-1,-1,-1,26,-1,-1,-1,-1,-1,-1,-1],"split_conditions":[1E0,1E0,1E0,1E0,1E0,1E0,6.1911147E-2,1E0,-5.604138E-2,1E0,1E0,1E0,1E0,1E0,4.540685E-2,-4.447273E-2,-3.5761911E-3,1.8652597E-2,5.8112323E-2,6.7E1,4.115016E-2,-2.2904683E-2,5.937127E-2,-4.674909E-2,6.737766E-3,3.9096936E-3,-4.0764302E-2],"split_indices":[8,5,3,0,3,7,0,12,0,14,4,6,14,7,0,0,0,0,0,1,0,0,0,0,0,0,0],"split_type":[0,0,0,0,0,0,0,0,0,0,0,0,0,0,0,0,0,0,0,0,0,0,0,0,0,0,0],"sum_hessian":[5.7838585E1,3.6361027E1,2.1477558E1,2.7535912E1,8.825116E0,1.1558299E1,9.91926E0,8.091217E0,1.9444695E1,2.8461707E0,5.9789453E0,3.6690774E0,7.889221E0,4.904797E0,3.18642E0,1.3653443E0,1.4808264E0,1.6550428E0,4.3239026E0,2.534078E0,1.1349996E0,1.5196618E0,6.36956E0,3.3544023E0,1.5503949E0,1.4003907E0,1.133687E0],"tree_param":{"num_deleted":"0","num_feature":"15","num_nodes":"27","size_leaf_vector":"1"}},{"base_weights":[-3.755932E-2,-5.0864726E-1,8.74595E-1,-8.7431055E-1,6.344311E-1,5.6218016E-1,6.0013562E-2,2.5162566E-4,-1.185201E0,-2.6927376E-1,5.5070248E-2,4.4179805E-2,8.1483346E-1,-4.17453E-2,4.8724405E-2,-6.273406E-2,-5.665367E-1,-3.8272586E-2,2.0659214E-2,4.815395E-2,-5.6591296E-1,-1.702802E-2,5.390681E-2,-3.940513E-2,-7.041037E-3,-4.3942858E-2,-5.343187E-4],"categories":[],"categories_nodes":[],"categories_segments":[],"categories_sizes":[],"default_left":[0,0,0,0,0,0,0,0,0,0,0,0,0,0,0,0,0,0,0,0,0,0,0,0,0,0,0],"id":16,"left_children":[1,3,5,7,9,11,-1,13,15,17,-1,19,21,-1,-1,-1,23,-1,-1,-1,25,-1,-1,-1,-1,-1,-1],"loss_changes":[2.5888018E1,1.7139275E1,1.4143839E0,8.288099E0,4.5993257E0,1.5817287E0,0E0,8.131325E0,2.5582314E-1,1.7646124E0,0E0,3.4096224E0,2.8773198E0,0E0,0E0,0E0,2.7516663E-1,0E0,0E0,0E0,6.33634E-1,0E0,0E0,0E0,0E0,0E0,0E0],"parents":[2147483647,0,0,1,1,2,2,3,3,4,4,5,5,7,7,8,8,9,9,11,11,12,12,16,16,20,20],"right_children":[2,4,6,8,10,12,-1,14,16,18,-1,20,22,-1,-1,-1,24,-1,-1,-1,26,-1,-1,-1,-1,-1,-1],"split_conditions":[1E0,1E0,1E0,1E0,1E0,1E0,6.0013562E-2,1E0,1E0,6.4E1,5.5070248E-2,6.3E1,1E0,-4.17453E-2,4.8724405E-2,-6.273406E-2,1E0,-3.8272586E-2,2.0659214E-2,4.815395E-2,6.8E1,-1.702802E-2,5.390681E-2,-3.940513E-2,-7.041037E-3,-4.3942858E-2,-5.343187E-4],"split_indices":[8,5,3,0,3,7,0,9,4,1,0,1,14,0,0,0,2,0,0,0,1,0,0,0,0,0,0],"split_type":[0,0,0,0,0,0,0,0,0,0,0,0,0,0,0,0,0,0,0,0,0,0,0,0,0,0,0],"sum_hessian":[5.8210773E1,3.8677765E1,1.953301E1,2.948184E1,9.195923E0,1.1360909E1,8.172102E0,7.993793E0,2.1488047E1,3.277176E0,5.918747E0,4.1097627E0,7.2511463E0,4.381121E0,3.6126716E0,1.8394209E1,3.0938377E0,1.8271472E0,1.4500287E0,1.4090004E0,2.7007625E0,1.2913184E0,5.959828E0,1.4749519E0,1.6188859E0,1.3544624E0,1.3463001E0],"tree_param":{"num_deleted":"0","num_feature":"15","num_nodes":"27","size_leaf_vector":"1"}},{"base_weights":[9.045361E-2,-3.7807387E-1,8.4987015E-1,-7.6491153E-1,4.795519E-1,5.111627E-1,5.987369E-2,2.3187223E-1,-9.897783E-1,-1.089093E-1,5.738855E-2,-2.3944749E-2,7.3879415E-1,8.360705E-1,-2.6792457E-2,-5.704431E-2,4.2411122E-2,-3.462796E-2,4.448641E-2,9.511166E-2,5.630976E-2,5.4073047E-2,6.1895465E-3,-1.8891467E-2,2.4881987E-2,4.7063038E-2,-4.5269758E-1,-4.804591E-2,2.1889646E-2],"categories":[],"categories_nodes":[],"categories_segments":[],"categories_sizes":[],"default_left":[0,0,0,0,0,0,0,0,0,0,0,0,0,0,0,0,0,0,0,0,0,0,0,0,0,0,0,0,0],"id":17,"left_children":[1,3,5,7,9,11,-1,13,15,17,-1,-1,19,21,-1,-1,23,-1,-1,25,-1,-1,-1,-1,-1,-1,27,-1,-1],"loss_changes":[2.1070042E1,1.2561205E1,2.0437908E0,5.9936104E0,4.8594937E0,3.321909E0,0E0,3.019495E0,3.3506947E0,4.8800955E0,0E0,0E0,2.661151E0,4.766245E-1,0E0,0E0,8.897111E-1,0E0,0E0,2.8657775E0,0E0,0E0,0E0,0E0,0E0,0E0,2.1721597E0,0E0,0E0],"parents":[2147483647,0,0,1,1,2,2,3,3,4,4,5,5,7,7,8,8,9,9,12,12,13,13,16,16,19,19,26,26],"right_children":[2,4,6,8,10,12,-1,14,16,18,-1,-1,20,22,-1,-1,24,-1,-1,26,-1,-1,-1,-1,-1,-1,28,-1,-1],"split_conditions":[1E0,1E0,1E0,1E0,1E0,1E0,5.987369E-2,1E0,1E0,1E0,5.738855E-2,-2.3944749E-2,1E0,6.5E1,-2.6792457E-2,-5.704431E-2,1E0,-3.462796E-2,4.448641E-2,6.3E1,5.630976E-2,5.4073047E-2,6.1895465E-3,-1.8891467E-2,2.4881987E-2,4.7063038E-2,6.9E1,-4.804591E-2,2.1889646E-2],"split_indices":[8,13,3,0,5,10,0,5,5,12,0,0,7,1,0,0,7,0,0,1,0,0,0,0,0,0,1,0,0],"split_type":[0,0,0,0,0,0,0,0,0,0,0,0,0,0,0,0,0,0,0,0,0,0,0,0,0,0,0,0,0],"sum_hessian":[5.731448E1,3.575644E1,2.155804E1,2.471616E1,1.1040278E1,1.2170019E1,9.3880205E0,4.5437193E0,2.0172441E1,6.315556E0,4.724723E0,2.0686853E0,1.0101334E1,2.4928293E0,2.05089E0,1.7504547E1,2.6678936E0,4.179411E0,2.136145E0,4.2632627E0,5.838071E0,1.4685748E0,1.0242547E0,1.4756669E0,1.1922266E0,1.3931574E0,2.8701055E0,1.776903E0,1.0932025E0],"tree_param":{"num_deleted":"0","num_feature":"15","num_nodes":"29","size_leaf_vector":"1"}},{"base_weights":[3.2347973E-2,-4.7199896E-1,8.430231E-1,-8.48075E-1,4.7895262E-1,5.99339E-2,5.7326895E-1,-9.6923196E-1,-1.8731657E-2,-1.0484516E-1,5.6131404E-2,2.8718328E-1,5.2981466E-2,-1.5997289E-4,-5.2966196E-2,-4.1967973E-2,3.0684693E-2,-5.381544E-1,3.6009762E-2,-4.352331E-2,5.496942E-1,-4.4925615E-2,-3.394403E-3,-1.2678531E-1,5.273639E-2,4.299443E-2,-6.6990304E-1,-4.459495E-2,-4.897294E-3],"categories":[],"categories_nodes":[],"categories_segments":[],"categories_sizes":[],"default_left":[0,0,0,0,0,0,0,0,0,0,0,0,0,0,0,0,0,0,0,0,0,0,0,0,0,0,0,0,0],"id":18,"left_children":[1,3,5,7,9,-1,11,13,15,17,-1,19,-1,-1,-1,-1,-1,21,-1,-1,23,-1,-1,25,-1,-1,27,-1,-1],"loss_changes":[2.3761086E1,1.3233509E1,1.449831E0,2.6007462E0,4.177533E0,0E0,1.7248616E0,1.9741268E0,2.7685263E0,2.739919E0,0E0,3.6858463E0,0E0,0E0,0E0,0E0,0E0,7.670957E-1,0E0,0E0,3.2823849E0,0E0,0E0,3.1654773E0,0E0,0E0,3.7973213E-1,0E0,0E0],"parents":[2147483647,0,0,1,1,2,2,3,3,4,4,6,6,7,7,8,8,9,9,11,11,17,17,20,20,23,23,26,26],"right_children":[2,4,6,8,10,-1,12,14,16,18,-1,20,-1,-1,-1,-1,-1,22,-1,-1,24,-1,-1,26,-1,-1,28,-1,-1],"split_conditions":[1E0,1E0,1E0,1E0,1E0,5.99339E-2,1E0,5.7E1,1E0,1E0,5.6131404E-2,1E0,5.2981466E-2,-1.5997289E-4,-5.2966196E-2,-4.1967973E-2,3.0684693E-2,1E0,3.6009762E-2,-4.352331E-2,1E0,-4.4925615E-2,-3.394403E-3,5.9E1,5.273639E-2,4.299443E-2,6.8E1,-4.459495E-2,-4.897294E-3],"split_indices":[8,13,2,10,7,0,3,1,7,6,0,10,0,0,0,0,0,10,0,0,7,0,0,1,0,0,1,0,0],"split_type":[0,0,0,0,0,0,0,0,0,0,0,0,0,0,0,0,0,0,0,0,0,0,0,0,0,0,0,0,0],"sum_hessian":[5.6142033E1,3.4867573E1,2.1274462E1,2.506372E1,9.803851E0,7.690888E0,1.3583573E1,2.1721762E1,3.3419604E0,5.580023E0,4.2238283E0,9.554137E0,4.029436E0,1.941294E0,1.9780468E1,1.3121384E0,2.029822E0,3.8865428E0,1.6934798E0,1.3379542E0,8.216183E0,1.6848346E0,2.2017083E0,3.832117E0,4.3840656E0,1.1534381E0,2.678679E0,1.5267247E0,1.1519542E0],"tree_param":{"num_deleted":"0","num_feature":"15","num_nodes":"29","size_leaf_vector":"1"}},{"base_weights":[1.4702986E-2,-4.8437423E-1,7.032215E-1,-8.463791E-1,5.206238E-1,1.9604574E-1,5.61195E-2,-5.1335644E-2,2.7301738E-1,-3.9420584E-1,5.4664906E-2,-3.2007512E-1,7.364653E-1,-2.692513E-2,4.7208425E-2,-4.7999173E-2,7.7998424E-3,1.3377668E-2,-5.511684E-1,6.46124E-3,5.12865E-2,-7.042484E-3,-3.7498258E-2],"categories":[],"categories_nodes":[],"categories_segments":[],"categories_sizes":[],"default_left":[0,0,0,0,0,0,0,0,0,0,0,0,0,0,0,0,0,0,0,0,0,0,0],"id":19,"left_children":[1,3,5,7,9,11,-1,-1,13,15,-1,17,19,-1,-1,-1,-1,-1,21,-1,-1,-1,-1],"loss_changes":[1.8753937E1,1.1958591E1,4.6540146E0,5.0556145E0,5.1476192E0,3.4672978E0,0E0,0E0,2.7263355E0,1.457503E0,0E0,1.0468853E0,9.148166E-1,0E0,0E0,0E0,0E0,0E0,3.0878925E-1,0E0,0E0,0E0,0E0],"parents":[2147483647,0,0,1,1,2,2,3,3,4,4,5,5,8,8,9,9,11,11,12,12,18,18],"right_children":[2,4,6,8,10,12,-1,-1,14,16,-1,18,20,-1,-1,-1,-1,-1,22,-1,-1,-1,-1],"split_conditions":[1E0,1E0,1E0,1E0,1E0,1E0,5.61195E-2,-5.1335644E-2,1E0,1E0,5.4664906E-2,6.1E1,1E0,-2.692513E-2,4.7208425E-2,-4.7999173E-2,7.7998424E-3,1.3377668E-2,1E0,6.46124E-3,5.12865E-2,-7.042484E-3,-3.7498258E-2],"split_indices":[10,5,7,14,4,6,0,0,12,7,0,1,8,0,0,0,0,0,11,0,0,0,0],"split_type":[0,0,0,0,0,0,0,0,0,0,0,0,0,0,0,0,0,0,0,0,0,0,0],"sum_hessian":[5.258566E1,3.065887E1,2.1926788E1,2.2655931E1,8.002939E0,1.0585949E1,1.1340838E1,1.9583797E1,3.0721345E0,3.201031E0,4.8019085E0,5.6232567E0,4.9626923E0,1.4801091E0,1.5920254E0,1.2109847E0,1.9900461E0,1.5426935E0,4.080563E0,2.0680544E0,2.8946378E0,1.8893775E0,2.1911857E0],"tree_param":{"num_deleted":"0","num_feature":"15","num_nodes":"23","size_leaf_vector":"1"}},{"base_weights":[4.142982E-3,-4.438973E-1,7.480145E-1,-8.111519E-1,4.6285632E-1,4.3185568E-1,5.6712806E-2,-9.634759E-1,-1.9345917E-1,-2.1850683E-1,5.5501677E-2,-3.5299357E-2,6.927486E-1,-5.342656E-2,-3.4458578E-1,-3.3574868E-2,2.8585995E-2,-6.237964E-1,3.1036055E-2,1.3646816E-2,5.4452505E-2,1.1885892E-2,-4.390229E-2,-4.3344814E-2,-9.960222E-3,4.452152E-2,-5.273397E-1,-4.2934563E-2,2.3505774E-3],"categories":[],"categories_nodes":[],"categories_segments":[],"categories_sizes":[],"default_left":[0,0,0,0,0,0,0,0,0,0,0,0,0,0,0,0,0,0,0,0,0,0,0,0,0,0,0,0,0],"id":20,"left_children":[1,3,5,7,9,11,-1,13,15,17,-1,-1,19,-1,21,-1,-1,23,-1,25,-1,-1,-1,-1,-1,-1,27,-1,-1],"loss_changes":[1.8798368E1,1.2099751E1,2.0989723E0,2.20549E0,4.998662E0,4.4290657E0,0E0,9.413395E-1,2.6810627E0,2.4584725E0,0E0,0E0,3.0267253E0,0E0,1.5751481E0,0E0,0E0,3.0265594E-1,0E0,2.9253879E0,0E0,0E0,0E0,0E0,0E0,0E0,7.692517E-1,0E0,0E0],"parents":[2147483647,0,0,1,1,2,2,3,3,4,4,5,5,7,7,8,8,9,9,12,12,14,14,17,17,19,19,26,26],"right_children":[2,4,6,8,10,12,-1,14,16,18,-1,-1,20,-1,22,-1,-1,24,-1,26,-1,-1,-1,-1,-1,-1,28,-1,-1],"split_conditions":[1E0,1E0,1E0,1E0,1E0,1E0,5.6712806E-2,1E0,1E0,1E0,5.5501677E-2,-3.5299357E-2,1E0,-5.342656E-2,1E0,-3.3574868E-2,2.8585995E-2,1E0,3.1036055E-2,6.3E1,5.4452505E-2,1.1885892E-2,-4.390229E-2,-4.3344814E-2,-9.960222E-3,4.452152E-2,6.8E1,-4.2934563E-2,2.3505774E-3],"split_indices":[8,13,3,9,7,10,0,5,10,6,0,0,7,0,10,0,0,10,0,1,0,0,0,0,0,0,1,0,0],"split_type":[0,0,0,0,0,0,0,0,0,0,0,0,0,0,0,0,0,0,0,0,0,0,0,0,0,0,0,0,0],"sum_hessian":[5.440711E1,3.4207123E1,2.0199986E1,2.4421375E1,9.785747E0,1.2272447E1,7.9275393E0,1.9141304E1,5.280071E0,5.0896325E0,4.6961136E0,1.9708514E0,1.0301595E1,1.5742516E1,3.3987887E0,3.325148E0,1.9549228E0,3.6052473E0,1.4843853E0,4.1774893E0,6.124106E0,1.89006E0,1.5087289E0,1.6301754E0,1.975072E0,1.3475537E0,2.8299353E0,1.480659E0,1.3492764E0],"tree_param":{"num_deleted":"0","num_feature":"15","num_nodes":"29","size_leaf_vector":"1"}},{"base_weights":[-1.8660324E-2,-4.8917708E-1,8.3316743E-1,-8.4553605E-1,3.7193644E-1,5.353666E-1,5.6074042E-2,-9.9600965E-1,-2.615464E-1,-3.0459106E-1,5.4537963E-2,-2.1417644E-2,7.8529215E-1,-5.5208575E-2,-4.4485453E-1,-7.346975E-1,2.794276E-2,-3.826296E-2,3.3308774E-2,8.4148414E-2,5.3246785E-2,-4.266606E-2,8.012489E-3,-4.9878027E-2,2.8895007E-3,-2.1995142E-2,3.6909983E-2],"categories":[],"categories_nodes":[],"categories_segments":[],"categories_sizes":[],"default_left":[0,0,0,0,0,0,0,0,0,0,0,0,0,0,0,0,0,0,0,0,0,0,0,0,0,0,0],"id":21,"left_children":[1,3,5,7,9,11,-1,13,15,17,-1,-1,19,-1,21,23,-1,-1,-1,25,-1,-1,-1,-1,-1,-1,-1],"loss_changes":[2.1666979E1,1.0993102E1,1.0518475E0,1.9292278E0,5.623367E0,3.0772126E0,0E0,6.687374E-1,2.9187136E0,3.3659658E0,0E0,0E0,1.7512951E0,0E0,1.3396287E0,1.001312E0,0E0,0E0,0E0,1.6144626E0,0E0,0E0,0E0,0E0,0E0,0E0,0E0],"parents":[2147483647,0,0,1,1,2,2,3,3,4,4,5,5,7,7,8,8,9,9,12,12,14,14,15,15,19,19],"right_children":[2,4,6,8,10,12,-1,14,16,18,-1,-1,20,-1,22,24,-1,-1,-1,26,-1,-1,-1,-1,-1,-1,-1],"split_conditions":[1E0,1E0,1E0,1E0,1E0,1E0,5.6074042E-2,1E0,1E0,1E0,5.4537963E-2,-2.1417644E-2,1E0,-5.5208575E-2,6.3E1,6.6E1,2.794276E-2,-3.826296E-2,3.3308774E-2,1E0,5.3246785E-2,-4.266606E-2,8.012489E-3,-4.9878027E-2,2.8895007E-3,-2.1995142E-2,3.6909983E-2],"split_indices":[8,13,3,9,5,10,0,5,10,12,0,0,7,0,1,1,0,0,0,6,0,0,0,0,0,0,0],"split_type":[0,0,0,0,0,0,0,0,0,0,0,0,0,0,0,0,0,0,0,0,0,0,0,0,0,0,0],"sum_hessian":[5.204255E1,3.3799015E1,1.8243538E1,2.3918705E1,9.880308E0,1.0379437E1,7.8641005E0,1.8457365E1,5.461341E0,5.386764E0,4.493544E0,1.9904168E0,8.38902E0,1.4590638E1,3.8667262E0,3.5299656E0,1.9313751E0,3.7967486E0,1.5900154E0,2.7628083E0,5.626212E0,2.0635514E0,1.8031747E0,2.456417E0,1.0735487E0,1.7156118E0,1.0471965E0],"tree_param":{"num_deleted":"0","num_feature":"15","num_nodes":"27","size_leaf_vector":"1"}},{"base_weights":[6.5016635E-2,-3.5587996E-1,6.899759E-1,-8.7057966E-1,1.7718087E-1,2.4183846E-1,5.3686745E-2,-1.0442947E0,9.8706605E-3,-6.4112127E-1,5.8722157E-2,6.468719E-3,4.6204112E-2,-1.4735795E-2,-5.4618843E-2,-1.0111872E0,5.0323226E-2,4.306988E-2,-2.451427E-1,-5.7653654E-2,-2.5079027E-2,-5.317925E-1,3.8877245E-2,-4.359628E-2,-6.076896E-2,-2.5920719E-2,3.23828E-2],"categories":[],"categories_nodes":[],"categories_segments":[],"categories_sizes":[],"default_left":[0,0,0,0,0,0,0,0,0,0,0,0,0,0,0,0,0,0,0,0,0,0,0,0,0,0,0],"id":22,"left_children":[1,3,5,7,9,11,-1,13,-1,15,-1,17,-1,-1,-1,19,-1,-1,21,-1,-1,23,-1,-1,25,-1,-1],"loss_changes":[1.4592053E1,9.277151E0,3.573635E0,3.3760376E0,1.4760626E1,1.8524207E0,0E0,2.1343422E-1,0E0,7.160806E0,0E0,2.2787163E0,0E0,0E0,0E0,5.2597046E-2,0E0,0E0,2.8186753E0,0E0,0E0,1.0688373E0,0E0,0E0,1.6361691E0,0E0,0E0],"parents":[2147483647,0,0,1,1,2,2,3,3,4,4,5,5,7,7,9,9,11,11,15,15,18,18,21,21,24,24],"right_children":[2,4,6,8,10,12,-1,14,-1,16,-1,18,-1,-1,-1,20,-1,-1,22,-1,-1,24,-1,-1,26,-1,-1],"split_conditions":[1E0,1E0,1E0,1E0,1E0,1E0,5.3686745E-2,1E0,9.8706605E-3,1E0,5.8722157E-2,5.9E1,4.6204112E-2,-1.4735795E-2,-5.4618843E-2,1E0,5.0323226E-2,4.306988E-2,1E0,-5.7653654E-2,-2.5079027E-2,1E0,3.8877245E-2,-4.359628E-2,1E0,-2.5920719E-2,3.23828E-2],"split_indices":[10,3,7,14,7,12,0,12,0,6,0,1,0,0,0,9,0,0,0,0,0,3,0,0,6,0,0],"split_type":[0,0,0,0,0,0,0,0,0,0,0,0,0,0,0,0,0,0,0,0,0,0,0,0,0,0,0],"sum_hessian":[5.3540485E1,3.2250813E1,2.1289673E1,1.6085857E1,1.6164955E1,1.05730715E1,1.0716602E1,1.3854529E1,2.2313282E0,9.075327E0,7.089628E0,8.611605E0,1.9614668E0,1.2648883E0,1.2589642E1,7.7261987E0,1.3491282E0,1.4070809E0,7.2045236E0,5.055862E0,2.6703367E0,6.0021744E0,1.202349E0,2.991116E0,3.0110583E0,1.9922636E0,1.0187948E0],"tree_param":{"num_deleted":"0","num_feature":"15","num_nodes":"27","size_leaf_vector":"1"}},{"base_weights":[6.5485686E-2,-3.0705988E-1,8.543994E-1,-7.904645E-1,5.3642726E-1,4.8123112E-1,5.149905E-2,-9.183506E-1,7.841403E-2,-1.6724531E-1,1.0050019E0,8.252955E-2,4.928945E-2,-1.2590016E-1,-5.218965E-2,-2.7153982E-2,3.584997E-2,1.9575974E-2,-4.7249433E-1,8.214526E-3,5.516848E-2,-2.305291E-1,3.212404E-2,2.0266874E-2,-2.7148247E-2,-4.3152075E-2,2.1297475E-2,4.6753223E-4,-1.6120534E-2],"categories":[],"categories_nodes":[],"categories_segments":[],"categories_sizes":[],"default_left":[0,0,0,0,0,0,0,0,0,0,0,0,0,0,0,0,0,0,0,0,0,0,0,0,0,0,0,0,0],"id":23,"left_children":[1,3,5,7,9,11,-1,13,15,17,19,21,-1,23,-1,-1,-1,-1,25,-1,-1,27,-1,-1,-1,-1,-1,-1,-1],"loss_changes":[1.5020581E1,1.4631188E1,5.769844E-1,2.5781126E0,4.5499625E0,1.3499709E0,0E0,1.8307419E0,1.903468E0,1.2372727E0,4.9024868E-1,1.0361388E0,0E0,1.0697047E0,0E0,0E0,0E0,0E0,1.9265919E0,0E0,0E0,9.0850174E-2,0E0,0E0,0E0,0E0,0E0,0E0,0E0],"parents":[2147483647,0,0,1,1,2,2,3,3,4,4,5,5,7,7,8,8,9,9,10,10,11,11,13,13,18,18,21,21],"right_children":[2,4,6,8,10,12,-1,14,16,18,20,22,-1,24,-1,-1,-1,-1,26,-1,-1,28,-1,-1,-1,-1,-1,-1,-1],"split_conditions":[1E0,1E0,1E0,1E0,1E0,6.4E1,5.149905E-2,1E0,1E0,6.1E1,5.6E1,1E0,4.928945E-2,6E1,-5.218965E-2,-2.7153982E-2,3.584997E-2,1.9575974E-2,6.9E1,8.214526E-3,5.516848E-2,6E1,3.212404E-2,2.0266874E-2,-2.7148247E-2,-4.3152075E-2,2.1297475E-2,4.6753223E-4,-1.6120534E-2],"split_indices":[5,10,7,8,12,1,0,0,3,1,1,8,0,1,0,0,0,0,1,0,0,1,0,0,0,0,0,0,0],"split_type":[0,0,0,0,0,0,0,0,0,0,0,0,0,0,0,0,0,0,0,0,0,0,0,0,0,0,0,0,0],"sum_hessian":[4.921406E1,3.3843204E1,1.5370859E1,2.1553627E1,1.2289577E1,6.115086E0,9.255773E0,1.8738638E1,2.8149881E0,5.1694846E0,7.120092E0,4.065833E0,2.0492527E0,2.834712E0,1.5903926E1,1.5023788E0,1.3126093E0,1.726488E0,3.4429965E0,1.02552E0,6.094572E0,2.9851785E0,1.0806546E0,1.2590771E0,1.575635E0,2.4272792E0,1.0157173E0,1.0755137E0,1.9096649E0],"tree_param":{"num_deleted":"0","num_feature":"15","num_nodes":"29","size_leaf_vector":"1"}},{"base_weights":[4.8549004E-2,-4.1823128E-1,6.4626014E-1,-6.8814784E-1,3.6095917E-1,3.2865614E-1,5.412308E-2,-8.8159645E-1,2.2905798E-1,-1.2329746E-1,5.1437337E-2,9.670895E-2,4.692891E-2,1.2564515E-2,-1.0104227E0,-3.424042E-2,3.9816972E-2,-3.8324144E-2,4.0318873E-2,-6.4214724E-1,4.4439605E-1,-5.4621138E-2,-3.5647756E-1,-4.4775356E-2,2.3140507E-3,-1.5198775E-1,8.269513E-1,-3.4042668E-2,5.085108E-3,3.8215764E-2,-3.5026822E-2,8.070956E-3,4.786999E-2],"categories":[],"categories_nodes":[],"categories_segments":[],"categories_sizes":[],"default_left":[0,0,0,0,0,0,0,0,0,0,0,0,0,0,0,0,0,0,0,0,0,0,0,0,0,0,0,0,0,0,0,0,0],"id":24,"left_children":[1,3,5,7,9,11,-1,13,15,17,-1,19,-1,-1,21,-1,-1,-1,-1,23,25,-1,27,-1,-1,29,31,-1,-1,-1,-1,-1,-1],"loss_changes":[1.4353057E1,6.3369045E0,2.7650642E0,4.077982E0,2.7475424E0,1.9564929E0,0E0,2.916916E0,2.9293754E0,3.9609559E0,0E0,3.2650895E0,0E0,0E0,4.997959E-1,0E0,0E0,0E0,0E0,7.6017153E-1,2.0600572E0,0E0,5.644608E-1,0E0,0E0,2.625406E0,3.073702E-1,0E0,0E0,0E0,0E0,0E0,0E0],"parents":[2147483647,0,0,1,1,2,2,3,3,4,4,5,5,7,7,8,8,9,9,11,11,14,14,19,19,20,20,22,22,25,25,26,26],"right_children":[2,4,6,8,10,12,-1,14,16,18,-1,20,-1,-1,22,-1,-1,-1,-1,24,26,-1,28,-1,-1,30,32,-1,-1,-1,-1,-1,-1],"split_conditions":[1E0,1E0,1E0,1E0,1E0,1E0,5.412308E-2,5.7E1,1E0,1E0,5.1437337E-2,1E0,4.692891E-2,1.2564515E-2,1E0,-3.424042E-2,3.9816972E-2,-3.8324144E-2,4.0318873E-2,6.6E1,1E0,-5.4621138E-2,5.8E1,-4.4775356E-2,2.3140507E-3,5.9E1,5.8E1,-3.4042668E-2,5.085108E-3,3.8215764E-2,-3.5026822E-2,8.070956E-3,4.786999E-2],"split_indices":[9,13,13,11,12,6,0,1,12,5,0,10,0,0,3,0,0,0,0,1,12,0,1,0,0,1,1,0,0,0,0,0,0],"split_type":[0,0,0,0,0,0,0,0,0,0,0,0,0,0,0,0,0,0,0,0,0,0,0,0,0,0,0,0,0,0,0,0,0],"sum_hessian":[4.9475914E1,2.7949297E1,2.1526619E1,2.084522E1,7.1040754E0,1.347138E1,8.05524E0,1.724656E1,3.5986612E0,4.590539E0,2.5135367E0,1.0599178E1,2.8722012E0,1.6638848E0,1.5582675E1,1.2989432E0,2.299718E0,2.8170972E0,1.7734416E0,3.120665E0,7.4785137E0,1.3250628E1,2.3320463E0,2.0612652E0,1.0593997E0,3.158023E0,4.3204904E0,1.0808469E0,1.2511992E0,1.0353013E0,2.122722E0,1.0747364E0,3.2457542E0],"tree_param":{"num_deleted":"0","num_feature":"15","num_nodes":"33","size_leaf_vector":"1"}},{"base_weights":[4.59749E-2,-3.617994E-1,7.760766E-1,-6.641839E-1,3.805026E-1,4.6933797E-1,5.4005176E-2,-8.3440834E-1,2.9192507E-1,-9.512692E-2,4.7093123E-2,-1.8962665E-2,6.9059545E-1,-4.809287E-2,-4.6797052E-2,-8.35084E-3,2.5904318E-2,-2.9217688E-2,4.1775443E-2,1.9684182E-1,4.9332406E-2,3.3435784E-2,-3.3774298E-2,4.1102134E-2,-2.6881337E-1,2.941978E-3,-2.400769E-2],"categories":[],"categories_nodes":[],"categories_segments":[],"categories_sizes":[],"default_left":[0,0,0,0,0,0,0,0,0,0,0,0,0,0,0,0,0,0,0,0,0,0,0,0,0,0,0],"id":25,"left_children":[1,3,5,7,9,11,-1,13,15,17,-1,-1,19,-1,21,-1,-1,-1,-1,23,-1,-1,-1,-1,25,-1,-1],"loss_changes":[1.5385372E1,7.7127333E0,1.2182713E0,4.146332E0,2.8278675E0,2.3229437E0,0E0,2.024294E0,5.3958154E-1,3.429446E0,0E0,0E0,1.1303573E0,0E0,2.2161126E0,0E0,0E0,0E0,0E0,1.5735065E0,0E0,0E0,0E0,0E0,2.6481345E-1,0E0,0E0],"parents":[2147483647,0,0,1,1,2,2,3,3,4,4,5,5,7,7,8,8,9,9,12,12,14,14,19,19,24,24],"right_children":[2,4,6,8,10,12,-1,14,16,18,-1,-1,20,-1,22,-1,-1,-1,-1,24,-1,-1,-1,-1,26,-1,-1],"split_conditions":[1E0,1E0,1E0,1E0,1E0,1E0,5.4005176E-2,1E0,1E0,1E0,4.7093123E-2,-1.8962665E-2,1E0,-4.809287E-2,1E0,-8.35084E-3,2.5904318E-2,-2.9217688E-2,4.1775443E-2,1E0,4.9332406E-2,3.3435784E-2,-3.3774298E-2,4.1102134E-2,6.7E1,2.941978E-3,-2.400769E-2],"split_indices":[8,13,3,14,12,10,0,5,7,5,0,0,7,0,10,0,0,0,0,14,0,0,0,0,1,0,0],"split_type":[0,0,0,0,0,0,0,0,0,0,0,0,0,0,0,0,0,0,0,0,0,0,0,0,0,0,0],"sum_hessian":[4.9734768E1,3.223527E1,1.7499496E1,2.297955E1,9.255723E0,9.977122E0,7.5223746E0,1.9614666E1,3.3648827E0,5.46006E0,3.795663E0,1.9157076E0,8.061415E0,1.6692327E1,2.9223382E0,1.19712E0,2.1677628E0,3.8226297E0,1.6374302E0,3.6458275E0,4.415587E0,1.3370128E0,1.5853255E0,1.229595E0,2.4162326E0,1.2303463E0,1.1858863E0],"tree_param":{"num_deleted":"0","num_feature":"15","num_nodes":"27","size_leaf_vector":"1"}},{"base_weights":[-4.979566E-3,-4.2841327E-1,7.200805E-1,-7.790363E-1,3.6809167E-1,5.5170394E-2,3.8741922E-1,-8.947118E-1,6.400165E-3,-2.0528084E-1,5.0488897E-2,5.2671324E-2,4.645742E-2,-5.2669562E-2,-1.6612382E-1,-2.3963073E-2,3.2748204E-2,-3.4221735E-2,3.4802254E-2,-4.1153535E-2,3.6652434E-1,-2.490492E-2,9.390567E-3,-6.8814754E-3,4.2640034E-2],"categories":[],"categories_nodes":[],"categories_segments":[],"categories_sizes":[],"default_left":[0,0,0,0,0,0,0,0,0,0,0,0,0,0,0,0,0,0,0,0,0,0,0,0,0],"id":26,"left_children":[1,3,5,7,9,-1,11,13,15,17,-1,19,-1,-1,21,-1,-1,-1,-1,-1,23,-1,-1,-1,-1],"loss_changes":[1.4928949E1,8.85792E0,1.858962E0,1.9710321E0,3.9085822E0,0E0,1.9713416E0,2.0056124E0,1.5012804E0,3.129745E0,0E0,2.485634E0,0E0,0E0,6.293858E-1,0E0,0E0,0E0,0E0,0E0,1.7210462E0,0E0,0E0,0E0,0E0],"parents":[2147483647,0,0,1,1,2,2,3,3,4,4,6,6,7,7,8,8,9,9,11,11,14,14,20,20],"right_children":[2,4,6,8,10,-1,12,14,16,18,-1,20,-1,-1,22,-1,-1,-1,-1,-1,24,-1,-1,-1,-1],"split_conditions":[1E0,1E0,1E0,1E0,1E0,5.5170394E-2,1E0,1E0,1E0,1E0,5.0488897E-2,1E0,4.645742E-2,-5.2669562E-2,1E0,-2.3963073E-2,3.2748204E-2,-3.4221735E-2,3.4802254E-2,-4.1153535E-2,1E0,-2.490492E-2,9.390567E-3,-6.8814754E-3,4.2640034E-2],"split_indices":[8,13,2,10,7,0,4,5,2,6,0,10,0,0,7,0,0,0,0,0,7,0,0,0,0],"split_type":[0,0,0,0,0,0,0,0,0,0,0,0,0,0,0,0,0,0,0,0,0,0,0,0,0],"sum_hessian":[4.662133E1,2.9690985E1,1.6930346E1,2.0631077E1,9.059909E0,6.7896657E0,1.014068E1,1.7861404E1,2.7696729E0,5.143804E0,3.9161046E0,6.945878E0,3.194802E0,1.4300988E1,3.5604157E0,1.7329996E0,1.0366733E0,3.5155423E0,1.6282617E0,1.4044839E0,5.541394E0,1.6270262E0,1.9333894E0,3.072701E0,2.4686933E0],"tree_param":{"num_deleted":"0","num_feature":"15","num_nodes":"25","size_leaf_vector":"1"}},{"base_weights":[1.4063855E-1,-2.4528715E-1,7.493328E-1,-5.740439E-1,5.649734E-1,4.8813888E-1,5.1801722E-2,-7.5210565E-1,2.710251E-1,5.1502485E-2,4.6787396E-2,-1.4062317E-1,7.2050756E-1,-8.440235E-1,-2.0580693E-1,3.2839563E-2,-1.0387975E-2,-2.2430543E-2,3.7288606E-2,-2.7970081E-2,2.2362916E-2,-2.0952152E-2,5.3085502E-2,-4.7604103E-2,1.1949805E-2,-4.4364687E-2,4.1501295E-2,1.4214723E-2,-1.4603661E-2],"categories":[],"categories_nodes":[],"categories_segments":[],"categories_sizes":[],"default_left":[0,0,0,0,0,0,0,0,0,0,0,0,0,0,0,0,0,0,0,0,0,0,0,0,0,0,0,0,0],"id":27,"left_children":[1,3,5,7,9,11,-1,13,15,17,-1,19,21,23,25,-1,-1,-1,-1,-1,-1,27,-1,-1,-1,-1,-1,-1,-1],"loss_changes":[1.080419E1,7.8952017E0,8.2638264E-1,3.3207903E0,1.6095257E0,1.737608E0,0E0,6.987276E-1,9.380693E-1,1.9697052E0,0E0,1.2001952E0,2.1323314E0,1.9302416E0,3.4363825E0,0E0,0E0,0E0,0E0,0E0,0E0,3.817293E-1,0E0,0E0,0E0,0E0,0E0,0E0,0E0],"parents":[2147483647,0,0,1,1,2,2,3,3,4,4,5,5,7,7,8,8,9,9,11,11,12,12,13,13,14,14,21,21],"right_children":[2,4,6,8,10,12,-1,14,16,18,-1,20,22,24,26,-1,-1,-1,-1,-1,-1,28,-1,-1,-1,-1,-1,-1,-1],"split_conditions":[1E0,1E0,1E0,1E0,1E0,1E0,5.1801722E-2,1E0,1E0,1E0,4.6787396E-2,5.9E1,1E0,1E0,1E0,3.2839563E-2,-1.0387975E-2,-2.2430543E-2,3.7288606E-2,-2.7970081E-2,2.2362916E-2,6.5E1,5.3085502E-2,-4.7604103E-2,1.1949805E-2,-4.4364687E-2,4.1501295E-2,1.4214723E-2,-1.4603661E-2],"split_indices":[8,13,5,14,12,11,0,5,0,5,0,1,12,10,0,0,0,0,0,0,0,1,0,0,0,0,0,0,0],"split_type":[0,0,0,0,0,0,0,0,0,0,0,0,0,0,0,0,0,0,0,0,0,0,0,0,0,0,0,0,0],"sum_hessian":[4.4210316E1,2.7421501E1,1.6788815E1,1.9714167E1,7.7073345E0,1.0199429E1,6.589385E0,1.6374052E1,3.340115E0,3.7093322E0,3.9980023E0,2.858768E0,7.340661E0,1.35493145E1,2.8247364E0,1.6438465E0,1.6962684E0,2.361835E0,1.3474972E0,1.6977893E0,1.1609786E0,2.6092184E0,4.7314425E0,1.2430009E1,1.1193061E0,1.7902861E0,1.0344502E0,1.2045101E0,1.4047083E0],"tree_param":{"num_deleted":"0","num_feature":"15","num_nodes":"29","size_leaf_vector":"1"}},{"base_weights":[3.595565E-2,-3.62605E-1,5.577841E-1,-6.7163414E-1,5.188265E-1,1.2030635E-1,9.866684E-1,-8.925337E-1,2.0156685E-1,-4.0540498E-1,5.0317526E-2,-3.254152E-1,5.8088285E-1,1.3273652E-2,5.3374738E-2,-8.634873E-3,-4.6708528E-2,-3.210315E-1,4.5099497E-2,-3.4683396E-3,-2.828681E-2,-6.057564E-1,2.3957076E-2,1.4576146E-1,4.376715E-2,-3.858044E-2,1.9213554E-2,1.1928293E-2,-4.5829292E-2,1.6018359E-2,-2.6744253E-3],"categories":[],"categories_nodes":[],"categories_segments":[],"categories_sizes":[],"default_left":[0,0,0,0,0,0,0,0,0,0,0,0,0,0,0,0,0,0,0,0,0,0,0,0,0,0,0,0,0,0,0],"id":28,"left_children":[1,3,5,7,9,11,13,15,17,19,-1,21,23,-1,-1,-1,-1,25,-1,-1,-1,27,-1,29,-1,-1,-1,-1,-1,-1,-1],"loss_changes":[9.397111E0,7.341121E0,3.5472636E0,3.9303465E0,3.664916E0,2.4084547E0,2.8362846E-1,3.0928707E-1,2.0251143E0,1.3364804E-1,0E0,1.6740311E0,5.996609E-1,0E0,0E0,0E0,0E0,1.3938193E0,0E0,0E0,0E0,1.5286266E0,0E0,1.3857667E-1,0E0,0E0,0E0,0E0,0E0,0E0,0E0],"parents":[2147483647,0,0,1,1,2,2,3,3,4,4,5,5,6,6,7,7,8,8,9,9,11,11,12,12,17,17,21,21,23,23],"right_children":[2,4,6,8,10,12,14,16,18,20,-1,22,24,-1,-1,-1,-1,26,-1,-1,-1,28,-1,30,-1,-1,-1,-1,-1,-1,-1],"split_conditions":[1E0,1E0,1E0,1E0,1E0,1E0,5.6E1,5.7E1,1E0,1E0,5.0317526E-2,6.9E1,1E0,1.3273652E-2,5.3374738E-2,-8.634873E-3,-4.6708528E-2,1E0,4.5099497E-2,-3.4683396E-3,-2.828681E-2,6.2E1,2.3957076E-2,6.1E1,4.376715E-2,-3.858044E-2,1.9213554E-2,1.1928293E-2,-4.5829292E-2,1.6018359E-2,-2.6744253E-3],"split_indices":[10,5,7,14,4,13,1,1,6,9,0,1,5,0,0,0,0,7,0,0,0,1,0,1,0,0,0,0,0,0,0],"split_type":[0,0,0,0,0,0,0,0,0,0,0,0,0,0,0,0,0,0,0,0,0,0,0,0,0,0,0,0,0,0,0],"sum_hessian":[4.321023E1,2.4671688E1,1.8538546E1,1.8443449E1,6.2282386E0,9.811236E0,8.727309E0,1.4702035E1,3.7414138E0,2.2089767E0,4.019262E0,5.135161E0,4.676076E0,1.3113064E0,7.416003E0,1.085371E0,1.3616664E1,2.4529123E0,1.2885016E0,1.176273E0,1.0327039E0,3.9914615E0,1.1436994E0,2.4906597E0,2.185416E0,1.4393704E0,1.0135419E0,1.1365843E0,2.8548772E0,1.003453E0,1.4872067E0],"tree_param":{"num_deleted":"0","num_feature":"15","num_nodes":"31","size_leaf_vector":"1"}},{"base_weights":[9.301985E-2,-2.7053478E-1,7.947634E-1,-6.5442514E-1,3.4619376E-1,3.815176E-1,5.310529E-2,-8.799325E-1,1.8146943E-1,-2.2441019E-1,9.0121275E-1,-1.0432234E-1,7.0478654E-1,-9.84195E-1,-3.7616184E-1,-4.4220707E-1,4.2612407E-2,-5.1788694E-1,3.3944428E-2,1.07490085E-2,5.1029444E-2,-2.9673962E-2,2.1906378E-2,8.412253E-3,4.4100337E-2,-1.5501258E-2,-5.2608978E-2,-3.797948E-2,5.1617576E-3,1.8432447E-3,-3.4521252E-2,-1.3547096E-1,-4.088764E-2,8.425653E-3,-1.5908075E-2],"categories":[],"categories_nodes":[],"categories_segments":[],"categories_sizes":[],"default_left":[0,0,0,0,0,0,0,0,0,0,0,0,0,0,0,0,0,0,0,0,0,0,0,0,0,0,0,0,0,0,0,0,0,0,0],"id":29,"left_children":[1,3,5,7,9,11,-1,13,15,17,19,21,23,25,27,29,-1,31,-1,-1,-1,-1,-1,-1,-1,-1,-1,-1,-1,-1,-1,33,-1,-1,-1],"loss_changes":[1.12458515E1,7.146434E0,1.2530212E0,3.6206388E0,3.9605913E0,1.2446221E0,0E0,3.982458E-1,2.3556318E0,2.1150577E0,2.89742E-1,1.2816482E0,2.896006E-1,2.0102215E-1,8.3709574E-1,3.9520502E-1,0E0,5.300331E-1,0E0,0E0,0E0,0E0,0E0,0E0,0E0,0E0,0E0,0E0,0E0,0E0,0E0,2.5657147E-1,0E0,0E0,0E0],"parents":[2147483647,0,0,1,1,2,2,3,3,4,4,5,5,7,7,8,8,9,9,10,10,11,11,12,12,13,13,14,14,15,15,17,17,31,31],"right_children":[2,4,6,8,10,12,-1,14,16,18,20,22,24,26,28,30,-1,32,-1,-1,-1,-1,-1,-1,-1,-1,-1,-1,-1,-1,-1,34,-1,-1,-1],"split_conditions":[1E0,1E0,1E0,1E0,1E0,1E0,5.310529E-2,1E0,6E1,1E0,5.9E1,6.3E1,1E0,5.8E1,1E0,5.7E1,4.2612407E-2,1E0,3.3944428E-2,1.07490085E-2,5.1029444E-2,-2.9673962E-2,2.1906378E-2,8.412253E-3,4.4100337E-2,-1.5501258E-2,-5.2608978E-2,-3.797948E-2,5.1617576E-3,1.8432447E-3,-3.4521252E-2,6.5E1,-4.088764E-2,8.425653E-3,-1.5908075E-2],"split_indices":[5,9,13,8,7,7,0,13,1,4,1,1,3,1,2,1,0,0,0,0,0,0,0,0,0,0,0,0,0,0,0,1,0,0,0],"split_type":[0,0,0,0,0,0,0,0,0,0,0,0,0,0,0,0,0,0,0,0,0,0,0,0,0,0,0,0,0,0,0,0,0,0,0],"sum_hessian":[4.2237488E1,2.8227863E1,1.4009623E1,1.7360489E1,1.0867375E1,6.456512E0,7.553111E0,1.3630558E1,3.729931E0,5.652167E0,5.2152085E0,2.8502176E0,3.6062942E0,1.050313E1,3.127428E0,2.1094048E0,1.6205263E0,4.588168E0,1.0639987E0,1.187832E0,4.0273767E0,1.4492643E0,1.4009532E0,1.379415E0,2.2268794E0,1.4714743E0,9.031655E0,1.4129024E0,1.7145257E0,1.0105257E0,1.0988791E0,2.65458E0,1.9335878E0,1.0256221E0,1.6289581E0],"tree_param":{"num_deleted":"0","num_feature":"15","num_nodes":"35","size_leaf_vector":"1"}},{"base_weights":[7.782555E-2,-3.011331E-1,7.0404726E-1,-5.8736974E-1,3.1028175E-1,5.2013E-2,4.3564463E-1,-8.6169994E-1,1.8345287E-1,-1.0870785E-1,4.1843306E-2,1.9711645E-1,4.309933E-2,-1.000167E0,-3.7391052E-1,-2.2369003E-2,6.157301E-1,-4.549882E-1,2.1998042E-2,-2.6820565E-2,4.8303172E-1,-1.5495146E-2,-5.389464E-2,-4.1102245E-2,2.3167385E-2,6.2915967E-3,4.098877E-2,1.4187641E-2,-3.9879452E-2,4.641771E-2,-8.025318E-2,-3.6018655E-2,3.670803E-2],"categories":[],"categories_nodes":[],"categories_segments":[],"categories_sizes":[],"default_left":[0,0,0,0,0,0,0,0,0,0,0,0,0,0,0,0,0,0,0,0,0,0,0,0,0,0,0,0,0,0,0,0,0],"id":30,"left_children":[1,3,5,7,9,-1,11,13,15,17,-1,19,-1,21,23,-1,25,27,-1,-1,29,-1,-1,-1,-1,-1,-1,-1,-1,-1,31,-1,-1],"loss_changes":[1.0426967E1,4.9979515E0,1.038269E0,4.1944537E0,2.1712618E0,0E0,9.396908E-1,5.887432E-1,1.8665558E0,1.365942E0,0E0,1.9983962E0,0E0,2.2955799E-1,2.162561E0,0E0,2.850002E-1,1.3028024E0,0E0,0E0,1.7033311E0,0E0,0E0,0E0,0E0,0E0,0E0,0E0,0E0,0E0,2.503333E0,0E0,0E0],"parents":[2147483647,0,0,1,1,2,2,3,3,4,4,6,6,7,7,8,8,9,9,11,11,13,13,14,14,16,16,17,17,20,20,30,30],"right_children":[2,4,6,8,10,-1,12,14,16,18,-1,20,-1,22,24,-1,26,28,-1,-1,30,-1,-1,-1,-1,-1,-1,-1,-1,-1,32,-1,-1],"split_conditions":[1E0,1E0,1E0,1E0,1E0,5.2013E-2,1E0,1E0,1E0,6.6E1,4.1843306E-2,1E0,4.309933E-2,5.8E1,1E0,-2.2369003E-2,1E0,1E0,2.1998042E-2,-2.6820565E-2,6.4E1,-1.5495146E-2,-5.389464E-2,-4.1102245E-2,2.3167385E-2,6.2915967E-3,4.098877E-2,1.4187641E-2,-3.9879452E-2,4.641771E-2,6.9E1,-3.6018655E-2,3.670803E-2],"split_indices":[8,9,2,5,13,0,3,6,3,1,0,9,0,1,2,0,6,0,0,0,1,0,0,0,0,0,0,0,0,0,1,0,0],"split_type":[0,0,0,0,0,0,0,0,0,0,0,0,0,0,0,0,0,0,0,0,0,0,0,0,0,0,0,0,0,0,0,0,0],"sum_hessian":[4.2044384E1,2.6516829E1,1.5527556E1,1.8088121E1,8.428708E0,5.61643E0,9.911127E0,1.3253426E1,4.8346953E0,5.135825E0,3.2928832E0,7.293135E0,2.617992E0,9.504895E0,3.7485294E0,1.9516566E0,2.8830388E0,3.2533102E0,1.8825147E0,1.7997305E0,5.493405E0,1.4666905E0,8.038205E0,2.453492E0,1.2950375E0,1.3230871E0,1.5599515E0,1.0851655E0,2.1681447E0,2.7059913E0,2.7874134E0,1.6253654E0,1.1620481E0],"tree_param":{"num_deleted":"0","num_feature":"15","num_nodes":"33","size_leaf_vector":"1"}},{"base_weights":[-2.9671255E-2,-4.1296577E-1,6.7851686E-1,-8.0867773E-1,3.651054E-1,2.3818827E-1,5.2124705E-2,-4.9880456E-2,1.1257296E-1,-1.5525913E-1,4.178558E-2,-3.8319632E-1,7.3261756E-1,-2.3129074E-2,3.989162E-2,3.6987167E-2,-5.194546E-1,-4.349962E-2,3.6213894E-3,8.589689E-3,4.483156E-2,-3.271359E-2,-8.874381E-3],"categories":[],"categories_nodes":[],"categories_segments":[],"categories_sizes":[],"default_left":[0,0,0,0,0,0,0,0,0,0,0,0,0,0,0,0,0,0,0,0,0,0,0],"id":31,"left_children":[1,3,5,7,9,11,-1,-1,13,15,-1,17,19,-1,-1,-1,21,-1,-1,-1,-1,-1,-1],"loss_changes":[1.192685E1,9.058016E0,2.227159E0,3.4500875E0,2.6480951E0,2.826405E0,0E0,0E0,2.009478E0,2.2510118E0,0E0,1.0229733E0,3.0198956E-1,0E0,0E0,0E0,9.862542E-2,0E0,0E0,0E0,0E0,0E0,0E0],"parents":[2147483647,0,0,1,1,2,2,3,3,4,4,5,5,8,8,9,9,11,11,12,12,16,16],"right_children":[2,4,6,8,10,12,-1,-1,14,16,-1,18,20,-1,-1,-1,22,-1,-1,-1,-1,-1,-1],"split_conditions":[1E0,1E0,1E0,1E0,1E0,1E0,5.2124705E-2,-4.9880456E-2,1E0,1E0,4.178558E-2,1E0,1E0,-2.3129074E-2,3.989162E-2,3.6987167E-2,1E0,-4.349962E-2,3.6213894E-3,8.589689E-3,4.483156E-2,-3.271359E-2,-8.874381E-3],"split_indices":[5,10,13,14,12,7,0,0,7,14,0,6,3,0,0,0,13,0,0,0,0,0,0],"split_type":[0,0,0,0,0,0,0,0,0,0,0,0,0,0,0,0,0,0,0,0,0,0,0],"sum_hessian":[4.1906162E1,2.7460508E1,1.4445653E1,1.8176802E1,9.283706E0,7.2858534E0,7.1598E0,1.5014683E1,3.1621187E0,4.726998E0,4.556708E0,3.3281288E0,3.9577246E0,1.8958452E0,1.2662735E0,1.0689371E0,3.6580608E0,1.1693377E0,2.158791E0,1.3588262E0,2.5988984E0,1.9686713E0,1.6893895E0],"tree_param":{"num_deleted":"0","num_feature":"15","num_nodes":"23","size_leaf_vector":"1"}},{"base_weights":[2.983634E-3,-3.420094E-1,6.450289E-1,-6.808593E-1,3.7812537E-1,3.3647406E-1,4.957331E-2,-9.714516E-1,1.7647877E-1,-2.6917478E-1,8.248961E-1,-2.6824927E-2,5.773326E-1,-1.0256747E-2,-5.1225226E-2,3.629705E-2,-3.0320395E-2,-3.4523882E-2,1.6639324E-2,1.1054662E-2,4.8363622E-2,1.0866682E-1,4.585521E-2,3.6051985E-2,-1.7367335E-2],"categories":[],"categories_nodes":[],"categories_segments":[],"categories_sizes":[],"default_left":[0,0,0,0,0,0,0,0,0,0,0,0,0,0,0,0,0,0,0,0,0,0,0,0,0],"id":32,"left_children":[1,3,5,7,9,11,-1,13,15,17,19,-1,21,-1,-1,-1,-1,-1,-1,-1,-1,23,-1,-1,-1],"loss_changes":[9.298756E0,6.9223194E0,1.2347169E0,4.8877296E0,2.9354014E0,2.2596712E0,0E0,3.7089062E-1,2.8656847E0,1.3926651E0,2.8450394E-1,0E0,1.1344557E0,0E0,0E0,0E0,0E0,0E0,0E0,0E0,0E0,1.4768138E0,0E0,0E0,0E0],"parents":[2147483647,0,0,1,1,2,2,3,3,4,4,5,5,7,7,8,8,9,9,10,10,12,12,21,21],"right_children":[2,4,6,8,10,12,-1,14,16,18,20,-1,22,-1,-1,-1,-1,-1,-1,-1,-1,24,-1,-1,-1],"split_conditions":[1E0,1E0,1E0,1E0,1E0,1E0,4.957331E-2,5.7E1,1E0,1E0,1E0,-2.6824927E-2,1E0,-1.0256747E-2,-5.1225226E-2,3.629705E-2,-3.0320395E-2,-3.4523882E-2,1.6639324E-2,1.1054662E-2,4.8363622E-2,6.4E1,4.585521E-2,3.6051985E-2,-1.7367335E-2],"split_indices":[8,5,3,9,3,10,0,1,0,0,4,0,12,0,0,0,0,0,0,0,0,1,0,0,0],"split_type":[0,0,0,0,0,0,0,0,0,0,0,0,0,0,0,0,0,0,0,0,0,0,0,0,0],"sum_hessian":[3.9984665E1,2.6313063E1,1.3671603E1,1.7930595E1,8.382466E0,8.273787E0,5.3978167E0,1.3292156E1,4.63844E0,3.5853586E0,4.7971077E0,1.5237248E0,6.7500615E0,1.1757528E0,1.2116404E1,2.768283E0,1.8701571E0,2.022675E0,1.5626837E0,1.4024302E0,3.3946774E0,3.3916266E0,3.358435E0,1.1995673E0,2.1920593E0],"tree_param":{"num_deleted":"0","num_feature":"15","num_nodes":"25","size_leaf_vector":"1"}},{"base_weights":[3.0608878E-2,-3.751353E-1,6.4527786E-1,-6.1586195E-1,1.809839E-1,3.5651407E-1,4.9640592E-2,-8.6989623E-1,1.5401179E-1,-4.5486712E-1,6.4853215E-1,-2.186677E-2,6.0143805E-1,-9.992494E-3,-4.584384E-2,3.4338903E-2,-3.0154401E-2,-4.5696244E-2,1.3041722E-2,5.0986684E-3,4.5001086E-2,4.7745857E-2,2.0438425E-1,-2.5300955E-2,4.3219715E-2],"categories":[],"categories_nodes":[],"categories_segments":[],"categories_sizes":[],"default_left":[0,0,0,0,0,0,0,0,0,0,0,0,0,0,0,0,0,0,0,0,0,0,0,0,0],"id":33,"left_children":[1,3,5,7,9,11,-1,13,15,17,19,-1,21,-1,-1,-1,-1,-1,-1,-1,-1,-1,23,-1,-1],"loss_changes":[1.0427783E1,3.4896004E0,1.3126674E0,3.622614E0,2.7910628E0,2.3300118E0,0E0,2.4370575E-1,2.5419862E0,1.6003633E0,6.2993574E-1,0E0,1.0041628E0,0E0,0E0,0E0,0E0,0E0,0E0,0E0,0E0,0E0,2.920975E0,0E0,0E0],"parents":[2147483647,0,0,1,1,2,2,3,3,4,4,5,5,7,7,8,8,9,9,10,10,12,12,22,22],"right_children":[2,4,6,8,10,12,-1,14,16,18,20,-1,22,-1,-1,-1,-1,-1,-1,-1,-1,-1,24,-1,-1],"split_conditions":[1E0,1E0,1E0,1E0,1E0,1E0,4.9640592E-2,5.7E1,1E0,1E0,1E0,-2.186677E-2,6.4E1,-9.992494E-3,-4.584384E-2,3.4338903E-2,-3.0154401E-2,-4.5696244E-2,1.3041722E-2,5.0986684E-3,4.5001086E-2,4.7745857E-2,7E1,-2.5300955E-2,4.3219715E-2],"split_indices":[8,5,3,9,3,10,0,1,0,0,7,0,1,0,0,0,0,0,0,0,0,0,1,0,0],"split_type":[0,0,0,0,0,0,0,0,0,0,0,0,0,0,0,0,0,0,0,0,0,0,0,0,0],"sum_hessian":[3.9841152E1,2.4233963E1,1.560719E1,1.6837923E1,7.396039E0,9.630832E0,5.976358E0,1.2562703E1,4.275221E0,3.1454492E0,4.25059E0,2.0855463E0,7.5452857E0,1.1673669E0,1.1395336E1,2.5639024E0,1.7113186E0,1.7475746E0,1.3978746E0,1.7824007E0,2.4681892E0,3.2483864E0,4.2968993E0,2.1818142E0,2.1150851E0],"tree_param":{"num_deleted":"0","num_feature":"15","num_nodes":"25","size_leaf_vector":"1"}},{"base_weights":[1.1535791E-1,-2.666605E-1,7.226137E-1,-6.01355E-1,4.6810114E-1,4.3260106E-1,4.9661495E-2,1.9531462E-2,-6.976925E-1,2.0387676E-2,4.7591023E-2,-2.0667331E-2,7.0535696E-1,-4.7953006E-2,-2.4906538E-1,2.356688E-2,-3.8269922E-1,3.6700185E-2,-2.2849482E-2,-1.4813676E-3,4.4760954E-2,-6.5295774E-1,3.0899925E-2,-3.3408012E-2,7.3478073E-3,-4.0230583E-2,-1.7197606E-3],"categories":[],"categories_nodes":[],"categories_segments":[],"categories_sizes":[],"default_left":[0,0,0,0,0,0,0,0,0,0,0,0,0,0,0,0,0,0,0,0,0,0,0,0,0,0,0],"id":34,"left_children":[1,3,5,7,9,11,-1,-1,13,15,-1,17,19,-1,21,-1,23,-1,-1,-1,-1,25,-1,-1,-1,-1,-1],"loss_changes":[9.322065E0,6.401792E0,7.8416157E-1,1.9484015E0,1.7891436E0,1.1565965E0,0E0,0E0,1.6774492E0,1.1544567E0,0E0,1.7980368E0,8.3525133E-1,0E0,2.983476E0,0E0,6.094512E-1,0E0,0E0,0E0,0E0,4.894066E-1,0E0,0E0,0E0,0E0,0E0],"parents":[2147483647,0,0,1,1,2,2,3,3,4,4,5,5,8,8,9,9,11,11,12,12,14,14,16,16,21,21],"right_children":[2,4,6,8,10,12,-1,-1,14,16,-1,18,20,-1,22,-1,24,-1,-1,-1,-1,26,-1,-1,-1,-1,-1],"split_conditions":[1E0,1E0,1E0,5.6E1,1E0,1E0,4.9661495E-2,1.9531462E-2,1E0,1E0,4.7591023E-2,1E0,1E0,-4.7953006E-2,1E0,2.356688E-2,1E0,3.6700185E-2,-2.2849482E-2,-1.4813676E-3,4.4760954E-2,6.2E1,3.0899925E-2,-3.3408012E-2,7.3478073E-3,-4.0230583E-2,-1.7197606E-3],"split_indices":[8,9,3,1,13,7,0,0,3,3,0,14,10,0,12,0,7,0,0,0,0,1,0,0,0,0,0],"split_type":[0,0,0,0,0,0,0,0,0,0,0,0,0,0,0,0,0,0,0,0,0,0,0,0,0,0,0],"sum_hessian":[3.835365E1,2.3887281E1,1.4466369E1,1.6536316E1,7.350966E0,8.237268E0,6.2290998E0,1.193374E0,1.5342941E1,4.3587804E0,2.9921854E0,3.4418297E0,4.795439E0,8.975879E0,6.367063E0,1.9773347E0,2.381446E0,1.0109761E0,2.4308536E0,1.1577134E0,3.6377256E0,4.512159E0,1.8549042E0,1.3775221E0,1.0039238E0,3.3821702E0,1.1299887E0],"tree_param":{"num_deleted":"0","num_feature":"15","num_nodes":"27","size_leaf_vector":"1"}},{"base_weights":[2.201668E-2,-3.7305036E-1,5.510786E-1,-6.1365545E-1,5.487068E-1,8.467757E-2,4.1867487E-2,-8.544788E-1,1.5116736E-1,-1.175133E-2,4.1831482E-2,-1.8103006E-1,3.582708E-2,-3.2824853E-3,-9.3635005E-1,-2.0519151E-1,3.3307273E-2,2.3169404E-2,-2.7090883E-2,-5.1173013E-2,-1.2179767E-2,-3.4936093E-2,2.8310874E-2],"categories":[],"categories_nodes":[],"categories_segments":[],"categories_sizes":[],"default_left":[0,0,0,0,0,0,0,0,0,0,0,0,0,0,0,0,0,0,0,0,0,0,0],"id":35,"left_children":[1,3,5,7,9,11,-1,13,15,-1,-1,17,-1,-1,19,21,-1,-1,-1,-1,-1,-1,-1],"loss_changes":[8.1034E0,5.2665806E0,2.1397705E0,3.4628615E0,1.3540589E0,1.3737676E0,0E0,8.372259E-1,1.0880373E0,0E0,0E0,1.6494652E0,0E0,0E0,5.069246E-1,1.8531348E0,0E0,0E0,0E0,0E0,0E0,0E0,0E0],"parents":[2147483647,0,0,1,1,2,2,3,3,4,4,5,5,7,7,8,8,11,11,14,14,15,15],"right_children":[2,4,6,8,10,12,-1,14,16,-1,-1,18,-1,-1,20,22,-1,-1,-1,-1,-1,-1,-1],"split_conditions":[1E0,1E0,1E0,1E0,1E0,1E0,4.1867487E-2,5.7E1,1E0,-1.175133E-2,4.1831482E-2,5.9E1,3.582708E-2,-3.2824853E-3,1E0,6.4E1,3.3307273E-2,2.3169404E-2,-2.7090883E-2,-5.1173013E-2,-1.2179767E-2,-3.4936093E-2,2.8310874E-2],"split_indices":[9,11,7,5,12,4,0,1,13,0,0,1,0,0,10,1,0,0,0,0,0,0,0],"split_type":[0,0,0,0,0,0,0,0,0,0,0,0,0,0,0,0,0,0,0,0,0,0,0],"sum_hessian":[3.6785915E1,2.1228682E1,1.5557235E1,1.7099482E1,4.1292E0,6.4098763E0,9.147359E0,1.2915494E1,4.183987E0,1.1587552E0,2.970445E0,5.014646E0,1.3952302E0,1.3838619E0,1.1531632E1,2.8283527E0,1.3556345E0,1.6977834E0,3.3168626E0,9.819505E0,1.7121269E0,1.782302E0,1.0460507E0],"tree_param":{"num_deleted":"0","num_feature":"15","num_nodes":"23","size_leaf_vector":"1"}},{"base_weights":[9.010493E-2,-3.007276E-1,6.0313344E-1,-5.4332095E-1,4.2626247E-1,3.464666E-1,4.6061907E-2,-7.3689216E-1,2.0350114E-1,-2.724984E-1,4.5458462E-2,1.03826344E-1,4.363383E-2,-4.1303903E-2,-3.3951715E-1,-1.428532E-2,3.9473485E-2,5.53916E-3,-2.6915682E-2,3.409331E-1,-2.633429E-2,-3.665193E-2,9.48872E-3,-2.7074382E-2,5.4153275E-1,2.756334E-4,-2.5321995E-3,-1.4182805E-3,3.932439E-2],"categories":[],"categories_nodes":[],"categories_segments":[],"categories_sizes":[],"default_left":[0,0,0,0,0,0,0,0,0,0,0,0,0,0,0,0,0,0,0,0,0,0,0,0,0,0,0,0,0],"id":36,"left_children":[1,3,5,7,9,11,-1,13,15,17,-1,19,-1,-1,21,-1,-1,-1,-1,23,-1,-1,-1,25,27,-1,-1,-1,-1],"loss_changes":[7.641671E0,4.073807E0,1.0215554E0,2.574943E0,2.276163E0,1.2744144E0,0E0,1.9932461E-1,1.4399885E0,3.8830635E-1,0E0,1.4431381E0,0E0,0E0,1.0096077E0,0E0,0E0,0E0,0E0,5.129095E-1,0E0,0E0,0E0,2.8395075E-3,6.3875544E-1,0E0,0E0,0E0,0E0],"parents":[2147483647,0,0,1,1,2,2,3,3,4,4,5,5,7,7,8,8,9,9,11,11,14,14,19,19,23,23,24,24],"right_children":[2,4,6,8,10,12,-1,14,16,18,-1,20,-1,-1,22,-1,-1,-1,-1,24,-1,-1,-1,26,28,-1,-1,-1,-1],"split_conditions":[1E0,1E0,1E0,1E0,6E1,1E0,4.6061907E-2,1E0,1E0,5.7E1,4.5458462E-2,1E0,4.363383E-2,-4.1303903E-2,6.3E1,-1.428532E-2,3.9473485E-2,5.53916E-3,-2.6915682E-2,1E0,-2.633429E-2,-3.665193E-2,9.48872E-3,6.8E1,1E0,2.756334E-4,-2.5321995E-3,-1.4182805E-3,3.932439E-2],"split_indices":[9,8,13,13,1,6,0,5,6,1,0,0,0,0,1,0,0,0,0,12,0,0,0,1,2,0,0,0,0],"split_type":[0,0,0,0,0,0,0,0,0,0,0,0,0,0,0,0,0,0,0,0,0,0,0,0,0,0,0,0,0],"sum_hessian":[3.6206917E1,2.0785807E1,1.5421109E1,1.5774552E1,5.0112543E0,9.690979E0,5.73013E0,1.2538066E1,3.236486E0,2.2259872E0,2.785267E0,7.4520707E0,2.2389085E0,9.358769E0,3.1792972E0,2.0431454E0,1.1933405E0,1.1504189E0,1.0755683E0,5.749298E0,1.7027724E0,1.6027386E0,1.5765586E0,2.3334782E0,3.4158201E0,1.300934E0,1.0325444E0,1.2926397E0,2.1231804E0],"tree_param":{"num_deleted":"0","num_feature":"15","num_nodes":"29","size_leaf_vector":"1"}},{"base_weights":[7.931403E-3,-3.6166674E-1,5.7875496E-1,-6.443343E-1,2.5147873E-1,3.016042E-1,4.7194224E-2,-8.465014E-1,-1.2356949E-1,-2.0796388E-1,4.3139916E-2,-2.9472807E-2,5.671798E-1,-9.475304E-1,-7.5963265E-3,1.1525583E-2,-3.5235664E-1,-5.0567704E-1,2.538384E-2,4.672748E-2,1.2001846E-1,-5.267913E-2,-4.3949845E-1,-4.1250414E-3,-2.5401046E-2,-4.092535E-2,1.5395671E-3,-2.0420354E-2,3.8075153E-2,-2.8501993E-2,-7.2612404E-3],"categories":[],"categories_nodes":[],"categories_segments":[],"categories_sizes":[],"default_left":[0,0,0,0,0,0,0,0,0,0,0,0,0,0,0,0,0,0,0,0,0,0,0,0,0,0,0,0,0,0,0],"id":37,"left_children":[1,3,5,7,9,11,-1,13,15,17,-1,-1,19,21,-1,-1,23,25,-1,-1,27,-1,29,-1,-1,-1,-1,-1,-1,-1,-1],"loss_changes":[7.996983E0,4.151942E0,1.2223053E0,1.583857E0,2.42169E0,2.6854763E0,0E0,6.5472794E-1,5.393955E-1,1.3994753E0,0E0,0E0,1.2289248E0,6.2018394E-2,0E0,0E0,1.1902794E-1,7.449719E-1,0E0,0E0,1.9480447E0,0E0,4.777825E-2,0E0,0E0,0E0,0E0,0E0,0E0,0E0,0E0],"parents":[2147483647,0,0,1,1,2,2,3,3,4,4,5,5,7,7,8,8,9,9,12,12,13,13,16,16,17,17,20,20,22,22],"right_children":[2,4,6,8,10,12,-1,14,16,18,-1,-1,20,22,-1,-1,24,26,-1,-1,28,-1,30,-1,-1,-1,-1,-1,-1,-1,-1],"split_conditions":[1E0,1E0,1E0,6.4E1,1E0,1E0,4.7194224E-2,1E0,6.8E1,6.3E1,4.3139916E-2,-2.9472807E-2,6.4E1,1E0,-7.5963265E-3,1.1525583E-2,1E0,1E0,2.538384E-2,4.672748E-2,7E1,-5.267913E-2,1E0,-4.1250414E-3,-2.5401046E-2,-4.092535E-2,1.5395671E-3,-2.0420354E-2,3.8075153E-2,-2.8501993E-2,-7.2612404E-3],"split_indices":[8,13,3,1,7,10,0,14,1,1,0,0,1,4,0,0,4,10,0,0,1,0,6,0,0,0,0,0,0,0,0],"split_type":[0,0,0,0,0,0,0,0,0,0,0,0,0,0,0,0,0,0,0,0,0,0,0,0,0,0,0,0,0,0,0],"sum_hessian":[3.5912693E1,2.2020937E1,1.3891755E1,1.5037567E1,6.98337E0,8.935389E0,4.9563665E0,1.0381752E1,4.6558156E0,4.363645E0,2.6197248E0,1.771638E0,7.1637506E0,8.745493E0,1.6362586E0,1.8245394E0,2.831276E0,3.288847E0,1.0747981E0,3.3343894E0,3.829361E0,6.3467526E0,2.3987408E0,1.5954444E0,1.2358315E0,1.7453508E0,1.543496E0,2.2989404E0,1.5304207E0,1.0124875E0,1.3862531E0],"tree_param":{"num_deleted":"0","num_feature":"15","num_nodes":"31","size_leaf_vector":"1"}},{"base_weights":[2.2344878E-2,-2.7346537E-1,6.753847E-1,-6.537872E-1,3.7371096E-1,2.1519224E-1,4.8917454E-2,-8.080255E-2,-8.0427265E-1,4.321228E-2,1.1420918E-1,-1.6270162E-1,3.417411E-2,-2.8684601E-2,2.578914E-2,-4.581062E-2,-2.4182035E-1,-1.4048095E-1,3.5014603E-2,-1.5138212E-2,2.1451656E-3,-3.0482793E-2,1.629389E-2,-3.7715048E-2,1.7997497E-1,-2.723868E-1,3.5400257E-2,4.6669046E-4,-2.049282E-2],"categories":[],"categories_nodes":[],"categories_segments":[],"categories_sizes":[],"default_left":[0,0,0,0,0,0,0,0,0,0,0,0,0,0,0,0,0,0,0,0,0,0,0,0,0,0,0,0,0],"id":38,"left_children":[1,3,5,7,9,11,-1,13,15,-1,17,19,-1,-1,-1,-1,21,23,-1,-1,-1,-1,-1,-1,25,27,-1,-1,-1],"loss_changes":[7.2777276E0,6.639592E0,1.4256234E0,1.3774924E0,1.2065265E0,1.1625019E0,0E0,1.6460117E0,6.055994E-1,0E0,1.2713811E0,1.309276E-1,0E0,0E0,0E0,0E0,9.3773735E-1,1.3770925E0,0E0,0E0,0E0,0E0,0E0,0E0,1.376054E0,1.3511702E-1,0E0,0E0,0E0],"parents":[2147483647,0,0,1,1,2,2,3,3,4,4,5,5,7,7,8,8,10,10,11,11,16,16,17,17,24,24,25,25],"right_children":[2,4,6,8,10,12,-1,14,16,-1,18,20,-1,-1,-1,-1,22,24,-1,-1,-1,-1,-1,-1,26,28,-1,-1,-1],"split_conditions":[1E0,1E0,1E0,1E0,1E0,1E0,4.8917454E-2,1E0,1E0,4.321228E-2,1E0,1E0,3.417411E-2,-2.8684601E-2,2.578914E-2,-4.581062E-2,6.3E1,1E0,3.5014603E-2,-1.5138212E-2,2.1451656E-3,-3.0482793E-2,1.629389E-2,-3.7715048E-2,1E0,6.7E1,3.5400257E-2,4.6669046E-4,-2.049282E-2],"split_indices":[13,8,5,0,2,12,0,2,5,0,3,10,0,0,0,0,1,10,0,0,0,0,0,0,12,1,0,0,0],"split_type":[0,0,0,0,0,0,0,0,0,0,0,0,0,0,0,0,0,0,0,0,0,0,0,0,0,0,0,0,0],"sum_hessian":[3.571801E1,2.4982721E1,1.0735289E1,1.57290945E1,9.253627E0,4.9407496E0,5.7945395E0,3.5914245E0,1.21376705E1,2.3953354E0,6.8582916E0,3.095417E0,1.8453325E0,1.9876405E0,1.6037838E0,9.598423E0,2.539247E0,5.310743E0,1.5475489E0,1.5600936E0,1.5353234E0,1.4960104E0,1.0432365E0,1.3572158E0,3.953527E0,2.39009E0,1.563437E0,1.0894828E0,1.3006071E0],"tree_param":{"num_deleted":"0","num_feature":"15","num_nodes":"29","size_leaf_vector":"1"}},{"base_weights":[1.8699149E-2,-2.9462945E-1,6.1479837E-1,-5.6097025E-1,3.348762E-1,3.442444E-1,4.6049494E-2,-7.2455674E-1,1.0191227E-1,-1.3810652E-1,4.0943842E-2,-3.2463048E-2,5.803793E-1,-8.549893E-1,-3.9087065E-2,2.8170828E-2,-1.6609546E-2,-2.7754277E-1,7.5939186E-3,1.3115804E-1,4.392272E-2,-9.1696513E-4,-4.7745395E-2,-5.753999E-3,2.2859143E-3,-2.125014E-2,-1.2578706E-3,3.446904E-2,-1.7138798E-2],"categories":[],"categories_nodes":[],"categories_segments":[],"categories_sizes":[],"default_left":[0,0,0,0,0,0,0,0,0,0,0,0,0,0,0,0,0,0,0,0,0,0,0,0,0,0,0,0,0],"id":39,"left_children":[1,3,5,7,9,11,-1,13,15,17,-1,-1,19,21,23,-1,-1,25,-1,27,-1,-1,-1,-1,-1,-1,-1,-1,-1],"loss_changes":[7.0040393E0,4.3157625E0,7.524209E-1,1.9904199E0,1.93211E0,2.359348E0,0E0,1.2450433E0,1.0636598E0,2.3924622E-1,0E0,0E0,8.6974E-1,9.827614E-1,2.6746472E-2,0E0,0E0,1.24975264E-1,0E0,1.3235248E0,0E0,0E0,0E0,0E0,0E0,0E0,0E0,0E0,0E0],"parents":[2147483647,0,0,1,1,2,2,3,3,4,4,5,5,7,7,8,8,9,9,12,12,13,13,14,14,17,17,19,19],"right_children":[2,4,6,8,10,12,-1,14,16,18,-1,-1,20,22,24,-1,-1,26,-1,28,-1,-1,-1,-1,-1,-1,-1,-1,-1],"split_conditions":[1E0,1E0,1E0,1E0,1E0,1E0,4.6049494E-2,1E0,1E0,6.2E1,4.0943842E-2,-3.2463048E-2,1E0,1E0,6.3E1,2.8170828E-2,-1.6609546E-2,1E0,7.5939186E-3,6.4E1,4.392272E-2,-9.1696513E-4,-4.7745395E-2,-5.753999E-3,2.2859143E-3,-2.125014E-2,-1.2578706E-3,3.446904E-2,-1.7138798E-2],"split_indices":[8,13,3,14,12,10,0,5,0,1,0,0,12,0,1,0,0,2,0,1,0,0,0,0,0,0,0,0,0],"split_type":[0,0,0,0,0,0,0,0,0,0,0,0,0,0,0,0,0,0,0,0,0,0,0,0,0,0,0,0,0],"sum_hessian":[3.553007E1,2.3620256E1,1.1909817E1,1.6674309E1,6.945947E0,7.4506354E0,4.459181E0,1.3299268E1,3.375041E0,3.8744006E0,3.0715468E0,1.0948157E0,6.3558197E0,1.0965439E1,2.3338296E0,1.4915047E0,1.8835365E0,2.645328E0,1.2290723E0,3.1095352E0,3.2462847E0,1.296124E0,9.669314E0,1.0425897E0,1.2912401E0,1.2380401E0,1.4072881E0,1.2190664E0,1.8904688E0],"tree_param":{"num_deleted":"0","num_feature":"15","num_nodes":"29","size_leaf_vector":"1"}},{"base_weights":[5.5834804E-2,-2.4829094E-1,6.1333776E-1,-5.427903E-1,3.4325543E-1,4.7877625E-2,3.2339224E-1,-7.3598975E-1,1.6468324E-1,-1.9739893E-1,7.470079E-1,-1.9814914E-1,5.8310014E-1,-4.7375165E-2,-1.1300275E-1,-1.4263081E-2,2.2781525E-2,-3.3109207E-2,2.56953E-2,1.031468E-2,4.4201728E-2,-3.800362E-2,2.8900882E-2,4.038586E-2,2.3978017E-1,-3.8301125E-2,3.5315305E-2,-1.0998342E-2,3.1951554E-2],"categories":[],"categories_nodes":[],"categories_segments":[],"categories_sizes":[],"default_left":[0,0,0,0,0,0,0,0,0,0,0,0,0,0,0,0,0,0,0,0,0,0,0,0,0,0,0,0,0],"id":40,"left_children":[1,3,5,7,9,-1,11,13,15,17,19,21,23,-1,25,-1,-1,-1,-1,-1,-1,-1,-1,-1,27,-1,-1,-1,-1],"loss_changes":[5.968827E0,4.177238E0,9.275856E-1,2.2646513E0,1.9433062E0,0E0,1.2314763E0,1.5401645E0,6.773088E-1,1.7645851E0,1.8207026E-1,1.9593796E0,2.5002134E-1,0E0,2.8437328E0,0E0,0E0,0E0,0E0,0E0,0E0,0E0,0E0,0E0,8.1930274E-1,0E0,0E0,0E0,0E0],"parents":[2147483647,0,0,1,1,2,2,3,3,4,4,6,6,7,7,8,8,9,9,10,10,11,11,12,12,14,14,24,24],"right_children":[2,4,6,8,10,-1,12,14,16,18,20,22,24,-1,26,-1,-1,-1,-1,-1,-1,-1,-1,-1,28,-1,-1,-1,-1],"split_conditions":[1E0,1E0,1E0,1E0,1E0,4.7877625E-2,1E0,1E0,1E0,1E0,1E0,1E0,6.4E1,-4.7375165E-2,1E0,-1.4263081E-2,2.2781525E-2,-3.3109207E-2,2.56953E-2,1.031468E-2,4.4201728E-2,-3.800362E-2,2.8900882E-2,4.038586E-2,7E1,-3.8301125E-2,3.5315305E-2,-1.0998342E-2,3.1951554E-2],"split_indices":[8,5,2,10,3,0,10,6,9,0,4,3,1,0,2,0,0,0,0,0,0,0,0,0,1,0,0,0,0],"split_type":[0,0,0,0,0,0,0,0,0,0,0,0,0,0,0,0,0,0,0,0,0,0,0,0,0,0,0,0,0],"sum_hessian":[3.3305546E1,2.1908686E1,1.139686E1,1.4681816E1,7.2268705E0,4.1580367E0,7.2388234E0,1.1500822E1,3.1809943E0,3.3081295E0,3.918741E0,2.4851713E0,4.753652E0,8.196936E0,3.3038867E0,1.2568458E0,1.9241484E0,2.042539E0,1.2655907E0,1.2988626E0,2.6198783E0,1.4535657E0,1.0316056E0,2.0559082E0,2.697744E0,1.8747104E0,1.4291761E0,1.4625888E0,1.235155E0],"tree_param":{"num_deleted":"0","num_feature":"15","num_nodes":"29","size_leaf_vector":"1"}},{"base_weights":[1.3154991E-1,-1.5102129E-1,6.0282224E-1,-4.1694295E-1,4.0507945E-1,4.6796896E-2,3.5855478E-1,-5.509135E-1,1.1132136E-2,-2.6140276E-2,8.023064E-1,5.709353E-1,3.1389292E-2,2.2404803E-2,-6.857763E-1,-2.2533083E-2,3.3078637E-2,1.2524453E-2,4.5375433E-2,2.7652788E-3,4.2495992E-2,-2.2159832E-2,3.599092E-2,-4.2737767E-2,-1.1003357E-1,-1.920228E-2,1.4110825E-2],"categories":[],"categories_nodes":[],"categories_segments":[],"categories_sizes":[],"default_left":[0,0,0,0,0,0,0,0,0,0,0,0,0,0,0,0,0,0,0,0,0,0,0,0,0,0,0],"id":41,"left_children":[1,3,5,7,9,-1,11,13,-1,15,17,19,21,-1,23,-1,-1,-1,-1,-1,-1,-1,-1,-1,25,-1,-1],"loss_changes":[4.6801887E0,3.4730358E0,7.318053E-1,1.4600589E0,1.345963E0,0E0,6.2057865E-1,2.0847616E0,0E0,1.6637028E0,8.249283E-3,7.461852E-1,1.8465339E0,0E0,1.0752511E0,0E0,0E0,0E0,0E0,0E0,0E0,0E0,0E0,0E0,5.248601E-1,0E0,0E0],"parents":[2147483647,0,0,1,1,2,2,3,3,4,4,6,6,7,7,9,9,10,10,11,11,12,12,14,14,24,24],"right_children":[2,4,6,8,10,-1,12,14,-1,16,18,20,22,-1,24,-1,-1,-1,-1,-1,-1,-1,-1,-1,26,-1,-1],"split_conditions":[1E0,1E0,1E0,1E0,1E0,4.6796896E-2,6.4E1,5.7E1,1.1132136E-2,1E0,5.9E1,1E0,7E1,2.2404803E-2,1E0,-2.2533083E-2,3.3078637E-2,1.2524453E-2,4.5375433E-2,2.7652788E-3,4.2495992E-2,-2.2159832E-2,3.599092E-2,-4.2737767E-2,1E0,-1.920228E-2,1.4110825E-2],"split_indices":[8,13,2,10,12,0,1,1,0,5,1,10,1,0,6,0,0,0,0,0,0,0,0,0,2,0,0],"split_type":[0,0,0,0,0,0,0,0,0,0,0,0,0,0,0,0,0,0,0,0,0,0,0,0,0,0,0],"sum_hessian":[3.346136E1,2.1343506E1,1.2117854E1,1.4608236E1,6.73527E0,3.9286342E0,8.18922E0,1.2192896E1,2.4153404E0,3.677385E0,3.057885E0,4.5139065E0,3.6753135E0,1.1739721E0,1.1018924E1,2.4869192E0,1.190466E0,1.0310006E0,2.0268843E0,2.0055013E0,2.508405E0,2.3864055E0,1.2889081E0,8.144052E0,2.8748724E0,1.7048447E0,1.1700277E0],"tree_param":{"num_deleted":"0","num_feature":"15","num_nodes":"27","size_leaf_vector":"1"}},{"base_weights":[2.1362437E-2,-3.4890163E-1,5.933737E-1,-6.35158E-1,-2.2521425E-2,4.7099832E-2,3.2375416E-1,-4.1872676E-2,3.0889153E-2,-3.526421E-1,4.701177E-2,-9.55809E-3,5.227821E-1,-3.0268325E-2,3.316925E-2,-7.5867546E-1,2.8626664E-2,9.689233E-3,3.9421733E-2,-4.7478348E-2,-5.145874E-3],"categories":[],"categories_nodes":[],"categories_segments":[],"categories_sizes":[],"default_left":[0,0,0,0,0,0,0,0,0,0,0,0,0,0,0,0,0,0,0,0,0],"id":42,"left_children":[1,3,5,7,9,-1,11,-1,13,15,-1,-1,17,-1,-1,19,-1,-1,-1,-1,-1],"loss_changes":[6.967702E0,1.8549507E0,9.088316E-1,1.4570713E0,3.6322708E0,0E0,1.0023451E0,0E0,1.7855561E0,3.6126657E0,0E0,0E0,4.2566442E-1,0E0,0E0,6.9217706E-1,0E0,0E0,0E0,0E0,0E0],"parents":[2147483647,0,0,1,1,2,2,3,3,4,4,6,6,8,8,9,9,12,12,15,15],"right_children":[2,4,6,8,10,-1,12,-1,14,16,-1,-1,18,-1,-1,20,-1,-1,-1,-1,-1],"split_conditions":[1E0,1E0,1E0,1E0,1E0,4.7099832E-2,1E0,-4.1872676E-2,1E0,1E0,4.701177E-2,-9.55809E-3,1E0,-3.0268325E-2,3.316925E-2,1E0,2.8626664E-2,9.689233E-3,3.9421733E-2,-4.7478348E-2,-5.145874E-3],"split_indices":[8,3,2,9,6,0,10,0,10,7,0,0,12,0,0,10,0,0,0,0,0],"split_type":[0,0,0,0,0,0,0,0,0,0,0,0,0,0,0,0,0,0,0,0,0],"sum_hessian":[3.0920801E1,1.900735E1,1.1913451E1,9.622091E0,9.385259E0,4.1079717E0,7.80548E0,7.1830626E0,2.4390285E0,7.460751E0,1.924508E0,2.186971E0,5.618509E0,1.2372832E0,1.2017453E0,5.3102136E0,2.1505375E0,3.2826173E0,2.3358912E0,3.7659101E0,1.5443034E0],"tree_param":{"num_deleted":"0","num_feature":"15","num_nodes":"21","size_leaf_vector":"1"}},{"base_weights":[5.9644092E-2,-2.9369172E-1,4.9736178E-1,-5.326099E-1,3.9028306E-2,2.0496967E-1,4.8324153E-2,-4.05747E-2,-8.1782185E-2,-2.6378787E-1,4.4804332E-1,-4.1786152E-1,3.8221013E-2,1.0694707E-2,-2.7884355E-2,1.9578844E-2,7.567917E-1,-5.8258945E-1,5.630677E-3,-1.3018988E-2,2.0891633E-2,4.382625E-2,1.0583454E-2,-3.7599385E-2,-7.0880405E-3],"categories":[],"categories_nodes":[],"categories_segments":[],"categories_sizes":[],"default_left":[0,0,0,0,0,0,0,0,0,0,0,0,0,0,0,0,0,0,0,0,0,0,0,0,0],"id":43,"left_children":[1,3,5,7,-1,9,-1,-1,11,13,15,17,-1,-1,-1,19,21,23,-1,-1,-1,-1,-1,-1,-1],"loss_changes":[5.2872653E0,5.298044E0,1.8894682E0,1.9649024E0,0E0,1.3310761E0,0E0,0E0,2.3916733E0,7.179594E-1,9.6151626E-1,5.778414E-1,0E0,0E0,0E0,5.678737E-1,9.270191E-2,2.3951077E-1,0E0,0E0,0E0,0E0,0E0,0E0,0E0],"parents":[2147483647,0,0,1,1,2,2,3,3,5,5,8,8,9,9,10,10,11,11,15,15,16,16,17,17],"right_children":[2,4,6,8,-1,10,-1,-1,12,14,16,18,-1,-1,-1,20,22,24,-1,-1,-1,-1,-1,-1,-1],"split_conditions":[1E0,1E0,1E0,1E0,3.9028306E-2,1E0,4.8324153E-2,-4.05747E-2,1E0,1E0,1E0,1E0,3.8221013E-2,1.0694707E-2,-2.7884355E-2,6.6E1,6.9E1,1E0,5.630677E-3,-1.3018988E-2,2.0891633E-2,4.382625E-2,1.0583454E-2,-3.7599385E-2,-7.0880405E-3],"split_indices":[11,9,6,3,0,12,0,0,6,14,14,12,0,0,0,1,1,10,0,0,0,0,0,0,0],"split_type":[0,0,0,0,0,0,0,0,0,0,0,0,0,0,0,0,0,0,0,0,0,0,0,0,0],"sum_hessian":[3.2241623E1,1.8022491E1,1.4219131E1,1.5155966E1,2.8665254E0,9.644727E0,4.5744057E0,8.869341E0,6.286625E0,3.2643476E0,6.3803787E0,4.8618684E0,1.4247568E0,1.3470966E0,1.9172511E0,3.1174972E0,3.2628815E0,3.6348886E0,1.2269797E0,2.033919E0,1.0835782E0,2.1768153E0,1.0860662E0,2.1159408E0,1.5189477E0],"tree_param":{"num_deleted":"0","num_feature":"15","num_nodes":"25","size_leaf_vector":"1"}},{"base_weights":[6.460942E-2,-3.6257425E-1,5.931757E-1,-5.622883E-1,4.2465279E-1,2.2935013E-1,4.9092E-2,-7.760887E-1,6.6350214E-2,-6.462782E-3,3.884446E-2,3.6531355E-2,-5.3656686E-2,-4.4767734E-2,-4.9431627E-3,3.1401597E-2,-2.0497974E-2,-3.8978565E-1,3.48069E-2,-6.134383E-1,1.2051616E-3,-3.6945835E-2,-8.566154E-3],"categories":[],"categories_nodes":[],"categories_segments":[],"categories_sizes":[],"default_left":[0,0,0,0,0,0,0,0,0,0,0,0,0,0,0,0,0,0,0,0,0,0,0],"id":44,"left_children":[1,3,5,7,9,11,-1,13,15,-1,-1,-1,17,-1,-1,-1,-1,19,-1,21,-1,-1,-1],"loss_changes":[7.4630117E0,3.1273835E0,1.8572559E0,2.0790138E0,9.369611E-1,1.3033863E0,0E0,8.270612E-1,1.52818E0,0E0,0E0,0E0,1.9415803E0,0E0,0E0,0E0,0E0,4.9770176E-1,0E0,6.338942E-2,0E0,0E0,0E0],"parents":[2147483647,0,0,1,1,2,2,3,3,4,4,5,5,7,7,8,8,12,12,17,17,19,19],"right_children":[2,4,6,8,10,12,-1,14,16,-1,-1,-1,18,-1,-1,-1,-1,20,-1,22,-1,-1,-1],"split_conditions":[1E0,1E0,1E0,1E0,5.9E1,6.1E1,4.9092E-2,1E0,1E0,-6.462782E-3,3.884446E-2,3.6531355E-2,1E0,-4.4767734E-2,-4.9431627E-3,3.1401597E-2,-2.0497974E-2,1E0,3.48069E-2,6.7E1,1.2051616E-3,-3.6945835E-2,-8.566154E-3],"split_indices":[10,8,12,5,1,1,0,14,14,0,0,0,0,0,0,0,0,5,0,1,0,0,0],"split_type":[0,0,0,0,0,0,0,0,0,0,0,0,0,0,0,0,0,0,0,0,0,0,0],"sum_hessian":[3.1099667E1,1.7372982E1,1.3726684E1,1.408536E1,3.2876227E0,7.9111843E0,5.8155E0,1.0335645E1,3.7497153E0,1.5240401E0,1.7635826E0,2.2839932E0,5.627191E0,8.514132E0,1.8215129E0,1.5744865E0,2.1752288E0,4.216914E0,1.4102769E0,2.424602E0,1.7923123E0,1.3656813E0,1.0589207E0],"tree_param":{"num_deleted":"0","num_feature":"15","num_nodes":"23","size_leaf_vector":"1"}},{"base_weights":[6.199084E-2,-2.3550087E-1,5.907632E-1,-5.2481145E-1,3.5702997E-1,3.1442124E-1,4.4292662E-2,5.447249E-2,-7.4236107E-1,3.492876E-3,3.6870196E-2,-1.1380194E-2,4.820981E-1,2.1252798E-2,-1.5348479E-2,-4.7826346E-2,1.6199332E-3,-1.7692065E-2,3.3290926E-2,4.1159604E-2,3.4273144E-2,-2.2719966E-2,2.9856473E-2],"categories":[],"categories_nodes":[],"categories_segments":[],"categories_sizes":[],"default_left":[0,0,0,0,0,0,0,0,0,0,0,0,0,0,0,0,0,0,0,0,0,0,0],"id":45,"left_children":[1,3,5,7,9,11,-1,13,15,17,-1,-1,19,-1,-1,-1,-1,-1,-1,-1,21,-1,-1],"loss_changes":[5.048244E0,3.7335558E0,6.609678E-1,1.8431461E0,9.901075E-1,7.91347E-1,0E0,7.783746E-1,1.7678404E0,1.3788712E0,0E0,0E0,8.957077E-1,0E0,0E0,0E0,0E0,0E0,0E0,0E0,1.2776362E0,0E0,0E0],"parents":[2147483647,0,0,1,1,2,2,3,3,4,4,5,5,7,7,8,8,9,9,12,12,20,20],"right_children":[2,4,6,8,10,12,-1,14,16,18,-1,-1,20,-1,-1,-1,-1,-1,-1,-1,22,-1,-1],"split_conditions":[1E0,1E0,1E0,1E0,1E0,1E0,4.4292662E-2,1E0,1E0,1E0,3.6870196E-2,-1.1380194E-2,6.4E1,2.1252798E-2,-1.5348479E-2,-4.7826346E-2,1.6199332E-3,-1.7692065E-2,3.3290926E-2,4.1159604E-2,1E0,-2.2719966E-2,2.9856473E-2],"split_indices":[8,13,3,0,12,10,0,5,5,9,0,0,1,0,0,0,0,0,0,0,12,0,0],"split_type":[0,0,0,0,0,0,0,0,0,0,0,0,0,0,0,0,0,0,0,0,0,0,0],"sum_hessian":[3.0207567E1,1.968644E1,1.0521127E1,1.3304594E1,6.3818455E0,6.4997954E0,4.021332E0,3.8370452E0,9.467549E0,3.8306477E0,2.551198E0,1.4512266E0,5.0485687E0,1.8076632E0,2.029382E0,7.233414E0,2.2341352E0,2.7907548E0,1.039893E0,2.3899899E0,2.658579E0,1.5262113E0,1.1323678E0],"tree_param":{"num_deleted":"0","num_feature":"15","num_nodes":"23","size_leaf_vector":"1"}},{"base_weights":[1.0345305E-1,-1.3781492E-1,6.249677E-1,-4.0968508E-1,3.946118E-1,2.2915216E-1,4.5432E-2,1.03920475E-1,-6.550555E-1,-3.157608E-2,4.1076466E-2,-1.0168631E-1,3.036262E-2,5.5725254E-2,-4.1183513E-1,-5.1283907E-2,-1.637073E-1,7.6203602E-3,-1.4070093E-2,-3.928074E-2,8.798184E-3,-2.2047216E-2,1.0329013E-2],"categories":[],"categories_nodes":[],"categories_segments":[],"categories_sizes":[],"default_left":[0,0,0,0,0,0,0,0,0,0,0,0,0,0,0,0,0,0,0,0,0,0,0],"id":46,"left_children":[1,3,5,7,9,11,-1,13,15,-1,-1,17,-1,-1,19,-1,21,-1,-1,-1,-1,-1,-1],"loss_changes":[3.9465396E0,3.316632E0,9.016924E-1,1.9482181E0,3.9694552E0,7.4524593E-1,0E0,3.4227533E0,1.6955171E0,0E0,0E0,2.1507564E-1,0E0,0E0,1.1258307E0,0E0,6.6491437E-1,0E0,0E0,0E0,0E0,0E0,0E0],"parents":[2147483647,0,0,1,1,2,2,3,3,4,4,5,5,7,7,8,8,11,11,14,14,16,16],"right_children":[2,4,6,8,10,12,-1,14,16,-1,-1,18,-1,-1,20,-1,22,-1,-1,-1,-1,-1,-1],"split_conditions":[1E0,1E0,1E0,1E0,1E0,1E0,4.5432E-2,1E0,6E1,-3.157608E-2,4.1076466E-2,6.1E1,3.036262E-2,5.5725254E-2,1E0,-5.1283907E-2,1E0,7.6203602E-3,-1.4070093E-2,-3.928074E-2,8.798184E-3,-2.2047216E-2,1.0329013E-2],"split_indices":[13,14,5,12,12,12,0,4,1,0,0,1,0,0,3,0,3,0,0,0,0,0,0],"split_type":[0,0,0,0,0,0,0,0,0,0,0,0,0,0,0,0,0,0,0,0,0,0,0],"sum_hessian":[2.968084E1,2.0795822E1,8.885016E0,1.3918982E1,6.876841E0,4.464035E0,4.4209814E0,4.686258E0,9.232724E0,1.8796586E0,4.9971824E0,2.770714E0,1.6933206E0,1.1912247E0,3.495033E0,4.643026E0,4.5896983E0,1.2107831E0,1.559931E0,1.9307425E0,1.5642905E0,2.5155053E0,2.0741932E0],"tree_param":{"num_deleted":"0","num_feature":"15","num_nodes":"23","size_leaf_vector":"1"}},{"base_weights":[2.8222287E-2,-2.2989364E-1,5.309477E-1,-4.8306E-1,1.8005595E-1,1.6499689E-1,4.47581E-2,-6.7858154E-1,1.9936529E-1,-3.3190912E-1,3.4513853E-2,-3.0116057E-1,5.333041E-1,-4.1682288E-2,-4.2970955E-1,-1.3397773E-2,3.5305195E-2,-2.178864E-2,-6.459997E-3,4.785515E-3,-2.6110759E-2,4.1877814E-2,2.274683E-5,-2.8835354E-2,-4.479022E-3],"categories":[],"categories_nodes":[],"categories_segments":[],"categories_sizes":[],"default_left":[0,0,0,0,0,0,0,0,0,0,0,0,0,0,0,0,0,0,0,0,0,0,0,0,0],"id":47,"left_children":[1,3,5,7,9,11,-1,13,15,17,-1,19,21,-1,23,-1,-1,-1,-1,-1,-1,-1,-1,-1,-1],"loss_changes":[4.049669E0,2.2350607E0,1.2611933E0,1.8787978E0,2.4834926E0,1.2763638E0,0E0,4.2505264E-2,1.061368E0,4.861325E-2,0E0,3.5768774E-1,6.4668524E-1,0E0,2.5082934E-1,0E0,0E0,0E0,0E0,0E0,0E0,0E0,0E0,0E0,0E0],"parents":[2147483647,0,0,1,1,2,2,3,3,4,4,5,5,7,7,8,8,9,9,11,11,12,12,14,14],"right_children":[2,4,6,8,10,12,-1,14,16,18,-1,20,22,-1,24,-1,-1,-1,-1,-1,-1,-1,-1,-1,-1],"split_conditions":[1E0,1E0,1E0,1E0,1E0,1E0,4.47581E-2,1E0,1E0,1E0,3.4513853E-2,1E0,1E0,-4.1682288E-2,1E0,-1.3397773E-2,3.5305195E-2,-2.178864E-2,-6.459997E-3,4.785515E-3,-2.6110759E-2,4.1877814E-2,2.274683E-5,-2.8835354E-2,-4.479022E-3],"split_indices":[5,10,13,14,12,0,0,2,0,4,0,6,14,0,6,0,0,0,0,0,0,0,0,0,0],"split_type":[0,0,0,0,0,0,0,0,0,0,0,0,0,0,0,0,0,0,0,0,0,0,0,0,0],"sum_hessian":[2.9267908E1,1.9697342E1,9.570565E0,1.206698E1,7.630362E0,5.4986854E0,4.0718803E0,9.384004E0,2.6829765E0,3.9831135E0,3.6472485E0,2.5074182E0,2.991267E0,4.333956E0,5.0500484E0,1.6409172E0,1.0420592E0,1.873454E0,2.1096597E0,1.0998425E0,1.4075757E0,1.5400609E0,1.4512061E0,3.040463E0,2.0095854E0],"tree_param":{"num_deleted":"0","num_feature":"15","num_nodes":"25","size_leaf_vector":"1"}},{"base_weights":[2.2648196E-3,-2.9377672E-1,5.282616E-1,-5.0337726E-1,2.1567903E-1,4.4288035E-2,2.4730708E-1,-3.0370213E-2,-6.8354195E-1,-1.9613352E-1,3.7594162E-2,-1.2636474E-2,4.3277285E-1,-5.058358E-1,2.5966987E-2,-4.359969E-2,-5.135824E-2,-1.6464813E-2,1.9582703E-3,3.803127E-2,5.509283E-2,-6.7152306E-3,-3.1780493E-2,-1.6113011E-2,1.4795601E-2,-2.0680979E-2,3.266205E-2],"categories":[],"categories_nodes":[],"categories_segments":[],"categories_sizes":[],"default_left":[0,0,0,0,0,0,0,0,0,0,0,0,0,0,0,0,0,0,0,0,0,0,0,0,0,0,0],"id":48,"left_children":[1,3,5,7,9,-1,11,13,15,17,-1,-1,19,21,-1,-1,23,-1,-1,-1,25,-1,-1,-1,-1,-1,-1],"loss_changes":[4.7217913E0,2.180955E0,8.776283E-1,1.1766007E0,1.5512503E0,0E0,8.0503505E-1,1.5491582E0,1.1618681E0,1.5041189E-1,0E0,0E0,6.812738E-1,6.631082E-2,0E0,0E0,4.1413498E-1,0E0,0E0,0E0,1.3333316E0,0E0,0E0,0E0,0E0,0E0,0E0],"parents":[2147483647,0,0,1,1,2,2,3,3,4,4,6,6,7,7,8,8,9,9,12,12,13,13,16,16,20,20],"right_children":[2,4,6,8,10,-1,12,14,16,18,-1,-1,20,22,-1,-1,24,-1,-1,-1,26,-1,-1,-1,-1,-1,-1],"split_conditions":[1E0,1E0,1E0,1E0,1E0,4.4288035E-2,1E0,1E0,1E0,6.1E1,3.7594162E-2,-1.2636474E-2,6.4E1,1E0,2.5966987E-2,-4.359969E-2,6.3E1,-1.6464813E-2,1.9582703E-3,3.803127E-2,7E1,-6.7152306E-3,-3.1780493E-2,-1.6113011E-2,1.4795601E-2,-2.0680979E-2,3.266205E-2],"split_indices":[8,13,2,0,5,0,10,2,5,1,0,0,1,4,0,0,1,0,0,0,1,0,0,0,0,0,0],"split_type":[0,0,0,0,0,0,0,0,0,0,0,0,0,0,0,0,0,0,0,0,0,0,0,0,0,0,0],"sum_hessian":[2.8326298E1,1.840761E1,9.918687E0,1.3050358E1,5.3572526E0,3.4174664E0,6.50122E0,3.9220138E0,9.128344E0,3.3888137E0,1.9684392E0,1.6608114E0,4.840409E0,2.145822E0,1.7761918E0,6.739874E0,2.3884695E0,1.9089829E0,1.4798307E0,2.0483541E0,2.792055E0,1.0822762E0,1.0635457E0,1.3822273E0,1.0062423E0,1.7383631E0,1.0536917E0],"tree_param":{"num_deleted":"0","num_feature":"15","num_nodes":"27","size_leaf_vector":"1"}},{"base_weights":[2.0351042E-1,-3.207765E-2,6.736615E-1,-3.3640674E-1,4.374871E-1,3.6441764E-1,4.7479432E-2,-5.520515E-1,2.3046452E-1,-2.332078E-3,6.018477E-1,6.9068305E-2,3.6896985E-2,-3.9202284E-2,-1.6564137E-1,-3.0863005E-1,4.658262E-2,1.2745401E-4,4.4024907E-2,-5.6883716E-3,1.4899558E-2,1.21788215E-2,-4.0100068E-1,-2.8483277E-2,5.31522E-3,-3.1416647E-2,4.1353755E-4],"categories":[],"categories_nodes":[],"categories_segments":[],"categories_sizes":[],"default_left":[0,0,0,0,0,0,0,0,0,0,0,0,0,0,0,0,0,0,0,0,0,0,0,0,0,0,0],"id":49,"left_children":[1,3,5,7,9,11,-1,13,15,-1,17,19,-1,-1,21,23,-1,-1,-1,-1,-1,-1,25,-1,-1,-1,-1],"loss_changes":[3.273862E0,3.078863E0,4.9420118E-1,1.7179891E0,7.0460796E-1,6.402958E-1,0E0,7.4161243E-1,1.9097972E0,0E0,1.0697377E0,2.2653781E-1,0E0,0E0,5.710412E-1,4.047115E-1,0E0,0E0,0E0,0E0,0E0,0E0,3.3066696E-1,0E0,0E0,0E0,0E0],"parents":[2147483647,0,0,1,1,2,2,3,3,4,4,5,5,7,7,8,8,10,10,11,11,14,14,15,15,22,22],"right_children":[2,4,6,8,10,12,-1,14,16,-1,18,20,-1,-1,22,24,-1,-1,-1,-1,-1,-1,26,-1,-1,-1,-1],"split_conditions":[1E0,1E0,1E0,6.4E1,1E0,1E0,4.7479432E-2,1E0,1E0,-2.332078E-3,1E0,6.2E1,3.6896985E-2,-3.9202284E-2,5.8E1,1E0,4.658262E-2,1.2745401E-4,4.4024907E-2,-5.6883716E-3,1.4899558E-2,1.21788215E-2,6E1,-2.8483277E-2,5.31522E-3,-3.1416647E-2,4.1353755E-4],"split_indices":[13,8,0,1,11,7,0,2,5,0,12,1,0,0,1,11,0,0,0,0,0,0,1,0,0,0,0],"split_type":[0,0,0,0,0,0,0,0,0,0,0,0,0,0,0,0,0,0,0,0,0,0,0,0,0,0,0],"sum_hessian":[2.8362535E1,1.9515354E1,8.847181E0,1.2013122E1,7.502233E0,5.26602E0,3.581161E0,8.721499E0,3.2916222E0,2.0829809E0,5.4192524E0,3.6024337E0,1.6635861E0,4.806629E0,3.91487E0,2.17741E0,1.1142123E0,2.0402966E0,3.3789558E0,2.28249E0,1.3199438E0,1.416718E0,2.498152E0,1.1076694E0,1.0697405E0,1.261948E0,1.2362039E0],"tree_param":{"num_deleted":"0","num_feature":"15","num_nodes":"27","size_leaf_vector":"1"}},{"base_weights":[8.013446E-2,-1.5993378E-1,5.829506E-1,-4.3830916E-1,3.2696074E-1,2.2791319E-1,4.3255817E-2,-6.3141316E-1,3.8740396E-2,5.9807636E-2,3.6388915E-2,-5.0911438E-2,2.7943416E-2,-1.1198353E-3,-3.984903E-2,-4.439212E-1,3.5606883E-2,-2.609623E-2,3.3633488E-1,6.2411255E-3,-1.0437278E-2,-2.897335E-2,-4.6425615E-3,3.7819646E-2,-7.8226095E-3],"categories":[],"categories_nodes":[],"categories_segments":[],"categories_sizes":[],"default_left":[0,0,0,0,0,0,0,0,0,0,0,0,0,0,0,0,0,0,0,0,0,0,0,0,0],"id":50,"left_children":[1,3,5,7,9,11,-1,13,15,17,-1,19,-1,-1,-1,21,-1,-1,23,-1,-1,-1,-1,-1,-1],"loss_changes":[3.3867664E0,2.7527323E0,7.076993E-1,1.1921954E0,7.677009E-1,5.2282923E-1,0E0,8.9785504E-1,1.809557E0,1.0820935E0,0E0,1.3212825E-1,0E0,0E0,0E0,1.0287112E-1,0E0,0E0,1.0349071E0,0E0,0E0,0E0,0E0,0E0,0E0],"parents":[2147483647,0,0,1,1,2,2,3,3,4,4,5,5,7,7,8,8,9,9,11,11,15,15,18,18],"right_children":[2,4,6,8,10,12,-1,14,16,18,-1,20,-1,-1,-1,22,-1,-1,24,-1,-1,-1,-1,-1,-1],"split_conditions":[1E0,1E0,1E0,1E0,1E0,1E0,4.3255817E-2,1E0,1E0,1E0,3.6388915E-2,6.1E1,2.7943416E-2,-1.1198353E-3,-3.984903E-2,1E0,3.5606883E-2,-2.609623E-2,6.4E1,6.2411255E-3,-1.0437278E-2,-2.897335E-2,-4.6425615E-3,3.7819646E-2,-7.8226095E-3],"split_indices":[13,8,5,6,3,6,0,0,2,11,0,1,0,0,0,5,0,0,1,0,0,0,0,0,0],"split_type":[0,0,0,0,0,0,0,0,0,0,0,0,0,0,0,0,0,0,0,0,0,0,0,0,0],"sum_hessian":[2.6284632E1,1.8252127E1,8.032505E0,1.1676202E1,6.575925E0,4.3574433E0,3.6750622E0,8.081376E0,3.5948255E0,4.6354904E0,1.9404347E0,2.8242357E0,1.5332074E0,1.9700599E0,6.111316E0,2.2924626E0,1.3023629E0,1.207609E0,3.4278812E0,1.4353064E0,1.3889294E0,1.1845438E0,1.1079186E0,1.5617213E0,1.8661599E0],"tree_param":{"num_deleted":"0","num_feature":"15","num_nodes":"25","size_leaf_vector":"1"}},{"base_weights":[7.787295E-2,-1.9779548E-1,4.6363738E-1,-5.041344E-1,3.8844815E-1,6.899134E-2,4.5757268E-2,-3.9481103E-2,2.3510908E-1,3.705348E-2,-1.3612399E-2,3.8811464E-2,-2.5550756E-1,-9.629246E-3,3.741527E-2,-1.7791476E-2,2.157802E-2,-3.167732E-2,1.4034012E-2],"categories":[],"categories_nodes":[],"categories_segments":[],"categories_sizes":[],"default_left":[0,0,0,0,0,0,0,0,0,0,0,0,0,0,0,0,0,0,0],"id":51,"left_children":[1,3,5,7,9,11,-1,-1,13,-1,15,-1,17,-1,-1,-1,-1,-1,-1],"loss_changes":[3.0351703E0,3.2208362E0,2.045679E0,2.6122983E0,9.097592E-1,1.8958493E0,0E0,0E0,1.0163594E0,0E0,7.5486887E-1,0E0,1.3580704E0,0E0,0E0,0E0,0E0,0E0,0E0],"parents":[2147483647,0,0,1,1,2,2,3,3,4,4,5,5,8,8,10,10,12,12],"right_children":[2,4,6,8,10,12,-1,-1,14,-1,16,-1,18,-1,-1,-1,-1,-1,-1],"split_conditions":[1E0,1E0,1E0,1E0,1E0,6.1E1,4.5757268E-2,-3.9481103E-2,1E0,3.705348E-2,6.5E1,3.8811464E-2,1E0,-9.629246E-3,3.741527E-2,-1.7791476E-2,2.157802E-2,-3.167732E-2,1.4034012E-2],"split_indices":[10,5,7,14,14,1,0,0,6,0,1,0,13,0,0,0,0,0,0],"split_type":[0,0,0,0,0,0,0,0,0,0,0,0,0,0,0,0,0,0,0],"sum_hessian":[2.6678953E1,1.58440275E1,1.0834926E1,1.0498266E1,5.3457613E0,6.3966546E0,4.4382715E0,7.5243115E0,2.9739544E0,2.3987727E0,2.9469886E0,1.5740225E0,4.822632E0,1.9628577E0,1.0110967E0,1.7796297E0,1.1673589E0,2.7219484E0,2.1006835E0],"tree_param":{"num_deleted":"0","num_feature":"15","num_nodes":"19","size_leaf_vector":"1"}},{"base_weights":[1.0420368E-1,-1.4433534E-1,5.216323E-1,-3.7922755E-1,2.6074997E-1,4.2638753E-2,2.8060696E-1,-5.6980157E-1,1.8460129E-1,-2.478439E-1,6.8210715E-1,2.5956022E-2,3.5627846E-2,-4.1831862E-2,-1.1721577E-1,-9.379464E-3,1.9845873E-2,-2.7625693E-2,9.872486E-3,7.5891735E-3,4.045876E-2,-2.0729735E-2,2.147279E-1,1.1642656E-2,-2.9968906E-2,3.6922906E-2,-1.5776882E-2],"categories":[],"categories_nodes":[],"categories_segments":[],"categories_sizes":[],"default_left":[0,0,0,0,0,0,0,0,0,0,0,0,0,0,0,0,0,0,0,0,0,0,0,0,0,0,0],"id":52,