tree
version=v4
num_class=1
num_tree_per_iteration=1
label_index=0
max_feature_idx=24
objective=binary sigmoid:1
feature_names=Column_0 Column_1 Column_2 Column_3 Column_4 Column_5 Column_6 Column_7 Column_8 Column_9 Column_10 Column_11 Column_12 Column_13 Column_14 Column_15 Column_16 Column_17 Column_18 Column_19 Column_20 Column_21 Column_22 Column_23 Column_24
feature_infos=[0:1] [38:86] [0:1] [0:1] [0:1] [0:1] [0:1] [0:1] [0:1] [0:1] [0:1] [0:1] [0:1] [0:1] [0:1] [0:2] [0:2] [0:2] [0:2] [0:2] [0:2] [0:2] [0:2] [0:2] [0:2]
tree_sizes=1738 2248 2774 2873

Tree=0
num_leaves=17
num_cat=0
split_feature=17 20 22 1 13 16 1 13 12 1 16 1 1 1 1 1
split_gain=164.083 35.4599 30.1936 6.50159 6.87619 4.63668 4.99074 4.27527 10.6368 12.9067 1.18983 1.17056 0.971264 0.263801 0.0452381 0.151961
threshold=1.0000000180025095e-35 1.5000000000000002 1.0000000180025095e-35 63.500000000000007 1.0000000180025095e-35 1.0000000180025095e-35 58.500000000000007 1.0000000180025095e-35 1.0000000180025095e-35 63.500000000000007 1.0000000180025095e-35 60.500000000000007 56.500000000000007 68.500000000000014 59.500000000000007 61.500000000000007
decision_type=2 2 2 2 2 2 2 2 2 2 2 2 2 2 2 2
left_child=1 5 3 4 -2 12 -7 8 9 -4 -10 -6 -1 14 -14 -16
right_child=2 -3 7 -5 11 6 -8 -9 10 -11 -12 -13 13 -15 15 -17
leaf_value=-0.26666666666666666 -0.34285714285714297 0.40000000000000002 0.39999999999999974 0.23999999999999999 0.10909090909090907 -0.40000000000000002 -0.049999999999999989 0.40000000000000002 0.27999999999999997 -0.18666666666666665 0.39999999999999991 -0.079999999999999974 -0.39999999999999986 -0.32727272727272733 -0.35294117647058831 -0.39999999999999997
leaf_weight=2.9999999999999991 3.4999999999999982 2.7499999999999991 2.5000000000000009 2.4999999999999991 2.75 2.7499999999999991 4 17.75 4.9999999999999991 3.75 9.75 2.5 14.250000000000005 2.7499999999999991 4.2499999999999982 7.75
leaf_count=12 14 11 10 10 11 11 16 71 20 15 39 10 57 11 17 31
internal_value=0 -0.293976 0.244 -0.0444444 -0.125714 -0.343226 -0.192593 0.327742 0.266667 0.048 0.359322 0.0190476 -0.375 -0.386207 -0.392381 -0.383333
internal_weight=91.5 41.5 50 11.25 8.75 38.75 6.75 38.75 21 6.25 14.75 5.25 32 29 26.25 12
internal_count=366 166 200 45 35 155 27 155 84 25 59 21 128 116 105 48
is_linear=0
shrinkage=0.2


Tree=1
num_leaves=20
num_cat=0
split_feature=15 9 19 0 7 7 13 21 14 21 13 14 19 10 9 15 0 20 13
split_gain=113.055 28.7002 19.775 14.0407 5.65804 3.65823 7.34569 3.24197 0.372804 0.306226 0.888707 0.202616 0.0758685 0.0727765 0.0450976 0.0262158 0.00914912 0.003039 0.00179652
threshold=1.0000000180025095e-35 1.0000000180025095e-35 1.0000000180025095e-35 1.0000000180025095e-35 1.0000000180025095e-35 1.0000000180025095e-35 1.0000000180025095e-35 1.0000000180025095e-35 1.0000000180025095e-35 1.5000000000000002 1.0000000180025095e-35 1.0000000180025095e-35 1.0000000180025095e-35 1.0000000180025095e-35 1.0000000180025095e-35 1.5000000000000002 1.0000000180025095e-35 1.5000000000000002 1.0000000180025095e-35
decision_type=2 2 2 2 2 2 2 2 2 2 2 2 2 2 2 2 2 2 2
left_child=1 11 4 8 -2 6 -4 -6 -3 14 -11 12 -1 -13 18 -8 -12 -16 -7
right_child=2 3 5 -5 7 9 15 -9 -10 10 16 13 -14 -15 17 -17 -18 -19 -20
leaf_value=-0.31405089930505747 -0.201039455460257 0.26029452001515957 0.041668121069387512 -0.22609106725097147 -0.054820817088103248 0.36397848561101104 0.36025643167839494 0.27234026021853536 0.37086807062913008 0.20701237736683381 0.34956825778449541 -0.37535549182778016 -0.28306354230189462 -0.32918892355905938 0.33406401264827151 0.33406401264827146 0.33406401264827146 0.34140548935018356 0.35648038833136325
leaf_weight=25.107066884636883 4.6251229643821699 2.4271203577518445 6.3452421724796277 3.1447488069534302 2.4313567131757736 2.4391528367996207 2.4426308423280716 2.4149545729160309 2.4516334533691406 2.9174470007419586 2.4271176308393478 2.7195328176021567 3.6156069338321677 2.7438908964395523 6.0065187513828278 4.0844327509403229 4.0844327509403229 3.6114853024482727 2.6853722184896469
leaf_count=104 19 10 26 13 10 10 10 10 10 12 10 11 15 11 25 17 17 15 11
internal_value=2.79608e-05 -0.23697 0.215088 0.103446 -0.0428057 0.281027 0.194901 0.108206 0.315859 0.326892 0.298744 -0.316865 -0.31015 -0.352169 0.344895 0.343866 0.339843 0.336821 0.360049
internal_weight=88.7249 42.2096 46.5153 8.0235 9.47143 37.0438 12.8723 4.84631 4.87875 24.1715 9.429 34.1861 28.7227 5.46342 14.7425 6.52706 6.51155 9.618 5.12453
internal_count=366 174 192 33 39 153 53 20 20 100 39 141 119 22 61 27 27 40 21
is_linear=0
shrinkage=0.2


Tree=2
num_leaves=25
num_cat=0
split_feature=18 5 19 17 21 24 6 12 5 1 6 1 10 1 10 18 19 3 5 3 1 1 12 21
split_gain=77.3606 22.2189 13.638 8.87315 6.92893 3.92573 2.89956 3.03133 8.30639 1.14178 0.611758 0.740782 0.355934 0.261379 0.0584554 0.0252074 0.0182434 0.00757793 0.00321499 0.00250548 0.00087911 0.000420211 0.000689804 7.34997e-06
threshold=1.0000000180025095e-35 1.0000000180025095e-35 1.0000000180025095e-35 1.0000000180025095e-35 1.0000000180025095e-35 1.0000000180025095e-35 1.0000000180025095e-35 1.0000000180025095e-35 1.0000000180025095e-35 59.500000000000007 1.0000000180025095e-35 60.500000000000007 1.0000000180025095e-35 56.500000000000007 1.0000000180025095e-35 1.5000000000000002 1.0000000180025095e-35 1.0000000180025095e-35 1.0000000180025095e-35 1.0000000180025095e-35 61.500000000000007 59.500000000000007 1.0000000180025095e-35 1.5000000000000002
decision_type=2 2 2 2 2 2 2 2 2 2 2 2 2 2 2 2 2 2 2 2 2 2 2 2
left_child=1 10 -3 4 5 -2 7 8 -5 -9 13 -12 -11 -1 16 18 21 -14 -8 -17 -4 -15 -23 -21
right_child=3 2 20 6 -6 -7 15 9 -10 12 11 -13 17 14 -16 19 -18 -19 -20 23 -22 22 -24 -25
leaf_value=-0.23250438316290239 -0.30883952885465532 -0.16964525124442301 0.32208288467753438 -0.093710945342209334 0.2623187009623239 0.028256449875671021 0.32113455109472422 0.12516275259291437 0.304013301208509 0.21497040140998955 -0.12995073146960121 -0.26570730136649401 0.30055842469096894 -0.29793133403934341 -0.27081150172435453 0.30211485183701381 -0.31303695652506325 0.31379319012959977 0.31119779879852788 0.29509524246101443 0.31657740733777961 -0.29793133403934363 -0.30279717341892354 0.29558974171143093
leaf_weight=2.711074233055121 2.5087307095527631 4.4873083680868131 2.3380914479494095 4.4239461869001389 2.8004643470048904 3.0765524655580521 2.5002415627241108 2.2411973625421533 3.9991889446973801 2.2394013255834562 2.2583327442407599 5.5813602954149246 3.7769437879323959 9.0469696223735863 2.6739060580730429 4.005129337310791 4.8141106665134421 3.1939209699630737 2.7185732871294022 2.4023879617452621 2.3027692437171936 2.4272357523441306 2.2416861057281494 2.4068321138620377
leaf_count=12 11 19 10 18 12 13 11 10 18 10 10 25 17 41 11 18 21 14 12 11 10 11 10 11
internal_value=0.000146789 -0.196034 0.0789658 0.189784 0.0055751 -0.123156 0.235341 0.186196 0.0951231 0.253185 -0.275085 -0.226601 0.284338 -0.290979 -0.298455 0.304942 -0.302444 0.306622 0.315958 0.29842 0.319351 -0.298727 -0.300268 0.295343
internal_weight=83.1764 40.8828 9.12817 42.2935 8.38575 5.58528 33.9078 19.8746 8.42314 11.4515 31.7547 7.83969 9.21027 23.915 21.2039 14.0332 18.53 6.97086 5.21881 8.81435 4.64086 13.7159 4.66892 4.80922
internal_count=366 180 39 186 36 24 150 87 36 51 141 35 41 106 94 63 83 31 23 40 20 62 21 22
is_linear=0
shrinkage=0.2


Tree=3
num_leaves=26
num_cat=0
split_feature=15 17 20 12 4 7 17 1 1 6 1 12 7 23 22 13 23 17 1 23 20 6 1 6 1
split_gain=56.4038 11.3806 9.28942 8.54146 6.04173 7.82578 4.42833 3.23573 3.82501 0.705571 1.06434 0.390233 1.21623 0.201994 0.0180339 0.00759374 0.00514906 0.00826198 0.00382763 0.00261605 0.00156379 0.00143859 0.00137109 0.000400391 1.90914e-06
threshold=1.0000000180025095e-35 1.0000000180025095e-35 1.0000000180025095e-35 1.0000000180025095e-35 1.0000000180025095e-35 1.0000000180025095e-35 1.0000000180025095e-35 61.500000000000007 67.500000000000014 1.0000000180025095e-35 60.500000000000007 1.0000000180025095e-35 1.0000000180025095e-35 1.0000000180025095e-35 1.0000000180025095e-35 1.0000000180025095e-35 1.5000000000000002 1.5000000000000002 57.500000000000007 1.5000000000000002 1.5000000000000002 1.0000000180025095e-35 59.500000000000007 1.0000000180025095e-35 62.500000000000007
decision_type=2 2 2 2 2 2 2 2 2 2 2 2 2 2 2 2 2 2 2 2 2 2 2 2 2
left_child=1 9 -2 -3 5 7 -7 -4 -9 11 -11 12 15 -6 -15 -1 17 21 -13 20 -16 -8 -20 -22 -21
right_child=2 3 4 -5 13 6 16 8 -10 10 -12 18 -14 14 19 -17 -18 -19 22 24 23 -23 -24 -25 -26
leaf_value=-0.27414255432801782 -0.14588282471744105 -0.23172434039753995 0.1494353038667337 0.2394301029465413 0.34171151866297217 0.02687662804326485 0.27823306842755696 -0.3037531587199227 0.049291208563923078 -0.080755390761731424 -0.23817164872462784 -0.28301648292679854 -0.12058090676752964 0.29332958439524681 0.27302172731874957 -0.28990154072085939 0.27031432418778079 0.29023325766131353 -0.27269955071100338 0.27066523831918049 0.27751244310330042 0.27134315724587749 -0.27738330200152361 0.28150026852278115 0.27038372253455972
leaf_weight=2.5647848397493407 3.5752992480993262 2.5167523473501197 2.311761975288392 3.9620486348867416 2.3928256183862677 3.8911316394805917 2.8145030289888364 2.6047442406415939 2.3216649144887924 2.6067038029432288 5.0397865623235703 2.4769866466522226 3.0361733138561249 2.5867793709039679 2.3476552665233594 2.3380647003650665 3.4639438092708588 2.1025298237800598 7.2342680692672712 1.9290292263031008 2.0048200488090515 2.1292337030172348 3.8201301395893097 2.0236668288707733 1.9253379255533216
leaf_count=13 16 11 10 19 11 17 14 11 10 12 25 12 15 12 12 11 18 10 37 10 10 11 19 10 10
internal_value=0.000254738 -0.183333 0.161911 0.0564056 0.191774 0.12388 0.209147 -0.0457716 -0.137374 -0.236678 -0.184508 -0.255257 -0.220056 0.288369 0.27841 -0.281658 0.276628 0.279732 -0.27591 0.274638 0.277125 0.275266 -0.274318 0.279516 0.270525
internal_weight=76.0206 35.5957 40.4249 6.4788 36.8496 21.6395 14.4013 7.23817 4.92641 29.1169 7.64649 21.4704 7.93902 15.2101 12.8173 4.90285 10.5102 7.04627 13.5314 10.2305 6.37614 4.94374 11.0544 4.02849 3.85437
internal_count=366 174 192 30 176 101 70 31 21 144 37 107 39 75 64 24 53 35 68 52 32 25 56 20 20
is_linear=0
shrinkage=0.2


end of trees

feature_importances:
Column_1=19
Column_13=6
Column_6=5
Column_12=5
Column_17=5
Column_7=4
Column_19=4
Column_20=4
Column_21=4
Column_5=3
Column_10=3
Column_15=3
Column_23=3
Column_0=2
Column_3=2
Column_9=2
Column_14=2
Column_16=2
Column_18=2
Column_22=2
Column_4=1
Column_24=1

parameters:
[boosting: gbdt]
[objective: binary]
[metric: custom]
[tree_learner: serial]
[device_type: cpu]
[data_sample_strategy: bagging]
[data: ]
[valid: ]
[num_iterations: 10000]
[learning_rate: 0.2]
[num_leaves: 63]
[num_threads: 0]
[seed: 1236]
[deterministic: 0]
[force_col_wise: 0]
[force_row_wise: 0]
[histogram_pool_size: -1]
[max_depth: -1]
[min_data_in_leaf: 10]
[min_sum_hessian_in_leaf: 0.001]
[bagging_fraction: 1]
[pos_bagging_fraction: 1]
[neg_bagging_fraction: 1]
[bagging_freq: 0]
[bagging_seed: 21709]
[bagging_by_query: 0]
[feature_fraction: 0.5]
[feature_fraction_bynode: 1]
[feature_fraction_seed: 24116]
[extra_trees: 0]
[extra_seed: 15571]
[early_stopping_round: 0]
[early_stopping_min_delta: 0]
[first_metric_only: 0]
[max_delta_step: 0]
[lambda_l1: 0]
[lambda_l2: 0]
[linear_lambda: 0]
[min_gain_to_split: 0]
[drop_rate: 0.1]
[max_drop: 50]
[skip_drop: 0.5]
[xgboost_dart_mode: 0]
[uniform_drop: 0]
[drop_seed: 15722]
[top_rate: 0.2]
[other_rate: 0.1]
[min_data_per_group: 100]
[max_cat_threshold: 32]
[cat_l2: 10]
[cat_smooth: 10]
[max_cat_to_onehot: 4]
[top_k: 20]
[monotone_constraints: ]
[monotone_constraints_method: basic]
[monotone_penalty: 0]
[feature_contri: ]
[forcedsplits_filename: ]
[refit_decay_rate: 0.9]
[cegb_tradeoff: 1]
[cegb_penalty_split: 0]
[cegb_penalty_feature_lazy: ]
[cegb_penalty_feature_coupled: ]
[path_smooth: 0]
[interaction_constraints: ]
[verbosity: -1]
[saved_feature_importance_type: 0]
[use_quantized_grad: 0]
[num_grad_quant_bins: 4]
[quant_train_renew_leaf: 0]
[stochastic_rounding: 1]
[linear_tree: 0]
[max_bin: 255]
[max_bin_by_feature: ]
[min_data_in_bin: 3]
[bin_construct_sample_cnt: 200000]
[data_random_seed: 4074]
[is_enable_sparse: 1]
[enable_bundle: 1]
[use_missing: 1]
[zero_as_missing: 0]
[feature_pre_filter: 1]
[pre_partition: 0]
[two_round: 0]
[header: 0]
[label_column: ]
[weight_column: ]
[group_column: ]
[ignore_column: ]
[categorical_feature: ]
[forcedbins_filename: ]
[precise_float_parser: 0]
[parser_config_file: ]
[objective_seed: 10917]
[num_class: 1]
[is_unbalance: 0]
[scale_pos_weight: 1]
[sigmoid: 1]
[boost_from_average: 1]
[reg_sqrt: 0]
[alpha: 0.9]
[fair_c: 1]
[poisson_max_delta_step: 0.7]
[tweedie_variance_power: 1.5]
[lambdarank_truncation_level: 30]
[lambdarank_norm: 1]
[label_gain: ]
[lambdarank_position_bias_regularization: 0]
[eval_at: ]
[multi_error_top_k: 1]
[auc_mu_weights: ]
[num_machines: 1]
[local_listen_port: 12400]
[time_out: 120]
[machine_list_filename: ]
[machines: ]
[gpu_platform_id: -1]
[gpu_device_id: -1]
[gpu_use_dp: 0]
[num_gpu: 1]

end of parameters

pandas_categorical:null
